820 64
537 -0.04786766 0.14959939 0.33314887 -0.27311206 -0.35400504 0.07627014 0.59303284 0.7993534 0.022608552 0.98685914 -0.90566343 0.57831 -0.10771432 0.052611433 -0.23691367 -0.9639874 0.043919805 -1.0362366 -0.34651217 -0.8459707 -0.0654189 -0.9608549 -0.61309785 1.0053295 -0.7678515 -0.42713153 -0.626716 -0.28977922 0.8926358 -0.059361022 0.3784809 0.6012871 -0.21319003 -0.144611 -0.19162908 0.8836058 -0.2655682 -0.80243534 0.7086975 -0.6192399 0.3741181 1.0050714 -0.28072596 -0.04240849 -0.009258437 0.9157038 -0.8402297 -0.03186298 0.44194645 -0.3373876 -0.92388535 -0.6565043 0.8451319 0.77384645 0.64034414 1.058836 0.56644946 -0.44076368 0.15539537 0.6757387 0.73653793 -0.31952828 -0.07654173 -0.66919374
635 -0.17620026 0.44316095 0.21431443 -0.8135387 0.06453099 -0.3229775 0.66013944 0.3392506 -0.31600243 0.5165957 -0.22369006 -0.7244892 -0.8501005 -0.15615341 0.86969113 -0.012835668 -0.50637376 -1.6328797 0.52196383 0.19852361 -0.22534756 -0.31825554 -0.6672599 0.24301514 -0.4515872 0.7166542 -0.22488016 -1.114141 0.70737016 0.41401625 0.12812118 1.5974878 0.4409231 -0.5329441 -0.20105553 0.6501545 1.4589393 -0.042591706 0.4349687 0.9287387 0.25801873 0.87708056 0.7318966 0.34067035 0.28698066 0.5912495 -0.7274535 0.15520889 -0.006158797 -0.71645904 -0.90338254 0.07829193 0.47162172 0.42753324 0.36042827 0.085420534 0.7715224 0.26470482 -0.8229557 -0.36076367 0.48149207 -0.49039406 0.5094963 0.1698168
14 -0.15573396 -0.33400348 0.35391042 0.09537423 0.018998351 0.23702101 -0.42605498 -0.6256762 -0.871545 0.0036822828 -0.79196626 -0.4244435 -0.6950907 -0.032803655 0.06404879 0.14380021 0.68408805 -0.7741873 0.51120406 0.21152768 -0.90970093 0.53316706 0.1921595 0.42435962 -1.0630597 -0.14759798 -0.5442521 -0.41280523 1.0334638 -0.2279535 0.02936833 1.2696788 -0.26977658 0.24129286 0.38586658 -0.2740827 -0.06630116 -0.4854521 0.41483796 0.12580885 -0.06526483 0.85862356 -0.06096847 0.0945892 -0.016985888 -0.40982565 0.14663537 -0.34744474 0.2074779 -0.2493735 -0.8320657 -0.012354919 0.5613935 1.4459704 0.1432089 0.93170375 -0.073029265 -0.98620474 -0.6684597 -0.054969 -0.20636487 -0.6349657 1.2944435 -0.2751668
202 -0.35274386 0.7323225 0.4337898 -0.5009146 -0.039495174 0.42421702 0.1299999 0.14498138 0.020305088 -0.3573878 -1.0662732 -0.5472563 0.02525322 0.16043647 0.54007614 -0.096169986 -0.6233273 -0.9353321 -0.40884104 0.07752516 0.26682606 -1.1499507 0.14547274 1.9978504 -0.6872122 -0.17166078 -0.7072607 -0.50107986 0.58553845 0.35516274 -0.05808118 0.5784681 0.14337687 0.62584305 0.37190396 -0.21835744 -0.41561684 -0.7373994 0.04498071 1.2447889 0.5081404 -0.4027165 0.23303044 -0.10895521 0.500331 -0.2221 -0.88173395 -1.0506451 0.19991532 0.22414763 -0.75434697 0.12359805 0.6765225 0.5333673 1.2271377 0.52545416 0.41665414 -0.24379249 0.21669197 -0.2848291 -0.012856792 -1.1463118 1.1375494 -0.4033716
358 -0.30538085 0.15173961 0.8046613 -0.92053753 -0.7995164 -0.3521447 0.6096193 0.6098202 0.092777625 1.3769385 0.067695506 -0.36145025 0.26755443 -0.47864696 -0.26263362 -0.722214 0.2899135 -1.0428355 0.38797447 0.23982187 0.26504415 -0.74481255 -0.16510756 0.113622725 -1.5886073 0.21917962 -0.6241843 -1.1502185 0.527641 0.3689445 -0.49864504 1.3325745 0.50827545 0.5090383 0.18195008 -0.5485919 0.34245002 -0.2618853 0.7387601 -0.030460533 0.839672 -0.20003211 0.29102832 -0.65121824 -0.29641652 -0.40017253 0.20410709 0.28820446 -0.052175544 -0.72812164 -0.73758507 0.38968578 -0.05916419 -0.12862743 0.54383427 0.90974617 0.25555745 -0.8906798 -0.2931559 0.08502969 -0.13334253 -0.517521 1.0606303 -0.28238553
487 0.07307625 -0.27562168 -0.13824463 0.17404781 -0.23023511 0.14627276 0.9208146 1.0172702 -0.050019205 0.21565573 -0.68633753 0.11750298 -0.6772612 -0.7742964 0.6123628 -0.115297966 -0.67145735 -0.43010208 0.92487365 0.36175367 -0.17211448 -0.6150308 -0.414534 1.3429141 -0.7173895 0.21652344 0.13132557 -0.31539947 0.26563886 1.3163028 0.3818163 0.43132296 0.21707305 1.0952733 -0.32047594 -0.41816562 0.8045773 -0.5334856 0.45634916 -0.11996542 -0.4924634 0.24900296 0.50748605 -0.40245754 -0.33377078 -0.7593913 0.24661031 -0.347858 -0.217751 0.09160296 -1.0058196 -0.041159734 0.82386166 0.16325197 0.905074 0.5130391 -0.09944854 -0.37419432 -0.38675806 -0.110665254 0.6942627 -0.8204574 1.4195575 -0.8989862
17 -0.19782996 -0.49183437 -0.28745618 -0.110932365 0.43822917 0.3145511 0.059843816 -1.0518146 -0.46331787 0.3273136 -0.47377837 -0.08591471 -0.46891588 -0.3039366 -0.24819872 0.35225958 0.7568006 -0.68160737 0.33161712 0.2781165 -0.9958773 0.29949108 -0.01853558 0.16236798 -1.0986799 0.15658905 -0.2200666 -0.7711258 1.1284298 -0.34305397 0.33770517 1.0727298 -0.5351713 0.12706964 0.4242914 0.27614623 0.14880152 -0.36457056 0.12755358 0.39596897 0.22091965 1.1584704 -0.042073403 0.36761153 -0.09753624 -0.13441335 0.36091807 -0.7999583 0.4990155 -0.6453641 -0.9459901 -0.33482945 0.7407521 1.0251708 -0.15783314 0.899784 0.42728 -0.07888325 -0.9091771 -0.076914705 0.003292523 -0.80586696 1.2935721 -0.1451228
406 0.29771596 -0.31536737 0.6014865 -0.5441414 0.15562019 -0.66950166 -0.675608 1.0987245 -0.25517365 0.24742587 -0.49087924 -0.7588994 -0.39101568 -0.17098856 -0.33143836 0.2829889 0.6847762 -0.50388724 0.11229536 -0.6666764 -0.54779965 -0.866073 -0.39373842 0.402666 -0.31886432 0.46319216 -0.46912354 -0.37323046 0.080237664 1.618573 0.5226568 1.0665469 -0.10302169 0.24697421 1.0729527 -0.17067261 -0.55680776 -0.2518826 1.0284343 0.35486308 -0.25185168 1.2141736 0.022602271 -0.24580608 0.29702595 0.22579536 0.09752305 -0.89341193 0.21119262 -0.6336698 -0.86935925 -0.24716252 -0.33264452 0.018125523 0.39149994 -0.5271474 1.032657 -0.5816975 -0.027602449 0.15745509 1.070922 -0.79631925 0.84358287 -0.15808317
558 0.4680082 -0.40100268 0.4115471 -0.44786343 0.44343004 0.38626426 0.17642187 0.88819844 -1.191895 0.8516028 -1.0559295 -0.6632657 -0.36391032 0.494624 0.7045196 0.34170473 0.038460143 0.08171054 0.32148597 0.6358388 -0.546249 -0.9575453 0.30202216 1.0691613 -0.50749487 -1.1298056 -0.8172813 -1.0403305 0.38271976 0.22034423 0.12640062 1.0076834 0.30424395 -0.063057266 0.44499257 0.71156025 0.3513983 0.037281364 0.5650428 -0.30496117 0.9634791 0.5615712 -0.34210357 -0.28930023 0.5349529 -0.60815334 0.09570692 -0.6930115 -0.6231061 0.40546224 -0.5208494 0.74148804 0.61120296 0.6040172 -0.06307083 0.1953546 -0.18281299 0.429502 -0.9081337 0.58776134 0.022292279 -0.8186537 1.1008244 -0.088089325
655 -0.29042068 0.39280513 0.22663791 0.23094285 0.89185447 0.41499668 -0.46862027 0.5083391 0.38680482 1.0801408 -1.0502443 0.14383799 0.00297423 -0.7218134 -0.22301926 -0.74569416 -0.08906317 -0.67971134 1.2679026 -0.5770747 -0.2149428 -0.24823856 -0.16560747 0.17528626 0.08412761 -0.30489144 -0.90661633 -1.0342184 0.21568613 0.9082982 -0.32299972 0.62836826 0.17745253 0.93314326 0.2653937 -0.62543905 0.28178298 -0.61123955 0.02111805 0.52812195 0.9456877 0.67289776 0.0565659 -0.6457494 -0.30852008 -0.34989694 -0.32788077 -0.01259607 0.5920355 -0.20021087 -0.2750995 -0.862869 0.61474264 -0.12386061 0.32414 0.67856675 0.57189363 -0.8351948 -1.2198567 -0.19853601 0.19270994 -0.40660483 0.2516883 -1.3033935
20 0.07974724 -0.12275268 -0.05617245 -0.10857035 -0.01233484 0.09824499 -0.12267558 -0.51732886 -0.31583205 0.36394224 -0.41195133 0.1700469 -0.9307654 0.0044664387 -0.27763557 -0.029240549 0.6307792 -0.56943476 0.20686243 -0.11563671 -0.7834714 0.10704398 0.361501 0.54555345 -0.7912177 -0.016611015 -0.40149418 -0.2987349 1.130219 -0.016155919 0.29797316 1.383059 -0.63465005 0.35555437 0.5178952 -0.13966145 0.47370422 -0.5185257 0.26903358 -0.08219584 -0.27619964 0.9990422 -0.14774391 0.7659314 0.004624557 -0.32169798 0.6275812 -0.3904431 -0.044490233 -0.37648106 -1.0724726 -0.50490165 0.7974382 1.3077682 0.23905502 1.2831464 0.10405176 -0.73946404 -1.1462622 0.3348237 -0.082857475 -0.7875593 0.82842857 -0.59098667
454 0.03765759 -0.05931245 0.11268922 0.10504059 0.17187643 0.71073306 0.86356515 -0.30861908 0.19129363 0.6043274 0.06656402 0.36709797 0.10020586 -0.67105347 -0.46354407 0.6139184 -0.5476731 -0.669972 0.68483174 -0.7147513 -0.66544366 -1.3285711 -0.1573848 0.6765183 -0.19833657 0.0068506356 0.18547693 -0.405706 1.1268247 0.97916186 0.33280015 0.62015855 0.6181613 -0.019372895 0.48800522 -0.39630106 -0.472107 -0.16235103 -0.1276964 0.30559266 1.2209269 0.5391424 -0.6020235 -0.41048393 0.5827566 1.005892 -0.2020619 0.33399335 -0.2592065 0.098432474 -0.3896722 0.08974492 0.68711495 0.61858714 0.28226373 0.11181224 -0.105780005 -0.6641965 -0.10454947 -0.36322474 -0.06788472 -1.178215 1.5589868 -0.606822
451 -0.2285782 0.0821307 0.44123182 0.4298982 0.07806849 0.34228453 0.67937595 0.122690775 0.081344455 0.5304456 0.45864967 0.057464655 -0.15343902 -0.6522686 -0.48912612 0.5054709 -0.27160546 -0.38688335 0.35542506 -1.108648 -0.3531024 -1.5506191 0.016444283 0.5872656 -0.43960342 0.112310566 -0.42562968 -0.5227828 0.584418 0.85008454 0.5767032 0.82257026 0.5053307 -0.18380494 0.43950835 -0.2302166 -0.5197673 -0.18455012 0.09804868 0.65261227 1.0317904 0.3667775 -0.3831447 -0.5673119 0.526101 1.0866119 -0.60677737 0.5383333 -0.14629379 -0.0143590225 -0.4261875 0.49938685 0.6020178 0.37936014 0.39261907 0.7959985 -0.024948787 -0.6882466 -0.012576864 -0.5060129 0.47665524 -1.1578747 1.5844885 -0.54109544
414 -0.094845116 -0.23925725 0.5765538 -1.0988976 0.9514702 0.067730986 0.7973785 0.40495455 -0.59219784 0.93698823 0.22216634 -0.67693305 0.14878866 0.35453427 0.7442449 -0.84032625 0.10178098 -0.6917116 0.2633558 0.2050604 -1.05745 -1.0211902 -0.7936456 0.57337695 -0.5696111 0.58873194 -0.28314215 -0.7037504 0.51931965 0.80216515 0.5202203 0.85666585 -1.1427186 -0.56755203 0.6306894 0.27489626 0.055654634 0.16397582 0.078480795 -0.1826942 0.98971575 0.6887141 1.4124521 0.124693274 0.34892485 -0.122515224 0.215811 -0.6862428 1.0160261 -0.42675045 0.09895445 -0.40998912 0.5655609 -0.073990166 0.21833962 -0.30512273 -0.4408052 -1.0113533 -0.4998746 0.13651676 0.00089723896 -0.9972716 0.95966125 -0.29601607
285 0.056807335 -0.7163609 -0.15182643 -0.37119478 0.012054442 -0.5911559 1.0280257 0.6371006 0.48644388 0.5574336 -0.3695062 -0.59162897 0.44996157 -0.5468788 0.37549612 -0.17536595 0.32973617 -0.96446997 0.23488663 -0.19728504 -0.14252792 -1.0776002 0.13855837 0.53396136 -0.9009483 -0.89195067 -0.49516916 -0.4725157 0.48510247 1.0239421 0.13534652 1.1374543 0.090713516 -0.17751217 -0.078804776 0.22018507 0.6412361 -0.23311208 -0.26562697 1.109542 0.30390748 1.1734207 -0.89534694 -0.28538203 0.6398995 0.1793696 -0.98099047 -0.19962116 0.94158894 -0.7272382 -0.065231815 -0.93280876 -0.20112368 -0.47981206 0.31992996 0.05376783 0.44489285 0.008306797 -0.7030879 0.15462062 0.16562305 -0.847883 0.80772537 -0.53219485
312 -0.16023539 0.017823594 0.045593776 0.115498774 0.42223033 0.23166178 0.30564448 0.027205985 -1.1169187 1.0625333 -0.08883238 -0.31463802 -0.012491439 -0.852008 1.0628034 0.72211075 -0.52824277 -0.8181447 0.24815975 -0.8522492 -0.9983056 -0.6483782 0.26101774 1.1717782 -1.0898978 -0.4453713 -0.8311399 -0.8572949 1.0027982 0.99277043 0.27829754 0.74685884 -0.32470977 -0.16757895 0.0004479845 0.5891405 0.44131804 0.08823275 0.25481734 -0.009902992 0.039755717 -0.010377066 0.16800289 -0.07259776 0.5062833 0.07598579 0.49750692 -0.48129874 -0.08751432 -0.48343754 -0.24196798 -0.91628516 0.84602994 -0.098252594 -0.69615495 0.815697 -0.100969926 -0.26666576 -0.33245948 -0.25949776 0.99162877 -1.3021377 0.02108068 -0.69632196
50 -0.06324532 -0.2621762 0.65965474 -1.0049945 0.9135354 0.21411349 0.8307189 0.28635782 -0.41891626 0.9022389 0.2638688 -0.65603817 0.17529811 0.42680836 0.6918728 -0.92950827 0.23938921 -0.73604435 0.18385875 0.3405359 -0.9733166 -0.82738614 -0.76989627 0.35716093 -0.24790916 0.47329575 -0.4581642 -0.8585225 0.48774034 0.5779987 0.507438 0.9677868 -1.2107533 -0.35156214 0.46004102 0.090925366 0.019764915 0.034663405 0.10344113 -0.19689678 1.0936977 0.786203 1.3307728 0.10342006 0.23403229 -0.14535427 0.21154651 -0.7242851 0.9964968 -0.58564454 -0.23270626 -0.57741183 0.66113627 0.057525314 0.2636969 -0.34688532 -0.5193497 -1.0895506 -0.67209965 -0.075089805 -0.04926903 -0.90530694 0.9498239 -0.20203164
111 0.1335465 -0.021232542 0.3705003 0.30204532 0.17233294 0.74682933 0.11887707 0.663906 0.0652773 -0.33463848 -0.2850089 -0.52517796 -0.053882856 -1.1431819 0.32879832 -0.66600055 -0.087189846 -0.4941551 -0.5289757 0.022797085 -0.8393335 -0.32856762 -0.9729152 1.0356592 -0.46538234 0.13451126 -0.29504132 -0.083196886 0.30576074 0.7801465 0.91250753 0.56570596 0.14307898 1.1204001 0.037702862 0.4781786 -0.52212584 -0.6154933 0.6841605 0.072736725 1.299444 1.2002566 1.0843534 -0.5130444 -0.12182739 0.035601925 -1.2104249 -0.372826 -0.34825495 -1.192512 -0.6332286 0.26041824 0.34059918 0.43694222 0.72818124 0.12253108 -0.33346394 -0.9320998 0.55447257 -0.36784676 -0.09931912 -1.0150586 0.6292175 0.12429491
584 -0.40211532 -0.36468396 0.9676236 -0.19742483 1.1339722 0.36521953 0.75967985 0.5606844 -0.62438256 0.6292931 -1.386755 -0.31559718 -0.53314006 0.40862516 -0.06347566 -0.6778374 -0.5231317 -1.3489038 0.08460234 -0.52020407 0.20620798 -0.4152055 -0.63873446 0.7204859 -0.94374716 0.14719474 -0.766564 -0.4131052 0.11450133 1.0190051 0.35525712 1.4207716 -0.21272479 0.401243 0.62379605 -0.5201864 -0.8757834 -0.16106836 0.35801387 0.33607987 0.59619087 0.5749236 -0.5203103 0.30661333 -0.17855163 -0.16405155 -0.1234 -0.30624035 -0.20437026 0.24357837 0.044411093 -0.8518625 0.9600746 0.35116294 0.029309455 0.5688843 -0.46192506 0.2155627 -1.2652004 0.41316566 0.24220528 0.16034871 0.40271166 0.45513293
78 -0.074286796 0.32546774 0.22430968 -0.710646 -0.16803405 0.65460974 0.2212426 1.4003603 -0.8370297 0.010051985 -0.32059523 -0.03242259 -0.660362 0.002881542 0.853096 0.10460062 0.3924364 -0.62313974 0.34517956 -1.0109041 0.5610065 -0.58104265 -0.2888062 -0.15467082 -1.0509951 0.2651341 -0.9593519 -0.2983047 0.13734637 0.16952026 0.109040365 1.1730921 0.21938688 0.43545017 0.2476899 0.14187995 0.15353636 0.1781671 -0.00721031 0.04749074 0.49167868 0.3866407 0.055845976 -0.65674347 -0.5739681 0.6988003 -0.49897856 0.033022024 0.4117248 0.051057518 -1.3389099 -0.9777682 0.58614933 -0.08108201 -0.3720617 0.47237244 0.29715297 0.15204778 -0.9893988 -0.2804269 -0.40876344 -1.4827343 0.9707927 -0.28203326
410 0.26225793 0.0078124036 -0.4862254 -0.74510366 0.07206378 0.5127632 0.2689108 1.0461816 -0.29526925 0.32177243 0.031967133 -0.7201127 -0.1689296 -1.1329615 0.21898022 0.0480027 0.56637204 0.022933349 -0.0023720483 0.07494869 -0.65113336 -0.4432711 -0.52306086 0.48680034 -0.29370588 -0.3710422 -1.344737 0.015484646 1.0097218 0.9011951 -0.41186774 1.0510467 0.15150076 0.30963394 -0.318645 0.74221283 0.31704524 -0.93136394 -0.51315135 0.1602737 1.6051815 0.56123537 0.46655118 -0.3071631 0.18597674 -0.21090274 -0.021881685 -1.357168 -0.14838846 -0.8373979 -0.92076916 -0.6223224 -0.22642417 0.24746086 0.07005172 -0.8758148 0.95576143 -0.372006 0.13410018 0.24620979 0.27359504 -0.24187632 1.4476444 -0.42826712
630 0.04561849 0.59145033 0.38885045 -1.0559117 -0.19362706 0.044134334 0.8484128 0.3912397 -0.51497906 0.97717655 -0.13011436 -0.5087101 -0.21572863 -0.8404954 0.2708432 -0.61214846 0.500193 -0.84933865 1.1946241 -0.8534509 0.41366097 0.052591626 -0.44853696 0.42181933 -0.8284043 -0.09737825 -0.2076527 -0.562226 0.7280519 0.672993 0.7932173 0.4388483 0.1728241 0.12289527 0.07845691 1.0422301 0.59268796 -0.3259122 0.3802149 -0.7624394 0.36760262 1.725052 -0.5765838 -0.26767027 -0.22720446 0.36690196 0.43539822 0.1149201 0.9459679 0.24738902 -0.7284245 0.26450402 0.014344725 0.19393377 -0.13606004 0.36437705 -0.4521507 -1.1107615 -1.2016258 -0.5201382 0.581264 -0.4157879 1.3024894 -0.48415133
325 0.06798397 -0.8811249 0.5109773 -0.3257885 1.095416 -0.31459185 0.5703303 -0.38720265 -0.45599398 1.1914303 -0.8140723 -0.18462178 -1.0203809 0.0599855 0.19522835 0.45663068 -0.2375559 -1.0949824 0.22091143 -1.1021309 -0.20092358 -0.08852972 -0.027944004 1.3413975 0.02763756 0.29793292 0.4410982 -0.91772217 -0.035042442 0.13111426 -0.105525136 0.5206846 0.5319072 0.4327399 -0.16397226 1.1188518 -0.36024222 -0.52136594 -0.5166205 -0.008322696 0.3761625 1.4408098 -0.62090594 -0.4086316 0.14649567 0.70361596 0.32159364 -0.07577713 0.32503513 -1.1250161 -0.8505487 -0.59461594 -0.16785868 -0.28225428 0.6268475 0.25312775 0.08132173 -0.31203118 -0.784662 0.113691784 0.55379647 -0.8844285 0.18633854 -0.19501798
408 -0.2911935 0.63236994 -0.1603549 0.080873094 0.5022544 -0.04020287 0.6770647 -0.10321037 -1.3482267 0.5498488 -0.55919075 -0.33492678 -0.8694161 -1.3699107 -0.020514032 -0.07724345 0.29861364 -0.3481218 0.82111704 -0.45049086 -0.5856772 -0.7752192 -0.56427765 0.9286155 -0.847175 0.7573884 -0.5654786 -0.2725496 0.69071305 -0.05184635 0.8050131 0.39246398 0.036760017 1.0668929 -0.040544074 0.602178 0.14554156 0.18310958 0.41641212 0.27060613 0.53218234 1.3028094 0.6509228 -0.74659353 0.32048264 -0.16909619 -0.0022879876 0.572707 0.49211702 0.42202708 0.16757272 0.0559539 0.83376735 -0.49769273 0.30769598 0.60242885 0.6187378 -0.14337869 -1.0349439 0.48277292 -0.47040704 -0.7320064 0.25519475 -0.27622396
415 -0.26894858 0.12293866 0.16146523 0.07300976 0.23840226 -0.34867045 0.522289 1.0210557 -0.11001563 0.4141731 -0.608924 -0.66219074 -0.4935438 0.24099535 0.48648673 -0.87523776 -0.23499858 -1.1365321 0.5113166 -1.1128707 0.09354802 -0.5499987 -0.12160743 -0.11628026 -0.75622874 -0.5192911 -0.52216214 -0.7202768 -0.10680614 -0.45741674 -0.03662896 0.44496533 0.07067186 0.66414386 -0.4444391 0.58998996 -0.18286346 -1.2742763 0.69814265 0.31695467 1.3513099 0.77223957 0.3122842 -0.34181297 0.66563845 -0.5014269 0.32666782 -0.9293522 0.57966685 -1.1667935 -1.1513406 0.19484414 0.47421142 0.44992945 0.30204222 -0.3221064 -0.30052313 -0.56905985 -1.0794585 -0.26381177 0.0075570433 -0.1671103 0.7372065 0.6505913
52 -0.022360468 0.12966688 -0.09640262 -0.26895607 0.33618984 -0.6996392 0.44978473 0.6970408 -0.78196335 0.58583826 -0.71586984 0.32300213 -0.8308224 -0.7636159 0.77325505 0.07200318 0.21453866 -0.22753355 0.5749744 -0.9136175 -1.2102673 -0.8042395 -0.56246966 -0.22068436 0.1420398 -0.18470766 -0.705518 0.16168754 1.0840675 1.1531422 0.793528 1.3039092 0.15372238 -0.29097155 -0.4593958 0.56142426 0.57674503 -0.72035366 0.06283949 0.43649063 0.8390543 0.87985605 -0.6647174 -0.257401 0.056311335 -0.059729166 0.5499066 0.033347502 -0.33384928 0.0431394 -1.6721686 0.46925813 0.6470536 0.12484161 -0.8591725 0.14242624 0.09746954 -0.19234148 -0.10435199 0.32992265 0.009758491 -0.23068845 0.37186322 -0.56480277
573 0.42203328 -0.56367445 0.17751715 0.17769247 1.0917985 -0.50783074 0.0928158 0.50252366 -0.3101788 1.1821356 -0.32047337 0.59879583 -0.054025687 0.5640297 0.3813998 0.3288391 -0.30467132 -0.49544373 -0.23284869 -0.4642354 -1.4753908 -0.044225913 -0.43207556 0.32182017 -0.3687786 -0.48222724 -0.009046148 -0.5543029 -0.1854227 0.94700783 -0.49957666 1.4693766 -0.5432381 0.9087688 0.04766072 -0.033840057 -0.71905565 -0.20082168 0.568558 0.42747495 1.0534376 0.6590664 0.5062871 -0.5979794 0.6873478 -0.33001772 0.058357734 -0.39850974 -0.58900285 -0.7421025 -1.614868 -0.70674634 0.4634673 0.50700253 -0.49060273 0.29062605 1.1361625 0.021150915 -0.3160954 0.8692126 -0.23110658 -0.5289129 0.5631967 -0.52795917
524 -0.261396 -0.18748584 0.13601586 -0.32070208 0.62470996 -0.41606748 0.09769374 0.59685665 -0.19706838 1.5888355 -0.9718569 -0.47866437 0.007858304 -0.060392067 0.6232639 -0.18201761 -0.07567788 -0.98100865 0.16529442 -0.25724575 -0.7655753 -0.74265385 -1.4393036 -0.14057238 -0.332861 0.13038896 -1.0217862 -0.5852898 -0.37432864 -0.21794426 0.764249 0.22228934 -0.48604703 0.64525294 0.8419536 0.62662697 0.63524103 -0.2948561 0.34290728 -0.38069102 0.6033885 0.6799723 -0.6831515 -0.322578 0.5408604 -0.35242385 0.012442649 0.23286319 -0.7929787 -0.14414355 -0.17148198 0.21202184 -0.016942725 -0.006328474 0.44194907 1.550001 -0.55711263 -1.048007 -0.39586902 -0.09815304 -0.22859146 -0.93033016 0.7907152 -0.13462298
609 -0.87437946 0.09594058 -0.5177307 -0.3364721 -0.41082573 -0.8897464 -0.057396837 0.50213796 -0.51048577 0.5509342 -0.097402714 -0.28723055 -0.90948564 -0.96130717 -0.43319425 -0.38345215 -0.06363966 -1.1359072 0.49999362 -0.98129964 -0.47616848 -1.1492342 0.19736612 0.4626309 -0.19854625 0.0016652861 -0.44579962 -0.8493349 0.28823918 0.060330424 0.026136829 0.40723658 -0.23520239 0.55118084 0.76758176 0.42342764 -0.38288012 -0.88507324 0.010496238 -0.5403782 0.4232851 0.44041708 -0.124831975 0.6951476 0.8388404 0.11361048 -0.15819323 -0.83285034 -0.2918064 -0.31120872 -0.83069015 0.57165194 -0.2609968 -0.15150982 -0.30434132 0.5663193 0.20969065 0.13691796 -1.2730415 -0.58927464 0.35986245 -1.1912718 0.39246756 -0.6979925
441 0.106382385 0.15522476 0.44456053 0.14123268 0.059631944 0.2969592 -0.3040746 -0.37741163 0.065075696 0.6264316 -0.7469415 -0.40089497 -0.12211287 -0.49411234 -0.24299744 -0.37820575 -0.3137773 -1.2212181 0.30603698 0.26226678 -0.19399597 -1.0058124 -0.0038193485 0.6522076 -0.21348996 0.3148496 -0.5906027 -0.3619906 0.25333667 1.1924103 0.80178404 1.0406753 -0.50673026 0.76554644 0.21953186 -0.33891958 0.22903657 -0.4117601 0.2073438 0.10689782 0.47878957 -0.038860824 -0.2910331 -0.073265016 1.2884552 0.31681216 -0.96688354 -0.3707291 -0.3514835 -0.7797182 -1.8001488 -0.62007177 0.60036653 0.07688729 -0.010555633 0.6721295 0.53459233 0.5120606 -0.9710222 -0.032656442 0.38723278 -0.6182411 0.19080107 0.10508331
443 0.21275029 0.29541075 0.6049996 -0.017683791 0.0049035973 0.28633246 -0.26536068 -0.55284065 -0.069516405 0.6095321 -0.7503809 -0.43566576 -0.14754897 -0.41783258 -0.21983373 -0.40417004 -0.18114084 -1.4370161 0.40689176 0.32350898 -0.25868928 -1.0060757 0.12422461 0.6499092 -0.4380564 0.30680767 -0.48556468 -0.3447577 0.4050383 1.1598477 0.7139391 0.9072335 -0.52846605 0.6107575 0.20565102 -0.4701639 0.30644828 -0.4542418 0.3365592 -0.02654599 0.43227 -0.0865995 -0.45500144 0.09458656 1.258536 0.33816248 -0.8632097 -0.39689305 -0.2932192 -0.824506 -1.7531755 -0.6237485 0.7371374 0.06374886 -0.059762638 0.6456262 0.51981056 0.4035656 -0.99489826 0.09208279 0.3837438 -0.56155497 0.23500274 0.23477168
92 0.720654 0.78926986 0.51849335 0.14971402 0.2974827 -0.5825358 -0.4473847 0.27648002 -0.28754416 1.706082 0.003481292 -0.16792119 -0.46058184 -0.32233953 -0.027971972 0.75609094 -0.24006376 -0.9954823 0.2138013 -0.4115508 -1.0516949 0.5471443 0.39760467 1.3686452 -0.27767715 -0.08121363 -0.74296194 -0.7561475 0.0057107825 0.85601693 0.04020703 0.7750612 0.29255486 0.7182426 0.25954837 0.25865218 0.19527885 -1.426271 0.29449436 0.24868669 -0.23398925 0.7353564 0.12733501 -0.3926469 0.17754227 0.14990202 0.54480195 -0.8913303 0.09764128 0.09114907 -0.63693964 -0.43959725 0.14743167 0.22484516 0.51857597 -0.006729248 0.37385333 -0.27548927 -0.38886324 0.24862552 -0.17125037 0.033678506 1.0797089 -0.9006551
152 -0.05982324 0.64976186 -0.45669377 -0.5296897 0.42649814 0.79678583 0.23927075 0.7524328 -0.48568425 0.10627398 -0.83444613 0.3010371 -0.22237794 -0.6906414 -0.4487113 -0.38031167 0.6744137 -1.386151 -0.04705825 -0.5749427 -0.20500927 -0.5684422 0.06973266 0.81591725 -1.1784195 0.37045604 0.74404854 -0.4733352 0.015260811 0.5013451 -0.11631831 1.4015372 0.0694269 0.6168485 0.2110612 1.5223078 -0.6576333 -0.049249068 0.47769925 0.30749446 0.10446 0.1533515 -0.46359113 -0.38892215 -0.38109857 -0.41211197 0.27107853 -0.3740449 -0.54325813 -0.22771324 -0.38648683 0.51762056 -0.4039809 0.19972281 0.77795076 0.17198567 0.26991105 -0.097351134 -1.0771221 0.22836451 0.83890927 -0.64533323 1.2532947 -0.8285533
119 0.08882424 -0.104181506 -0.26474133 -0.16372074 0.859672 0.46490124 -0.06312714 -0.053107698 0.27976793 0.56826305 -0.1631137 -0.069406815 0.12851141 -0.034886375 -0.099937834 -0.31994516 0.12000031 -0.98871076 0.12411486 -0.865541 -0.9714213 -1.1857767 -0.54119176 0.2847927 -0.1842025 -0.8725258 -1.0506396 -0.7751509 0.33353698 -0.22249007 0.31710213 0.0044166017 -0.1794816 1.2119073 -0.10507537 -0.1336537 0.20748065 -0.8852485 0.214108 -0.25204858 0.85937095 1.6827377 0.49910358 0.03773177 -0.9328378 -0.6602383 -0.061136007 -0.8459318 -0.56942695 -0.024141913 -1.3980721 -0.105790675 0.36996177 0.7951582 0.9590547 -0.020701306 0.28671843 -0.022000002 -0.6780681 0.14675984 0.423816 -0.7425784 0.68401426 -0.3888711
145 0.63631314 -0.74886906 0.1491916 -0.43866464 0.5858475 0.35463122 1.0144103 -0.20002244 -0.024881955 -0.33402693 -0.6289818 -0.67541033 -1.3465732 -0.754995 0.24141113 0.13649817 -0.4338658 -0.52332157 0.28567383 -0.5380885 -0.4403206 -0.41127747 -0.13323058 0.6959059 -0.12519257 0.28302974 -0.40552726 -0.36745512 -0.2673517 0.55701286 -0.02653664 0.80208194 -0.81816024 0.030851705 -0.12556742 0.49280006 -0.46421936 0.31992698 0.61599237 0.85182613 0.41063 1.0027956 0.39766085 -0.81636906 -0.025175625 0.41878718 -0.58288276 -0.51639265 -0.024907578 0.16954145 -1.1083705 0.34422654 0.33842814 1.115647 -0.3135549 0.7599683 0.35187772 -0.19465816 -0.36187983 -0.1254818 0.39964083 -1.0522094 0.14835809 -1.1996979
622 0.1918511 0.5795514 -0.2692868 -0.5499222 0.33515614 -0.7217738 -0.20784432 0.86672354 -0.38218778 0.5977838 -1.2582482 0.07758605 -0.027466055 -0.5339281 0.5135304 -0.41069797 0.2093426 -0.9880252 0.42107743 0.0035761192 -0.8858499 -0.362922 -0.123880625 1.4433874 -0.040087916 0.6828227 -1.1044852 0.098560974 -0.12302325 0.2132933 0.05568132 0.18975402 0.2200131 -0.253131 0.48038036 -0.056001637 0.6266792 -0.38011113 0.82714957 -0.64017314 0.5149457 0.81160915 -0.08899918 0.39226767 0.4885255 -0.026456421 -0.97222733 -0.55883634 0.2707924 0.076571405 -1.6690843 -0.75765693 0.4075281 0.6794778 1.0203432 0.028125377 -0.40192753 -0.6527209 0.1073247 -0.13488375 -0.10791819 -1.0544581 0.61102754 -0.49021867
480 0.2202477 0.90563786 0.18026301 -0.7202891 0.18870509 0.19097869 0.41023546 0.56394005 -0.31997874 -0.010873414 -0.9213713 -1.1570938 -0.22657153 -1.1551273 0.5238656 -0.6986972 0.8274056 -0.13811797 0.7414316 0.1667718 -0.7050166 -0.91839164 -0.4018147 1.5355577 -1.4305397 0.32903764 -0.5298192 -0.8448881 0.25921285 -0.22396038 0.21669264 0.38342023 0.0464051 0.3270987 0.22165085 0.19523169 0.63055354 -0.22430854 -0.13574089 0.23563305 0.07600592 0.2572223 -0.47884914 -0.100946546 -0.11205423 0.633243 -0.95822537 -0.067384936 -0.19181627 -0.5797465 0.19834849 0.002390775 0.28913924 0.6226794 0.19600837 0.31228185 0.08683687 -1.1423463 -1.3201461 0.3638348 0.09305561 -0.50712055 1.0269581 0.18640898
476 -0.8288157 -0.35374933 0.42761642 -0.3130165 0.020130267 0.43625537 -0.2734989 0.384019 -0.56338495 0.3471061 0.17791688 -0.29886797 0.07377219 -1.001308 -0.23302571 -0.44029057 -0.7171395 -0.84476376 0.19842753 -0.86079377 -0.020448647 -0.6051201 0.08312113 0.26742107 -0.65939164 0.8308852 -0.26981953 -0.80774987 1.2119508 0.8059724 0.09137986 0.45100915 -0.2859903 0.50605786 -0.26223922 -0.32407278 -0.79434484 -0.60138863 -0.3502371 0.33820373 0.4802069 1.4435174 0.808482 -0.5645853 -0.5254189 -0.31425595 0.071930505 -0.79638064 -0.15425721 -0.839087 0.5151137 -0.2273153 0.027421601 -0.26691025 0.22635299 0.35451743 1.3061711 -0.40212193 -0.3433243 -0.09177278 -0.09187876 -0.7861486 1.4654405 -0.6540153
261 -0.22169153 0.27883202 -0.73721874 0.39037675 0.0037045367 0.12309076 0.18038428 1.156315 -0.1254014 0.35430616 0.036505084 0.47351792 -0.3929807 -0.11349257 0.5986392 0.10210972 0.22525342 -0.7611088 0.1146203 -0.054411545 -0.51680326 0.23834382 -0.21525958 1.2097285 0.4927004 -0.01704948 -1.2139797 -0.26284364 1.1950572 0.7776605 0.44655043 0.72798616 0.17679207 1.0395304 -0.031827167 -0.47243905 -0.3048905 -0.9618567 0.5758366 0.06127207 0.56493497 1.1149154 -0.6173628 -0.027957905 -0.6035371 0.82948035 -0.0033543007 -0.06742474 -0.42110518 -0.6698908 -0.71360487 -0.3541522 0.1734711 0.35638198 -0.37621367 1.0202912 1.2741154 0.04830411 -0.23416221 -0.44412848 0.37640828 -1.4525663 0.6151593 -0.43761995
118 -0.22788292 0.81404555 0.5929437 -0.03818047 -0.4099712 -0.013079972 0.053864084 0.83846027 0.43132743 -0.057893615 -1.6006525 0.12093673 -1.1917721 -0.80163836 -0.24282435 -0.55304736 0.31261644 -0.614099 0.079886004 -0.7477927 -0.43155193 0.37586114 0.1777277 0.013571639 -0.22761162 -0.15544651 -0.7353221 -0.75808394 1.0028869 0.613524 0.8551942 1.0476032 -0.43387136 0.51309943 0.03552682 0.86180145 -0.35038823 -0.12133662 0.633739 0.23477843 0.80362403 0.8061768 0.5329578 -0.018905783 0.42435238 -0.3094654 0.70936525 0.02451876 -0.34724337 -0.20222764 -0.85782176 0.42274523 0.14712425 0.21503128 0.6486052 0.30134335 0.018079517 -0.38777295 0.06592075 -0.25735787 -0.2280335 -0.3779404 1.2612339 0.09578809
95 0.53252435 0.7303149 0.43204573 0.046725444 0.35015386 -0.57517225 -0.359444 0.06694299 -0.27827227 1.677301 -0.0006158628 -0.46289492 -0.48215455 -0.25002974 -0.111425385 0.7456083 -0.26526648 -1.009395 0.25525966 -0.45434996 -1.0589626 0.5469658 0.354478 1.3339156 -0.45705938 0.2463914 -0.77854776 -0.7893159 0.11462662 0.6537708 0.0110034 0.9505843 0.1534103 0.769634 0.30530173 0.25251302 0.28688034 -1.4287003 0.42750442 0.20083192 -0.5200089 0.621695 0.11474026 -0.66009617 -0.09610666 0.007105325 0.43800873 -0.854424 0.20133083 0.17874297 -0.5156293 -0.18797953 -0.051220655 0.32076606 0.41366023 -0.033347808 0.3353707 -0.29336378 -0.51909125 0.13787599 -0.19209974 0.03824609 1.1205741 -0.80969435
251 0.21844277 -0.22675183 0.10198053 -0.098862246 -0.09440359 0.10623886 0.5216352 0.5704064 -0.5254253 0.6674657 -1.0804461 -0.27892506 0.11456194 -0.40992615 0.58636105 -0.98160183 -0.21308699 -0.26914313 -0.35618737 -0.44314814 -0.92779255 0.1300914 -0.7901505 1.544758 -0.91458404 0.46860275 -0.5031582 -0.17153546 0.8484879 0.98950046 0.3176101 0.9824425 -0.67452353 -0.06617298 0.3248328 0.16785139 -0.19230321 -0.008100017 0.06211607 1.2002758 1.1578102 -0.39618498 0.4714608 -0.5320091 0.22183892 0.017492952 -0.050037727 -1.4212689 0.0346152 -0.050678417 -0.1615751 0.51597434 -0.08785862 0.7304364 0.60897475 0.5358828 0.10328825 -0.72297984 -0.6380987 0.31109482 0.36851326 -0.066204205 -0.48047572 -0.060456958
561 -0.42586622 -0.41538593 0.6216509 -0.3117883 -0.42577612 0.90930444 0.6452596 -0.30416542 0.29989585 0.34072927 -0.3584367 -0.5449661 -0.7969256 -0.48482597 0.32054713 -1.2313848 0.2501315 -1.1312635 0.27764198 0.06558813 -0.964176 -0.50519896 -1.0115985 0.18323365 -0.5980517 0.40264013 -0.5475324 -0.570189 0.64587146 0.047572326 -0.020320244 0.0131684495 0.61538476 0.7797362 0.21590316 0.4834487 -0.60715055 0.03158712 0.21911341 0.8341878 0.7953803 -0.064198494 0.28500292 0.23961012 0.27105707 0.3028644 -0.24000524 -0.68894476 -0.034650415 0.026753377 -1.0281223 -0.48047212 -0.595121 0.3886802 0.39995098 1.0574481 -0.084488384 0.19172354 -0.62736773 0.3534167 0.11314729 -1.1622101 0.7441568 -1.0126988
568 -0.9292208 0.42754194 0.47167775 -0.45044124 0.14070724 -0.0426975 -0.45926264 0.7062338 0.076898776 0.8050563 -0.86901426 -0.88430834 -0.36706644 -0.7790787 0.2560333 -0.2120141 -0.449229 -0.46411183 -0.022372356 0.4912347 -0.0077765808 -0.5579236 -0.20911098 0.849126 0.30498314 -0.13485987 -0.85597885 -0.8183776 0.5400184 -0.119369514 0.10958275 0.65914065 0.4500438 0.022681855 0.35024232 0.7417671 -0.89345574 -0.7354528 0.24966647 0.6761044 0.112232536 0.98608685 -0.45030606 -0.73810697 -0.016607467 0.72459304 -0.2918732 -0.14170073 0.17774531 -0.48053876 -1.29047 0.082767926 0.13572161 -0.14911592 0.47369325 -0.4705158 -0.40817535 -0.6247406 -0.31398028 -0.13841578 0.46691915 -0.39720646 0.55277777 -0.49784678
274 -0.4509228 0.122474484 1.2875518 -0.32800665 -0.47776875 -0.031759545 0.2959351 0.18530989 -0.09124142 1.2412323 -0.53497636 -0.64378005 -0.7797088 0.3797838 0.08268046 0.46597695 -0.39553982 -0.38289627 -0.1493986 -0.71211135 -0.50098604 0.67064416 -0.991977 0.72219706 -0.74058944 0.029896645 -1.3792462 -1.2373478 0.95139927 -0.082246296 -0.16034271 1.1340073 -0.5728142 0.26919067 -0.06342953 0.10461245 -0.14859621 0.21961957 0.2568747 -0.023729995 1.147776 0.23736201 0.10335368 0.30612388 0.4388533 -0.04009948 0.1988779 -0.106691465 0.32346317 -0.6592797 -0.40714353 0.012586525 0.6226681 0.18537775 -0.214252 0.74498636 -0.1739702 -0.15288943 -0.5668478 0.6428199 -0.3450587 -0.586415 -0.026798882 -0.6612753
138 0.31705394 0.02943137 0.18237822 0.20050193 0.24377562 -0.9254709 0.46577075 0.4004895 -0.58667725 1.1166402 -0.6377286 -0.81335783 -0.59739876 0.2149387 0.34030443 0.078437 0.26767874 -0.4418538 0.077101395 0.20378329 -0.91803485 -1.1552753 -0.10944956 -0.17340292 -0.59096223 -0.027376521 0.15708746 -0.96216106 0.60211784 1.0360808 -0.5144042 1.1844922 -0.13301805 0.35072944 0.6246053 0.23018846 -0.09134108 -0.8996677 0.79833555 0.5655895 0.2951289 -0.24257386 -0.29530942 0.21296814 0.39787108 -0.44218713 -0.3884877 -0.5871979 0.16951208 0.545887 -0.34362167 0.2680457 1.1125715 -0.23784195 0.99236876 -0.24117985 0.3116451 -0.40739253 -1.112022 -0.5124169 0.10602141 -0.31271687 0.11123763 -0.96734124
49 -0.31156075 -0.69311726 0.64271456 -0.5970482 0.2513657 -0.2880681 -0.17812124 -0.65478426 0.13821624 0.8132655 0.2705324 0.20498684 -0.20026949 -0.491588 0.4308166 -0.28271273 -0.2996745 -0.44402844 0.33222753 -0.58252823 -0.06652106 -0.7286905 0.103683665 0.5289879 -0.036664937 0.4256851 -0.48917842 -0.31436035 1.440918 0.13896309 -0.38122413 0.9320346 -0.8396546 0.88472 -0.3076751 0.3969696 0.50894725 0.04831081 -0.65329653 -0.08117996 1.0903709 0.91681665 0.5346036 -0.36821195 -0.00921739 -0.4944488 -0.37301832 0.34310976 -0.87461674 -0.69565076 -1.2263101 -0.29272342 0.30317461 -0.08300094 0.9084601 0.18020985 0.32742807 0.15155691 -0.41139272 0.52116895 0.27629524 -1.6457764 0.54229176 -0.21600504
7 -0.097362414 0.244821 0.10450799 -0.38093078 0.15057659 0.02029776 0.20555432 0.55110747 -0.21786776 0.68074524 -0.37129837 -0.37419215 -0.34268048 -0.35540542 0.108267196 -0.10705729 -0.09422621 -0.6883227 0.34377295 -0.32473207 -0.38261774 -0.44340432 -0.46215308 0.6462328 -0.68199074 0.28393474 -0.33950993 -0.66189945 0.58845365 0.5456085 0.19939196 1.0389005 0.008648994 0.57737523 0.17381614 0.3744379 -0.15666081 -0.5131211 0.11733153 0.40700334 0.45697612 0.72846293 -0.22143243 -0.44964084 0.08091453 0.20507073 -0.16772911 -0.18161488 -0.14450678 -0.23553304 -0.5997216 0.11291336 0.25766256 0.010956241 0.24507292 0.46429443 0.2565525 -0.37884477 -0.3523579 0.11214373 0.2005259 -0.55666935 0.95000136 -0.45958146
619 0.1417683 0.21222265 -0.8908059 -0.24805038 0.46090713 0.47749078 -0.21660045 0.8549184 -0.16920988 0.33417603 -0.59546125 -0.21707146 0.15659982 0.7069698 0.17175707 -0.31857023 -0.60098094 -0.4345775 -0.16927221 -0.66228604 -0.73268044 0.033660382 0.27905163 0.8624321 0.053058706 -0.021575194 0.010298589 -0.88309693 0.13228084 0.5763008 -0.25449044 1.8825285 -0.3692491 1.0484436 -0.3817277 0.25351745 0.11347626 -0.33877832 0.48037818 0.18735236 0.5089461 0.88666636 -0.29336035 -0.25007746 -0.2880697 0.7776575 -0.4798669 -1.1919768 0.6791924 -0.066851296 -0.48640636 0.43694204 -0.23664823 -0.044583827 -0.44614193 0.4598285 0.18347846 -0.51413566 -1.225716 -0.54740906 -0.49075875 -0.45448935 0.8655977 -0.1035717
496 -0.113675945 -0.062995546 -0.094386816 0.10796292 -0.48516467 -0.6626192 0.6637873 -0.37454057 -0.80999833 0.1072694 -1.2572685 -0.8069883 -0.11176122 -0.33732507 0.1948842 0.5739354 -0.5467369 -0.4335718 0.2670295 -0.3846579 -0.8947478 -0.4262552 -0.48901477 0.7605333 -0.9812551 -0.98497057 -0.69730574 0.15254319 1.2261084 0.4309467 0.9640163 0.7910962 0.23316836 0.61204034 0.6230582 -0.055684637 -0.71011996 -0.17453119 0.18677238 -0.13042277 0.73974806 -0.044980504 0.0061303666 0.40785342 0.5584129 -0.0088926535 -0.28702134 -0.11229074 0.41996694 -0.57121587 -0.4649458 -0.30956188 0.44423747 -0.4701094 0.050949514 -0.6188411 0.11744279 -0.20513229 -0.35378057 0.117711 0.3624128 -1.2000631 1.5201448 -0.47161368
174 -0.06536041 0.19933671 -0.15997668 -1.0640187 -0.16477726 0.04238519 -0.22515218 1.3107291 -0.62144804 0.4130352 -0.79934716 -0.3719381 -0.7077344 -0.08325804 -0.7061345 0.5484095 -0.3081389 -0.45030588 0.850568 0.06441839 -0.026111634 0.21015961 0.1917657 0.37192896 -0.8297336 0.50492626 -0.0692201 -0.22176793 0.80679244 1.3655149 0.8644881 0.9451423 0.53842777 0.3910299 0.18968056 0.20320773 -0.15292221 -0.5495561 -0.27229097 -0.19246824 1.2822746 1.1540874 -0.20075892 -0.11186945 0.48599735 -0.3733662 -0.10007001 -0.33130416 0.5657708 0.36484212 -0.49608022 0.36155865 1.3488992 0.27310973 -0.11989743 0.84616274 -0.18325284 -0.18254963 -0.6068504 -0.10319831 -0.68632007 -0.5282972 0.16616166 -0.34320185
376 -0.10002525 -0.1460014 -0.18911684 -0.89208215 0.53600174 0.55319023 0.012425953 0.3561375 -0.046568964 0.048049685 -0.39971977 -0.4245035 -0.93372196 0.4063689 -0.2016443 -0.15099448 -0.34925917 -0.3287868 -0.3784354 -0.5119841 -0.81431633 0.38971516 -0.11707432 0.16976614 -0.12134716 0.35228547 -0.6744855 -1.1881288 -0.48859134 0.019002907 0.31368613 1.2330972 0.075939655 0.27503026 -0.7266685 0.36286542 -0.31818557 -0.5597036 1.3404505 0.39693895 0.8109596 0.43694314 -0.32230756 -0.6610434 0.28776932 0.25307563 -0.3421358 -1.0548252 -0.21379077 -0.24459255 -0.90835094 -0.5117739 1.326013 0.4004329 0.96148384 -0.07316836 0.15317145 -0.14509392 -0.20713548 0.51871294 0.8258339 -0.7836056 0.78356147 0.26525196
279 0.024171978 0.08667075 0.19220693 -0.4383267 0.25493783 0.031273767 0.3449178 0.50194836 -0.37828228 0.8528543 -0.7042547 -0.32854474 -0.474772 -0.34393352 0.33106914 -0.27619252 -0.11953849 -0.9210685 0.2921256 -0.44589368 -0.6093853 -0.62310714 -0.4248885 0.9354145 -0.66383636 0.18418312 -0.5928082 -0.70785826 0.67214084 0.63397515 0.19307128 1.136565 -0.07941268 0.57278645 0.2003269 0.32054743 -0.066892914 -0.5768221 0.27011746 0.31089875 0.78362036 0.89420563 -0.009123148 -0.37877953 0.2062303 0.07906425 -0.15378869 -0.47623074 -0.0076672207 -0.39419717 -0.85926664 -0.098456785 0.4192351 0.17997643 0.33739915 0.52071667 0.257239 -0.42526892 -0.5281553 0.18096401 0.19303153 -0.8659634 1.0478976 -0.43022716
155 0.019290926 0.054341134 0.17710257 -0.3270554 0.23313744 0.04440429 0.34790304 0.40379995 -0.29801396 0.7306277 -0.63277745 -0.30949834 -0.43415275 -0.29240394 0.24378538 -0.22106016 -0.13369532 -0.79192764 0.23463127 -0.4317462 -0.4596027 -0.56206393 -0.3599396 0.79362595 -0.5530464 0.14582044 -0.53940946 -0.52605134 0.60063434 0.5265541 0.18809773 0.9924125 -0.08809108 0.4964043 0.17048575 0.2511708 -0.08494097 -0.5224256 0.20704797 0.27200514 0.7241143 0.7545141 -0.058445614 -0.31387025 0.15489137 0.09809164 -0.12159767 -0.40294564 -0.0047111497 -0.30541438 -0.7374614 -0.09328961 0.38529027 0.1717235 0.30410364 0.47412962 0.20712614 -0.33576941 -0.4219057 0.16945851 0.16018443 -0.7204392 0.94290674 -0.34331068
632 0.023924178 0.07845845 0.13059747 -0.37427717 0.20961037 -0.008540409 0.31459323 0.40199053 -0.3229848 0.662382 -0.5923292 -0.28338322 -0.46092805 -0.26752704 0.23285738 -0.2297197 -0.074851185 -0.7828022 0.23742293 -0.37428504 -0.47392243 -0.5161239 -0.3530667 0.7722991 -0.5840241 0.11702499 -0.5406952 -0.5627344 0.5706323 0.51848793 0.17691717 0.93333167 -0.064933315 0.47304454 0.16353936 0.23428294 -0.05126035 -0.46997288 0.27693978 0.2604021 0.68716985 0.73290247 -0.0129609965 -0.31710368 0.1988865 0.08639109 -0.08359508 -0.4154651 -0.054830536 -0.36688247 -0.6893271 -0.07616492 0.34084782 0.14177337 0.26760048 0.4462612 0.1611665 -0.36828756 -0.42841575 0.15910687 0.18717721 -0.70326996 0.9364855 -0.35966983
503 -0.56568164 1.0378966 0.11206304 0.08741178 -0.82667464 -0.34414658 0.30748963 0.19379447 -0.037204076 0.73700726 -0.62807524 -0.8098558 -0.4960749 -0.48004904 0.31539473 -0.56196207 -0.45934135 -1.2684681 1.0254593 -0.12617418 -0.3127203 0.30375823 0.4132217 1.2803241 -0.6536198 0.8261478 -0.5982422 -0.6130842 0.1818785 -0.35916546 0.07859444 0.56809336 -0.037950117 -0.11571741 -0.5040734 -0.02415277 0.62997824 -0.98134613 0.20707159 0.61372447 1.0493323 0.77676713 -0.7222034 -0.16005936 0.15414566 0.20737721 -0.3156884 -0.5666123 -0.05889737 -0.9640411 -0.08383696 0.1745424 0.6012986 -0.4134014 -0.034175888 0.9645033 -0.4288307 -0.15943617 0.26215544 -0.06968081 0.59719974 -0.8116823 0.7186123 -0.80500835
41 -0.5937885 0.6792189 -0.5357072 -0.4559846 0.34936598 0.4168645 0.22167803 0.60596037 0.3440991 0.6744846 -0.09334883 -0.66740775 -0.63394237 0.33989286 -0.2025821 -0.47626576 0.45486498 0.17113441 1.0903028 -0.62047416 -0.30524665 -0.3565267 -0.19488437 1.0933397 -1.1365433 -0.021252807 -0.59067386 -0.3332765 0.67231095 0.60389596 0.3104058 1.2337334 -0.016102932 1.1073611 0.49468237 0.5752349 -0.5442556 -1.0215503 0.16528264 -0.49382028 1.1589843 -0.12883115 -0.38204068 0.29709452 -0.014314958 -0.18630682 -0.4976093 -0.17660157 -1.2510402 -0.004980769 -0.8915103 0.10770067 0.47974733 -0.25029746 0.6016836 0.22927071 0.005376138 0.009413003 -0.33245346 0.37452164 0.6985516 -0.11499716 0.7906557 0.24996917
292 0.8184942 0.7275956 0.22181693 0.7603379 -0.16653433 -0.40712914 0.50067943 0.7228153 -0.3773904 0.8847291 -0.9975191 -0.35130703 -0.55372363 -0.03213738 0.5822379 0.38629267 -0.46084425 0.10720681 0.6274744 -0.33299932 -0.36420813 0.031496715 -0.22926697 0.66845745 -1.2684369 0.3548346 -0.66936255 -0.026562706 0.06741287 0.7184361 0.10062142 1.2708379 0.1715698 0.41612032 -0.26136687 0.8740115 -0.120300114 0.4874194 -0.11269401 0.3218326 0.4466108 0.57307506 0.42535454 -1.1092521 0.1022055 0.67938155 -0.21630408 -0.006813121 -0.49731356 -0.94280344 -1.0840417 -0.13761716 -0.33195314 0.5850529 0.7138065 0.8144147 0.21062933 0.10714109 -0.086849056 0.11000408 1.0315909 0.041783314 1.0436299 -0.17113626
562 1.0191407 -0.38374618 0.2592511 0.5303303 -0.955877 -0.049090903 0.48183608 0.38399833 -0.44577008 0.9940418 -0.22740957 -0.06572247 -0.12684886 -1.0650109 -0.8044709 0.2659119 -0.792646 -0.763979 0.27780074 -0.0065028067 -0.48764178 -0.36541444 -0.8976392 -0.11933019 0.07372303 -0.35058507 -0.22541893 -0.2881751 0.31697586 0.6180417 0.16156428 0.8841605 -0.08486777 1.5682915 0.27256042 1.1339823 0.32188445 -0.10752589 0.4922007 -0.38277867 0.5142971 1.1352098 0.23980756 -0.38341182 -0.118779294 0.2056635 -0.19823276 -0.75948036 0.22426884 -0.79773396 -0.72764826 -0.43221343 0.62924314 -0.38213372 0.32307503 0.42464486 -0.09800988 0.03429137 -1.2395831 -0.12622891 0.29410517 -1.0647421 0.743601 0.10791513
216 -0.042252686 0.014342649 0.1629357 -0.31374088 0.15024191 -0.050274882 0.34993094 0.3598391 -0.33472574 0.5652734 -0.54343766 -0.36837512 -0.28044552 -0.28345215 0.23845892 -0.33128813 -0.07959836 -0.79954726 0.18371353 -0.2576289 -0.43051684 -0.45379132 -0.32683343 0.71410316 -0.541152 0.2598129 -0.41891503 -0.57499635 0.5597263 0.46336138 0.31220958 0.88970333 -0.06617361 0.43294263 0.18020162 0.19364846 -0.019111816 -0.48689705 0.13550356 0.2788287 0.6479024 0.7106709 -0.064127736 -0.21988289 0.19157225 0.065716825 -0.078895986 -0.4390613 0.06428142 -0.34939334 -0.60215896 0.06626319 0.33042267 0.116134316 0.30725977 0.4250509 0.121977925 -0.39853984 -0.36901662 0.084818624 0.20759675 -0.750303 0.9435209 -0.41682518
45 -0.51888865 0.06782151 0.22100726 -0.09645438 -0.04399199 0.14089438 1.1949947 -0.20053917 -0.034299236 1.2226368 -0.4156221 0.23498468 0.6471094 -0.37342295 0.82836854 -0.60386926 -0.30428916 -0.39534205 1.215637 0.018914875 -0.40507835 -0.56013405 -0.6803936 0.55778486 -0.28599048 0.05819954 -0.40403834 -0.99043614 0.7277112 -0.35214677 0.027621277 1.417871 -0.15428059 0.7472596 -0.3063193 0.15097196 -0.82985634 -0.7239064 -0.47999853 1.1847066 0.48206276 0.65939915 0.12308956 0.090529524 0.5045708 -0.10424913 0.19025365 -0.14960535 -0.70700496 0.37233275 -0.36826614 0.32797235 0.86646307 0.8229478 0.32001305 0.48467562 -0.10946493 -0.502276 -0.35303202 0.06721865 -0.067817345 0.5367893 1.1537845 -0.25897613
235 0.8231163 -0.07051573 0.49877298 -0.19864145 0.53259456 -0.425565 0.08709258 0.7625761 0.1765721 1.1369208 0.10731284 0.030694447 0.14220364 -0.24056987 0.8003782 -0.15146245 -0.8569155 -0.49259558 0.58435667 -0.34773877 -0.092317194 -0.61548424 -0.121560976 1.7094028 -0.50796044 0.6910815 -0.044657845 -1.1435525 -0.19588573 0.82511353 -0.28162125 0.3155523 -0.21224251 1.4474504 0.1185907 -0.37773895 -0.46282232 -0.7761861 -0.32113087 0.44861233 1.2059813 0.4778413 -0.77388024 -1.0156772 0.1720171 -0.10194703 -0.39669016 -0.11846794 -0.40547854 -0.26502776 0.17999913 -0.16771515 0.5901403 -0.69965106 0.24580422 1.1984351 -0.21356405 0.39239475 -0.58979166 0.48262116 0.5827812 -0.64084953 0.67038184 -0.39374828
383 0.37061867 -0.08006118 0.21043892 -0.85880053 0.5635169 0.58571935 0.5517325 0.28188807 0.084817626 1.2688648 0.5974161 0.43702236 -0.4175817 0.10649472 -0.65834296 0.90262944 -0.0018036193 -1.0530888 -0.0776286 -0.2159033 -0.8653966 -0.4103722 -0.34954077 0.7611931 -0.3550005 0.5275827 -0.07696044 -0.50367635 0.16076253 1.0796402 -0.45529923 1.7649477 -1.1170129 -0.073645905 0.17780258 0.2543125 0.86217237 0.012168487 -0.5719759 0.19213343 0.5232508 0.55822116 0.08321722 -0.44679552 0.43971673 -0.51922774 -0.48684344 -0.58832806 0.060147956 0.31860107 -0.7661847 0.17445709 0.52555937 -0.21618521 0.38345924 0.7249492 1.0103868 -0.24463725 -0.028088937 0.60746837 -0.200579 -0.88760203 0.67298985 -0.5030592
294 0.56972796 0.29019848 0.23972847 0.95975304 -0.24464639 0.028173223 -0.013540142 -0.26549003 0.15634838 0.4893473 -0.97027576 -0.33032742 -0.09557738 0.06141542 -0.80951416 0.3173877 1.2313833 -0.85459256 1.1078432 -0.11171554 -0.08249993 -0.56474775 -0.128919 1.112976 -0.69729084 -0.48054242 -0.64786375 0.08987699 0.81864977 0.6935947 0.33389974 1.5819432 0.42071077 0.41016257 -0.14166637 0.4600985 0.040494006 -0.71872187 0.39346677 0.13139802 1.0372899 0.53420115 -0.5834021 -0.8348833 0.35186568 0.1668463 0.025145212 -0.79714173 -0.032301452 -1.1467421 -0.30447233 0.017177416 -0.06780994 0.21890154 -0.24136636 0.7303912 0.8109102 -0.25830552 -0.25147286 0.1946078 0.36095145 -0.18515018 0.92006147 -0.4136051
586 -0.07641723 0.008877452 0.041668016 -0.31122023 0.3261503 0.07584175 0.3056597 0.40171924 -0.25921735 0.5193198 -0.5634938 -0.2593307 -0.22226574 -0.24509335 0.3256985 -0.25863045 -0.073308185 -0.700837 0.23740819 -0.38637766 -0.5685862 -0.46729887 -0.2706561 0.8007897 -0.4449701 0.21524519 -0.49277267 -0.5134862 0.63614005 0.43838337 0.20941989 0.81120044 0.016316181 0.45597848 0.14501727 0.282695 -0.031063665 -0.5100624 0.19184238 0.20578788 0.660635 0.6522733 -0.09082316 -0.21512058 0.1471986 0.017398097 -0.13142708 -0.5198574 -0.04662204 -0.21524979 -0.54434234 -0.053648427 0.27938086 0.068732515 0.34996057 0.35248688 0.16892125 -0.243337 -0.44181618 0.06492714 0.08235951 -0.81954837 0.73961407 -0.4384629
82 -0.08315259 -0.53550005 0.20202997 0.10508438 -0.5589023 -0.4446754 -0.13703762 0.25116947 0.15065236 0.9081139 0.18349478 -0.057803363 -0.3568608 -0.18255447 0.34961194 0.47782606 -0.24486247 -1.3487896 0.4687904 -0.51672995 -0.092750356 -0.93289363 -0.23030066 1.0679371 -0.41796565 -0.1946607 -0.11110304 -0.970878 0.6935819 0.98146373 0.29088643 0.9416273 0.08229445 -0.29408684 -0.3040042 0.409376 0.22685264 -0.81601435 0.12477555 -0.5618666 0.92458075 0.29848403 -0.0679158 -0.18272378 -0.6630975 -0.29942405 -0.007441712 0.075103395 0.012824709 0.24027374 -0.063071206 -0.53111947 0.76161456 0.94056576 0.44102523 0.64103454 0.40106687 -0.5736288 -1.6904938 0.67551017 0.24069703 0.21126424 0.8275359 0.4437105
206 -0.5096034 -0.54349107 -0.45819002 -0.13015845 -0.46208316 -0.10586614 -0.4052692 0.6076882 -0.18108602 1.2049148 -0.33784658 -0.2849348 -0.8716398 -0.12064225 0.60683537 0.6867168 0.22627005 -0.40409935 0.6011965 -0.40272757 -0.2944812 -0.22313032 -0.50096256 0.14635931 -0.4238832 0.5778362 -1.2310636 -0.4684972 0.19553709 0.5535384 -0.6842612 1.5129282 0.36342463 0.45576775 -0.34074634 -0.18008666 -0.23084854 -0.5553116 -0.60566086 1.0494508 0.8612743 0.7024157 -0.32056287 -0.2600668 0.32667035 0.2925374 0.17136191 -0.5388979 -0.35329467 -0.24726819 -0.52625954 -0.16574866 0.19613399 -0.32648566 1.124963 1.2347355 0.49612713 -0.00084399927 -0.4773953 0.74082434 0.790516 -0.5073323 0.63058937 0.8096725
530 -0.9621308 -0.07579654 0.78573227 -0.60265815 0.57108915 -0.61681217 0.2506155 0.42259666 -0.20199057 0.1363625 -1.0393053 -0.64185804 -0.23763824 -1.0472583 0.8284606 -1.2386247 0.03364094 -0.5476602 0.6502419 -0.66801965 -0.20685573 -0.02806677 -0.62574214 0.28201964 -0.12630141 0.21503922 -0.28406042 0.13875164 0.1074519 0.2907918 0.46323147 0.537742 -0.07422877 0.5988212 0.5616311 0.2164033 0.26298466 -0.33182454 -0.7213781 0.26169628 0.3360675 1.2868809 0.30608714 -0.04275707 0.0628487 -0.13838106 -0.5498354 -0.1980536 0.3683717 -0.24853078 -0.42056227 0.46425247 0.22108634 0.30320835 0.843371 0.8563487 0.1513345 -0.83038 -0.66865027 -0.43335798 1.0801642 -0.86186063 1.0928721 0.8959855
272 0.13695337 -0.37361294 0.027702086 -0.63915575 0.78833437 0.20183681 0.2171693 1.0844933 0.068855986 0.3407235 0.21769921 -0.45515367 -0.46769458 0.22153364 0.15964729 -0.57426095 0.40750155 0.26210386 -0.15385891 0.19069467 0.18131252 -0.28572565 -0.31344485 0.6028972 -0.72350866 1.03679 -0.35384142 -0.7404198 0.4608469 -0.10460802 -0.16661242 1.0099882 0.06462466 0.11697898 0.6429277 0.3411372 0.93716234 -1.1278452 0.29947188 0.6792896 0.39926532 0.76987565 -0.4317568 -1.3455647 0.119634494 0.13459967 -0.59211 -0.014847549 0.079603806 -0.4882454 -1.1394582 -0.4896484 0.1317344 0.5763748 0.56756437 0.49569598 0.4115339 -0.89470434 -0.48442653 -0.11713484 0.51133955 -0.46601504 0.19065568 -1.2437073
494 -0.67480797 -0.035508852 -0.3411049 -0.274126 -0.022805978 0.18906866 0.621927 0.39650398 -0.6118133 1.1910434 -0.69177914 0.30522126 -0.46700728 -0.10691455 0.8935769 -0.15371357 -0.14795882 -0.063463435 0.74728656 -0.55882686 -1.1360176 -1.0668241 -0.3110905 0.75212115 -0.0033052103 -0.055627104 -0.67035675 -0.21419692 -0.0031033745 0.8787838 -0.043892946 0.097950764 -0.98245615 0.39053226 0.021845533 1.0888337 -0.31291896 -0.3034545 -0.18898372 0.27897537 1.4404682 0.49815372 -0.22648406 -0.49479926 0.12657921 -0.7575778 0.5011294 -0.96990174 0.074635975 0.12306989 0.2862288 0.3163113 -0.4418679 0.45334187 0.53323656 -0.88249356 -0.27957594 -0.7252007 -0.33168212 0.23907343 -0.42578796 -1.3888372 1.6646694 -0.4031214
2 -0.47367167 0.5289421 1.3780787 -0.7355231 0.9877002 0.4160499 0.70298123 0.26251945 -0.552699 0.24890505 -0.46819958 -0.11008103 -0.5583714 -0.30116203 0.3619912 -0.11606366 0.16408788 -1.2293539 -0.47513944 -0.2611675 -0.9263287 -0.64972746 0.25660026 0.6737305 -1.2244878 0.08132295 -0.9100235 -1.2136438 0.38284808 0.63056844 -0.45766148 1.0819951 -0.47097215 -0.03528963 0.7467367 -0.27200928 -0.639729 0.11564586 0.6126553 0.697644 1.1967263 0.051742144 1.0156767 -0.009995713 0.14330418 -1.4579397 0.12367867 -0.71942955 0.018273432 0.021993032 -0.13316274 0.4105239 0.33841765 0.6297019 0.16841131 0.23347501 0.24959542 -0.46671745 0.17073148 0.7074985 -0.12449649 -0.82886714 0.6589008 0.5506026
316 -0.22765312 -0.36123547 -0.3403191 -0.40273407 0.33381885 0.29892904 0.46389884 -0.12674898 -0.6233408 -0.08406397 -0.7253926 0.5738703 -0.9616967 0.19497426 0.056272708 -1.1660796 -0.12209338 -0.68447065 0.18419877 -0.45202357 -0.6834812 -0.18983404 -0.25858024 0.38100567 -0.2921858 0.6681393 -0.47952846 0.12242041 0.96283823 0.75123376 0.85512006 0.30857697 -1.2893643 0.9673909 0.69170636 -0.2981197 -0.10126227 0.53957874 -0.1539494 0.023166282 1.2540178 1.0143852 0.056776814 0.25950328 0.15705228 -0.3636893 -0.036780003 -0.12050648 0.54079294 -0.76088536 -0.94324 0.3291173 0.66694623 -0.6810754 -0.03458217 0.84256554 -0.2060633 -0.78851783 -0.52799004 -0.4984773 -0.3432403 -1.499319 0.90013564 -0.016498823
228 0.4143874 0.049675703 0.49189332 -0.88207936 0.5252392 -0.10108403 0.76927334 0.18649438 -0.0672499 0.23735167 -0.8252316 -0.11948217 0.06322842 1.0284613 -0.17691319 -0.3083594 1.0530833 -0.7266914 0.14831531 -0.64105386 -0.03193174 -0.82449025 0.5702769 0.6384678 -0.45813492 -0.09171214 -0.34687328 -0.32555124 0.84855515 0.27707422 -0.037869934 1.0615635 -0.64256394 0.08714219 0.46294376 0.2979128 -1.0466038 0.47251222 -0.51499414 0.57882303 1.243974 0.015417246 0.0012699391 0.33325854 0.86698604 0.29436314 -0.19593236 -0.3996703 0.14159828 -0.2806258 -1.04188 0.0047179963 0.8047728 1.0088305 0.27921772 1.3404818 -0.38543013 -0.28417373 -0.30227175 0.23082955 -0.4428181 -1.3091508 0.89853734 -0.96461564
615 0.37880662 -0.23413125 0.03521518 -0.66059494 0.19274725 -0.050710924 0.8898361 1.9745561 -0.013144995 0.36618435 -0.13804966 -0.3180379 -0.018596916 -0.2070808 1.3388933 -0.27685502 -0.19980249 -0.9918661 -0.40394148 -1.0146072 -0.8592166 -0.16803007 -0.80163735 0.7387655 -0.85289454 -0.041082688 0.40313318 -0.73150223 -0.2892063 0.7503406 -0.49028707 0.8477047 0.7008262 0.88011265 0.2625622 0.54481107 0.258112 -0.19220302 0.4714533 0.97266984 0.6377431 0.25443283 0.3569915 -0.6205119 -0.48259735 0.1503664 -0.07494082 -0.43551806 -0.5061986 0.46237686 0.22907253 0.41475394 0.7421087 -0.55856943 -0.004617167 0.82363075 0.48580807 -0.336766 -0.30668285 0.5676765 0.38411352 -0.3580152 0.9125329 -0.68101484
649 0.7229516 -0.48920238 0.10142281 -0.26297218 0.44762084 -0.047679245 0.07816777 -0.17239457 -0.2580092 1.1727749 -0.66296464 0.24166527 -0.7293669 -0.43524402 -0.21917005 0.14312255 -0.17903815 -0.40442586 -0.32115692 -0.53674084 -0.4745142 -0.7978391 -0.3885432 1.0739998 -0.4517235 0.19472662 -0.7953615 -0.16276284 -0.09344127 0.73688036 -0.21968214 0.6669064 -0.59011024 0.9332781 -0.7177813 -1.162433 -0.56406313 -0.7838736 0.5456391 0.2712961 1.1677732 0.79956436 0.17426112 -0.1789057 0.13699608 0.97678554 0.26027462 -0.61688775 0.23180443 0.3706274 -0.62685037 0.29264498 0.5106275 -0.065241724 -0.6643676 1.148501 -0.20614962 -0.18295562 0.10864927 0.24835925 -1.0175654 -0.3475882 1.017081 -0.0019356357
556 -0.7704971 0.46862346 0.59522796 -0.6099035 0.10232415 -0.4627829 -0.63600606 0.06094888 0.23380074 0.95973545 -0.4010586 -0.44316852 -0.48752627 0.44451982 0.3615044 0.36452553 0.3723886 -0.6475573 -0.3757356 0.3728383 -0.843401 -0.82403576 0.10436514 0.94017833 -0.33225664 -0.054454964 -0.29299754 -1.3855952 0.97412634 0.030262709 0.5398943 1.0813987 0.32813194 -0.64072067 0.3079065 1.0080153 0.3036999 0.16907004 0.33444145 -0.049394377 0.43897447 0.66955036 1.0284222 -0.4634784 0.739574 -1.0604177 -0.38265505 -0.28251275 0.25435996 -0.39530092 -1.1416296 0.08497385 0.5537389 0.21645992 0.46738783 0.31535205 0.31209922 -0.39825174 0.6360826 0.037318572 0.21331312 -0.4418727 1.0814556 -0.9367213
254 0.9178576 -0.2768816 0.5224522 -0.14275701 -0.1553698 -0.48373228 -0.65147203 0.38746992 -0.39691517 0.9120648 -0.28300616 0.5831696 0.11515605 -0.46704912 0.2535034 -0.3493386 0.15056616 -0.9147804 0.5806782 -0.78330016 -0.3384171 -0.2757479 -0.87598825 0.14954306 -1.2034115 0.76262707 -0.6040785 0.23887399 0.48091787 0.22822276 0.75710404 0.3871657 0.25099897 0.7387681 0.5091548 0.90505964 0.33371732 -0.6143536 0.3347007 0.19214094 0.6504463 -0.026113579 -0.83805496 0.13999921 0.77162325 -0.21015765 -0.23735444 0.2668025 0.24877642 -0.8363411 -0.79707354 -0.045557495 0.16592771 0.6420964 -0.004288789 0.23342992 -0.25076273 -0.20792323 -0.5439413 0.26741672 0.87411237 0.0021210106 1.8977654 -0.49277353
577 0.42263696 0.48940322 -0.50594294 -0.24400778 0.16491123 -0.57490027 0.17858474 0.18130364 -0.08382293 1.277555 -0.6648319 -0.6479134 -0.07941672 -0.22637676 -0.0957848 0.11105427 -0.11089384 -1.2390628 0.61778504 0.15692417 -0.04428452 -0.32716876 -0.7020956 1.3769053 -1.5154502 0.53523827 -0.049140584 -1.1457975 -0.45210353 0.53728455 0.19154222 0.8920399 0.39105985 -0.32268187 0.4206453 0.40301988 -0.07192445 0.46072078 0.57246786 -0.9515526 0.6558637 -0.086913876 0.20710352 -0.038655393 1.1099776 -0.3778708 -0.35082206 -0.7129114 0.14656621 -0.94888717 -0.58414376 -0.35035953 0.768717 -0.6694979 0.14409098 -0.07143731 0.17915769 -0.4868251 -0.64510995 0.3656308 -0.116834655 -0.39525327 0.91074216 -0.77885723
457 -0.7277139 -0.6909611 -0.5576358 0.011773859 -0.06771064 -0.038722977 0.68022877 1.1487854 -0.24166581 0.49534836 -0.8919225 -0.6944218 -0.1353404 0.4868955 0.54365575 -0.7294957 -0.29420584 -1.4986228 0.34333205 -0.60154897 -0.038621873 -0.65541124 -0.17375879 -0.031184105 -0.73579866 -0.26946285 -0.7273664 -0.24763615 0.7398898 0.44529158 -0.18958339 1.225468 0.8205544 -0.16207224 -0.04436086 0.011575417 -0.6261946 -0.16591786 0.24574037 0.5384502 0.18572223 0.7094355 -0.16950358 -0.13491267 -0.10672862 0.06543911 -0.55888623 0.1355296 -0.7248207 -1.0063272 -0.092127584 0.61779636 0.8013393 0.6721438 0.17953019 -0.09637222 0.184524 -0.6318052 0.032260295 -0.07917201 0.73198164 -0.07119402 1.0592922 -0.76585436
320 -0.20933297 0.24918732 -0.1713558 -0.5995009 -0.15105379 -0.03319605 0.9399181 0.8877767 0.15838635 0.7123138 0.6067923 -0.66377264 -1.14361 -0.029138122 -0.50852066 -0.23762111 -0.18881594 -1.0831813 0.58776516 -0.7938021 -0.6349404 -0.25135532 -0.23221229 0.30115697 -0.5490206 0.7728041 0.032591842 -0.4946661 0.24028817 0.078371495 -0.24293327 0.8314166 -0.01886679 0.85987675 0.35482457 -0.27536184 0.6061563 -1.1034772 0.5535784 0.33711907 0.15812156 1.7131048 -0.6392451 -0.6697167 -0.641447 1.036558 0.44340333 0.0026461575 -0.44873053 -0.25971928 0.15157266 -0.010274839 0.0073844795 -0.38251975 0.2719726 -0.20120944 0.23396157 -0.6396253 -1.1213325 -0.43089524 0.32089606 -0.25099802 1.5845104 -0.6889329
371 0.4084589 0.3155703 0.41230595 -1.0648664 -0.034133546 0.20937735 0.53878367 0.8103847 0.2830213 0.58813363 -0.42510656 -0.74016017 -0.7270695 0.058550403 0.9721542 0.09850226 0.44946346 -0.29537067 0.23048455 -0.32568455 -0.6617823 -0.14654097 -0.24781908 0.36358917 0.0324762 0.9342609 0.24586585 -1.1370145 0.37430856 1.0101182 -0.068449385 0.7469443 0.16671939 0.9920273 1.1657298 -0.4132777 0.40665433 -0.21918635 -0.12774886 0.005575023 0.96480477 1.3601066 -0.559243 0.19162211 -0.07111265 0.08257787 -0.6021738 0.019051492 -0.15609026 0.3118332 -1.3807155 0.24797589 -0.012038103 0.9611759 0.07133894 -0.05612549 0.45474347 -0.35440505 -0.94915754 0.6436433 0.38238978 -0.45249608 -0.034942295 0.48750892
322 0.96276534 0.097112454 0.17197874 -0.20201306 0.62053466 0.45219505 0.60822386 0.42532104 -0.25679722 1.651591 0.14612249 -0.24804659 -0.9514651 0.32300264 0.13444394 -0.4087918 -0.3654352 -0.7747973 0.15530819 0.67845255 -1.4902734 -0.57723224 -0.702833 0.56120175 -0.41470823 -0.14807865 -0.10101756 -0.50807095 -0.04020242 0.62336403 0.13061623 0.44554478 -0.53152674 0.4553635 0.98396105 0.18004794 -0.25783223 -0.70199364 0.19925068 -0.1637578 0.35772356 0.6263341 -0.32889298 -0.45491606 -0.2545943 0.71604943 -0.56685317 0.11594828 0.6190178 -0.9208617 -0.8307928 -0.02283414 -0.22514917 -0.35463423 -0.38702592 0.040388945 0.42767277 -0.41408333 -1.2483282 0.067300566 0.36749613 -0.7975373 0.52551836 0.7495555
189 0.26448184 -0.27266842 0.9563318 -0.6580297 0.83849597 -0.23291878 -0.113911584 0.67291886 -0.5156492 0.28623882 -1.1193987 -1.0284427 -0.24072431 -0.3486705 0.7417267 -0.18713908 -0.2530117 -0.85911244 -0.32758483 -0.11913582 0.16748099 -0.97902846 0.024263276 0.9935836 -0.2970802 0.054501735 -0.40706316 -0.3524199 0.4210607 0.69561815 -0.56206995 0.66037214 0.10709185 -0.37696266 -0.47476748 -0.50888383 0.17087883 -0.020296017 1.1333246 -0.515565 1.0261692 0.6249523 0.794453 0.388001 -0.19416842 0.68523747 0.8274412 -0.5947482 -0.59963596 0.011306711 -0.25475156 -0.009632454 0.28061256 0.55313617 0.89783096 0.14636211 0.28442046 -0.6527054 -0.23536028 -0.403898 0.6223192 -0.8263294 0.7103751 -0.59906566
602 -0.6814683 0.6143294 0.17679228 -0.16808239 0.56228596 -0.31228253 -0.093304604 0.4655504 0.12189045 0.7334631 -0.36074695 -0.46798044 -0.32710654 -0.81273234 0.27833906 -0.016393911 -0.15001169 -1.5808506 0.34433118 -0.30026948 -0.50262195 -0.30063698 0.073699385 0.8740339 -0.7682042 0.08303186 -0.69132507 0.2753182 1.2636037 -0.3154719 -0.42836577 1.2918738 -0.8160913 0.16322102 0.44047844 0.527352 0.06921846 -0.5847139 -0.0011260259 1.2305207 0.49740985 1.3656473 0.065651625 0.0073418384 0.13749446 0.07763924 -0.7358027 0.08658892 0.50270647 0.8894843 -0.6274141 -0.44398093 0.053108025 0.5205409 0.31551504 -0.48498437 1.3121282 -0.17816414 0.19040884 0.17873105 -0.59311295 -0.24625902 0.5086437 -0.35039628
499 0.17828399 -0.19704556 0.25415686 -0.058176123 -0.11831731 -0.19534904 0.44277862 0.5983016 -0.05392389 0.23117359 -1.3600106 -0.47470558 -0.72758716 0.09655203 -0.09565306 -0.3535592 -0.29358765 -0.48812938 -0.10848466 -1.5167044 -0.22447798 -0.6770894 -0.77038014 1.211833 0.33853567 0.129733 -1.575999 -0.37920606 0.42992148 1.5180223 -0.52093357 0.15491696 0.2586294 1.2652073 -0.016938983 0.50212014 -0.0665619 -0.7048772 0.105650045 0.1670948 0.7059165 0.4318202 -0.1543157 -0.5595978 0.4382709 -0.5029344 -0.24364097 -0.17606142 -0.7682202 0.41806528 -1.073561 0.1747167 -0.04063264 -0.22492105 0.31953323 0.41438076 0.33441353 -0.21858755 0.4064357 0.44793436 0.33909723 0.12855603 1.006625 0.42567056
541 0.32302833 -0.024477752 -0.31576177 -0.020086752 1.192138 0.29482165 0.50481874 0.019913819 -0.8315951 0.7486779 -0.17182921 -0.026794637 0.40199044 -0.22663894 1.3274797 -0.16754682 -0.5807732 -0.9521434 0.6198507 -1.301058 -1.6618193 -0.16312285 -0.9034218 0.42359832 -0.25773022 0.43338186 -0.57687384 -0.28652206 1.0446291 0.24838321 -0.33863094 0.93087584 -0.10308419 0.35780177 0.0119697265 -0.021948565 -0.030008398 -0.4291972 0.3552004 0.45334858 -0.24652024 0.6422467 0.23124512 0.6400444 0.105068415 -0.011068743 -0.36592215 -0.21783447 -0.4157075 -0.9278877 0.018167345 -0.061384078 0.20841973 0.040699705 0.35218635 0.30626732 0.49608618 -0.7323804 0.6178342 0.56313044 0.6597171 -0.41307104 1.1436758 -0.15463398
334 0.4192284 -0.11354024 -0.12771553 -0.06662626 -0.4936196 -0.2961146 1.0632486 0.52575666 -0.5859543 0.6447881 -1.3777684 -0.56705713 -1.4129474 0.13866769 -0.06948737 0.23108013 -0.30681992 -0.2462144 0.27236107 -0.007308457 -0.54237777 -0.14449313 -0.013512053 0.18091628 -0.29919636 -0.16744049 -0.26602066 -1.1528909 0.9530017 0.33710906 0.25639158 1.150301 0.31014854 1.2652695 -0.028095588 -0.47399226 0.24454224 -0.4354079 0.3645324 -0.4982379 0.045170892 1.3076158 0.1179824 -0.5912175 0.19390754 0.537628 0.017265275 0.4615179 -0.2860032 0.48809245 -0.916989 0.2721605 -0.22781189 0.014712569 -0.08771054 0.88897413 0.13818355 0.11190458 0.0456775 0.25722292 -0.37637568 -0.8177811 0.5867522 -1.5147313
11 0.3731313 -0.2581277 1.148997 -0.18110958 -0.45656896 0.012815034 0.5276393 0.7699133 0.47315216 0.7659122 -0.7183424 -0.20248143 -0.5874141 -0.008535061 -0.8563111 -0.21768738 -0.15867254 0.093921095 0.4501446 -0.54326296 -0.4558666 0.15929642 -0.6077578 0.0422311 0.28228372 -0.20922926 0.024140017 -0.2748677 0.43590984 0.25539866 -0.10753275 0.6516507 -0.82202065 0.49239525 0.2223256 0.23919591 -0.24329703 -0.5564647 -0.19456078 0.40126303 1.1761267 1.7996454 0.05396014 -0.9857111 0.29939958 0.08975786 0.17286715 -0.7110777 0.8128641 0.58720356 -0.42585006 0.03749093 0.17127015 0.26970354 0.6559039 0.08184805 0.19997102 -0.81996095 -0.47774228 0.95066243 -0.22254525 -0.4367584 1.7786016 -0.17476895
439 0.70804733 0.9202574 0.17411996 -1.5910965 0.1674636 0.081703514 0.123928264 0.7725691 -0.0012966754 0.23116028 -0.10220703 0.49269855 -0.54916996 0.71920204 0.08858801 -0.6886076 -0.054686587 -0.51889354 0.27021733 -0.32219023 -0.4775192 -0.1998116 -0.15031442 1.0652312 0.2962363 0.73863536 0.040512405 -1.3451961 0.13752554 1.2915337 0.073258996 0.6497776 -0.28737622 0.45802802 0.3613218 -0.1606916 0.35047826 0.089950524 0.3237751 0.9611216 0.8959529 0.37756452 0.31038257 -0.42008784 1.2324182 0.17871606 0.7312056 -0.17960411 -0.55805683 -0.18090999 -0.63249224 0.54390436 0.20988128 -0.6036775 0.11541521 0.5607019 0.30964085 -0.22611806 -0.18480271 -0.3651405 0.3773174 -0.7855835 1.3164972 -0.21375863
248 -0.37093306 0.17833033 1.3295692 -0.26821765 -0.4319536 -0.15520984 0.4204743 0.08773162 -0.0068894327 1.2832185 -0.5153863 -0.5178906 -0.77805024 0.3769941 0.030949235 0.49841952 -0.4342787 -0.560795 -0.100755766 -0.77825123 -0.36603966 0.55794376 -0.93835455 0.6680698 -0.66851234 0.013172758 -1.3923532 -1.2538474 0.9922201 -0.07171325 -0.15237899 1.0747015 -0.5646181 0.2207534 -0.08458501 0.08077096 -0.0433542 0.3445292 0.3903846 -0.025391223 1.1708013 0.34816825 0.23128156 0.30689368 0.4998002 -0.17619228 0.16776296 -0.04384688 0.40293255 -0.6334479 -0.3654806 -0.022207683 0.6851723 0.28670743 -0.2271639 0.7762365 -0.116852485 -0.21057409 -0.5125336 0.66993713 -0.46969703 -0.6685213 -0.019990928 -0.541325
102 0.04613014 -0.15891264 -0.18761675 -0.6960767 0.029021412 -0.13325822 -0.15146653 -0.43853733 -0.081191614 0.30178523 -0.8488692 0.36959782 -0.78283954 -0.03680509 1.1776466 -0.6793744 -0.011525119 -0.40153083 0.44038454 -0.40854406 -0.034532964 -0.28284445 0.5141495 0.6259843 -0.373367 -0.02548141 -0.55063975 -0.830189 1.0100725 0.8279113 0.065315396 0.23394834 0.059985515 1.0536463 -0.30971155 0.53309095 -0.40781146 -0.1135152 1.4272479 0.03797587 1.2288437 0.30586955 0.17066982 0.33734185 0.34390646 -0.43479142 -0.6476034 -0.6183469 0.4736074 -0.5308142 -0.91098964 -0.68120646 0.7549683 0.3313214 0.895818 0.35560107 0.427645 0.59225047 -0.1517624 -0.5032203 0.11630878 -0.24257906 0.96087974 -0.5820175
54 0.31275177 0.7768747 0.98924273 -0.51264095 0.88833135 0.18396908 0.75812316 0.26090258 0.08631314 0.94447607 0.0046075187 0.5165624 -0.54893315 -0.2815445 1.1466932 -0.5915329 -1.0888759 -1.5880461 0.14722459 -0.28035003 -0.4010377 0.2667348 -0.32849348 0.6297288 -0.3234787 0.49183044 -0.071578875 -0.7691797 0.3293074 0.6256401 0.09243814 0.49479172 -0.93265164 0.009762112 -0.5612916 0.19440025 -0.11055352 -0.27513948 0.26931107 0.533321 0.55085355 1.2350831 0.15554051 -0.3861531 0.5911721 -0.071161754 -0.4323699 0.072128884 -0.20339885 0.40263987 -0.965655 0.9214265 1.1233449 -0.42319915 0.10790638 0.41836637 0.030156737 -0.031502686 -0.7531902 -0.013599986 -0.11971351 -0.6692374 0.3132057 0.3757155
717 -0.10158396 0.6197012 -0.22613971 -1.2965914 0.8395832 0.5799216 -0.18290034 0.5213595 -0.6228855 0.8303798 0.008972018 0.39190063 -0.37681848 0.768614 0.4197113 0.1660641 0.6526399 -1.1468463 -0.35585845 0.021828001 -0.5747171 0.188921 0.07730094 0.38424554 -0.8143895 0.08118538 -0.4461846 -0.06996801 0.9886414 0.79490846 0.37114203 1.3517804 -0.5590725 0.04759538 0.45517817 0.38985226 -0.4643807 -0.29478484 -0.558927 1.0074705 0.85170084 0.8934262 -0.36700428 -0.4288097 0.26936576 0.20880947 0.31731138 0.135855 0.35497448 -0.5839296 0.060413048 0.47085738 0.43412483 0.06441187 -0.5568993 0.3157219 0.35417405 -1.1705763 0.27834162 0.23980714 -0.12938862 -0.38147745 1.3549427 -0.3195001
109 0.2130276 0.08337471 -0.34710106 -0.29727232 0.6772189 0.57565606 0.28750932 1.0222089 -0.11061777 0.19415534 -1.2100301 0.12743133 -0.4986475 -0.34748238 0.08478261 -0.45516816 -0.44333795 -1.0543176 1.2315178 0.1832451 -0.15232617 -0.048270088 -0.32731706 0.7437052 -0.6563909 0.48771983 -0.056070223 0.26762617 0.36093998 0.7883832 0.48506784 0.3777799 -0.2808884 0.571946 0.118321806 -0.119989716 -0.2163045 -0.88929874 0.09148259 1.1445005 -0.12062693 0.84913164 -1.3506066 -0.7034422 0.13577767 0.48918593 -0.46578854 -1.1843092 -0.016479457 -0.09732563 -0.6776183 0.10779269 -0.56249756 -0.20342475 -0.04604034 0.4082377 0.7005835 0.36047447 -1.017854 0.01833574 -0.2970945 -0.84794515 0.8396159 0.06047654
342 0.29199812 -0.25086564 0.71910864 -0.7145186 0.8345817 0.45535916 0.8947473 -0.34006163 -0.4259741 0.5138239 -0.9883945 -0.049585152 -0.351743 -0.75206643 -0.13654825 -0.9453629 -0.6098426 -1.5833715 -0.18890195 -0.3201819 -0.18832375 -0.6503947 -0.3684146 0.81179065 -0.2243705 0.01486135 0.001950904 -0.42293212 1.0788186 1.0241722 0.6437809 0.00014046133 -0.25103015 0.73353016 -0.4164049 0.92647946 -0.022364942 -0.4211601 -0.30528754 0.20638312 -0.12455749 0.8887587 -0.14472024 -0.09689787 -0.20685124 0.48689917 -0.08083407 -0.65817744 -0.4330927 0.36558613 -0.802565 -0.06303078 -0.06775299 -0.4507515 0.040347237 -0.4309771 0.14475821 -0.5755443 -0.7859395 0.2436836 1.0777466 0.11931165 0.69930345 -0.45803863
77 0.05905972 0.1847792 -0.16057214 -0.5871145 -0.1346677 0.6824942 1.1350958 0.035172764 -0.78851044 1.2654704 -0.3634518 0.29252183 -0.55567104 -0.99241304 0.43125314 0.050437696 -0.77493316 -0.6650909 -0.41698453 -1.1664195 -0.64242524 -0.28829113 -0.3896592 0.5276916 -0.7049386 0.14652124 -0.34026375 -1.0757889 0.03111185 0.3592323 1.3250418 1.2578028 0.4140694 0.29958346 0.17757544 -0.17338403 0.100639224 -0.99889046 0.3851078 -0.3868545 0.14395219 0.69823325 -0.829815 0.07661698 0.19047588 -0.21796577 0.22563358 -0.082987584 -0.098611526 0.31757843 -0.39987403 0.8434909 0.2883226 0.09762307 -0.13973358 0.5322487 0.928318 -0.6548417 -0.066541225 -0.3345207 0.28033656 -0.20912914 0.37100258 -0.123013556
575 0.44005653 0.566807 0.05701543 -0.415105 -0.09877909 -0.2822294 0.07810391 -0.5275909 0.2613881 0.5083464 -0.976809 -1.2374103 0.084415905 -0.24793974 0.578643 -0.26051694 -0.7662335 -0.041397255 0.4899302 -0.38436842 0.1691691 -1.2117847 -0.3054836 0.81900233 -0.95303047 0.14592308 -0.6182858 -0.9151899 0.73531574 1.0049145 0.49076772 0.68749315 0.36922425 0.11205468 0.79524 0.3578285 -0.15854444 -1.2900856 0.33416858 0.6500246 0.7588489 0.47966525 0.35828194 -0.3526852 -0.15128505 -0.013424356 0.57058644 0.90223473 -0.2861509 0.36793977 -0.5212158 -0.4014079 0.07137547 0.51786053 0.022787225 0.7446324 0.33178002 0.11491937 -0.02841308 0.14531717 0.6516535 -0.23372221 0.6108834 -0.335962
514 0.4403439 0.52882653 0.107345395 -0.47775182 -0.08941423 -0.26152828 0.08128292 -0.50191575 0.25910345 0.4859585 -1.0063622 -1.2171121 0.06735696 -0.23167405 0.563065 -0.29583326 -0.76733196 -0.04889556 0.49037275 -0.3718004 0.12801677 -1.2196393 -0.34873387 0.842938 -0.91740984 0.16013227 -0.625057 -0.9434712 0.739487 0.997069 0.4903691 0.6528163 0.36530384 0.18334953 0.7657723 0.34623384 -0.17561941 -1.2793294 0.27197003 0.7101249 0.7584105 0.5011164 0.3388633 -0.38951904 -0.18486284 0.011200538 0.5175714 0.8998131 -0.27319318 0.36466745 -0.44696358 -0.37004396 0.09898106 0.4842623 0.094372585 0.75889254 0.26465473 0.07384524 -0.06362253 0.11565208 0.65789694 -0.27953666 0.64380294 -0.32998365
218 0.7852151 0.117082655 -0.17290194 -0.9224501 -0.510639 0.3260654 0.38860586 0.116298825 -0.7088524 -0.53914434 -1.134185 0.0059637493 -0.4154448 -0.5582389 0.006742252 -0.6790393 -0.006168973 -0.60080636 0.3701916 -0.64554304 -0.95146394 -0.8298242 -0.48553988 0.37649515 0.11450862 0.16600168 -0.8866487 -0.57148325 0.44713247 0.3602406 0.16707174 0.45047212 0.690737 0.8153528 -0.23820932 -0.046585333 0.24332678 -0.41011608 -0.14002936 -0.2536009 0.93513095 0.6452601 -0.11557365 -0.2717673 0.021604093 0.72002196 -0.7855557 -0.12141602 0.66479146 -0.80591273 0.07328845 0.3224264 0.31825912 -0.19476798 0.85471725 0.7559882 -0.6771834 0.064892 -0.7301112 -0.06921957 1.1278584 -0.92520744 1.0398513 -0.18415466
731 -0.074796245 0.1994345 0.26822168 0.032851607 0.2631608 0.25363502 0.63775706 0.13525502 -0.35718605 0.9745941 -0.74878216 -0.3576449 -0.64654696 0.3197597 0.5067029 0.43998775 -1.1024964 -0.48624098 -0.059010692 0.21170913 -0.762198 -0.3495265 -0.3707769 0.15152767 -0.12718068 -0.50229776 -0.33610427 -0.2580515 0.32827777 0.06891664 0.11807243 0.3012805 -0.92755 0.5401151 0.4460021 -0.19572741 -0.28810474 -0.14142941 -0.78520995 0.71759975 0.34520686 1.101261 -0.20399557 0.16674253 0.82601476 0.9474737 -0.72335964 -0.07969651 0.73445743 -0.1136142 -0.5546587 -0.78651905 1.5676781 0.18889657 0.32847646 0.8316832 -0.03880759 -1.12094 -0.49788985 0.3093003 -0.4267401 -1.2869254 1.0106087 -0.5260847
259 -0.08330231 0.20594755 0.30590445 0.02027701 0.242087 0.18679377 0.6550525 0.11866774 -0.35101897 1.0022585 -0.69044524 -0.39291972 -0.5953077 0.315471 0.43897322 0.42691404 -1.0926758 -0.3959269 -0.037895374 0.17931756 -0.75011414 -0.3401198 -0.4098754 0.12245783 -0.16411081 -0.4796801 -0.33613107 -0.27124307 0.30962747 0.08780385 0.09355334 0.32304293 -0.9372259 0.56537867 0.52764237 -0.25281984 -0.3895793 -0.13451897 -0.8382623 0.7834774 0.399639 1.0556352 -0.20160791 0.09142916 0.8489773 0.904912 -0.64467394 -0.15591767 0.74490637 -0.13353042 -0.50271785 -0.8010967 1.5159258 0.15633711 0.25825664 0.8627538 0.05274987 -1.2069362 -0.43696305 0.2924062 -0.43184108 -1.3044684 1.0450644 -0.5213064
76 0.03155448 0.16594589 -0.14524077 -0.573141 -0.15903214 0.6954101 1.1411471 0.013654536 -0.7854153 1.2887949 -0.38213333 0.2870323 -0.4962698 -1.0036473 0.44994837 0.049611267 -0.8131178 -0.60182124 -0.41662002 -1.1690633 -0.64473176 -0.25834838 -0.37412181 0.48118624 -0.63768804 0.09860233 -0.36203822 -1.0460157 0.036053732 0.32955253 1.2620661 1.2216582 0.40200174 0.30416518 0.19266823 -0.15776907 0.0562807 -1.0258827 0.3722273 -0.33711058 0.13179499 0.64450514 -0.77122694 0.09450101 0.1150446 -0.20496938 0.2724822 -0.058378402 -0.11865811 0.34857756 -0.37285325 0.8402137 0.29984328 0.13349107 -0.15001018 0.49522763 0.89017445 -0.6633778 -0.08512911 -0.30468866 0.33715063 -0.21997418 0.38967505 -0.14491616
801 0.17759477 0.137454 -0.32648817 -0.35107344 0.61921245 0.5741121 0.3041838 1.0682921 -0.07985895 0.1927635 -1.2431659 0.11361993 -0.5350189 -0.34137774 0.10142024 -0.4752154 -0.40074426 -1.0165598 1.2794026 0.2024943 -0.101621546 -0.027796222 -0.2930691 0.78307587 -0.66236115 0.5369065 -0.07272579 0.2901552 0.40640762 0.7686584 0.46545517 0.34733576 -0.24928191 0.5331776 0.1000342 -0.09148814 -0.15367332 -0.8688579 0.09495153 1.102619 -0.105916284 0.87918836 -1.3626316 -0.6778232 0.121164955 0.5212472 -0.42025155 -1.1897498 -0.034296103 -0.10296552 -0.6775226 0.12303628 -0.64938974 -0.24881284 -0.031846873 0.4247842 0.6556663 0.3797534 -0.97905225 0.008079266 -0.33128983 -0.87425905 0.8535584 -0.0054237056
341 0.24052203 -0.31483206 0.72142965 -0.6636097 0.7637381 0.59856147 0.90365255 -0.5189511 -0.42176494 0.34089774 -0.9440814 0.0040404922 -0.3734633 -0.8839441 -0.20998521 -0.8713523 -0.5667452 -1.497071 -0.13519216 -0.3174871 -0.29568195 -0.6166902 -0.40612742 0.81627774 -0.20756043 0.013182014 0.04946259 -0.31137025 1.1283579 1.082249 0.62341815 -0.016278718 -0.27524704 0.6949117 -0.48786205 0.9139551 -0.060212824 -0.3560263 -0.45183653 0.30231377 -0.074887775 0.87961954 -0.05526455 -0.05312522 -0.23353568 0.52174544 -0.14097781 -0.68141156 -0.44153133 0.32875365 -0.6598137 -0.0731319 -0.049984228 -0.44217232 0.06303071 -0.5590791 0.19209906 -0.58442295 -0.62226194 0.14163344 1.022617 0.08467903 0.9246936 -0.54489106
250 0.09608342 -0.15602016 0.13711902 -0.023451624 -0.096092016 0.046795238 0.6323367 0.56022197 -0.49821016 0.6706596 -1.0243137 -0.26443103 0.054312274 -0.40836826 0.56633604 -0.9300667 -0.21816322 -0.25028566 -0.260089 -0.43854198 -0.812186 0.08107853 -0.70740306 1.4485282 -0.86823636 0.49460408 -0.49383032 -0.18881038 0.8307806 0.8695797 0.28452703 0.9226202 -0.6314386 -0.08060329 0.3046715 0.13291329 -0.20479006 -0.05334826 0.07402313 1.2125518 1.1402024 -0.3295812 0.45814332 -0.506338 0.2293861 0.053397156 -0.088568024 -1.2782556 0.035749175 0.0027644527 -0.104948856 0.5298558 -0.15968016 0.7025036 0.5683244 0.46910855 0.17642471 -0.74227315 -0.5821793 0.31879804 0.24961331 -0.13757366 -0.49437836 0.029400392
591 -0.163714 0.024868526 0.024541233 -0.61211544 0.17235023 -0.37138554 -0.49582264 0.2767214 -0.70840025 0.019130448 -0.22342046 -0.53279257 -0.35739332 0.33521906 0.17788488 -0.73873615 0.39669982 -0.40913028 0.20104562 -0.6409876 -0.46900028 -0.4334934 -0.049570337 1.5113081 -0.80527264 0.36508948 -0.7907418 -0.5499893 1.1748552 0.5604331 0.5314884 1.0699176 1.0176023 0.37721854 -0.003909788 -0.09411799 -0.03438804 -0.795874 0.45863765 0.14045285 0.3656071 0.39183843 0.07243138 -1.2039104 0.15472531 -0.10462503 0.6917233 -0.96508163 -0.47620967 -0.029115172 -0.57175416 -1.1077865 -0.15039152 -0.15420842 -0.2973348 0.63284475 -0.52044165 0.2758766 -0.20943816 -0.032632105 0.3775979 -0.5786391 0.16424409 -0.28059506
647 -0.03338517 0.5013119 -0.24090543 -1.3489958 0.7438907 0.59388626 -0.21931891 0.5261999 -0.7257754 0.7469842 -0.20804778 0.396594 -0.40040419 0.79887384 0.5231926 0.18078211 0.6833508 -1.0069281 -0.3897528 0.024485089 -0.5841342 0.17763594 0.08405561 0.37471315 -0.82998383 -0.08051869 -0.48836026 -0.03411931 0.9121035 0.7808399 0.38027385 1.3190818 -0.5920483 -0.0477612 0.48516777 0.44013378 -0.37480214 -0.27462718 -0.6076402 1.0173697 0.8955043 0.88889784 -0.5184739 -0.4522156 0.25405475 0.15206915 0.32265943 0.01915992 0.40294152 -0.5124797 0.16928579 0.5591099 0.4544135 0.08730062 -0.502663 0.3212431 0.38135952 -1.0980369 0.2348713 0.28838745 -0.094964415 -0.43836996 1.5048923 -0.34243402
766 -0.045305774 -0.28949293 0.000901617 0.013458234 0.103100576 0.20671816 -0.21403629 -0.72400075 -0.45594212 0.2481653 -0.52858746 -0.13679178 -0.6071906 -0.106019996 -0.17646961 0.19611798 0.6054615 -0.6476059 0.3685407 0.09244605 -0.72191024 0.371627 0.19171366 0.2973189 -0.87012416 -0.0377324 -0.3308207 -0.42500886 0.9510342 -0.23769681 0.19827688 1.120535 -0.38835496 0.31024402 0.39443174 -0.06373364 0.15953618 -0.4739142 0.3119724 0.115667365 -0.13988994 0.95713 -0.19055884 0.37264752 -0.03610213 -0.16322069 0.31943893 -0.44901216 0.24103758 -0.43911532 -0.91370946 -0.28080326 0.6253826 1.1703721 0.07992503 0.97130966 0.15684143 -0.513816 -0.8180409 0.03252069 -0.014755993 -0.5907811 1.0769616 -0.37310073
55 0.31799534 0.76185685 0.90355384 -0.46682626 0.8535264 0.18387344 0.8095993 0.25254264 0.10724745 0.97176296 0.043269135 0.5125304 -0.5443859 -0.2553913 1.1525745 -0.5821204 -1.1281025 -1.537673 0.17569934 -0.3042757 -0.3733173 0.25106364 -0.36065918 0.593502 -0.32718286 0.5085999 -0.017070904 -0.8323737 0.2828272 0.53577954 0.022376701 0.44710997 -0.80609524 0.04204112 -0.5757733 0.21872014 -0.13280636 -0.2928418 0.27256188 0.5138194 0.6305309 1.1999073 0.15696648 -0.4121568 0.50799966 -0.045261867 -0.4088873 0.14873947 -0.22793385 0.40061462 -0.94627947 0.9492991 1.1197621 -0.41820097 0.18160933 0.46589354 -0.013078837 -0.044479813 -0.71484613 0.00042516156 -0.17827123 -0.63616806 0.31057575 0.34101894
714 0.07968733 0.099271804 0.46147773 0.08829896 0.05407183 0.32553726 -0.34261474 -0.40987512 0.04944834 0.6290643 -0.73901874 -0.34600952 -0.10751656 -0.42028692 -0.19606873 -0.29238027 -0.2544619 -1.1547735 0.3369465 0.3261067 -0.09850481 -0.9860839 0.043900028 0.59284025 -0.2127233 0.26492372 -0.554824 -0.3783981 0.27234304 1.0442854 0.7422838 0.9609153 -0.3832795 0.7153178 0.15801467 -0.32275364 0.29943222 -0.40024632 0.15156011 0.08130357 0.5203016 -0.07825636 -0.26656002 -0.05349663 1.1996963 0.27961272 -0.8968776 -0.31880435 -0.34873202 -0.7227461 -1.7212855 -0.59127915 0.6210112 0.06889721 0.034625415 0.69493204 0.43361548 0.48334363 -0.84551847 -0.05124069 0.43293425 -0.47985598 0.25471544 0.08544589
139 -0.6679593 1.1190206 0.19216976 -0.30205426 0.19338523 0.4303822 0.027474135 -0.08951091 -0.7636486 1.0104283 -0.38280094 -0.5057449 -0.8885576 -0.043478712 0.7296012 0.09102674 0.10445946 -0.6664283 -0.054302383 -1.2004254 -0.018921716 -0.4690189 -0.25045064 0.9041361 -0.5064969 0.341744 -0.50792396 0.17650454 0.091808856 0.45928058 -0.46038815 1.6570495 -0.08440705 0.31357884 0.35107836 0.038684197 -0.15779093 -1.3818111 0.017116956 -0.22710785 0.4642251 0.12386185 -0.39040875 -0.76198304 -0.4231013 0.07666303 0.1361694 -0.014705337 1.0046096 -0.39708033 -0.14351796 -0.052982435 0.54784226 0.5770108 0.33127478 0.69929135 0.03912034 0.37861788 0.6291905 0.7050555 0.086301945 -0.7979375 0.59140056 -0.11060827
219 0.80882883 0.04763426 -0.09014091 -0.8892969 -0.54347974 0.30956554 0.3548622 0.06953437 -0.6826716 -0.5583138 -1.1539481 0.046479613 -0.41935253 -0.5486155 -0.03824472 -0.7079835 0.002148127 -0.6272051 0.3749901 -0.6364426 -0.93232834 -0.83207846 -0.4939211 0.4170352 0.004209433 0.13927783 -0.90331995 -0.6163724 0.44907033 0.3696252 0.17424615 0.392638 0.70320034 0.8016715 -0.29923627 -0.054138355 0.22874959 -0.43229744 -0.13612704 -0.2995801 0.94980615 0.62278605 -0.09031933 -0.27704892 0.0020790163 0.67367154 -0.7486978 -0.1724351 0.6714533 -0.8596317 0.08801508 0.28094408 0.31051186 -0.21017823 0.83543557 0.78201765 -0.7157219 0.03916493 -0.7068792 -0.08505105 1.1709758 -0.8909614 1.044351 -0.17737341
379 -0.64416796 1.0189693 0.11864092 -0.31188345 0.3263573 0.49962908 0.08165464 -0.096009165 -0.7652531 1.0172398 -0.30335745 -0.5280862 -0.80644804 -0.033844326 0.6258344 0.06512482 0.1642702 -0.5352804 -0.16699848 -1.045662 -0.03435094 -0.40108764 -0.22349073 1.0179456 -0.5382728 0.31106722 -0.42725477 0.21617201 -0.018391278 0.52695024 -0.5177861 1.6025975 -0.09825422 0.26202226 0.38550538 0.025104702 -0.021413798 -1.3166093 -0.0020225577 -0.28309608 0.520309 0.21834971 -0.36816067 -0.8379042 -0.40885392 -0.043781437 0.115939945 -9.83557e-05 0.93015563 -0.2651677 -0.12660968 -0.01633946 0.40752384 0.4659358 0.2480507 0.83559203 0.060582157 0.3331418 0.6019923 0.7892661 0.024183596 -0.8475323 0.5731822 -0.16993074
38 -0.3544358 -0.35571653 0.5958083 -0.25710702 -0.4288274 0.88644683 0.515464 -0.31294608 0.30776262 0.24416804 -0.29200798 -0.62586504 -0.7415601 -0.4333416 0.35201627 -1.1400359 0.22573079 -1.0826575 0.38333255 -0.02670378 -0.9854002 -0.47257027 -0.9311441 0.16210292 -0.6334911 0.415039 -0.57635057 -0.5739658 0.55612063 0.081935465 0.07050906 0.0147329215 0.587775 0.75320494 0.16696742 0.5274011 -0.48534054 -0.04770255 0.23180132 0.8130623 0.6809039 -0.11495032 0.20809387 0.16188428 0.2088361 0.25187415 -0.23996203 -0.63644594 0.0015666088 0.010737566 -0.9700652 -0.4619579 -0.5581123 0.39234534 0.3406616 0.95642996 -0.1628415 0.17991835 -0.66381824 0.2032576 0.1657326 -1.0207436 0.70273954 -0.9845688
445 0.0030364632 -0.009176876 0.3058148 0.17782083 0.14675638 0.3383904 -0.36156398 -0.33703795 0.10662836 0.63870007 -0.7402551 -0.28330392 -0.06403015 -0.36411116 -0.25709844 -0.2543317 -0.28479147 -1.046013 0.33130836 0.34769526 0.034463577 -1.07762 -0.065540165 0.52645224 -0.09461935 0.32599446 -0.5491155 -0.318949 0.12217408 1.0420877 0.81442803 1.0739298 -0.46900308 0.79902357 0.1815928 -0.30455583 0.2912117 -0.37557632 -0.0036106487 0.11288909 0.5456575 -0.108118646 -0.09334877 -0.1122068 1.261153 0.20893785 -0.8917952 -0.32718956 -0.36081418 -0.5964029 -1.7574995 -0.60349613 0.5741369 0.21633 0.053786665 0.83317494 0.45696375 0.5836298 -0.8648534 -0.14774375 0.38108793 -0.51045907 0.2662066 -0.03164681
380 -0.6640209 0.9995207 0.15633094 -0.2961009 0.28388768 0.41986915 0.041885745 -0.04681906 -0.68933475 0.9680884 -0.31929716 -0.5219134 -0.82631004 -0.0046636295 0.6656843 0.07399698 0.11381515 -0.5756388 -0.117023356 -1.1095686 -0.023464583 -0.44468528 -0.24167481 0.9473813 -0.51288605 0.33715057 -0.4845118 0.17334668 0.08102541 0.49018142 -0.4594912 1.590949 -0.12760822 0.29569748 0.36752754 0.0037834274 -0.1378341 -1.3463804 -0.0006554218 -0.23925674 0.52810967 0.24804935 -0.3384032 -0.8064414 -0.3947241 -0.0074731032 0.13765158 -0.04339629 0.9457153 -0.36553085 -0.17140128 -0.083772436 0.5027421 0.53478485 0.3010321 0.7773291 0.088340074 0.3142593 0.57742417 0.7099461 0.0146584455 -0.8112945 0.5413955 -0.1701157
161 -0.64686596 -0.15070906 -0.056224026 -0.16781138 0.48839316 0.04088571 0.54747564 0.17772771 -0.26121846 0.066023916 -1.0861228 -0.17663856 -0.42005518 -0.5014248 0.2711187 0.3668551 -0.29278755 -0.07617155 1.0058038 -0.0061089033 -0.8177495 -0.66705316 -0.11037967 0.27526104 -0.61884415 -0.1298324 -0.30043194 -0.9270547 -0.0650479 0.45473877 0.38443467 0.7178771 -0.41144928 0.74384195 0.6503112 0.5316667 0.04536609 -0.14918686 0.5896097 -0.022396201 0.9106858 1.4839792 -0.31021604 0.5723738 0.38384888 1.0281423 -0.010566081 -0.90874386 0.37603933 -0.838197 -0.7249872 -0.1358571 0.36097324 -0.19481769 -0.24732266 0.592398 0.38296622 0.12510891 0.7465483 0.22777 -0.16414616 -0.3254368 0.43869135 0.4682869
185 -0.91812766 0.36915907 0.45797685 -0.39840722 0.1157978 -0.08263926 -0.4619445 0.6642637 0.07828426 0.842725 -0.89354783 -0.8557486 -0.38412866 -0.7767594 0.24838199 -0.15949102 -0.37732098 -0.46834624 -0.0027446894 0.4857576 -0.005928741 -0.5482604 -0.188765 0.8093699 0.26426658 -0.111050434 -0.87491214 -0.7981994 0.53447884 -0.12657785 0.08998835 0.6489191 0.49335572 -0.023575673 0.31263185 0.7171622 -0.8885317 -0.7439461 0.25983453 0.65622073 0.084941074 0.98224425 -0.4835616 -0.71460587 -0.03911977 0.7638897 -0.34682032 -0.10314931 0.21491493 -0.49443987 -1.2664744 0.03394332 0.1394728 -0.14390475 0.4987751 -0.43471482 -0.4079496 -0.6478948 -0.32126307 -0.13942339 0.453693 -0.33500835 0.51165205 -0.54615575
526 -0.649633 -0.020332722 -0.028521866 -0.07077511 0.36000797 -0.05586895 0.5582924 0.12856363 -0.24451607 0.14508127 -0.9941924 -0.13434495 -0.30807433 -0.60737956 0.22799896 0.5315908 -0.23512515 -0.039592244 0.99244386 -0.025808517 -0.80734444 -0.6638341 0.014102246 0.24423443 -0.6395137 -0.05566035 -0.41671762 -1.0902603 -0.012393667 0.36067238 0.46995965 0.7552472 -0.33777648 0.8619335 0.52608544 0.42735773 -0.08327074 -0.23175864 0.6798844 0.010880182 0.72535765 1.5002726 -0.29283887 0.45038536 0.52307576 1.0097065 -0.032499954 -0.9291193 0.53157634 -0.92569524 -0.8760103 -0.22517009 0.48014453 -0.2553481 -0.23789304 0.6651336 0.36430433 0.09347153 0.82119995 0.25380886 -0.24045683 -0.4357232 0.33177724 0.4443736
555 -0.9165948 0.41759902 0.50860053 -0.41079152 0.1865277 -0.03529036 -0.4536753 0.6613529 0.10667458 0.78392196 -0.866652 -0.8807051 -0.3956371 -0.74772346 0.2742018 -0.1894226 -0.46793067 -0.47014415 -0.037396334 0.45067033 0.031541348 -0.5662982 -0.14348727 0.86303264 0.32380325 -0.14852747 -0.853358 -0.85164195 0.51539344 -0.08167095 0.10378759 0.6180987 0.5219111 0.050774124 0.3362619 0.7436117 -0.9209862 -0.73729074 0.25471097 0.7018345 0.075954914 0.9446787 -0.48547068 -0.7523038 -0.0032248318 0.743085 -0.2793287 -0.13789737 0.13383839 -0.40861613 -1.2655725 0.07071922 0.11943612 -0.16383311 0.4888812 -0.48794243 -0.431062 -0.5820035 -0.3264109 -0.19350375 0.47711292 -0.37840587 0.5840639 -0.5300738
268 -0.24200238 0.13188466 0.055775844 -0.6715574 0.21811645 -0.43517235 -0.44899654 0.14026548 -0.73451024 -0.028137518 -0.29098627 -0.5802296 -0.2972214 0.30815607 0.104594454 -0.711149 0.45908776 -0.31818774 0.17183544 -0.6561025 -0.38596156 -0.61791563 -0.009385574 1.4797823 -0.7965947 0.5303853 -0.7620959 -0.51095206 1.1995623 0.66017455 0.55339736 0.9633063 1.0740467 0.29512343 -0.061232567 -0.19392428 -0.13454795 -0.82352847 0.41694993 0.10118366 0.37993592 0.2965679 0.045723815 -1.1547028 0.1761076 -0.100374386 0.6765251 -0.7953861 -0.48974684 -0.06550951 -0.5235779 -1.0666645 -0.23721507 -0.19382633 -0.25795996 0.63803136 -0.5358306 0.33258432 -0.24793842 -0.06800819 0.2284284 -0.70543855 0.15722694 -0.21273053
37 -0.39001772 -0.34516832 0.583777 -0.24328066 -0.53866005 0.8892367 0.54825574 -0.26675275 0.294974 0.2892896 -0.21781452 -0.62074155 -0.7269286 -0.3686526 0.38379875 -1.1369815 0.1653121 -1.1805905 0.36272445 -0.06469315 -0.99394447 -0.49310538 -0.9844043 0.16228443 -0.6460584 0.42964247 -0.5731336 -0.61908275 0.56610185 0.064540446 0.069115035 -0.027665494 0.6950211 0.7460926 0.16637035 0.58449155 -0.45324382 -0.13164368 0.19886069 0.76898456 0.63283825 -0.108263135 0.121118836 0.17593083 0.10976759 0.3733171 -0.26698953 -0.5297526 -0.008242057 0.06631259 -0.86341876 -0.40874553 -0.5458674 0.36934742 0.37631586 0.92756104 -0.19468974 0.15904523 -0.6669137 0.18436453 0.151815 -0.9046987 0.69043857 -0.98343873
269 -0.20703223 0.041417707 0.038540635 -0.627176 0.16028321 -0.43497092 -0.45865923 0.21323752 -0.777457 -0.015333133 -0.29320234 -0.51629394 -0.31656343 0.30765304 0.1365179 -0.7332732 0.44078764 -0.3944853 0.16364333 -0.6354726 -0.43694618 -0.51886666 -0.022110261 1.4668552 -0.78976595 0.4598827 -0.7694769 -0.5337151 1.1864123 0.61873895 0.5603829 1.0067486 1.05536 0.32910585 -0.03879256 -0.1442678 -0.10502903 -0.75876355 0.4342885 0.15577577 0.3602669 0.39779004 0.0417509 -1.1915379 0.1602209 -0.11133098 0.7268532 -0.8891126 -0.44603404 -0.056880962 -0.5298962 -1.0603347 -0.22563995 -0.18980059 -0.27792153 0.62468326 -0.548443 0.283679 -0.24845344 -0.060552362 0.2717466 -0.6832098 0.1625408 -0.2275365
527 -0.5172684 -0.37854558 -0.015581017 -0.31638163 0.5752217 0.25164893 0.4901193 0.25996447 -0.131044 0.08422113 -1.1249639 -0.21502452 -0.6200368 -0.4490833 0.33450106 0.14756092 -0.3816753 -0.33126587 1.0898055 -0.062199797 -0.96397936 -0.6441946 -0.30003092 0.21916895 -0.6609458 -0.20568109 -0.20020427 -0.7931216 -0.26164576 0.610521 0.21844546 0.7688698 -0.617226 0.5955222 0.768901 0.60446376 0.28467408 -0.049699057 0.3855295 -0.14903507 1.0618867 1.4954536 -0.3004249 0.7737558 0.16013002 1.0304934 0.14010668 -0.836875 0.19274905 -0.6312016 -0.57080406 0.011979872 0.18762316 -0.05562799 -0.22126725 0.47665945 0.4520445 -0.007183689 0.55726 0.20052175 -0.043878198 -0.16355696 0.78177583 0.40005767
352 0.27753022 -0.011318273 0.03311466 0.5700733 -0.21879229 0.64274764 0.24358869 0.4247476 -0.16621105 -0.309821 -0.289231 -0.5764997 -0.27496615 -0.9012134 0.31640592 -0.6902548 0.10692646 -0.22907344 -0.4012569 -0.26917955 -0.438677 -0.3843745 -0.7742112 1.0188683 -0.7608692 -0.026015649 -0.3106502 -0.50308645 0.13845311 0.69503605 0.74739945 0.5101451 0.13046493 1.2995092 -0.13321063 0.2357717 -0.77334994 -0.40196362 0.58662266 0.30050275 0.8779372 1.140661 0.5336286 -0.8718974 0.07181102 -0.15344025 -1.1065395 -0.39475617 -0.15417072 -0.8024598 -0.5415823 0.35065386 0.14297134 0.34434265 0.058395375 0.1844057 -0.23145619 -0.997399 0.6211926 -0.32754153 -0.050349407 -0.623539 0.55275005 -0.002766138
160 -0.60527563 -0.21380235 -0.07493391 -0.23201078 0.5389513 0.10549376 0.49473137 0.23675787 -0.17731921 0.061641775 -1.0904388 -0.22283292 -0.4952451 -0.49925506 0.30174133 0.25338286 -0.36189762 -0.1647592 1.0548971 0.025648724 -0.9317202 -0.6429927 -0.1795056 0.24032563 -0.6312486 -0.137803 -0.23316671 -0.89101774 -0.16933525 0.46297005 0.3242376 0.702067 -0.52255666 0.6874223 0.7551036 0.5453694 0.17588636 -0.09675557 0.5382476 -0.13347813 0.94170797 1.513279 -0.33645052 0.6555258 0.2894752 1.0209428 0.07592579 -0.8833025 0.25125661 -0.72113967 -0.64953953 -0.01574538 0.2857483 -0.17415889 -0.2501409 0.5459295 0.378028 0.03960581 0.7080259 0.2133541 -0.16517569 -0.25605273 0.59229434 0.4247052
278 0.8143929 0.07208511 -0.06256513 -0.8667914 -0.5092322 0.20382962 0.34449217 0.01711572 -0.6162182 -0.5476318 -1.078829 0.104263075 -0.49925077 -0.48045474 -0.0955544 -0.68026114 0.010940214 -0.57193756 0.3381342 -0.653976 -0.9397184 -0.73157114 -0.52300763 0.40617052 0.0020577875 0.16711211 -0.8650469 -0.60786694 0.41914415 0.37398145 0.10480332 0.38984773 0.6485437 0.73831713 -0.30931318 -0.1279331 0.19773474 -0.4741845 -0.14115071 -0.29696777 0.94572014 0.65312546 -0.12558155 -0.26330715 0.007301959 0.6267826 -0.7016357 -0.1440865 0.6297405 -0.89409244 0.061712626 0.19580616 0.27932063 -0.19979858 0.7704068 0.71783173 -0.6698791 0.00788947 -0.6988363 -0.09639769 1.1533552 -0.8422525 1.0192133 -0.19291025
777 0.21807727 0.03887131 0.16133387 0.41277802 -0.18357341 0.6746806 0.2022099 0.5459617 -0.047717217 -0.33571428 -0.2991085 -0.57513106 -0.14535537 -1.007973 0.3189031 -0.6760037 0.009523265 -0.27691245 -0.4189421 -0.2135419 -0.5222386 -0.3693192 -0.84308076 0.93602407 -0.64115196 0.07030822 -0.25761387 -0.32939294 0.13225277 0.651037 0.74612355 0.46590096 0.21446119 1.1778035 -0.09781207 0.38440138 -0.6401227 -0.4878587 0.5900138 0.1889751 0.99218047 1.0930551 0.7020247 -0.7294074 -0.020803377 -0.047676466 -1.1510322 -0.3187736 -0.2216277 -0.9325135 -0.51342845 0.3396741 0.1575031 0.31559855 0.38095704 0.14390959 -0.2782866 -0.9412444 0.60165244 -0.33710676 -0.008723221 -0.6919694 0.52974635 0.0675943
841 -0.19244273 0.7489127 0.5447758 -0.12972361 -0.38292167 0.08071096 0.048284654 0.8307887 0.40850598 -0.14317834 -1.4588188 0.12138271 -1.1507592 -0.73666006 -0.26635537 -0.56003875 0.33908075 -0.6284084 0.06288215 -0.7216074 -0.36111215 0.2502606 0.16486272 0.012706239 -0.13706326 -0.013978994 -0.7436043 -0.7156565 1.0393658 0.50748086 0.8089596 0.9926039 -0.34351024 0.31796548 0.037783064 0.8386308 -0.2836797 -0.17266038 0.5776938 0.20536016 0.7808655 0.7778208 0.54278266 -0.07333171 0.4453006 -0.41155413 0.66690296 0.073193856 -0.30241513 -0.07044025 -0.72055775 0.40097374 0.11902131 0.20046006 0.6500845 0.34098855 -0.0067211273 -0.39130142 0.11733957 -0.21673493 -0.11556557 -0.38314813 1.1893871 0.06650982
579 -0.22320114 0.7529162 0.57011265 -0.077749565 -0.36541736 0.021735305 0.01726249 0.8085922 0.39880207 -0.08232011 -1.4700003 0.14815046 -1.1295893 -0.7083213 -0.24694036 -0.51102036 0.37162805 -0.59019023 0.051534183 -0.72062975 -0.36020336 0.3094945 0.16481033 -0.017504327 -0.1773026 -0.06650942 -0.70825666 -0.6981925 1.0008818 0.5322546 0.78895986 1.019047 -0.36277547 0.30011004 0.006838202 0.8498958 -0.28077707 -0.1470014 0.59569454 0.20117334 0.7209466 0.75106895 0.532425 -0.09163736 0.44980446 -0.4115479 0.7390189 0.026360156 -0.35376906 -0.07271798 -0.7199941 0.40080088 0.10615255 0.22375827 0.59643894 0.33129102 0.017933061 -0.3553898 0.142104 -0.20185938 -0.15202518 -0.35891813 1.171907 0.1133232
642 0.024340909 -0.12513272 -0.17401142 -0.60635424 0.029436875 -0.13441837 -0.15593739 -0.44355294 -0.07229273 0.29039907 -0.8307237 0.28429 -0.7561349 -0.03622014 1.1078728 -0.6560367 -0.052392762 -0.42403534 0.42068136 -0.37433505 -0.02314147 -0.31141096 0.5296897 0.70701426 -0.3591005 -0.017055186 -0.5403481 -0.78481597 0.98949856 0.83134806 0.04289095 0.2644961 0.07490407 1.0318068 -0.265555 0.47330233 -0.4292568 -0.16857913 1.3375827 0.10337863 1.1217949 0.23909745 0.13001072 0.30698666 0.3266173 -0.34088287 -0.6519514 -0.6049832 0.36790746 -0.5454507 -0.90179753 -0.63844883 0.7430857 0.25700197 0.86847717 0.3313995 0.42349395 0.60607284 -0.16469255 -0.46727654 0.15861765 -0.21317261 0.8870549 -0.5199805
814 0.6114866 0.71026033 0.46855667 0.07427821 0.32560244 -0.5353905 -0.4100664 0.107627444 -0.23679495 1.5805955 0.059934475 -0.3240398 -0.4313738 -0.23540528 -0.11494687 0.70731205 -0.21906935 -0.95920444 0.15735805 -0.3756625 -0.9437908 0.53631425 0.39370432 1.2086875 -0.34805852 0.09076038 -0.70906436 -0.6615444 0.040918007 0.6766562 0.032417677 0.84032303 0.20496067 0.7047142 0.2608432 0.16317189 0.20430851 -1.3340775 0.37415498 0.22109199 -0.37536883 0.63119423 0.14285342 -0.44481182 0.04297709 0.10253974 0.46308717 -0.8019459 0.13375174 0.12709102 -0.51809794 -0.27409288 0.04220271 0.28246206 0.46806195 -0.033215474 0.36306477 -0.24061392 -0.39926067 0.21800373 -0.17906734 0.12438514 1.016186 -0.725223
746 0.41356558 0.14899504 0.3491136 -0.32526374 -0.45152777 -0.4314483 -0.0007342518 0.31784776 0.104183875 1.0135255 -1.0091703 0.25981173 -0.3639124 -0.46474358 0.010181225 -0.2637174 -0.06524645 -1.0634474 0.35588425 -0.23872064 -0.60585815 -0.19173518 -0.5189413 0.48779896 -0.39545786 0.042832907 0.3139963 -0.46376133 0.6758569 0.40196645 -0.43853438 0.5310145 0.3294456 0.64030135 0.25753388 0.41570672 -0.25068405 -0.9968806 0.2574611 0.79525054 0.47500345 0.3161678 -1.2241763 -0.673451 0.28748676 0.32423016 -0.8449305 0.36308008 -1.3209094 -0.31482628 -0.5154488 0.45103556 0.16236903 1.057086 -0.2835371 0.57358795 0.32402486 -0.07754197 0.011103023 0.6286455 -0.5377624 -0.36113495 1.219342 -0.036144935
641 0.039385315 -0.17438643 -0.15009393 -0.6276594 0.024082089 -0.13654831 -0.14461298 -0.4681048 -0.05644256 0.25318384 -0.8457724 0.3104416 -0.74839115 -0.012129753 1.1282871 -0.64697367 -0.06912491 -0.39656442 0.41234007 -0.37860146 -0.0033314785 -0.27544263 0.500413 0.632262 -0.32905722 0.0040098587 -0.5371386 -0.7858536 0.97182554 0.82366186 0.065593034 0.22248016 0.06389424 1.0231588 -0.30221304 0.44363144 -0.42894018 -0.14632474 1.3268571 0.13629743 1.1439613 0.23965748 0.17755367 0.313774 0.33606783 -0.36301148 -0.6420073 -0.5725977 0.43077716 -0.52045375 -0.8907964 -0.6582503 0.743974 0.28657925 0.8628312 0.29730788 0.42141658 0.58949447 -0.12388782 -0.44364962 0.12115196 -0.19659324 0.9134448 -0.47936594
336 0.23411885 0.30680108 0.2578622 -0.6492235 0.26897794 -0.18323717 -0.23171937 0.7357618 -0.9094968 0.20113994 -1.0250709 -0.51013213 0.07380048 0.09600651 0.107994735 -0.82406396 -0.14417703 -0.47309464 0.1772632 0.024541251 -0.69867206 0.0412738 -1.1348093 0.35433823 -0.25903133 -0.33360693 -0.07477925 0.19815633 -0.012217593 0.5820716 0.38505962 0.83225477 0.07810912 0.60610247 0.34016842 0.7931901 -0.42266068 -1.1549078 -0.64039797 0.20820151 0.98407996 0.15112053 -0.6416005 -0.4245011 -0.17798673 0.33318344 0.9594752 0.002066526 -0.5863484 -0.6313803 -0.66613716 0.09359634 0.9602794 0.36737275 0.34867248 0.6141958 0.02332595 0.3121681 -0.7719616 -0.52433497 0.06434568 -0.08847089 1.0601907 -0.2957011
319 0.042836674 0.060447734 0.13622065 -0.39728725 0.19676776 0.031354215 0.28175658 0.38607764 -0.29936576 0.6624923 -0.5340116 -0.25771305 -0.36975366 -0.30392388 0.27518162 -0.24181923 -0.10509204 -0.7816994 0.25043726 -0.33379903 -0.511503 -0.50427556 -0.33598557 0.743653 -0.578447 0.13358112 -0.48488304 -0.5729 0.5303383 0.5214908 0.18061163 0.8751362 -0.029617693 0.4097341 0.17090195 0.25021434 -0.028648391 -0.46154484 0.20744234 0.24489519 0.6545393 0.69881743 -0.013670222 -0.30280915 0.22603427 0.0738897 -0.10104952 -0.34519044 0.00943173 -0.3110519 -0.7155975 -0.06272487 0.34341076 0.14795534 0.24380021 0.3918249 0.15552995 -0.34249046 -0.43657312 0.089008704 0.15622734 -0.7058642 0.8493044 -0.34881705
46 0.44329777 0.18306257 0.3634774 -0.3656504 -0.4496251 -0.40706268 0.026659867 0.34893432 0.11970045 1.0395619 -0.98294157 0.24217449 -0.38973352 -0.4924003 -0.0007527972 -0.25283045 -0.05630472 -1.0839809 0.3998233 -0.20926404 -0.6051695 -0.17098722 -0.51202375 0.51293874 -0.3898538 0.015042377 0.34914845 -0.47567257 0.715238 0.44734076 -0.45520064 0.48969835 0.28706825 0.6287793 0.26546457 0.46161667 -0.18678428 -0.98740935 0.25217095 0.80091214 0.47443187 0.31308025 -1.1985068 -0.70925474 0.30553064 0.3030357 -0.8081248 0.32502276 -1.3324897 -0.30797943 -0.47887203 0.5012959 0.13123749 0.9945802 -0.3171429 0.57478285 0.32800573 -0.10727507 0.030169835 0.5983786 -0.54718983 -0.39646822 1.2405357 -0.018012002
318 0.029853096 0.060982216 0.14727089 -0.3794973 0.19202681 0.042569015 0.2886599 0.39446726 -0.28094846 0.62783414 -0.55156624 -0.2536113 -0.37460408 -0.2907694 0.24486801 -0.24760467 -0.10990241 -0.75611067 0.21488936 -0.32312936 -0.4803475 -0.48878533 -0.3310348 0.72795415 -0.5545478 0.13710229 -0.46429247 -0.5697072 0.5452397 0.50945204 0.16672935 0.8794391 -0.03429682 0.417072 0.17016134 0.23081283 -0.035108298 -0.4708886 0.21294759 0.26650146 0.65208805 0.6998399 0.0045829797 -0.30355412 0.20592804 0.061115477 -0.10732669 -0.33398882 -0.007586309 -0.32036838 -0.704072 -0.06082368 0.32475623 0.1498013 0.24145757 0.38992372 0.19007875 -0.3175046 -0.39201188 0.09129737 0.134545 -0.71629924 0.8286647 -0.36484945
338 0.19968352 0.31935117 0.30526486 -0.6848016 0.27120766 -0.2022708 -0.22401695 0.75816333 -0.9128346 0.17631069 -1.0802202 -0.5579384 0.043912195 0.102587 0.13723461 -0.8224227 -0.12671527 -0.4286573 0.15321018 0.078897275 -0.69632643 0.026043903 -1.1548024 0.35593653 -0.29781526 -0.3264604 -0.10633007 0.15266606 0.013423984 0.5601248 0.39726594 0.89224225 0.092021435 0.60468245 0.38253894 0.7448387 -0.42534125 -1.086865 -0.6333972 0.26719788 1.0390007 0.13762932 -0.5956141 -0.49042407 -0.18479516 0.28923705 0.9942187 0.06904193 -0.62649375 -0.6204687 -0.6827583 0.054259427 1.018729 0.32552248 0.33821607 0.6517982 0.016000714 0.36467957 -0.751287 -0.49478352 0.032969773 -0.065999195 1.0659056 -0.29178065
