2271 64
3 0.5719213 0.2298766 0.33785683 -0.25460875 0.15166122 -0.31543797 -0.07971626 -0.54283655 0.3254514 0.6587883 -0.2502089 0.9725926 0.19818063 0.063429885 -0.050061386 0.6306534 0.379346 0.3929707 -0.22922751 -0.10114394 0.10703905 0.05757215 0.5622805 -0.38468447 0.5487115 -0.45040163 0.2940927 -0.051113456 0.2928549 0.08243938 -0.82508135 -0.32845923 -0.14345862 0.25454178 -0.5366501 0.46090913 -0.21416342 -0.34907588 0.8033978 0.13183683 -0.7808457 0.46129206 -0.0018781356 -0.08117825 -0.2871795 0.008213662 0.3264345 0.48405778 -0.0072393967 0.32034 0.58256054 0.31478935 -0.03854325 0.32688576 -0.07829645 0.4622041 -0.42111728 0.47655568 0.12206816 -0.48204958 -0.13613087 -0.54206765 -0.28126684 0.23509036
14 0.7684369 0.57582754 -0.1500545 0.09108076 0.10940961 0.13911806 0.72311413 -0.46976897 0.02600463 -0.035294667 -0.4218161 0.66484255 0.7287603 0.63132566 0.29630738 -0.25185242 -0.24806613 -0.395584 -0.5798984 -0.48317787 0.27469796 -0.13103639 -0.18380934 0.26368022 0.23831359 -0.8528022 0.7316085 -0.47249162 -0.11727064 0.22846569 -0.30818826 -0.27202365 0.21076812 0.70402825 0.09645212 0.91065276 0.3315188 -0.4392236 -0.042625617 -0.24581538 -0.35393396 0.72842294 0.16185743 0.01920572 -0.14488074 0.045766532 0.57163304 0.04939973 -0.42783087 -0.014357178 0.53963596 0.020759473 -0.044705126 0.015325508 0.49381402 -0.45023388 -0.27675968 -0.37196085 -0.82009685 -0.14234239 0.32263646 0.45449352 -0.020648543 -0.9059776
25 0.6673252 0.3085987 -0.27087563 -0.059670847 -0.029481877 0.62249064 0.08253204 -0.3907299 -0.06901548 0.3851975 -1.152606 0.35901725 0.6046674 0.02906727 0.34839308 -0.65407825 0.19110359 0.6333024 -0.12709597 -0.107419975 0.792718 -0.07110006 0.047662508 0.037167966 0.58529615 -0.05437274 0.3745494 0.05206824 -0.3019816 -0.4364898 -0.73057777 -0.09333936 -0.1443654 0.11834791 -0.6801233 0.3631338 0.13506733 0.12172846 -0.15567926 0.4832073 -0.60992324 0.2949645 -0.19998345 0.158713 -0.030693034 0.102506615 0.22709428 0.19800332 -0.26304087 -0.15445532 -0.18451212 0.04019535 0.065143116 1.1068476 -0.46676317 0.32785326 0.20797388 0.07514113 -0.89319134 -0.2928664 -0.07798336 0.018278439 0.086913005 -0.30506453
8 -0.18496579 0.40487224 -0.6472264 -0.3993275 -0.32341015 -0.3858633 -0.023312857 0.46446872 -0.842928 0.24057002 -0.7485943 0.6536694 0.42850316 0.25630894 0.21050651 0.5690376 0.21490665 0.21739794 -0.26591158 -0.43443254 0.37857768 0.3943858 0.25873104 -0.22708884 0.90085745 -0.14693886 0.23416598 -0.35622257 0.43298653 0.5931949 0.03914896 -0.42029935 -0.7165644 0.56975216 -0.70573133 0.14049946 -0.12391144 0.036592502 0.6908855 0.79581517 -0.2940062 -0.23274249 -0.25829485 0.02497466 -0.11334857 0.32684505 0.6675275 0.31876388 0.26224667 0.2850041 0.12817279 0.2806674 0.14979552 0.6421825 -0.023699883 -0.19469237 -0.8319658 0.18142183 0.096737 -0.44567755 -0.23530021 -0.08413281 -0.09010352 -0.5560884
10 0.44643962 0.9589813 -0.35976323 0.1273693 0.08256938 0.6681805 -0.038330916 -0.29441532 0.0015287459 0.10486743 -0.33704028 -0.074192256 0.43862712 0.33759075 0.12999576 -0.3124301 -0.074862994 0.37526572 0.2613356 -0.060838137 0.28096554 -0.023747185 0.03991117 0.5156865 0.6364551 0.27748707 0.16053241 -0.09844303 -0.21034186 0.25549537 -0.30453417 0.13910359 0.705237 0.047203645 -0.76624614 1.3843764 -0.2068917 0.1250901 0.23511976 0.40612862 -0.49295872 1.0391594 0.08811831 0.4434057 -0.41134182 -0.0023149452 -0.29014513 -0.28430077 -0.11420021 0.6979913 0.2997098 -0.24554773 -0.18614352 0.062014762 0.7033642 -0.5541257 -0.41411096 0.23022233 -0.48580652 -0.91039723 1.12733 0.20784111 0.1296081 -0.62277263
21 -0.57833254 0.50888264 0.62218994 -0.46324125 0.02778963 0.12654036 -0.12357691 -0.34670937 -0.6777712 0.2444526 -0.123911545 0.75515604 -0.23224132 -0.11287087 -0.07056167 -0.36385947 0.34396565 0.14757738 -0.76058316 0.24220705 0.34108236 -0.34577256 0.63428843 -0.21001422 1.0143411 -0.52883035 0.89819527 0.47477672 0.16414143 0.304753 0.11611903 0.020628702 -0.28908747 0.30537143 -0.31157455 0.29542062 -0.55177283 -0.044538807 0.8301051 0.5789426 -0.32888055 0.49428162 -0.57640857 -0.2680676 -0.44397095 0.10069145 0.5639716 0.36429122 -0.20675997 -0.34399867 0.91952336 -0.52585393 -0.5510256 0.4471704 0.89785427 -0.0760872 -0.60130954 0.104948536 -0.0481319 -0.20151822 0.16115442 -0.039561108 -0.32443175 -0.030848388
43 0.03216145 0.5532978 0.25261098 -0.2808742 -0.08032811 -0.6871155 -0.21825404 0.30953127 0.15692402 0.43943223 -0.4123547 0.54561406 -0.15201224 -0.05093523 0.14117849 0.3779708 0.22637835 -0.18256812 -0.4521448 -0.06882607 1.1003757 0.11883959 -0.031400595 0.06721509 0.7678098 -0.7006319 0.30401322 0.26258007 0.3201594 0.3664375 -0.8449179 0.34481442 -0.29749098 0.2629295 -0.3157904 0.34376937 -0.32223588 0.28205213 0.76815784 0.84183866 -0.4189029 0.14355622 -0.84588826 -0.01765033 0.26849756 -0.37299228 0.34888247 -0.4174809 -0.08067542 0.56571513 0.34775212 -0.30285013 0.1174509 0.5140395 0.49189755 -0.5528199 -0.4262222 0.38418016 0.37453014 -0.02245978 -0.060709864 0.48376077 -0.29861492 -0.14492576
87 -0.11133954 0.78084546 0.083383076 0.16406366 -0.39077955 -0.437749 -0.25655892 -0.47215173 -0.57653654 -0.3204261 -0.5729697 0.763929 0.40760547 0.44779605 -0.35881335 -0.71411085 0.09840885 0.9004698 -0.044946875 -0.46802056 0.76325524 0.37311557 -0.09738114 -0.08216598 0.58612037 0.18349312 -0.19618188 0.24980442 -0.23822388 0.1887122 -0.70651644 -0.35639796 -0.25077122 0.40409145 -0.1468514 0.56810063 0.40766513 0.69989264 0.5240646 0.54461 -0.58624667 0.63531405 -0.16560587 -0.32539198 -0.21254046 -0.042341407 -0.44156024 0.94144976 0.014539815 0.15452564 0.08967362 0.61054945 -0.47677007 0.82091135 -0.15769927 0.17876287 -0.6649927 0.66688114 -0.42144474 -0.07865088 -0.13072684 0.06491759 -0.5646179 -0.7483252
113 0.0091309715 0.596214 -0.21975134 0.4146787 -0.33550385 -0.05860902 0.19878949 -0.04978019 -0.4845961 0.02375565 -0.7204585 0.19695425 0.4353619 -0.061176647 -0.2508531 -0.08150248 0.3945259 -0.479667 -0.4360212 -0.36255357 0.662243 0.47630867 -0.08093441 0.23832574 0.92793244 -0.30880636 0.6550172 -0.24528097 -0.067237206 0.16670328 -0.6945887 -0.059655707 -0.5127346 0.22086135 -0.4499546 0.22620417 -0.5524425 0.19412091 0.40469667 0.7582959 -0.72481525 0.5349861 -0.54518783 0.003504483 0.11522029 -0.12375446 0.052534092 0.30556148 0.2811114 -0.5406166 0.67418444 0.2545343 -0.25613827 0.29300338 0.19819784 0.22713797 -0.33290803 0.2541772 0.3765035 -0.4529999 -0.3984893 -0.26328975 -0.52235013 0.31816143
40 0.38712785 0.06975237 0.7750833 0.14364272 -0.18474533 -0.3611612 0.034594875 -0.03653906 -0.21176995 0.46399605 -1.0288376 0.90541065 0.75159615 0.06669203 -0.08618995 0.4116597 0.7181607 0.33325043 -0.6634976 0.16987811 0.71956545 -0.035035625 0.011826984 0.27121556 0.8308768 -0.15051019 0.35486165 -0.58260703 -0.12238347 -0.05478398 -0.89559084 -0.34539422 -0.25244185 -0.3952209 -0.40205628 0.59622 0.53287077 0.39706486 0.9933694 0.12303835 0.04517532 0.3255787 -0.27768508 -0.3422464 0.2537975 0.24375951 -0.057575278 0.1877621 0.2649511 -0.11327429 0.32159722 -0.111254066 0.2823187 0.6201751 -0.16679999 -0.11261141 -0.5956971 0.33772177 0.3218845 -0.11484277 0.22797576 0.023083737 0.009693418 0.154931
69 0.046233177 0.6097843 -0.5911832 -0.13005726 -0.026311915 -0.64381546 0.24480106 -0.06797043 0.0896972 0.56388235 -0.8502039 0.7858206 0.6186029 -0.8803084 -0.28501865 -0.0646023 0.087383814 0.2954021 -0.288255 0.051403612 0.6372467 0.2873918 0.5604347 0.015755545 0.64103425 -0.061257366 0.73147863 -0.26689005 0.0983177 0.20648816 -1.2393166 -0.20226382 -0.6082233 0.28496808 -0.8253706 0.120779276 0.053725168 0.39600775 0.2869014 0.7300689 0.24495116 -0.16796362 -0.2372443 -0.22618078 0.03147363 0.039603133 0.44855216 0.20235954 0.33035395 0.47534457 0.2590698 0.20629995 0.36187753 -0.12984794 0.40040606 -0.4721304 -0.15060554 0.4366885 -0.27956375 -0.17196183 0.4307415 0.06720033 -0.26346937 -0.12035006
51 -0.593052 1.0585533 -0.09620438 0.02317795 0.5910893 0.50404084 0.015695062 0.22743498 0.21157022 -0.22492129 -0.41954023 1.0865602 -0.23546018 -0.18830597 0.22958374 0.34730476 0.26747596 0.23802039 -0.7372683 -0.49266118 0.13574988 -0.07661077 -0.22176057 0.48010975 0.69895893 -0.18655807 0.82660466 0.007128144 -0.40803835 -0.4290034 -0.40022048 0.5351804 -0.5615027 0.17025492 0.053711705 0.49112263 -0.23009352 -0.4669531 0.5350062 0.23986317 -0.34668237 0.5726159 -0.80626595 0.46443984 0.49592596 -0.2685918 0.09776831 0.25241333 -0.08543484 -0.4433078 0.7108341 0.56009656 -0.052405484 0.16794349 0.80487764 -0.18137692 -0.18919297 0.43564492 0.084494404 -0.051132 -0.40791988 -0.42680064 -0.8136158 -0.49733877
66 -0.46220964 0.6738306 -0.3821683 0.442521 -0.26724088 -0.45920548 -0.16444398 -0.21284145 -0.19257522 0.87894344 -0.3454436 0.25025254 0.7306458 0.070493124 0.420476 0.102902524 0.68821585 0.1885112 -0.42489552 0.3829243 0.44111076 -0.08048887 -0.35208413 0.81151676 1.0093591 -0.35190827 0.19171369 -0.7112064 -0.66628283 0.25512603 -0.5104765 -0.28782493 -0.011435598 0.28751707 -0.5043279 0.3017076 -0.13620396 0.07676386 -0.024694055 0.5581007 -0.60569257 0.057610113 -0.46408162 0.068635866 -0.75515467 -0.13488443 0.3337963 0.61098635 0.19821036 0.53249896 0.54251665 0.64334667 0.199707 0.43957323 -0.31574154 -0.18145464 -0.61031145 0.72210693 -0.08548375 0.5765808 -0.029810468 -0.28892192 -0.32562685 -0.23885448
1 0.30545348 0.77236664 0.12989716 0.33690232 0.06265704 -0.563863 -0.000603181 -0.120169125 0.15632407 -0.22376765 -0.60577416 0.88037306 0.71924543 0.1911409 0.09959567 -0.42608616 0.12191633 0.5403155 0.0334325 0.22173928 0.43131155 -0.015363759 0.09544657 0.58485824 1.0157235 0.49306878 0.37569144 -0.44944188 0.45614782 -0.5594511 -0.7724063 0.07424239 -0.311131 0.4261096 -0.4410689 0.026633251 -0.25668716 0.7005009 0.6341646 1.1912895 -0.4905096 0.59963757 -0.120844215 0.31533006 0.062227387 -0.052947685 -0.2817764 0.2702307 0.111567035 0.30844226 0.40009058 0.09619703 0.1501571 0.10010209 0.6831506 -0.264429 -0.02413706 0.45129883 -0.20973971 0.020367904 0.28198785 0.026204705 0.050111108 -0.18173873
30 0.6323006 0.5363301 -0.0075123706 0.3431574 -0.90160906 0.04046979 0.27173433 0.0048955 -0.12859589 0.3293003 -0.5598872 0.2490601 1.1428064 0.15265983 0.37666652 0.2356077 0.4634629 0.50573087 -0.39095908 0.34578294 0.20373869 0.31546068 -0.19486494 0.6448444 0.861365 -0.66506094 -0.29985532 -0.35501084 -0.20226392 -0.33966127 -0.9770875 -0.4124464 -0.22390802 0.49310338 -0.6714575 0.17101477 -0.66142184 0.22982328 0.45203772 0.30382165 -0.19325292 0.12557647 -0.8085723 0.11358094 0.057021648 -0.28854623 0.21171708 0.040538456 0.44684657 -0.044857144 0.110465795 0.054188788 0.11936662 0.9221149 -0.18371017 -0.43834087 -0.4062068 0.12103773 -0.49335766 -0.1454913 -0.14527549 -0.0782652 -1.0706072 -0.105610594
58 0.30168867 0.98556006 -0.6247313 -0.2140165 -0.030193446 -0.06742931 -0.38931042 0.15830085 0.6984657 0.40082136 -0.6156152 0.3342382 0.19481084 -0.15757112 0.39348584 0.22164634 0.7073677 -0.027572704 0.029862298 -0.20064932 0.56731945 -0.10165116 -0.05761902 0.89240205 0.9035441 0.38196728 0.27471444 0.1400424 -0.8758193 -0.48701054 -0.29575256 -0.32167435 -0.44673613 0.33921885 -0.8382651 0.02465382 -0.06254143 0.4635207 0.32947463 0.91058177 -0.58019346 0.05097271 -0.310718 -0.026632098 0.2382824 0.19113109 0.3918167 0.40551522 0.16845614 0.15438204 0.2908697 -0.32584757 0.10030844 -0.08352569 0.4258396 0.104679115 -0.014583642 0.13710777 -0.3743191 -0.46708247 0.8350709 0.08152315 -0.36000422 -0.48908374
117 -0.08013924 0.853276 -0.23407243 0.121590205 -0.27257186 -0.4490191 -0.21169771 0.7233524 0.16456912 0.2991619 -0.44264635 0.5443247 0.89184576 0.23877804 0.058533963 0.4892507 0.6054022 -0.13670103 -0.7167004 0.3042774 0.71555984 -0.05100977 0.41761208 -0.48310864 0.6739061 -0.33348334 0.45831612 -0.28833035 -0.092848115 -0.6624239 -0.37930346 -0.14476953 -0.18808134 0.9089876 -0.33377615 0.6845193 -0.22373377 -0.094762675 0.38543606 0.23024382 -0.17264718 0.156699 -1.0416193 -0.034897912 -0.10593482 -0.34561208 0.15675934 -0.0389923 0.20681532 -0.4609078 0.4549906 0.064389236 0.4684068 0.16177294 -0.11765866 -0.17547716 -0.29495677 1.0180538 0.17143612 0.088331915 -0.4219056 0.14135091 -0.72572505 -0.22973625
95 -0.106341526 0.8864651 -0.4401067 -0.57021034 -0.016958693 -0.24574731 -0.03899472 -0.19599232 0.44299912 0.26078215 -1.056299 0.55230683 0.3113863 0.2908958 -0.37101796 -0.24264258 0.0053946096 0.57977444 -0.31954858 -0.6197261 0.60319394 0.38290873 -0.048515387 0.14437553 1.0877094 -0.3861887 0.2652128 0.183156 -0.22351469 0.15869725 -0.11050431 -0.12611784 -0.90430605 0.3211255 -0.23853292 -0.32988977 -0.5995536 0.3991458 0.44420594 0.6696751 -0.3113869 0.22509694 0.08491011 0.094835766 0.20771493 0.33249196 0.010067328 0.67258966 -0.0137023525 -0.2634348 0.23851067 0.12755229 -0.20651327 0.47759357 0.38784212 0.30698982 -0.15811306 0.5600817 -0.2863597 -0.33158034 0.6529657 -0.000957987 -0.5668128 -0.38059503
28 0.31261486 0.5838239 0.60591525 0.32977077 0.67103916 -0.33428344 -0.12819105 -0.9636599 0.2933391 0.86673445 -0.45083436 0.33163723 0.8197039 0.20302066 -0.7416203 0.58873624 0.7861933 -0.19653395 -0.23983629 -0.07753313 0.30398434 0.22008863 0.82273835 -0.1073885 1.3991737 0.3273891 0.90937555 0.28985927 0.27124432 -0.5111877 -0.91914576 -0.025757458 -0.4598182 -0.08563732 0.32192138 0.9552599 0.3943166 -0.7362113 0.78118926 0.52766407 -1.3155397 -0.058109008 -0.34041736 0.13166133 -1.0217701 -0.24384764 0.71129227 0.18926693 -0.53808594 0.52260816 -0.17406239 -0.41677228 0.1027215 0.7511386 -0.3108648 -0.33702564 -0.9942368 0.074823014 -0.24212167 -1.36598 0.11711414 0.40480986 -0.62371534 0.4319826
115 0.26803178 0.4543957 -0.11725911 0.36796358 -0.3678815 -0.2718513 -0.12661877 0.28675058 -0.31325167 0.60519445 -1.136078 0.17661163 0.9159497 0.4478796 -0.24671657 -0.36442924 0.6577045 0.28667974 0.039024316 -0.1735835 0.6761662 -0.0017934601 0.22242455 0.18649781 0.43082932 0.059008986 0.1290749 -0.060336925 -0.43706983 0.07309493 -0.68061525 -0.20523566 -0.5107477 0.47973037 -0.020632599 -0.025041668 -0.017764708 -0.1897255 0.4954008 0.32448667 -0.41692632 0.37159032 -0.7130119 -0.07887162 0.013817565 -0.158851 -0.07829963 1.0539649 0.19431722 0.031450335 0.5448964 0.45580545 0.16414438 0.6435559 0.2138263 0.37704107 -0.30811122 0.7762311 -0.0140237 -0.36728114 0.5171801 0.36326468 -0.0625264 0.10873443
332 -0.099522665 1.0494171 -0.4471008 -0.114835836 0.043401275 -0.014094885 -0.009626875 0.8363845 0.08737681 0.26582798 -0.52007735 1.2907062 0.41761908 -0.08756365 -0.4968134 0.50374043 0.090281494 -0.16614738 -0.2855042 -0.64488125 0.4360156 0.54697585 -0.007542591 0.038243342 0.5867509 0.30315784 0.45591217 -0.089169264 -0.41735888 -0.099200174 -0.33617786 -0.071881935 -0.39674765 0.34597188 -1.0196323 0.71423376 0.15141663 -0.21436788 0.2765643 1.0413285 0.24823579 -0.08729473 -0.6561069 -0.25011998 0.13259685 -0.21469809 0.46836466 0.5742108 0.35989815 0.28568462 0.38942108 -0.5033855 -0.6852561 -0.045101676 -0.08930578 -0.20946994 -0.12901448 0.45128232 -0.13089508 -0.12167147 0.056230687 0.07417668 -0.5854344 -0.90437603
121 -0.102336966 1.1108681 -0.2795731 -0.015452359 0.78613216 0.9733499 0.15678532 0.11177407 0.5919296 -0.39130437 -0.88042516 1.397646 0.15432592 0.3965566 0.326544 -0.12966801 -0.2548011 -0.5052193 0.030847365 -0.45051813 0.023726247 -0.7480471 -0.535116 0.098674834 1.445842 -0.7917704 0.3490382 0.6998672 0.053517114 -0.09581839 -0.5854272 0.20565668 -1.3605032 0.5740191 -0.27420944 0.6421501 -0.2536317 0.22623399 0.10058127 -0.31855902 0.44351187 0.8631746 0.09764058 1.1795008 -0.10772479 0.4436937 0.44846374 0.36377823 0.26754722 -0.6657518 0.7967539 -0.45171323 0.30031884 0.17233905 0.8032072 -0.6903256 -0.91177064 0.48944673 -0.5032945 -0.049052555 -0.7035119 -0.5628551 -0.2816124 -1.1491323
130 0.53540343 -0.18956193 -0.067765534 -0.52943724 0.4109687 -0.3978417 -0.041100215 0.24273297 -0.026634498 0.35387743 -0.7213888 0.94865537 -0.12410627 0.1553417 0.22832966 -0.30551693 0.8773623 0.60888416 -0.16879708 0.17768179 0.20054385 -0.25819504 0.4783386 0.27309993 0.702068 -0.1820453 0.47668552 -0.2746783 -0.046373084 0.21108587 -0.4986528 -0.28339255 -0.6943492 -0.122899726 -0.2452796 0.06532882 -0.5234547 0.45336387 0.79616183 0.7322181 -0.51663333 -0.08802223 -0.3952028 -0.004259198 0.30677968 -0.1468815 0.089668214 0.5446977 -0.18257639 0.051475864 0.66531307 -0.317444 -0.038379878 0.61859065 0.09640352 0.05167654 -0.525389 0.70973533 -0.51135355 -0.46135196 0.6633521 0.61354 -0.14555901 -0.37469843
23 0.6925835 0.39813843 -0.13285966 -0.6985502 0.3524716 -0.39658308 -0.048468467 -0.50925756 0.71430737 0.59080565 -0.74530524 1.4490997 0.14058965 0.3698489 0.18563871 0.06929256 0.6511469 0.70864254 -0.41401953 0.1475473 0.07722584 0.09625655 0.7525346 0.51895046 1.0435406 0.3417862 0.69121313 -0.08606667 -0.0481064 0.23418844 -0.4338418 0.6924564 -0.8286355 0.4133483 -0.09839135 0.2528728 -0.83881027 0.15902303 0.40970358 0.5944314 -0.6476054 0.035483748 -0.09332842 0.6281954 0.2834957 -0.10253228 -0.3810918 0.8375181 0.23580462 -0.0151123125 0.24415952 0.22632496 -0.18124662 0.34277147 0.7199458 -0.30359644 -0.116071716 0.97472703 -0.41816533 -0.47164944 0.43629134 0.07852187 -0.2902461 -0.7289603
509 0.10701669 -0.34871432 0.40828344 -0.2845641 -0.17307507 -0.10544964 -0.46713403 -0.9315335 0.14913312 0.24690342 -0.37010175 0.28090942 0.46155265 0.27484673 0.3926365 0.36392704 0.8101459 -0.04598128 -0.7379375 -0.12630536 0.81916237 -0.47175094 0.42761692 0.42721257 0.8235506 -0.51987433 0.19176628 -0.55918515 -0.7519882 0.34131545 -1.2343198 -0.21481703 0.116313495 -0.11365101 -0.8145099 0.4823093 0.2944493 -0.05098801 0.7518269 0.26425454 -0.032531045 0.2202386 -0.054069206 -0.05970457 -0.47005564 0.7411521 0.12389406 0.20898212 -0.052550785 0.5406613 0.26397893 0.81194323 0.25043362 0.54143536 -0.17901298 0.2640512 -0.052013215 1.0392845 -0.42131117 -0.22823493 -0.5250904 -0.42448997 0.097705744 -0.3584273
254 0.038515307 1.3818067 -0.294314 -0.3262068 0.51721025 -0.3608983 -0.47181314 -0.152741 0.16597177 0.16526835 -0.96452373 1.3452681 0.0241404 0.48627967 -0.2644598 -0.23476417 -0.2206953 0.5428591 0.0033370086 -0.5427289 0.3064692 0.63093275 -0.08812662 0.66319686 0.97682613 0.22203676 0.4950188 0.24481522 -0.5484546 0.098112434 -0.038877316 0.7042376 -0.5319449 0.24192916 -0.15050879 0.6015645 0.16225235 0.34642288 0.13487379 0.8743225 -0.631073 0.4329797 -0.5320341 -0.4875006 0.50692505 0.048258893 -0.119238585 1.2323793 0.05074619 0.02782751 0.050507728 -0.18333633 -0.41799748 0.1562642 0.1054135 -0.09731393 -0.010290006 0.7412463 -0.08981832 -0.35624644 -0.03189852 0.06202147 -0.4916115 -1.3581076
220 0.83787197 0.26799458 0.08472868 0.3424877 -0.4093293 0.8355708 -0.6310297 -0.5006309 -0.6624392 1.2852546 -1.2124785 -0.10547366 1.3959595 -0.64807963 0.8111264 0.14019024 1.0979087 -0.32186967 -0.14515051 -0.7952986 1.1289743 0.296706 0.060106594 -0.21422637 0.1393949 0.28800672 1.4714484 0.10222987 0.29745522 1.2418116 -0.6047899 0.3947744 0.3149551 -0.011040166 0.18440609 1.2247876 0.50693816 -0.5381637 1.4370974 0.69638294 -0.46484265 -0.15512678 -1.2940425 0.602628 -1.0089766 -1.1025641 -0.41702095 1.0031222 0.12613691 -0.53347963 0.12784779 -1.111545 -0.25239918 0.06433261 0.42553407 -1.1785722 -0.94117737 1.6640648 -0.2991311 -0.63060826 -0.46546638 -0.20809725 -0.4522376 -0.8940172
1474 0.6217575 0.50058466 -0.6295887 -0.29130042 1.5205412 0.58521026 -0.6134672 0.04832635 -0.16142458 0.84541225 -1.3290824 -0.10909555 1.0921302 0.7034978 0.8138494 0.010933905 -0.3051805 0.23020332 -0.046872344 -0.16471905 0.094213605 0.2139828 0.35652056 0.5780185 0.15039472 -0.050236285 0.78039885 0.049924083 0.64913106 -0.29299697 -0.30758741 -0.08363925 -0.103074096 0.2624789 -0.946411 1.6833465 0.23496285 0.8767062 1.3741281 0.36233422 -0.23801832 1.6411073 -1.4546306 0.44220304 -0.65594757 1.2154815 1.0404007 0.7610588 0.04777868 0.28805068 -0.15426773 0.3189478 -0.61225235 -0.6365503 0.6298794 -0.26760682 0.034391735 1.0774857 -0.33514825 0.15884069 -1.1913033 -0.48737216 -0.29536915 -0.27044582
173 1.2667217 0.24393663 0.7256173 0.22316122 0.35960567 0.5811819 -0.048219394 -0.18658935 -0.40530327 0.045374572 -0.47651634 1.1524909 1.0443693 0.076197684 0.1995231 0.4326172 0.57728565 0.5899107 0.11959864 -1.0468723 0.78384 0.30828753 0.5186134 -0.36482105 0.83605504 0.3974251 0.34993953 0.7016721 -1.2072897 0.16114232 -1.4421362 -0.23331681 -1.0328498 0.38069618 -0.73809147 0.6805528 0.18729523 0.13118273 -0.058051374 -0.05254217 0.31158826 -0.06838605 -0.4599295 0.5982174 -1.1513479 0.4080343 1.1622813 -0.14561927 0.21812907 -0.14120291 -0.051987793 -0.4245758 -1.1733916 -0.34751004 -0.16622677 -0.18956949 -1.5850158 0.26546872 -0.94209176 -1.1033632 -0.39627343 0.45577183 0.11808495 -0.44551343
403 0.5406851 -0.41505596 0.14905193 -0.51689947 0.7142439 0.9926529 0.086753584 -0.042591788 -0.5902581 0.044564374 0.079334885 1.2304746 0.7757456 -0.54483616 0.134586 0.32024002 -0.48913231 -0.121277854 -0.3369246 -0.02529936 1.0223267 0.2641987 0.18048108 -0.26364887 0.54087096 0.09111693 0.65927726 0.44530064 -0.81883043 0.91704905 -0.8913447 -0.5613251 -0.11649913 0.49953187 -0.7293516 0.23291929 0.3049005 -0.22169569 -0.22397578 0.39764076 -0.07055661 0.38012576 -0.3396887 0.77233934 -0.7580612 -0.3238532 0.15143052 -0.20382187 0.1825816 -0.22516535 0.6369994 -0.39282653 -0.08946534 -0.17450137 0.48397866 -0.7870998 -0.28722867 0.5171928 -0.6754651 0.009501091 -0.18420567 0.7584577 0.12579103 -1.3641155
180 1.000102 -0.080603234 0.23095568 -0.34306654 0.29665458 -0.07326301 -0.6162727 0.0012574957 -0.52418137 0.20443086 -0.0043178266 0.8740743 1.948729 0.9411277 0.13353476 0.9929697 0.49569532 0.036589403 -1.1488736 0.47043768 -0.16402015 0.52977735 0.18012945 1.1829376 0.045941167 -1.0261068 1.0754871 -0.4826766 -0.55804735 0.3477896 -0.002793161 -0.698098 -0.4206998 0.83106613 0.1525176 0.6006959 0.6083009 -0.11960319 0.076555505 0.6389128 -0.7294046 0.6965605 -1.0052077 0.82344085 -1.150849 0.3631717 0.6094743 -0.6804441 -0.54475796 -0.24616803 0.06667734 0.086941496 -1.3487313 0.50937104 -0.3358822 -1.3025255 -0.13025369 1.2517463 -0.6024351 -1.4522108 0.3409233 0.6829566 0.01634545 -0.6301444
34 0.038579207 -0.111721516 -0.04043654 0.11739047 0.0754792 0.5332194 -0.29393077 -0.9873145 -0.10189542 0.1149417 0.09653182 0.53811336 0.42406583 -0.29314938 0.319599 -0.06166881 0.61642665 0.3154915 -0.80876124 -0.18040667 -0.08319251 0.20249826 -0.093174 -0.025846297 0.9713622 -0.14678447 0.32137883 0.341079 -0.49106616 0.3237655 0.776957 0.17579521 0.546067 -0.24245107 -0.46716696 0.21864632 0.048171815 -0.36174217 0.5735144 0.8126243 -0.35396308 0.75378615 -0.28295866 0.07502478 -0.61234623 0.1315328 0.27110398 0.0806131 -0.35449228 0.3078377 1.373623 -0.8180387 -0.25695154 0.4907526 1.0418284 -0.1906155 -1.0315242 -0.016411068 0.11746519 -0.50620437 0.8326364 0.15013088 -0.014196418 -0.500601
330 0.059810504 -0.33218673 -0.03709652 0.28140074 -0.08102148 0.27772468 -0.1835289 -1.5790039 0.7997772 0.542974 -0.47475713 1.2340612 0.32986832 -0.12830561 -0.22160399 0.16119093 0.7026705 0.04943611 -0.95169866 0.09451029 0.15179056 0.25518638 -0.04406597 -0.6216796 1.0741311 -0.060523104 0.20297426 0.264369 0.28095904 0.97099257 0.543319 -0.2644285 0.017943338 0.18217203 -0.6176805 0.5797342 0.5395109 -0.9771355 0.5938988 0.41938207 -0.86098254 1.2419653 -0.35547596 0.27198914 -0.282245 0.838476 0.2883341 0.40990895 -1.1585863 -0.0018588857 1.1374288 -0.23489228 -0.14835493 0.40788314 0.17478368 0.12599628 -0.7870935 0.9679524 -0.08989123 -0.69213915 0.33375078 -0.38794613 -0.5713808 -0.29036307
502 0.49554005 0.19133711 0.50668955 -0.42743453 -0.107270785 -0.25093448 -1.0532631 -1.266835 -0.35145608 -0.2990401 -0.35274887 0.39522487 0.061769165 0.85390425 0.099412985 -0.46889672 0.27601984 0.04595664 -0.24495491 -0.39255634 0.9683513 -0.36183682 -0.20333192 0.46869853 0.7022901 -0.12777215 0.09900163 -0.16250812 -0.7504082 0.46661016 -1.1177932 -0.02970444 -0.14659482 0.17253555 0.2347044 0.21392924 0.45678812 0.26642737 0.17398675 0.8679939 0.052164476 0.34657747 -0.041922506 -0.27247405 -0.6678816 0.5715441 -0.2871087 0.86537254 0.56369144 0.8794922 -0.12509856 0.42625618 -0.089171715 0.7075595 0.6420068 -0.28742665 -0.31055605 0.8732714 -0.32059446 -0.44415388 -0.5722522 -0.33154893 -0.8445936 -0.9555213
309 0.91776484 0.05347199 -0.44927916 -0.82569367 1.0691814 -0.004952666 -0.8823452 -0.6551936 0.27287138 0.83268195 -0.6876629 0.6367131 0.8923762 0.24782874 0.5300558 -0.40082842 0.6488003 -0.40944797 -0.1878681 0.23805627 0.29664737 0.555155 -0.004232603 0.19143793 0.67160934 -0.6914177 1.305739 -0.22859395 0.37057123 0.5657892 0.07712136 0.65598506 -0.30233753 0.015859993 -0.17015077 -0.44713774 0.13868721 0.3994238 0.12151544 1.2445785 0.28120932 1.3195233 -0.03804459 0.1254959 -1.2048681 0.20437236 0.78333914 0.63937736 -0.6236188 0.27734366 -0.0033157726 -0.15452197 0.6883269 0.8193491 1.5653987 -0.2368598 -0.060728308 0.87259495 0.45399517 -0.017282156 -1.431157 0.5153298 0.13655941 -1.0709902
974 0.86039054 -0.010750826 -0.46757835 0.050785698 -0.15646876 1.1295539 0.32354245 -0.23290476 -0.86193025 0.5544976 -0.67917806 0.6884034 0.61441076 0.34829617 0.76380366 -0.82663155 0.13605018 -0.12960815 -0.62534326 0.16900216 0.43682894 -0.62163687 -0.058562838 -0.15110786 0.834595 -0.12639007 0.791336 0.0394496 -0.18859465 -0.7442496 -1.4154891 0.59962845 -0.5074992 0.079775594 -0.28053498 0.44329646 0.6240796 0.37091464 -0.3110398 0.9009508 -0.16645968 0.8560214 -0.94193476 0.74414134 -0.5501869 0.27136138 0.0036421805 -0.54071194 -1.0343468 -0.04321438 0.3721073 0.35912257 0.23120244 1.5056956 -0.30221677 0.3706607 -0.55338323 0.97446287 -0.52955806 -0.39931676 0.61583287 -0.5245111 -0.9606196 -1.1588949
466 0.17224392 -0.62523025 0.047573987 0.84702563 0.9474669 0.18374115 -1.0683442 -0.8192597 -0.81890714 0.70703614 -1.651392 -0.03939985 1.1871216 0.47535005 0.5259374 0.06464195 0.60885316 0.58615386 0.13934284 -0.2924039 0.7441363 -0.099428296 -0.42908552 -0.62505347 0.43439084 -0.021714447 1.1321582 -0.30870897 0.33820668 1.123083 0.11360325 -0.3319422 -1.6454314 0.31459305 0.4941603 0.73077184 0.35095403 -0.5904228 0.87282276 0.74945813 0.552106 1.1146634 0.47074 -0.25247487 -0.34427115 0.9486982 0.6605157 0.59501266 0.28512222 0.15517269 0.5847137 -0.056702983 0.8034763 -0.14000525 1.1832249 -0.32026035 -0.7303396 0.5370819 0.50401455 -0.2860796 -0.09581468 -0.37100175 -0.6372005 -0.62043494
433 0.8271607 -0.05254701 0.42961305 0.65521365 0.9480361 1.3411964 -0.65068156 -0.4581543 -0.660288 1.4991742 -1.0635127 -0.20240656 1.2501948 0.27503926 -0.44697088 0.9801978 0.715688 -0.7196715 -0.2260743 0.3523978 0.008140334 0.40795395 0.29526308 -0.080575444 0.47621554 -0.23094498 1.5035287 -0.1522486 0.71532637 0.64976984 -1.1256162 -0.5380458 0.0036139796 0.36177787 -0.5761798 0.6874666 0.31900367 0.43344015 0.17684567 -0.06743365 0.4749513 0.65259683 0.55999964 0.99403507 -0.5500652 0.89214724 1.1322563 -0.09670814 -0.7198633 0.6722587 -0.39726108 0.08645578 0.68169534 0.2506613 0.45756248 -2.169223 -1.132269 -0.3379042 -0.9680182 -0.48327604 -0.18934025 -0.53505176 -0.29718006 -0.6032868
179 0.41355497 -0.016183982 -0.082820505 -0.1178965 -0.054390043 0.45252723 -0.09977758 -0.37233707 -0.6476775 0.27253857 -0.6521227 0.5261356 0.8964897 -0.81591797 -0.3378228 0.42758852 -0.86792547 0.6421639 -0.28555483 -0.114427224 0.21319477 0.23550509 0.22606954 -0.5786623 0.36071628 0.10252689 0.35208064 -0.3972944 -0.4966907 -0.1248757 -0.3998251 -0.24043761 -0.2596214 0.105705634 -1.1155875 -0.12675913 0.29285154 0.4800153 -0.11514522 0.9812192 -0.6505232 0.3165111 -0.44315848 0.078231305 -0.13552818 -0.19960824 0.75419027 -0.24717541 0.5337982 -0.46245793 -0.21221812 0.24218607 -0.2248364 0.17647448 0.57043654 -0.40674043 -0.8854587 0.37953585 -0.55245364 -0.71026546 0.0461475 0.12336108 0.32217467 -1.3209797
1491 0.5704636 0.03639907 -0.9634848 0.04012484 0.76638275 0.8770247 -0.89162964 -0.7526714 0.2477435 0.55793124 -2.2007835 0.4708833 -0.49158683 0.5373387 0.2727379 0.43564418 -0.32123476 0.1397888 -0.7759582 0.13806336 -0.054481193 -0.21776365 0.08565514 0.67052925 1.077437 0.5380044 0.7999108 -0.18655285 -0.66408783 -0.20659408 -0.5477493 -0.78124434 -0.032826155 0.113866545 -0.75677025 0.22536676 0.46688432 0.2933426 0.6494665 -0.42466882 0.06864662 1.223326 -0.40502557 -0.1315076 -0.45303324 0.44003752 1.3052071 -0.18037115 -0.35113356 -0.48167634 0.19961022 0.19075656 0.6623993 1.0622638 -0.08210927 -0.8494598 -1.1128832 0.25502697 0.27505928 -0.5792957 -1.0680233 0.8291425 -1.1192482 -0.4292945
100 0.93243176 0.47360843 -0.42445964 -0.3512881 0.11633925 0.09349916 -0.3221376 -0.43785894 -0.0010205613 0.5932796 -0.8379088 0.5029263 0.8840726 0.22483991 0.6551128 -0.19534868 0.75191975 0.7327767 -0.4138519 0.38924918 0.17417124 0.43386814 0.86842984 0.39367384 0.8893025 0.012451971 -0.15957847 0.001156584 -0.27197704 -0.14266342 -0.7638761 -0.26831636 -1.2338072 0.73109293 -0.29535398 -0.25480178 -0.76771677 0.48025158 0.3744002 1.087365 -0.23289117 -0.24621336 -0.67631686 0.052557953 0.4636935 -0.26166856 0.03937516 0.7593653 0.3507362 0.047500983 0.29316208 -0.035492893 -0.31341857 0.2208027 0.42307287 -0.4439466 0.07437933 0.44520122 -0.622375 -0.050589334 0.88534695 0.5068895 -0.6010584 -0.4144595
417 -0.15350023 -0.16660683 -0.6105695 -0.39466065 -0.0055379854 0.3978729 -0.3902782 0.09310474 -0.31871793 0.42048666 -0.41986477 0.6667358 0.08685864 0.6126415 0.3192627 0.5097929 0.24450481 -0.42835844 0.5230363 -0.8182896 0.8439042 -0.017757716 0.6089167 0.22893387 1.3007267 -0.052934125 0.34750393 -0.9233262 0.1650906 0.39737466 -0.67418295 -0.58906966 -0.6356421 0.91149926 -0.28444612 -0.09623867 0.5482519 0.2983717 1.1112386 0.4701132 -0.37274122 -0.016544819 -0.5766197 -0.19116671 -0.68391985 1.0942129 -0.12677057 0.61754847 -0.04319988 0.39925033 -0.23648411 0.68471295 -0.47262606 1.1860553 0.8317644 -1.1711937 -0.7779235 0.16571447 -0.20277539 -0.9696137 -0.804446 -0.20360413 0.38634092 -1.093448
1500 -0.13384478 0.6514598 -1.4200978 -0.5333897 0.008704948 0.10464904 0.014597365 0.69701046 -1.0652686 0.19782652 -1.1734504 1.1767358 0.25290063 1.0072137 0.52517277 0.926634 0.32662162 0.12549847 -0.17222932 0.45540366 1.1385599 0.020252436 -0.21151446 0.14485362 0.28885758 -0.09217232 0.90037465 -0.57685715 0.471301 0.3582224 -0.4546276 -0.013342185 -0.42538005 0.08421299 0.09805541 0.70903075 -0.7577285 0.2146346 0.8718387 0.893015 0.21290383 -0.29797056 -0.034151323 -0.17727928 -1.2715993 0.14149347 0.15637784 0.5785298 -0.06592583 0.036810458 -0.09318187 -0.25610024 -0.25224572 0.74189687 0.27059063 -0.42667994 -1.5216817 0.09702179 -0.27036837 -0.23917267 -0.5685773 -0.18935317 -0.42069095 -1.185994
17 0.2733348 0.49239165 -0.27851117 -0.1370224 0.20119858 0.5654995 -1.6453426 -0.33024603 0.18047701 -0.12741816 -0.9456659 0.5572735 0.53695863 1.3099939 0.37971747 -0.19859241 0.95336044 -0.47337493 -0.13412942 0.23423441 0.30739757 0.6445787 0.24090642 0.8014303 0.4272973 0.14546993 1.0310576 -0.8526164 -0.07794436 0.37522602 -1.2993532 -1.05522 0.42664814 0.19237424 -0.28300425 -0.20971934 -0.489699 -0.17795476 0.98156595 0.32481453 -0.8922533 0.1869604 0.04327921 -0.19168916 -0.49061406 -0.1014543 0.97115 0.18091798 -0.6464597 0.087811224 -0.6042106 0.1081077 -0.3005834 -0.14578624 1.3284605 -0.5263756 -0.16963546 0.57382077 -0.09061783 0.31225353 -0.379321 0.26746532 -0.31436968 -0.8090589
185 0.41289735 0.40365782 -0.03911954 0.22539245 0.5779493 -0.14847136 -1.0533872 -0.56540596 0.5385005 -0.33004233 -0.33427933 0.65237784 0.8273339 0.8449482 0.51462287 -0.66608703 0.5005951 0.25671968 -0.28905493 -0.2400455 0.50291634 0.46512407 0.53397274 0.47022542 0.67416906 0.3488571 1.2161189 -1.2054408 0.14105256 -0.32886562 -1.031187 -0.26609972 0.070070945 0.24916168 -0.64031416 -0.6169747 -0.40926808 0.5928282 1.0057138 0.8184918 -0.4927028 0.72735304 0.12100159 -0.088381395 -0.2989944 0.6122467 0.21985292 0.45601785 -0.04000961 0.31259003 -0.44497812 0.7078357 0.049471807 0.2582383 1.3005575 -1.0893333 -0.07894931 0.6074785 0.20250347 0.26578453 -0.33382583 0.19285361 0.22044224 -0.81460714
1011 -0.24854639 0.70720506 -0.022773692 0.06609464 0.59928757 0.3690058 -0.84151834 -0.42212293 -0.30839023 -0.25315145 -0.16795345 0.85969806 1.4559754 1.2293309 -0.36836445 0.25890556 -0.61741376 0.45390508 0.1419605 -0.38079706 0.5944313 -0.17182049 -0.44634748 0.3212852 0.744051 -0.23141617 0.19432828 0.7023056 0.50612104 0.6182581 0.22716458 0.16478796 -0.091651626 -0.25125542 -0.107496545 0.9435371 1.2084945 -0.05302395 0.9870401 0.12836468 -0.60965407 0.49680445 0.08617784 1.295171 -1.0390549 0.3711499 0.3327117 0.3153165 -0.37219107 0.35868987 0.18612812 0.30782405 -0.35756475 -0.19374007 0.38344842 -1.1417141 -1.34069 0.7768785 -1.4282221 -0.44977647 -2.1973867 -0.05393194 -1.2424124 -1.8132284
647 -0.3864214 0.07197195 -0.046228435 -0.16234358 -0.36495492 0.39587286 0.59571546 -0.900745 -0.06334068 0.29971087 -0.6153489 0.78099114 -0.011553156 0.18326361 -0.059551988 -0.5730939 0.39139616 -0.06534814 -0.765632 -0.31166857 0.41097444 -0.32160816 -0.053211946 -0.18330836 0.4985113 -0.7565359 0.775489 -0.1480079 0.31004477 1.0195919 0.044365875 0.01033881 -0.31785345 0.43566307 -0.39369744 0.5536027 0.086300455 -1.0234958 0.51293594 0.40914875 -0.19663739 1.5296714 -0.5057679 -0.20397246 -0.20173497 0.9451571 0.8583404 0.10614033 -1.307247 -0.5892527 0.87077045 -0.45983437 -0.74503887 0.29887468 0.43754423 -0.3176285 0.15945233 0.6494287 -1.0517911 0.11957112 0.360435 0.23423268 -0.40557426 -0.5072492
1697 0.1501516 1.419987 0.45245844 -0.17684005 0.20929123 0.5508339 -0.20254016 -0.50003064 -0.4551609 1.1546494 -0.51661247 -0.2222367 1.4671168 0.44507265 -1.2333782 0.92871404 0.1756855 -0.17917593 -0.3896676 -0.19018818 0.4984605 0.2170889 0.22124432 0.21645609 0.6197002 -0.042041693 0.667365 0.41760233 -0.5634201 0.33876583 -1.4036852 -0.5390005 0.5082991 -0.011717114 0.08062605 -0.11460697 1.1804016 0.2044128 1.0078068 -0.40589064 0.3712317 0.7868671 -0.45481896 -0.021635102 -0.096388794 1.0849353 0.61020124 0.8452943 0.08333282 -0.3749324 0.12891841 -0.81045836 -0.56908524 -0.14948249 0.37880576 -0.3263336 -0.61388373 0.22082525 -0.8995751 -0.4401657 0.5722741 0.3792647 -1.7950286 -1.0211304
147 0.6979332 -0.46534705 0.15535855 0.3966027 0.62613034 0.3478943 -0.54810077 0.04727098 -0.6359089 0.17725205 -0.6075254 0.6315303 0.6461204 0.26965934 0.03841986 0.29886222 0.15434653 0.30221364 -0.46156514 -0.5482658 1.0483198 0.22402473 -0.11239918 -0.70482874 0.3694539 0.089266784 -0.024776137 0.7542788 -0.46045908 0.13746834 -0.29597595 -0.06763781 -0.0056700283 0.19202417 -0.6368309 -0.31455603 0.41288748 -0.16615099 0.13765696 0.24286453 -0.09119037 -0.19089678 -0.8018324 0.55078477 -0.61956054 -0.3459128 1.3526143 0.16654627 0.018017583 -0.030182602 0.46608096 -0.12472063 -0.66988367 0.0082721235 0.9520395 -0.5249403 -1.1527052 0.025178289 0.06357624 -0.33595955 0.24701123 0.30568665 0.15302551 -0.5539808
1219 0.39299452 1.1064433 -0.0501205 0.95319235 -0.22900032 0.34017614 0.40556833 -0.33849978 -0.09249475 -0.1307766 -1.0833825 0.6854337 0.4254081 -0.061250333 0.3419161 0.15923466 0.3547295 -0.8383764 -0.38298774 -0.30416778 0.23412734 0.013862975 -0.7493738 0.51687 0.32658884 -0.50540423 1.1464511 -0.41948286 -0.35589913 0.18310365 -0.40617546 0.21784078 -0.22423674 0.4446732 -0.1315294 0.8054128 -0.3754447 -0.15507002 0.5197619 -0.27728182 -0.43683332 0.44339478 -0.25664565 0.054452773 0.49875772 -0.21663456 0.7157391 0.28185934 -0.6552445 -0.8529235 0.14809312 0.8697071 -0.8768193 0.14460069 1.0125617 -0.03188511 -0.23384264 0.33161417 0.05788049 0.16061467 0.03914758 0.18077333 -0.27423212 -0.668765
1076 0.3445285 0.62047756 -0.5712356 0.18185686 0.4428483 0.39596033 -0.51021653 -0.22263712 0.7686605 0.6070007 -0.8757773 0.21021096 0.3547165 0.05101532 0.3592949 0.38913578 1.7295699 -0.49960944 -0.2587898 -0.0026995551 1.388067 0.6309641 0.23834407 1.0780014 0.6567697 0.430645 0.8000428 0.43067873 -0.31457174 -0.24794656 -0.42129254 0.083606586 -0.96859443 -0.25222245 -0.1360515 0.2366066 0.029681103 1.0955048 0.6968847 0.6348225 -0.5593279 0.19548199 0.27091694 -0.46735358 -0.526754 0.22180957 1.2182696 0.14420232 -0.36807087 0.26673964 0.084648244 0.7198193 -0.26332703 -0.16217268 0.749961 0.5799194 -0.6738972 0.18356499 -0.41050962 -0.29950017 0.96426564 0.34778383 -1.0563651 -1.3188671
464 -0.07238239 0.5022125 0.83933496 -0.197075 0.66824293 0.41376665 -0.44728118 -0.603278 -1.2322253 0.46381027 -0.34944484 1.3935133 -0.124931104 -0.024273759 -0.10134895 -0.30035985 -0.30374542 0.3943806 -0.6058421 -0.41208512 1.0018146 0.63868976 0.019868935 -0.26489547 0.071285345 -0.29873815 0.34509146 0.78847057 -0.23891324 0.26308706 -0.6664924 0.033176776 0.2011925 -0.34164402 -0.75749034 -0.40141943 -0.4178523 -0.2857596 0.5828805 0.54154354 -0.41468513 0.53263754 -0.16497236 0.05347085 -1.251716 -0.8151302 0.520034 0.48334673 0.14712825 -0.54946536 0.7755892 -0.5526616 -0.6215004 0.6313754 0.59483474 -0.7515456 -0.13041134 0.404777 -0.053472303 -0.17863993 -0.17686625 0.24343169 -0.18019216 -0.67393225
1561 0.38000247 0.25648424 0.59126025 -0.048179083 0.45917556 -0.34281465 0.1407828 -0.16246508 0.97833097 0.81814426 -0.012947054 1.1279114 0.46680224 -0.19049196 -0.6236426 0.40271357 0.6702567 -0.23032206 -0.40033373 -0.074000284 0.683092 0.448759 0.842756 0.18710545 1.1402423 -0.32890055 0.5200662 1.2507068 0.37208903 0.105063125 -0.47991425 -0.264191 -0.62858164 -0.0098221265 -0.035921857 0.82289547 0.046907816 -0.10350801 0.8411198 0.5961277 -0.99799186 0.43986973 -0.6310983 0.37357154 -0.3932229 -0.3916132 0.7568262 -0.22152007 -0.7254847 0.37896448 0.06000701 -0.26400614 0.44618607 0.55958486 -0.194904 -0.42176518 -0.5925657 -0.07325458 -0.46644723 -0.4761223 -0.3516451 0.29280332 -0.323715 0.13686612
585 1.1495376 0.5932558 -0.18585692 -0.16108821 0.014324682 0.8610968 0.102861 -1.0315995 -0.26737276 0.1836213 -0.5434168 0.6388631 0.38016945 1.2752324 0.25470078 0.17483191 -0.21308339 0.53411597 0.29447755 0.116122946 0.75051266 0.3461475 -0.15519774 -0.2942338 0.07512487 0.28944117 0.3606314 0.14663231 -0.89037055 0.14696273 -1.5682546 -0.040815808 -0.4890135 0.28946054 -1.1163914 0.87502474 0.121332414 -0.0021525794 0.25124216 1.4066226 0.5407075 -0.09915791 -0.62292486 0.022071717 -0.5319146 -0.16252874 0.95615524 -0.010515653 -0.04969747 -0.2371572 0.06573697 -0.5827064 0.18068472 0.6411366 -0.6733373 0.23890509 -0.345065 -0.07940809 -1.2266586 -0.22068271 -0.51383275 0.4978706 -0.34017232 -0.43428868
19 0.62589085 1.0594273 -0.1645012 0.07117093 -0.6999903 0.9022454 -0.33450863 -1.4263158 -0.43801233 0.2209138 -0.30922064 0.28837037 0.48190627 -0.6506792 -0.39559826 0.40271273 -0.9606668 1.2358733 0.16771618 -0.42928463 0.23208407 0.23709215 0.41697532 -0.12679708 0.44053978 0.60722303 0.8284666 -0.2855922 -0.055137478 0.13489527 -0.1503421 0.23676011 0.65804875 0.53192306 -0.99874645 0.52679634 0.21418819 0.011777159 0.12992844 0.49173874 -0.8552285 1.1582507 -0.7562501 0.8282123 -0.5329849 0.19775301 0.042461522 -0.045190956 0.6328745 0.26531544 -0.08389485 -0.32198724 -0.20381416 0.10364946 0.3711155 -0.5045474 -1.2137499 0.21345669 -0.42459843 -0.7457897 0.08261629 0.022815049 0.09478701 -1.4789271
12 0.85864115 0.17094603 0.3211342 -0.072584 0.5701299 0.10575153 0.17938904 -0.42223632 -0.23286949 0.25278413 -0.09125084 0.96984303 1.1680391 0.46261874 0.15711121 0.59894395 0.021806723 -0.43090853 -0.98168695 -0.19785054 -0.09419171 0.33168104 0.13715015 0.28660184 -0.33099493 -1.0312943 1.0568357 -0.16576558 -0.7438998 0.10468293 0.14980529 0.12142147 -0.27389446 0.58615035 -0.32367527 1.0170431 0.6334634 -0.07934365 0.17984031 0.35948366 -0.19007815 0.78927445 -0.37991562 0.2703881 -0.5655476 -0.36062175 1.087641 -0.32562926 -0.37329182 -0.16423492 0.3747261 0.05778652 -0.8188825 0.03296042 -0.13721667 -0.8322515 0.16050453 0.27599567 -0.59827787 -0.71556383 0.50923145 0.65449893 0.30912042 -0.8437653
1228 0.37069845 -0.42061967 -0.08718084 0.5680511 0.47040412 0.27773878 -0.44859385 -0.53506166 0.29338208 0.40710196 -1.0292176 0.86414087 1.0726517 0.52395695 0.90337515 0.08477658 0.4872958 0.19466652 -0.520067 0.3287022 0.39095417 0.5339143 -0.51345867 0.052631248 0.87794816 -0.5391484 0.2153488 1.2297697 -0.4393839 0.5317272 0.5098003 -0.34902883 0.5928004 -0.16899823 0.043602906 0.5173158 -0.14153643 0.22612435 0.24220072 0.61584044 -0.26290426 0.21573816 -1.1020734 0.71098095 -0.9006742 -0.30005744 0.6953367 -0.16570798 -0.9616557 -0.109953724 0.96127 0.2357169 -0.029934807 0.24499093 0.8478926 -0.072518185 -1.6240457 -0.54999 -0.05150417 0.026223918 0.4725821 -0.3262832 -0.62063336 -0.5768187
650 1.0288222 0.2639434 -0.5504006 0.3283998 0.7966182 0.620544 -0.87531966 -0.7262598 0.11522627 0.32255894 0.10653232 0.6160126 -0.09017547 0.07834881 -0.1306993 0.5501485 0.2281669 -0.1382213 -0.105312034 0.09486735 -0.0017846879 0.32373083 0.67041314 0.3393516 1.1588352 0.21888565 0.59157515 -0.0040617767 0.1777779 0.0013808246 -0.67770684 0.14746906 0.61305785 0.6809763 -1.3230188 1.6857167 0.0020597181 -0.088721 0.45228153 0.31524944 -0.8683124 0.79401404 0.2546126 0.4093646 -0.65759224 0.5210686 -0.45606777 0.52417517 0.17266421 0.45322284 0.7640476 0.2319878 0.64245504 0.089869015 0.40363827 -0.10404138 -0.9971503 0.8383049 0.02326409 -0.8868773 0.46281105 -0.26114413 0.23831688 0.29359195
764 0.8582732 0.19894996 -0.98143184 0.27744016 0.9990138 0.7220498 -0.43097055 -0.9087749 0.4538755 0.81510526 -0.5418264 0.31630695 0.98004663 0.50509655 -0.1432816 0.91612387 -0.26816767 0.20957214 0.15856494 -0.24351986 0.0020591347 0.7100212 0.05401892 0.8244637 0.3377503 -0.032282706 0.3734378 -0.33218423 -0.9721031 0.81265277 -0.74200547 -0.9670422 -0.8357236 1.3021623 -0.035751212 0.7537022 -0.72284675 -0.4643418 0.3388025 0.2662815 0.562736 0.30381474 -0.22021 -0.9515696 -1.3434252 -0.8139333 0.9814902 -0.25603786 -0.87290466 0.7881981 0.27518594 -1.4654002 -0.23698363 0.8191883 0.93428403 -0.5434973 -0.6044603 0.8263059 -0.18812343 -0.51723367 0.5784405 -0.1628769 -1.0116901 -0.6269545
1644 0.8151349 -0.5685308 0.27393407 0.8168123 -0.44412252 0.8331973 -1.4456866 -0.97290134 -0.01825854 1.1443878 -0.6491704 -0.03451493 1.2347976 0.73856556 0.23559965 -0.27549607 0.4710875 0.031922825 -0.84779775 -0.0012054791 1.2033521 0.19633543 0.3874243 0.27417812 -0.20201756 0.6856799 0.2706905 0.12758319 0.57347274 0.47618502 -0.7313793 -0.9018536 -0.8446694 1.1888412 -1.0266553 0.8189395 -0.32736462 1.0989043 0.5443966 1.3792769 -0.41396514 1.0353464 -0.23274241 -0.106415376 -1.0585045 0.77380717 0.12502092 -0.24054602 -0.45025042 0.30326888 0.4096329 0.3557523 -0.009437378 -0.40663546 0.17806914 -0.6308932 0.102732256 -0.43041366 -0.06515137 -1.1532137 0.07905282 0.39775652 -1.0019625 -0.9607497
2076 0.20111457 1.4684459 -0.00013821555 0.91590476 0.5393397 1.2248125 -0.19194813 -0.3528118 -0.15417022 0.7990814 -1.4798286 -0.23484026 1.0115281 0.55011386 -0.2762671 -0.20931123 0.10990499 0.04765919 0.5209592 -0.14947155 0.82977754 0.42772993 -0.9209197 0.503007 0.17583272 0.6960744 0.5581255 0.0720776 0.42198646 0.22180986 -1.0521659 -0.1994991 -1.0802755 0.05834514 0.36965734 0.23520797 0.075603016 1.1823071 1.6064844 0.98971164 0.15071005 0.62493896 -0.027989257 -0.11754655 -0.16618605 -0.026019327 0.5073758 0.4788698 -0.054372452 -0.70578486 -0.3583149 -1.8121755 -0.22095023 0.9370988 1.2950172 -1.416088 -0.32989633 0.4303038 -1.2935079 -0.2081483 -0.35913384 -0.640086 -0.66712695 -1.1751481
149 1.195616 -0.2977194 0.033803433 0.49016765 0.94108033 0.50591815 -0.48074597 -0.14253055 -0.57011515 0.04930643 -0.19544637 1.0162972 0.4722647 0.051773563 0.20398097 0.3210027 0.10099752 -0.12954795 -0.42735207 -0.8353867 0.96646136 0.3633699 0.012437998 -0.75121814 0.47849074 0.15135515 0.4033695 0.35063148 -0.8645942 0.42871055 -0.7223665 -0.28990152 -0.27715173 0.43122944 -0.4163266 0.014005105 0.33566275 -0.06321037 0.16890793 -0.19166593 -0.08099105 -0.049799934 -0.36310592 0.8172947 -0.9374435 -0.5712747 0.97841406 0.23741883 -0.20404084 -0.0050956937 0.05784625 0.14887051 -0.8343129 -0.5521979 0.22854754 -0.66773057 -1.0269246 0.24630767 0.013034507 -0.343658 0.009602035 0.5261468 0.13541818 -0.39700207
1015 -0.02745506 -0.33116582 -0.23498917 0.56306916 0.6830389 0.53412867 -0.664682 -0.46340147 -1.1014172 1.0069673 -1.5619941 -0.17923294 0.9859135 0.7648202 0.461711 -0.39007005 0.4532922 0.7243787 0.06678387 -0.3400704 0.7158771 -0.25683695 -0.040444702 -0.11926728 0.5924418 0.29746667 1.0050628 0.021034567 -0.116795205 0.8165263 -0.1833236 -0.24411888 -1.2678273 0.7136638 0.52337575 0.82778645 0.75820696 -0.25660494 0.3472245 0.006616395 0.7746533 1.0368077 -0.06931155 0.28191677 -0.16177495 0.55784774 0.5470661 0.34649765 -0.23831621 0.6067641 1.0648072 0.50947016 0.32685322 -0.10513025 1.1241748 -0.09056455 -0.83042973 0.45336118 0.43771008 -0.60229874 0.105595015 -0.008547928 0.121007405 -0.3521868
1376 -0.12441448 0.2254927 0.026720336 -0.0060718968 -0.21537085 -1.0159087 0.25428367 0.05991065 0.50484514 0.9473559 -0.89718187 0.11275686 0.56749034 -0.7896549 0.24513867 0.2428041 -0.8171193 0.08441717 -0.255657 -0.36272 0.53701234 -0.46044418 -0.11970839 -0.0963351 0.47788182 0.004521949 0.27741793 0.6861821 0.3391778 0.5210257 -1.3120316 -0.5412017 -0.6545969 0.66981715 -0.75890446 0.33207488 0.3123494 0.5766128 0.9315976 0.8047893 0.38447198 -0.064399086 -0.35943434 0.5234221 0.023795042 -0.038061865 0.1955135 -0.36787164 -0.6353173 0.03852144 1.026905 -0.21013604 0.13779755 0.5848803 1.0203669 -1.1750655 -0.9762496 0.66759694 -0.4693528 -0.8033222 -0.2111989 0.5947594 -0.7881565 -0.54409
1141 0.17353705 -0.14911015 -0.13691299 0.5664405 0.08937256 0.32648528 -0.23880082 -0.097580984 -0.9769379 0.9524911 -1.2152671 -0.37336853 1.1543045 0.95917606 0.06865387 -0.12674497 0.5718707 0.9179448 -0.056239076 -0.3357106 1.1139598 -0.026669236 0.11489444 -0.22818914 0.72167766 0.27487537 0.42317957 0.3951077 -0.44750455 0.08726018 -0.6581083 0.2843408 -0.5801737 0.8972299 -0.036083378 -0.1740232 0.60329086 -0.69102144 0.57102996 -0.18581237 -0.14567712 0.54879934 -0.74599665 0.5440279 -0.20348573 -0.10649943 0.5523618 0.6650635 -0.102503315 0.53313243 1.1266451 0.35838506 -0.32687414 -0.0076188203 1.0402167 -0.29841632 -0.21950325 0.5151504 0.4997874 -0.8986907 0.47764286 0.4898036 0.2738311 -0.34606022
731 0.64574766 0.053102568 0.46765482 -0.6567914 0.13286133 -0.1654291 -1.4584651 -0.7418891 -0.20227857 -0.38521567 -0.25076222 0.24741262 0.24594654 0.4262542 0.2628566 0.018620193 0.21339692 0.13817286 -0.16857024 -0.22089468 0.7427535 -0.25148714 -0.2174572 0.21457748 1.1268855 -0.796018 0.031963315 0.587422 -0.45748985 -0.3375629 -1.1456294 0.012358201 -0.07456252 0.3257577 0.19774865 0.6913893 0.06395115 -0.010640499 -0.1297053 0.9313952 0.43120876 0.4388542 -0.18420899 -0.12552465 -0.6997713 -0.13883997 0.07517735 0.2631657 0.80362225 0.8289871 -0.28813526 -0.08898247 0.31063306 0.61677605 0.8526079 -0.35788515 -1.2092389 0.72422093 -0.29486337 -0.9459705 -0.23313622 -0.51145154 -1.563488 -0.47593114
215 0.6475006 0.23093355 -0.3683536 0.38695478 1.1622541 0.48546293 -0.5565275 -1.1065017 0.6165765 0.4915963 -0.055711117 1.0415443 0.09802528 -0.16899909 0.27440205 -0.48174796 0.5189418 0.92368025 -1.0366006 -0.35228282 0.49846178 0.33477053 0.220512 -0.3106161 0.8883565 -0.13681753 0.34516066 -0.21667707 -0.47035325 -0.16604193 0.0041676154 0.5938246 0.62202156 -0.60414624 0.174801 -0.20315242 -0.13940933 -0.41058064 0.27852952 0.7587866 -0.03517329 1.1181724 0.17766955 -0.32973203 -0.8754067 0.92381585 0.7828717 0.13012084 -0.30792257 0.37350672 0.9604719 -0.14994581 0.36110464 0.50948286 1.2685422 -0.6055486 -1.164471 0.1053554 0.05348585 -0.25709015 -0.26041028 0.2107735 -0.3510502 -0.8105818
670 0.54738873 0.85722506 0.77590847 -0.62871283 0.31097975 -0.5093551 -0.7197786 -0.79214615 0.6190101 0.30013517 0.90261704 0.9873847 1.7825454 0.69987524 -0.109493606 0.052581113 0.014211725 0.098645225 -0.40251005 0.0014927936 0.06039677 0.059532255 0.027064288 -0.11409952 0.34192145 -0.39477867 1.731268 -0.066134244 -0.26872653 0.25973842 -0.1590542 -0.55304295 -1.1729877 1.0428679 0.21504565 0.9456715 0.8814112 0.48789096 0.35318562 0.5558346 0.17473158 0.61948717 -0.11783552 0.87425274 -0.2869955 0.30920047 1.0176022 0.123996645 -0.80271554 0.56204146 0.0347622 -0.30242124 -0.18318039 0.9842421 0.39679405 -0.9926045 0.07028077 1.2460458 -0.5546965 -0.14287016 0.45312133 -0.6093135 0.0706119 -0.43843788
415 0.22400327 0.957876 0.7788112 -0.2916608 -0.28281614 0.22881366 0.209417 -0.5864005 0.34144786 -0.14123751 -0.6270431 0.545717 -0.18539873 0.18256895 0.59957224 0.27890322 -0.046192665 -0.19476715 -0.039516326 -0.30663174 0.44018573 -0.14475611 0.6169204 -0.25425443 0.45604205 -0.48730758 0.45196116 0.1482666 0.71795124 0.5469522 -0.08201563 0.1668343 0.37998906 0.91337645 -0.7616706 1.6904999 -0.35144436 -0.53216875 1.0246028 0.3040242 -0.4501637 0.680045 0.04034287 -0.105961956 -0.11142592 -0.6619466 0.42787626 0.08001174 -0.14714178 0.06674632 0.4823689 -0.14905165 0.116972245 0.47034237 0.30374438 -0.67565936 -0.40322435 -0.08076264 -0.33192742 -0.5436279 0.6351054 0.4274627 0.06855606 0.074779354
1197 0.037937935 0.25332275 0.024278196 0.7155111 0.49807015 0.83600986 -0.43468365 0.16693035 -0.5518416 -0.08200585 -1.1343588 0.40578172 0.5146271 -0.23678564 0.016447918 0.18269163 -0.42682225 0.2378924 -0.7729045 -0.56036395 0.26881808 0.48754135 -0.04823751 -0.102253 0.14955331 0.145362 0.8319646 -0.17436573 -0.67606515 -0.09565819 -0.16791844 0.32016426 -0.582195 0.2517488 -0.44632652 0.30303767 -0.16707104 0.5033089 -0.2764907 0.7106847 -0.9849297 0.28176585 -1.1474468 0.11261637 -0.011607408 -0.9695469 0.367652 0.0075626764 0.6786161 -0.73761594 0.77708906 0.261598 -0.16584313 0.12684888 1.4664005 -0.5299565 -0.77729326 0.5947364 0.08159356 -0.39252958 -0.8593704 -0.028848018 -0.21849048 -0.76727873
1747 0.64041924 -0.29046285 0.08479682 -0.34526113 0.5599195 0.6978912 -0.28435907 -0.555332 0.7299294 0.8861577 -0.42738232 0.34755233 0.26100865 0.71649617 0.41815126 0.127929 0.1145833 -0.05468281 0.35104358 -0.11829147 1.1347728 -0.3178133 0.71426165 1.0337873 1.1889366 0.21049689 0.0011440641 -0.6312277 -0.4641072 -0.14008836 -1.4467964 -0.41568294 -0.29522255 0.9005117 0.6606838 -0.2597473 0.82515603 0.43266132 1.0741109 0.47260725 -0.2082345 0.6846379 -0.7797133 -0.07439999 -0.7451549 0.7987274 -0.21921006 0.43143815 -0.30648234 -0.026165951 0.09219688 0.70116705 0.03061337 0.9153664 0.8075532 -1.2534778 -0.19588527 0.2377602 -0.78000265 -0.6719434 -0.57016814 -0.060161706 0.31510264 -1.1406797
1386 0.46404716 0.79252476 0.026512064 -0.08574168 -0.45938814 -0.07187705 -0.3605375 -1.2083246 -0.28927428 0.21958606 -0.3680418 0.5542011 0.5111669 -0.29902622 -0.36614358 0.5475238 -0.35976532 1.155886 0.4232147 -0.24455357 0.58584636 0.377379 0.6530192 0.09829147 0.58938664 0.010254377 0.77788657 -0.23409647 0.08743425 0.68513674 -0.45831105 -0.051279243 0.4224536 0.7558553 -0.46993166 0.24120237 -0.08666047 0.016192371 0.6696503 0.040501025 -0.78944516 0.58275795 -0.42990637 0.2317658 -0.41038412 0.4063072 -0.48610535 0.2983869 0.7158852 0.39576292 0.25097013 -0.09491174 -0.25587025 0.59512144 -0.66951597 0.73952204 -0.9086907 0.6142444 0.13457651 -0.970253 -0.88276523 0.04011212 -0.5598842 -0.96380866
1031 0.036571313 -0.10824703 0.18686225 0.1004458 0.6764029 0.1378586 -0.0901292 -0.78977567 -0.4951851 0.6088093 -0.41825518 0.3660547 0.8488031 0.6717053 0.5298234 0.57276374 0.00032543245 0.28553823 -0.61359096 0.17045234 1.655833 0.41193685 0.3336685 -0.59549725 0.6514161 0.17287755 1.1247638 0.3405381 -0.3607202 0.3410486 -0.41743022 -0.20267649 -0.15105338 -0.050071545 -1.2410938 -0.65887016 0.26407322 -0.77860826 -0.0088 -0.105244905 -0.49600887 0.051116005 -0.18572749 0.7556394 -0.64734423 -0.19137225 0.3269268 0.8956546 0.23639078 0.67808807 0.72943777 -0.1250189 0.09566075 -0.074284576 0.4183385 -1.1328695 0.1554438 0.37583002 -0.5810798 -0.23865032 0.15277417 0.19643101 -0.6183732 -1.4512365
178 0.547876 -0.31993172 0.06083524 -0.057546705 0.18737787 0.98796606 0.1174818 -0.33290142 -0.65955126 0.029439695 -0.24256064 0.78555125 0.9816516 -0.26669213 0.030012447 0.35626784 -0.28070223 0.40559298 -0.29266873 -0.00023529722 0.6098795 0.6543812 -0.105476476 -0.5485744 0.44979742 -0.0025440406 0.45762637 0.36278212 -0.82246965 0.2567555 -0.42692435 -0.20658499 -0.15537572 0.33548525 -1.0726249 4.0812898e-05 0.39444986 -0.168126 -0.4944107 0.4939362 -0.14964817 0.16359447 -0.73002106 0.35767293 -0.58364207 -0.36223054 0.9202163 -0.177092 0.35869387 -0.29094404 0.38650578 -0.54823595 -0.29508102 0.12440409 0.18665059 -0.32633635 -0.31097922 0.064287126 -0.8225381 -0.33219612 0.24879438 0.49934885 0.29195368 -1.1530036
635 0.81632173 0.059177533 -0.13681865 0.18738516 0.6580955 0.6061351 0.16411386 -0.2198905 -0.23959501 0.23728743 -0.22700045 1.3660591 0.76620555 -0.125215 -0.3485889 0.5204254 -0.26686558 -0.10398502 -0.81549484 -0.7114787 0.42363417 0.71108496 -0.19807312 -0.14531592 0.07221883 -0.22884253 0.59786105 -0.1264113 -0.78716385 0.18300243 -0.22005202 -0.11493086 -0.1502298 0.33198985 -0.6153653 0.41408452 0.4759918 -0.51770324 -0.30794066 0.30119398 0.0045827613 0.24439916 -0.15411282 0.04662274 -0.6271009 -0.5031369 0.95979494 0.003253022 0.12365986 -0.25005305 0.17679356 -0.18826376 -0.7815061 0.14415151 -0.032735974 -0.77435195 -0.059364893 0.0305942 -0.45801806 -0.31933194 0.25466135 0.6216177 0.32997096 -1.0500813
1495 0.90461856 0.4411134 0.45424503 1.0573771 0.9944376 0.949243 -1.6445959 -1.3035822 -0.20100754 0.7007977 -0.36419967 -0.3432002 1.1161404 0.6838886 -0.51194626 0.13016865 -0.25846708 0.62904835 0.13631454 -0.20189218 -0.45263466 0.3986777 0.714174 0.11088453 0.15895613 0.24640545 0.97178626 0.12721223 -0.9648878 0.76929796 -1.0985769 -0.7537685 0.24327034 -0.22416918 0.79775953 0.46763447 0.06147226 -0.2486064 0.04193184 0.86537427 -0.6215752 1.3114514 -0.35248953 -0.22097714 -1.3680487 0.1002336 -0.03554897 -0.15513954 -0.68170375 -0.39939713 0.39453456 -0.3396313 -0.29800758 -0.09683653 0.49866295 -0.62948996 -0.38798937 0.55636185 -0.9356158 -0.54733515 -0.58850545 -0.6716204 -1.1073163 -1.7490962
385 0.1444664 1.0663079 0.19883953 -0.32553545 0.8800979 1.4919347 -0.30833688 -0.38469595 -0.16853455 -0.076649114 -1.2613243 1.2038677 1.3015517 0.38851655 0.45791504 0.33923328 0.53455085 0.48333734 -0.588836 -0.43544644 -0.24208415 -0.34353212 0.25353095 0.69529283 1.2689532 0.17515919 0.29290158 1.0994251 0.49940783 0.7754165 0.020282492 -0.46362263 -0.001302506 0.7825131 0.116193205 -0.0126090115 0.3477709 0.7816249 -0.21514921 0.83979964 -0.098098494 0.8919022 -0.16322793 -0.5198092 -1.3773952 -0.18110456 0.40293208 0.007012735 0.4841727 0.6284128 0.5094663 0.1568805 -0.18565616 -0.40141776 0.060310114 0.1278871 -0.8451309 -0.0059004016 -0.023980346 -0.043017168 -0.5455345 0.93504435 -1.2313306 -0.8342156
1502 0.6462221 0.00082025887 -0.46293184 -0.25211626 1.0329256 1.6714584 -0.5893957 0.1450684 -0.7763127 -0.28446585 -0.796416 1.4283323 0.27825376 0.30930018 0.525397 0.096552856 -0.292672 0.43478566 -0.53306 0.05114417 1.2533071 0.4567814 0.42822832 0.020967204 0.50276697 -0.35115466 0.7842737 0.9966528 -0.25318545 1.2308005 -0.6899637 -0.26337558 -0.4046419 1.0062357 -0.16817756 0.027705247 -0.017569631 -0.012775945 0.17861587 0.63329077 0.09820596 1.0078349 -0.94230735 0.8781825 -0.63291013 -0.2395925 0.010818909 -0.21746673 0.24652961 -0.013081865 0.5708389 0.1857129 0.43286008 -0.5599954 0.63618976 -0.9587723 0.25862694 0.70285285 -0.94413626 0.5402737 -0.740719 0.8363142 0.15245603 -1.7301849
1069 0.15461469 0.43623 -0.23515084 -0.38311976 1.0884914 0.29783458 -0.26178244 0.15807517 -0.805042 -0.24503274 -0.15155302 0.6656455 1.0202458 -0.5466361 0.071445845 0.57066983 -0.83976394 -0.13163792 -0.19814906 -0.11841796 1.2203598 -0.6421512 -0.028700909 0.41963416 0.2967815 0.73860437 0.2511234 0.45564118 -0.14221163 0.50631166 -0.24480842 -0.4624557 0.17358668 0.4729682 -0.8025908 1.252295 0.23653005 -0.60806423 0.28668076 0.76229894 -0.41410285 0.67038566 -0.18736896 0.8322201 -0.7080501 -0.39682898 -0.62832046 0.08840654 -0.16188966 0.078241 0.6856422 -0.86633635 -0.23895003 -0.3942208 0.6969512 -0.75147307 -0.60273606 0.55740273 -0.024925973 -0.79809254 0.46780175 0.6641722 -0.12532848 -0.937246
1484 1.3053887 0.3070118 -0.12948991 0.31049836 0.50766647 1.1156484 0.08612329 -0.1395044 -0.6291469 0.080802105 0.03732245 1.0552492 0.4990073 0.22147973 0.12965791 -0.10446673 -0.3239047 -0.70181245 -0.34528705 -0.8070266 1.0066441 0.48439732 -0.10190176 -0.8196539 0.5062816 0.12361153 1.1065589 0.06713458 -0.5448934 0.7515461 -0.86786973 0.14731586 -0.23656979 0.6148228 -0.24349341 0.38336962 0.7541628 0.083170004 0.036632597 -0.3237066 -0.18476874 0.3369446 0.49142772 0.06842952 -0.8162334 -0.45511472 0.6940216 0.44232747 -0.40937743 -0.41031724 0.28504932 -0.09493126 -0.19037013 0.044728912 0.028869143 -0.81046927 -0.58143204 0.51458097 -0.6411951 0.07648542 0.11230646 1.003239 -0.035934787 -0.8997824
60 0.5104254 0.5596932 0.26529786 0.46766102 -0.12274706 0.54365283 -0.37377238 -0.14154531 -0.10061326 0.08617301 -1.4594089 0.87695503 0.24831751 0.4077034 0.568685 0.33386728 1.0453424 -0.706518 -0.25863042 -0.0010732771 0.1374158 -0.0015184536 -0.5078956 0.7470126 0.29343525 -0.39577752 1.0676166 -0.18834575 -0.22935352 0.26678014 -0.8859372 -0.27342612 -0.030751398 -0.08463084 0.10097333 0.84090805 -0.21812728 -0.002923847 0.97656316 -0.20383579 -0.19218221 -0.038254526 -0.0053706104 -0.2705311 0.5965395 0.23087487 0.8075039 0.048727807 -0.75965834 -0.53773224 -0.47974485 0.43982485 -0.545032 -0.1124166 0.69577557 -0.12543231 -0.29653785 0.48397037 -0.00076420826 0.3398619 -0.13792154 0.19022782 -0.45934087 -0.85753375
1458 0.46323326 0.42020255 0.7832456 -0.069725715 0.25292888 -0.52868277 -0.4430272 0.3435586 0.54218376 0.6944262 -0.5275918 1.0978098 1.151144 0.3022012 -0.43891504 0.8315528 1.3300244 0.29887614 -1.0503515 0.44053677 0.25389844 0.36647964 0.29642943 -0.17384803 0.069720864 -0.841763 1.1404647 -0.36856073 -0.15614834 -0.04710886 -0.38107604 -0.4258618 -0.3841594 0.6748766 -0.14377354 1.219336 0.5630643 0.17489684 1.0082483 0.07828321 -0.097245745 0.5390603 -0.75860685 0.60391915 -0.024169462 -0.18404548 0.23225848 -0.09273408 -0.37382412 -0.0054954155 0.26484627 -0.110906534 0.6919452 0.5926211 -0.49303713 -0.6872856 -0.08349693 0.7368809 0.07311178 -0.24292576 -0.11847922 -0.31710604 0.45183504 0.20675799
1455 1.0534219 -0.36706465 0.0596121 0.4702427 0.9527298 0.22421506 -0.52262056 -1.255006 0.043648317 0.04013618 -0.41921404 0.7374891 -0.0609751 0.0014963028 -0.12745619 0.7460952 0.5536702 0.099916145 -0.44003883 -0.9443349 0.5705507 0.37382877 0.96756047 -0.8701315 1.0578891 0.20515613 0.7930592 -0.01591416 -0.71430933 0.6550719 -0.8962928 -0.15805273 -0.4487467 0.92943203 -0.4300635 0.37985677 0.08063714 0.12131385 0.9200425 -0.215233 -0.31415343 0.22716042 -0.26059917 0.4166408 -0.49620378 -0.77671564 1.0194446 0.67589223 -0.10100215 0.3716594 0.31233722 0.44476983 -0.9822716 -0.08942339 -0.08813151 -0.45613638 -0.97779876 0.5173655 -0.31498867 -0.1763948 -0.37718377 -0.01579227 0.012647178 0.21637453
938 0.20503107 0.54920805 0.66559494 0.6676146 -0.499259 0.20057787 0.14686733 0.2074669 -0.7945852 0.99145204 -1.2970129 0.8100698 1.3460611 0.2724015 -0.4879847 -0.0040576137 1.1042597 0.5880392 0.011667972 -0.59526676 0.5589591 0.07469958 0.43772954 0.6098799 -0.045472756 -0.47777432 0.6847167 0.18160449 -0.81821364 0.11893004 -0.6899846 -0.7239737 -0.7709373 -0.53453374 -0.1102148 0.53182536 0.36384025 -0.012857448 0.6956997 0.12882932 -0.09898774 0.6513185 -0.72211033 -0.23819382 -0.30066434 0.6330865 0.20781086 1.2480321 0.40682262 -0.07884379 0.63292 -0.35363874 0.49466726 1.1089756 0.24450865 -0.3826692 -0.41838363 1.1347166 -0.09289088 0.12422623 0.44177854 0.29020494 -0.11014674 0.045754015
1947 0.32260442 1.2450216 0.21585035 -0.515063 0.6286246 0.45095524 -0.4881492 -0.33667734 0.43737176 0.28045273 -1.7328455 0.52268004 1.8748013 0.44943997 -0.28420883 -0.016441174 -0.06315944 -0.106382854 -0.5420687 -0.8777078 0.30194297 0.35512978 -0.18680096 0.4631356 1.46211 -0.701728 0.4634203 0.37584025 0.012678139 -0.23224428 0.17426035 -0.32240465 -0.90098476 -0.24080348 -0.08776268 -0.516723 -0.4131112 0.46990088 0.7004078 -0.7294841 1.0482122 0.5248826 0.036219254 1.0830135 -1.1192238 1.0875465 0.5998338 0.12842631 0.01175166 0.11681255 -0.5992691 -0.1287203 -0.11618343 -0.014448672 0.86077094 -0.22917876 -1.0196633 0.9326427 -0.72629654 -0.50918466 -0.16596393 0.55357355 -0.6530985 -0.5705095
352 0.44166043 0.2671396 -0.04901561 0.3965106 0.61727285 0.5937594 -0.5439657 -0.082222134 -0.6230075 0.33546764 -1.0682364 0.79227227 0.6381332 -0.44867265 -0.23349954 0.59556335 -1.048423 0.5117695 -0.53860605 -0.58800614 0.6262589 0.16182703 0.16422287 -0.39006716 -0.1572992 0.384117 0.43369398 0.107096456 -0.52271473 -0.11766864 -0.3689879 0.04401983 0.021722788 0.046830237 -0.56896955 0.20474902 0.061501764 0.1010923 -0.33618727 0.7664523 -0.68278044 0.19205852 -0.7636001 0.31612694 -0.2554052 -0.8911562 0.637964 -0.30250338 0.47528404 -0.36207193 0.30328867 0.10664927 -0.4673597 -0.037784245 1.0258114 -0.6608055 -1.0419701 0.3505468 0.14979798 -0.6490381 -0.5125056 -0.024606092 -0.16027455 -0.9505278
152 0.4590335 -0.20605466 -0.43620408 0.35762894 0.42028305 -0.2215235 -0.19329628 0.06721498 -0.77689797 0.09931379 -0.69684047 0.5202045 0.7099758 0.55706877 0.15760647 0.87108046 0.08481286 0.09348982 -0.37673408 -0.38085496 1.327448 -0.11596125 -0.15637182 -0.7926511 0.585477 -0.25222433 0.17413418 0.593154 0.049775466 0.35559076 -0.24003644 -0.32265905 -0.078024216 0.29929805 -1.1905044 -0.58877724 0.25620678 -0.5315084 0.25686568 0.039213177 -0.29220358 -0.63355166 -0.51030535 0.55018246 -0.5214067 0.23220597 1.2954066 0.7108607 0.2390628 0.5055225 0.49371806 0.10370217 -0.63654786 0.22640428 0.60320276 -0.82616186 -1.1141881 0.05566035 -0.12716742 -0.23037381 -0.122730605 0.26165584 -0.23675567 -1.0166152
1510 0.4920116 0.45153132 0.010594328 -0.56044644 0.8783621 0.62414986 0.4415237 -0.8244055 -0.9053945 0.84588206 -0.03311424 0.24303287 0.5642765 0.46966618 0.81363815 -0.20170832 0.9962858 1.1545798 -0.0073297075 0.021108422 0.72384876 -0.062862225 0.82459545 0.16252294 0.46649992 -0.7902827 0.13681132 0.36156058 -0.17946619 -0.46502653 -0.53788656 -0.55482817 -1.338874 0.12140826 -0.2571921 0.349911 -0.08196189 0.5659917 0.69055 1.5361649 -0.2872816 0.5711086 -0.43753278 0.16631112 -0.10020757 0.94416386 0.1895694 0.24327178 0.47033575 -0.05062301 1.0711554 -0.17567319 0.2838152 -0.60357755 0.8025818 -0.5037963 -0.90260637 0.34470493 -0.5009009 0.54950815 -0.4404871 0.6472213 -0.44423965 -0.5155433
927 -0.1022537 -0.3817694 -0.09197314 0.04450564 0.3235986 0.52790546 -1.2448866 -0.37727132 -0.8685667 1.3069443 -1.1535424 -0.30494034 0.82324994 1.2885218 0.0915386 -0.104193605 0.49285677 0.56178945 0.026560321 -0.36214736 0.49223962 -0.4790371 0.31251782 0.5959072 0.8171138 -0.039072555 1.4026219 0.47620443 0.29476464 0.3070097 -0.42694527 0.33436888 -0.98557425 1.3548555 0.22918242 0.7143605 0.9629449 -0.26318341 0.25601885 -0.09919898 0.5800503 0.63792497 -0.4598347 0.42058298 -0.08168018 0.3452867 0.25320065 0.1908089 -1.0826005 0.845819 1.0209901 0.18719557 -0.058231104 -0.41372126 0.7874664 -0.61308753 0.3809184 1.0265547 0.44422194 -1.3211995 0.3825556 0.9366665 -0.30658865 -0.7075434
1433 0.35772163 0.48252833 0.08818793 -0.7023576 0.13330775 0.053282145 -1.620742 0.18930821 0.6546329 0.50736666 -0.7552015 0.3067283 0.15704556 0.35551152 0.35075617 0.29461965 0.813046 -0.6701421 0.09672523 0.6845999 0.89327765 0.43892768 -0.077205524 0.25421965 0.5970619 -0.65744346 1.1775236 0.09016698 0.52847356 0.18322447 -0.7344296 -0.4228553 -0.04221725 -0.14537002 -0.23068914 0.33697808 -0.3449686 0.09846747 0.8340953 0.61259395 -0.6347682 -0.11655174 -0.05457013 0.09209113 -0.30586094 0.1468048 1.616753 -0.5393566 -0.21984056 0.13146411 -0.36593977 -0.58583575 -0.057724677 0.064538695 1.5047163 -0.3490382 -0.106168 0.2510346 0.3202605 0.102687925 -0.6113635 0.26015258 -0.79257625 -0.79895246
551 0.9135181 -0.118007466 0.22924528 0.43170974 1.0982324 0.20469192 -0.18932164 -0.8571855 -0.17864048 0.98632747 -0.086854644 2.0214596 0.3918173 -0.18528138 -0.03275256 0.29540065 -0.0445731 0.21607406 -0.9017118 -0.34584975 0.72464347 0.6987776 0.1508775 -0.3381009 0.29887924 -0.30267712 0.3023378 0.32899678 -0.39903292 -0.002824033 -0.6614181 -0.09345721 0.21122871 -0.37885582 -0.50496566 0.09154926 -0.3446223 -0.82920396 0.46338817 0.107926935 -0.7134489 0.5481087 -0.16997947 0.6283619 -1.296713 -0.4561038 0.28549966 0.44213137 0.102260076 -0.5124312 0.4009936 0.13735573 -0.10074742 -0.058430456 -0.00303407 -0.7649867 -0.39674306 0.43977386 0.5215418 -0.8938643 -0.20483458 0.5108431 0.15906478 -0.44556567
658 0.36156744 -0.07122305 -0.097129986 0.03607664 0.679643 -0.79227215 0.73631084 -0.015504231 0.1516475 0.1415779 -0.78230834 0.1247283 0.8870873 -0.21507075 0.34888262 0.3808647 -0.671071 -0.22758491 -0.41795242 0.1082642 1.3293937 -0.61269253 0.022318779 0.05270583 0.29668236 0.0024870757 0.79530317 0.35776427 -0.024225177 0.45624214 -0.5853242 -0.16489333 -0.07296317 0.47212708 -0.8974684 0.06904262 0.3971075 -0.51917183 -0.022108698 0.14581147 -0.3256071 0.2214648 0.14482276 0.4320123 -0.0326119 -0.13710654 0.4972802 0.016252454 0.19450812 0.2953256 1.0525815 -0.060698595 -0.13762878 -0.39196536 0.9314228 -1.0093896 -0.09971642 0.1057274 -0.37607503 -0.019022964 0.21359956 0.9129118 -0.3272359 -1.0211875
1516 0.34579435 0.85309726 -0.06959354 0.5437183 0.34405297 1.2434081 0.33287132 0.04381546 0.73032683 -0.28236037 -0.82911235 1.0525111 0.8245536 0.31899193 0.19616675 -0.4235013 0.22247557 -0.40371484 -0.19716899 -0.5103002 0.4077093 -0.7213058 -0.34973425 0.16747122 0.37366992 -1.586391 0.21510895 0.05317705 -0.1954851 0.3654813 -0.23098075 -0.42060542 -0.055517733 0.55645114 -0.57607454 0.99019647 0.66165334 0.17949256 0.14397351 -0.56458634 0.23680727 0.87203294 -0.0254754 0.92119634 -0.23537524 0.3920844 0.96201223 0.44329906 -0.083693415 -0.31993642 0.98790795 -0.45912868 0.31613353 0.36144593 0.1404431 -0.2164207 -0.6003001 0.2546982 -0.4910944 0.033152197 -0.060733195 0.45758992 -0.007511896 -1.2429343
266 0.19446784 0.5188274 0.46362805 0.24507107 0.88977903 0.48475033 -0.70650184 0.12236106 -0.56407595 0.46128738 -0.8488731 1.2178876 0.1155882 0.1431618 -0.392423 0.26971984 -0.34036446 0.40957737 -0.47775105 -0.59815073 0.9179815 0.6846801 -0.16365549 -0.30268818 -0.07784976 0.11724843 -0.12703949 0.84984684 -0.1953057 -0.15053672 -0.7854519 0.11369541 0.0969706 -0.21761864 -0.8943792 -0.060728718 -0.13713798 -0.19246446 0.29120725 0.50321513 -0.22840707 0.20509386 -0.46174547 0.11615901 -0.7116046 -0.90570414 0.99810594 0.11656501 0.3446007 -0.361079 0.4804497 -0.49565274 -0.57737803 0.51262516 0.76127297 -0.8673257 -0.67237693 0.052780118 -0.07181894 -0.05625457 -0.24597621 0.026581638 -0.35528812 -0.68936706
93 0.5278982 0.1063808 0.24656801 -0.094749466 0.3954192 0.8033036 -0.015219275 -0.11918024 -0.3027169 0.11885592 -0.60801095 1.0915897 0.7071872 -0.030178906 -0.13139594 0.23076893 -0.14276288 0.6817041 -0.19435687 -0.33364314 0.68073714 0.5032547 -0.08187655 -0.013012299 0.28488952 0.48526132 -0.0066035935 0.4276992 -1.0868441 0.050737135 -0.99250364 -0.0070948126 -0.47472078 0.2086085 -1.0848473 0.43286902 0.27043176 -0.18458958 -0.23437198 0.8554687 0.3683995 0.11853639 -0.58662903 0.14814557 -0.44025236 -0.34857428 0.80739564 -0.3615964 0.4355265 -0.40579417 0.3190358 -0.74340785 -0.61911535 0.40327093 -0.2780368 0.16004333 -0.348157 0.053238757 -1.0086284 -0.49566263 -0.21902119 0.39179176 0.13950676 -0.7325443
1422 0.78181374 0.7071486 -0.2806215 -0.48987097 1.1361059 0.41228333 -0.5239636 -0.066145964 -0.7748 -0.15344717 -0.27383658 0.14265081 1.8068538 -0.56991965 0.41633537 1.1247152 -0.35320842 -0.53560215 0.22071712 0.45806104 1.2748568 -0.67790425 -0.049336974 0.45759675 -0.08468402 0.48649436 0.34342647 0.063639246 0.39448422 0.98774743 -0.44937345 0.057420306 -0.498613 1.2127131 0.12370913 1.039839 0.502063 -0.38637784 0.36012727 0.54056954 -0.9407959 0.5105657 -0.83942467 0.8157965 -0.72572917 -0.014477702 -0.29222643 0.26926968 -0.73778933 -0.45349914 0.3191614 -0.52160543 -0.382121 -0.3330696 0.17593797 -0.44597828 -1.3672675 0.78596616 0.31256458 -0.7227685 0.1736797 0.6111069 -0.0034174284 -1.4174058
1630 -0.6467051 0.8273901 -0.786905 0.22058055 0.33874536 0.38818726 -0.42866123 0.05730652 0.41779578 0.4814929 -0.04185697 0.6947035 -0.012116821 -0.2856979 0.2553025 0.11464302 0.7301513 -0.035540946 -0.1749352 0.26382267 0.56748235 -0.46162644 -0.18898667 0.9350081 0.7075355 -0.4258988 0.3756538 -0.5153971 -1.522132 -0.03272807 -0.40373787 -0.11302231 -0.3707787 0.8724761 -0.45866013 -0.080981374 -0.026491743 -0.19494765 0.36979863 0.58498216 -0.73321146 0.66686565 -1.0595427 -0.005138456 -0.35154006 0.59723276 0.14998819 0.16627489 0.071462296 0.07121495 0.26660436 0.6706291 -0.15698072 -0.4442329 0.75622153 -0.85742617 -0.4804995 0.3247481 -0.3369847 0.14883982 0.24866542 -0.62219745 -1.0815729 -0.91347164
437 0.2511466 -0.13583374 0.10530023 -0.1542174 0.96202433 -0.07243632 -0.09278026 -0.11510673 -0.4963738 0.081497796 -0.34555113 0.59211034 0.7444113 -0.4882098 0.29059348 0.4042962 -1.0770795 -0.11594471 -0.5286107 0.060350284 1.0410273 -0.41904023 0.10993207 0.116330504 -0.016398901 0.46758074 0.37235755 0.45009965 -0.43906397 0.52549666 -0.5154132 -0.5120786 0.03572234 0.39448497 -0.90263903 0.3539579 0.35330504 -0.40368804 0.19889697 0.5298538 -0.31381327 0.47321737 -0.047970463 0.6605782 -0.58368963 -0.50402385 0.094572194 -0.2592078 0.2685282 -0.19934149 0.8095415 -0.273307 -0.21518263 -0.41567332 0.7702857 -0.96724254 -0.33966964 0.41492426 -0.09628881 -0.39607903 -0.09755032 0.7775179 -0.15286715 -1.1430222
501 0.1537183 0.9213414 -0.17937791 -0.6644681 0.3648402 -0.06400802 -0.3595925 -0.8007553 0.196885 0.2074171 -0.95175767 0.90767336 0.22913972 0.1249973 -0.3544013 -0.21842422 0.041101992 0.9585876 -0.59002846 -0.3596904 0.66024935 0.11984004 0.07148979 -0.16997458 0.9560152 0.0718711 -0.12916799 0.28180555 -0.2202681 -0.13383007 -0.48221225 -0.31722677 -0.40439948 0.61937636 -0.27171907 0.20427583 -0.19498624 0.095215924 0.23602366 0.25479627 -0.4399818 0.29887605 0.39399987 -0.11623118 0.04239167 0.022047786 0.0923084 0.40728697 -0.36356708 -0.16144091 -0.16746719 0.52797866 -0.16236831 0.9725139 -0.44878048 0.55221814 -0.120130375 0.1362206 -0.45076782 -0.30702928 -0.019156907 -0.23283552 -0.44671714 0.18589634
2062 1.1761814 1.3406935 -1.3135914 -0.14575961 1.2456899 -0.05260185 -0.8026787 -0.20253965 -0.50130695 0.112171516 -0.8925034 -0.13147812 0.60389507 -0.39734852 0.31521082 0.42265558 0.53396416 0.9275852 -0.43244842 0.102521256 0.11005858 -0.15516749 -0.14238888 0.43614662 -0.3820961 -0.94006985 0.6357559 -0.52943206 -0.5174504 0.19842763 -0.6363158 -1.0181661 -0.25881267 0.14423347 -0.7911118 0.4961749 -0.720931 -0.61084706 0.7415052 -0.32967553 -0.18734328 0.7657418 -0.26481682 -0.41346157 -0.9184963 0.62919843 0.41486537 0.2621928 -0.93860936 -0.4181572 -0.5879182 1.0061475 0.11897974 0.5198078 0.6507066 -1.3201592 -0.9744777 1.2293282 -0.2685902 -0.8013427 -0.93121904 0.31235793 -0.19242929 -0.9652373
1907 -0.35341877 0.2975853 0.15247153 0.28726667 0.6363382 0.9975123 -1.3026073 -0.36665353 0.13959351 1.3149093 -0.20641984 0.71435034 1.1041079 0.73574656 1.4940765 0.39113244 -0.20112896 -0.5338424 0.29645386 0.21072716 -0.47084114 -0.11654244 -0.07961455 0.27457467 0.69918656 0.6709341 1.4310998 -0.21357934 -0.026596405 1.3428105 -0.16244552 -0.52500135 0.29532862 0.1165778 0.22530538 0.5968275 -0.41831523 0.56124693 0.88740253 0.76764846 0.86711353 1.1869177 0.05630007 0.7877693 -0.6129675 0.09334736 0.7416785 0.9751017 0.2344407 -0.33143678 0.23601766 -0.814484 0.18228361 -0.4973663 0.88277674 -0.9442065 -1.2161318 1.1507988 -0.30535692 0.13650809 -0.46265724 0.31979448 -0.0656137 -1.3262352
1580 0.060330577 0.15720554 -0.784041 -0.8052968 0.80710185 0.5758065 -0.9589477 -0.10188225 0.12783319 1.5627545 -0.89045084 -0.42893925 0.7110956 -0.41329288 0.76252735 0.28630152 0.53001934 0.9502301 -0.27868566 -0.38869146 0.656401 0.08666589 0.3136645 0.4855514 0.72771233 -1.2561967 0.34543613 0.80649 -0.011787834 0.90396863 -0.5562604 -0.3791665 -0.07365986 -0.27919823 -0.2832775 0.7863028 0.5197964 -0.50040066 0.36751056 0.19073363 -0.3162692 1.6470116 -0.6615153 0.39378768 -0.17446856 0.045920335 0.15901655 -0.46005324 0.09268196 -0.8345919 -0.51977307 0.45211816 -0.5189249 -0.4892247 0.94674087 -1.0802839 -0.7420472 0.55750275 -0.3676567 -0.41859317 0.46590716 0.3760973 -1.4715592 -0.39507842
1835 0.4419093 0.41325295 -1.2661217 0.9524816 1.2115489 0.46139976 -0.79391825 -1.187787 0.7266606 1.2579467 -0.5076004 -0.01646378 0.2674483 0.008520032 0.09513606 -0.51772785 0.22488679 -0.42157578 0.102340415 -0.05706308 0.66031 -0.022402545 0.4047143 -0.28250468 0.6705458 0.11306765 1.0452722 0.6091099 0.27717602 -0.32840306 -1.0730231 -0.5300261 -0.743352 -0.04234879 -0.88448083 -0.026688982 0.2454438 0.22129801 1.0347933 -0.17474301 -0.571741 0.24609964 -0.24741963 0.21313891 -0.45771685 -0.8223339 -0.2097062 -0.21334751 0.27472046 -0.42700815 -0.12549113 0.1823169 -0.17547636 0.6440983 1.3021369 -0.19748017 -1.3479918 1.1182934 -0.2554916 -0.33801317 -0.73216033 -0.33555847 -0.5848797 -1.5890074
324 -0.17616989 1.0772109 -0.35298932 -0.262582 0.3521122 -0.1268527 -0.18159895 0.035556085 0.7897486 0.29311004 -0.78304267 1.0580657 -0.032516602 0.19308668 0.07821822 -0.11189394 -0.016868876 0.44632372 0.011657542 -0.19052492 0.23013075 0.088020965 -0.10404859 0.8212809 1.2178452 0.22349022 0.54368365 -0.21334542 -0.30913544 -0.25958773 -0.27834037 0.41743523 -0.6124796 0.25051868 -0.27389932 0.0052933334 -0.54528433 0.49320406 0.14199226 0.75157154 -0.50698376 0.45135778 -0.394618 0.18293539 0.6462583 0.027365891 -0.32595313 0.6638218 -0.028015343 -0.08621938 0.021651996 0.20026955 -0.017669197 0.23150516 0.5632158 -0.15467496 0.06760494 0.61982745 -0.12395725 -0.38664222 0.4019354 -0.14169115 -0.4673556 -0.8122466
541 1.1248399 0.490072 -0.37886727 -0.32706133 -0.17398193 0.84362364 -0.11944461 -0.992058 -0.07292882 0.33971733 -0.29098052 0.5790533 0.45497146 1.1419525 0.8262507 0.68976533 -0.25830087 0.46627223 0.48937482 0.5565038 0.27023298 -0.0019927528 0.028762981 -0.3406318 -0.20841771 0.3924376 0.6689773 0.12023383 -0.6164793 1.048536 -0.8297772 -0.13590598 -0.1796106 0.0019741647 -0.90116096 0.92014307 0.5782876 0.10308559 0.7749051 1.3680956 0.79114497 -0.06273693 -0.8992825 -0.3089626 -0.58592826 0.09922027 0.5038726 0.46111795 -0.43342212 -0.4340122 0.5133282 -0.7957415 0.7312369 0.3525312 0.31587827 -0.13803737 -0.5672486 0.26845202 -0.86611253 -0.57250756 -0.82491297 0.5670267 -0.6098698 -0.8080568
1315 -0.33906165 0.62817585 -0.64659613 0.037646778 1.3923967 1.1568441 -1.1723244 -0.5941869 -0.11114045 1.2180166 -0.7526257 -0.304394 0.20148163 0.5947199 0.04024833 -0.30367774 0.17740983 -0.23963307 0.022287007 -0.34816602 -0.046135485 0.14179686 0.39364776 0.55454856 -0.20110558 0.56591254 1.1545142 0.39282683 -0.06839076 0.67188483 -0.48398396 -0.15466048 -1.0122932 0.5874201 -0.7791008 0.36811432 -0.13621424 -0.81829154 0.17789385 0.50890356 -0.8230931 0.74675554 -0.5009909 0.24952272 -0.687735 -0.03614522 -0.029200286 0.95173526 -1.037792 0.8216837 0.432553 0.25100628 0.6910135 -0.057731807 0.8930535 -0.7552096 -0.87297755 -0.19827756 -0.8624661 0.31682542 -1.0102396 0.28200573 -0.5998025 -1.2623334
422 0.384959 0.15929623 0.4796128 0.053443264 0.28016585 1.0985615 -0.14234437 -0.6925908 -0.9572014 0.3189061 -0.18930146 0.788642 0.51200825 -0.02529498 0.1013058 -0.16183895 -0.31707773 0.10126341 -0.39148825 -0.31148484 1.3249284 0.8045769 -0.12452112 -0.65331393 0.37607008 0.055079762 0.5720587 0.09215848 -1.0513577 0.24266449 -0.7869574 -0.38495377 -0.11731476 0.25197744 -0.9921862 -0.60702664 0.34021086 0.13111258 -0.16094922 0.07562439 -0.5012345 0.3272403 0.15253562 0.46871653 -0.74253374 -0.6567594 0.56653565 0.46344367 -0.16519283 -0.2525158 0.13277446 -0.25371748 -0.3929408 0.5496747 -0.09270641 -0.6494107 0.20743868 0.34528267 -1.0662631 -0.3849758 0.41217893 0.15481679 0.071396366 -1.01049
1640 0.23173796 0.77364975 -0.17584553 -0.13513136 0.13224268 0.4786467 -1.2828158 -0.68905014 -0.3396668 0.5476833 -0.30263293 -0.3500626 0.71928334 -0.72438216 -0.12686962 1.4002746 0.89931434 -0.122334994 -0.6842275 0.0744362 0.5495895 0.6553681 -0.41480282 -0.4354602 0.46750984 0.45133877 0.2820955 -0.47150952 0.20677274 -0.012640389 -1.74792 -0.30073902 -0.6661804 0.08759885 -0.038020022 1.2012408 -0.03863466 1.1405336 0.5940045 0.13088818 0.3974944 0.92558277 -0.10869781 0.518289 -0.07866307 0.40808037 0.122698784 0.70688134 -0.08930766 0.18759362 1.1440065 -0.5052155 -0.2606209 0.9032332 0.9071634 -0.38360444 -0.8475549 -0.34301758 -0.09231392 -0.7680181 -0.88503504 0.84851354 -0.13444813 -0.23941766
639 0.3401189 0.681915 -0.08295736 0.52974916 0.2909949 0.79404944 -0.26673827 -0.4312218 -0.18706912 0.32540563 -1.4929843 0.89619696 0.3051007 0.45393312 0.64845985 0.60242254 1.3435512 -0.9180581 -0.28848052 0.2224688 0.22039886 0.0886216 -0.6423109 0.4493974 0.61041206 -0.16287765 1.0988488 0.31271333 0.07558205 0.2827956 -0.545582 -0.12386192 -0.27748826 -0.23454618 0.53982115 1.0918367 -0.18135628 0.15994918 1.302294 -0.11284045 0.0148876505 -0.15153953 0.22571683 -0.06843711 0.23058233 0.27660543 1.0293152 0.015416116 -1.3333535 -0.53503203 -0.61310804 0.8361708 -0.31279683 0.078602165 0.6988383 0.0331229 -0.7124042 0.653456 -0.32500547 -0.06539034 -0.16047001 0.43462276 -1.0784838 -1.6847022
1596 0.26809368 -0.74410117 -0.40188116 0.041576438 0.63916445 1.4857486 -0.4316706 -0.5782112 -0.62213486 0.22790757 -0.1383807 0.26594573 1.1056254 0.24535844 -0.097158164 0.35228965 0.5598446 0.44522166 -0.6719474 0.070179984 0.06898955 0.54014456 -0.62978005 -0.14637738 0.8171626 -0.005274637 0.55272275 0.29436448 -0.34711212 0.42691156 0.34104925 0.19096616 0.19723593 0.19726518 -0.115072414 -0.25338167 0.67452145 -0.80589354 1.4046518 -0.19908465 0.09133421 0.5787313 -0.14307757 0.46937278 -0.5766659 -0.4817394 1.2356261 0.013453338 -0.4386689 0.13300696 1.2393153 -0.7275905 -0.6423368 0.45967433 1.1523609 -0.39495793 -0.8897668 0.15439992 -0.28688753 -1.0149728 0.07046707 0.28469503 -0.3278598 -1.2164557
580 -0.3847128 0.16513728 -0.47864127 0.22553681 0.608052 0.29883835 -0.09386813 0.0015116236 -0.42535168 0.1915727 0.15748858 0.16023695 0.6735337 0.8612542 0.043427616 1.0711002 -0.3696826 0.23260024 -0.10959757 -0.90029603 0.36913884 0.16167428 0.09985788 -0.41962233 0.983748 -0.24006209 1.0763603 -0.16155139 0.040447894 0.99033254 -0.19302411 -0.40513572 -0.7331578 0.06247041 -0.6154006 1.1511192 -0.626152 0.17828916 0.9628271 1.267562 -0.72380716 -0.35948893 0.086726435 -0.6302908 -0.123222925 0.845323 1.2237769 0.517508 0.03598739 0.011027035 -0.21510077 0.98395556 0.024004707 -0.23246813 -0.18731748 -1.4508246 -0.7758411 0.9917364 -0.05420658 -0.19096778 0.06441845 -0.016561922 -0.61148983 -0.9048161
1098 1.0821397 -0.5844175 -0.020424804 0.495754 0.9416191 0.41453058 -0.7836211 -0.08649283 -0.38139024 0.24150951 -1.0194446 0.85786074 0.9325566 0.48846146 0.61139166 0.3162 0.31976354 0.49170184 -0.43277177 -0.017409634 1.2067187 0.17460579 -0.5430111 -0.42370263 0.24235716 -0.2739545 -0.29739174 1.122848 -0.22556359 0.10798275 -0.32770583 -0.46264496 0.5897894 0.15737914 -0.16086408 0.06762277 -0.013895186 0.07534151 0.027595105 0.25240642 -0.28289106 -0.12132835 -1.2201023 0.5478601 -0.7815787 -0.13389191 1.1403371 0.16717327 -0.56963235 -0.07227752 0.3165905 0.104126796 -0.5210179 0.108829156 0.7427918 -0.35859188 -1.3941667 -0.23901628 -0.033294916 -0.14482437 0.4691126 -0.11969936 -0.12912434 -0.50646186
92 0.44402242 0.43761632 -0.088283926 0.1622646 0.7315273 0.43222272 0.09771023 0.15232767 -0.26725975 0.14676218 -0.70771307 1.3626232 0.54509014 0.19657566 -0.68223035 0.68823224 -0.25877783 0.15312116 -0.671791 -0.9372596 0.36731434 0.5216788 -0.071821764 -0.022954805 0.04582952 0.14633362 0.63353145 0.15834369 -0.86322755 -0.18829411 -0.5672943 0.115812436 -0.4573997 -0.0067191264 -0.9846241 0.64601743 0.05691556 -0.33534816 -0.42102152 0.8903221 0.3193883 -0.0023362536 -0.24639343 -0.19227839 -0.20424262 -0.65176606 0.9355924 -0.07268537 0.29788882 -0.06939318 0.24597932 -0.33672482 -0.80628574 0.2237744 -0.16429985 -0.4672965 -0.28880206 0.054893065 -0.51398015 -0.30739042 -0.25619543 0.30925494 -0.012703137 -0.75418675
2064 0.4734535 0.82152003 -0.3709591 0.1624009 0.90793675 -0.2836365 -0.10478531 0.24989091 0.59434444 0.50741476 -1.0161123 -0.26089966 0.6761411 -0.40031743 0.018862497 1.1070147 1.6369998 1.0018682 -0.5878095 -0.046302147 -0.26449051 -0.10274836 -0.12951328 0.09749252 0.2977006 -0.5603812 1.9876956 -0.3137081 0.012847916 -0.47370446 -0.8687855 -1.0091758 0.12620753 1.1372712 0.49787006 0.76088065 -0.10174757 -0.35631886 1.1955607 0.46999532 -0.23351969 0.6909492 -0.44470853 0.6357107 -0.42047656 0.8924863 -0.27820018 0.4601787 0.011953726 -0.3866083 -0.017211778 -0.5870023 0.833341 0.19761781 0.37043318 -0.29481035 -0.52086073 0.057967883 -0.6953753 -0.02238456 -0.627866 0.37712935 -0.42957455 -0.9093039
879 0.14922594 0.32292712 -0.3879489 -1.1849079 0.4111556 0.44025847 -1.025378 -0.87255746 0.10106274 0.76653093 -0.7880373 0.9256349 0.40250713 0.4124039 -0.6647245 -0.5588667 -0.020938916 1.1756917 0.026946833 -1.0518199 0.76792043 0.4076369 -0.06378326 -0.3280648 0.70861065 -0.043614198 0.15512957 -0.27081174 0.02037908 0.46980223 -0.5100059 -0.3074494 -0.6030965 0.85269904 -0.46254393 0.43839642 -0.5653119 0.56037533 0.47172818 0.1820996 -0.7620785 0.6100858 0.16779302 0.044551153 0.11567519 -0.028574932 0.24079819 0.4185296 -0.7421652 -0.27738956 0.09096856 0.55230695 0.13630734 1.4304718 -0.33331275 0.116331056 -0.2861454 0.24061917 -0.3367395 -0.06977057 -0.019410802 -0.2912024 -0.8848403 -0.13021098
1120 -0.12155448 0.78988814 -0.36323425 0.25705642 -0.33092868 0.3063603 -0.82944024 0.5829344 -0.033995546 0.7448037 -0.5090527 0.39888778 1.6658009 0.7150563 -0.4128268 -0.39607397 -0.13173631 -0.13903049 -0.4251095 0.5744122 0.4762746 -0.3512007 -0.25914794 -0.4242387 0.45604986 -1.1851674 0.46928617 -0.10137663 -0.12523764 -0.3546633 -0.83402646 0.0301083 0.13802911 1.2192585 -1.0487416 1.052378 0.16979185 -0.12998037 0.41295874 -0.03282043 -0.53323406 0.20133805 -1.3771156 -0.03528416 0.21939598 -0.12961282 0.10742461 0.019442298 -0.39813632 -0.206477 0.6955032 -0.8255429 0.2993906 0.22906674 0.40907222 -0.179917 -1.0160288 1.8171773 -0.05237307 0.18371187 -1.1308537 -0.14810695 -0.7143324 -0.73188883
828 0.3501799 -0.48160246 0.074793465 0.37704676 0.7782665 0.5278413 -0.19451591 -0.7137874 -0.41480395 0.28559405 -0.2737731 0.88406193 0.8721147 0.23800847 -0.078031495 0.4810333 0.04711809 -0.3695584 -1.0173128 -0.049257174 0.09036381 0.43058532 -0.48854667 0.56469053 -0.102418475 -0.3122736 0.5626402 0.07584413 -0.47606745 0.4552504 0.48199564 -0.13138136 0.39315632 0.24257047 -0.71597975 0.466897 0.5529283 -0.42460492 0.8080863 0.19439453 0.12386891 0.77903855 0.15911461 0.36145306 -0.60921013 -0.35939458 1.1802192 -0.30284077 -0.35317767 -0.171011 1.0270473 -0.67621404 -0.835309 0.3242971 1.010996 -0.40113932 -0.45150527 0.05497203 -0.34262365 -0.6926161 0.5315811 0.6442438 0.18888956 -1.2024008
521 0.1624306 -0.7782797 0.14630166 -0.15846121 0.49290612 0.34452695 -0.6595956 -0.9649627 -0.39938065 -0.28396976 -0.9070547 0.25101516 0.53649974 0.68744063 0.7800384 0.57876056 0.16395725 0.04600936 -0.47350964 -1.0012052 0.5620899 -0.55751854 0.4266738 0.7973742 0.9132851 -0.29192254 1.3205866 -0.26297393 -0.70237017 0.91273844 -1.8968122 -0.009384848 0.43978176 -1.0086945 -0.8507096 1.1372976 0.21955287 -0.07020542 1.1508545 -0.32062593 0.29107985 0.4182083 0.43083033 -0.32454532 -1.3610929 0.53820497 0.335184 -0.080315284 -0.33417812 0.19277017 0.5978307 0.59475315 0.28746343 0.023140635 0.45866016 -0.2769113 -0.63278246 1.4824759 -0.4229873 -0.14904495 -1.0816337 -0.15986714 0.29082525 -0.9031578
186 0.069245026 0.75483525 0.8352847 0.26292723 0.67661947 1.2030807 -0.3279845 -0.39954928 -0.13496101 0.04767587 -0.8528825 0.8689222 0.9591662 -0.123916104 0.36660627 0.11552717 1.0839472 1.0630287 -0.39102793 0.7633372 -0.26294184 -0.19361044 0.029753236 -0.30858454 -0.22874726 0.3655167 0.5216648 0.25588584 0.16280055 0.78376484 -1.5184326 0.6682534 -0.7439746 0.39580056 -0.32089102 -0.569243 0.48779944 -0.3191844 0.73545223 0.59416485 0.17744209 0.8856253 0.29995334 0.23054007 -1.0049653 1.0749351 0.79062533 0.25787482 -1.0825939 -0.43168387 0.28214446 0.7106439 -0.4046277 0.41329792 0.6278905 -0.6143816 -0.7210696 0.9055034 -0.25820163 0.09679862 0.19228671 0.8291307 -0.43168288 -0.91690195
1407 0.5236562 0.7903245 -0.61258864 0.3373078 0.5138565 0.50579435 0.38444573 -0.7328726 0.071869135 0.60971403 -0.34852794 0.07435766 0.44452906 0.60304 0.021614445 0.30085573 0.35880655 -0.1090394 -0.01868006 -0.4655877 -0.417122 -0.7624588 0.54568565 0.79624 0.105264224 0.41599855 1.0076259 -0.3588538 0.06579717 -0.24873818 -0.55376834 -0.41739944 0.7639949 1.0175074 -0.5416933 1.5783167 0.63190126 -0.108459204 -0.2858364 -0.30057806 -0.4374261 1.4615949 -0.4159726 0.41985273 -0.7685483 -0.28078222 0.09649426 0.2916788 -0.8848989 0.27686664 0.7318466 0.09241037 -0.149748 0.30283254 0.24493794 -0.64238477 -0.15086783 0.06526162 -0.9830722 -0.90931016 0.7962337 0.68971634 -0.24144861 -0.88824713
1530 0.6268039 0.033782464 0.4838888 -0.67850876 0.2692617 0.16731796 -1.1194391 -0.39030603 -3.353279e-05 -0.99357814 -1.027383 0.30114597 -0.051230945 0.32109973 0.14844474 0.21797472 0.46438786 0.27901492 -0.06935242 -0.36189458 0.124905795 -0.1398691 -0.92845774 -0.1199727 0.7760211 -0.7218223 0.6305496 1.2273709 -0.48248902 -0.39622894 -1.0534688 0.24712452 -0.56635255 0.0838019 -0.08321458 1.1429424 -0.18064536 0.010760511 -0.65468705 0.6141728 0.50543374 1.0580463 -0.27281517 -0.21421736 -0.91269666 0.47291672 0.55681664 0.3663804 0.1007934 0.19201128 -0.16456138 -0.20049578 0.58001316 0.586716 0.92170054 -0.2309395 -1.6868104 1.0107073 -0.9838817 -0.8601082 -0.5039442 -0.72095 -0.7775341 -0.81140643
472 0.74028563 -0.4513651 0.5825869 0.13176043 0.36065283 0.69946134 -0.2287246 -0.20776978 -0.81947964 0.08681701 -0.46845934 0.7804134 1.2375772 -0.07888875 0.07642538 0.51509345 0.13722703 0.4058263 -0.21566282 -0.35542598 0.8221433 0.5194209 -0.00846493 -0.6567049 0.5624287 0.08362046 0.19096428 0.77197856 -0.79354185 0.12727731 -0.8159197 -0.4598415 -0.24755004 0.24377577 -0.7865635 -0.12549329 0.40233663 -0.022252714 -0.35221988 -0.07471037 -0.30059543 -0.22070405 -1.1148058 0.7579543 -0.9569249 -0.018665098 1.2298634 -0.06598927 0.007932978 -0.22375141 -0.05815369 -0.33389118 -0.81338495 -0.07007334 0.57923704 -0.6214016 -1.0502058 0.1212037 -0.7098659 -0.56896275 -0.106398314 0.34619635 0.32035214 -0.8316663
1606 0.050176438 0.7541779 0.042241346 0.05325354 0.19749472 0.767334 -0.635036 -0.17360139 -1.0467381 0.72159165 -0.5531231 0.16109967 0.025101548 -0.39941415 -0.21681671 -0.080504455 0.7616935 0.8301593 -0.3742174 0.28286067 0.40951166 -0.52771604 0.31830072 -0.15627588 0.64168334 -1.178965 1.262796 0.0038651135 0.1433175 -0.3568217 0.29920086 0.30201927 -0.43332618 0.7524696 -0.46022236 1.0927652 -0.9261671 0.648755 1.0430297 0.24312924 -0.05797254 0.49693298 0.19545747 0.30189055 -0.45705545 -0.27324203 1.4080575 -0.07744074 -0.6706985 -0.71106654 0.80444 -1.0545028 -0.6487837 0.19258653 0.95850176 -0.50148934 -1.1139978 1.3114976 -0.6407858 -0.23499139 0.45744482 -0.5663773 0.16051587 0.012653375
1816 0.92891306 0.62131613 0.2185413 -0.56999743 0.93833286 -0.5169351 -0.5885249 -1.2068192 -0.052106082 -0.02271628 -0.7194533 -0.032216407 0.29075277 -0.070492536 -0.057120968 -0.046997152 0.47293448 -0.10521646 0.5047071 0.7328365 1.0145203 0.84963554 -0.194235 0.4710393 0.06242351 -0.13319221 0.96720034 0.014764047 0.22619212 0.43739504 -0.055605277 -1.1629148 0.05213357 1.3101242 -0.11723605 0.578261 -0.4907876 -0.46959165 0.85081846 0.81800133 0.07624643 1.4289916 -1.3845222 0.24404664 -0.029753378 -0.032732937 0.7100913 -0.36660403 -0.16194814 -0.039862487 -0.6022831 -0.14704883 0.27326095 0.5904507 1.4964381 -0.5747617 -0.6381698 0.04882934 -0.15937859 -0.31814647 -0.9655948 -0.23850174 -0.94339466 -0.8442949
790 -0.11825367 -0.1444093 -0.17263377 0.96817136 -0.07596576 0.13459685 -0.49239147 -0.7716591 0.14096077 0.52597886 -0.37137404 0.08879355 1.2935126 -0.046969794 0.8289226 0.028627342 0.97508234 0.03139134 -0.63406676 0.3733084 -0.024392229 0.062165633 -0.60104465 0.56322634 1.4672874 -0.5661708 0.25082213 0.28745472 -0.57801485 0.2263228 0.58478117 -0.7176724 0.6182842 0.31363985 -0.16676688 0.239363 -0.09736432 -0.2641884 0.44650784 0.87330216 -0.50905746 0.4149145 -0.574662 0.13759746 -1.081441 -0.080203965 0.6215527 0.05660435 -0.4783146 0.18020183 1.0809715 0.2701073 0.16995755 0.5931964 0.3311573 -0.10678144 -1.3486702 0.16155063 -0.16163404 0.22541243 0.40657347 -0.38415787 -0.58433396 -0.6935796
225 -0.41707414 0.04540067 -0.3863947 -0.216168 0.14515443 0.28372964 0.10960557 0.031408295 -0.57699263 0.69946444 -0.019208284 0.39113742 0.38707045 0.69785696 0.28016922 0.8975143 0.014567492 0.32593748 -0.09257263 -0.6233214 0.3791327 0.39564943 0.13573942 -0.43639886 1.2376122 -0.3696001 0.38557202 0.066484265 0.22752047 0.4161012 -0.059976336 -0.58225685 -0.78706634 0.110015824 -0.4778685 0.99648815 -0.34575775 0.16101024 0.76449573 1.0751888 -0.53958905 -0.6042949 -0.0005344179 -0.13899109 -0.0623011 0.7620498 0.7753817 0.31584314 0.20793368 -0.112299435 -0.12299511 0.8266068 0.1191517 -0.15948462 -0.22168492 -0.5743308 -0.89002854 0.950926 0.020185182 -0.2364893 -0.20931888 0.19624434 -0.5369948 -0.38794392
645 0.75387746 -0.20902056 -0.12951644 0.68692946 0.46914062 1.3593316 -0.6606097 -1.2012744 0.5285042 1.6264459 -0.61696625 -0.112986565 0.44704565 0.63181007 0.79636294 -0.00029167102 0.32725835 0.57182604 -0.6294213 -0.23238882 0.89711416 0.14868078 -0.09992426 -0.45051104 0.34393686 -0.34199554 0.82586455 1.0236697 -0.2531327 0.5503352 -1.38825 -0.037550475 0.13132681 1.4613239 -0.8051192 0.9059648 0.20368089 0.06746238 0.7574995 0.15992081 0.6018407 1.0491525 0.02430572 0.8984389 0.47948968 0.373982 0.6276584 -0.027049787 -1.0608826 0.46146953 0.18475617 -0.65247226 0.45640644 0.17435199 0.7344175 -0.47603154 -1.0313576 0.3455717 0.0075164144 0.44077706 -0.48618203 0.12550889 -0.08510074 -0.15665948
550 -0.4451367 0.5474098 0.16866417 -0.17788146 -0.27888796 0.07507636 -0.097212695 -0.649641 0.20459859 0.3704533 0.03735936 0.8732981 1.009312 0.3490074 -0.18183017 -0.30466798 0.7842173 0.34611857 -0.46227542 -0.17014709 0.3679614 -0.014032258 -0.02391861 -0.36485127 0.66093457 -0.13128477 1.0032669 -0.13381094 0.6044536 1.2085006 -0.16845793 -0.24479455 -0.7704489 0.4872356 0.46328908 1.2184765 0.45562017 -0.8119258 0.28167143 0.24296522 0.05667264 1.1511941 -0.6881585 0.5193744 -0.3043342 1.3706131 1.1220554 -0.4417454 -1.4782311 0.20448919 0.22639562 -0.56080043 -0.6421515 0.28415504 0.97034675 -1.0207584 -0.041764233 0.61964303 -1.0824803 0.4273609 0.4741611 -0.31018123 -0.60880524 -0.90426177
922 0.84995395 0.4353114 0.28017128 0.09655602 0.90479064 1.0594096 -0.1998045 -0.7976975 -0.31285086 0.20406292 -1.1654778 1.1691141 1.3388902 0.6282812 -0.187101 0.0773542 0.6848224 -0.084061526 -0.5790047 -0.027734512 -0.3890835 0.1583245 -0.09678035 0.44256255 0.99819714 0.29769772 0.36804914 1.2888349 0.3484196 0.855615 -0.22476506 -0.65727454 -0.11815781 0.27175012 0.036718443 -0.11594968 0.92861634 1.1176299 -0.3559823 1.0303109 -0.035287734 1.161078 -0.05657544 -0.62103957 -1.2220943 0.27999303 0.6205365 -0.27350974 0.3567329 0.8065315 0.14105421 -0.025315346 0.14075871 -0.6161734 0.06552582 -0.119436994 -1.0122409 0.50348175 -0.2638454 -0.044068873 -0.25154623 0.74078447 -1.2711973 -0.73751193
1551 1.1246089 0.493633 0.48309717 0.494966 -0.36278728 -0.50852954 0.5278252 0.17049457 0.04151895 0.10937964 -0.7250456 0.31062555 0.7063602 0.3604933 0.32485068 0.19626723 0.6361504 0.0149210915 -0.769571 -0.33494487 0.9273872 -0.025882231 -0.27867404 0.51325864 0.7398054 -1.1603329 0.20268136 -0.5244284 0.07745761 0.14137766 -0.66827536 0.2950432 -0.20290148 0.32382575 -0.50867516 0.5051704 0.32665116 0.22639515 0.7922407 -0.24969812 -0.22099246 0.50041205 -0.07436377 -0.7957064 -0.043504175 -0.39120755 0.41995674 -0.12864763 0.26094237 -0.051758155 0.2598731 -0.5426867 0.163472 0.7271704 0.021656068 -0.9974065 -0.4897203 -0.04754675 -0.5586247 0.38912198 0.1091527 0.82510686 -0.4200825 -0.40320078
743 -0.07541184 -0.24535343 0.48484662 -0.5372745 0.92228913 1.1259657 -0.13095064 -0.9218018 -0.27132675 0.5511429 0.18140838 1.0390985 1.0318067 -0.057974316 0.29562 0.48591158 -0.06436361 -0.31007397 -0.14558566 0.39649552 1.4141864 0.96871614 0.14844674 -0.20655794 1.0215119 0.24056213 0.86616886 -0.11693605 -0.6934931 0.72261924 -1.0999544 -0.79163104 0.024662979 -0.2115566 -1.0243337 -0.009407332 0.13209139 -0.21977852 -0.23156399 -0.0511448 -0.4006744 0.18980682 -0.72109205 0.889602 -1.0152787 -0.62878776 -0.24978416 0.5249526 -0.10225171 0.056906957 0.4860207 -0.04417521 0.24259497 0.4563394 0.1204327 -1.2226058 0.36464903 0.88061464 -0.111400224 -0.12245713 -0.2101589 0.10073816 -0.4353885 -1.5580494
411 0.35442793 0.22159058 -0.10187702 -0.47311115 0.29647315 -0.029212471 -0.14268902 -0.74065053 -1.013988 0.17142186 -0.13396266 0.38760588 1.1632185 -0.60828274 0.32622898 0.36880055 -1.1029496 0.07521981 -0.9693354 0.29970878 0.35751516 -0.15633363 0.48381168 -0.23561174 -0.019510597 -0.078512415 0.8177735 -0.119902305 -0.4728244 -0.42675123 -0.12522668 -0.11418901 -0.31209838 0.33043647 -0.85945874 0.74945724 0.86690634 0.5507897 0.7630678 0.8847225 -0.63895273 1.2816819 -0.4615082 -0.49302566 -0.40028763 -0.21219915 1.1315591 -0.36906615 0.11875598 -0.44714698 -0.6011709 0.3432765 -0.15038648 -0.49253312 0.17575797 -0.7011826 -0.43839005 0.6421944 -0.5512376 -0.6280813 -0.09347979 0.1369986 -0.5277648 -1.5969063
1690 0.3201504 1.1202942 0.23317714 -0.411398 0.44819215 0.38882536 -0.46051475 -0.33510125 0.50875 0.9111402 -0.095309034 -0.3708485 1.3209668 0.594513 -0.7313192 0.74714905 0.38799778 0.14078926 0.044435885 -0.048015386 0.65732145 0.117341176 0.5844655 0.050689843 0.28741542 -0.30431598 1.1457361 0.15236492 -0.5850446 0.49015653 -1.375548 -0.6309269 0.66620576 0.0039192773 0.19492753 0.094993256 0.8788106 0.5322936 0.7464055 -0.14361203 -0.28748375 0.47803223 -0.4408574 -0.38954914 -0.5439651 0.59537023 0.75042534 1.1246743 -0.21030052 -0.6296697 1.1303269 -0.77369523 -0.32141417 0.15302548 0.22294228 0.0841088 -0.3836304 -0.22123106 -1.3924928 -1.0524895 0.68552434 0.2674946 -1.6405528 -0.6754619
1952 0.88534504 0.45333266 -0.47259542 0.43809366 -0.26177293 -0.41231424 0.8849276 -0.3971226 -0.2570654 -0.5478601 -0.79290164 0.09444384 0.31730998 0.40197167 0.2225495 -0.51833224 0.15519442 -0.46329293 -0.8385884 -1.125389 0.18570818 0.29544532 0.21977897 0.63945633 0.43432495 -0.564473 1.6774448 0.06469482 -0.49253938 0.4710627 -0.5118104 -0.04102895 -0.5217666 0.75610834 -0.26656336 0.7419412 0.28942487 0.35895628 0.23863575 0.54518855 -1.0645506 0.8787525 -0.6582195 0.11921089 -0.59909934 0.6287445 0.26435983 -0.14099365 0.43473354 -0.48056036 1.106525 0.07104282 -0.34874603 -0.09624129 -0.21377575 -0.49443212 -0.60503656 -0.40724158 0.2715526 -0.26127252 0.14275236 0.2239534 -0.25690016 -0.1322302
276 0.18353043 -0.085510984 0.2975977 -0.5481575 0.07157936 -0.058413032 -0.87462807 -0.9272008 0.12590462 0.21961962 -0.2489901 0.21763578 -0.10576315 0.48592767 0.26360065 -0.041329604 0.7308483 -0.045651123 -0.24593724 -0.39355612 1.1062392 -0.5657803 0.18213476 0.721051 0.62925684 -0.32867208 0.20083162 -0.59278244 -0.95492846 0.2340604 -0.9013335 -0.034150127 0.008814935 -0.04553499 -0.4469056 -0.11207588 0.38527822 0.14295794 0.39039594 0.40774336 -0.124527976 0.5902519 -0.30241084 -0.16542566 -0.626319 0.9527727 -0.24756193 0.63946795 0.33037686 0.85680187 -0.07094669 0.5990864 0.07385703 0.49460012 0.398734 -0.6182967 -0.03416866 0.7505945 -0.14131519 -0.32441762 -0.5580866 -0.33918974 -0.15797581 -0.839993
1886 0.33039364 0.5575546 0.03631718 -0.520077 0.68254375 0.9948752 0.28336918 -0.6568096 -0.9960665 0.87212574 0.6007345 0.09029673 0.5528242 0.7875935 0.4100978 0.023959065 0.8149787 0.803276 0.18392244 -0.05647998 0.31251574 0.32200286 0.7285103 -0.13514757 0.83250654 -0.3282905 0.16431202 0.29994133 -0.31225175 0.15200989 -0.22305332 -0.9708935 -0.9046465 -0.029774051 0.07789924 1.0310699 0.037247937 0.367413 0.4230579 1.4682103 -0.52778894 0.40501565 -0.34431693 0.2113288 0.01745461 0.91784215 0.8934456 0.2327994 0.3668706 -0.2438539 0.47445735 0.5988722 0.16941556 -0.70345044 0.30836263 -0.8331702 -1.1077391 0.7292751 -0.8207201 0.76512533 -0.57214856 0.41786882 -0.7495519 -0.7000734
257 0.68788564 0.32923687 0.61122876 -0.3468803 0.46968743 -0.4578095 -0.5353575 -0.17665413 0.33553147 0.41861868 0.3293951 1.0597364 1.7369941 0.5855835 -0.06178982 0.8022402 0.40566593 -0.037953004 -1.1839445 0.33969438 -0.0406018 0.2948153 0.17207941 0.091779076 -0.18367738 -1.0433291 1.6087971 -0.41522798 -0.4808891 0.027405389 -0.09976544 -0.43449414 -0.5826006 1.1021836 -0.16291556 1.0556432 0.8663738 0.2076167 0.52983636 0.41605535 -0.019898592 0.6806142 -0.41095176 0.8302626 -0.46595606 -0.12679522 0.8673802 -0.17997696 -0.42795795 0.099488705 0.33896562 -0.14068834 -0.13029483 0.5680852 -0.15828341 -0.8922651 0.3045835 0.99815756 -0.21924812 -0.48518148 0.30833095 0.020125328 0.36442807 -0.377807
16 0.40010294 0.6910673 -0.06951035 -0.09686327 0.14831032 0.2524729 -1.34847 -0.06461469 0.48121783 0.18346989 -1.0498655 0.40720537 0.14607994 0.62369394 0.31868112 0.18252286 1.1483349 -0.76407695 -0.013355976 0.50242066 0.5838703 0.4591253 -0.22182044 0.834857 0.41580322 -0.010551384 1.1402363 -0.23776217 -0.03933475 0.1403108 -0.70773065 -0.6190403 0.011611591 -0.07384973 -0.13512018 0.18332534 -0.36952862 0.16488363 0.83579075 0.33619276 -0.5507799 -0.09147356 0.031963333 -0.027055064 -0.06816207 0.17475337 1.3080951 -0.03449699 -0.49072576 0.07045234 -0.67953926 -0.053384595 -0.32386816 -0.089607194 1.2985528 -0.16643555 -0.15156685 0.13929524 0.09128322 0.113380805 0.019563928 0.212484 -0.5839992 -0.8724256
1522 0.25966915 1.1875901 -0.1678739 -0.65323794 0.38728935 0.16250624 -0.26808792 -0.24094225 0.65005296 -0.287618 -1.6461955 0.92943704 0.7207122 0.43560857 -0.16338077 -0.24152505 0.2033505 -0.03525443 -0.2946642 -0.7911444 0.19715337 -0.07641373 -0.39909467 0.25216973 1.564572 -0.79240483 0.21129209 0.89099854 -0.070114225 -0.34574902 -0.31662592 0.0042192517 -1.4620036 0.197874 -0.12345174 -0.078880645 -0.7242645 0.6384079 0.09872011 -0.26727027 0.5556366 0.6264107 0.13745049 0.8150373 -0.14903723 0.766891 0.228333 0.6331393 0.2745023 -0.22964865 -0.054359693 -0.31756377 0.08688406 0.3406333 0.7594131 -0.028893752 -0.82060647 0.96778977 -0.6663361 -0.43549415 0.09643657 0.00917192 -0.6095874 -0.7333618
