3866 64
2731 0.22643939 -0.08112211 0.9615536 -0.7525856 0.116929576 0.6484136 0.5959468 1.1437201 0.52589697 0.3525811 0.6443366 -0.2227444 0.42039666 1.3928043 -1.441215 0.7552055 -0.31882644 0.7506885 -0.21428996 0.5572377 0.99188685 0.84983325 -0.91837716 -1.2063128 0.9106206 0.27093425 -1.4308919 -0.3710981 -0.04957574 0.026696343 0.014376632 -0.54348755 -0.6171095 -1.7515821 0.039269455 1.7637389 0.69467235 0.43044716 -0.9986592 0.42240098 1.6032946 0.7665406 -1.0536853 -0.57415575 -0.3216904 1.1899786 -0.29172578 0.9264496 1.1475025 1.5533794 -0.16752094 -0.21899131 -0.93438774 -1.1248746 0.3812662 1.0882491 -0.009368453 1.0475549 0.9600678 -0.6247035 1.1328852 -0.7438676 -0.2977288 0.7928473
2124 -0.101292565 0.3204356 -0.3965176 0.83936924 0.37978283 0.18509614 0.9524788 1.6830736 0.55748063 -0.21445233 1.5819633 -0.50113857 -1.1520681 -0.62642336 -1.3827311 -0.48886228 0.651866 0.9550048 0.76258296 -0.34854302 -0.16696878 1.1806209 -0.8661985 -0.9752258 1.2376999 0.07822243 -2.0404172 -0.56805474 -0.319253 -0.89838564 0.010621987 0.31849015 -1.2100159 -0.27732924 0.2509407 1.0976214 -0.49893486 -1.0747982 0.07535756 1.5624225 0.93621975 -0.00784112 -0.022431053 -0.600064 0.26926556 0.28246415 0.3497695 0.19649133 0.76902694 -0.84896606 0.17577292 -0.82792115 -1.1321894 -0.64329463 0.593286 0.20876943 -1.4238207 0.24451165 0.09939223 0.2806966 0.95457274 0.39413664 0.20543149 0.10675785
581 -0.09687839 -0.09605493 0.6295868 0.9212629 0.27949017 -0.27747115 0.93175995 0.27554134 -0.44842896 -0.9743212 0.95684713 -0.360614 -0.5969967 0.58530736 -1.2342438 0.66361725 1.0949532 0.0035289328 1.7405263 0.6053598 0.057004273 1.5537345 0.65572906 -1.683234 -0.22370273 -0.39835063 -1.9762138 0.12179557 0.1076854 -0.3287076 -0.30647135 -0.07150323 -0.23501502 -0.3417016 0.5728324 1.1884148 0.3658093 -0.039939117 -0.68137777 -0.3609747 0.57257485 0.7723393 0.5645288 -0.67564625 0.7648189 0.23026021 -0.3366705 0.14153183 0.8646543 0.11478693 0.5117716 -1.1598747 -0.9118939 0.46838957 0.25164193 0.812812 0.5432021 1.8836535 0.39824966 -0.015883556 0.35538223 -1.4032863 -0.9281322 -0.4748204
2855 -0.7307633 -0.86738086 0.09153171 -0.18273285 -0.26761988 0.8157796 -0.04731114 1.3339481 0.006525071 -0.5299582 -0.042723857 0.051674597 0.09693606 0.37636533 0.23440114 -0.4979048 0.26728427 0.8517882 1.3440607 0.5245733 -0.061914798 0.73569244 0.74551857 -1.5502871 -0.62871575 -0.8615548 -2.0054924 0.18451647 -0.71967196 0.6352062 0.83938104 -0.30161652 0.27571604 0.41728523 0.36202475 1.9865843 0.75449336 -0.25022385 0.72196877 1.5702727 1.096715 0.61295146 0.44717374 -0.6065392 0.26722434 0.14246975 1.0642986 1.6365213 0.12527652 1.0242643 -0.23939621 0.39022467 -0.07515957 -0.70700794 0.2343905 1.512781 -1.141077 0.813965 0.6154531 -0.1431298 -0.41908172 0.6247527 0.43998682 -1.1830202
201 -1.4198383 -0.22285569 -0.6175895 0.2475561 -0.52059555 -0.07438238 1.6739862 1.5938207 0.517566 -0.883941 0.35796815 -0.7368326 -0.30351982 1.4237772 -0.8046425 1.0896176 0.3063277 -0.17586562 0.7495803 -0.007455362 0.56106967 0.8807517 -1.6055678 -1.3403606 0.70721054 0.34639204 -1.5753347 0.5998738 -0.06561429 -0.3317131 -0.0475617 -1.2367884 0.7993255 -0.2163804 0.46140456 1.4354703 -0.782272 -0.59899634 -0.15533608 -0.25323275 0.6437644 0.8055576 0.5102396 0.2730741 0.1370261 0.7094916 1.0512217 0.81846166 1.7423621 0.4012461 0.47374043 -0.53800803 -1.3858448 -0.050565004 0.55024165 0.7484821 -0.82308185 0.38394508 -0.05972391 0.16452762 0.03000582 0.13204186 0.0261297 -0.3257231
2305 0.23415563 -1.2319441 1.0473862 -0.67364466 -0.13270465 -0.7640849 1.7082893 1.3580548 -0.36217675 -0.70151603 -0.49618268 -1.2008202 -0.640624 -0.19493109 -0.12991816 -0.37149966 0.6234996 0.2712051 0.55187374 0.7738765 0.10461826 -0.32069895 -0.09537921 -1.6156284 0.4390628 -1.2038689 -0.694669 -0.41178784 -0.7370014 -0.9396594 -0.29351407 0.13394886 -0.10713138 -0.6590607 -0.33059606 1.5606186 0.6817641 -0.050613903 0.18855101 0.7960784 1.065893 0.99922734 -0.4171786 -1.020521 0.1561889 -0.06577051 1.5506011 0.57303864 0.37935153 0.19273253 1.0085858 -0.15394758 -1.101807 -0.56658316 -0.31044066 0.7787611 -0.09635773 1.4551163 0.75782895 -0.11095514 -0.3669037 0.9976196 0.6507414 0.011082233
2340 0.469247 -1.022426 0.111268654 -0.29162493 1.3369192 -0.17439207 0.3468491 1.4787267 1.0543529 -0.9532663 0.79247904 -0.20421652 0.29999807 0.57644135 -1.3747743 0.48174724 -0.2899736 -0.865456 1.7585527 0.6176897 1.2563536 0.72326404 0.36446342 -1.2996132 0.90267044 -0.11999502 -1.50392 -0.27176857 0.5655273 0.14255798 0.31596354 -0.124614626 -0.7103468 -0.9029029 0.24570693 1.2881907 0.3468763 -1.2133248 0.03950136 -0.19978786 1.1763188 -0.25631416 -0.2326949 -1.8671368 0.9641215 -0.20376778 0.5373283 1.2922953 0.54484665 0.54778355 0.5741687 0.24133594 0.32838178 0.7832528 -0.06283124 -0.89587057 -0.8391867 -0.29596913 1.2900008 -0.58515185 0.8683492 -1.07057 -0.3670875 0.34141177
2643 -0.069507144 0.18100527 0.41732416 -1.0945415 -0.23171513 0.34746316 0.7942859 1.2873441 0.24718213 -0.992427 1.1785741 -0.18019335 0.18516815 -0.22591202 -0.82661736 0.123666644 0.24001837 0.0959382 1.0270079 1.5408703 0.12481179 -0.3606976 0.28567144 -0.5939158 0.43946669 -0.318724 -3.058588 0.29192963 -0.84724957 -0.9429235 -1.4566133 0.17396545 -0.63455135 0.05272913 0.7068896 0.9611684 -0.27648288 -1.0467542 -0.7075022 0.59621584 0.18661761 -0.881805 0.18804622 -0.29795417 0.91178143 -0.8786822 -0.3814144 0.26627395 0.7989754 0.391219 1.1511074 0.44970548 -0.42772204 -0.9271887 0.8321155 1.8562671 -0.19977519 1.0611564 0.14837502 -0.10926914 -0.11499911 0.5512337 0.19683176 -0.6540332
2039 -0.76601905 0.23187767 0.2974102 0.5867614 0.5638583 -1.2334235 0.97562987 0.3612916 1.5618258 0.15251066 1.1955254 -0.32124922 -0.51237315 -0.35390308 -0.4539256 1.0215588 0.51814985 -0.68381476 0.80150926 -0.118508354 0.22578137 0.6745152 0.31121418 -1.157591 0.01173514 0.0706193 -0.19896132 -0.124919094 -1.072274 0.0059674312 -0.1559393 -1.2692477 -0.6734163 -0.14078203 0.26671198 0.7557079 1.1983886 -1.0776954 0.15478085 1.4576211 1.7023623 -0.48425835 -0.473363 -0.20159629 0.0704321 0.47010982 0.09709983 1.1197157 1.8197092 -0.4218198 0.31680772 0.40920264 -1.5139469 0.48614702 -0.9182009 0.51522434 0.019928494 1.5891585 0.9156473 0.021994798 -0.18101126 -0.63017076 -0.3077269 -0.4956933
2100 0.8396297 -0.24476 -0.6258138 -0.948184 -0.21873413 -1.2136936 1.1945041 0.07711331 0.4448676 -0.9026701 0.73332316 -0.909834 0.056188308 -0.70801044 -0.7382185 0.44636622 1.1590887 -0.20970029 1.9701082 0.5045256 -0.20320302 -0.23060615 -1.1275183 0.4616313 0.6204121 -1.0634391 -1.2239888 0.28226137 -1.0350102 0.53334624 -1.0187529 -0.47581774 -0.067642644 -0.66057545 1.4399676 1.7522434 0.11367295 -1.9502517 -0.50925946 0.35182264 1.9349084 -0.90294796 0.36218056 0.054236718 -0.674873 0.072025664 0.82309014 0.9645471 0.34574795 0.26009655 0.32416227 0.038961824 -0.075276956 0.54416806 0.698415 0.27282378 0.22825673 0.95774555 0.007206105 -0.28627998 -0.11271421 0.4904002 0.23332156 -0.3557913
885 -0.22224844 -1.2680229 -0.54868317 -0.07189681 -1.3158278 -0.738889 -0.2326863 1.3060206 0.11834003 -0.98775387 0.49993593 -1.1381626 -0.0074021397 0.2648003 -0.33051136 0.26413587 0.19081056 0.84911007 0.392181 -1.1253489 1.0632658 0.45585614 -0.015974449 -0.76121426 0.6661095 -1.0304818 -1.7528445 0.11433757 0.16717651 0.5762951 0.519974 -0.40683183 -0.5555821 0.15402406 1.2904952 2.5375762 0.21199682 -0.9869861 -0.18995954 1.4855951 0.43469512 0.48807278 0.502801 -0.03892469 -0.3359872 -1.1338646 0.3483294 0.6705361 1.204143 0.2288473 0.33640748 0.4886204 0.430764 -0.587436 0.23495793 -0.105217814 -0.63708663 1.7211702 0.3046146 0.29438373 -0.35288903 -0.7302762 -0.49326855 -0.22546905
1695 0.7534524 -0.13905239 -0.308923 0.12156241 -0.7891095 0.10770907 1.185319 0.17700726 -0.55570686 -0.21074587 0.7311325 -1.1430999 0.13569462 -0.39449474 -0.47756562 -0.1130231 -0.9446982 1.3449293 1.3609868 0.82925 0.21656927 0.6760675 -1.0739831 -1.5560404 0.7851334 0.13909061 -1.1275294 0.3783495 -0.77273333 0.23500568 0.710767 -1.3188678 -1.0349374 -0.5512873 0.17698996 1.3939183 -0.82246923 -0.62039864 -0.17720598 0.1710867 0.8598368 -0.60451025 0.80688196 -1.024695 0.8270458 -0.29113686 0.001690871 1.8958567 0.9142893 0.49630135 -0.14290398 0.4044853 -0.4677684 -0.26176223 0.86991125 0.30370563 0.022727761 1.1685032 0.6581418 -1.0226011 0.16171773 0.08297196 -1.0277032 -0.9259124
401 0.19066952 -0.35791504 1.1051035 0.39718977 -0.5879759 -0.78817487 0.2881467 0.4487685 0.050232027 -0.8325524 0.6336074 -1.53704 -0.012205652 -0.16517338 -0.03323928 1.2394826 0.30418742 0.8060687 1.3661953 -0.6273349 1.3503472 0.18027902 -0.54191446 -0.6650829 0.87630516 0.07825477 -1.7317015 0.92812073 -0.9842664 -1.3924631 -1.1622909 -1.3393571 0.069603726 0.043417335 0.35917276 1.5610337 1.0227668 -1.2620519 0.2259498 1.6097085 1.073671 -0.5098686 -0.20798917 -0.11994809 -0.46016777 1.261616 0.6466111 -0.059549436 0.20396324 0.9295501 1.2064806 0.6236421 0.7793118 -0.42067462 0.1962881 -0.6854226 -0.23919617 1.5667343 -0.15441304 -0.5725507 0.2512116 -0.109776616 0.9370527 0.17488796
1108 -0.4296425 -0.8886096 -0.00046769812 0.30724317 -0.20401691 -0.94253784 0.6796079 -0.19231026 0.21909048 -1.7189552 -0.12098432 -0.7800287 0.30850992 0.49835658 -1.2128012 -0.271709 -0.9544585 0.28903013 0.62255585 -0.5058664 0.6884222 -0.2566265 0.2957222 -0.6155958 0.22737756 -1.3688209 -1.6492012 -0.46591473 -0.4956979 -0.5484012 -1.5232542 0.1621502 -0.6264488 -0.11722303 -0.91657186 1.7594769 0.37153426 -1.4741552 -0.7081104 1.1660076 0.31758487 0.2604484 0.096710674 -0.24225293 0.070866704 1.1130322 1.0924829 1.0868454 0.93352383 0.5364056 -0.34335473 0.24080774 -1.5395467 -1.381627 -0.83042336 0.11454696 -0.15752791 0.56790406 -0.11731825 -0.5631447 0.42708364 -0.7066494 -0.39249074 -0.559563
2540 -0.97202724 -0.05809481 0.11067032 1.0255661 -0.36069444 -1.0298356 1.0379828 0.29547694 0.98039955 -0.23177408 0.27743 -0.15477465 -0.48952177 -0.34694046 -0.31821027 -0.52794486 0.89397615 -0.4244731 1.7010046 -0.2717417 -0.1197778 1.417076 -0.36409456 -0.723779 -0.31798345 0.4140188 -1.8202477 0.4082877 -1.7940521 0.36075875 -0.994874 0.23726223 -1.2755884 -0.24759981 -0.7311512 1.1113995 0.12121765 -0.43203306 -0.30744645 1.1883616 0.94565856 0.82784563 -0.9987415 -0.4137749 0.043163378 0.7554461 1.5318534 0.8527655 0.40043 0.26172218 0.39980486 -0.9186508 -0.08658854 -0.06645585 1.3021371 -0.21503265 -0.9948304 1.5180447 -0.41966242 -0.6388021 0.7083966 0.4525401 -0.19833255 0.011072201
1174 -0.03095419 -1.574595 0.3107965 0.4401135 -0.22104287 1.0948291 0.97108287 0.946957 0.9217776 -0.8375806 -0.100465685 -0.27464354 -0.3218097 0.3030001 -1.1918383 0.3986821 0.4852365 0.5354209 1.2417163 -1.1072044 0.094733 0.34220082 -0.040681895 -0.59581226 0.6930505 -0.28160632 -1.5057639 0.40225062 -1.5518671 0.05302341 -0.5070212 -0.26716828 0.052402195 -0.21090429 0.4830401 1.9408289 1.5411687 -1.1945822 0.88007444 0.44097537 1.4188806 -0.51964307 -0.07549444 0.0983453 0.63874155 0.42863992 -0.43702543 0.06601701 1.333855 0.12134099 -0.6489798 0.4025929 -0.3278423 -0.6615466 -0.077981696 0.568105 -0.9751007 -0.04573563 1.0666273 -0.2861894 -0.9228813 -0.8086319 0.11932269 0.051312864
1110 -0.10680889 -0.27393958 -0.010133164 -0.63698286 -0.55403125 -0.8773547 -0.32707474 0.052743055 0.28887752 0.0563303 1.3636098 -0.60447645 0.2950785 0.20929708 -1.3947037 0.44174638 0.543521 1.3179623 0.11143289 0.8134601 -0.53563666 0.7073792 -0.7838815 -1.0605003 0.5339758 0.193588 -1.522365 -0.6912486 -1.0039451 0.15106942 0.2305836 0.5558735 0.24333262 -1.6469072 0.8574329 0.9286745 0.5651116 -1.4151229 -0.7882612 1.1635697 0.98905003 -0.27187055 -0.0350411 0.046569314 -0.39216512 -0.42717412 0.96630245 1.4238694 0.31473884 1.0380689 -0.4653827 -1.0315663 -0.6765439 0.16221002 -0.05398306 0.32017514 0.49068496 0.42646375 -0.08060795 -0.46917284 -0.1364358 -0.28637785 -0.27580854 -0.3205571
455 -0.3990862 0.6168227 1.2961681 -0.8543334 0.80588865 -1.1505334 1.2959491 -0.08788609 -0.117502555 -0.40276024 0.0868728 -1.3993992 0.8634076 -0.80456805 -1.0285834 -0.3726019 -0.20386548 -0.5702134 1.2795085 0.8030264 0.5765522 0.8980338 -0.12689617 -1.3299149 -0.5889208 -0.0801385 -0.90113956 -0.8142988 -1.2765739 0.19253547 -0.9357137 -1.4842671 -0.52139515 -1.0820632 0.23470965 0.38188106 1.0384868 -0.11172084 -1.3531818 0.4614268 0.8169128 0.57160413 -1.2329048 0.4583789 -0.4057785 -0.59132373 0.8928407 1.3120466 -0.15707588 1.7407587 0.41611204 -0.96628803 -0.24518017 -0.16326846 0.19379248 0.98783845 -0.69320995 0.4246572 0.32940817 -0.51786226 -0.2335503 -0.5445615 0.174013 0.2874332
661 0.121580765 -0.56713504 0.6634927 -0.4238233 0.07207549 -1.0151063 1.4180442 1.3537595 0.66037416 -0.99000704 -0.37951297 -0.4415005 -0.29572743 0.07744709 -0.5381789 0.6652865 -0.042101983 0.5812966 0.8988575 0.10890309 -0.45507762 -0.16454747 -0.5810239 -0.43232107 0.8828008 0.4147421 -0.87107843 -0.1628621 -1.1215991 -0.67960596 0.043401357 0.2125968 -1.11233 -0.92294824 0.64842576 0.66655385 -0.7645236 -1.6167052 -0.14536469 1.4207938 2.0072777 -0.31640983 -0.23363252 -1.5591933 -0.3986625 0.8159841 -0.47158408 1.3039898 1.1265117 0.67693496 0.01208528 -0.5530557 0.29745364 -1.2676084 -0.06544021 -0.61522603 0.18826464 0.67182577 0.89893717 -0.25691107 1.2124794 0.026638223 -0.613257 -0.74732697
332 -0.9338986 -0.31445205 0.20237812 -0.30384794 0.28901136 -0.25735062 0.31924304 0.38001782 0.06829613 -0.37588066 0.3030838 -0.6795229 -0.120990805 0.11891029 -2.1239026 0.37855253 0.71575594 0.2569198 0.5388673 1.9110608 0.03752807 0.6171885 0.19675355 -0.08311566 -0.05510421 -0.649895 -2.158363 -0.11568347 -0.88161063 -1.2668673 -1.481577 -0.15432297 -0.45558503 -1.7958099 0.51039636 0.09383664 0.19814123 -1.0728219 -0.014953982 0.8856275 0.838758 1.1474932 -1.1182126 -0.6967079 0.107171506 0.31988385 -0.21329375 -0.073142715 0.14981855 0.4702956 0.9045921 0.051675126 -0.13970949 -1.0651578 -0.6230633 0.08492735 -1.2523932 0.26806614 0.7636716 -0.87928563 0.17333941 -0.43399107 -0.21633688 -1.1481448
1361 0.5997221 -0.20070715 -0.7463387 0.32891506 1.0094671 -1.040134 0.938303 0.8136679 -0.36380565 -0.765957 1.5066963 -0.77325606 -0.26146153 -0.30469978 -0.026695322 -0.20877184 -0.72091997 0.08669098 1.4132055 0.30653113 0.51217973 0.994312 -0.23925442 -1.3544505 0.082133085 -0.8069764 -1.8542215 0.058783095 0.46456614 -0.71659493 -0.365261 -0.29343614 -0.6370758 -0.35192063 -0.5997388 1.5361208 0.1596818 -0.109186895 0.8869003 0.99473375 1.3598832 -1.2791072 0.21058255 0.06233987 1.198907 -0.49806347 0.42255044 1.443397 -0.70262814 0.6916191 0.71170807 -0.65665317 -0.4027826 -0.10431339 0.98035926 0.42400748 -1.4104809 0.810099 0.93297017 0.38738936 0.035359547 0.7745009 -0.5339296 -0.059311863
2406 -0.17107464 0.05698403 0.70982546 -0.891843 0.15263271 0.0057502016 1.5427241 -0.3173075 -0.16440247 -1.198814 0.33464617 -1.0353178 -0.15508956 -0.15858701 -0.9553816 0.8027775 0.38623384 0.45074132 0.9424817 1.0130738 0.60136867 0.5493978 -0.26772818 -0.6793149 0.93743294 0.822256 -0.5517573 -0.42091313 -0.6529635 0.099552125 -0.08335006 -2.015828 0.28484362 -1.5041529 0.54709625 0.93857104 -0.7279826 -0.44440365 0.09324456 0.59294015 0.5799909 0.70632493 -0.0068274867 -0.6390972 -0.5736036 -0.83576226 0.8114499 1.2659893 1.1424583 0.2555515 -0.3979966 -0.77240497 -1.251405 -1.0403478 0.3036838 0.911976 0.32731727 -0.09665624 -0.33874273 -0.12040916 -0.35760227 -1.3742284 0.51148784 0.5835341
275 -0.3196288 -0.03543521 -0.44973588 -0.65864366 -0.5271138 -0.01748302 0.15325859 0.19691882 0.15720244 -1.4380856 1.3113154 -1.4865034 0.34335563 -0.020958874 -0.27404037 0.3903336 0.12060843 0.3178118 0.42177984 -0.3794634 0.46828532 -0.19751269 -0.31546703 -0.25889477 -0.4872821 -1.1308959 -1.9350165 -0.5487241 -1.318226 -1.1652715 -0.032368243 -0.7429718 -1.2948794 -1.1624488 -0.019101437 0.77559894 0.6967001 -0.0056795566 0.6307531 -0.1481285 0.6073819 0.78971213 0.34348577 0.15842931 0.029278511 0.101761796 -0.34221828 1.1627961 1.5018291 1.8611633 -0.17070842 -0.4269226 -0.05900532 -0.64915407 -0.3436653 -0.64074534 -0.33918765 1.1056234 0.5285468 -0.79706657 0.47607726 -0.77190596 -0.42623743 0.115478575
198 0.03489508 0.038546875 -0.92147267 -0.6367919 0.82697254 -1.1850773 0.551034 0.98204905 0.79033625 -1.451686 1.3856888 -0.80857736 -0.28754568 -0.63274544 -0.1487351 0.8604804 0.43490288 0.30059642 1.2996892 -0.2895811 -0.10604769 0.06911174 -0.23493755 -0.70888436 1.4492147 -0.5254221 -0.20175774 -0.029600143 0.65137684 -0.12329269 0.5662461 -0.597659 0.079635315 -0.20666935 0.16559015 1.3054365 1.9141599 -0.32412484 -0.34196383 1.2191496 0.3966373 -0.32457832 -0.60915107 -0.60292625 -1.0003555 0.19635104 1.1314723 1.138479 1.435428 0.67414016 0.36385873 -1.1193146 -0.17981371 -0.40749273 0.68524027 0.8347245 -0.8740103 0.4367908 0.2054255 -0.98229367 -0.81583774 -0.6606506 -0.011041166 -0.5267548
1697 0.4152053 -1.0700567 -0.114276715 0.35981283 -1.3150431 -0.5048515 0.087546855 0.49758318 0.858312 -0.18293783 -0.40392318 -0.16011728 0.44057983 -1.0322483 -1.7807243 0.078676865 0.18623523 -0.064770155 1.1935103 0.4350353 0.84204596 0.39316905 0.4655246 -0.8151018 -0.33773085 0.35109064 -0.94875425 0.5381229 0.03741364 -0.51052076 -0.72592384 -0.8437131 0.41880473 -1.0358545 0.72835517 0.6433802 0.7211953 -0.8144952 0.79317266 0.28162473 1.5171655 -1.0364617 0.38844696 -0.5088004 -0.07616367 -0.03431706 0.775168 0.35418344 1.780511 1.1126051 0.5970933 -1.013043 -0.98081857 0.082950264 -0.43108624 0.12564476 0.053117763 0.9046558 0.59952027 -0.75586694 -0.33495986 0.4965729 -0.37159643 -0.59181416
2550 0.2591489 -0.6493862 1.0093061 -0.2843939 0.2867872 -0.7087848 1.084805 0.43897367 0.99516606 -1.060644 0.2643958 -0.3366401 0.93143135 0.7013289 -0.3286159 0.18917109 -0.39338318 -0.29295272 1.761408 -1.0509082 0.6386869 1.1157898 0.09782766 -0.583888 0.5160764 -1.1988636 -1.5357454 0.4044538 0.015614542 1.0026058 -0.024497656 -0.0032443136 -0.47683778 -0.9892771 -0.7416274 0.8219517 0.8039959 -0.35831642 -0.2816593 0.96658534 1.5189751 0.6484047 -0.5844631 -0.48570943 0.80216616 -0.7982743 0.74271935 -0.09951053 1.423666 0.24774063 -0.8299334 0.058173478 -0.6720013 0.31081668 1.6194401 0.2657133 -0.1518908 0.83015037 0.98939866 -0.12008728 -0.2642432 -0.27505136 0.10405959 -0.7522072
1184 -0.08355849 -0.11744851 0.37223172 -0.5529172 -0.98796386 0.7185833 0.580766 1.1239935 1.0085468 -0.88930583 0.6729111 -0.5275238 1.0071514 -0.18750605 -1.2400367 0.3945035 -1.2631129 -0.2538983 0.8207361 -0.39169025 1.1750735 0.8804828 1.1830485 -0.61763954 0.1677524 -0.6421571 -1.6274964 -0.5721775 -0.7427106 0.44009522 -0.6867639 -1.0417733 -0.7405474 -0.93496436 -0.032414217 1.1031203 -0.36780584 -0.7247552 -0.64857656 0.9251701 1.123494 0.36551985 0.565103 -0.22824234 -0.3362682 -0.62245303 0.8346128 0.8362338 -0.041516203 0.28289053 1.0661347 -1.2143826 -1.2707143 0.3156155 0.18396357 -0.40953788 0.37934807 -0.004544959 -0.7808092 -0.8881155 0.7108276 0.074514665 -0.40898082 0.53991735
1085 0.48465088 0.7004452 0.93248713 -0.42687806 -0.38842517 -0.3515811 0.8064018 -0.2535081 0.87243026 -0.018018097 1.0085273 -1.0456947 0.24774867 -0.080814816 -0.7447572 -0.20775798 0.35569352 -0.15597363 1.1760459 0.45797518 0.9584586 0.32065213 0.04543477 -1.2648255 -0.03098435 -1.1214994 -1.7544988 -0.34940496 -0.85642856 1.151072 -1.2244247 -0.32374093 -0.9276373 -0.48597652 -0.45579785 1.4965563 -0.8786632 -0.05753758 -0.7617177 0.66546863 1.1634307 -1.0013249 -0.41854075 -0.026719458 0.4160032 0.80064255 0.97817904 1.6948233 1.7053745 -0.114780165 -0.052052323 -0.4035535 -0.3354404 -0.29361033 0.4642807 0.6713625 -0.32835278 -0.5769802 0.2350738 0.6642753 -1.0019076 -1.1831964 0.13819839 -0.4295512
2414 0.30337444 -0.43042973 0.821774 -0.4580328 -0.58129716 -0.22222264 1.1114157 0.4432795 1.2181108 -1.1153252 -0.6357343 -1.7738376 -0.62090945 -0.2743763 -1.1243687 0.62896734 0.4345529 1.6516153 0.9394571 0.64982677 0.8203996 -0.43822885 -0.7530818 -1.0336933 -0.14192066 0.23324163 -1.9016658 -0.011391644 -0.31628594 0.35712275 -0.4666761 0.22854537 -0.16494931 -1.2961366 0.24550901 0.4739871 -0.20986779 -0.9982798 -0.21442573 -0.016695399 0.12570818 0.49229702 1.0025626 -1.4534965 -0.76150626 0.45966983 0.24501772 0.3988648 1.127074 0.6834871 0.62597185 -0.49525046 -0.41641212 -0.7460025 -0.42719468 1.3628916 0.35390797 0.75252306 0.4416427 -0.16612086 0.15800533 0.48046464 -0.29617596 0.52260953
787 0.5672913 -0.5915333 0.46540147 0.51477396 -0.5532668 0.81795555 -0.24218512 0.21274479 0.12909897 -0.34538746 0.8588958 -1.6659548 0.029711047 0.40046683 -0.95128536 -0.47731695 0.31700984 0.23547454 1.7905151 -0.5373755 -0.07098501 -0.102970794 0.87535256 -1.80649 0.002150363 -0.32823315 -1.8039564 0.37905857 -1.45328 -1.5997512 -0.5570973 -0.11850613 -0.77525806 0.061346494 -0.31913474 0.14815927 0.105815694 0.105231404 -0.19093896 1.2112111 1.4821928 -0.4060878 -0.91806036 -0.42887166 -0.26785696 -0.38654602 0.82455546 0.62948066 0.7747308 0.99345136 0.78937095 0.64188415 -0.4583836 -0.41437533 -0.2339255 0.5781566 0.04446645 -0.37098366 0.8508872 -1.107566 -0.28905666 0.332909 0.010431465 -1.0867457
1871 -0.57520413 -0.033205587 -0.16920906 -0.17209002 -0.20550126 0.42279476 1.0361636 -0.14728786 -0.0030780847 -1.1916138 1.3582559 -1.0989273 0.22279337 -0.026793018 -1.3650173 0.3778236 -0.4219374 0.22589165 1.5384704 0.4746911 0.7483112 1.2488788 -0.2240214 -1.5069193 -0.6492666 -0.9891255 -1.348637 0.71187884 -0.5556383 -0.04729821 -0.15314668 -0.2942774 0.11724774 0.13756709 1.568089 1.9274197 0.8476692 -0.7429942 0.310548 -0.11525875 -0.21286094 -0.53181636 0.045254987 -0.25674587 0.27180564 0.053740654 0.6715253 0.9429843 0.5527779 0.13949108 -0.707548 -0.578141 1.0437225 -0.50883913 0.6743061 -0.6014025 0.057734545 0.31635973 0.042619135 -0.5802933 -0.097609445 -0.1689128 0.39085212 -0.35312432
984 0.50894773 -0.89119613 -0.5062207 -0.18991095 -0.50876087 -0.2655982 1.3528365 0.46344924 0.43446663 -0.38954598 1.0530187 -0.32858792 -0.27272964 0.42344782 -1.8205726 1.0899202 0.41766182 -0.03357391 0.6820977 -1.0348889 1.262775 0.41546243 0.31372654 -1.1661886 1.0645134 0.5099469 -1.6771233 0.5715232 -1.1517975 -0.257249 -0.7696369 -1.164866 -0.45058215 -1.0606179 0.2630117 0.7855827 -0.13494511 0.120586 0.7163461 0.50898606 0.5119602 -0.19063096 -0.5014623 -0.45605347 -0.027362404 0.51499224 0.55688375 -0.070229255 -0.18316521 0.41484576 0.67292064 -0.71605605 -1.2994725 0.24387275 -0.5914219 0.080695935 -0.6483342 0.62540215 -0.11151789 0.26952544 0.078534976 -0.21724963 -1.1209508 -0.60751927
615 -1.1527283 -0.52866673 0.6808001 0.51842016 0.08750105 0.46720877 0.8242058 0.6982882 0.026022997 -1.3628643 -0.5359905 -1.2878337 -0.6845776 0.6935467 -1.1456393 0.4525653 -0.16101864 0.7674145 0.32488823 -0.7878241 0.27019805 1.1387327 0.44132143 -0.9405771 0.25108585 0.060953848 -2.5397925 -0.4374974 -0.7603569 -0.31947598 0.004079223 0.70967907 0.048721258 -0.65358675 0.0112818135 0.6157723 0.18107577 -0.9233291 -0.3257681 0.7677272 0.9875027 -0.098982684 0.1016253 0.0814206 0.046281252 0.88639283 1.4671489 0.19087341 0.54610807 1.3959968 0.48227787 -1.6588774 -0.9852267 -0.52316844 -0.37637824 0.85392046 0.3393411 0.25423327 -0.43574697 -0.76870936 0.8938511 0.30372033 1.1573261 0.55068755
513 0.17336653 -0.34925556 -0.14019625 -0.09202933 -0.8959461 -0.008862649 1.640574 0.8115897 1.2003832 -0.61299425 -0.28774697 -1.3830801 -0.043884594 0.059397057 -0.40837333 -0.047946878 0.72116834 0.34024993 0.68343455 0.32541087 -0.22524427 1.3111382 0.47051504 0.56674635 0.9045873 0.5106341 -1.6531479 -0.3047255 -0.070711374 -0.63191473 0.32852626 -0.6665388 -0.41527653 -1.1340039 0.84245545 1.3024638 -0.052834112 -0.34391496 0.24422213 1.1517416 0.62966466 -0.313895 -0.32352817 -0.58521074 0.9573124 -0.2124976 0.5308916 0.2769412 0.5932785 -0.45965707 0.5363899 0.8146446 -1.3166745 0.5795805 -0.45127317 1.1298133 0.2731453 1.4455444 0.4393903 -0.49317443 0.71669936 -0.7113428 -0.7807587 0.40748882
651 -0.85521996 0.0755993 0.58513016 0.49129826 -0.03575204 0.72474205 0.33195442 0.38214555 0.72516745 -0.6623748 0.6951792 -0.24776046 0.21495931 -0.19348297 -0.2201162 -0.6204166 0.5034433 -1.0329696 0.3544189 1.2953311 0.29170316 0.38120404 0.6188749 -0.97106284 0.053131975 0.11036382 -2.1973436 -0.4815176 -1.1471094 -0.056169525 -0.7569167 0.4938301 -0.058496118 -0.72230685 0.99358654 1.4842249 1.6373531 -1.0214816 0.94809043 1.9305655 0.01197076 -0.01080061 -0.9895763 0.5692045 -0.6670734 -0.2113059 0.369731 0.17900342 0.24809793 0.72952616 0.6703323 -0.99376035 -0.20352383 -0.0803525 0.52938724 0.5794507 -0.80271035 0.5543757 1.1543306 -1.031139 -0.06460042 0.3711383 0.16472685 0.11130183
1212 0.32929167 -0.44682875 -0.5778681 0.41457 0.9449967 0.3753966 0.05180102 1.3290015 0.25707716 0.447211 0.23940913 -1.301263 -0.4063989 -0.6230337 -1.1016349 -0.28185922 -0.1631876 -0.40185112 1.7571111 -0.17463389 0.8472704 0.27580577 0.5122534 0.19957033 0.13204671 -0.908799 -1.972546 -0.16632251 -0.9565024 -0.7141699 0.23117593 -0.653821 -1.1995162 -0.32921803 -0.64585924 1.6068172 1.3895223 0.17409539 -0.56697774 1.1266227 1.0805478 0.068293154 -1.1611401 0.05531072 -0.28776032 -0.8209069 -0.54194367 1.5573037 0.9757897 0.19283733 -0.094259046 -0.42460534 -0.19407436 0.12328242 -0.64327353 -0.10617273 -1.1229475 0.3756456 0.3253929 -1.0506082 -0.032011364 -1.0290111 -0.98928195 -0.84663707
2545 -0.6276857 0.019249914 0.16354533 -0.7289256 -0.28394625 0.36309305 0.6755437 1.1496902 0.44431767 0.017433511 -0.2428371 -0.5828734 0.9402656 0.25376627 -1.7352872 0.06558868 0.48149177 -0.18049936 0.9806162 0.6896393 -0.0050068432 0.8992412 -0.25445724 -0.58669764 1.071349 -0.35672605 -1.452404 -0.17531227 -0.64108366 -0.005257291 -0.56575966 -0.6259593 0.09679415 -0.39794186 0.5000777 0.88858795 -0.0045975694 -0.092992075 -0.0029318298 0.052420698 1.7938225 0.95619226 -0.7243888 -0.13735706 -0.5162676 -0.5956875 1.6744609 -0.7238077 0.39550272 -0.06763573 0.8237591 -1.3144869 -0.46694928 -1.6678406 0.039316274 1.8561544 -1.2274239 0.84842515 0.38372225 -0.25777003 1.38835 -0.24921365 0.57879704 0.084552296
744 0.019718785 -0.13762824 -0.85552454 0.14928657 -0.08046622 -0.10983988 -0.3574248 0.23661602 0.5546678 0.7724984 0.45110068 -0.92577267 -0.45645803 0.40291628 -1.6646547 0.6302918 -0.50968987 -0.641477 0.98213845 1.4821668 0.3242733 0.8042557 -0.47144997 -1.3068365 1.0412557 -0.28046227 -0.80655575 -0.048770856 -0.45497766 -0.24735403 -0.62813526 -0.2660275 0.22610131 -1.1775492 0.3571954 0.3517004 1.3445476 0.010605975 -0.34227318 1.4811788 1.5139459 0.179784 0.1888338 -0.2841813 -0.0748106 0.25231382 0.78836364 0.020417383 0.7195473 0.6606211 0.48472115 -0.9195741 0.4904888 -0.12917629 0.29826126 0.28124705 -0.206391 1.764607 1.3671048 -1.9314758 0.9837878 -0.026773779 0.15791987 -0.5199431
740 -0.7014613 -0.36343405 0.3170207 0.053603992 -0.4659211 0.35454473 1.284001 -0.69900376 0.21980996 -0.5044985 1.7582552 -1.5258651 -0.095825866 0.5172577 0.12139418 0.88742673 0.7247358 0.86016744 0.44471693 -0.67921364 -0.18589972 1.4542029 -0.37151548 -0.007534554 0.36685315 -0.25569448 -1.7290734 -0.29650277 0.3610316 -0.07945746 -0.019575356 0.15262397 -0.58853793 -0.48085552 -0.051354434 1.6165811 0.85160565 -1.3545835 -0.15247098 1.48597 1.0720294 -0.4661223 -0.58603084 0.23679619 -0.17528032 -0.76475066 1.1761886 0.5601572 0.56375736 1.06895 0.12193871 0.3198743 0.6751411 -0.12277206 0.38575903 0.42141572 -0.12256768 0.7249556 0.42439863 0.051547244 0.5125775 0.3691434 1.0626042 0.055474386
406 -0.38712186 -0.058768857 -0.772683 0.35891393 -0.7367525 -1.0281806 0.8127061 0.5989341 -0.22261594 -0.7958522 0.602777 -0.6252586 -0.14151318 1.1684542 -0.3276966 -0.50466645 -0.54463685 1.0623709 1.4631139 0.26376393 0.108143285 1.0684187 0.106193505 -0.23313653 0.44779015 0.43420866 -1.7911326 0.506256 -0.16018835 -0.39553705 -0.08590895 -0.65061086 -1.1779678 -0.048400298 0.7072034 0.98473406 0.5681218 -0.3614302 1.2463759 1.3389065 0.1541356 -0.72101086 -0.7015994 0.16740796 0.79091024 0.67015976 0.645064 0.84950906 -0.0058931247 0.42107654 0.21831603 -0.32273954 -0.6670181 -0.08717287 0.2482935 0.5073544 -1.3172052 0.70309097 1.175703 -1.6758146 -0.62122786 -0.21359126 0.7100538 0.6845322
135 0.29318327 -0.75420237 -0.12435258 -0.7084918 0.30694127 -0.41364902 0.78644687 -0.8181406 -0.30401072 -1.0682442 0.8296484 -0.16845253 -0.14521222 0.17716965 -0.5108312 -0.032111894 1.1733416 0.4785672 1.3988078 0.43727344 1.1860598 0.9279844 -0.20764178 0.21852845 0.2676676 0.22689004 -0.61456585 -0.808884 -0.39259437 0.2222015 -0.47075868 0.25848988 0.42184725 -0.85821825 -0.27712333 1.0138584 -0.08871291 -1.2890533 -0.6064643 1.2428651 0.91039467 -0.14422652 0.08266153 -0.80649287 0.01898258 -0.15948021 0.74885124 1.4404833 0.69156903 1.1638318 0.42105716 -0.11771968 -0.52313 -1.1831679 0.57813054 0.91548264 -1.429028 -0.051143102 0.6046588 -0.72133714 0.59622705 0.6903802 0.1227092 0.22940359
2783 -0.4605262 -0.40832144 -0.46148837 -0.23411492 0.5509739 -0.33167312 0.77318704 -0.5259222 0.3158287 -0.9364032 0.13549548 -1.4799348 0.9625942 -0.11263302 -1.7776926 0.81988084 -0.8781123 -0.21700367 0.8550992 0.3289115 -0.002461047 -0.07024931 0.07079319 -0.8258818 0.058680978 0.26303646 -1.4318994 0.13894539 -0.99818426 -0.6434402 0.027813502 0.28961557 -0.5753504 -0.44114405 -0.11037842 1.356063 0.8913532 -1.0957141 -0.08270016 -0.2000708 0.39296627 -0.9571891 -0.48523286 -0.028117796 0.2915217 -0.42669237 1.161302 0.86655337 0.3301746 -0.9374276 0.5712034 0.4456877 -0.08091488 0.09999996 -0.84352714 0.51110035 -1.186707 1.6922001 1.2037396 -0.6715499 0.44889852 -0.05185708 -0.5050249 0.02525566
779 -0.054156 0.5267898 0.18196432 0.46525392 -0.85423964 0.1653942 0.88643086 1.4860685 0.3759308 -0.14320901 -0.15884398 -1.5850781 0.3218953 0.5274227 -1.6057413 0.62814444 -0.4307105 0.7936625 1.3236233 0.76621217 -0.8001345 0.8213284 -0.7613979 -0.8765027 -0.208672 -0.6081177 -1.7697695 0.3318896 -0.8511922 -0.23895462 -0.15060675 -0.8536548 -1.0489689 -0.2590688 0.19994384 0.20150907 0.5502976 -0.18740867 -0.3761391 0.49859497 0.51335806 0.5453011 0.77729744 -0.041889902 0.62739044 0.26907006 1.215286 0.21733332 1.2950295 0.35051143 -0.60877806 0.319089 -1.2506815 -0.6257705 -0.19828956 0.400705 -0.6500234 -0.67945665 1.296915 -0.4386204 -0.25216752 -0.9041278 0.34726292 -0.18108542
927 0.24240756 -0.00047952458 1.7462571 -0.19776592 0.09911396 -0.0574539 0.051243447 0.78874564 0.33576465 -0.80148226 0.9801005 -1.6849464 -0.38524202 -0.61390185 0.18663551 -0.043453693 0.10959081 -0.08901898 -0.78231734 -0.27354294 0.95625186 0.8372666 0.48681244 -1.5002846 -0.083393514 -0.24240091 -1.0920852 0.39526203 -1.0397077 -0.19330902 0.3888035 -1.2868611 0.22362848 -0.91524994 -0.0011420844 1.619292 -0.3352006 -0.08735497 0.3921763 0.15844461 1.1295309 -0.5053659 -0.77204347 -1.234727 -0.80136544 -0.4221421 1.4388247 1.621736 0.1478308 0.39327657 0.086998135 -0.10707206 -0.8308321 -0.18306474 0.5889761 0.70451206 0.550334 1.0512708 0.9427507 -0.13407367 0.20606919 -0.21457647 -0.038582336 -0.13383716
1482 -0.4422957 -0.17172116 0.37283325 0.5563211 0.4021938 -0.5156064 1.0621758 1.0224581 1.2094103 -1.249601 -0.03469935 -0.2937744 -0.026601441 0.8471976 -1.1355256 -0.8929287 0.91896975 0.40364632 1.8304459 -0.49637333 -0.9648096 0.7054148 -0.30835187 -1.6960956 0.5423427 0.15102933 -0.7962355 0.6386372 -0.069376595 0.43838722 -0.24991494 -0.5890391 -0.079383254 -0.063330814 1.1876447 1.1345772 -0.34012115 -0.79712456 -0.22173256 1.1077964 1.1545874 -0.081452385 -0.16886376 -0.9176413 0.41913146 -0.69052345 0.8945236 0.06344375 0.28978166 0.38343525 -0.20486388 -0.018194553 0.21295474 0.2694453 -0.48103583 0.676942 -0.87043923 0.7034488 0.77864057 -0.47956002 -1.2187854 0.5855173 -1.1196328 -0.45860645
2338 0.18149859 0.5890634 -0.21500064 -0.13159716 -0.7698742 -0.54711837 0.90086687 -0.907511 0.43015018 -0.96994424 1.0429841 -2.1022248 -0.7256324 -1.1766534 -0.04044613 -0.28369042 0.15638371 0.13504136 1.0247736 -0.27313164 0.73950374 0.6008311 -0.41093102 -1.020594 0.7290266 -0.052722804 -1.3106978 -0.026327522 -0.60081166 -0.5641573 -0.5009094 -0.41288334 0.77796113 -0.32761556 0.036823068 0.66116565 -0.7929856 -0.9610447 -0.050885163 1.6511174 1.5183854 -0.3066615 0.7463488 -0.21973695 0.023674197 -0.44238895 0.260161 1.1089565 0.100191526 0.8176819 0.62382174 -0.99540186 -0.3226112 0.053087823 1.1932776 0.10527942 -0.46785188 1.6882675 -0.48842493 -0.5499155 0.4876629 0.77032596 0.6057645 -1.2826129
1623 -0.5201479 -0.9818286 0.67957085 -0.06484482 -0.5866341 -0.045626238 0.4505257 1.3897929 0.9889256 -0.1978592 -0.081257485 -0.9515429 0.677177 -0.67516184 -1.0791476 -0.5066013 1.5308973 1.0601697 1.2136339 0.18865956 1.3157283 0.9129498 -0.06965974 -0.44795308 -0.8624766 -1.174701 -1.17655 -0.35714996 -0.83548766 -0.88416564 -0.80781245 -0.766473 0.37750253 0.022618262 0.5783898 0.20158382 -0.06944741 -1.0026466 -0.10889455 1.2491268 0.08504442 0.37087086 0.8198625 -1.3502455 -0.39452827 -0.29597247 0.44005555 1.1054564 0.89549357 0.46380085 0.40280542 0.22251229 -0.038556635 -0.096929364 0.5644205 -0.39801717 -0.43825635 0.97326213 0.7899259 -0.66806734 -0.6431255 0.04153166 0.37051347 0.7346405
649 -0.3726692 -0.18783514 -0.46259776 -0.4990775 -0.46930328 0.66668755 1.5854981 0.11008725 0.36338374 -0.27070248 0.26683077 -1.4032706 0.25489736 -1.2514465 0.3227823 -0.09234477 0.60886383 -0.23359884 1.2977337 1.0289098 0.3385176 0.76102036 0.3665061 -0.6808166 -0.55884385 -0.24742228 -1.1641412 -0.20742844 -0.7383207 -0.9558669 -0.12717474 -0.79754084 -0.16875686 -0.79425323 0.54497826 0.99028605 0.5440136 -0.54585695 -0.8863045 0.975024 0.19096908 0.33214268 -0.51758134 -0.37648907 0.29073635 -1.3458989 -0.0071481895 1.1340424 0.63126516 0.63500714 0.81233984 -0.4850106 -0.9265629 0.7097161 0.80250144 0.91862494 -1.9270749 0.43949345 -0.6048236 -1.1989688 0.93252707 0.17879769 1.048554 0.3848274
2778 0.19450107 0.33680156 0.66362625 -1.1101948 -0.73963165 -0.18259405 0.8100629 -0.09262107 -0.03388806 -0.46533963 1.1735307 -0.59159166 0.4948456 -0.16443402 -0.32759246 -0.08289908 -1.3586853 0.65319306 0.8444549 0.70858806 1.2354552 0.7388077 0.01356579 -0.29969713 -0.05055355 0.7039689 -1.2730328 -0.101472996 -1.5527173 0.099781625 -0.53675693 -1.5759771 -0.025634652 -0.058571916 -0.46924186 0.5579205 0.3317121 -0.20008431 -1.408935 1.2173642 1.4566202 -0.1019878 -0.57329696 0.037081063 0.10487804 0.028616067 0.5161219 0.93666404 1.447593 0.1566028 1.3684821 0.2982261 0.2275453 0.6985787 0.62167984 0.56471854 -0.76998603 1.3734345 0.5845463 -1.9491721 0.56426024 -0.1873579 0.8524938 -0.4899485
1596 0.19203007 -0.073247254 -0.46213263 -0.13923593 0.16295563 -0.6143368 2.0558648 -0.07780213 -0.4243336 -0.9285526 0.8874263 -1.309445 -0.33104235 0.2675927 -0.9190916 0.13632213 -0.3630932 0.32094282 0.10913748 1.4675958 0.30783105 0.5867151 -0.5119178 -0.6075298 0.7403242 -0.771582 -0.14092037 0.09182738 -0.72649175 -0.30572963 0.5798561 -0.79905677 -0.53250206 -0.32721642 0.9100169 0.51107794 0.9215524 -0.40940228 0.59209186 0.4579894 1.4465754 0.8899145 -0.4104418 -0.8158724 1.3008647 0.24394278 1.2058935 0.4830469 1.4414641 1.1407474 0.8234012 -0.18579945 0.08379814 0.3002435 0.44681594 0.13369541 -0.36026385 0.6706818 0.6665232 -0.13840817 1.0062711 -0.75043607 -0.608073 -0.15049236
853 0.11189886 -0.529042 0.7386288 -0.9624988 -0.14704888 -0.3096069 1.1700615 0.37775493 0.86285985 -0.027684188 0.46828744 -0.5053242 -0.5667283 -0.7122341 -1.2838855 1.5933845 1.2335769 0.7829924 1.0670159 0.29332864 0.48349133 0.27976772 0.003080731 0.070941225 0.41725248 -0.60903347 -1.5294864 -0.5924693 -0.4923843 -1.1962124 -0.32920662 0.7422937 0.5213656 -1.0701398 1.1985995 1.2457283 -0.06378628 -1.1301888 0.04225722 1.4227967 1.2487515 0.32358405 -0.8081856 0.08859775 -0.34778437 -0.1582615 0.44736972 -0.32942167 0.8913469 -0.2979052 -0.4618646 0.19218613 -0.50800085 -0.7187181 0.44233704 -0.15275034 -0.28832665 1.3106092 -0.3740688 -0.05608297 -0.48689786 -0.9313016 0.07135667 -0.44244725
1855 -0.82832325 1.3605713 0.3069277 -0.30583334 0.1573395 -0.8753895 -0.68148816 0.6576437 0.9050382 -0.93564254 1.008209 -0.2714905 0.22542489 0.18406822 -0.42999804 -0.025247913 0.33205748 0.14582664 0.92938846 0.01270324 0.0037384562 1.0850168 -0.139855 -1.0467515 0.6580246 0.049907777 -1.2981392 0.5472647 -0.9069122 -0.3786508 -0.748636 -1.1713445 0.5263252 -0.49414337 -1.0190283 0.31433126 1.106171 -0.5434877 -0.8586174 0.63555837 0.65865344 -0.4693907 -0.5420693 -0.3986448 -0.29471952 -0.076810166 0.35476696 1.4438483 1.1956384 0.69930583 -0.47985852 0.27008602 -0.45375022 -0.9601276 0.45301777 -0.24143268 -1.0100417 0.85937154 0.18055508 -1.0057416 -0.24671206 0.5925046 -0.109751545 0.036504433
249 -0.19120108 -0.79825234 0.64505506 -0.51388556 0.61729056 -0.471264 0.8691434 0.4819108 1.0082022 -0.78082615 -0.25041965 -0.6128361 1.0141581 0.023298018 -0.37046328 0.7332612 0.6810801 0.7101741 1.0000659 1.4305395 0.47229278 0.38259038 0.55447793 0.05270757 0.184306 -1.1669173 -0.9139335 0.48648903 0.6369229 0.27709064 -0.47179326 -0.2497557 -0.29040846 -0.77403194 0.051829875 0.58101434 0.6827172 -0.88143 -0.2840879 0.36736745 1.4521902 0.01673666 -0.6171343 -1.0504198 0.6392144 0.33327872 0.9299077 0.13483734 0.7541329 1.9034134 0.37137368 -0.5318435 -0.7973477 -0.35192692 -0.5281616 1.2174401 -0.09108946 0.5381896 -0.58004194 0.27700904 -1.1758413 -1.131684 -0.5257612 -0.19558486
1189 0.016731923 0.51615226 -0.67397803 -0.07406642 -1.0489075 0.3962868 1.519046 0.44437528 0.45795488 -1.5214051 0.17167625 -0.2427671 0.85931337 -0.9550412 0.8817229 0.7102628 0.7719189 0.67701596 0.51736975 -0.3210578 0.9436522 -0.18236904 1.138806 -1.0232308 0.21344382 0.58954114 -1.3676479 0.702455 -0.39208612 -0.3326379 0.5390639 -0.6601951 -0.49135327 -0.3256187 0.78985226 0.52890027 0.11905752 -0.69888705 0.07781727 0.88986623 1.2560734 0.56603557 -0.2509485 -0.31560814 0.008021244 0.040674698 0.112444475 0.94280803 0.9019053 0.17967522 0.54035956 -0.83055645 -0.6446672 -0.69530785 -0.071850814 0.6509838 0.015675066 0.6482317 0.40844208 -0.78806156 0.23356675 -0.31362075 -0.5266629 -1.7917376
613 -0.13111992 -1.1248486 0.64493906 -0.24769707 -0.0548551 0.030740837 0.8467887 0.14781952 0.8525868 -0.8191134 -0.21210037 -0.9570625 1.0519681 0.038942423 -0.94833845 0.824821 1.5812743 1.0383775 -0.0721157 1.094072 0.6462076 0.262305 0.53509194 -0.05972986 -0.07360616 -1.4714845 -0.7943226 -0.27179483 0.32295877 0.4086191 -0.04452745 -1.1646013 -0.6403384 -1.3511456 -0.08202735 1.1064848 0.42468786 -0.6966064 -0.5455072 1.0033708 0.95510924 0.39977765 -1.2921145 -1.0344411 0.022971727 0.7453018 -0.07958773 0.34002194 0.7728791 1.5657551 -0.5950031 -0.67215556 -0.4241148 -0.991711 -0.6262687 0.9129425 -0.38783723 1.0512395 -0.36265388 0.05323752 -0.41687497 -0.7574189 -0.9524822 -0.17108434
2225 0.26779607 -0.2898003 0.40608266 0.72803146 -0.60768336 -0.84027493 0.05906933 1.1143312 1.1287339 -0.6261098 0.38998613 -1.763325 -0.4743825 0.33244318 -0.97760695 -0.16183105 0.44858086 0.19594745 0.7645241 -0.7609302 0.74889886 0.14823075 -0.9578334 -0.93539196 -0.30691904 -1.3579559 -1.5810568 0.92034525 -0.51813537 -0.6257106 -1.4096079 0.04728547 -0.5543496 -1.2692213 0.9741631 0.80469567 0.23061636 -0.79761624 0.28642842 0.14317812 0.7153771 0.4253249 -1.0926197 -0.21518096 -0.6704444 -1.0547832 0.22318247 0.61492646 0.60052174 0.34511942 0.00047620918 -0.109935515 0.31437787 -0.08992564 0.15058102 0.7466345 -0.35451406 0.1720592 0.87357205 0.34213656 1.0724647 0.3858699 -0.34689745 0.26755357
971 0.62205064 -0.036225453 1.1117594 -0.42212448 -0.048377935 0.082865484 0.862665 0.4437101 0.68372166 -0.6861043 1.6340888 -0.63427234 -0.555384 0.49080124 -0.20775503 0.14714643 -0.5795406 -0.5555579 0.64933395 0.22127339 0.24439795 0.22338794 0.50256234 -0.6147474 0.60465616 0.15567204 -1.1912099 -0.3407465 0.103518985 -1.1286582 0.09893241 -1.3372132 -1.613323 -0.9935096 -0.085213296 0.7965617 1.6733059 0.2787929 -0.21335328 0.63117677 2.2074354 0.1991429 0.49606454 -0.6555079 -0.040055394 -1.2983805 1.0280606 0.38823473 0.18021129 0.4956946 1.1187958 -0.4358162 0.0577151 -0.34583104 0.4240151 0.62449825 0.37264168 0.9962446 0.29158506 -0.12566471 0.29423788 -0.66307753 0.8752151 0.10922051
1248 -0.22402835 -1.0019532 0.21323581 -0.3842662 -0.34785378 -0.37039196 0.34245658 -0.12999453 0.7021 -0.2536779 0.92154866 -1.0646874 -0.67727846 0.7239787 -0.14354579 0.4734883 -0.5337861 0.6367195 0.6174699 0.3058467 0.13007756 0.7190557 0.44344163 -1.3776758 1.3440723 -0.7208412 -0.92773235 -0.33461455 -0.13906853 -0.9063124 -0.21656057 -1.7826501 -0.064854965 0.008165557 1.4403797 0.6172244 -0.51682353 -0.81182843 -0.032474935 1.0043306 0.76742727 0.35001835 -0.22867282 -1.0167156 -0.0172707 -1.1229639 0.24326868 1.8033245 -0.15669124 -0.13205892 1.291404 0.10822143 -0.28068355 0.50404924 0.54501796 0.96079826 -0.691873 1.3203884 0.5067147 0.5509113 0.4273334 0.53876203 0.055132322 -0.87862337
1616 -0.98304075 -0.92399424 -0.4823633 -0.5753667 0.04909423 0.30450517 0.8016465 -0.43268618 0.720035 -1.2688103 0.9327112 -1.1140172 -0.64993626 0.8546485 -1.4326763 -0.14612721 -0.4316465 -0.25882682 0.56338596 0.02358748 0.8924083 0.12443356 -0.3372532 -1.107066 0.29213315 -1.0377033 -0.67268413 0.019017661 0.034545526 0.8013321 -0.36505982 -1.0768408 0.58501965 -0.2942986 0.42324215 0.8986178 0.7958434 -0.22732273 -0.6526501 0.9919123 -0.30626205 0.09186263 -0.7116326 0.001219054 0.08932008 -0.10604649 0.44498238 2.1805727 0.02352755 1.0322777 0.6219879 -0.5659635 -0.29285967 0.0253692 -0.4738046 -0.1415935 0.06901918 1.5432289 0.77788097 0.037452336 0.7839707 -0.39565402 -0.8414072 0.35615265
1947 0.8510533 1.0145482 0.12549898 -0.6072505 1.2053666 0.5790782 0.38422483 0.28770337 0.28669414 -0.768804 1.0534759 -1.0691351 0.6853181 -0.7771601 -0.8972975 1.0247252 1.5387055 -0.050188024 0.75255656 0.6910627 0.048643142 0.45758864 0.27320635 -1.2204264 -0.06449818 0.45410162 -1.5627725 -0.19301468 0.17453513 0.14310637 -0.045018356 -0.64571506 0.19962656 0.22044827 0.46016017 1.893784 0.8517324 0.05338567 -0.56326133 1.4167486 0.41313374 0.20170496 -1.1223911 -0.7289374 -0.3569521 -0.018762471 -0.25569683 0.39002565 0.16714369 0.7251546 -0.35418352 0.16702187 -0.7801265 0.8150614 0.16115707 0.043719877 -0.779481 0.9707911 0.22391938 -1.2776189 0.19960557 -0.3492068 -1.0409667 0.24194974
1724 0.2214421 -0.051645152 1.3831999 -0.23917833 0.38213456 -0.91375345 0.8760265 0.9529425 -1.0081397 0.030073827 0.97276 -0.4919948 0.65179086 -1.0872611 -0.5786531 -0.13631673 0.12977207 -0.5476962 1.2657489 0.08230903 0.25923148 -0.13259014 -0.21986037 -1.7772977 0.63169926 0.7653836 -1.130228 0.6397045 -0.031726617 0.01575842 -0.44664317 -0.32650965 0.23957664 -1.4110515 0.4037492 0.98354447 1.2128156 -0.44858247 -0.029796015 0.057850398 0.4284051 -0.57629025 -0.86379963 -1.4812957 -0.56901175 0.18071942 0.9445384 1.6706276 1.1692655 -0.19849762 0.091075465 -0.31503925 0.19490081 -0.62241995 -0.9228255 0.40864462 -0.35644412 0.31196484 0.559689 -0.7222758 0.06006353 -0.62350607 -0.60646814 0.06753953
2542 0.71956354 -0.7072985 0.3852627 -0.9140405 -0.12907079 0.527776 1.1349442 0.49088624 0.77161634 -1.0991988 0.9627798 -0.74262017 -0.006141174 -0.19059514 -0.6478058 -0.34008408 0.34271005 0.10084992 0.5479611 -0.21416476 -0.057532627 0.7618717 -0.6324738 -1.035046 0.78219736 -1.1790887 -1.6425177 -0.18774821 -0.5744699 -0.36198708 1.4050066 -1.1682202 -0.9532977 0.30148894 0.16738816 1.2969675 0.396391 0.034462772 -0.6789514 0.71957856 1.2528603 -0.20776452 -0.7661869 -0.7242069 -0.66117567 0.23051386 -0.21691856 1.0089811 0.23848125 1.3751991 -0.40511128 0.25018713 0.24942084 0.3749679 0.6871233 1.2301298 -0.6934457 0.4555032 -0.52668166 0.9634729 -0.5521703 -0.089920856 0.4246375 -0.5187471
83 -0.17676245 -0.6219373 0.90283024 -1.127474 -0.36404604 -0.8486303 1.2671272 0.07279557 0.5605371 -1.0383048 0.3387907 -1.0733787 -0.6330506 -0.08922041 -1.3464366 -0.0148956375 -0.2719887 -0.1523347 0.56476456 0.07469664 0.5844764 1.2118939 0.48008162 -0.6117398 0.41660795 -0.71104896 -2.0275428 -0.9252627 -0.94708353 -0.3678502 -0.15051499 -0.47421777 0.52789694 -1.2212298 0.40466917 0.16114627 -0.45691994 0.9236169 -0.45280918 1.1495576 1.0665662 0.24043685 -0.20625089 -1.0120212 0.5664776 -0.30213082 -0.06889631 0.86392254 0.18274485 -0.4898665 -0.1918095 -1.0702684 0.752201 -0.13675226 -0.094168805 -0.02273701 -0.84847134 0.0037686038 1.3938824 -0.32532832 -0.016583161 -0.508713 0.56331056 -0.86404085
1027 0.6477232 -0.27905545 -0.23988529 -0.021595238 -0.51983976 -0.27542603 0.87504935 0.6569652 0.606513 -0.28932828 0.7522822 -1.3318511 0.52611464 -1.0936298 0.054012492 -0.11736301 0.48069006 0.5743835 0.7151965 0.04104643 0.36637026 -0.30042458 -0.7989858 -1.1078442 0.9808947 0.42982346 -1.483742 0.20947807 -1.1944644 0.02274254 -0.1279899 -0.81793463 0.415558 -0.88892 0.7287635 0.66444284 -0.88695544 -0.85647666 -1.4903473 0.50450754 0.9926727 0.9633086 -0.23679961 0.61771196 -0.07716933 0.017814929 0.13659853 1.413296 0.98635185 0.77889776 0.07792663 0.29718947 0.5778393 -0.49128848 -0.042219225 0.14672713 -1.345185 0.087336235 1.3960404 -0.09179664 -0.3601035 -0.43078238 0.7012996 0.50523144
4 -0.10095341 0.20008962 -0.20639463 -1.0457245 0.7631426 -0.32098773 -0.107195996 -0.69569725 -0.40427145 -1.2847112 1.1813312 -1.4591668 -0.43632904 -0.754822 -0.39873055 0.41117373 0.5246459 0.24233437 0.2854807 0.24562003 0.4254834 0.8060008 0.14592662 -0.5807228 0.27200267 -0.24116923 -1.0561215 -0.3055196 -0.15573429 -0.099196374 -0.3961369 -0.65562457 -0.46806422 -1.5153987 0.3941969 1.292308 -0.0113998 -0.13452847 0.06667486 0.5519992 1.658704 -0.9901877 -0.0697491 -0.87341565 0.9104503 -0.29810515 0.09192374 -0.94411796 0.5813245 1.340439 0.20064639 -0.39076328 -0.3398439 0.01073837 -1.0837373 1.0480698 -1.5584337 0.49054468 0.27981496 -0.4875481 0.57987493 -0.4399583 0.69037503 -0.22832145
1300 -1.0015752 0.2730312 0.05264188 0.3151781 0.38608167 0.40230048 0.5277817 0.9918802 -0.46679756 -0.572504 0.89315903 -0.578247 0.41094965 -0.36460558 -0.14388193 -0.5839268 -0.16446279 0.98885345 1.2756468 0.95253265 0.18153411 0.7048042 1.1816108 -1.82132 1.1997051 -1.0302885 -0.49384806 1.3603121 -0.42524913 -0.09577902 -0.3599354 -0.057291497 -0.49587896 -0.18763947 1.1504174 1.1953084 -0.15895106 -1.5113949 -0.54544294 1.1941786 1.0902854 0.37388775 -0.33879748 -0.8432753 -0.010433397 0.5692943 -0.19591846 0.80448204 1.5589631 1.008014 -0.867638 0.0811444 -0.30749622 -0.22582844 -0.15184605 0.54852146 0.64915186 0.61263233 -0.27554718 0.15934715 -0.036461495 -0.10963776 -0.629087 -0.38577864
1657 0.09899014 -0.40293068 0.8040309 0.27424204 -0.97203994 0.7274026 0.75880784 0.74234504 0.4295257 -1.2043382 -0.08846978 -0.68345463 0.6640417 -0.18584135 -1.5974298 -0.10812843 1.053016 -0.04977805 0.546586 -0.24434985 0.18720128 1.021789 -0.28258765 0.18242007 -0.3289763 0.7737534 -0.6982168 -0.14195459 -0.37516892 0.1866949 -0.3752818 -0.29520106 -0.94524014 -0.38431546 0.63655084 0.9724776 -0.26235342 -0.6040584 -0.7695096 1.7190909 0.6690523 0.5092924 -1.1574187 0.36434162 -0.026255969 -0.5193152 0.4433159 0.63209075 0.78957134 0.17313454 0.06095467 -0.8575547 0.23982812 0.031772844 0.4256355 0.14077179 -0.34129336 1.8769226 1.3762133 -0.16422771 -0.27301282 0.3069444 0.33024842 -0.7640643
2476 0.088050306 -1.2292999 0.6480027 -0.58848673 0.015978567 -0.68329906 1.5512013 1.305187 -0.49527413 -0.6991982 -0.53853047 -1.2634696 -0.40751424 -0.30763465 -0.17917742 -0.19232064 0.5876154 0.22784312 0.62136006 0.48825726 0.12903692 -0.29869452 -0.28006577 -1.4125435 0.34995058 -1.078047 -0.9296442 -0.097021654 -0.3972445 -0.80325466 -0.36128613 -0.020736916 0.049352232 -0.2585954 -0.06840641 1.4120772 0.48342946 -0.40798566 0.5040001 0.73969746 1.0555446 0.91901153 -0.2570186 -0.87315434 0.35991523 -0.5197868 1.3196555 0.55292916 -0.007214801 -0.07050207 1.159477 -0.13327485 -0.7657179 -0.33502 -0.31306493 0.42114815 -0.4188889 1.3307145 0.26922423 -0.12860651 -0.39747274 1.1586345 0.5577857 -0.134395
2500 -0.25108743 0.25356296 0.17259921 0.03643261 -0.5420762 0.2461256 1.223636 1.4543861 0.49311712 0.33389887 0.28073442 -0.56429034 -0.9325588 -0.67312914 -1.0298481 0.30294442 -0.14825498 0.6668594 1.3789539 0.9221359 1.1595478 0.82687116 0.484272 -1.2410245 0.19490483 -0.40487334 -0.50320506 -1.1001123 -0.38675347 0.6207573 -0.7278407 -1.3885268 -0.66032034 -0.20003812 0.457528 0.6682272 -0.71685 -0.6762247 0.22658232 1.1023835 0.28726542 -0.1712197 -0.6048455 -0.3525483 0.16098529 0.35279438 0.7270094 0.27370316 -0.41256788 0.8636775 -0.43567422 -0.8135509 -0.21475334 -0.5382564 0.20709951 0.08041481 -0.36943263 0.69579387 0.9962634 -0.6564198 0.45260993 0.4286175 0.330265 0.8459289
389 0.67045796 -0.94431 0.48415455 -1.2465518 0.2775759 -0.25595856 0.6799994 0.3019847 -0.13541588 -1.419511 0.7927745 -0.58967286 -0.053487323 0.08758222 -1.4232186 0.010345843 -1.6700636 0.2922484 -0.29998565 0.5156082 0.122581184 1.4039191 -0.09709536 -1.0238537 0.011406147 -0.33683655 -0.9200735 -0.6697971 0.3713375 -0.6453691 -0.4129158 -0.64164937 -0.61426353 -0.13511726 0.49710172 0.96963346 -0.18290621 -0.89741784 0.11240533 -0.08574546 1.1134703 -0.3514489 -0.3614601 -0.84369475 -0.77331424 0.9557308 0.24273121 1.445212 1.5653791 0.12218693 0.12402871 0.53119195 -0.85071975 0.26600337 -0.21930815 1.2297839 -0.5436107 0.06407383 0.58275646 -1.0580306 -0.21881941 -0.47286165 -0.6104017 -0.8475841
1304 0.7065834 0.7392544 0.7105222 -0.03569766 0.48912355 -0.7079494 0.8963453 0.9270404 0.5102086 -0.5882224 -0.3567485 -1.2226335 -0.430231 0.38205487 -0.7801261 0.61719227 0.83712924 -0.29361615 1.4295362 -0.61619014 -0.44628373 -0.041077666 -0.4737996 -0.8408521 0.25164342 -0.014979523 -1.4541326 -0.21579196 -0.04069401 -0.57078063 0.3457776 -1.0378854 -1.2425733 0.07226733 1.6863614 1.9308939 0.7408286 -0.29626277 0.7382052 0.77027744 0.12102077 -0.54594266 0.008837134 -0.09691693 -0.024559066 0.34686643 -0.0702524 1.1838084 0.029761609 0.57845485 -0.7445016 -0.93629086 -0.27207386 -0.93122464 0.55290216 1.1347741 0.037224874 0.32932404 0.2639994 0.36817852 0.38169646 -0.24420778 -0.121608116 -0.3925624
244 0.30087474 -0.38955408 0.3215385 -0.97289443 -0.26077533 -1.0567076 0.74141324 0.9562338 0.47034726 -0.11467931 0.9710654 -0.7663168 -0.48771697 -0.06932929 -0.88340265 0.56337947 0.8219999 0.88699794 1.0936688 0.019762447 -0.5684395 1.0392671 0.067612626 -0.7865551 0.08486001 0.6118957 -0.63657606 -0.58665794 -1.38448 0.29505074 -0.9165551 -1.2410305 0.53407663 -1.3202933 -0.30084696 1.2250531 0.40393752 -0.66951853 0.8574238 0.2699543 0.56200343 -0.17652306 -0.7285663 -1.122601 -0.019057607 -0.1681725 -0.454052 1.2116493 0.036060236 0.8255961 -0.14598972 0.6055643 -0.30950674 0.49579042 0.3957353 0.26841372 -0.99560684 0.75249964 0.11710754 -0.076083645 -0.3957371 -1.2790601 0.7168782 -0.15451534
2170 -0.41017693 -0.25088656 -0.28219837 -0.86981714 0.705937 0.017616358 1.5178046 -0.23251861 0.63119006 -1.6241782 0.07843736 -1.6579987 1.1175166 0.023168935 -1.7955784 0.90014595 -0.5392365 -0.41121954 0.8968238 -0.10198791 0.51700205 -0.3020581 0.1625416 -0.763265 -0.14012742 0.073283605 -1.2103164 0.074936904 -0.59252226 0.22768204 0.40811503 0.56076366 -0.8934749 -0.5495051 0.20036875 0.5591637 0.68567675 -0.48116326 0.12743632 0.24259931 0.5674003 -1.2032546 0.028698305 -0.45155144 -0.18855527 0.4170433 1.5684766 1.4686618 0.29262084 -0.37484604 0.30794957 -0.31796345 -0.46065292 0.063096076 -0.6302687 -0.36400014 -0.96922255 1.3285629 0.83835787 -0.41181841 0.06254532 0.25810146 -0.31263205 0.36980715
1873 -0.49162015 0.45052925 -0.12084059 -0.7118711 -0.5170627 0.8434073 0.80418825 1.1457921 -0.4572697 -1.2552845 0.6778261 -0.6074351 -0.7302779 1.0298694 -0.1683457 -0.21676545 0.39191505 0.45972505 1.7384641 1.465059 -0.2812224 0.45088717 0.01117879 -0.6391693 -0.2276619 -0.45577338 -1.7854513 0.0089173615 -0.33622417 -0.26958105 -1.0158097 0.19498308 -0.65038973 -1.0788623 0.07426617 1.1866193 -0.26965514 -0.1445967 -0.41964307 0.5703481 0.7308452 0.21026489 -0.996371 -0.24524702 0.6855146 0.48003674 1.2960573 0.2801014 0.01708491 0.82423294 0.529573 -0.44231772 -1.5586665 0.25652772 0.8063438 -0.8649352 0.5962308 0.64998096 0.36068964 0.3192702 0.7329347 -0.44215688 0.756686 0.52230406
1809 0.9223865 0.30391043 -0.06284152 -0.6547814 0.3630746 0.68693864 0.7576275 -0.14366046 0.0102330595 -0.5416161 1.123661 -1.180789 0.748194 -0.76231146 -0.5107268 0.09626665 -0.19446453 -0.22537374 0.27303064 -0.47917688 -0.91281813 1.4668767 0.2975768 -0.48759398 -0.2687759 -0.7422579 -1.8948604 1.0101042 -1.2142096 -0.9793442 -1.0920168 -1.1344777 -0.67720544 -0.19542612 0.1135547 0.30180314 -0.11536891 -1.2140279 0.036613256 0.70002985 1.2106147 0.88318366 -0.20724522 -0.5164527 -0.10637253 -0.5665417 0.20049042 0.36238387 1.1495643 0.48985827 -0.3690022 0.04280127 -0.06363272 -0.3250491 0.28608266 0.9613203 -0.7557766 1.0609602 -0.2371483 -0.6781026 -0.5914194 -0.7204474 -0.2541601 -0.74712306
774 0.14038017 0.72739315 0.8086038 -0.5246147 -0.85798705 -0.35407194 1.0465196 0.5012296 0.3916965 -0.103434294 0.21393982 -1.2916031 0.29295316 0.7113693 0.3070335 0.35140553 0.33957294 0.5573232 0.88241863 0.25570086 0.5610646 0.1261202 0.35186234 -1.4039398 0.7960411 -0.64883626 -0.92864627 0.7999307 -0.28213206 -0.7323887 -0.52048916 -1.2225792 -0.43704805 -0.5647866 0.23936686 1.1198488 1.0283664 0.053955622 0.57407916 1.0936632 -0.45943433 -0.35981384 -0.7566686 -0.78048444 -0.17674223 -0.5050232 0.829981 0.7907315 0.8916994 1.258939 -0.08440674 -1.0752256 0.67842823 0.40606675 -0.18188787 0.6552922 -0.002074476 0.49216583 -0.018770728 -0.52008474 0.7535323 -0.497095 1.4680417 0.7978593
1257 -0.19931003 -0.21548212 -0.5267909 -0.40120563 0.45750624 0.1498577 0.76073605 0.5487167 -0.0028970032 -0.3358492 1.5975249 0.3159008 0.17319784 0.018072383 -1.3836559 0.41238713 0.8587645 0.8965052 1.0402694 -0.57097524 1.0488294 0.4762572 -0.15433839 -0.8394214 -0.006223436 -0.9830982 -1.1676446 0.09503266 0.45355377 0.6974251 -0.89486337 0.64900327 -0.36432296 -0.90871197 0.8215301 1.0064654 0.5960078 -1.0556709 -0.5400222 0.20393655 -0.03913494 -0.33164483 -1.2760805 -1.3378091 0.9586307 0.21079169 0.6433799 0.38332248 0.9148633 -0.0765647 1.4044207 -0.7728536 -0.6216066 0.3615246 -0.12081226 0.5055912 -0.57737094 0.57184404 0.256158 -0.6066502 -0.58667004 0.4935974 0.2505381 -0.24630499
1054 -0.6693598 -0.8980436 -0.591057 1.0105624 0.22818977 1.1778443 1.2730478 0.012596006 1.0351032 -0.44746915 0.43213394 -0.64386696 -0.08340623 0.28855455 -0.87075657 0.27003542 -0.085561775 0.08673443 1.0512898 -0.09893572 0.29645425 0.588105 -0.77199304 -1.7634033 0.7554726 0.21884981 -1.2606133 -0.34692392 0.7431547 0.15659027 0.029997874 0.54945534 -0.66869974 -1.0699815 -0.22438957 1.0256761 0.65372735 -0.50050116 0.4427903 0.9470475 0.56049687 -0.42038468 -0.3071367 -0.76548785 0.53457844 0.48359963 1.1617676 -0.18855034 1.0602454 0.8426243 0.24210168 -0.38063782 -0.36447993 -1.7913008 0.12909141 0.36274782 -0.3604936 0.37045094 1.1518797 -0.87164664 -0.103656 0.87643653 -0.7578051 0.5126559
520 -0.5959779 -0.6302577 0.12055447 -0.45883504 0.07039835 -0.7336894 0.11839235 0.9825571 0.9058477 -0.9956766 0.34249973 -0.7778889 0.5549134 0.5098473 -0.7559366 0.9827195 0.33479884 -1.144804 1.3224866 0.62588996 0.061337225 0.4183174 0.25911015 -1.1183318 -0.38985434 -0.744862 -0.56791097 0.9703147 -1.1724238 0.12743971 -0.58626103 0.010929855 -0.7473191 -0.8490812 1.3105485 0.016441321 1.004069 -0.56727946 -0.28397477 0.35940555 0.680072 -0.665373 0.34861475 -1.1369028 -0.044571944 0.57090133 -0.5348035 1.7331384 -0.22401197 1.0025645 0.10110351 -0.12874724 -0.7379968 -0.27999103 0.86605114 0.8887898 -1.2657586 0.7858839 0.2672238 0.28878993 0.023383733 -0.9275947 -0.53919244 -0.30448276
526 0.76262975 0.4661379 -0.27360973 -0.5626419 0.8590005 0.90278006 0.25541565 0.08681833 -0.44482744 -0.91844654 0.9621774 -1.3936163 0.39959285 -0.6304699 -0.4826415 0.089623615 0.24047035 -0.46981534 0.49467456 -0.10724633 -0.87334335 1.3868014 0.368364 -0.37413257 0.27707446 -0.4799861 -1.4551673 0.8466104 -0.7514709 -0.97351015 -1.0590994 -0.96007 -0.57652706 -0.15127356 0.68018544 0.28339884 -0.17230237 -0.85895705 0.32855257 0.8881615 1.3012886 1.0321314 0.17819586 -0.85038954 0.023233633 -0.44458756 -0.087250866 0.13902202 1.3513088 0.46283898 0.20934045 -0.17166536 -0.010972157 -0.5814282 0.33164486 0.88380295 -0.5174055 1.4505551 -0.20096406 -1.1056993 -0.5201637 -0.6587517 -0.022016075 -0.036368355
1065 -0.71432245 0.6409897 -0.20127742 -0.71559894 -0.09660859 0.9102511 0.6551028 1.3103707 -0.042762566 -0.58202225 0.8645813 -0.3011268 -0.8105376 0.5366897 0.33227065 0.68094444 0.6345053 -0.11143759 1.4087294 1.0419245 0.12774986 0.4072085 0.4215855 -1.0682615 0.84455526 -0.52283216 -1.831354 -0.48822904 -0.9259927 -0.7816167 -0.19860616 0.76166403 -1.0926105 -0.5752669 0.18734673 1.1476398 -0.7679931 -0.27381742 0.2744092 1.0277172 0.2945987 0.053138778 -0.2613476 -0.14052479 0.15765414 0.50792915 0.32200193 0.84142905 -0.21620399 1.004471 0.8255291 -0.15338263 -1.6340934 -0.38181242 0.55898434 -0.6442045 0.069853656 0.59543675 1.0175616 0.3603125 0.08089886 -0.9649059 0.6423162 0.44133085
160 -0.3489656 -0.31951478 -0.6197098 -0.30683798 0.052049555 0.22561759 0.092301674 1.5512654 0.91189593 -0.7873719 -0.44031876 -0.918224 0.31332502 0.17470166 0.2238488 -0.09241076 0.6091338 0.43620777 0.33168218 1.5020285 -0.11864207 1.1585498 0.7822611 -1.0570813 0.28640848 0.909872 -1.3295634 0.7824438 -0.7090642 -0.500117 -1.3080473 -0.8991877 -0.91951084 -1.0563487 0.5523178 1.2004106 0.8085312 0.29932517 -0.5843751 1.0232186 0.7772709 -0.14876412 0.058130633 -0.7972955 0.15732837 -0.403484 -0.037732422 0.7193839 0.7765631 0.31178504 0.48753774 -0.050642457 0.22225925 0.57179457 -0.99834746 0.22053385 -0.4732985 1.0720237 0.021530423 -0.24707115 -0.35844958 -0.2826647 0.19303723 -0.9545849
272 1.1459197 0.15569876 -0.099915385 -0.9128728 0.051619504 0.4064032 0.09633321 -0.27147344 0.032064985 -1.4007747 1.0550395 -0.32021073 0.03727647 0.41233006 -1.9031553 0.33786136 -0.60869324 0.6395588 0.46262634 0.019251319 -0.109189205 1.6795086 0.30523726 -1.0626097 0.05164537 -0.44114977 -0.43043283 -0.22734179 0.40992597 -0.53628707 -0.5146349 -0.7134728 -0.6759864 -0.3458834 -0.12546924 1.1840172 -0.24465638 -0.79588234 -0.7404692 -0.35068277 1.6217799 -0.4369644 -0.5370965 -0.58406967 -0.6404819 0.44321147 0.072779395 1.4187106 1.7734926 0.7392677 0.07560841 -0.15978925 -0.5249284 0.6205457 1.0130855 1.0044941 -0.5747523 0.04533758 1.2668862 -0.31721482 0.1326771 -0.56821054 -0.2513982 -0.11595431
911 -0.6879462 0.06413969 -0.70630395 -0.8903933 -0.22297032 -0.90814084 0.88805795 0.50727254 0.97614634 -1.3094716 0.6850518 -1.0374014 -0.22177657 0.47275475 0.22440937 -1.1215043 0.083697654 0.006916216 0.9849775 -0.028348826 0.86210114 -0.21933596 0.017688615 -0.516723 0.6788735 -0.78783244 -0.9384553 -0.08866277 -0.22317109 -0.4042894 0.76540416 -0.95143723 0.5233722 -0.2565158 0.69925827 0.495792 0.46842796 -0.7050452 -0.19560523 1.3302709 1.9751855 0.42630842 -0.90709597 0.113887444 1.4411942 0.5964464 0.11075758 0.47857955 -0.060729038 1.5780591 0.6407336 -0.08775028 -0.9116811 -0.8429762 0.39757317 0.1596499 0.13581933 0.7053912 0.813177 -0.20771123 -0.50010395 -0.3939585 0.04821677 0.53917617
932 -0.6440644 -0.46357584 -0.58181334 -0.13136616 0.09598173 -0.25351915 0.3213355 0.5594929 1.496011 -0.27804077 0.28387627 0.17026743 -0.9339419 0.6847064 -0.36538312 0.61109895 0.12963152 -0.17452087 0.03511923 0.77046967 0.7499133 1.7715226 -0.1992042 0.34444246 -0.07599792 -0.7477351 -1.8943521 0.41573757 -0.8803656 -1.2562007 0.40184405 0.21777242 -0.8250505 0.1997205 0.4168497 1.2753117 1.2064129 0.075088814 -0.49379137 0.9111841 0.86698747 0.35544017 -0.8646722 -0.3566181 0.5587213 -0.28323236 0.79185253 0.7748086 0.25539407 1.4465986 0.4771439 0.37167522 -0.0021632805 -0.3154486 -0.26251194 0.83239186 -0.10362277 1.0434015 0.23350671 -0.7762813 0.2124599 -0.26211694 -0.29883546 -0.36064282
920 0.11597551 -0.30077854 -0.6063161 0.36534023 0.33044863 0.24832432 1.1904001 0.5630377 -0.12709977 -0.2694887 -0.065266885 -0.3905914 -0.66602415 -0.7775029 -0.3781982 -0.17158924 0.9513446 -0.24216777 2.4472628 -0.8119204 0.7258211 0.04629767 0.2762149 -1.1122327 0.8295642 -0.9446933 -0.98542756 0.32211283 -1.3239592 -1.0025148 -0.8278452 -0.1840539 -0.26668268 -0.64346766 -0.07088325 -0.068166636 0.72328734 -0.66925806 0.41058517 0.59993374 0.052549258 -0.8843967 0.7313019 -0.027754817 -0.45896 0.2501057 1.1503277 0.77638 0.9922466 0.7471926 -0.88481635 -1.0843034 -0.77607316 -0.4415725 0.14402209 0.29948425 -0.34379202 1.3342365 0.6788618 -0.5901402 -0.41969597 0.080886126 0.4372414 -0.5732319
949 -1.0394821 -0.28819174 0.6691995 -0.15184721 0.730462 -0.514737 1.1336827 1.1838499 1.3540995 -0.10359743 0.553231 -1.236441 0.39330044 0.55372906 -1.163565 0.25923997 0.91917354 0.60645556 0.2048442 0.40818596 -0.35971987 1.3172672 -0.1587494 -0.37410966 0.5013659 -1.3882416 -1.2162312 -0.66521 -0.28265703 0.04262818 -0.9965383 0.44604576 -0.9414311 -0.2846566 -0.035802905 0.4054773 0.36992806 -0.64941776 0.76566136 0.26892242 0.70485806 0.57590353 0.20473297 -0.5362241 0.71104056 0.81127363 1.021849 0.1430039 -0.1589691 0.87584656 -0.38964063 -0.25733832 -0.07662401 -0.44825664 0.45007232 -0.004686372 -0.15404227 1.6655622 1.2629986 -1.3333827 -0.6972158 0.31502047 0.40791744 0.051418558
1258 -0.80565757 0.3114213 -0.5774157 0.29318622 -0.28801826 -1.3994288 0.7456982 0.5063481 0.10224079 -0.5786896 0.14776726 -0.9849489 0.086733535 -0.78441215 -0.49101365 -0.29830837 -1.1651386 0.24226746 0.43626305 -0.953841 1.5581151 0.4783671 -0.17133613 -0.6427583 0.61260974 -0.28404707 -2.1560423 0.3166154 0.42650568 0.1552056 -0.92897964 -0.47821784 0.045218404 0.12892196 1.049298 1.8203928 0.37083074 -0.0364855 1.2212938 0.50514156 1.1670018 -0.24543953 -0.021243429 -0.32637617 -0.59151167 -0.42979062 0.028557152 0.076446846 1.1168 0.020484142 0.0060761226 -0.79026127 -1.2989041 -0.046102386 0.3977955 0.4888118 -0.94075173 0.21310723 0.110505916 -0.7888668 0.20534652 -0.5994121 0.034655675 -0.36104593
975 0.08866883 -0.3614821 0.08238298 -0.54894114 -0.6458722 -0.19466412 0.8790795 -0.020989602 0.44234845 -0.5513291 0.006358738 -0.056639303 -0.97758937 0.64355123 -0.7904413 1.2707585 -0.4059288 0.695088 1.1636076 0.06787386 0.8750687 0.14812706 0.12382141 0.23261473 -0.55579334 0.5659937 -1.5003606 -0.059848946 -0.8849331 0.46688932 0.054560076 -0.95888144 -0.26976806 -1.1474426 0.23358296 1.0473952 0.9550068 -0.11072244 -0.6520639 0.7385095 1.6121637 0.22158353 -0.54118836 -0.26281625 -0.16039564 0.3203554 0.26331896 0.93604845 -0.017878946 -0.26011217 0.23918255 -0.6660405 -1.5845982 -0.6496971 -0.8016675 0.7547916 -1.6167928 0.5997294 0.5249105 0.2216841 -0.73893857 0.19993459 1.2025274 -0.17627649
2504 -0.512228 -0.1585804 0.326336 0.3220815 -0.32543957 -0.18041052 0.6135553 0.86562294 1.1653371 -0.92011815 0.70222014 -0.6977366 0.01771969 -0.7461575 -0.95966 -0.1803785 0.09167425 0.45362383 0.023822391 0.48388922 0.29503298 1.085305 -0.97578174 -0.86817014 1.1286426 -0.15259466 -1.2000953 0.35348022 0.70315355 -0.5853176 -0.12415456 -0.29441214 -0.89494705 -0.80751055 0.45761833 0.4341388 1.2737201 -0.3764133 -0.2756912 1.0176775 0.06827316 1.4761461 0.8184563 -1.2150371 -1.0155276 -0.89670134 0.063429944 0.65107226 -0.24812645 1.0221547 0.0354154 -0.51463157 -0.2797452 0.34730953 -0.5194512 0.6373264 -1.0187155 1.747178 0.28555474 -1.134822 0.41200653 -0.43818918 -0.6138075 0.70036596
1260 0.03259544 -0.29621822 0.35309812 -0.20229943 0.14612071 0.49646458 0.55170876 0.58574086 1.0239992 0.019018775 -0.4916994 -1.1803406 0.49458915 1.5479314 -0.550068 0.77913356 -0.6784694 0.02845823 0.93561566 0.8268388 -0.20303631 0.4548427 -0.809237 -0.2309954 0.14189793 -0.44212678 -0.9318555 -0.096814364 -0.73941433 -0.16028412 -0.7735127 -0.055252895 -0.5640962 -0.3316783 0.7756661 1.859767 0.46920058 -1.130248 -0.11002403 1.8572378 0.24648514 -0.464125 -0.71687424 -1.6133924 0.5689033 -0.11521272 1.120933 1.121539 0.28067273 -0.15942577 0.2278255 -0.60894775 -0.6517956 -0.5802266 -0.52088124 -0.20759553 0.3995713 0.24693665 -0.37790412 -0.5753048 -0.3089278 -1.1998329 0.11326216 0.56639516
2261 0.8128905 -0.5350043 0.7865449 1.262658 0.08460487 -0.25022352 1.4615884 -0.43397737 0.3950956 -0.8523133 -0.33636117 -0.76643956 -0.67313063 -0.84978116 0.096797846 0.634427 -0.08900538 -0.6656485 2.3205397 -0.09609669 0.5547718 -0.4843695 -0.7152935 -0.6894608 -0.4074947 -0.84263444 -1.4989473 0.46328354 -0.47084936 -0.468645 -0.67829955 -0.44335875 -0.49181274 -0.12701601 0.6456468 0.96293 0.88567424 -0.15531747 0.17513415 0.08373768 1.8323416 0.3943591 0.23583905 -0.03300761 -0.25822395 0.5248809 -0.104491174 1.2668766 0.41916227 0.13863133 0.5679996 0.35809675 -1.1319647 -0.20063105 -0.34573543 1.0586354 -0.65623564 1.0012689 -0.3568341 -0.7088947 0.3942043 -0.36231378 -0.6643369 -0.17555673
1796 -0.6856324 0.003509415 -0.4577756 0.20247348 0.10804091 -0.24138471 0.20855539 0.31099784 -0.27959603 -0.9639969 0.3910245 -0.3572713 -0.5359561 0.73692244 0.19478081 0.43428102 1.0876682 -0.5154238 0.15603247 1.0024753 0.9780697 -0.080892764 1.4233226 -0.18895477 -0.10757976 0.16931562 -1.6058211 0.9974074 -0.27092904 -0.15061186 -1.1104246 -0.18217658 -0.56603533 -0.038969766 0.25659212 1.6673595 0.0066270907 -0.74988115 0.1438026 1.7278383 0.8148419 0.09050398 -0.37759328 -1.1360749 -1.2187878 -0.094240956 1.0144801 0.9063579 1.5521498 0.48022157 -0.09268003 -0.6583284 -0.12861666 -0.7343462 -0.5837184 -0.11396266 -1.5888731 0.5728503 0.6985835 -0.18134469 -0.5040481 -0.6772408 -0.49681038 -0.10222777
1600 0.7626609 -0.656796 0.33422726 -0.18556994 -0.1994483 -0.41147292 1.2831285 0.7158526 0.749176 -0.057180468 1.3765727 -0.10783811 0.16230682 0.23116651 0.7244339 -0.20329538 -0.105921224 -0.3370458 1.4507189 -0.13956064 0.8525217 1.5051218 0.38790628 -0.15439546 0.90780354 0.038665954 -1.0498929 -0.42426315 -0.4599393 0.21497823 -0.27665013 -1.0603688 0.8149349 -0.9329242 0.7069859 0.41385338 0.62969416 -1.1443644 -0.31579062 1.1548588 -0.38278276 -0.009609237 -0.35844204 -0.5835662 0.3070617 0.57352746 0.7588652 0.6044472 0.19133113 0.6766347 0.74250793 0.6309654 -0.7950181 -0.57364297 0.37587768 0.028994016 -0.47333175 1.3063546 1.4884467 0.42665142 0.6204282 -0.9116116 -0.72803926 -0.42970297
916 -0.52674466 -0.32957578 -0.21496196 -0.067787156 -0.6253049 -0.69208646 0.37593186 0.45903993 1.5488845 -0.960579 0.18002746 -1.5999379 -0.20638411 -0.61605066 0.35248822 0.17484485 0.1634884 -0.1526587 0.19248089 -0.5411657 0.67586416 0.71132827 -0.90518063 -0.9807456 0.30416748 0.37769556 -1.7273347 0.4789611 -0.6876732 -0.26079145 -0.6071479 0.6112839 -0.43501687 -0.29393977 0.3578841 0.4838751 0.89704645 -1.4706447 -0.44355837 1.0249134 1.001521 0.95599264 0.53826696 -1.1290897 0.5043781 -0.18131691 0.6740387 0.82224184 -0.28408107 0.9016638 1.3321267 -0.5448644 -0.29497513 -1.0085733 -1.3414996 0.039443273 0.39643225 0.5808889 0.47407487 -0.6712331 -0.3321502 -0.06812277 0.8354205 -0.6939331
205 -0.9078562 -0.16555063 -0.27937245 -0.6900967 -0.8827237 0.25245818 0.26663348 0.22243813 0.33339372 -1.1256039 0.36853468 -1.171831 -0.113713525 -0.02126672 -0.6287199 0.028722752 1.1593952 0.75619745 0.18448588 0.16687301 0.3951909 0.39418417 -0.76257616 -1.2137827 0.11922911 -0.8313377 -0.989239 0.67316127 -0.8277508 0.20523523 -0.5926423 -0.79948825 0.7143222 -1.3501246 0.5363666 0.6774228 0.4895044 -0.33440143 -0.047428392 1.7351031 0.9993305 0.47233033 0.6188797 -0.06050515 -0.6448048 -0.53786016 0.57984936 -0.20100674 0.21111628 0.945532 -0.04389104 -1.8137231 0.43313956 -1.2609185 0.40780598 0.7899699 -1.094733 1.7540532 -0.74326843 -0.48646173 0.35963404 0.8595608 -0.4094678 0.030348888
1035 -0.77772015 -0.46023148 -0.5204326 -0.28116837 -0.23649609 -1.0456935 0.82152414 0.7273777 -0.2970233 -0.46646118 0.775099 -0.9404865 -0.6422913 -1.2082857 -0.19160715 1.149979 0.9873832 0.5223468 0.29894593 -0.13890067 0.7064114 0.53301316 1.095016 -0.19955273 0.9037078 0.4053963 -1.6624472 -0.14216828 -0.6449565 -0.31931117 0.1475162 -0.18669629 -0.9196181 -0.26066345 0.32282117 0.15903676 1.113927 -1.0529666 0.8887147 0.6677558 1.4445935 -0.15144151 -0.3402067 -0.9060496 0.30538687 0.22044829 0.23901416 1.4526997 0.76033485 0.27178073 -0.57122165 -1.3537006 -1.0282607 -0.25585562 -1.1802343 -0.039339732 0.38048717 0.8412921 1.363623 -0.5465492 -0.4142393 0.34635141 -0.18359455 0.37572357
1216 -0.14483604 -1.0293691 -0.18961218 -0.33433032 -0.1575306 -0.6937303 0.42640206 0.58185196 0.07993889 -0.38222632 0.6385631 -0.3654292 0.4237872 0.070141375 0.12076096 1.4409217 0.9009338 -0.66079384 0.29981205 -0.22325572 0.6730126 1.9871577 0.27171296 -1.3911536 -0.01891089 -0.7976674 -1.2000185 0.35629946 0.19415715 0.4670641 0.20394573 0.1601857 0.36189854 -0.15084642 0.45510677 0.5906335 1.3283368 -0.649679 0.92655027 2.2195845 1.2697822 -0.06582298 -1.0644984 -0.08141971 -0.7756004 1.1484009 1.1362516 0.769286 0.4113073 0.84495157 -0.23097642 -0.4344008 -0.3260911 0.3348352 -0.20058198 0.47731143 -0.61743253 0.28365183 0.026180305 -0.0877192 0.16263852 -0.72971576 -0.3357123 0.51330686
1608 -1.2017505 -1.03906 -0.18426067 0.034364186 -0.88102925 0.3825121 0.1762548 0.31297213 -0.0041225576 -0.32385504 -0.44494325 -1.3997834 0.083828434 -0.6232618 -1.4746126 0.11366135 -0.48125854 0.8186837 0.018765375 0.6903558 -0.3126672 0.99620354 -0.8897812 -1.1406381 0.2981088 -0.9470192 -2.0639796 0.54602975 -0.62767553 0.01601047 -1.094388 -0.68257457 0.44775486 -0.46973386 1.3320805 0.6677415 0.09812687 -0.89295906 0.09070791 0.8504581 1.1486984 -0.100810975 -0.70312107 -0.4749817 -0.81969285 -0.90510094 -0.48289663 0.3411796 0.71375525 0.9977525 0.06701254 -0.49646002 -0.55404705 -0.2176804 -0.2696463 -0.69425875 -0.13378185 0.81442964 -0.11261625 0.29740041 -0.4003097 -0.8200015 0.7736688 0.6774406
2267 -0.3185307 -0.4587533 1.1189874 0.14989585 0.3949492 -0.26762375 0.21774039 0.33719364 1.1518154 -0.53216666 0.42472053 -0.77286017 0.09994012 0.5548212 -0.9523018 0.9285812 0.68311137 0.8182332 0.7982122 0.9042454 -0.024900349 1.1963612 -0.7026345 -0.7003444 0.045695636 0.16297875 -1.4399095 0.018830152 -1.5648274 0.47566992 -1.3365782 -0.3319364 -0.16340719 -1.4417422 -0.55770427 1.492843 -0.877734 0.33949593 -0.72974175 0.11676227 0.99964666 0.26464885 -0.34373242 0.086427 -0.22190917 -0.31370157 -0.2729308 -0.12101173 1.3521117 -0.1497946 0.29136875 0.024167696 -0.11279241 -0.9842911 0.10645527 0.19312827 0.7811888 1.4530579 -0.09549002 -0.65568316 -0.44728407 -0.14217383 0.5476923 -0.74961835
1734 -0.3210466 -0.87552506 0.32640937 0.6229812 -0.25822273 -0.20290606 0.46584794 -0.0749973 0.6699744 -0.4282321 1.8226498 -0.58529663 0.024378376 -0.39998308 -1.4630286 0.39390582 -0.8177124 0.007772114 0.65421075 -0.26189587 0.5338224 1.7353315 -0.7364169 -0.7336718 1.3515762 0.648143 -0.527627 0.015585709 -0.94345874 -0.090215646 -0.42521822 0.07211194 0.22404005 -0.65147907 -0.5844663 -0.08343166 0.589168 -0.8909868 -1.0882872 0.5521339 1.8332579 0.10743402 -0.61804855 -0.2032665 -0.3680282 0.7137356 0.7527423 0.9120403 0.9403498 0.34948027 1.6244704 0.14884083 -1.3242564 -0.4437819 -0.13570179 -0.17287275 -1.0390439 1.0906162 0.02212232 -0.59434676 0.29112756 -0.55750436 0.49274352 0.711066
115 -0.57299703 -0.29774663 -0.2976795 1.2168404 0.47654334 -0.034209967 0.17301862 -0.42882225 0.49852198 -0.1887368 0.087374136 -1.1197912 0.010605987 0.58422166 -0.7835813 0.9904143 0.2584218 0.3473011 0.89355123 -0.024361644 1.3413645 -0.38163018 0.9873297 -0.116169505 0.89220977 -0.9366004 -1.286401 -0.33749932 0.0072791083 0.0746985 -0.8522467 -0.18720947 -0.98941714 -0.8310224 0.3051459 1.7658327 -0.17384867 -0.55175006 -0.67571133 0.7343069 1.3720392 -0.018930212 0.14019944 0.15055539 -0.24831536 -0.725801 0.570761 0.6208417 0.57673633 0.0365719 0.4583661 0.13438444 0.37901276 -0.839038 0.6727649 0.32685658 -0.09592304 0.75866586 0.62152195 -0.80593425 0.676474 -0.039891142 -0.45814425 0.63224494
1181 0.41559216 0.25726828 0.15357172 -0.37940753 1.1149553 -0.8103936 1.3745266 0.5937682 -0.4829319 -0.9093272 0.30778462 -1.4358662 -1.2825037 0.0232826 -0.024264669 -0.167665 0.74164313 1.3946642 0.8523863 -0.0038436912 -0.65570927 -0.077254035 0.3261139 -0.25131786 0.533568 -0.5426814 -2.2848098 -0.45563057 -0.1294971 0.3726483 -0.5725599 -0.8027119 -0.21852376 -0.15985309 -0.12813461 0.55970544 -0.019347155 -0.02521228 -0.33579844 0.8932959 1.5627613 -0.06899452 -0.238973 -0.5647063 -0.13124038 -0.4034533 0.70851374 0.40518975 0.2432902 0.15579537 0.21937965 -0.55773973 -0.087612435 0.37290093 0.6541954 0.08714237 0.05207394 1.3586502 0.5286291 -1.1208688 0.42239186 0.28283817 -1.1994245 -0.64769316
776 -0.2930086 -0.076099314 -0.3398323 -0.4081834 0.20697673 0.033330224 0.09504876 1.5177804 0.9779937 -0.74662167 -0.56831145 -0.90599674 0.41003773 0.17015436 0.19536032 -0.23180404 0.82048887 0.6603164 0.4593746 1.4671923 -0.052029062 0.9950985 0.8702243 -0.9096386 0.05733889 0.81068105 -1.388231 0.53947675 -0.7569728 -0.55053544 -1.2828974 -0.8157822 -0.84955144 -1.0877314 0.37612218 1.121148 0.72154677 0.33281982 -0.7563094 1.1936907 0.8021488 -0.09071019 0.027510114 -0.76318 0.04430432 -0.17035837 -0.097445965 0.74644953 0.7370847 0.37412283 0.45682156 -0.3233095 0.38118416 0.42216763 -1.08476 0.27339664 -0.6166435 1.1083628 0.042715006 -0.17506705 -0.23336871 -0.18547374 -0.03544613 -0.9837754
2122 -1.0145432 -1.4055809 0.28084195 0.0071612927 -0.77715 -0.7289719 1.6542284 0.22180241 -0.53414625 -1.5712231 0.34885162 -1.331323 -0.60643345 -0.36283618 -0.07344793 0.26453823 0.9280222 -0.13352682 0.74929166 0.08117178 -0.35204208 0.45373282 -0.14901173 -0.6664453 0.15126471 -0.33033046 -0.90290004 -0.2828751 0.1973006 -0.4305061 -1.3207889 -0.60559005 0.12217692 -0.25771546 1.9341396 0.53996783 0.08241426 -0.8224092 0.10146276 1.1859816 0.74905884 -0.4728953 -0.3120835 -0.4263093 -0.75743735 -0.42064956 1.4878277 0.3719824 0.885506 0.9544601 0.64383423 -0.1001166 0.14603515 -0.33357424 0.14697684 0.36678934 -0.30016187 0.67669547 -0.70846915 -0.4547081 0.9967454 -0.16549265 0.19746658 -0.024484184
2408 -0.47822157 -0.8651901 -0.43315834 -0.4351763 0.070520796 0.51632744 0.53741616 0.258208 -0.32809037 -1.0264693 1.0728177 -0.7643321 0.2516966 0.18519185 -0.8367994 -0.16764769 -0.29339194 0.2895508 -0.662346 -0.9356202 0.62835133 1.6932017 0.59616727 -1.2095786 -0.44733787 -1.018387 -0.9107065 0.09845055 -0.806049 -0.09456519 -0.19323808 -0.15366392 0.45600197 0.39576825 0.66369784 1.5069565 0.22166795 -0.56168187 -0.28949866 0.8849716 0.8193577 0.040854163 -0.64328384 -0.385693 0.8240516 -0.33488825 1.2517503 0.40182313 0.6221737 0.75226635 1.1200879 -1.1529702 -1.5253751 0.25011656 0.6776437 0.39542288 -0.54006326 0.17686412 1.3632867 -0.018125268 -0.11523927 -0.39188984 0.5473469 -0.5122042
1308 -0.06539548 -0.57273245 -0.0061836313 0.2816771 0.9791085 -0.66990846 0.1341777 0.38055265 0.27464586 -1.0763676 0.56478554 -1.135138 -0.5944104 -0.8543173 -0.61558646 -0.23944628 0.10155197 -0.7698873 1.5785677 -0.26827592 1.5801485 0.85382676 -0.15709645 -0.59184813 0.52377146 -0.973905 -1.3742583 0.08538831 -0.24668784 0.5685465 -0.7377008 0.1595926 -0.29814687 -0.61753464 -0.33623064 0.90063745 0.11629208 0.022256777 0.031185282 1.6468401 0.3430821 0.32444382 -0.013721625 0.34766755 -0.43976817 0.96048194 -0.11638209 -0.124039285 0.54695183 0.86597025 0.7645493 -1.5849969 -0.4163814 0.23317927 0.19844228 0.5033724 -0.049276814 1.1805038 1.138107 0.34492117 -0.211994 0.21710937 -0.15390562 -0.35050023
516 -0.2474343 -1.4843891 -0.3097401 -0.8766478 -0.4031217 -0.7399001 0.1433147 0.19749792 0.8435597 0.3489482 0.37076962 -1.2212913 -0.5222312 0.051981635 0.11960779 0.2540757 0.66549706 -0.6365738 0.5380105 0.18854164 -0.27522638 1.1579262 -0.68048054 -1.7484511 0.49894178 -1.1080129 -1.385299 -0.4960571 -0.3074473 0.11576712 0.0033587175 -1.0183415 -1.1420727 -0.6052473 -0.0010651171 0.8446905 0.07184582 -0.7191128 0.7742829 0.2163674 0.011940644 0.62793297 -0.39076057 -0.12883295 0.16358452 -0.7286228 1.2950902 0.9887858 1.4953954 -0.04440431 -0.0684854 -0.86003524 0.2879121 -0.26520526 0.82102185 -0.20534521 0.0093855625 0.49904323 0.35875332 -1.1098424 0.3498425 -0.84934396 -0.86653244 -0.843187
2776 0.4023816 0.077151366 -0.3923546 0.078012 -0.4166855 0.087404065 0.31597617 0.660818 0.21866639 0.34129408 -0.4281529 -0.8484192 0.8773888 -0.17150833 -0.72393847 0.16983233 -0.3749767 0.8530843 -0.5206073 -0.40001908 0.42575297 1.2315637 0.040960066 -0.66586643 -0.20930617 -1.2672927 -1.0023401 -0.59209096 -0.68064356 -0.3262516 -0.6558457 -1.6592007 -0.7790017 -0.35416406 0.20627578 1.4120657 0.81347007 -0.2569697 -0.9488235 1.4031807 0.8170225 -0.3375198 -0.10346434 -0.67105246 0.034448147 0.42197454 0.8138148 0.5269887 0.788573 0.442256 -0.82533634 -0.08910655 -0.1298575 -0.7010336 -0.8860036 0.47037226 0.19867294 1.6589686 0.62708974 -0.7147231 0.66426146 -0.64223236 -0.061722517 -0.82075226
549 0.11763897 0.28648922 -0.54413444 -0.25575456 0.53204983 -0.33355096 -0.2543407 0.70577455 0.6592998 -0.7531328 0.58667004 -1.193331 0.9008003 -0.29755887 0.32059383 0.23193882 -0.7656498 -0.07593877 0.9896412 -0.36543763 0.72332007 0.75766 0.9709357 -0.8597456 0.8445934 -0.08960737 -2.0927076 -1.088043 -0.6412478 -0.6353306 -0.053401265 -1.0885215 0.18844533 -0.29960996 0.6420624 1.5661551 0.15103912 -0.35189494 0.5378183 0.6123098 1.0968584 -0.0807503 -0.44493705 0.30941132 0.13186546 1.3094589 -0.1849393 0.520799 1.2856164 -0.15852466 0.484988 0.051749285 -0.105718866 -0.6890202 -0.18190381 0.09469649 -0.4002577 -0.18368648 1.020026 -0.026861543 0.34385327 -0.3941501 -0.04764183 0.43613997
851 0.011256923 -0.042378843 -0.60811245 -1.3537487 0.9346148 0.47949412 0.040061414 1.3686346 0.40517157 -1.1213768 0.21416678 -0.4262998 -0.7457876 0.5916406 -1.0907464 -0.73483443 0.6087877 -0.008510743 0.7691387 0.33871195 1.0663924 1.1202406 -0.39953926 -1.6471522 -0.1295136 -0.27226788 -1.5631403 -0.56649154 -0.3232035 -0.8124834 -0.3821235 -0.309815 0.083659746 -1.6582654 -0.14653233 1.495578 0.5028803 -0.7102933 -0.9824009 -0.009056247 0.16859426 -0.2698957 -0.55752057 -0.6093468 0.15764344 0.44500288 0.28297114 0.06195988 1.1858691 0.11308338 -0.26148456 -0.78366935 -0.04728936 -0.491561 0.36375797 0.27486724 -1.4645176 0.103815764 -0.17865859 -0.4384141 0.11759474 0.14175574 0.5867757 0.5808905
1480 -0.18254994 0.019223467 0.037057154 -0.042798538 0.059342083 0.19311678 1.1499722 -0.15499203 0.73667663 -0.8372348 -0.20861882 -1.1693032 1.1204047 -0.5170981 -0.42226928 -0.5524091 -0.19922853 -0.2845959 0.63153833 0.9085848 1.0876242 -0.107760385 0.17124695 -1.2321576 0.080525786 -0.07585806 -0.95873076 -0.92946297 -0.23383078 -0.110617 0.9162875 -0.8600598 -0.6864483 -1.2667751 0.723247 1.6532688 -0.0052690986 -1.3430619 0.5506843 1.781184 0.3165891 -0.35032696 -0.5604482 -0.3346262 0.27951193 -0.26596332 0.7500855 0.2391039 0.26345113 0.4897831 -0.55979896 -0.33350942 -0.63188195 0.010327013 0.7391172 -0.7675163 0.06761666 1.0293199 -0.27341068 -0.40821862 -0.049546 -0.20805159 -0.30438676 0.072286375
530 -0.038826384 -0.104766116 -0.18364356 -0.35168117 0.5678263 -0.5201593 0.8255454 -0.36539897 0.090897344 -0.11971212 0.5688474 0.30223516 0.4010095 -0.03756708 -0.6928614 0.70620227 0.73993355 0.02728772 1.135878 0.47474295 0.7508101 0.43499947 0.49175987 -0.65388715 0.41446903 -1.2205865 -2.1009119 -0.75822794 -1.2499322 0.4943031 0.3883766 -0.95196533 0.624832 -0.29901743 0.6720477 1.1708233 0.95486236 -0.378519 -0.513364 0.47518972 1.3388368 1.0567932 -0.7837075 0.12764631 0.04622288 -0.048299097 1.1446843 0.28558058 0.76850915 -0.10455192 0.5437339 -0.21101448 0.30201572 -0.2669965 0.31534627 -0.29111594 0.8376042 0.7662955 0.225711 -0.8702862 -0.2790949 -0.07092452 0.57626235 0.6809344
94 -0.7239712 0.5322158 0.15383126 0.52737784 -0.32657686 -0.23139088 0.25141823 0.5364098 -0.55025274 -0.573612 0.5015665 -0.29436496 0.3559949 0.12556149 -0.24256814 0.8355258 0.67849666 0.47300375 0.64405274 0.3254351 0.9976881 1.7396656 -0.39180773 -0.6715214 -0.9164758 -0.716488 -1.8628647 -0.20567924 -0.40432107 0.23505668 -1.7828101 -0.93776846 -0.11942003 -0.2212128 0.09505395 1.3784889 -0.05796874 -0.1797147 -0.44735426 0.34681553 0.9766359 0.6090277 -0.26230925 -0.33781865 -0.8067537 -0.14999996 0.32770777 1.0483937 0.42718148 0.92082685 0.8050967 0.07893772 -0.039317455 0.66703 -0.022554295 -0.72821695 -0.7384577 0.9022495 0.2894506 -0.37086484 1.5539967 0.26071244 0.72405994 -0.4781833
49 0.5913732 0.009491737 -0.25699747 0.06615314 -0.6875156 0.06899424 0.99091107 0.24715748 -0.27767995 -0.13790646 0.7287908 -1.0138599 -0.16206974 -0.49221796 -0.45631343 -0.11840432 -1.0229766 0.9968466 1.4030012 0.7102197 0.23599666 0.60029525 -1.0061063 -1.287278 0.57946396 0.26899275 -0.9153014 0.16247787 -0.54177994 0.2370866 0.6590475 -1.1387702 -1.0103271 -0.57151806 0.051645104 1.1636074 -0.8512072 -0.3979374 0.057353638 0.30098206 0.81774145 -0.6344509 0.8612355 -0.7943005 0.9132669 -0.17907277 0.01653855 1.5326738 0.76252663 0.27410755 -0.037865218 0.41450498 -0.35778874 -0.12067037 0.9237003 0.4788139 -0.20639712 0.9386386 0.6705108 -0.8062776 -0.15806854 -0.07341902 -0.91348475 -0.8452894
1242 0.25112304 -0.3397894 0.48889202 -0.10785759 1.1564213 -0.76798713 0.5860125 0.5984763 -0.34126166 -1.2055537 0.41439188 -0.9647045 -0.7436787 -0.040338397 0.06311596 -0.49984434 0.40750018 1.1506908 -0.10298035 0.18091804 -0.29367518 0.20683655 -0.47575182 0.13061377 0.6761449 -0.41576165 -2.8746076 -0.7026008 -0.12969923 0.111997776 -0.31375933 -0.82278025 -0.15123165 0.14651282 -0.25575095 0.39333543 0.315277 0.1750792 -0.56154996 0.55999404 1.5301849 -0.3685596 -0.2607843 -0.4172947 0.26559743 -0.31534478 0.75548524 0.8503385 0.42427203 0.21760714 0.5129914 -0.7725274 -0.25466886 -0.22923414 1.12467 0.10932034 -0.4135714 1.1492056 0.46479025 -1.2172521 0.053552166 -0.27775154 -0.7678724 -0.20668226
399 0.7468505 0.8130305 -1.0267943 0.53987455 0.23683551 -0.38229808 0.37635726 0.4160799 0.36684656 -0.73665136 0.72561145 -0.729704 0.9209443 -0.49262878 -1.2913927 -0.036096923 -0.6288888 0.29777715 1.3009791 -0.20338205 0.5974612 0.65821564 -0.0030767128 -0.8343948 1.1039646 0.14158088 -1.0079314 -0.02412881 -0.35214218 0.13367517 -0.29270193 -0.64618486 -0.25266087 -1.8011867 0.48892024 -0.5015607 0.392666 0.5389063 0.58048856 0.7047696 1.6556877 -1.1163332 -0.3946944 -0.96275324 0.23338704 -0.28413647 -0.34865427 0.79972434 0.47282764 0.44575348 0.64196104 -0.49581844 0.03869625 -0.81859654 0.21870598 1.2130939 -0.8811776 1.2356323 0.34110832 -0.33240125 0.20569079 -0.6342659 -0.49129793 -0.4882136
2615 0.5781448 -0.06701631 0.3646503 -0.7165023 -0.37853688 -0.8350555 0.49560392 0.35113674 0.75061125 -0.35165042 0.11960749 -0.07681668 0.65176916 0.5063131 -0.34585315 -0.6768246 0.52805746 1.2440017 1.1219559 0.18249187 -0.6179271 0.5413507 0.27473474 -0.17599556 0.7139619 -0.21118993 -1.8025435 0.81685686 -0.46064222 -0.060816094 -1.173857 0.8521601 -0.51853794 0.029508833 0.31825522 1.2209662 0.84432346 -1.5449643 -0.20454963 1.6242139 0.7582337 0.3265049 0.74655837 -0.1734919 -0.48596266 0.3231954 0.3873415 0.31432602 0.9002719 0.19475715 0.91660625 -0.032638617 -0.7895377 0.2830056 0.15791385 0.56702554 -0.1901328 0.59323215 1.2221344 -0.48967707 0.08795415 -0.20031318 -0.14451043 0.88373053
1262 -0.03961879 -0.20381235 0.7576599 -0.111978754 0.4270571 -0.49722922 0.8664596 -0.30471766 0.75286216 -0.7658115 -0.47399962 -0.083651796 -0.60302675 -0.6527264 -0.61761075 0.91114265 -0.5058261 0.1412451 0.28905687 1.0262254 0.065870635 -0.011504116 0.43307716 -1.0585507 0.5630095 -0.12357535 -2.124012 0.22115828 -0.7847302 -0.5791315 -0.5952877 -0.14646868 0.0629599 -1.2118675 0.5447535 0.596373 0.47432265 -0.6045351 0.86069006 0.4009836 1.2530227 0.15101607 -0.05482535 -0.32724565 1.5661451 0.97960436 0.9773262 1.2280169 0.11771782 -0.08352088 0.8736073 -0.48358288 -0.68678325 0.33008924 0.98521656 0.8906664 -0.84116715 -0.20146462 -0.1364251 -0.9586756 0.61989623 -0.29202354 0.39896142 -0.0653253
562 0.0600475 0.31125942 -0.17859478 0.6205167 0.16730948 0.14528884 1.3626742 0.0241831 0.8065109 -0.108973205 0.46550533 -0.5408028 -0.7739475 -0.34364343 -0.55139685 1.0730608 0.5460622 -0.41935897 0.20907 -0.4592173 -0.07102656 0.6063916 -0.13761984 -0.3177717 -0.24308571 0.86187005 -1.1106007 -1.4715502 0.16095082 0.30719155 -0.9890777 -1.2144598 0.04264048 -0.11402879 -0.03407869 1.9536872 0.3495237 -1.3615803 -0.15074414 1.2332362 0.4532902 0.16539508 0.20035589 -0.67189413 0.4686736 0.8337618 0.64718956 1.2626115 0.14225818 1.037042 1.0402013 -0.04961502 -0.1920779 0.37923098 0.52719694 0.526235 -0.24058679 0.40108988 1.3973811 -1.1131668 0.21880677 0.29144818 0.21324837 -0.25109714
2608 0.20629728 -0.8016821 -0.23957482 -1.1969805 -0.6632646 -0.31271157 0.26036084 0.7573793 -0.074640155 -0.9967862 1.1249521 -0.5235501 -0.8036685 0.2437052 -0.28792015 -0.027340299 0.54031384 0.22012463 1.0927463 -0.0822662 0.82019717 0.36156794 -0.7682657 -1.2671329 -0.114806466 -0.53612006 -0.78586197 0.5012465 -0.120291896 -0.79473066 -0.21095121 -0.54816294 -0.8167038 -0.6569634 1.0178679 -0.032141358 0.10680851 0.12362134 -0.71556693 1.2160485 0.83504623 0.8528008 0.21977244 -1.0874361 -0.029342586 0.39450836 1.526606 0.41788846 0.07310192 -0.14479844 -0.9218213 -0.06108601 -1.2356166 -0.9734351 0.64948493 0.6299488 -0.03611591 0.036579233 0.7006232 -0.8107564 0.5403937 -0.20417844 0.74873644 -0.90746254
543 -0.5651553 -0.3836089 0.33785766 -1.0964249 -0.3323871 -0.46116877 -0.19460823 0.97693396 -0.47992477 -0.45336092 1.6735423 -1.2405645 -0.29521537 0.070529036 -0.45434478 0.23169182 -0.09407269 -0.12728776 0.16577868 0.49120486 0.34786835 0.79541516 -0.057007182 -1.133664 -0.21770035 -0.15122661 -1.3889439 0.03300575 -0.5315113 0.34994358 -0.46371406 0.390705 0.6356731 -0.5679747 1.3428559 1.2238419 -0.11344206 -0.9335578 0.50467056 1.057026 1.0081817 -0.7713383 -0.7271545 -0.32901692 0.2326427 -0.06417726 0.2598403 -0.055911176 1.2825313 -0.6697131 -0.46351862 0.2752883 -0.9753031 -0.61452043 -0.7487588 -0.16987863 -0.98176295 0.873408 1.1809179 0.38006657 0.732275 0.9985887 -0.06514466 -0.31726077
1594 -0.52082604 -0.43274757 -0.29529124 -0.027602587 -0.5711341 0.7303349 1.1856421 0.019562457 -0.40423766 -0.84742755 -0.9695778 -0.681801 0.7907083 0.5352779 -0.8858224 0.13127069 0.28516093 0.28742543 1.0501745 -0.08320965 0.9099148 0.6163604 -0.33497378 -1.1433798 -0.59008604 -0.4562781 -0.35758495 -0.03140837 -0.63067025 0.43140078 -0.7506058 -0.026169846 -0.6699028 -0.18695255 0.009218894 1.5358368 0.011437303 -0.76194024 0.7251611 0.5878014 1.4898709 -0.052606627 -0.12184428 -0.94574505 -1.22711 -0.45001784 0.8318328 1.1199617 0.3628616 0.14252472 0.7481601 -0.73386246 -0.2856224 0.19442716 -0.08931822 1.1200534 0.42411157 0.5863345 0.6815301 -1.3064061 -1.0513275 -1.0410373 -0.80220026 -0.6782475
2622 -0.5497849 0.02182141 0.68894416 0.30651155 -0.5298641 0.6281778 0.22115122 0.8238581 0.841838 -0.9864213 0.7520649 -0.38086942 0.31035534 0.73129475 -0.096905164 -0.4004048 0.30816275 -0.33564633 0.55360687 0.35793722 0.62866247 0.28207514 -0.15941727 -0.25156382 0.056639634 -0.29558638 -1.6869642 0.32983685 -1.6266491 -0.10020781 0.086389266 0.5337358 -0.16814472 -1.0410924 -0.054697834 0.30500683 0.19243383 -1.9090806 0.2692872 -0.15798768 0.3757674 -0.47847956 0.015936173 -0.18515746 -0.43542528 0.3819917 0.37962317 1.4830408 1.7673554 0.37589493 0.44050646 -0.6324702 -1.7389613 0.47899207 0.37256566 0.34699968 0.4211801 0.9253451 1.0415219 0.28217307 0.08615056 -0.2413655 -0.4956649 -0.39383763
943 -1.3581703 -0.13029134 -0.19944791 0.1802408 0.42637646 -0.4767461 0.56980056 0.99014884 0.9873191 -0.40757453 1.0408549 -1.1828532 0.6898529 -0.39469054 -0.5334207 0.4045694 0.13785419 -0.56840783 0.28617316 0.85513186 0.055095002 1.7742964 0.8878168 -0.017849786 -0.13638589 -0.60664374 -0.8901242 -1.1316615 -0.448641 0.05151143 -0.3544875 0.025889382 0.4578867 -1.6549525 0.10550354 0.6220991 0.2791048 0.10664022 -0.51693916 1.1818093 0.350347 0.44513547 -1.1648182 -0.29860815 -0.17766248 -0.69509995 1.0236307 1.4089842 1.0773138 0.34696606 0.110896565 -0.21111599 -0.99648076 0.99460053 -0.88264704 0.47384608 -0.7669992 0.6708969 0.8652504 0.0038910115 0.5504142 0.25178263 -0.20405851 -0.13463226
611 0.021404933 -0.3952376 1.2949384 -0.7085815 -0.85416806 -0.27759135 1.1816276 -0.2076634 0.83239156 -0.42875397 -0.08634335 -0.8454044 0.82849747 -0.4432097 -1.4252485 0.98853356 0.1495277 -0.27816856 1.4734724 -0.38491043 0.109694146 0.11661043 -0.7236152 -0.10209554 0.649325 -0.90625393 -0.99886656 -0.8662846 -0.51163423 -0.54426724 0.009799976 -0.91821325 0.015569229 -0.6722666 -0.78287685 0.48589614 0.88176686 -0.88992137 0.24068727 -0.15597744 0.90496653 -0.5774411 -0.8372064 -0.8700487 -0.61929184 -0.24138501 0.91487926 0.8489716 1.3319784 0.19196442 0.21003923 -1.1220694 0.6928108 -0.55584294 0.071187116 0.62930125 -0.9738121 1.2161416 0.20623817 0.68401253 -0.17984511 0.14987773 0.46305645 -0.27572745
830 -0.7678351 0.46878448 -0.510568 0.4740822 0.22044322 -0.26449513 0.34735474 -0.39347315 -0.095080756 -0.37883365 0.07567555 -1.2128143 0.46212912 0.3270254 -1.2496933 0.615767 0.48740786 1.2777071 0.1043187 0.3223589 0.18854894 0.71784323 -0.09035642 -1.2311106 0.59753346 0.14343607 -1.4512589 -0.013308381 -0.50770897 0.9261749 -0.19656265 -0.7031099 -0.385327 -0.7648065 -0.44243515 0.29256546 0.8300983 -0.13515048 -0.5467723 1.0156623 0.06302982 -0.5586539 0.15274842 -1.3487039 0.6954787 -0.6328032 0.806386 0.6687033 0.6045174 -0.3921319 -0.0057957587 -0.4943453 -1.400606 0.25567353 0.28167903 -0.28247038 -0.84925044 1.7399911 -0.071530215 -1.4089295 0.51149863 -0.19221233 0.9049567 -0.78899264
2212 -0.5625492 -0.06614148 -0.32783002 0.2021197 -0.15251282 -0.23667835 0.6115975 1.1203034 0.27812392 -1.5223693 0.2710713 -1.7369193 -0.44513863 -0.69260067 -0.25527522 -0.81379896 1.3146788 0.15727377 1.8913494 -0.53665626 0.28321427 0.48946628 0.48273137 -1.1553218 -0.8850722 -0.8442282 -1.7976873 0.4550235 -1.0079576 -0.14517827 -0.92168903 -0.04734259 -0.25128162 0.44274068 0.6282826 0.68080115 0.07439435 -0.86552835 0.72722656 0.44119272 0.30437347 -0.216573 -0.1251722 -0.7580802 1.193611 -0.41657096 0.43009457 0.20184255 1.3850399 -0.40898165 0.7048709 -0.057682883 -1.3155216 -0.24086317 -0.6308525 0.16609703 -0.9243981 -0.16783966 0.2917453 -0.40144154 -0.97126746 -0.30401143 -0.7336151 -0.6044295
1612 -1.0393589 0.46233475 -0.37380427 -0.3359454 0.55041945 -0.5868752 0.7199964 0.89514416 -0.80031186 -0.79174024 -0.10826703 -0.64729726 0.22207768 0.21397574 0.24075054 -0.4479153 0.5863878 -0.7548477 0.30485705 0.17616874 0.26400998 0.45905462 -0.93356866 -0.5001669 -1.0528134 -0.07438045 -1.925267 -0.71992034 -0.9513235 -0.5946629 -0.025161821 -0.60441196 -1.2832037 -1.19723 -0.14578824 1.5421195 0.07147858 -1.5030036 -0.016558673 1.1788162 0.7385401 0.2461628 -1.1076192 0.17086044 0.6229278 -0.1388984 0.10891162 0.6682079 0.68667316 0.41211924 1.216276 0.19002469 0.06885332 -1.0760719 0.10116383 0.48120353 -0.35707545 0.36612204 0.7292205 -0.7158036 -0.16408883 0.45409152 -0.51158357 0.1938044
75 0.7226229 0.37488365 -0.41367942 -0.900242 0.4740373 0.25787 0.6067831 0.47891393 0.6083526 -1.3527017 0.94947624 -0.5540146 1.1584711 0.49653986 0.025962733 -0.25144675 0.4623604 -0.3182636 0.9073479 0.9282376 0.29532662 -0.46104607 0.7572576 -1.1949656 -0.17050357 -0.42417133 -1.398907 0.5113222 0.14526701 0.47417676 -0.28342938 -0.67345166 -0.47662032 -0.97703254 0.56216246 0.8396578 0.5966899 1.2144004 -1.2781847 0.35854083 1.2068517 0.35339177 -1.3143219 -0.71284986 -0.109301 -0.249067 0.024061264 1.371945 0.6360438 0.6201454 0.33440316 0.11330189 -0.7823321 -0.5895537 0.21979871 0.7327882 0.19181699 1.2262924 -0.010431429 0.12115451 0.93806136 -0.55225724 0.67871207 -1.1409243
957 0.4043836 -0.34279275 -0.81954104 -0.83470035 0.1254792 0.80235046 0.84248054 1.0541015 1.1876029 0.72374403 -0.09115111 -0.73560584 -0.03855926 -0.016240943 -0.42066613 1.1780547 0.9250862 -0.75772953 1.4384127 0.51920605 0.48139367 -0.48411238 0.1936663 -1.5326664 0.9726839 -0.9323534 -1.2215773 0.589282 -0.33156174 0.14509825 -0.86035913 -0.12642981 0.19468312 -0.9201269 0.014057456 0.49662402 -0.3114623 0.046036508 -0.41154465 1.289693 0.5110362 0.5241305 -0.43060073 -0.6674285 0.18084045 -1.1812311 0.56695807 0.60622776 0.21025485 0.24138542 -0.12532349 -0.5476812 -0.8319365 -0.7570488 -0.86903715 0.2514497 0.013336818 0.4945598 1.3716857 -0.23509677 0.37028217 -0.1207922 -0.4805668 0.047270924
2795 -0.05179462 -0.606717 0.63158756 0.13479267 -0.6274748 -0.44240636 0.3235943 0.8993878 -1.0874507 -0.34584853 -0.46636456 -1.7521925 0.43087763 0.765832 -0.6464499 1.1347584 0.45603043 0.10559743 1.2051122 0.17383395 1.0323291 0.8166091 -0.13528597 -0.703564 0.55813265 0.4262042 -0.15554188 0.994206 0.07058859 0.17283514 -0.3894558 -0.14164835 0.65751827 -1.2240213 0.7062037 0.6539529 0.3108065 -0.6610714 -0.5465618 0.031851463 1.937135 -0.19746035 0.048860475 -0.85805184 0.123437576 -0.17763065 1.3476076 0.7727668 0.63896453 1.6892891 0.6851738 -0.5788182 -0.73272437 -0.03735446 0.21636485 -0.23340432 -0.34145463 -0.16911411 1.0866963 0.23162732 0.3278359 -1.1333587 -0.096526064 -0.24919389
1968 -0.35016444 -0.19620228 -0.07846446 -0.13004352 -0.32115632 0.06468978 0.25952917 0.9045456 1.2650352 -0.27019528 0.8704149 -1.5095357 -0.27288458 -0.30842623 -0.42236754 0.53657216 0.16403827 1.4573729 0.24360608 -0.7402491 0.50191224 0.97831064 0.31618795 -0.4631644 -0.4286938 0.52357334 -1.5190428 0.9620213 0.27112487 -1.4349505 -0.29119262 -0.36042845 0.36295256 -0.9506158 0.57708305 1.65667 0.24038042 -0.04149237 -0.16937579 1.2653357 0.25651538 -1.1370476 0.6585335 -0.012274818 1.1805838 1.0840542 1.006155 1.156632 -0.015297363 1.1524955 -0.03857909 -0.16169885 -0.08736146 0.34123796 -0.44266853 0.38692406 -0.71985537 0.64090925 -0.1548129 -0.47357485 0.25471413 -0.1849797 0.540164 -0.5758442
1284 -0.21710925 0.22520715 0.20193239 0.12505774 0.8187445 -0.38848746 1.4824871 0.6715976 0.26729023 -0.74445444 0.34194252 -1.6636751 0.46250808 1.1753985 -0.7238919 0.569284 -0.5028048 0.038374048 0.54748595 -0.25610065 1.1609803 1.3165491 -0.7100357 0.004673055 0.05723481 0.16703826 -0.14971034 0.31843853 -0.7503391 -0.121309824 -0.114395574 -0.55525166 -0.36351418 -0.29894757 0.60097086 1.8313872 0.6102519 -0.5825047 -0.30535945 0.44908598 0.54543173 0.879246 0.4884723 0.0045840167 0.32459158 -0.31351 0.3782547 2.1171627 -0.055997636 -0.022201778 -0.7089342 0.36734113 -0.0146763725 -0.15578361 0.7264567 0.40509596 -0.39619225 1.5973423 -0.28764072 -0.9523294 0.8483658 0.18054228 -0.7385677 -0.045786135
1604 -0.09726549 -0.5792032 0.045444563 -0.21819575 -0.20067407 -0.39820012 0.662956 1.0434517 -0.47289914 -1.4688705 0.07378517 -1.8275921 0.1478181 -0.43962976 -0.52787167 0.7800049 0.014743594 -0.20747635 0.20422253 0.18899538 1.4927385 -0.15332554 -0.38915235 -0.37544492 0.816883 0.59263474 -1.2686051 -0.9514181 -0.44498566 -0.17695616 -0.8235533 -0.18133381 0.10303259 -1.7426049 0.15998533 0.17488824 1.0191606 -0.42786574 0.19473341 0.8946809 1.1920787 1.1051921 -0.6741083 -0.29994848 -0.20804279 -0.72929746 0.9777596 1.0056957 0.58773154 0.10650275 -0.56349134 0.71228796 0.4145241 -0.79278713 -0.7162993 0.34241253 -0.7228697 1.2885771 -0.70769614 -0.8095462 0.07422739 -0.14421408 0.5883865 -0.5714753
2538 0.44416642 0.1812578 1.0606093 -0.7098318 0.18390867 -0.54669636 1.1460229 0.8681352 0.37101248 -0.88623434 1.3021059 -0.32490563 0.025271237 -0.08028202 0.18299177 0.9415572 0.22516677 0.9482212 -0.15211171 0.6489581 0.55114925 0.026346918 0.0035712577 -0.88212645 -0.13949856 0.95856607 -1.3270152 0.89233714 -0.3964429 -0.57976097 -1.0929363 -0.42570412 0.28419283 -0.48703972 0.77589273 0.75993806 0.3573518 -1.1917074 -0.15853411 1.0002112 0.87621826 0.26782802 0.42007864 -0.90357333 -0.08076847 -0.41219425 0.29550073 1.8901939 -0.017836774 0.74402565 0.9800704 0.70122176 -1.0636355 -0.49674365 0.078220464 -0.404086 -0.2972831 1.387626 -1.016279 -0.07279777 1.14478 -0.21821275 0.079916 0.10934617
1176 -0.7107631 0.5265763 0.042848945 0.7293253 -0.14558244 -0.14008929 0.8710441 1.9994968 0.34695834 0.6401118 0.38382256 -0.33460164 0.85288405 -0.653263 -0.8134234 -0.71530557 -0.107003175 -0.6867809 1.1387836 0.32234663 -0.13330474 -0.308476 -0.23098426 -0.9426631 0.32724008 -0.6955272 -1.7333881 0.30833972 -0.63193905 0.19034849 0.14420356 -0.07882349 -0.121387206 -0.29693177 0.47098154 1.6395893 0.81969345 -0.4044569 -0.47961187 0.55048054 1.6093959 -0.25522852 0.20838268 -0.044997856 -0.30084175 -0.0751999 -0.39909124 -0.19100364 1.8153039 0.39165857 0.21501093 0.24178605 0.12198005 -1.2661446 0.03748098 0.018711776 0.024242084 0.6073864 0.37777263 -0.19718705 1.1656486 -0.41884953 0.63981694 -0.71251017
2396 1.2314228 0.013200654 -0.38166735 0.43341315 -0.59225726 -0.8567722 0.3424251 0.19502698 1.0930779 -0.5827718 1.0828707 -0.52181 0.60636336 0.044330254 0.13222331 1.4676932 0.22058797 0.9380318 0.85320616 0.1250983 1.1815072 0.12656191 -0.4022897 -0.54149187 0.7745849 -0.5095886 -2.0895445 -0.33058804 -0.42444786 -1.418394 0.29788825 0.080464244 -0.92332745 -0.8334868 0.0661798 0.49700567 1.1145449 -0.14263012 -0.40537938 1.3465924 0.67420673 -0.5306921 0.4923248 -0.99417 -0.33779436 0.19971563 -0.108518824 -0.023087949 0.66535646 0.23986691 0.33499655 0.4411981 -0.30238202 0.27990973 0.3288083 -0.009110014 0.34130394 1.0371925 1.0773473 0.26216117 0.75768876 -0.039722368 -0.03101594 0.13170575
909 0.23582967 0.2290458 0.24852894 0.3219999 -0.5335941 0.4396435 1.2182822 1.2233822 0.26665124 0.66061896 1.1056644 -1.5162716 0.07970256 -0.29857647 -0.9380309 0.6959709 0.14637437 0.48276585 0.20721737 0.60339457 0.006293837 0.5103326 -0.49494347 -0.02755224 0.4914893 -0.8628536 -1.1064383 0.3788364 -0.48864332 -0.17903346 0.01860108 -0.37437665 0.36196822 0.038640298 0.059085354 1.4650035 0.44225022 0.02575215 -0.12164193 0.7014188 0.86488205 0.040596224 -0.2146042 -1.8494471 0.96103853 0.652459 0.3918606 1.3378379 0.08143588 1.0388666 -0.17718227 -0.6855576 -0.10817693 0.75634795 -0.68002105 -0.3867567 -1.7211038 0.4452806 0.8459198 -0.16389978 0.16760588 0.35904017 -0.3582856 -0.31741744
112 -0.5353069 -0.37415004 -0.22890508 1.3465158 0.47283152 -0.056624852 0.109946296 -0.5195809 0.31994593 -0.16405612 0.25672656 -1.2975205 -0.36401668 0.65505034 -1.0007093 1.0553917 0.3157468 0.31977794 0.76119274 0.03794084 1.1483624 -0.35040888 0.88909644 0.003610069 0.89281005 -0.9630614 -1.3709382 -0.21556686 0.025776893 0.13758488 -0.74012995 -0.36939615 -0.92815524 -0.73365444 0.35726023 1.4245231 -0.2189806 -0.31529772 -0.5437657 0.85595566 1.3589001 -0.2721677 0.23027875 0.14368358 -0.16514486 -0.7557969 0.64182085 0.7166295 0.6088215 -0.10353039 0.27336138 0.052516896 0.14812686 -0.8147763 0.37202203 0.41809598 -0.1153873 1.0109154 0.58176744 -0.79859877 0.37171444 -0.11196608 -0.5321433 0.53949416
