2288 64
14 0.20739423 0.069277294 0.4803052 0.24611066 -0.039150592 0.051696587 -0.43989354 -0.27332255 -0.07508726 -0.013499561 -0.090720706 -0.3941641 -0.43952847 0.462968 0.36691186 -0.009776158 -0.6473239 -0.3748019 -0.26159015 0.61113816 0.18037534 0.026052147 -0.8074372 -0.33739173 1.2695217 0.18641238 -0.8836116 -0.17602456 -0.22504765 -0.61842823 -0.29274327 -0.77500284 0.3526837 -0.32997093 -0.44654417 0.5135639 0.052292522 -0.33059767 0.42143467 0.5239375 0.30743146 0.20458487 -0.74239916 -0.77287495 -0.6026939 0.74287367 0.04349425 0.13899335 0.84507334 -0.1151803 -0.17791992 0.27819893 0.12956756 0.026208904 -0.5034448 -0.4883794 -0.14485069 -0.5674849 -0.1193143 0.12915394 -0.2963964 0.011755589 0.5664489 -0.35336238
3 0.061276615 -0.5551333 0.42097095 0.35020056 -0.34797943 0.29530516 0.34827286 -0.521196 -0.6085678 -0.35216305 -0.56782293 -0.4104013 0.16889258 0.40045264 -0.08800957 -0.48702908 -0.46340308 -0.10297151 -0.49377444 -0.021226851 -0.11772827 0.68954504 -0.42250088 0.11844315 0.20794228 0.8983259 0.061558668 -0.23901741 -0.30512288 0.040719453 -0.21978708 0.005917059 0.16463962 0.030315153 0.53566784 -0.43317375 -0.038580637 -0.49105757 0.0005303063 -0.7069918 0.5234237 0.35924506 -0.47775176 -0.45546943 -0.031270437 0.59184915 0.858861 0.55469894 0.2594915 -0.18131065 -0.01977656 0.43588623 -0.38934603 0.48733646 -0.46548313 0.2636006 0.041158967 0.05932763 0.43730456 0.4876564 -0.52550244 -0.040762685 -0.036542032 -0.5267815
25 0.24530819 -0.37142715 0.26538324 0.3957259 -0.0014451807 -0.07056561 -0.33619362 -0.50596446 0.07938493 -0.075493686 0.10995672 -0.1221789 0.6434988 -0.8884804 1.3891889 -0.5846842 -0.34608087 -0.19038826 0.028442841 -0.3159364 -0.12751295 0.34753206 0.05600385 0.21418713 0.68883514 0.44514734 -0.03570327 0.042528376 0.13744996 -0.00737252 -0.3164296 -0.29425624 0.12936158 -0.26269016 0.5399698 0.08980187 -0.26027802 -0.89183813 -0.3273403 -0.25111228 0.50864345 0.26621613 -0.5475059 -0.39771196 -0.58986366 0.29963344 0.457227 0.019933421 0.8460825 -0.12134252 -0.2738244 -0.35692993 -0.3006314 0.25700232 -0.4235084 -0.3786121 -0.11552677 -0.23075636 0.15785098 -0.17432013 -0.32840106 -0.22155774 -0.35573494 -0.44974294
10 0.32024938 0.6899028 0.5729346 0.09927848 -0.14465661 0.14364415 -0.26999393 0.257606 -0.23122492 -0.05715439 0.15010633 -1.0099924 0.60956043 0.37099493 0.111980185 0.38599867 -0.41388455 0.39120185 0.4819164 -0.69897306 0.054119248 -0.26856807 -1.315409 0.3980037 0.656045 0.9962836 -0.27175757 -0.21269646 -0.020210627 0.04555863 0.1931921 -0.6555414 -0.3219742 0.21633393 0.010403694 -0.07521533 0.67978257 0.31198442 -0.11441262 -0.28256598 -0.08245272 0.64307195 -0.20043086 -0.45804247 -0.9451105 0.2915646 0.008364049 -0.29213956 0.54831123 -0.14535576 0.27008983 -0.22561064 -0.29633874 0.7853281 -1.120075 0.3660601 0.0139612425 0.1501708 0.37292087 -0.005890185 -0.4162443 -0.2595982 0.053557027 0.056805797
8 0.15946911 -0.060660206 -0.9984611 -0.030792769 -0.7194486 0.9170861 0.09421861 -0.27306184 -0.26762044 0.16334061 -0.33216658 -0.09558004 0.5500032 -0.36056733 0.6327662 -0.20873135 -0.45631972 -0.2619395 0.62033767 0.068708576 0.25680017 0.94862384 -0.41166747 0.13184352 0.6731051 0.62588155 -0.25679335 0.43384525 -0.65675664 -0.15799895 -0.17055021 -0.22596394 -0.29735684 0.22515038 0.186446 -0.08238698 0.277477 -0.06321433 -0.3857296 -0.50236815 -0.30017924 -0.18337278 -0.57182586 -0.48569745 -0.37797672 0.30304763 0.60867476 0.5252446 0.8162197 0.10888689 -0.5039227 0.006641678 -0.55311996 0.41920245 0.10289015 0.06164911 -0.009087724 -0.4661767 0.14516638 0.15641889 -0.31097406 0.7502275 0.09086143 -0.2852461
21 -0.10349129 0.19100973 0.22481921 0.33798537 -0.8471447 -0.48079497 -0.39171883 0.27309993 -0.24644002 -0.19542089 -0.058844898 -0.25051898 -0.20178567 0.32918265 0.6848283 -0.347822 0.14705771 -0.85625565 0.52288836 0.6597616 0.0054744612 -0.0065076235 -0.56886226 0.4915735 0.8958731 0.45492223 0.1756488 -0.40921623 -0.45650694 0.020679662 -0.22182995 -0.38978252 -0.5130831 0.08280155 0.5537998 0.027492484 0.2884367 0.034638803 0.93475914 -0.4340012 0.74412334 0.6317267 -0.38811043 -0.03718936 -0.803046 0.08153506 0.78698194 0.33794326 0.33332756 -0.15927885 -0.7251871 -0.13718975 -0.90152985 1.1685914 0.34181342 -0.38072288 -0.28393266 -0.37696213 0.061802264 -0.32369274 -0.25251296 -0.19423008 -0.20869008 0.107364245
113 0.36547726 0.19393303 -0.006544114 0.12405373 -0.5995786 0.15386808 0.14697799 -0.37647405 0.15609178 -0.23515087 -0.6650242 0.7240927 0.39440542 -0.34625185 0.3340063 -0.7576537 0.15211047 -0.4765179 0.34199557 0.43947947 0.34228915 0.33687603 -0.10024039 -0.47908404 0.42897815 0.5375656 0.12856743 0.28398064 -0.29697353 0.19147451 0.11569584 -0.22258772 -0.03745915 0.25207797 -0.18139906 -0.068598345 -0.07703697 -0.20950036 0.046179414 -0.25863197 0.048770767 0.777668 -0.5081625 -0.22612903 0.046686787 0.42279083 0.6821373 0.86774796 0.6039302 -0.03232116 -0.1328233 0.19897337 -0.8464616 0.8885033 -0.39799136 0.45095053 0.122256786 -0.036718342 0.790626 0.10333011 0.20454013 -0.058500823 0.52611697 -0.20201792
87 0.52992934 -0.43302578 0.6838683 -0.22362618 -0.16378812 0.3377926 0.44221023 -0.3608675 0.16169146 -0.19946203 -0.5648868 -0.42089695 0.7059465 0.11840015 0.80425936 -1.0578707 0.21826813 -0.2934519 0.38076004 0.11590847 0.5952393 0.5242589 -0.651892 0.47629896 0.8644721 0.39118412 -0.20177752 -0.06833402 -0.106013276 0.14307195 0.23848255 -0.042922027 0.14927569 0.122221194 0.69884443 -0.418032 0.4278035 -0.36474696 0.1404799 -0.6142042 0.7623559 0.2786712 -0.6753594 -0.4555643 0.009883325 0.050248396 0.21550405 0.16687801 0.3812764 0.11799876 0.1878981 -0.5682532 -0.0009724976 0.3212275 -0.20020702 -0.25860152 0.5731428 -0.39863554 0.15683135 0.23905414 0.20267102 0.45996025 -0.30811968 -0.95637876
43 -0.029613238 -0.0067871166 -0.5332709 -0.12249122 -0.23969513 -0.2729648 0.4057103 -0.2918959 -0.42547378 0.14571492 -0.50452405 0.0703999 0.089626595 -0.1219653 0.57043755 0.24822569 -0.089965746 -0.6403068 0.16133374 0.134036 -0.24761459 0.46042505 -0.9338432 0.14153048 0.7295614 0.7305732 0.13925105 -0.07663451 -0.14400834 0.26104572 0.017528057 -0.16928963 0.0646877 -0.31910056 0.6478033 -0.1894827 0.055314634 -0.47609264 0.1885462 -0.20444255 -0.41742572 0.52060556 -0.13452381 -0.77863777 -0.37303114 0.031609822 0.9206733 0.63480693 0.4146612 -0.120927 0.4064644 -0.23527512 -0.98205847 1.1584406 0.012454893 -0.47210717 0.3377353 0.17013499 0.115171105 -0.17333867 0.49474055 0.4351656 0.43536618 -0.5093249
40 -0.004731914 0.18809803 -0.4399624 0.14131877 -0.798506 0.444973 0.4314244 -0.2170143 -0.40660203 -0.012702323 -0.90188605 -0.48921725 0.44264537 -0.23942316 0.8024316 -0.4187188 -0.5094411 -0.023286518 -0.37665302 -0.46367925 0.40716058 0.08982934 -0.024740838 0.6139225 0.40898308 0.9191703 0.06849337 0.13932276 -0.7937528 0.28630507 -0.39024785 -0.14946133 0.03490806 -0.1877939 -0.38566357 0.17072862 0.40549353 -0.88390577 0.10980626 -0.3314426 -0.16892476 0.058112845 -0.14490055 -0.39391539 -0.064377576 0.3779091 0.22041278 0.46750507 0.25060135 -0.30306306 0.23339853 0.4525445 -0.52411056 0.6255117 -0.6005676 0.08227278 -0.21699832 -0.34005916 0.41513923 0.0030951598 0.12318444 0.099235654 0.82134044 -0.7347759
69 0.51824075 0.22581197 0.15470093 0.46135318 -0.7312645 0.43438065 -0.20279907 0.05818417 -0.2634807 -0.293461 -0.16744818 -0.45201063 0.31190813 -0.82966685 0.48930687 -0.28612387 -0.41013467 -0.20410493 -0.26638436 -0.27107662 0.0897521 0.42965886 -0.53101575 -0.23044394 0.6079633 0.8095797 0.28282073 -0.44378623 -0.45665273 0.33046046 0.21106316 -0.41460356 -0.20754485 0.002887275 1.1176794 -0.32555982 0.0756014 -0.5571442 0.22331266 -0.07902064 -0.09575772 0.3778255 -0.2725124 -0.7893053 -0.5828078 0.656015 0.46139976 0.3036115 -0.22527058 -0.32685256 -0.20938745 0.023604577 -0.8924503 -0.0057917163 0.4439759 -0.103245065 -0.17734484 -0.15072502 0.24364619 0.1881943 0.5135469 0.28711647 -0.124007344 -0.78248346
51 -0.05028435 0.23808335 0.60961604 0.07813791 -0.73780394 0.5401309 0.7349679 -0.034818795 0.41797453 -0.5236871 -0.20438342 -0.8347789 1.0234171 -0.21272844 0.2420398 -0.62213224 0.4543549 -0.26513833 0.107906096 -0.25679 0.22118382 0.2672764 -0.6809396 0.09222772 0.9582973 0.06907338 0.17068262 0.45300162 -0.068208225 0.17210042 0.63203156 -0.06757746 -0.20127426 0.044901486 -0.41592383 -0.010919491 0.041079313 -0.55454725 -0.29758888 0.0412571 0.29623714 0.64548165 0.033217758 -0.48705578 0.26829976 -0.0031405757 0.16166541 0.92640036 0.695348 0.20192024 -0.22466117 -0.1532274 -0.5339162 1.2669287 -1.2547443 -0.4544842 0.12337621 0.16710772 0.08463428 0.5548817 0.45497623 -0.027323546 -0.1492258 -0.48888844
66 -0.47028482 -0.33998865 0.15426816 0.023659296 -0.560149 0.12065377 -0.19298576 -0.17299728 0.21839924 -0.53130025 -0.47452444 -0.424993 -0.06784948 0.27940163 0.2787599 -0.5178104 0.015433998 -0.8404961 0.4788223 -0.07878497 0.6915102 -0.26862296 -0.19783735 -0.18785603 0.97506124 0.8366416 0.07595239 0.22831047 -0.27672842 0.5203643 -0.17230937 -0.2074526 0.11311475 0.41410488 0.5801855 -0.12255906 0.35121384 -0.6448126 -0.15586303 -0.45170027 0.024841655 0.14191262 0.02686849 -0.48616272 -0.07434099 0.19991238 0.13365275 0.4521201 0.36386895 -0.5492062 -0.6573922 -0.6496086 -0.5344342 0.944372 0.39491868 0.5697096 -0.20397341 -0.46982622 0.17313825 -0.35611627 -0.47101316 0.3059308 -0.30048013 -1.0679016
30 0.04249609 -0.075885616 -0.4752642 0.49601832 -0.7019525 0.015303472 -0.05793951 -0.030997468 -0.37835562 0.11980492 -0.24312517 -0.14329752 0.78626686 -0.20225333 0.7052718 -0.10344232 -0.002924685 0.16302945 0.468575 0.08825126 0.532338 0.5313545 -0.24333239 -0.13205962 0.59870154 0.5895342 0.015530745 -0.03919659 -0.44897598 -0.04037187 -0.6523207 0.22700119 0.20396923 -0.16594581 0.29571778 0.8436258 -0.33918148 -1.0384023 0.30073607 -0.84409124 -0.033917516 0.6792938 0.18521369 -0.536572 0.22915134 0.49612853 0.2727593 0.61047816 0.47241208 -0.6423367 0.18628693 0.11052009 -0.8180585 0.6927716 -0.09305374 0.38816997 0.5363141 -0.76182586 0.4974661 0.41113335 0.13080807 0.3589473 0.25977316 -0.40969622
58 0.3577238 -0.42059553 -0.19237953 0.4919697 -1.0700501 0.18609557 -0.5829509 -0.47177485 0.22444482 -0.5200525 -0.29109588 -0.62938124 1.0735397 -0.2038015 0.6301514 0.3929094 0.2609085 -0.1626203 -0.22589876 0.05238486 0.2190212 0.16255139 -0.5482996 -0.25251922 0.6703445 0.42827412 0.16886942 -0.45160344 0.1997052 0.1822086 0.25521255 -0.032698803 -0.33423 0.07310753 0.2249093 0.41161808 0.4889906 -0.749257 -0.38036543 -0.53369015 -0.36782378 -0.038379006 -0.118375376 -0.5052437 -0.48726818 0.37784865 -0.09889304 0.34247744 0.3388987 -0.16705504 -0.2509336 0.27035454 -0.5021013 0.63652873 -0.6801157 0.12606588 0.19413443 -0.02339053 0.6640215 -0.21753274 -0.05309455 0.01725525 -0.27848428 -0.38497052
1 0.07699463 0.09730486 -0.0812685 0.25724408 -0.6880382 0.7605021 0.16955546 -0.25149664 0.11021131 0.0032590458 -0.42852047 -0.06747238 0.68373567 -0.65102077 0.54286695 0.28585947 -0.0887223 -0.23503028 0.077971876 0.076304175 0.40772521 -0.28046635 -0.98039633 0.4977587 0.27886176 0.89232457 0.05439371 -0.1780209 -0.0998409 0.6250721 0.47488484 -0.43758702 -0.4794921 -0.33849782 0.36197898 -0.08308413 -0.39878875 -0.27509055 -0.013588951 -0.26018912 0.25692403 0.8002098 -0.3579911 -0.471011 -0.66457164 0.32116434 0.17719336 0.48514733 0.5019513 -0.56872624 0.4338056 -0.09767955 -0.49042204 0.3350894 -0.9130992 0.22999294 0.1790974 -0.23723859 0.29090112 0.3106436 -0.07139556 -0.15803568 -0.6044555 -0.78279173
117 -0.21119271 -0.05201856 0.1955452 -0.36305985 -0.5153552 0.45680293 -0.14577378 0.11691509 -0.087287106 -0.14843214 -0.6089491 -0.58176494 -0.14847152 0.031372763 0.06411122 -0.6905563 -0.055722695 -0.15574485 0.16652451 -0.09921533 0.46764204 0.25006548 -0.5307492 0.5986144 1.0712281 0.51210177 0.060591772 0.06844302 -0.76794463 0.38775483 0.24465695 0.3804743 0.23888104 -0.505817 0.3785372 0.037677716 -0.23065215 -0.7456663 0.1383964 -0.0812816 -0.027386142 0.14581957 -0.08459204 -0.56397057 0.5433362 0.22436857 0.8871916 0.54254425 0.46134752 -0.47606435 -0.15974711 -0.52405393 -0.8819206 1.0879135 -0.19695541 0.26136994 0.13444343 0.060002882 0.5993691 0.42150387 0.3160381 0.22612159 -0.019946588 -0.69297016
95 0.48643473 -0.36447418 0.1966562 -0.34513536 -0.8140091 0.2316524 0.11116904 -0.45191947 -0.114992455 -0.59073395 -0.5586093 -0.09996894 0.8013993 -0.34204188 0.94583863 -0.23524451 0.6638197 -0.52846056 -0.2272958 0.030285072 0.30013475 -0.27098787 -0.30284017 0.18096633 0.6415545 1.1506088 -0.20913343 -0.3465175 0.039311245 0.076476574 0.19034462 -0.30857918 -0.21682076 0.28075394 0.5966035 0.08316506 -0.07966744 -0.4971131 -0.16052143 -0.18316692 0.59566426 -0.2259591 0.060337756 -0.980538 -0.15220192 0.02471455 0.60508895 0.63188964 0.7810943 -0.16082884 0.2951945 0.34859926 -0.14353976 0.4538599 -0.44518703 -0.03471605 -0.3225314 -0.27250648 0.42963272 0.02592745 -0.08544096 0.2800509 -0.38621297 -0.31315386
115 -0.1999256 0.06297684 0.4417113 0.2771713 -0.3583005 0.5648254 0.010035159 -0.07053206 -0.14651647 -0.5135196 0.089126505 0.23188145 0.41727528 -0.45145658 0.8737477 -0.5824292 0.057535958 -0.73300266 0.6798048 0.42743623 0.8194221 0.19049335 -0.24058765 -0.0058064847 0.598839 0.97980714 -0.20569 0.13475709 0.034143664 0.11104985 -0.50615 -0.4439661 -0.3386092 0.0017647482 0.5948579 -0.19712658 -0.49402913 -0.6687278 -0.04563428 -0.8699357 -0.018454293 1.0003096 -0.32261133 -0.7863097 -0.011852564 0.38705546 0.15628232 0.5865325 0.6340055 -0.5510896 0.42751622 0.12129559 0.11835782 0.4161104 0.06158267 -0.2786079 0.13069491 -0.05810133 0.41667548 0.30978483 -0.41457313 0.53124565 0.053381562 -0.8244188
121 0.10099608 0.40792567 0.8831778 0.7677313 0.061441157 0.5837134 0.9413423 -0.35503453 -0.18639357 -0.27465615 0.09620507 -1.3584461 0.54040354 -0.31219503 0.67977893 -0.8336444 0.3176506 0.16571552 0.18014094 -0.042707667 -0.02993984 -0.020304687 -0.63805985 0.7866984 0.96473813 0.51494485 -1.0450759 -0.46364605 0.04389231 -0.25615218 0.1544319 0.36557767 -0.055460963 0.10383348 -0.9824537 0.36708334 0.33445477 0.38188842 -0.4976735 0.17627425 0.3831155 0.06851931 0.46382436 -0.19925147 -0.3216613 0.19750912 0.63831806 1.6215768 0.97292274 0.34862402 -0.33769605 0.3199675 -0.37586653 1.1643729 -0.64900523 -0.4639278 -0.3331774 0.21217623 0.33440572 0.42859158 0.106905565 -0.32349026 0.20973785 -0.3097871
254 -0.10689451 -0.06927085 0.53358155 0.06383802 -1.0339562 0.1349623 0.19825149 0.07377869 0.60248727 -0.12592837 -0.4301164 -0.2672607 0.45135817 -0.34957954 0.67900544 -0.3343026 -0.3131069 -0.8322824 -0.029928343 -0.16307496 0.49405187 -0.04520372 -0.95304626 -0.020997284 0.5109058 0.5086173 -0.0488083 0.08722271 0.5349249 -0.19883688 0.7993373 -0.62909263 0.01417962 0.08504826 0.23229448 -0.4417004 0.46815422 -0.24166092 -0.013495366 -0.25481334 0.7770045 0.06893631 -0.3482578 -0.8785594 -0.42391127 0.040302783 0.058658347 0.7079457 0.8242165 0.17657089 0.052639976 0.4110888 -0.9013957 0.3147163 -0.3377089 0.46359506 0.042314935 -0.218549 0.7730642 0.52072185 0.87099683 0.70597273 -0.08214495 -0.33591124
332 0.4886793 0.043454397 -0.08068158 0.20511015 -1.0821283 0.31522483 0.24387668 0.13631453 -0.26168066 0.08998728 -0.22928841 0.09573618 -0.23153436 -0.29104346 0.0826324 0.114514835 0.08985561 -0.4475727 0.25053284 -0.45267466 0.3808073 0.46520677 -0.600844 0.102508426 0.4332214 0.41347423 0.28778574 0.6994784 0.22037484 -0.32702416 0.46113485 -0.35412908 0.17791079 0.07113495 0.20449421 -0.066403255 0.29740044 -0.026985884 -0.54167837 -0.37668374 0.22315833 0.12326576 -0.63269097 -0.2519706 -1.2215801 0.91318655 0.7671989 0.73039967 1.1221468 0.18379785 0.044198927 -0.27222627 -1.2772703 0.3457841 0.3735292 -0.11786707 -0.5553416 -0.31190202 0.68004924 -0.01409287 1.0082605 0.36889637 0.26462054 -0.23546962
509 -0.02206475 -0.250876 -0.019999152 0.63723814 -0.1666622 0.68203986 -0.054256216 -0.58739954 -0.5856559 0.051528234 -0.07964908 -0.5932802 -0.30895773 0.24631424 0.2772853 -0.88835406 0.20523065 -0.7159516 0.025680915 -0.5581908 0.3798894 -0.17188491 0.087973066 0.19318096 0.9499419 0.71367264 0.20435458 0.22665046 -0.707544 -0.2543036 -0.41568938 -0.08212789 0.29658192 0.11939434 0.7840826 -0.19907779 0.61011475 -1.178894 -0.17878355 -0.010870688 0.6142118 -0.14674045 0.047862057 0.20302416 -0.6659617 0.7339582 -0.3783904 0.098403245 1.1159269 -0.06787697 0.015989505 -0.095121846 -0.48415783 0.58362305 -0.5424441 0.69994843 -0.900781 -0.1846972 0.9353564 -0.2903313 -0.53594047 -0.4053791 0.06079733 -0.27477494
130 0.37774068 -0.31739298 -0.411427 -0.080078125 -0.6821528 0.052332573 0.02545935 -0.62525266 -0.6130859 -0.4598357 -0.29564586 -0.3464237 1.0192933 -0.30260623 0.90456235 0.42124653 0.3474197 -0.36897337 -0.052726477 -0.03976392 0.48799416 0.3172633 -0.20139366 0.42038074 0.67642736 1.059914 0.052249372 0.16739811 -0.2928028 -0.4833412 -0.4666872 -0.16694051 -0.064771436 -0.5409142 0.080361925 0.4266351 0.54049915 -0.7159307 -0.39427567 -0.15469709 0.011040015 0.20504068 0.46309578 -1.1400808 -0.09166478 0.27491665 0.93224585 0.17104542 0.5724031 -0.25304598 0.09292118 0.34956983 -0.623224 0.33880392 -0.035688262 -0.32001603 0.17438146 -0.98693764 0.530639 -0.37402946 0.092620805 0.5194027 -0.13029043 -0.1685333
23 0.25194025 -0.1660664 -0.36547273 -0.028654264 -0.10733775 0.23696676 0.0703144 -1.1042985 -0.5848334 -0.3033848 -0.7101988 -0.35360426 0.7088736 -0.25102687 0.7349508 0.19783615 -0.1956873 -0.19519722 -0.21789284 -0.5365477 0.51614964 -0.17226319 -0.20552997 0.24665265 0.012623231 1.4258522 0.024098389 0.3977582 -0.43162197 -0.10776554 0.11745856 0.20961978 -0.6044463 -0.17865327 -0.037367385 -0.23060498 0.7568887 -0.32445636 -0.66467786 -0.07725963 0.33620754 0.33136654 -0.17360489 -1.0428226 -0.54200137 0.6872948 1.1304256 0.5303699 0.18343176 -0.76193607 0.5135636 0.37745044 -0.5913768 0.19142945 -0.5560128 0.1011697 0.22555187 -1.098283 0.17519295 0.13936745 -0.41298777 0.63468796 -0.38472852 -0.60379434
34 0.24678591 -0.040670916 0.371905 -0.69716924 -0.47647282 -0.030814013 -0.42731056 -0.12925564 0.12587433 -0.29562476 -0.3212207 -0.99998426 0.4863214 -0.0849232 -0.36657178 0.06874166 -0.78110796 0.40891033 0.011463925 -0.5973412 -0.3659089 -0.9753684 -1.2294158 0.645333 0.79045224 0.25263807 -0.59878594 0.51946366 -0.35943726 -0.17712174 0.3641017 -0.19507572 0.07527147 0.22289091 0.9296975 0.45439926 0.35911226 0.58847356 -0.019429164 -0.9199763 -0.16905232 0.63821024 0.05944733 -0.06666538 -0.52811855 0.9881733 0.6487572 -0.38273874 0.58643764 -0.048224453 0.14487939 -0.16070662 -0.49293098 0.5947894 -1.4787858 0.41897547 0.1411965 -0.84611094 -0.12920298 1.074437 -0.49946243 0.36397502 0.19194967 0.015399542
220 -0.17745556 0.16272157 -0.39043477 -0.03207102 -0.85316783 -0.7096896 -0.0895976 -0.6351299 0.33267483 -0.38698813 -0.057720263 -0.07710241 0.9355013 -0.20587507 0.40630144 -0.6298277 -0.9704173 -0.83168864 0.40800282 -0.3826521 0.16024293 -0.06683262 -1.0591154 0.13802187 1.3221611 0.6817082 -0.99854326 0.18554826 0.49756885 -1.0862862 -0.10780832 0.09967734 -0.70218444 0.39930665 0.15451498 -1.0048376 0.947241 -0.0071025463 0.73704696 -0.28079614 1.095309 0.13581248 -0.23716964 -1.1154735 -0.962134 0.37441796 -0.16366626 0.40858626 2.0251534 0.42627788 -0.050034232 0.81906456 -1.0035231 0.2291794 -0.45749587 0.6303251 0.23197968 -0.5888993 0.6201109 0.88862365 0.9817839 0.35399798 -0.5959681 -0.2049649
180 0.29596218 -0.012170158 0.42181036 0.30245084 -0.58914465 -0.25617674 -0.15790874 -0.61088747 -1.06059 0.47017094 0.84098005 -0.24612807 0.5515765 0.14542381 -0.28731474 -1.1644188 0.56901234 0.33463392 -0.41568986 0.19621292 0.80730563 -0.41272098 -1.536758 0.65333885 0.7359676 -0.17418993 0.084739216 0.02508238 -0.09973924 -0.6139632 -0.102782935 0.2780808 -0.18377027 -0.016484072 -0.64638203 0.37084198 0.52709585 -0.7531433 0.058079313 -0.74055505 1.0608802 0.2553948 0.18250318 -0.18322246 -0.68745613 1.5114129 0.29981944 0.35334337 1.417955 -0.5703096 0.14657125 -0.9348997 -1.1592305 0.97432876 0.08170494 -0.55551016 0.69092035 -0.20786847 0.7368581 0.5206895 -0.5169712 -0.8820328 -0.48195994 -0.7640979
28 0.11059112 0.29196995 0.70245093 0.85273194 0.19397807 0.5245276 0.24948347 -0.81112164 -0.8035202 -0.7751893 -0.2970474 -1.790774 -0.017069893 0.15253015 0.45795876 -1.1428556 -0.4032198 -0.3024693 -0.03405803 -0.46995312 -0.5898147 -0.03881741 0.01721156 0.19253828 0.81034374 0.5047466 -0.75552124 -0.83018243 0.20944756 0.27358544 0.15828557 0.6801165 -0.05659097 -0.1489513 0.27379853 0.10401671 0.5585248 -0.043201335 -0.30480888 -0.374148 0.8217188 0.33577278 -0.23846208 -0.22754428 -0.6359893 0.35750115 1.1675266 2.236111 0.674952 0.5508096 -0.36293188 0.39555442 -0.7408172 0.72081816 -0.6280687 0.09084943 -0.29784843 -0.15888363 0.5272186 0.90949607 -0.38500944 0.22448824 0.3593795 -0.1001647
650 0.22911552 0.07545148 1.0211524 0.44141355 0.28705952 -0.26940942 0.26830235 -0.38762143 -0.61356205 0.49756715 0.182844 -0.9811342 0.8778585 -0.055264927 -0.33989236 -0.371198 0.15105796 0.8456533 -0.51596045 -0.17934152 0.41510165 -0.0054382 -1.2868693 0.72223127 0.3353093 0.719453 -0.8164038 -0.56712323 -0.073030524 -0.37580037 -0.047835257 0.37987968 0.12070485 0.59330606 -0.7398993 -0.07494362 0.5101489 0.13207085 -0.35757488 -0.5755409 0.4290471 0.08806675 0.11778387 -0.3561011 -0.5423019 0.67382455 0.3076392 0.48734835 0.6378326 -0.29254317 0.040748995 0.31557754 -0.56350124 1.099651 -0.16036631 0.07096808 0.4439054 0.2220204 0.7737751 0.4837659 -0.7013521 -0.5990353 0.08406778 -0.3952503
17 -0.18508829 0.5676287 0.00824121 1.0817002 -0.12269307 -1.0625801 0.024838004 -0.24681795 -0.30098793 0.6181943 0.11872547 -0.7683985 -0.9348985 0.037571922 0.39096 -0.4479128 0.18724439 -0.739366 -0.2960849 -0.09405244 0.42528114 0.1803725 -1.2477325 -0.34309778 1.113108 0.20132154 -0.12682547 0.94510937 -0.45350242 -0.048357144 -0.500241 -0.3782919 0.46971026 -0.028303975 -0.08976476 0.06830216 0.26770335 0.5713302 0.8110134 -1.3605745 -0.05970421 0.5614983 -1.2891281 -0.45269367 -0.753902 0.061461784 1.4393518 0.23720996 0.8064162 -0.41924542 -0.71736175 -0.3293705 -0.72582555 0.3356215 -0.4314419 0.41712874 -0.22479062 -0.21646811 -0.364707 0.03135254 -0.23230627 0.0032834453 0.22394727 -0.5692418
1500 0.8134385 -0.34340206 0.7044035 1.2406483 -0.27298406 -0.25265843 -0.88474846 -0.50598603 -0.58899015 -0.26508343 -1.0864776 -1.5313736 -0.36273187 -0.23441668 0.6305672 0.22052562 0.35630432 -0.9591495 1.0714897 -0.17199329 0.030318517 0.23957574 -0.887925 0.963187 0.8083906 0.2952477 -0.2749037 0.2343982 -0.48059365 -0.3457668 0.2349335 -0.12494747 0.4631594 0.85252106 0.51235 -0.13858368 0.26600927 0.04772487 0.3490726 0.41600758 -0.45367804 0.56784225 0.4443182 -0.67647254 -1.1061392 1.2337074 0.18362357 1.2843025 1.3416611 -0.5248562 0.11398225 -1.0897001 -0.87440485 -0.64951843 -1.182058 -0.3539866 0.5160657 -0.74381566 -0.01709985 -0.37172812 0.57254344 0.7721885 -0.011725323 0.18614036
1076 0.2244921 0.6347019 0.11684489 0.9749441 0.18047667 -0.46589792 -0.35570115 -0.0630287 -0.6035649 0.35384077 0.13220473 -1.1721758 -0.40087435 -0.060077023 0.17574786 -0.0006314672 -0.3475487 -0.2294519 0.49414316 -0.7671457 0.18262148 -0.22764952 -1.6659887 -0.10122763 1.0238974 0.23449509 -0.58965784 0.38303566 0.36015123 -0.26334774 -0.4394561 -0.36162865 0.123820215 -0.25354165 -0.50061214 -0.09834746 0.89054656 0.56875616 0.62170595 -0.6622313 -0.6763134 0.50184774 -1.0009608 -0.4528024 -0.46595377 0.12518169 0.9468544 -0.44993138 0.67896503 -0.8068225 -0.3636886 -0.48869327 -0.66326 0.16872624 -1.0065895 0.8093123 -0.27986482 0.27207372 0.08436722 0.38746753 -0.29243642 -0.31686133 -0.29038295 -0.9781171
100 0.18616271 -0.074088104 -0.34625491 0.55159366 -0.7460606 0.06873529 -0.7673001 -0.5684372 -0.47956833 -0.94680524 -0.55814785 -0.72094 0.2331875 -0.04242099 0.48383108 0.2758286 0.14095819 -0.7303601 -0.08993784 -0.118879944 0.5692664 -0.3782935 -0.16835873 0.25303644 0.71086997 1.545503 -0.07673049 -0.048625268 -0.934342 0.12942359 0.63280654 -0.10878204 -0.047376804 -0.084726244 0.3264984 0.14720364 0.6234411 -0.8755697 -0.09345791 -0.42666563 0.18594614 -0.15698874 0.23765093 -1.1542685 -0.25195107 0.58113223 0.5907122 0.22616665 -0.009123069 -0.2468722 -0.23680113 0.6398951 -0.646391 0.20034422 -0.23791517 0.17266087 -0.643312 -0.8695838 0.38671803 -0.564756 -0.26342374 0.41719642 -0.3782471 -0.7665978
731 1.442644 -1.2453555 -0.21018153 0.13445613 -0.3369846 -0.51751053 0.013954184 -0.8129075 -0.065189965 0.29210004 0.30888623 -0.87213975 -0.34749156 1.1625004 -0.028495671 -0.43852267 -0.24564564 0.18511648 0.5180623 0.08053201 -0.08004422 0.050105833 0.19524 0.34649634 0.7278727 0.50195944 -0.20568171 0.43961263 -0.1845472 -0.6540058 -0.64580524 0.33255732 0.46556062 -0.21055645 0.8147034 0.12582578 -0.13594392 -0.29615945 -0.36394173 -0.47894198 0.6263517 0.7639356 -0.0010560032 -0.69773215 -0.6995018 0.19040823 0.25602013 1.1841972 0.4731593 -0.09178636 0.46063128 -0.36235702 -0.6266271 -0.0012896961 -1.0957798 -0.24232101 0.68195796 -0.19903101 -0.01712739 0.5405326 -0.32006037 0.42714202 0.5551416 -1.411497
466 0.5644689 -0.43802217 0.92733675 0.96996456 -1.5064151 -1.0173466 -0.356612 -0.025246073 -0.54908085 0.98998016 0.45880076 -1.1955152 0.20901379 -0.5870294 -0.4204335 0.25545695 -0.3784363 -0.42600337 0.67410403 -0.055166252 -0.20216434 -0.6336432 -0.88811445 -0.45342234 1.1007012 0.94244725 -0.5639084 0.17349195 -0.37289283 -1.4176685 0.30190715 -0.40114623 -0.7052077 0.3373559 0.4579356 0.08709652 0.09575368 -0.30125052 -0.6740132 -1.0379577 0.8684523 1.1708258 0.7516027 -0.14730296 -0.60952425 0.6656601 0.2866559 -0.0961329 0.50484705 -0.74894077 -0.17937432 0.50298977 -0.54227126 0.4720293 -0.13244767 -0.6383336 -0.6693132 -0.078979485 0.042623814 -0.48208776 -0.5171228 1.0089365 0.08496877 -0.9682432
173 1.5685594 0.08790771 -0.33877757 0.7031976 -0.5926545 0.27786344 -0.620874 -0.5859118 -0.19155681 -1.0042171 0.49458638 -0.7816995 0.8970248 -0.4698185 -0.2333891 0.26337773 -0.12976071 -0.54706806 -0.7716592 0.052116483 -0.4654103 0.17005584 -0.8549247 0.042158075 0.74341226 0.3913518 -0.44853982 -0.21279725 -0.061224163 -0.5301695 0.12444756 -0.19952698 -0.5977133 0.23779692 -0.2551063 0.50085264 0.013718375 -0.64353055 -0.62746006 -1.0571043 0.19401479 0.19813658 -0.600016 -0.6788796 -0.5142565 0.2886641 -0.5534143 0.16280463 1.1007962 -0.67502534 -0.8119045 0.25769663 -0.21207099 0.9345074 -0.6834175 -0.44524708 0.17052484 -0.57139486 0.8671304 -0.35665604 0.33105943 -0.19303119 -0.27821076 -1.1463325
647 -0.22803432 -0.5771963 0.4010728 1.1381346 -0.7830211 -0.8104344 0.18286063 -0.4727489 -1.0839411 -0.35446104 0.4376214 0.020454172 0.50280404 -0.23262241 0.088668905 0.47772688 -0.7951277 -0.7426665 0.5855661 0.4421231 0.9710219 -0.27831864 -0.2714318 0.68689907 1.2420217 0.3003808 -1.117975 0.0057567116 -0.6915575 -0.84008765 0.19341269 -0.27794942 0.59568995 0.026365772 0.1503194 0.15587832 0.49208912 1.2557238 0.8499273 -0.7048482 1.4326946 0.7090085 0.4548665 -0.5208835 0.14800578 1.0470206 0.3702569 -0.23761083 1.3359108 -0.16827895 0.5261418 -0.50888187 -1.528462 1.0794858 -1.3988416 0.50094175 0.1079577 -0.88014674 0.678852 0.22799364 0.18054347 1.3414997 -0.5959774 -0.5857668
206 0.97772074 0.69205993 0.75855213 -0.1989533 -1.2987916 -0.27534062 0.42427433 0.26652056 -0.86197966 -0.13251746 -0.22134884 -0.91453594 -0.08234293 1.3230596 0.3820001 0.0064108386 -1.0463647 -1.1124042 -0.14774911 -0.80574626 0.06655226 -1.1736354 -0.33076072 0.6811188 0.7842227 0.33538225 0.13781822 0.25040445 -0.21051936 -1.4401325 -0.2628211 -0.38068536 -0.55788803 -0.41339162 0.08380473 0.7629097 0.9163041 -0.7609979 0.6873922 -0.12871867 0.5257149 0.5918214 0.4146675 -1.6578283 -0.72621614 0.5593071 0.01104874 1.9889523 0.72388226 -0.444909 -0.6040586 -0.012320885 -1.2145426 0.11967024 -0.030565696 0.35922855 -0.1915544 -0.84777725 0.08014345 0.5074896 -0.31027782 -0.059043355 -0.38522056 -0.6498416
403 0.8918696 -0.37010306 0.11440309 -0.31331646 0.35423952 -0.25005928 -0.012464041 -0.19838774 0.43361512 -0.597528 0.7285982 -1.0605023 0.4959693 -0.28806537 0.67295283 -0.8637864 -0.42393294 -0.20672962 -0.27709633 -0.67818433 0.7399961 -0.023700286 0.09944258 0.6444776 0.4956723 0.26299363 -0.21902683 0.16652636 0.20473413 -0.70425683 0.090298675 -0.22465962 -0.2485267 -0.07706273 0.25217345 0.5044144 -0.24616735 -0.11043429 0.21343769 -0.3718016 -0.1922071 0.83055526 -0.9426182 -0.3599242 -0.6979649 1.3103259 0.36953914 -0.36108217 1.029265 0.035461824 -0.17611438 0.026413089 -0.69693446 0.595964 -0.08642984 -0.8842368 -0.5876236 -0.09116153 0.524036 -0.08175288 0.025473393 -0.8980889 -0.30007356 -0.542404
185 0.46844846 -0.23265427 0.27453488 0.48929155 0.29838172 -0.18192641 -0.12980326 -0.9972226 -0.69966924 -0.36444303 0.91082984 -1.2097063 0.37220088 -0.98741865 0.47981995 -0.2819357 0.23667735 -0.7281131 0.33789235 -0.11009526 -0.34885624 0.23294033 0.1001464 0.38596836 1.4583778 1.0817747 -0.45314097 0.3922452 -0.074741624 -0.07373488 -0.23406301 -0.08569129 -0.22267735 0.17624365 0.36806843 0.31458902 0.44481996 -0.62118506 -0.26490974 -1.0845119 0.7032084 0.095609576 -0.50147796 0.14352351 -0.26947874 0.2786701 0.49828354 -0.1816015 1.2111781 -0.23767585 -0.3692874 -0.22805494 0.24709313 -0.3905437 -0.60468566 0.27754048 -0.5983882 -0.047377653 0.72894883 -0.19558811 0.5796029 0.0998468 -0.24233963 -0.66555005
1458 0.0126781855 -0.27440286 0.16265818 -0.24137215 -0.4875567 0.07908487 0.5688334 -0.530499 -0.46528003 -0.29501775 -0.4184657 -0.6499763 -0.20316008 0.391736 0.28260458 -1.1926789 -0.30815074 0.2509203 -0.6515031 0.17186856 -0.22462544 -0.2516379 -0.25773835 1.1452186 0.59572643 0.65087074 -0.40617174 -0.24725415 -0.94035923 -0.063170135 -0.13240254 0.089058615 -0.53900605 -0.22021015 -0.2295152 0.22779171 0.18561305 -1.0488664 0.04739031 -0.65113264 -0.24704108 -0.021848332 -0.16894977 -0.73778605 -0.0311182 1.2253102 0.79211247 0.29140502 0.5781546 -1.260376 -0.024764074 -0.29619148 -0.9872106 0.83204406 -0.4168105 -0.14942086 0.23430727 0.19659129 0.46826822 0.5657098 -0.1848767 -0.10712952 0.39485696 -0.46050534
147 0.1162706 0.37940148 -0.02313643 0.08721603 0.027628869 -0.391528 -0.40383786 -0.63770384 -0.17498007 -0.8255959 0.18760061 -0.20344873 0.30249012 0.04408919 0.34477818 -0.4823309 -0.96131015 0.38459167 0.5900966 0.44323385 0.16469087 0.45902237 -1.1426522 0.119550005 0.5909883 0.3902268 0.19870335 0.0024387592 -0.47458375 -0.2612678 -0.10482247 0.0032607599 0.1005645 0.030101215 0.7436131 0.4943129 0.26160613 -0.028721087 0.14259225 -0.057806775 -0.93883264 0.6501455 -0.5433404 0.08520157 -0.7111161 0.95835054 0.49560362 0.117810436 1.1474488 -0.03697572 0.42893603 -0.12893617 0.47641802 0.87414753 0.010746042 -1.1422682 -0.28018603 -0.1306564 0.49304625 0.19470161 0.24156734 0.25151953 0.28133428 -0.80347157
1407 0.30654627 0.7445604 0.09645858 0.8837476 -0.49785906 -0.39261794 -0.29833892 -0.5748315 0.43073785 0.2450266 -0.723955 -0.58307236 0.056014746 1.2453951 0.14633393 -1.6967918 -0.81323755 -0.90021914 1.1146781 -0.43680564 0.54229414 0.120956406 -0.8585839 -0.2827504 -0.16182892 -0.3205309 -0.30502662 0.6768356 -0.18852378 -0.8583986 0.5848282 -0.06144879 -0.3452187 -0.32084244 -0.21837312 0.23094182 -0.040226866 0.3422698 -0.20677625 0.4107716 0.4516166 1.0492034 0.8100825 0.04408341 -1.3142409 0.7256494 0.98702633 1.4055152 1.12651 0.0062137707 -0.5428396 -0.473136 0.16772039 0.7675667 -1.3881536 -0.7974157 0.25524977 -0.919573 1.2920604 0.45843786 0.059883006 -0.18068668 0.17813651 -0.6322433
19 0.2094612 0.98515964 1.0815957 0.47368795 -0.6342762 -0.26379922 -0.37482348 -0.44730252 -0.19897014 0.35861635 -0.33047953 -1.467344 0.000914701 0.9010343 0.5936306 0.12639087 -0.15433554 0.17440118 1.1641346 -0.8842988 0.8469515 -0.4608863 -1.6477793 0.47174895 0.75185907 0.25209323 -0.69469446 -0.25193998 0.18593693 -0.48490912 -0.4997343 -0.73567015 -0.46330893 1.0295948 0.88234603 0.6842696 0.24869283 -0.70678025 -0.29731065 -0.504068 -0.10120692 1.5870048 -0.36283162 -0.17252289 -0.45411456 0.4463583 -0.31555113 -0.027809123 1.0434572 -0.047650177 0.555402 0.21427657 -0.47245562 0.29656315 -0.7004911 0.19787109 0.8570928 -0.08996691 0.8183078 -0.20716672 -0.50850165 -0.12591615 0.02126763 0.115233526
1197 0.29183507 0.5350797 -0.006242864 0.6862938 -0.46851748 -0.19819593 -0.56793815 -0.528405 0.7253372 -0.2796006 -0.26260346 0.4422405 0.1837344 0.33585447 0.056301463 -1.4754105 -0.791848 -0.307033 0.6323133 0.09486441 0.31936672 0.11741787 -0.5444685 -0.36693138 -0.020435099 0.2446035 0.67860496 0.30374083 -0.43161336 -0.6791543 0.35379988 -0.21059301 -0.4560349 -0.3970092 0.00803658 0.82189715 -0.3211532 0.13794905 -0.10217138 -0.020654889 0.18334083 0.64151996 0.017646775 -0.19810289 -0.4061736 0.77803177 0.64920366 0.6733752 1.2470845 0.24798933 -0.708766 -0.12648244 -0.09595814 0.8744037 -0.44638586 -0.08504303 -0.37397775 -0.73936224 0.7351567 0.7259345 0.04634571 -0.20395207 0.55060995 -1.2337751
1491 0.627723 0.47102687 0.9871941 0.974738 -0.18692362 -0.13922314 0.25017688 0.3257621 -1.1232303 0.3663482 0.09511959 -0.09184409 0.021987384 -0.54373884 -0.82086027 -1.0175745 -0.5313493 -0.9520627 0.26153055 0.044316765 0.25813127 -0.61210394 -0.75567573 -0.00022382675 1.4556174 0.5068 0.280306 1.007941 0.26885244 -1.0065792 1.1048388 -0.8805715 -0.096649855 -0.4914623 0.6117003 0.6184219 -0.009958405 0.6975271 0.031881742 -0.3829974 1.0644935 1.0063697 0.16698739 -0.86381286 -1.2588197 1.191438 0.08367938 0.83311546 0.8696387 -0.20791806 -0.24034792 0.5631466 -0.56908864 0.0036323483 -1.6300952 -0.54548085 0.017223286 0.6972388 0.23745072 0.048363935 0.33781806 -1.1501517 0.3757979 -0.53279346
75 -0.1642086 0.06916406 -0.3319629 0.16194314 -0.67508614 -0.5836119 -1.0886328 -0.56052125 -0.82180256 -0.6095874 0.6289391 -0.9567409 0.23471628 0.15504153 -0.29448032 -0.964709 -0.49599218 -0.352915 -0.61936116 0.2741238 0.49169385 -0.07729077 -0.44077265 0.5941281 0.975829 0.93785805 0.3245647 -0.22630775 -0.29753616 -0.4744178 -0.12235113 -0.3074332 0.46955404 0.15354474 0.41429582 -0.5052329 0.0070195734 -0.025535299 0.91833496 -0.6079425 -0.46611592 0.57458705 -0.23113164 0.23677917 -0.47346517 1.033842 -0.39795706 0.49458113 1.244907 -0.23861136 0.027165025 -0.15616387 -0.28119978 0.24783373 -0.44980264 -0.92488503 -0.8079061 -0.042461004 0.82957053 -0.24614489 0.18726139 -0.6451375 0.7629172 -0.0044832807
927 0.49541655 -0.5884988 1.0625501 0.9752729 -1.0899493 -0.18878171 0.058787636 -0.09874037 0.018823655 -0.4349706 -0.12686346 -0.44470218 0.20976986 0.26592126 0.18341845 0.35647142 -0.23147498 -0.0075057964 0.93003947 -0.74316823 -0.047450937 -0.008734493 -1.5280136 -0.55369073 0.8254877 0.55114627 0.5758593 0.2810779 -0.7742137 -0.87464964 -0.9354802 0.1283875 -0.53724426 0.9097786 -0.2191119 0.78497857 0.61358964 0.55641 0.2445966 -0.8142771 0.58199644 0.17327568 0.45490918 0.3403897 -1.0623344 0.6835481 0.4033749 -0.20924695 0.3121912 -1.1444355 0.5223681 0.019004611 -0.43573096 0.706046 -1.0626122 -0.34429336 -0.32570103 -0.43172637 0.53958094 0.30427733 0.28753734 0.2372408 0.16227853 -1.6073865
415 0.45626494 0.10996067 0.80482763 0.1612029 -0.02266667 -0.24136281 -0.38450265 0.1855076 -0.7307834 0.40956044 -0.7311552 -0.6472453 -0.23744194 0.6864587 0.02015838 0.46016932 -0.1005968 -0.12626305 -0.0010426028 0.5146563 -0.6195135 0.40861857 -0.9069038 -0.11359762 0.76007134 0.8029262 -0.07793653 -0.9180089 -0.2763495 0.089380145 -0.18383925 -0.27843773 0.31631058 -0.27907 0.17463776 -0.26615873 0.37969714 -0.3469005 0.29836854 0.37276947 -0.062514275 0.76986104 -0.66259193 -0.40675503 -0.6822215 0.34527755 0.44190946 -0.021162007 0.41995135 -0.29075888 0.3443231 -0.20069563 -0.9150524 1.2617112 -0.40640524 -0.37623468 0.033105228 -0.39337823 0.1564422 0.15235922 -0.79994595 0.042574324 0.21095236 0.18255155
178 0.8443225 0.07465036 -0.060312923 -0.042739887 0.27277988 -0.2918992 -0.4926887 -0.35501552 -0.098737985 -0.5866695 0.7619662 -0.5467411 0.2704074 -0.10805471 -0.22421947 -0.95003366 -0.68383914 -0.019386498 -0.55757195 -0.3280393 0.30800182 -0.020342445 -0.35999086 0.4752875 0.38444385 0.045581587 -0.21165517 0.046650786 -0.3091217 -0.90000546 0.26937976 -0.0680811 -0.3450216 -0.034120798 0.29844946 0.7820108 -0.063753866 0.2631976 -0.13391623 -0.33533177 -0.24186376 0.535764 -0.69565064 -0.12699147 -0.43239456 0.8351098 0.16032253 -0.18662487 1.167934 -0.02920658 -0.1682609 0.085764796 0.0543773 0.93147963 -0.05874768 -1.0772629 -0.68320036 -0.63713396 0.7950199 -0.17911811 -0.07374447 -0.42550248 -0.14043048 -0.63766277
93 1.0202644 -0.072686166 -0.20286298 0.5023139 0.03349003 0.14880152 -0.5782466 -0.6649321 -0.3412228 -0.5496219 0.6640782 -0.250266 0.64167297 -0.7078606 -0.086755194 -0.8412605 -0.44808927 0.06500657 -0.7067746 -0.17721316 -0.14755455 0.0634523 -0.07147081 0.50685096 0.6152431 0.023506982 -0.12666844 -0.036495112 -0.3026841 -0.99907774 -0.089971095 -0.1490858 -0.5787042 0.0012453204 0.5569536 0.34247762 -0.21874093 -0.28576955 -0.3035887 -0.49886265 0.041163534 0.6275165 -0.80877376 -0.50968283 -0.5525315 0.39203998 -0.41197062 -0.22106302 1.5613667 -0.19905038 -0.7035429 0.3072882 0.14986682 0.8048312 -0.37098694 -0.76666987 -0.44100106 -0.6915896 0.59629804 -0.14889085 0.27363485 -0.37468764 0.14658073 -0.5894239
2064 0.46563303 0.59678215 0.2432833 0.35475448 -0.35671902 -0.17041266 0.1631624 0.030201985 -0.36661518 -1.2634127 0.034037177 -0.28828683 -1.2398341 -0.17194256 -0.17986652 -0.91913205 -0.8851554 -0.5375486 0.35181105 -0.85541004 0.034477834 -0.12106756 -0.28744 0.8833287 2.3301382 0.6926478 -0.16833629 -0.059493247 -1.0911875 -0.98818344 -0.23069285 0.0301384 -1.0674047 -0.40513468 0.32301745 0.39794427 0.22254547 -0.3414424 0.0011175431 -0.9186041 0.3054148 0.58959347 0.37227887 -0.5333661 -0.50188124 0.95643693 0.7022225 -0.0037562773 1.1748208 -1.1247491 -0.18595819 -1.0645174 -0.16332121 0.5246136 -0.90459573 -0.01750787 1.1920944 0.52148396 -0.608661 0.5307363 0.3340793 -0.5169204 0.50813115 -0.41316527
974 0.67799866 0.5428499 0.07169873 0.5309798 -0.8798165 -0.7632275 0.16872282 -0.98283565 -1.051137 -1.0929577 -0.9016904 -1.6683887 -0.6169299 -0.49343726 -0.24842794 -0.38360974 -0.76360404 -0.20158185 0.5489909 -0.045737594 0.28480238 -0.48610294 -0.38602814 -0.2533386 1.0700774 1.1276401 -0.71584463 0.69959795 0.41868728 0.4552798 -0.21914107 -0.234302 0.31295276 0.2998282 0.9078522 0.12575561 1.0931814 -0.34338546 -0.68196434 -0.44258165 0.82979673 1.2977881 -0.11771021 -1.1693454 -1.2400706 0.33830678 -0.30214244 -0.47341746 0.6333091 0.241479 0.16362755 0.3246646 -0.5173837 0.05484852 -0.7738366 -1.442985 0.6341437 -0.53023374 -0.31692764 -0.49282607 -0.116244674 -0.25839388 -0.5937082 -0.28586045
433 0.9165479 0.23054825 0.5578948 1.3395964 -0.9041497 0.5314855 0.38202122 -1.4523678 -0.5341736 -0.84071356 0.821008 -0.57163846 0.6948633 0.33478022 -0.10894582 -0.9324112 -0.43437198 0.19918773 -0.031467248 -0.2986708 1.0496517 -0.7516372 -0.2588351 0.15722644 0.772641 0.07412591 -0.35711074 0.48463103 -0.49914244 -0.7982461 -0.19819109 -0.53902066 -0.025691051 1.7438089 0.18021715 1.1333404 0.79539716 0.015638242 0.71018475 -0.38209614 -0.07142634 1.3851172 -0.32443628 -0.16156682 -0.4687145 -0.22563885 -0.18619485 0.639088 0.43459716 0.7222203 -0.69380575 -0.59805715 -0.48798966 1.1478975 -0.21129061 -0.5797038 0.91003096 0.32161316 0.73476076 -0.11622767 -0.21940404 0.10311553 0.6333911 -1.2885332
814 1.3820113 -0.5533773 1.4879202 0.33004478 -0.46151385 0.7106758 -0.012233422 -1.4120469 -0.7637885 1.0658436 -0.9021055 -0.9178197 -0.4526625 -0.18410298 0.506646 -0.42741555 -0.5250872 -0.17200837 0.28745243 -0.4924057 0.6282089 -0.37146845 -0.27153078 -0.4338154 1.8515637 0.3379227 -0.40238178 0.79336137 0.3055242 -0.45647413 0.25023693 -0.5980868 -0.4624219 -0.16463538 0.46339843 0.39487138 0.75696975 0.38524732 0.45068082 -1.1730621 -0.19950375 0.6413386 0.66720414 -0.037722673 -0.5211405 0.6524708 -0.40150538 0.31375167 1.339039 -0.3314623 -0.0076976866 -0.06531453 -1.1679287 0.87032455 0.31747976 -0.7896223 -0.18590048 -0.3645083 -0.074899115 0.9147399 0.5973304 -0.70150596 0.56510884 -0.08106629
968 0.24539517 0.35040754 0.49625137 0.47900602 -0.38032162 0.24439692 0.40713876 -0.3378174 0.17944768 -0.5097822 0.36482343 -1.3057815 0.7076476 0.01302146 0.1980159 -1.1826682 0.5319967 -0.11472745 0.063440286 -0.11297194 1.0324353 -0.4097474 -0.875374 -0.6010995 1.4171649 -0.11059647 0.079046875 0.8807287 0.1513974 -0.3422732 0.35321873 -0.44652593 -0.14494468 0.7295011 -0.34642243 -0.30208048 0.30634364 0.26457283 0.06382594 0.0025003504 0.62585497 1.0993596 0.06833846 0.10889285 0.40856102 -0.078214526 -0.14513257 1.0344814 1.2362635 0.02660913 -0.35854077 -0.4849371 -1.312633 1.0008183 -1.7376676 -0.96667504 -0.36712435 -0.07231002 -0.3516376 -0.18467914 0.89522654 0.91284513 -0.12635507 -0.14008951
1031 0.34958017 0.013413078 0.25654858 -0.19595124 -0.19511276 -0.45927933 -0.55735683 -0.08378204 0.40057942 -1.2139058 0.19167179 -0.7474049 -0.13242073 -0.06297822 -0.06381937 -0.30187303 -0.2205686 -0.025237968 -0.60539937 -0.11777105 0.80611557 -0.082864895 -0.48353928 1.2192541 1.1421008 0.93459463 0.56185097 0.001052591 -0.8071667 -1.2594365 -0.15171452 -0.12863643 0.35111666 0.33334896 0.47142518 -0.40459076 0.3396537 0.11898165 -0.2518806 -0.15718871 -0.9418634 1.2822766 -0.33910125 -0.34151125 -0.3754996 0.70496637 0.2774495 0.77517426 1.7825899 0.12858538 0.39278534 0.1653931 -0.32591876 0.20626329 -0.2276809 -1.0305094 -0.37494987 -0.23260377 0.10031609 -0.4042979 0.23533255 -0.5824493 0.4554547 -0.26116046
1069 0.65411 0.14527439 0.4497808 -0.24645865 -0.0022616186 -0.04408013 -0.35015652 0.4134305 0.19108135 -0.43369582 -0.10428752 -0.9194398 -0.042547707 0.22180732 -0.22028694 -0.12872915 -0.4552072 0.24677722 0.2684615 -0.74624056 0.95175874 0.11879581 -0.8156782 0.93325984 0.8150054 0.49526992 0.688054 0.12788612 0.29071543 -1.1460916 0.27116778 -0.6736112 0.31686646 0.35427147 -0.106513426 -0.13193278 0.5478786 0.097417824 -0.28887528 -0.16835462 -0.44835702 0.55871046 -0.74666446 0.043466978 -0.9358151 1.0568278 -0.105796985 -0.14104347 1.3073217 -0.3100949 0.24449104 -0.27353993 -1.0017811 0.48954675 -0.51219976 -0.66472226 -0.45042595 0.026737617 0.4261096 -0.07152015 -0.40580335 -0.5901789 -0.21620598 -0.08504296
1374 0.7514496 0.4247462 -0.08619919 0.86348444 0.042141378 -0.26581204 -0.9940401 0.12843013 -0.29408967 -0.2766031 -0.45419586 -0.42795143 -0.55152744 0.80308914 0.75086254 -0.40914533 0.0136335315 -0.49056125 -0.6525031 0.51679415 0.27593333 0.5270136 -1.0526702 -0.6092938 1.9489911 0.48642212 -1.1448467 0.5568261 -0.7612319 -0.41710773 0.10495844 -0.3997388 1.0084828 0.26634964 0.08243588 0.59130216 -0.28980923 0.28414062 -0.30516356 -0.39408034 0.9990319 0.7764834 -0.52243453 -0.44245487 -0.11291578 0.80533725 -0.7120882 0.36171135 1.3556186 0.005348874 0.61502576 0.31739107 -0.25900868 -0.14355181 -0.37238201 0.04292685 0.42312032 -0.5914594 0.14284758 -0.27705196 -0.018802237 0.51042145 0.7582092 -0.5720319
198 0.23165685 0.8220886 0.687672 0.31158173 -0.5089001 -0.034285575 -0.56315935 -0.9117823 0.36470956 0.015552042 0.056058053 -1.0526652 -0.2013676 0.60756344 0.7678647 -0.52309406 -0.042980075 -0.7415946 -0.76699525 0.2295006 -0.62130445 -0.31446853 -1.5542192 0.21645194 0.87777716 0.69320065 -1.0754232 -0.1491786 0.04914802 -1.2620043 -0.57941216 -0.21424195 -0.011606466 0.21007848 -0.1356206 1.1874561 0.10687609 -0.43101773 -0.32288864 0.71807605 0.0040825307 0.61829525 -0.33699164 -1.5866425 -0.1581633 1.0049553 0.27222234 0.022850439 0.7116133 -0.26556075 -0.42584702 -0.44452196 0.00096499454 0.66141516 0.12523417 -0.11260756 -0.01857883 -0.02840501 0.47006387 0.04904845 -0.48083332 0.65381235 1.1502316 -0.13256575
1228 0.5067223 0.1015574 -0.008159274 -0.43388212 -0.7116008 -0.3992758 -0.38882732 -0.51804996 0.08755511 -0.929732 0.15256408 -0.85068846 0.19111218 0.11130014 -0.4621021 -0.87698084 -1.0571517 -0.02545416 -0.0014219023 -0.015906092 -0.07532385 -0.75162864 -1.1497209 0.18657283 0.65036875 0.14937922 -0.71075255 0.89454114 -0.61799455 -0.35046738 0.45124748 0.13026159 -0.05121282 0.23116423 1.1002921 1.2397978 -0.0538692 0.90954053 0.034210492 -0.5938958 -0.46462595 0.5019824 -0.15542242 0.12338688 -0.36754128 1.3038565 1.0198964 -0.20832528 1.2208518 0.1296705 0.28754503 -0.09523684 0.34764826 0.8550185 -0.7254654 -0.3683396 -0.3111597 -0.8027853 0.4027578 1.1457701 0.34539184 0.47674882 -0.18297847 -0.77352566
917 0.7190158 0.011803688 0.14095767 0.6369406 -1.0869949 -0.9085387 -0.96877164 -1.1846403 -0.26066834 -0.19458719 0.03633161 -0.48370606 -0.15412304 0.6554448 -0.5723177 -1.0624841 0.186981 0.21095608 -0.06263954 -0.06398157 0.23390354 -0.61401093 -0.10917725 0.53190136 1.5989623 0.31309405 -0.88805753 0.9431144 0.041760936 -0.9139031 -0.7760169 0.5719403 -0.848303 -0.25278658 0.6365661 -0.47974646 0.74521405 -0.16888487 -0.30009246 0.23350528 0.21921322 0.4007445 0.22175314 -0.6249705 -0.9134976 0.39063683 0.37221217 1.0731192 0.20830734 -0.3591921 1.1141253 0.3678772 -1.0200222 -0.09634055 -1.0503047 -0.6087355 -0.0672364 -0.35739 0.814808 -0.4586387 0.40983814 0.16009894 0.28724453 -0.8553235
60 0.55903023 0.06165236 -1.2309233 1.0157157 0.3998708 0.38426876 -0.52249515 -0.27174857 0.29587263 -0.14025916 0.44176412 -1.7863001 -0.19572416 -0.28519714 0.8025557 0.3647189 0.62821436 -1.0306363 0.22720686 -0.24065281 0.48692477 -0.17616144 -1.4823859 0.32943356 0.8390929 0.5288857 0.07489237 0.6037629 -0.9550925 -0.6516528 -0.4993397 -0.3147523 -0.46355918 0.9506184 0.32706183 0.7086953 0.7428246 0.14826709 -0.23518507 -0.98154575 -0.14083003 0.4809746 -0.38727394 -0.446793 -0.59154797 0.4997015 0.5219516 0.041617475 0.7144738 0.42571214 -0.71275735 -0.20131424 -0.37694472 -0.28517225 0.037315298 -0.5353132 0.44446877 -0.41205913 0.14931014 0.69255966 -0.15727594 0.26534492 0.3720452 -0.15081081
1907 0.7568075 -0.00987841 0.3054377 -0.51900804 -0.8198845 -0.7095398 0.97215587 -0.5266962 -0.7807672 -0.050108828 0.3007299 0.06896032 0.4619812 -0.18365008 0.16839002 0.80090004 -0.0066443738 -0.78320265 0.4706984 0.5834751 -0.27119112 0.3599806 -0.2821206 0.24440993 1.0259587 1.0823143 -0.04693854 -0.13610329 -0.9718178 -0.049272142 0.13014786 -0.13118483 -0.4801076 -1.0158855 0.59287536 0.43373838 0.7360495 -0.5405723 0.16123635 -0.20216258 -0.3129104 1.4798503 0.44190362 -0.5732315 -0.2514267 0.64548486 0.9160321 0.26532167 1.0663242 0.6204554 0.09648513 -0.35600087 -1.0739168 0.62976456 -0.7206868 -0.6285121 0.6008544 -0.6274656 -0.029312238 0.22309399 0.9651323 0.7347334 0.13130525 -0.61878467
1825 0.84371984 0.037258975 -0.22666691 0.05536582 -0.8905618 0.5185122 0.4638489 -0.8484576 -0.6266486 0.23655848 -1.070485 -0.4359243 0.97397715 0.0718309 0.6159407 -0.64042753 -0.87073475 -0.30012378 0.7153749 -0.23993598 1.0456321 0.3713025 -0.9698035 0.43288058 1.0286037 0.009129054 -0.06490924 0.3413861 0.17658156 -0.30803883 -0.6097628 -0.21507575 0.2688105 0.39023098 0.49153605 -0.6360771 0.5329882 0.64982545 -0.2622743 -0.5938125 -0.3408258 0.2699315 -0.6397288 -0.37237367 -0.08176025 -0.12535048 0.26344892 0.8014946 0.6055369 0.30690694 -0.04274645 -0.25761443 0.10109683 0.8870293 -0.06187207 -0.1526358 0.21107203 -1.3231109 0.2672133 0.48716393 -0.23889853 1.1105492 -0.13151848 -1.1615574
215 -0.072434865 0.32457662 0.20295392 -0.12978378 -0.8285459 -0.26968825 0.01428625 -0.43746346 0.048664015 0.29818165 0.22275469 -0.6245497 0.31115764 -0.58181524 0.005454577 -0.4276562 -0.5781947 -0.077967584 -0.31987733 -0.69942343 -0.18024704 -0.45644748 -1.2862548 0.2724574 0.9781298 0.24973051 0.17773567 0.76997876 -0.3028506 -0.37840703 0.28246722 -0.1574872 -0.30324897 0.19687945 0.6580361 1.0850521 0.5983744 0.73526776 0.056455676 -0.6691174 0.39235213 0.3695762 0.37245378 -0.035927854 -0.21488129 1.1484921 0.6503299 -0.12255354 0.060674615 0.028471129 -0.45909616 -0.38025248 -1.2093527 0.41046685 -1.5342157 -0.03869908 -0.8249881 -0.8322764 -0.704108 0.48865458 -0.5807513 0.96982735 0.27281007 0.058844887
1484 0.49304336 0.55674535 0.90306324 0.49158716 -0.5508596 0.40144598 -0.3032554 0.4765511 0.10705642 -0.076612435 0.1871775 -0.8306076 -0.13431987 0.45289478 0.059596717 0.32121858 -0.0033181915 0.29557252 0.22731657 -0.4409766 0.4839883 -0.2017962 -1.6290939 0.111748196 1.1994836 1.1744589 -0.58937824 -0.05059736 -0.004648174 -0.33422992 -0.102162264 0.15127468 0.31500962 0.09209327 -0.8975415 0.4035751 0.48668104 -0.33196002 0.395675 -0.028298097 0.019539181 0.79803514 -1.0826066 -0.5607841 -0.5640256 0.7614137 -0.44026408 -0.0409228 0.89519423 0.12253252 0.0028314937 0.0036026556 0.5037032 0.016403042 -1.4644694 -0.24612717 0.43144482 -0.60404456 -0.09404475 0.28788638 -0.72004324 0.48363402 0.38426703 -0.11051568
226 0.7164116 0.2884508 -1.1996417 0.55437845 0.20127079 0.5933112 -0.3882854 -0.19582696 0.48891908 -0.15050416 0.039880294 -1.5720576 0.14691995 -0.06499433 0.7476462 0.15026152 0.44894212 -1.0845257 0.250047 -0.06282472 0.5391125 0.10185402 -1.2469181 0.16152042 0.9017092 0.67779386 0.15862352 0.76273334 -1.123974 -0.60072494 -0.70616543 -0.06711275 -0.6250069 1.1584915 0.38311997 0.4790895 0.644808 -0.0023790933 -0.56418973 -1.2058349 -0.29617035 0.034266055 -0.4552251 -0.4676588 -0.34823337 0.7691715 0.4540571 0.09284791 1.0079495 0.4021118 -0.76708037 -0.21357845 -0.4765639 0.46856257 0.43351486 -0.3484592 0.8175488 -0.33812228 -0.013883441 0.5794809 -0.24094574 0.66342133 0.64737535 -0.26439744
585 1.6349025 -0.09500683 0.26628664 0.79289144 -0.26309696 0.18272786 -0.011162695 -0.8666561 -1.1713161 0.17155822 0.28600636 0.3738585 0.24547645 -0.30599383 -0.26154152 -0.9323877 -0.27054453 0.2604666 -0.7929645 -0.3255974 -0.15321808 -0.43232608 0.26094002 0.6305466 1.3076931 0.0036569345 -0.5721576 -0.20474006 -0.7353169 -1.4708589 0.17678487 0.380355 -0.5859539 0.3241369 0.5823258 0.7148416 0.14408144 0.06526624 0.04343412 -0.92852205 -0.29487175 0.6078336 -1.1244028 -1.1507201 -0.74440056 0.030326324 0.24541056 -0.26512805 1.5501951 0.13306963 -0.7744497 0.6539253 0.0790274 1.038154 -1.049316 -0.8535783 0.022669265 -0.5827472 0.4678414 0.5012289 0.65926445 0.007142432 0.34609446 -0.37597173
1334 0.7886977 -0.29949516 0.5349178 0.9927771 -0.18800329 -0.5129934 -0.034078218 -0.6034572 -0.32346988 0.08137809 -0.046964776 -0.7490802 -0.0021705308 0.5066469 0.5847179 -0.72542775 0.46060124 -0.74753255 0.8881317 -0.4867502 0.8280539 -1.0900488 -0.73146623 0.22936618 1.6005642 0.5503153 -0.3844927 0.21716408 -1.2246325 0.4981949 -0.09257069 -0.60619116 0.50172424 0.7263559 0.49261773 0.35135156 0.02322653 -0.5322171 -0.11539924 -0.362426 -0.90316856 0.47232196 0.5073229 -1.0012274 -0.24324688 0.043933794 -0.2624407 0.050800055 0.92950225 0.14362301 -0.68407154 -0.982412 -0.09362919 1.8765839 -0.0023023318 0.9674457 -0.021800483 -1.0967666 0.2919922 -0.49628097 -0.17849919 0.13961643 -0.18773091 -1.3622208
1630 -0.50330657 -0.17226066 -0.23412706 0.6989357 -0.76109403 0.1265851 -0.7970358 -0.63656884 0.21006656 -0.5723656 0.05603298 -1.1730883 0.40261328 0.46993428 0.8780219 -0.38821736 0.26042017 -0.5273285 -0.55712944 0.32092717 0.6902968 -0.16625865 -0.65701914 -0.93871826 1.294292 0.6785439 0.030512787 -0.4008704 -0.10387281 -0.35363492 0.5351317 -0.4087917 -0.39598718 0.3087517 0.2815349 0.35521263 0.77340424 -0.44333598 0.3082758 -0.8390753 0.2867566 0.1995051 0.87940395 -0.40238762 -0.63905156 -0.061836313 0.08122445 0.5506458 0.33952293 -0.61609024 -0.25768432 -1.0863707 -0.7041377 1.2339492 -0.39790618 0.33300942 0.21466853 -0.1542821 0.481574 -0.13848536 -0.8765859 0.4925805 -0.58786947 -0.49667826
179 0.54223394 0.043506503 0.11162406 -0.010296659 -0.16198844 -0.5776627 -0.60289675 -0.40557396 0.24344413 -0.8329075 0.55251706 -0.4920469 0.41990876 0.23680757 -0.08546471 -1.3066999 -0.73613083 -0.14126231 -0.07599213 -0.124349356 0.047265414 -0.17874911 -0.5825201 0.27557987 0.11992257 0.051866278 0.15513374 0.29648364 -0.4630327 -0.67528945 0.43008795 0.28594464 -0.31393117 -0.12551591 0.55866784 1.0138658 -0.37834033 0.6801899 -0.07886633 -0.6011531 -0.176807 0.6942056 -0.34053925 0.022059364 -0.54694414 1.1933745 0.66702896 -0.044569515 1.2425227 0.25794628 -0.39629963 0.04426499 0.21721113 1.1002729 -0.31367412 -0.6319322 -0.6057384 -1.160052 0.66850126 0.24265154 0.08208831 -0.27155122 0.06738276 -0.84492046
472 0.4701141 0.29515946 -0.09486696 0.08122246 0.47603902 -0.52226675 -0.20023412 -0.2203771 -0.27845263 -0.9511882 0.6042808 -0.83147335 0.4915975 0.049822908 0.1129219 -0.8582706 -0.89052236 0.31065786 0.14617185 0.2730487 -0.07539574 0.4182507 -0.6299333 0.51239884 0.5235717 -0.09686679 -0.06325482 0.07989211 -0.22115849 -0.3672789 0.06761969 0.43099502 -0.4033255 -0.0662632 0.5549341 0.703327 0.17331524 -0.0957527 0.22021878 -0.08494279 -0.6162798 0.9066787 -1.1156383 -0.24166298 -0.86378956 1.1353576 0.4112066 -0.11211881 1.3608693 0.17573583 0.2855364 -0.06129405 0.2594448 1.5500524 -0.26654434 -1.2359061 -0.7428415 -0.3569323 1.0142481 -0.11722884 0.34709078 0.22026674 0.24560149 -1.0775219
1396 0.3974988 -0.3132158 -0.2382887 0.22067916 -0.4174666 -0.19528095 -0.3522565 0.11381903 -0.5665344 0.52047455 0.5909476 -0.37606916 0.1343078 0.526714 0.45519447 -1.0159472 -0.36840266 -0.89079297 0.21910234 -0.5802351 1.0304445 -0.09269333 -1.7288557 0.61629856 0.8541719 -0.011157748 -1.1689248 0.9416389 0.19600722 -0.51939696 -0.2452202 -0.48462287 0.021991584 1.2532618 1.1911027 0.7814599 1.5151552 0.09534439 0.17155568 -0.9598487 0.41409022 0.9868217 0.19556615 0.00809022 -0.25693327 0.5330816 -0.2929581 1.5383875 0.8636901 -0.30964798 -0.53562015 -0.120429836 -0.13423513 0.38076115 -0.90493625 -0.9424494 -0.17579138 -0.7773449 -0.9248455 -0.9520445 -0.10756896 0.52092224 0.29107645 -0.19572595
550 0.32949656 0.9062771 0.34225634 0.20864928 -0.09411656 -0.32347327 -0.11554731 -0.81564945 0.14877854 -0.0013033582 -0.25738704 -1.1195451 0.38553607 0.3033419 0.65804356 -0.8301239 -0.33819258 -1.5864409 -0.12287862 -0.40319586 -0.0800026 -0.1304546 -1.4662297 0.19334483 0.82702416 0.76566124 -0.6386583 0.2032848 0.52175695 -1.3129706 -0.5349889 -0.72903156 -0.039331827 0.500691 0.42976415 1.244982 0.5982264 -0.39221272 -0.8283322 0.1859134 -0.83298415 1.0796576 0.3448271 -1.3406426 -0.030134719 0.6003847 0.56537986 -0.021412164 0.40587458 -0.07346203 -0.595552 -0.62216043 -0.08053685 0.67481494 0.48018208 0.10597223 0.09887357 -0.37662306 0.9140328 0.11333768 -0.4938753 1.0612606 1.2073015 0.030468863
714 0.31265008 0.40826502 0.69175065 0.1840961 -1.2597142 0.12801778 0.12633006 -0.34029654 -0.17103828 0.3839759 0.5309835 -0.8917758 0.4892538 0.23066397 0.22377901 -0.5131472 -0.7369077 -0.47788024 -0.38395792 -0.89590997 -0.07818736 0.19365801 -1.016302 -0.06593111 0.8362526 0.92373353 0.29527506 0.7222972 0.22005089 -0.23730068 0.27817735 -0.032153018 -0.35024923 0.59730643 0.3065518 0.692574 0.42343873 0.6980003 0.027380327 -0.30049685 0.5946526 0.124705374 -0.25504765 -0.21645705 0.5231468 1.193302 0.09849517 0.21698579 -0.40955493 0.29420057 -0.63375795 -0.58182794 -1.6416171 0.46690157 -1.4165399 -0.43427816 -1.0290817 0.20777716 -0.15538956 0.56346804 -0.50646645 0.55693257 0.022184504 0.1021328
175 0.31744695 -0.117688 -0.09002045 0.5203769 -0.52684814 0.6092874 -0.34411585 -0.3761724 -0.2821446 0.26672274 0.14650406 -0.17367205 -0.56227535 -0.0382706 -0.13685064 -0.8274084 0.5614426 -0.26837742 0.19720443 -0.41420445 0.49275613 -0.2243096 -0.5688988 0.35921156 0.91125786 0.2762031 0.6609655 0.6944508 -0.20752122 -0.73780966 -0.21849431 -0.29151523 0.18104026 -0.020350073 0.169807 0.1066326 0.5711252 -0.8949846 -0.40602213 -0.095722035 0.7220045 -0.26239404 0.09042567 -0.031301215 -1.1709254 1.2375431 -0.43215293 -0.04625077 1.6823562 0.06469367 -0.32611138 -0.5110823 -0.8214007 0.5197335 -0.21468993 0.32597885 -0.4744942 -0.31730798 0.5568634 -0.09671087 -0.2031008 -0.5086398 -0.19055004 -0.30076534
37 0.120844096 -0.8895516 -0.073590726 0.5655555 -0.09549482 0.44691515 0.0031384674 -0.8260578 -0.1369678 0.6358303 0.2052209 -0.58235115 0.15443419 0.19412187 -0.2552945 -0.40623865 -0.3906922 0.03190539 0.82677054 0.12777212 -0.6374163 -0.46816033 0.2724488 0.48660952 1.6935476 0.38732195 0.43051213 1.5115408 -0.91890275 -0.6987164 0.38240975 -0.60804397 -0.1962705 0.29348803 0.08563628 -0.4628591 0.84863 0.29689285 -0.6581734 0.4714478 0.8025347 1.0900726 -0.7145169 -0.8483565 -0.4134032 -0.38803548 1.3567922 0.4907716 1.3078735 -0.43722385 -0.052700616 -0.26092896 -1.2562553 -0.22045651 -0.19980627 -0.93318325 -0.3425236 -0.66535044 1.3915929 0.5383406 -0.2954839 0.52252644 0.055288713 -0.93893
1315 0.6574422 -0.36536446 0.15728489 1.3465788 -0.10582647 -1.1827381 -0.48558185 -0.47734272 0.19894336 -0.028204748 -0.5025376 -0.7492206 0.2610531 0.27346647 0.24535772 -0.23787811 -1.0713959 -1.470487 -0.1921602 -0.602822 0.29469422 -0.44530544 0.027358035 0.5470781 1.3273269 0.6161314 -0.5939916 -0.02960226 -0.54383284 -1.2224022 -0.6354713 -0.000104758765 -1.0679154 1.0283228 0.14951539 -0.30389088 0.4129353 0.203545 0.6748038 -0.08409511 -0.11018575 0.5805709 -0.13542975 -1.3607975 -0.16120994 -0.39133507 0.7058114 0.17769319 0.319475 0.42538452 -0.1150405 -0.29957333 -0.6327041 -0.14090623 -0.89610624 -0.51437795 0.4234718 0.050993327 0.38869482 0.9947007 -0.7908179 -0.28032297 1.1959691 -0.34784862
1530 1.1248219 -0.8165945 0.11893138 0.52355427 -0.8523782 -0.9765521 -0.73907584 -1.2968899 -0.030463608 0.14155819 0.15969203 -0.99310404 -0.19633721 1.4564915 -0.2964661 -0.6985074 0.10280467 0.18557888 0.61256766 -0.039720155 -0.23306817 -0.43311623 -0.12597202 0.5970514 1.4446877 0.436823 -0.629037 0.9585446 0.121463746 -0.95753354 -0.82977366 0.35189286 -0.15846406 -0.12065951 1.0024401 -0.26898897 0.25802723 -0.47089452 -0.32614365 0.1940896 0.3688105 0.5976858 0.25357452 -0.87939805 -1.0092514 0.32985836 0.18650217 1.3427434 0.27065292 -0.2050433 0.63402474 -0.024550213 -0.7926538 -0.36771312 -1.1182834 -0.7112125 0.21389733 -0.13702306 0.22578692 -0.2037402 0.0752411 0.6050038 0.635758 -1.1160928
521 -0.06554759 0.10338749 0.33545944 0.53262043 -0.23531997 -0.36857873 -0.112853035 -0.809332 -0.53729963 0.11904421 -0.5258237 -1.1998994 -0.8141027 0.78767747 0.2936394 -0.6070792 0.30840507 -1.126194 0.51442146 -0.5640813 0.5226344 -0.69650775 -0.17252377 -0.0005344625 1.6478423 0.1981339 -0.50132966 0.62742084 -0.8105455 0.019877642 -0.120966114 0.31962997 -0.7993424 -0.5680831 1.363902 0.36849892 0.93543625 -1.2366027 0.04080779 0.30582747 0.623813 -0.10281988 0.16679052 -0.26660067 -0.2575409 0.30280405 -0.3262778 0.2520719 1.8192589 0.69446117 0.5918119 0.013766987 -0.64603585 0.60975105 -1.2269385 0.16466023 -0.79319227 -0.048887014 1.6004789 0.24194397 -0.4154052 -0.37225056 -0.24265477 -0.034841064
1989 -0.105738364 -0.42434084 0.78607625 0.790302 -0.16561802 -0.07012945 -0.6573807 -0.80716884 -0.44869292 0.16236567 0.30537862 -0.02001342 -0.12000101 0.9631401 0.76373625 0.91669214 0.113531165 -0.16575818 -0.20233579 -0.2534915 0.72242314 -0.23277989 -0.78834397 -0.30363 1.4175742 -0.0074326303 -1.0896609 0.20682225 -0.82799876 -0.08026871 -0.47654846 -0.5299796 -0.20019417 0.033200067 0.21517946 0.48918986 0.276835 -0.0036791596 0.2685746 0.050037738 0.62799734 -0.23994987 -0.7961955 -0.35368678 -0.11170679 0.64754623 -0.29221383 0.6238142 1.773964 -0.5350175 -0.3081577 -0.33789527 -0.21944429 0.76751274 -0.47764215 -1.0732793 -0.226127 -0.45620567 -0.54093826 0.9018117 -0.53113747 0.9398379 0.9021817 -0.42077982
551 0.7962054 -0.3607484 0.30756655 0.08260019 -0.7146189 -0.45963812 -0.09203293 -0.7043863 -1.2816321 -0.42830062 0.5118899 -0.88266164 0.35176834 0.724906 -0.4805789 -0.9136571 -0.93792456 -0.4098867 -0.5008694 -0.5344687 0.093921244 0.28004014 -0.5338942 0.26451164 0.1706902 0.8751996 0.10943323 -0.13912551 0.4071643 -0.33408743 -0.4572987 0.35722175 0.29923847 0.8175717 0.34040612 -0.2901141 -0.4067079 0.101820774 0.50915337 -0.58424985 0.34443203 0.26750836 -0.88714063 0.101749785 0.115476616 1.4464047 -0.041077122 0.29825166 0.66092503 -0.07061222 -0.12014418 -0.26383558 -1.130225 0.15293217 -0.4783768 -0.71238637 -0.8842539 0.035702564 0.73067987 0.41951013 -0.28097838 -0.23408575 0.7431556 -0.0977198
309 -0.27169627 0.2327366 0.70893043 0.15360792 -0.13382119 -0.81775755 0.22900632 -0.87288266 -0.7070631 0.9378532 0.73770225 -0.30972698 0.5102233 -0.077329 -0.48319447 -0.472241 0.37127498 0.1249928 -0.3439477 -0.49139574 0.76385653 -0.2273763 -1.5749769 0.5429821 0.5548534 1.0276799 -0.74484223 -0.26530966 -0.76971745 -0.020224014 -0.65342164 0.22833318 -0.022257324 0.75136924 -0.1693412 -0.18964382 0.36979258 0.5667727 0.2206629 -0.78125715 -0.2614567 0.41203627 0.06203912 -0.864827 -0.8755342 0.8170454 0.6613404 0.69381374 0.98103076 -0.31368256 -0.29179335 0.44998804 -0.7977525 1.1804655 -0.41034225 -0.21737699 1.2344868 0.42819574 0.32653537 0.28744167 0.30975837 -0.071231976 0.72980994 -0.23978646
330 -0.19428992 -0.67403424 0.3793558 -0.26497492 -0.102077305 0.19046463 0.16481511 -0.9678036 -0.32820138 -0.38112846 -0.9625284 -0.9693516 0.5482647 -0.12064469 -0.39547044 -0.36717534 -0.80374044 0.059081595 -0.7784784 -0.2766548 -0.4601394 -0.3593946 -0.6519958 0.11410953 0.8012355 0.15160774 -0.7542514 0.6180823 -0.06462987 -0.469099 0.55930775 -0.029721 0.51032674 0.091123946 1.278514 -0.20404041 0.18034346 -0.08122093 0.18174991 -0.7978593 -0.17127523 0.63870054 -0.113960974 -0.4655677 -0.40626806 1.1881716 1.1481596 0.069183595 0.13945442 0.2160583 0.020476032 0.4654351 -0.8898816 0.6774591 -1.6020766 0.37327906 0.06569155 -0.74133873 0.82037413 1.7055904 -0.4091732 0.11620765 0.8291337 -0.42183104
1561 -0.20361377 0.11975893 -0.33479932 0.20329265 -0.3782182 -0.017023565 0.34556392 -0.41393304 -0.4451594 1.0203503 0.052459456 -0.19091053 -0.4671941 0.01656865 0.551105 0.21360005 -0.12569208 -0.70836145 -0.26423535 0.029789647 -0.23877403 -0.060404427 -1.6379883 -0.021521151 0.8568147 0.72480077 -0.16515099 0.647832 0.44215322 0.05072902 0.4731295 -0.33816501 -0.1127819 -0.4395976 0.39525226 0.01110467 0.72721404 -0.99714434 0.67045903 0.013320728 -0.056078523 0.61093116 0.025136577 -0.5263658 -0.062714584 0.97577757 0.73769236 0.9954174 1.6179389 -0.1404987 0.68194866 0.055404488 -0.33812606 0.31842154 0.056948908 -0.85177314 0.5503532 -0.16152513 1.3573717 -0.10008154 0.5862294 0.86998194 0.79594934 -0.11995195
580 0.61914456 -0.39081827 -0.70322126 0.06582243 -0.6026808 -0.39435318 0.5091021 -0.55717224 -0.011036168 0.035933327 0.43470153 -1.1360819 0.8402997 -0.39648485 -0.23353316 -0.7509988 0.22032785 -0.45713246 0.6506829 -0.227585 -0.38569403 -0.3158011 -0.6353504 0.5878501 1.3909924 0.8997331 -0.7330001 0.090464875 -0.38167778 0.09738841 0.55354357 0.173885 -0.8510119 0.563914 1.0049837 0.18935736 0.59441966 0.44244957 -0.33136737 -1.1501855 0.038257394 1.4113855 1.396769 0.26296633 -0.8017825 0.4942457 0.71699995 0.5456483 0.8008518 0.32061303 0.9171787 -0.8183258 -1.4272499 0.33039302 0.25620398 0.13287948 0.23517753 -0.10368364 0.900183 -0.49475002 -0.649968 0.14095297 0.5399413 -0.7071843
167 -0.0030718062 0.12335572 0.5092016 0.36171353 -0.11232608 -0.5116113 -0.7834231 -1.0354173 0.18137649 -0.72101396 0.24096985 -0.084544554 0.4687681 -0.21717656 0.967233 -1.0446357 -0.7495389 0.07744514 0.7844422 0.23521951 0.03880851 0.51801425 -0.7925293 0.3551713 0.2968831 0.7597119 0.39912152 -0.11807706 -0.46727303 -0.5946227 -0.15986632 -0.18894377 0.37835455 -0.24094199 1.073911 0.77292657 -0.16891722 -0.0524567 -0.08492758 -0.12540653 -0.3315512 0.7593214 0.04164645 0.18710239 -0.8008822 0.9576799 0.85099024 0.14420234 1.2508265 0.22945672 -0.19667637 -0.23894532 0.49607462 0.5514899 -0.13006735 -0.7035986 -0.1652922 -0.5287284 0.08584918 0.25749618 0.41849315 -0.3792507 0.06934549 -0.7114068
1827 0.07650714 0.061008684 0.24514176 -0.41692352 -0.40733886 0.30128065 -0.043773443 0.15754783 -0.38787532 -1.036343 -0.23076816 -0.21055305 -0.7261292 0.15780911 0.04646706 -1.3780701 -0.44698334 -0.056371067 0.061964214 -0.25946358 0.0809245 -0.15053181 -0.17882249 1.0195334 1.8252664 0.6760774 -0.108989365 -0.02014493 -1.2381706 -0.5578919 0.23580568 0.008612231 -0.73570347 -0.6306924 0.5448058 0.3742178 0.1393508 -1.0245403 -0.19357717 -0.67241216 -0.22220083 0.31881502 0.25338402 -0.7500901 -0.055930864 0.96803963 1.1206455 0.24245025 1.3247787 -1.4496462 -0.5237289 -1.1089109 -0.68352705 1.1129874 -0.4345187 -0.27206147 0.5672637 0.4010498 0.08677774 0.33179542 0.14722617 -0.13194658 0.43402675 -0.46665415
1541 1.0552313 0.79336274 0.38244528 0.024548925 -0.20192347 0.29407093 0.11147907 -0.33527142 -0.49906227 -0.113863386 -0.16838586 -0.6476285 -0.93361473 0.53716046 0.37130225 -0.9939611 0.39084843 -0.6362013 0.64218026 -0.75227225 0.893004 0.16505086 -0.20256475 -0.12985347 1.7346443 0.8927256 0.33978555 -0.30021957 0.36265406 -0.43762708 -0.30482236 0.5231688 -0.75181675 0.5491515 0.62187517 -0.29834253 0.9026839 -0.75726914 -0.082854524 -0.0064313286 -0.6474978 0.8305693 0.21134257 -1.0664784 -0.24700114 -0.046025712 -0.08570139 1.1258365 0.750653 0.49402785 -1.1062105 0.36650363 -0.9997877 0.025559386 -1.2264279 -0.650676 0.36263716 -0.55743617 -0.74676734 0.28292245 -0.63137203 0.31021017 1.0541434 -0.75864196
1476 0.31591675 -0.33738038 -0.0821922 0.53960514 0.019956874 0.25031212 0.7338679 -0.100918666 -0.10761188 0.56479114 0.7140933 -1.578516 0.022584207 -0.27366006 -0.30966812 -1.1465684 0.13258934 -1.2228976 -0.14989482 -1.2644335 1.4167793 0.98361635 -1.4474788 -0.45889002 1.2548567 -0.107714616 -0.5586655 0.95645946 -0.0015240568 -0.82499176 -1.0057049 -0.36428675 -0.5344931 -0.2993485 0.3138615 -0.017355436 0.30136883 -0.44274822 0.72782826 0.13105161 0.3540455 1.3874494 -0.15561566 -0.23755054 -0.19704488 0.19749708 0.41187584 0.16309454 1.3838879 -0.029269345 0.51296335 0.6386819 -0.53072315 1.0495695 -0.44401675 -0.20563835 0.6159188 -0.63139236 0.031798255 0.2937541 -0.47669706 -0.41236517 0.7038106 -0.21994613
1644 -0.13992313 0.19665745 0.20576297 0.8706991 0.25728324 -0.5940519 0.46482623 -1.5630409 -0.063304774 0.14239347 0.89013046 -0.82645255 -0.26118168 -0.18599434 0.4761732 -0.34155214 0.30202594 0.27001172 0.0067867157 0.28273553 1.0706015 -0.9080489 -0.32664925 0.058567137 1.4931738 0.63124883 -0.28758344 1.5560237 -0.8958969 -0.27588 0.0661807 0.08235436 -0.557105 -0.35028145 0.24054347 -0.06099031 0.2849941 -0.33556858 -0.9791825 -0.4436654 0.06924256 0.51082426 -0.52841574 -0.3293977 -0.43784547 1.1535332 1.2177843 1.0793934 0.086357005 0.4763744 0.5543876 -0.41377512 -0.3575834 1.1744179 -1.0238038 -0.6269433 -0.106713906 -0.7158996 0.08104683 -0.33428445 0.024662605 -0.34634447 0.47792968 0.35775146
1048 0.86851907 -0.15540808 0.3274537 1.241217 -0.5934864 -1.0754815 0.5813101 -0.53162456 -0.5518041 0.21826008 0.952314 -1.8142817 0.8383965 -0.34571564 0.12716821 -0.43202648 -0.45821953 0.55240995 0.33094332 -0.42332494 1.3684272 0.15372017 0.28318852 0.041432895 0.8035503 0.72155637 0.057027455 1.2590042 -0.93861324 -0.6968199 -0.22151852 0.26040208 -1.1740813 0.70444596 -0.22616997 1.0643935 0.5486878 0.77056915 -0.27294174 -0.61484313 1.047313 1.3179237 0.053688314 0.06962702 -0.72520036 0.3866928 -0.3203434 0.34943607 1.6397194 0.25142318 0.23308061 0.26946524 -0.7354902 0.17569561 -1.5071583 -0.0391405 -0.035822697 -0.3225211 0.06309356 -0.02131695 0.39641365 -0.48807287 -0.32663995 -0.37827703
1697 1.0065497 0.56771994 0.45786524 1.0392938 -0.12634254 -1.0530286 -0.35660946 -0.5964965 0.15248281 -0.04950593 -0.58897185 -0.6475368 -0.033867676 -0.545762 0.055818673 -0.3548057 -0.50758535 -1.5723441 1.1136589 -0.16651642 1.1043258 0.71450686 -0.38678733 -0.97207594 1.6527058 0.7259986 -0.19390716 0.14107764 -0.40539974 -0.45627153 -0.55931056 0.7525234 0.1575739 0.71034336 0.18462972 -0.31936893 -0.28447506 0.3438575 0.5207043 -0.8881026 -0.063096255 -0.00019625855 0.5101192 0.09887825 -0.46753865 0.4501316 0.38031426 0.05785582 0.45385927 -0.9489339 -0.43965304 -0.7875812 -0.9528473 0.040154908 -1.3562045 -0.84960693 0.5505431 -0.73405325 0.37805104 0.8126613 -0.4250824 -0.32959393 0.26721695 -0.7434941
1740 -0.29871252 0.38313523 0.21391658 0.25061727 -0.10253441 0.43488863 0.01659822 -0.8355941 -0.92545795 -0.5960014 0.8260154 -1.3879299 0.06680748 -0.54639775 -0.28347883 -0.12257248 0.5477698 -1.3443986 0.79879695 -0.79737306 0.19688454 0.2026614 -0.4932562 -0.0010413396 1.1525191 0.21430285 0.07886952 1.0894159 -0.20928842 0.13035633 0.53421885 0.26659644 -0.395101 -0.2950087 -0.38743308 0.024045853 0.07703584 0.867692 0.32294676 0.19693102 0.20507851 1.4855331 -0.31536794 -1.2657659 -0.67554903 1.2378563 0.5943777 0.52726 1.7005037 0.9735009 -0.7546342 -0.41672364 -0.13629222 -0.25640225 -1.088443 -0.22818622 -0.18972565 -0.6168833 0.833063 0.22793111 -0.94376487 -0.015882509 -0.10540189 0.034288336
1456 -0.32524908 0.001994542 -0.27700886 0.89448047 -0.7102419 -0.5008368 -0.4421902 -0.42616603 -0.03686045 -0.33891362 0.4300134 -0.8630112 0.13098976 0.28495187 1.1057775 -0.93702245 0.08966243 -0.6281623 -0.36748448 0.6189151 0.25174233 0.13698214 -0.46772337 -0.7143284 1.3703457 0.79083943 -0.048665993 -0.39635703 -0.24888538 -0.4214813 0.2946488 -0.040136725 -0.3910859 0.03117644 0.0660706 0.25846618 0.9173839 -0.003920333 0.9261675 -0.78930765 0.9473049 0.6408538 0.5118943 -0.22584423 -0.626298 0.038038403 0.59470993 0.73591113 0.04058402 -0.5316229 -0.48880142 -0.9153865 -1.1650627 1.5726949 -0.33239627 -0.60985017 -0.18143234 -0.26818243 -0.21594946 -0.52217466 -0.8073295 0.8819688 -0.47930878 0.42035085
186 0.94502664 0.16667813 -1.2814181 1.1218337 0.2990491 0.21161082 -0.8132208 -0.36851916 -0.012979739 0.05392844 0.23260267 -1.4307264 -0.3074306 -0.18467334 1.0703644 0.39609775 0.5401051 -1.3673397 0.07723353 -0.63925177 0.77593875 0.027701145 -1.5118498 0.86180544 0.95010257 0.511202 -0.21490762 0.2741621 -1.2357792 -0.60282916 -0.016817562 -0.49778745 -0.33827853 0.9884756 0.19461611 0.91937923 0.59404373 0.31449333 -0.40989688 -0.5834936 0.109842755 0.7973198 0.04491516 -0.84522796 -0.6602768 0.24230827 0.04243781 0.50494885 0.6586011 0.9791261 -0.947635 -0.013823114 -0.24405396 -0.54361373 -0.47516403 -0.781099 0.44426426 -0.617139 0.28552428 0.420765 0.12992424 0.19413234 0.19864027 -0.16050686
658 -0.26247093 0.36790648 0.040340576 0.058928195 -0.18354304 -0.010676353 -0.93060493 -0.27144295 -0.0967539 -1.0381948 0.07047049 -0.08969231 -0.015030112 -0.02467672 0.4164102 -0.29532787 -0.44909027 -0.112368606 -0.22002757 0.65152717 0.20650254 0.2701787 -0.8716942 -0.068209365 0.95581836 0.9216577 0.12927343 -0.24182005 -0.47908923 -0.183067 -0.018993748 -0.1732292 0.3135368 -0.067616045 0.6130947 -0.25074416 -0.37647048 -0.43605497 0.46327105 0.023455441 -1.094623 0.9776596 -0.59614146 -0.491598 -0.5401188 0.76551884 0.24599834 0.4375128 1.2192491 -0.21430811 0.3868197 0.15760931 0.47164533 0.32606423 0.016097445 -1.1517156 -0.47944292 -0.20855331 0.22743219 -0.04141927 0.37619603 0.43139684 0.553604 -0.7833978
1640 0.32637876 0.75357527 -0.3825093 0.25829035 -0.52697384 0.502127 -0.50378764 0.3215113 -0.18138482 -0.026563631 -1.3997227 -0.0016491518 0.44882277 0.25233358 0.14636916 -0.18617153 0.9895881 -0.37782982 -0.3106033 0.3658213 0.8620847 -0.11175049 -0.72489625 0.027632792 0.59835243 0.50861996 -0.27725792 0.6631891 -0.28551483 -0.15524434 -0.2617262 -0.22072582 -0.17115355 0.2052327 -0.22670029 0.6827563 0.24066229 -0.06959118 0.15197887 -0.02741038 0.7830373 1.5485095 -1.1776597 -0.5180247 -0.75816786 0.7457545 0.47875503 1.3468233 0.58903515 -0.5457134 -0.759423 0.82079095 -0.59641904 0.75159645 -0.61693996 -0.47862205 -0.004694732 0.050906196 0.10623801 0.0699069 -0.34372362 -0.061120633 1.4558699 -0.7637476
74 0.037187725 0.23574314 -0.12785615 0.31548086 -0.37048924 -0.2850464 -0.78146714 -0.37881437 -0.09302097 -0.94459933 0.27469435 -0.2820772 0.09459824 -0.333906 -0.32703984 -0.4014477 -0.3934941 -0.18861945 -0.33323517 0.386831 0.32223958 0.11402285 -0.59615445 0.4598812 0.936248 0.7517113 0.5051012 -0.21377237 -0.44894823 -0.81533736 -0.15810043 -0.1404245 0.4088082 0.19901623 0.43827245 -0.44526505 -0.17767055 -0.14089227 0.18588832 -0.31894982 -0.65448815 1.1306754 -0.4409422 0.05451716 -0.21452133 0.52748775 0.15381888 0.73684984 1.5958531 -0.18197052 0.14360692 0.16461518 0.004618353 0.31541714 -0.18519694 -1.1026354 -0.49137303 0.15022534 0.2492381 -0.16506879 0.42978352 -0.41754714 0.9114035 -0.08377088
1610 0.6952363 1.5203347 0.37607446 1.4563265 -0.465067 -0.11592078 0.3887595 0.07383522 -0.7125979 -0.4371931 -0.3224052 -0.0267806 0.63755107 0.5073506 0.27395636 -0.75387627 -0.7570978 -0.24030136 -0.51776606 0.5413762 0.23959012 0.0519432 -0.023604427 1.1713988 0.9828522 0.17686993 -0.09512044 1.8605831 -0.74155414 -0.27570432 -0.1205465 0.082488194 -0.24495138 0.60670185 -0.17710486 0.28184903 0.21349436 -0.29790428 0.03862795 -0.33483812 0.16217604 -0.290533 0.85672355 -0.88302106 -0.33855036 0.40873522 0.94826293 0.6662203 1.2627391 -0.69244534 0.0740763 -0.5989077 -0.9492355 0.39464134 -0.69780517 -0.5315098 0.38115758 -0.1704809 0.119087666 -0.27638462 -0.10279384 -0.17675899 0.0474435 -1.433419
597 0.7665378 0.3869856 0.52718973 -0.16666444 0.27889344 -0.5970336 -0.29612 -0.058687933 0.36929533 -0.7703301 0.4636435 -0.69883186 -0.088797234 0.06681791 -0.12930775 -0.4676004 -0.5353472 0.03458942 -0.03135873 -0.5787697 0.8691933 0.1921731 -0.44046423 0.992118 0.81086457 0.6194728 0.65892506 0.27124423 -0.4528939 -1.2997459 0.06797116 -0.19061859 0.20765328 0.2492001 0.49830195 0.090517476 0.40949425 0.26072624 -0.6564404 -0.1491615 -0.7882597 0.8816743 -0.5156095 -0.04400575 -0.6340343 0.8789371 0.300155 0.34548056 1.4032798 0.069341 0.404237 -0.09944029 -0.51548547 0.42237926 -0.19790736 -1.0630438 -0.33421353 -0.1064371 0.11115136 -0.00284436 -0.047027774 -0.5193613 0.07217358 -0.19545455
1747 0.3360676 0.2649283 -0.38761708 0.9152466 0.23222831 0.25171742 -0.6293899 -0.6964749 -0.12362338 -0.3912886 1.2500427 -0.77462184 0.32772654 -0.04316196 -0.18855736 -0.83502 -0.23503633 -0.5952315 -0.4400918 -0.22875589 -0.17314506 -0.05978633 -0.22856434 0.37950402 1.3528217 1.4085279 -0.018247359 1.2405818 -0.33792216 -0.68558097 0.09494133 0.35420543 -0.80945295 0.0667609 0.2038817 0.0063444697 1.4174027 -0.720632 -0.5046226 0.36760223 0.42795774 0.17273425 0.15392041 -0.52354693 -0.20715775 0.38318384 -1.0054706 0.71725297 0.8406114 0.23123978 -0.58229464 -0.9233532 -0.012587434 -0.0656216 -1.1338975 -0.30255252 -0.42790014 0.11295267 0.4302468 0.75432795 0.41938287 0.78364325 0.87848693 -1.0541099
502 1.5165625 -1.0079986 -0.70857066 0.79979473 -0.43337566 -0.7414843 0.21394156 -0.47833806 -0.56262535 0.31116685 0.8998526 -0.6068173 -0.3679205 0.37215468 -0.45847502 -0.47443488 -0.48709095 0.078293875 0.2500195 -0.016409248 -0.27739215 -0.053562596 -0.26977155 0.05732006 0.6598654 0.37586635 -0.34814033 0.346559 -0.52087 -0.81786424 -0.39679822 0.6680832 0.57588524 0.11379977 0.60096633 0.19556667 -0.107416175 0.31146377 -0.4732993 -0.7034861 1.0025029 1.1949087 0.012694624 -0.4583264 -0.29538584 0.068717934 0.5040169 1.0739335 0.8356628 0.2769262 -0.16080852 -0.5802375 -0.63477796 -0.21725482 -1.2558112 -0.7616203 0.6430245 -0.67794836 -0.040320277 0.6580665 -0.68108314 0.20817116 1.1651441 -1.0821446
1674 0.02131965 -0.10357555 -0.14350143 0.6520033 -0.32313952 -0.38266036 0.28451335 -0.988536 -0.6542608 1.1117074 0.082870856 -0.4307126 -0.42354485 -0.3170449 0.3434547 0.15049227 -0.1998311 0.012608967 -0.34517732 -0.590454 0.4363692 -0.53949773 -1.3021412 -0.10814218 0.6351532 0.44653678 -0.23262572 1.0898339 0.023662021 -0.33661705 0.041925155 -0.58256894 -0.64949566 -0.10049233 0.8057061 0.6918456 1.1554952 -0.85749435 0.2641599 -0.021387413 -0.19800968 0.6223141 0.2817524 -0.15840729 0.23413326 1.1902124 1.0010524 0.89664865 1.8143463 -0.1410979 0.4327337 -0.1843462 -0.40729004 -0.24255739 -0.44454765 -0.80777156 0.76382226 0.18984737 1.1929339 0.06605941 0.026166463 0.68459576 0.67369723 -0.2886554
1015 0.47137943 -0.54248196 0.9377945 0.8456387 -1.5387992 -0.78210014 0.34562716 -0.20760925 -0.5065733 0.8341334 0.07412237 -0.9259 0.124238744 -0.045734048 -0.1688108 0.36462337 -0.64256597 0.033597663 1.0634342 -0.119198106 -0.16486013 -0.58801216 -1.1394008 -0.51022685 1.1042604 0.62823975 0.18428981 0.24991593 -0.71946543 -1.0445588 -0.31430966 -0.31056735 -0.50081927 0.26519677 -0.16900675 0.46379837 0.3155495 0.008222586 -0.51924634 -0.90216416 0.6276552 0.77695566 0.77305734 -0.18938398 -1.0513192 0.65288806 0.4599482 -0.5306441 0.6747403 -1.0389875 0.44315934 0.29888207 -0.24698646 0.41919798 -0.4890808 -0.15324046 -0.3165166 -0.13591728 0.19414587 -0.35510415 -0.33590603 0.78372425 -0.063444935 -1.3221542
1571 0.1255546 0.9437508 0.47006932 0.56004024 -0.5187352 -0.73815805 0.68610466 -0.79416066 -0.6333296 -0.45819137 0.3746997 -0.529573 0.12527402 0.7379405 1.2210623 0.38536745 -0.57861054 -0.415979 -0.11474238 -0.37701455 0.040768128 -0.6620673 -0.53207844 0.6930734 2.0581765 -0.23433875 -0.5975153 0.80528533 -0.13356279 0.063300595 -0.28670955 0.21591237 0.16532859 0.120839246 0.5159681 0.30925035 1.1945423 0.38084415 -0.7407809 -0.4521496 -0.6633491 1.4230226 -0.33464885 -0.88704866 -0.43150902 -0.31815445 -0.0042246683 0.5033781 0.332728 0.569615 0.30298963 -0.9892341 -1.272228 0.19558221 -0.32984343 -0.40477598 -0.2732194 -0.44165194 -0.29273602 -0.024403762 -0.094808325 0.69831073 0.45729014 -0.49966928
1516 0.35468808 0.28169695 0.82340103 1.1378933 -0.36741918 -0.06627137 1.2143637 0.27630597 -0.56114924 -0.3177944 0.34944376 -1.0744362 0.68686014 -0.42501646 0.9148073 -0.78774196 -0.09564747 0.17473264 0.21820454 0.29023796 -0.13994722 -0.16500427 -0.28246036 1.0339961 0.78289706 0.23187698 -1.0168628 0.052475866 -0.21351562 -0.54952776 -0.7330474 0.2780282 -0.31798488 0.22873378 0.1099439 0.25692055 0.41089228 0.2622129 -0.33308595 -0.039014705 0.78663087 1.1944953 0.4001613 -0.012531257 -1.0445598 -0.16440663 0.84073526 1.5205246 0.73296916 0.055523288 -1.0177348 -0.47941113 -0.74985826 0.85408735 -0.42112398 -1.0778381 -0.5631216 -0.2812597 0.48017704 -0.334786 -0.16861066 -0.86840284 -0.0010295446 -0.21642068
828 0.44111106 0.1656929 0.33255678 -0.14981753 -0.4301336 -0.38132563 -0.47218126 -0.4354503 -0.22186206 0.44739118 1.2120395 -0.7709109 0.2786109 0.75842535 -0.1332222 -1.4431646 -0.85720265 -0.53120524 -0.8296122 -0.882681 0.830549 0.23169641 -0.881236 0.57950014 0.6126689 0.2692077 -1.0124396 0.41195104 -0.3780532 -0.40180263 -0.13059127 -0.47050062 -0.24888882 0.37040085 -0.48104125 0.6794704 0.35268566 0.59666127 0.19153848 -0.22869587 0.40975094 -0.043581124 -0.49226096 -0.1041098 -0.095399246 0.8600125 -0.16800705 0.071567535 0.4802889 -0.2683348 -0.1855147 -0.6779999 -1.1837527 0.5614683 -0.46350443 -0.8033052 -0.7777065 -0.114730336 1.266146 0.40277684 -0.71555793 -0.11029917 -0.1533565 -0.4578846
790 0.49338385 -0.16481967 -0.3009504 -0.1452174 -0.8718575 -0.27374896 -0.6815365 -0.8319914 0.02614023 -1.1464857 -0.022347387 -0.753453 0.3420801 -0.018722298 -0.5565222 -0.49355626 -0.8812138 -0.43698215 0.06581516 -0.50508124 -0.37059766 -1.2586143 -1.0891314 0.45042226 1.0064934 0.029740496 -0.55654365 0.43634436 -0.91066784 -0.2505405 0.726465 -0.05218592 -0.49676043 -0.1097393 0.8421173 0.18112841 0.49224877 0.7801777 0.0031770016 -1.2079512 -0.17564414 0.41086802 0.27446213 0.23507527 -0.09542707 1.3729426 0.8123451 0.43088514 0.9023681 -0.3682778 0.15556273 0.04315257 -0.23957345 0.7061194 -0.80185884 -0.15053879 0.23469979 -0.8112393 -0.10823558 1.1233324 0.57451826 0.41254044 -0.2606387 -0.27815732
266 0.087026924 0.26127672 0.45030552 0.41755962 0.20780282 -0.73359436 -0.7044729 -1.0170416 -0.043051954 -0.6410058 0.13553093 -0.51051223 0.17763999 -0.19604261 0.26095307 -0.96620846 -0.9184621 0.28255862 0.6119811 0.04448277 0.44427076 0.61706686 -0.73392177 0.48320448 0.5989095 0.72631943 0.64831823 -0.23248571 -0.46835253 -1.1193999 -0.11808713 -0.100607075 0.66409653 0.11808903 0.88146836 0.374775 0.13840334 0.18896343 -0.25209865 -0.33363366 -0.50207245 0.86053354 -0.37579206 0.47580448 -0.4418469 0.8321604 0.53212565 0.35820487 1.2197342 -0.04023875 -0.05146174 -0.12600164 -0.09831784 0.53821784 -0.21908706 -1.0610958 -0.119313106 0.0730922 0.011652149 0.38422686 0.25484598 -0.62652445 0.5244437 -0.28121397
639 0.62116176 0.2668076 -1.1340334 1.5293909 0.5596798 0.109961964 -0.2682219 -0.5960627 0.11639728 0.26137757 0.7385625 -1.8044835 -0.27973756 -0.3072727 0.65677536 0.23906274 0.37528965 -1.1573159 0.20820086 -0.67269105 0.5009765 -0.31590164 -1.6076697 0.22166488 1.1724299 0.09681591 -0.23957197 1.1586866 -0.5636738 -0.8389407 -0.26907575 -0.6783325 -0.31614578 0.48540753 0.35747504 0.63402736 1.1608319 0.5813794 0.03010317 -1.0741886 -0.18876565 0.74840057 -0.5401328 -0.51327664 -0.50246376 0.28931665 0.5974804 -0.00058294606 0.736058 0.18225448 -0.5852254 -0.035664532 -0.5008851 -0.6754818 -0.23700412 -0.048685353 0.32246697 -0.21778119 0.024247862 0.9372947 -0.22152482 0.053531166 0.44655713 -0.37653467
1514 0.14553899 0.1830722 -0.1612475 -0.098607175 -0.8309721 0.0841026 -0.9067008 -0.56588405 0.24311665 0.25658447 0.4859605 -0.67460775 0.36324134 0.18586773 1.1321007 0.030448806 -0.46702084 0.077283144 0.34797013 -0.6766653 -0.026344657 -0.5011853 -0.65268934 0.561498 1.1625907 1.0763718 -0.43607232 1.1980805 0.08728093 -1.2077837 0.68517965 1.0031835 -0.57272655 0.510961 0.08696528 1.2465206 0.49095142 -0.22828817 -0.8978939 -0.2022303 1.1704916 1.0615408 0.10837276 -0.081676595 -0.2185809 0.07147413 0.925882 1.0406938 0.76609564 -1.2085558 0.012953537 0.00990928 -0.3403133 -0.37337825 -0.6944702 0.3108836 -0.13981417 -1.3782542 0.13372631 0.46274117 0.19741325 -0.053235352 -0.20033069 -0.8314567
1043 0.4209336 0.739333 0.17195179 0.34053722 -0.94471055 -0.95124125 0.00020562459 0.40913 -0.78305244 0.3399684 -0.24941687 -1.0335308 0.13775921 -0.38434884 0.13170114 -0.93438095 0.22648959 -1.5454134 -0.21007605 0.07198994 0.029165022 -0.64677864 0.009981958 0.16970012 0.25577953 1.189679 -0.5789241 1.1051373 -0.76830465 -0.3830701 -0.8878036 -0.1461211 0.35580724 -0.5116697 0.12684849 0.68336755 0.7521249 -0.38160634 -1.181334 -0.6324198 0.97005826 0.20505965 -0.18754733 -0.14993341 -0.5532875 0.4246241 0.5802792 -0.31650645 0.6159286 0.36078274 -0.11172915 -0.73685455 -0.69770604 0.33273137 -0.8945968 -0.60882324 0.74739707 -0.29977992 0.13925324 0.7317043 0.17870112 -0.09634045 0.8562409 -1.2149285
761 0.26117834 0.35813704 0.5073116 0.33617118 0.44997883 -0.6115325 -0.2592449 -0.53153074 -0.49177182 -0.35959163 0.5351427 -1.3384118 -0.28444713 -0.69969743 -0.04293923 -0.30395395 0.35946873 -0.7762599 0.7734162 0.08810324 -0.2642558 0.17088535 -0.40604213 0.17695287 2.0591366 0.6960278 -0.4322906 0.6643547 -0.23597914 0.17391953 0.07200562 -0.37643752 -0.32257053 0.42983174 -0.35162777 0.6220069 0.5264093 0.29266065 0.16672792 -1.1446127 0.16305032 0.62062174 -0.6577701 0.1597199 -0.5500959 0.038742684 1.6086208 0.15760326 1.2483108 -0.33404472 -0.32837513 -0.040181737 -0.0840429 -0.24308509 -0.3747513 0.23201755 -0.59359086 0.14311458 0.5837335 -0.3701893 0.7470952 0.11415955 -0.12496627 -0.68565655
1692 0.0836696 0.037063748 -0.5654831 1.0020865 -0.8008885 -0.016862769 -0.75963265 0.2885933 -0.19297804 -0.5638985 -0.6716676 0.23181303 0.38751534 -0.079461545 -0.21010861 -0.63774824 -0.7028744 -1.6896348 0.38337022 -0.7943331 0.36095846 -0.39806765 -0.20167279 0.24098513 0.63386714 0.28342673 -1.0580499 0.060654048 -0.26333192 -1.0446695 -1.0023444 0.005816056 -0.7830041 0.9676404 0.46771345 0.06994103 0.3065297 -0.44572005 -0.33188298 -0.028333975 -0.6427521 0.8536423 0.22751611 -0.38083273 -0.492332 -0.061539415 1.1078801 0.655713 1.099126 0.4280822 0.34120676 -0.07811288 -0.7061314 0.2992607 -1.4467858 -0.19602808 0.29653496 -0.14372756 0.46483514 0.8767093 -0.81694067 0.089408144 0.8208199 -0.20584066
1120 0.68913645 -0.10072974 0.31293052 -0.28829056 -0.51345795 -0.4513762 -0.5947656 0.20057763 0.10167237 -0.11953253 -0.0010715369 -1.3088579 -0.1627211 0.6215418 -0.3197254 -0.94694394 -0.067789294 -0.023820791 0.40337762 0.6524753 0.25854963 -0.15337658 -0.60835594 0.59779733 1.9060404 1.0928328 0.24967042 0.41945094 -0.88871634 0.49301395 0.4133161 0.004984226 -0.1593265 -0.12055394 0.4239061 0.88600487 -0.34592202 -0.81437457 0.5203335 0.20544009 -0.29735434 0.07566429 -0.051969893 -0.9560371 1.0296906 0.99047333 1.0769749 0.28899407 1.0803775 -0.45241824 -0.3560803 -0.43756226 -1.2691714 1.0179101 -0.6046473 0.107184954 0.6063596 0.58837414 0.37204796 0.17598008 0.33589822 0.9178318 -0.06941589 -0.2761472
743 1.0918674 0.6172432 0.95802766 0.154571 0.19006723 -0.433104 0.2555821 -0.17641601 0.28166717 -0.71195185 0.7680518 -0.8636277 0.14517063 -0.19647805 -0.08211143 -0.5482053 -0.763957 -0.13444264 -0.32684833 -0.6329028 1.2530122 0.3599726 -0.37140757 1.0556662 1.3452924 0.7483434 0.6294003 0.40257517 -0.7530781 -1.5664395 -0.23629948 -0.40168738 0.052401654 0.26286882 0.68146384 0.34407863 0.5065047 -0.1348645 -1.0201246 -0.10232956 -0.43630305 0.51271427 -0.19020343 0.039865404 -0.18271889 0.7180007 0.26583648 0.5988722 1.4122999 -0.09485895 0.4690702 -0.33156204 -0.76415163 0.061256826 -0.36198688 -1.1491901 0.04406031 -0.29038325 -0.4698527 0.57232773 -0.6445088 -0.5029649 0.123182975 -0.03769347
250 0.23218718 0.20200452 -0.043030202 0.38058445 -0.5196007 -0.012430694 -0.053843305 -0.38940975 -0.062430784 -0.10839009 0.71554726 -0.7636327 0.5249078 0.21608603 0.42218137 -1.1055019 0.19683065 -0.3240435 -0.14300781 0.05654664 0.75684494 -0.39138356 -1.1030124 -0.5041032 1.254793 0.32155153 -0.18093483 0.8187669 0.47396365 -0.565935 0.22511134 -0.5425056 0.012759674 1.0461876 0.29357365 0.4297061 0.755836 0.53602016 -0.034815174 -0.51036435 0.7064927 0.8998234 0.14002077 0.15491024 0.26281732 0.38969395 -0.12824894 1.0317675 0.44868672 -0.22445989 -0.4360302 -0.51770467 -1.2493129 0.61106133 -1.5764294 -0.91553116 -0.66358435 -0.5524261 -0.8154813 -0.45473865 0.39323226 1.34897 0.014913478 0.21746135
843 0.8590309 -0.3340035 -0.23709804 0.89429903 -0.3695152 -0.51533383 0.33873278 -0.92987925 -1.3060672 -0.5479388 0.59447855 -0.66095406 -0.035244044 0.0034844477 -0.70311034 -0.63485855 -0.6578573 -0.5449419 -0.74933386 -0.025310488 -0.29354075 0.3896548 -0.3712461 -0.11911986 0.061848592 0.8673998 -0.5300461 0.11591965 -0.2073654 -0.32938972 -0.3737004 0.6539112 -0.18144189 0.6479612 0.12185688 -0.3472171 -0.24267897 -0.15365663 -0.2581526 -0.9957019 0.9904121 0.63096637 -0.21153119 -0.16808738 0.0015468135 0.9754173 0.505756 0.3241547 0.98819506 -0.4012761 0.07065612 -0.13868906 -0.69499624 -0.36095873 -0.89273745 -0.17974143 -0.74446684 -0.088185236 0.5964821 0.63180584 -0.33118716 0.27267462 0.83331895 -0.45819625
1098 0.25466657 0.3623571 0.091659434 -0.032899704 -0.4173364 -0.3622636 -0.4963528 -0.7500822 -0.21591333 -0.8894966 -0.045599617 -0.5350725 0.19078824 0.00508021 -0.03238907 -0.83906823 -0.94241935 0.51058096 0.49687523 0.75731885 0.12331581 0.036398403 -1.4286283 0.36444855 0.9137297 0.063402385 -0.6560352 0.4442387 -0.5561486 -0.31436682 -0.08111087 -0.016115632 0.5041815 0.10545561 0.93449044 0.86881465 0.19854826 0.3123665 0.20158736 0.10351604 -0.8406576 0.44501495 -0.40554708 -0.090638176 -0.43570608 1.178482 0.5603561 -0.006388588 1.264169 0.1751635 0.6064835 -0.48589233 0.7402792 0.7688311 -0.36653775 -0.8987135 -0.13290653 -0.23810022 0.29008737 1.0664588 0.51048625 0.57838535 0.41575092 -0.58522385
922 0.5748147 0.37908176 0.12664236 1.427829 -0.9902782 0.5868826 0.1479779 -0.7420886 -0.34667104 0.026452862 0.4474241 -0.56757236 -0.07394729 0.22145413 -0.201321 0.28918806 -0.3424152 -1.2405658 0.3987913 0.28463423 -0.25555786 0.0482906 -0.3958797 -0.14337268 1.3989754 0.63320446 -0.6904966 0.51789284 -0.39556235 -0.6458007 -0.3452922 0.5502837 -1.1671039 0.10105215 -0.06712341 1.485638 0.7174707 1.024641 0.06175036 -0.15276964 -0.23957404 0.6681019 0.8111668 -1.8617088 -0.55727756 0.45849314 0.28545943 0.25733465 0.79232323 0.3421934 -0.023417821 0.010559794 -0.24723215 0.29464838 -0.21384598 -0.84130657 0.17513645 -0.4034917 0.79429877 0.023336552 0.37507865 -0.10094642 -0.7201263 -0.6908879
371 0.9086156 0.25606346 -0.15290247 0.097964846 0.49839777 -0.6778281 -0.17367585 -0.5007907 -0.41976628 -0.3523649 0.13192642 -0.52002853 -0.25656268 -0.4214062 -0.5722156 -0.61761725 -1.0123305 -0.52526563 -0.71655166 -0.8088598 0.42012998 -0.1621825 -0.6607287 0.033425786 0.5978802 -0.07456319 -0.19873975 0.088723674 -0.28102583 -0.9964252 0.66699034 -0.0919244 -0.81946415 -0.415984 0.33222353 0.9480619 0.2050364 0.15121965 -0.10440806 -0.41843754 0.07094701 0.7770174 -0.89924353 -0.10180286 -0.36677152 0.7954931 0.76886815 0.1802052 1.0689031 -0.055815283 -0.21585537 0.09389826 -0.24220441 1.3941873 -0.036064975 -1.3552746 -0.96700037 -0.8604371 1.0681599 -0.61080945 -0.3919981 -0.4623673 -0.47265345 -1.047809
1502 1.1111106 0.34749672 1.1999162 0.59843475 -0.24532437 -1.1132703 -1.2691617 -0.18300958 -1.2426988 0.32953972 0.37343284 -0.46880916 -0.43814698 0.6338421 -0.44844702 0.55457926 -0.4068974 -0.38313884 -0.44476804 0.30536655 -0.60171384 0.41968256 -0.5264375 0.2799781 1.186615 0.68314976 -0.69442105 -0.14999968 -0.27176142 -0.3839581 -0.32202905 0.22157624 -0.11133758 -0.18304883 0.54495364 -0.22587171 0.4113597 -0.24476819 0.5048021 0.43726826 0.2681271 2.0471134 -0.8773023 -0.32111478 -1.3900856 0.21578218 0.91178936 0.57409334 0.7240848 0.58471036 0.48619968 -0.28121743 -1.5815775 1.037175 -0.67881155 -0.119978175 0.0388302 -0.088754416 0.30857903 0.3929476 -0.54151493 -0.031933524 0.207289 0.08568362
1386 -0.3846822 -0.6510053 1.7130969 -0.18472353 -0.37563547 0.029077658 0.4365814 -0.6670179 -0.8626394 0.46796829 -0.3283861 -0.30957615 0.8476205 0.6699263 0.25977203 -1.5101972 -0.17845483 -0.030461516 -0.11225235 -0.5228979 0.0046989345 0.3721899 -0.52644205 0.15735747 0.8357165 0.16503249 0.42430386 0.22967695 -0.36515647 0.49626803 0.2695591 0.29929563 0.51766545 0.6788449 0.97624874 -0.5660959 0.16717786 -0.079168394 -0.04595684 -0.81382567 0.6818345 0.49487266 -0.6119727 -1.2546904 -0.7050048 0.16873406 0.6235168 0.593745 0.48102996 -0.12868968 0.062214468 -0.63788533 -0.36144695 0.1825071 -0.5302924 -0.36228287 0.075095065 0.028754286 0.633972 0.6407459 -0.39556903 0.6243606 0.46116957 -1.1383396
938 0.98808855 -0.26986104 -0.8127939 0.11817313 -0.39191124 0.507891 1.1283486 0.51500595 -0.38438568 -0.15654507 -0.8225625 -1.1700342 -0.23338965 -0.20569997 0.854259 -0.77051604 -0.68781245 -0.8008547 -0.5971057 -0.8609374 0.37853426 -0.12279838 -0.8975093 0.43337947 0.5314069 1.5724941 -0.26951227 0.45639923 -0.967016 0.11920161 -0.31820598 -0.20337944 0.07494449 -0.043434482 -0.18997614 0.8137711 0.52011657 -0.437161 -0.16263236 -0.43512934 0.19290006 0.82268846 -0.137218 -0.18292382 -0.37281954 0.2060796 -0.23904893 0.74888694 0.49828666 -1.2764215 -0.017983267 0.45291167 -0.8581057 0.42220822 -0.5988633 -0.17280246 -0.56213665 -1.2482765 0.6354919 0.086571604 0.12321153 -0.5867744 0.87300044 -0.02250353
1709 1.0006701 -0.79567003 -0.48988375 0.35972163 0.24832493 -0.90741324 -0.9088014 -0.4365442 -0.57803005 -0.1411665 0.084442616 -0.07454223 -0.04457112 0.0882938 0.049627215 -0.5272358 -0.44947875 -0.69821995 0.76947 -0.4547547 0.6948769 0.52207625 -1.1225691 -0.12593094 1.6548524 1.1260604 -0.99111885 0.83094114 -0.25381622 -0.24201235 0.7956888 0.14981239 -0.0029154518 -0.25447357 0.08254697 0.6086717 0.91597104 -0.82527435 -0.18513666 -0.7852146 0.2009672 0.080221705 0.23364775 -0.6427908 -0.59499156 -0.085935906 0.1918437 -0.72408193 0.07800154 0.21189606 -1.1680206 -0.24195634 -0.6823856 0.53570074 -0.6906683 -1.2466471 -0.79741484 -0.47084793 0.52675074 0.348552 0.26258567 -0.31479782 0.71565604 -0.72298664
1433 -0.13516682 0.5564489 0.10311452 0.33656478 0.09039483 -0.76899326 0.251369 -0.12518956 0.05659951 0.5187224 -0.15187804 -0.075079404 -0.0646078 -0.2966338 0.15276228 -0.17878233 0.5275621 -0.45609933 -0.061262287 0.0049105003 0.38176364 0.1628737 -1.2435807 -0.4329804 0.9869475 0.6368466 0.23766279 0.6886755 -0.51989627 0.37901273 -0.37389448 -0.25243747 0.257333 0.07156405 0.17465983 -0.17099084 0.06392968 0.27000678 0.5398137 -1.522829 -0.21472482 0.64266145 -0.9027465 -0.5203427 -0.4626321 0.12128801 1.7727712 0.49210805 1.275814 -0.42502606 0.017472902 0.37588626 -0.46935418 0.8081942 -0.19759572 0.60690826 0.19883277 0.33434424 0.160893 0.015689697 0.61760694 0.06281262 0.6491598 -0.54720145
987 0.73073465 0.023783023 0.8901636 0.46524754 -1.0842929 -0.8502607 0.29492748 0.031272665 -0.09996837 0.037895516 0.0396559 -0.9537236 0.13941272 0.5551406 0.15354623 0.81966007 -0.500804 -0.032463327 0.82991505 -0.60530055 0.23300959 -0.5191089 -1.1539629 -0.17088969 1.0141948 0.773404 0.4024802 0.24244767 -0.75686175 -0.7606498 -0.32704344 -0.48003966 -0.43751 0.36045605 -0.6159255 0.27054763 0.4907461 0.48876786 -0.44582322 -0.23333615 0.43766773 0.30022612 0.23458944 -0.43277848 -1.0265484 0.6779906 0.14716901 -1.0246178 0.39169216 -0.7313717 0.4394268 -0.09400605 -0.3215809 0.918545 -1.1955113 0.28142402 0.35302448 -0.14544564 0.48243114 0.13599885 -0.8501585 0.06490194 0.04310422 -1.0743917
1497 0.497224 0.81581444 1.2079306 0.23118427 -1.0098228 0.47540525 0.1247317 0.33950946 0.045459386 0.20798196 -0.19168001 -1.4454852 0.97589993 0.25127003 0.21825603 0.042004388 -0.24682401 -0.11716992 0.13838378 -0.9683442 -0.08567851 0.36483523 -1.1531028 0.08917854 0.8741342 0.95068 0.5007436 0.5125579 0.11077723 -0.12592582 0.44902673 -0.09873201 -0.35836402 0.4472882 -0.021284888 0.07276478 0.33124334 0.17528093 -0.09529743 0.18573564 0.0839358 0.7309676 -0.29866186 -0.48504147 0.28573442 0.781611 0.010423857 0.2106441 0.15365171 0.23546009 -0.022380352 -0.27919865 -0.9910056 0.89835733 -1.7887985 -0.47945336 -0.27071306 0.7880078 -0.16129781 0.7295758 -0.49295595 -0.13128807 -0.27495 -0.024104483
273 0.7674258 0.21074122 0.4241357 -0.08777554 -0.9592258 -0.30189666 -0.20288157 -0.45166203 -0.81548923 0.3594725 0.92731434 -0.7663487 0.4092636 0.8636686 -0.03586587 -0.7398517 -1.0466087 -0.5103534 -0.2135825 -0.97178 0.2487101 0.20508832 -1.0004771 0.5184947 0.46115032 0.9298994 -0.60073584 0.2680472 0.14531536 -0.28929305 -0.36742863 -0.11329743 -0.1955277 0.7955094 0.05641659 0.62068355 0.26310953 0.64209586 0.051483054 -0.42199865 0.44781026 -0.122880325 -0.6095412 -0.19216748 0.3691247 1.1008693 -0.2636911 0.04832119 0.16283262 -0.021485193 -0.34678903 -0.68890786 -1.337854 0.27036935 -0.99816096 -0.40526137 -0.8399399 0.09638855 0.9094832 0.49103042 -0.57016855 0.20275545 0.14344546 0.0064708595
1390 0.45838308 0.22705117 1.1001081 0.49495423 -0.96823454 0.561634 0.11997107 -0.34194753 -0.30011854 -0.011216559 -0.5127352 -0.96865493 0.6495946 -0.05453477 0.52028465 -0.113008894 -0.7512013 -0.54685014 -0.35997716 -0.46176025 -0.49071276 0.63965815 -0.6211322 -0.3235246 0.59092736 1.3189801 0.38546908 0.071038626 -0.09824737 -0.09586819 0.2829614 0.069149725 -0.26603028 0.20756593 1.0587841 -0.20950758 0.18691067 -0.080368064 -0.006830094 -0.16138002 0.048524275 0.3798113 -0.45059836 -0.4324718 0.078881115 1.0590198 0.49580073 0.5324089 -0.5939644 0.29892844 -0.11681144 -0.027062891 -1.2993289 0.4995042 -0.88967264 -0.2877834 -0.6209749 0.606829 -0.01198172 0.8777532 -0.5335663 0.38176376 -0.19099748 -0.31132126
176 0.23930335 -0.4500877 0.15643352 0.51914865 -0.38756138 0.44066602 -0.29992008 -0.74423975 -0.5530109 0.3395882 0.57442504 -0.016639022 0.18975072 -0.6201078 0.5005217 -1.1838154 0.7140074 -0.015333903 0.079162285 -0.436247 0.56283706 -0.25152245 -0.6506356 0.45258752 0.8040145 0.18881121 0.3544104 0.5452963 -0.07430281 -0.62516665 -0.33088478 -0.2525233 0.050521214 -0.22560978 0.1456004 0.2848108 0.44504502 -1.0901734 -0.19985318 -0.51571095 1.059089 -0.02042106 0.20642349 -0.09267043 -1.1681725 1.3778313 -0.05030998 -0.0016933725 1.5820477 -0.16310957 -0.11560753 -0.5948408 -0.7644764 0.48059532 -0.024908835 0.12553474 0.14780231 -0.29672018 0.4800029 0.04527139 -0.21063195 -0.8384098 -0.544499 -0.2856305
1580 -0.49700707 -0.25041112 -0.30910018 0.24063338 -1.0351214 -1.0886812 -0.6163243 -0.7188873 -0.7499656 0.0027017286 0.0979864 -0.020559479 0.9425982 -0.7518088 0.023294138 -0.69873494 -0.97144777 -0.24399126 0.9766127 -0.8882775 0.39462537 0.13547084 -0.4839992 0.3658786 1.3112544 -0.14448467 -0.3655091 0.3547788 -0.4106687 -0.47340822 0.36753538 1.0263454 -0.9011028 0.76388913 -0.18930958 -0.17016132 1.2594942 0.028449288 0.31177273 -0.39792788 0.24536781 0.5996361 0.10307889 -1.4412539 -0.265424 0.6026422 0.020265039 -0.0031166822 1.6524289 -0.6424134 -0.06720736 -0.35079908 -0.8540349 -0.26391208 -0.0018628963 -0.27809727 0.5787209 -0.1046008 0.09990655 0.3277717 0.73014903 0.42685822 0.7121486 -0.7621373
1376 -0.26257277 0.50109386 0.25055656 0.29672435 -0.32557422 0.2214604 -0.97915554 0.07380896 -0.67814374 -0.8243515 -0.033822514 0.028006546 -0.09439767 -0.42246717 0.22230761 -0.24314421 -0.4637948 -0.9089336 0.34205648 0.87224066 -0.1678151 0.24102645 -0.88085 -0.065059 1.4083389 1.0046076 -0.5792802 -0.14315586 -0.17724593 -0.09981472 -0.11844917 -0.47004893 -0.37438378 -0.04136718 1.4175837 -0.41805613 -0.072751425 -1.0140113 0.63532394 -0.55030084 -0.47742453 1.5042361 -0.068057664 -0.7821107 -0.4989461 0.3931238 0.51735806 0.7341009 0.4760032 -0.40522888 0.26970562 0.1473489 -0.33424148 0.17761628 -0.03845759 -1.2319125 0.12336415 0.8319399 0.36956972 0.4933617 0.26873618 0.60639375 0.2728219 -0.95147496
670 -0.091034666 0.40199593 0.3593443 0.06451691 -1.0036743 -0.06721616 -0.33948055 -1.1877056 0.17733693 0.052722536 0.36128727 -0.99133617 -0.11257387 0.34780288 0.62083286 -0.92074287 0.22815308 -0.06471139 -0.5649546 0.51987875 -0.7226607 -0.59127116 -1.6616932 0.8015729 0.37677374 0.70662284 -1.1601864 0.13449761 0.17089383 -1.1831927 -0.3914936 0.43764842 -0.4800289 0.28286776 -0.16946247 1.1187211 0.47131193 -0.5371442 -0.13198061 -0.042764287 0.21908104 0.6056767 0.0067629335 -0.9743569 -0.37823516 1.5042456 0.45871282 0.04983207 0.84355426 -0.42875248 -0.286617 -0.82245046 -0.6477318 0.9610428 0.5697229 -0.2703372 0.5662731 0.258758 0.45984647 0.26090252 -0.25268534 0.20827627 0.6515384 -0.11190314
12 0.040129665 -0.017896568 0.52022153 0.08487078 0.13293503 -0.3365736 -0.37907878 -0.3921215 -0.35551298 0.23619854 0.65288055 -0.65016913 0.015599278 0.4849742 -0.34820786 -1.1581131 -0.2144544 0.3138264 -1.0586317 -0.059945583 0.62743247 0.10715108 -1.1669413 0.23951286 0.718113 0.038289603 -0.89722604 -0.26516572 -0.35695052 -0.7074515 0.17558762 -0.136002 0.101792164 0.1314842 -0.9568453 0.7677997 0.0727295 0.027660677 0.4750693 -0.08685988 0.6251632 0.14449951 -0.42195708 -0.3004416 -0.43526626 1.0795928 -0.10171076 -0.024892714 0.9027344 -0.4586545 0.05315778 -0.4181962 -0.5832835 0.65015817 -0.20221987 -0.819359 -0.1452753 -0.40384796 0.74351513 0.36372316 -0.5320241 -0.7012278 0.20692417 -0.44440302
