5085 64
1737 -0.20866126 -0.14120643 -0.13113116 -0.22967651 0.037572745 -0.21140848 0.46903142 0.09001312 0.10992577 0.18471387 0.08176447 0.22499183 -0.027337842 -0.5784284 0.28332213 -0.32598877 0.011038624 -0.14794575 0.33103287 0.3879603 -0.06009032 -0.26509577 -0.1186147 -0.11711879 0.025035666 0.15615495 -0.80890626 0.12178104 -0.29101402 0.060239088 -0.3699898 0.32311735 0.09511738 -0.07823832 0.07925564 0.2899976 0.38888687 -0.0061117853 -0.090876944 -0.082586676 0.056011748 0.037354674 -0.221335 0.25977093 0.01992759 0.3197527 -0.15189773 0.17370893 0.15344405 0.18669097 0.49223956 -0.24550343 0.2369509 -0.3852788 0.36813644 -0.061247546 0.23789746 -0.09483924 -0.26493707 0.22707829 0.31732658 0.22715048 0.22466758 -0.10759026
58 -0.06100954 -0.2748744 -0.06479004 -0.1968856 0.3706068 0.08322619 0.025033157 -0.06769574 -0.005469235 0.030670015 0.2731364 0.2246729 0.018809376 0.12404581 0.34854272 -0.15470502 0.2971778 0.2748507 -0.01899356 0.014358064 -0.15194042 0.27067384 -0.4847087 0.22724512 -0.15662636 0.09323692 -0.30739543 -0.13190037 0.02585687 -0.21464905 -0.3943677 0.13875106 0.1604699 -0.2510365 -0.68007195 0.39542475 -0.44376183 -0.08806293 -0.334811 0.4485922 -0.041543335 -0.6346706 -0.5336562 0.2971058 0.026597882 0.15873705 -0.10785873 -0.43510184 0.31054294 0.020334478 0.3303968 0.36155343 -0.19923994 0.519552 -0.6946585 -0.38964328 0.22199874 -0.076406345 -0.1604552 -0.27332073 -0.048163995 -0.04339401 -0.32346624 -0.38959682
84 0.19768439 -0.26601914 -0.19085707 -0.42308533 0.064131655 0.0025947746 0.30305085 -0.11032819 0.30543926 0.4643767 0.062632985 -0.18616287 -0.02395624 -0.0070777475 -0.24802789 0.3374986 -0.15198354 0.346391 0.0065985415 0.09042981 -0.5768685 0.14280799 0.25775596 0.3541125 -0.33189327 -0.09547959 -0.81851006 0.018494733 -0.2343933 0.18822888 -0.15466063 0.19374318 -0.48048732 0.44076997 -0.61406714 0.041972846 -0.4694336 -0.027543286 -0.075601615 0.16551168 0.22358349 0.038204122 -0.7631398 0.45685938 -0.12746121 0.38876933 -0.114586964 -0.21339208 -0.21469028 0.535697 0.16142064 0.21764044 0.31044653 0.3307335 -0.5448482 -0.15175611 -0.08597465 0.12990752 0.01152633 0.32760108 -0.003706253 -0.58071613 -0.5192816 0.25154206
61 0.48721066 -0.09045505 0.12322607 -0.21321906 0.45080605 -0.42557597 0.21784031 0.2648936 0.080829695 0.5277135 0.2968581 -0.052994885 0.3487398 -0.50998276 0.33859444 0.12519158 -0.024945373 -0.24178609 0.35761592 0.1127963 0.3163811 -0.24102929 -0.49622157 -0.6217962 -0.16906862 -0.11005981 -0.5239491 -0.006182651 -0.12112966 0.48812473 -0.058761623 0.37941477 0.43861374 -0.2274058 0.09063804 0.109124675 0.04146826 -0.30864072 0.030083504 0.06988446 -0.10285955 0.029767456 -0.48428574 0.44987974 0.18493348 -0.024168134 -0.07663991 0.3212453 0.1330894 0.2974388 0.4074363 -0.029609933 0.2854143 -0.41368762 0.06717048 0.056187354 0.25276712 -0.32088286 -0.24405149 0.1127302 0.02470875 0.17550547 -0.17689773 -0.020957347
1742 0.6132205 -0.6004929 -0.16588178 -0.1137565 0.449128 -0.16791818 0.50999314 0.26361686 0.22585963 0.30641282 -0.3149489 -0.013011567 -0.2156442 -0.5395193 0.42717016 -0.12571676 0.12574528 0.35798818 0.52358186 -0.41438723 0.49270663 -0.21834491 -0.42139125 0.34212607 -0.24024966 0.1482536 -0.2788841 -0.0115584135 -0.19626021 -0.30399746 -0.3075307 0.401303 -0.10089799 -0.3408086 0.44316983 0.07902945 -0.24190272 -0.26491106 0.17394583 0.082348004 0.2112714 0.16660623 -0.7606681 -0.031655468 0.22568262 -0.85419995 0.02606876 -0.36654782 0.069602154 -0.15095705 0.45231044 0.12178706 0.012396657 -0.40626884 -0.18217555 -0.0016292166 -0.25385258 0.055074234 -0.12930666 0.30705726 -0.25530183 -0.09299018 -0.12928922 0.3209763
1740 0.21458113 -0.1910532 -0.07987201 -0.037469227 0.6232893 -0.42804945 0.2509138 0.23695156 0.14508498 0.51219183 0.018530516 -0.18980373 0.29793367 -0.4297931 0.14819746 -0.25543186 -0.49626175 -0.24797088 0.4655949 -0.06361803 0.030378414 -0.13833924 -0.4253851 -0.68729347 -0.11767467 -0.18774503 -0.46283808 0.06157653 -0.111557156 0.51339453 -0.16450135 0.3015857 0.40494943 -0.22841491 0.06747912 0.5370607 0.105940185 -0.30454567 0.092774 0.25561705 -0.18501885 -0.007383277 -0.537344 0.46938008 0.2710641 0.05942582 0.09462807 0.17432734 0.34735325 -0.031413563 0.29946795 -0.029378083 0.14804657 -0.5314598 -0.014712469 0.13795206 0.17335132 -0.44382372 -0.34786913 0.17735639 0.28240207 0.0024335193 -0.19966668 0.088937536
1 0.44228888 -0.32829034 0.061916146 -0.35986018 -0.21674691 -0.43570808 0.27724326 0.5024119 0.44379795 0.24189214 -0.21312493 0.0514074 -0.25983623 -0.22937605 0.30138582 -0.1560708 0.7493967 -0.3685292 0.17998572 0.06870115 -0.05433208 0.40922356 0.101484895 0.04448721 0.057100233 0.21697432 -0.7447748 -0.09059736 0.26713222 0.71796787 -0.25904325 -0.21755321 0.06617596 -0.15170579 0.37635145 -0.109026924 -0.31707945 0.11686186 -0.00938742 0.35975537 -0.0022369418 0.42301002 -0.29662815 0.6032407 0.2965361 0.44309643 -0.055283166 0.14881271 0.30951852 0.17101613 0.5954906 -0.54656726 -0.13829087 -0.14734189 0.10182434 -0.099197425 0.14300819 0.23984624 -0.33379936 -0.09811953 0.31524268 -0.35917452 -0.071952 -0.14681698
7 0.41514128 -0.2532053 0.11202836 -0.17391269 0.07886323 0.07529626 0.34407946 0.09971172 0.4132403 0.20144452 0.3661795 0.2360602 0.10618603 -0.503121 0.63993573 -0.15551165 0.18472326 -0.49115506 0.5434967 0.26700845 -0.023353934 0.21374013 0.09125745 -0.18217392 -0.28454983 -0.29233205 -0.44288248 -0.062550224 0.17179428 0.080205545 -0.2612535 0.14177372 -0.07504766 -0.05229115 0.31354037 0.13864066 0.38425636 -0.018565552 0.25632605 -0.25762004 0.42565376 0.22127958 -0.72637314 0.58922905 0.21151946 0.23831032 -0.2655186 -0.32225364 -0.14521405 -0.31519833 0.4579832 -0.2769031 0.60932434 0.083903424 0.10192148 0.18485774 -0.16200988 -0.5333434 -0.08606988 0.14294992 0.6481127 -0.18066935 0.43580177 -0.39992884
67 0.3463663 -0.13153026 0.077907525 -0.00832474 0.6407967 -0.43188864 0.3864263 0.3499421 0.14179318 0.20617537 0.23355538 0.16850466 0.29684728 -0.1903048 0.54162794 -0.068736516 0.057811584 -0.33274692 0.22285616 -0.008595042 -0.07040456 -0.47779423 -0.3506443 -0.72186667 -0.47675088 -0.09433395 -0.60491973 0.2981613 -0.08801871 0.46333435 -0.11853121 0.19930382 0.25002015 -0.1367972 0.060299214 0.5757942 0.048720658 -0.59917986 -0.002549202 0.24336751 0.03549659 -0.018519305 -0.5512773 0.3228746 0.46378297 -0.41307214 0.26035872 0.36507058 0.45652363 -0.1829684 0.20373447 -0.19030355 0.07917096 -0.46893406 -0.034812573 -0.16564496 0.13384984 -0.4924718 -0.28835192 0.013665031 0.04500207 -0.39738584 -0.09075732 -0.1112951
5 0.416091 -0.10531279 0.27214172 -0.14840743 0.25921935 -0.05317313 0.10766773 0.33997753 0.04381236 -0.23654215 0.21204326 0.2254116 0.18971832 -0.3579448 0.1783038 -0.25247434 -0.04385424 0.28479883 0.19609778 0.33382708 0.06516288 -0.14993212 -0.2913986 -0.59600735 -0.44016838 0.45986933 -1.0294784 0.16555151 -0.18169115 0.11948829 -0.42193452 -0.13128887 0.015031191 -0.2223183 0.0842322 0.48088387 -0.07259935 -0.25488377 0.058791395 0.15180643 0.38125014 0.5058701 0.10549914 0.62208945 0.030626457 0.35190386 -0.16747007 0.48755953 -0.11292111 0.3612039 0.56844956 -0.58395666 0.29950637 -0.15669478 -0.2944547 0.2611155 0.025870522 -0.81251687 0.14787702 0.2892073 0.14458643 0.12524089 0.13404651 0.059041053
68 0.27462724 -0.18256064 -0.20281726 0.21144465 0.308993 0.032019198 0.5262104 0.24789612 -0.040172886 0.29949686 0.20638187 0.50661534 -0.12567902 -0.22395289 0.53317416 -0.022421092 -0.17903928 -0.39582807 0.3263725 0.31167743 -0.43835923 -0.40675613 -0.4941871 -0.29041296 -0.20699388 0.11930566 -0.6042251 0.27140003 -0.16445391 -0.059529096 -0.16108224 0.64702046 0.4814925 -0.19066048 0.28017974 0.15230268 0.050054085 -0.47339305 0.06252282 -0.23799123 0.036636747 -0.22090495 -0.4944526 0.040321846 0.5644995 0.1027131 0.1337394 0.33875662 -0.064591214 0.2742584 0.4750425 -0.41388187 -0.0063228346 -0.37621403 -0.26794764 0.07039083 -0.062117975 -0.010052308 -0.5771326 0.25321582 0.26478317 -0.74500644 -0.27948955 -0.15032917
62 0.1949603 -0.47131556 0.27347207 0.03538546 0.12271078 0.09525164 0.5375065 0.5972408 0.6099729 0.030243568 -0.23682703 0.25417554 -0.11623277 -0.22866851 -0.07982436 -0.18175139 0.15645505 -0.13489069 0.26438683 -0.1977317 -0.24956138 0.47192818 -0.06925056 0.3898048 -0.11833632 -0.21016024 -0.46768844 0.28160027 -0.16946457 -0.03334813 -0.09135556 0.25199434 0.464911 0.25364152 0.48182487 0.46212694 -0.028940782 -0.726799 0.4789772 0.599027 0.15662442 -0.34203106 0.006526173 0.7173477 0.034706432 -0.055046666 -0.54819024 -0.05183258 0.23231418 0.034012344 0.6896925 -0.45025074 0.14033112 -0.038243596 -0.089288875 -0.23222926 0.77797663 -0.3253201 -0.33600903 0.29855707 -0.04755952 -0.091984734 0.54851466 0.1797689
1788 0.5174424 -0.49167705 -0.1176327 -0.4282662 -0.120855875 0.041359648 0.27685413 0.5005286 0.35875136 0.15605558 0.26204786 0.08977816 0.36925414 -0.2759607 0.3855536 -0.64201033 -0.21566589 -0.020532526 -0.065967605 -0.3693921 -0.16444904 -0.42227718 -0.31590042 -0.5011041 -0.10336501 -0.19894871 -0.5304274 -0.51494527 0.0860118 0.1477687 -0.36085844 0.3389678 0.27774364 0.12893294 0.56114304 0.022904607 0.37188184 0.033473704 -0.0330909 -0.16230704 0.581031 0.24544196 -0.48633102 0.5895091 0.20991684 0.57416314 -0.6407937 -0.2780664 -0.14602186 0.18500502 0.24300282 0.001524135 0.25862196 0.27756327 0.21166961 -0.039283793 0.18513305 -0.21252638 -0.15117389 -0.074765734 0.59769917 -0.2086326 0.17136316 -0.15076415
6 0.34383193 -0.16574147 0.07814345 0.07111444 0.4503559 -0.5912916 0.24255632 0.17536709 0.24747956 0.29890808 -0.2561873 -0.035026073 0.116719075 0.07916649 0.09310484 -0.116738215 0.1419291 0.15695392 0.29664895 0.071696244 -0.539598 0.5241041 -0.32321927 -0.60384613 -0.29249868 0.09845068 -0.82089674 -0.1364855 0.36788473 0.102237254 -0.63591903 0.3358575 0.10467207 -0.016199045 0.35120457 0.5957042 0.4879226 -0.117590785 0.52283967 0.1970614 0.49653968 0.271347 -0.5065296 -0.14985551 0.11335651 0.6149268 -0.077445135 0.35941884 0.08202432 -0.050949965 0.8467521 -0.34374702 0.19122007 -0.3652684 -0.09588636 0.47669262 0.06972257 -0.17939869 0.09582529 0.1330477 0.29752308 0.43568546 -0.10881806 -0.34055394
69 0.63293934 -0.2461215 -0.1015003 0.14944336 0.49160314 0.09623363 0.52461404 0.68165314 -0.33332044 0.46943206 0.3163925 0.5945498 -0.124061406 -0.16860655 0.48892438 -0.061383106 -0.1817943 -0.2500314 0.25491178 0.025414433 -0.31629464 -0.44141415 -0.45187187 -0.4713374 -0.21498749 0.136622 -0.71376467 0.105193846 0.16028604 0.14367968 -0.20900896 0.73269224 0.45271927 -0.02710933 0.29610893 0.08191937 0.10358226 -0.40441957 0.2831046 0.20364456 0.096632935 -0.104425356 -0.27246734 -0.1591132 0.2833356 0.16238378 -0.2331319 -0.040666275 -0.10823009 0.10026439 0.22877166 -0.11253388 -0.009468197 -0.15025912 -0.7918709 0.10110708 0.007009041 -0.024095029 -0.53465855 0.059697803 0.1845017 -0.6557679 -0.503195 -0.14848615
66 0.64406633 -0.30088714 -0.09619498 0.29569703 0.60138917 -0.09126021 0.47238797 0.47594127 -0.2267373 0.43092012 0.42025098 0.6295617 -0.11813087 -0.38618493 0.56357133 -0.06835205 -0.22681029 -0.20355487 0.31308827 -0.04895283 -0.30378178 -0.2732584 -0.30334076 -0.24208267 -0.37220863 0.19752179 -0.6384571 0.025723603 0.12903483 0.20036033 0.008969219 0.7391904 0.4764563 -0.16873035 0.44165105 -0.123577684 -0.0047883247 -0.39229935 0.20497563 0.04254929 -0.035922576 0.05697197 -0.3330678 -0.048527595 0.15875699 0.23584445 -0.19137031 0.16772385 -0.24694186 0.3372296 0.2249864 -0.23765087 -0.07950197 -0.1475565 -0.7021218 -0.0052712425 -0.16650395 0.04212283 -0.60481226 0.3066116 0.029038433 -0.6824568 -0.4496006 0.032445263
64 0.47054675 -0.14106728 -0.1709336 0.27794006 0.5058898 -0.1492743 0.8143919 0.71135974 -0.41299084 0.469369 0.39883417 0.56369936 -0.04278124 -0.24164556 0.39264265 -0.08853484 -0.12570214 -0.079823405 0.30275646 -0.13870937 -0.2840555 -0.22712956 -0.2977007 -0.44564658 -0.31719884 0.29504004 -0.6079751 0.022974778 0.10360059 -0.03640512 -0.09350124 0.5839156 0.51904345 -0.08136422 0.28903067 0.008719011 0.045437448 -0.3857175 0.14805228 0.080700904 0.004489492 0.13929121 -0.34148243 -0.06761901 0.3514248 0.13060416 -0.11572197 -0.10088507 -0.12026582 0.30371112 0.33969235 -0.33082697 -0.0029136145 -0.39758158 -0.7361535 -0.044906985 0.06771336 -0.029216036 -0.37148833 0.17547855 0.14777353 -0.5490428 -0.48703167 -0.056537036
1808 0.17827418 -0.07325272 -0.53435796 -0.15187722 0.23151763 -0.04686534 0.74189687 0.4603164 0.27765876 0.5863138 0.30901128 0.065758705 0.3997543 -0.27000627 0.28324485 -0.41021186 -0.36489767 -0.044771634 -0.04852647 0.06262639 -0.40667397 0.36220866 -0.4672302 -0.2956886 -0.27003545 0.08079421 -0.7296696 0.048968203 0.7583401 -0.03081183 -0.94036096 -0.022946127 -0.0818499 -0.30471578 0.5228404 0.42219833 -0.1563662 -0.53287786 -0.043291025 0.17434922 0.1918593 0.44230357 -0.17712255 0.41956678 0.03798518 0.014895956 0.2478551 0.31095266 0.13718933 0.3600923 0.5546111 -0.27949446 0.015789086 0.06818692 0.10044835 0.77432543 0.41929078 -0.13254385 0.39315856 0.10617639 -0.039059937 -0.20144252 -0.11232006 -0.16187686
15 0.3338621 -0.35110036 0.095585585 -0.29338828 0.53894746 0.26778662 0.20342016 0.30705786 0.17216572 0.27249783 0.5564401 0.051121395 -0.59161144 -0.14255464 -0.66853535 0.17224321 0.75175476 0.39239928 0.3917912 0.28676555 -0.58582366 -0.03627612 -0.85572404 -0.11543095 0.186839 -0.31063265 -0.36465138 0.094960324 -0.78936166 0.452413 -0.45496827 0.36624926 -0.14980523 0.093283266 -0.3573344 -0.5171233 -0.5424769 0.28273925 -0.060917843 -0.41637453 0.7286023 -0.27274734 -0.7304554 0.52234906 0.5640438 -0.1804449 0.04055632 -0.14342986 0.13198122 -0.15022582 0.45818967 -0.18904567 -0.24066421 -0.3220539 -0.1987726 0.025814183 0.5571695 -0.28081068 -0.06118046 0.32412508 -0.3079388 -0.34506932 -0.20011243 0.04587203
3 0.67568654 -0.2010219 -0.12115283 -0.11305634 0.8496647 0.0030886377 0.78366005 0.2163803 0.5358121 0.26725614 0.8968417 -0.34461936 -0.12711434 -0.10662363 -0.043875784 -0.22640404 0.025508318 -0.018763384 -0.1596904 0.16576664 0.064544156 -0.1586571 -0.1593817 -0.11888575 0.29871416 -0.08612801 -0.70882756 -0.57334626 0.14136763 -0.116279185 -0.33409104 0.09989715 0.39773658 -0.057102542 0.35619092 0.7776618 0.52519166 0.10136337 0.08489458 0.17995721 -0.284811 0.10942484 -0.314257 0.16671292 0.24669193 0.09383234 -0.33211905 -0.21968444 0.20716701 0.22636233 0.7039248 -0.52374375 -0.087614745 -0.29929307 -0.30296344 0.061699823 -0.34067732 -0.112582505 -0.5505044 0.57015496 0.17269814 0.08675011 -0.33355418 -0.023018254
60 -0.021473896 -0.7680716 -0.19166107 0.2106381 0.085845955 -0.30828726 0.7845257 -0.06674121 0.20310898 0.33392197 0.79467314 -0.19349931 0.054346047 -0.18774919 0.08968916 0.03932225 -0.37086678 -0.38410893 0.74165857 0.4845626 -0.16786845 -0.13561532 -0.26867822 -0.2787845 -0.30165878 0.037875503 -0.7984808 0.0918095 0.43081382 0.21503106 -0.8033181 -0.12478176 0.742421 0.074623965 0.2872486 0.19802916 0.5921201 0.24909562 -0.22103567 0.026197303 0.072846174 0.20387854 -0.45040846 0.16445465 0.20905977 -0.046089545 -0.79445684 0.18304273 -0.113026425 -0.38162795 0.1474835 -0.42731714 -0.023108086 -0.23542947 -0.46496868 0.41044974 0.1317658 -0.7155604 -0.46976915 0.020697907 -0.37353304 0.005438493 0.0029454476 0.11558982
70 0.035100132 -0.2501409 -0.38461 0.40490684 0.34224072 -0.12123965 -0.018836664 -0.05913293 -0.006402858 0.25669038 0.25209823 -0.07224712 -0.28639776 -0.40765074 0.099389955 0.16286322 -0.6151694 -0.22259383 0.1034126 -0.16170439 -0.061416414 0.08708076 -0.8309849 -0.30922788 0.015216214 -0.029320357 -0.7843821 -0.2672998 0.47581488 0.21305723 -0.20999499 0.45838073 0.09995839 -0.12585054 0.6107951 0.36546698 -0.040180076 -0.10560929 0.13958366 0.790485 -0.045622937 0.21858642 -0.68067086 0.29776892 0.5848592 0.12119204 -0.16355102 -0.008487992 -0.0569728 -0.043615628 -0.062145583 -0.8204578 -0.28229025 0.08590865 -0.5456157 0.06509004 0.35754144 0.11928147 -0.2788301 0.20793718 -0.369962 -0.5344415 -0.18738694 -0.9848124
63 0.1605034 -0.008361309 -0.46138188 0.26564667 0.1613068 -0.18139443 0.20134415 0.21942565 -0.06225127 0.321733 0.1957392 -0.1412622 0.027810825 -0.12954389 0.2647341 0.055474643 -0.39760262 -0.062586084 0.26364902 0.058860663 0.023234164 0.10863694 -0.54202265 -0.70762485 0.020610273 0.20387016 -0.5983413 0.10387587 0.34474733 0.0152021125 -0.25060105 0.62697697 -0.07613663 -0.030792942 0.45955867 0.20901538 0.029823307 -0.09423091 0.014724629 0.77709264 -0.26839668 0.3170505 -0.85831684 0.587085 0.21160942 0.18469861 -0.42462906 -0.34543845 0.02177698 -0.18008964 -0.04128926 -1.0574505 -0.425672 -0.059923906 -0.6372417 -0.13560611 0.4234084 0.21978441 -0.12607214 0.43798566 -0.011540721 -0.2531603 0.061951313 -0.7421001
65 0.31076026 0.10030713 -0.3399348 0.5770213 0.004025429 -0.34267515 0.048245337 0.07052139 -0.20619608 0.41397613 0.55670416 -0.104977034 0.2185484 -0.26615885 -0.011958311 0.06110594 -0.4108932 0.07677449 0.28400606 0.25023583 -0.036024734 0.0046236524 -0.47096962 -0.40029198 -0.016401464 -0.107279316 -0.80845904 -0.17060906 0.10371294 -0.12901387 -0.3223261 0.74293995 0.13419445 0.19269271 0.55264556 -0.018598964 0.045149192 0.011617288 0.14807323 0.5396005 -0.09266632 0.33652446 -0.846763 0.58078974 0.46464798 0.4924673 -0.29649568 -0.23087525 0.12544024 -0.065338075 0.10439462 -0.9960475 -0.48119172 0.00012369937 -0.4355131 0.01204684 0.085731514 0.102536656 -0.15247115 0.33070865 -0.4960753 -0.45505753 -0.061435647 -0.70593137
16 0.074914984 -0.32869193 0.07492809 -0.5805169 0.9057054 -0.204308 0.59606946 0.25588813 0.7308131 0.13358559 0.62483484 -0.19788933 -0.5894737 0.017752118 -0.46740723 -0.13837105 0.6200087 0.4507065 0.222667 0.2952877 -0.24664208 0.16853128 -0.5533038 0.17089859 0.09598428 0.19611983 -0.09602368 -0.03766748 -0.7448123 0.54355246 -0.034856 0.27612358 0.35924485 -0.30767635 -0.51571196 -0.22049238 -0.3367027 -0.2838843 -0.16873682 -0.7261882 0.6841845 0.113927275 -0.37659848 0.46260035 0.52066743 -0.052507225 -0.071159564 -0.32312462 0.03471966 -0.42132926 0.33931407 -0.600791 0.4437645 -0.12633789 -0.36716047 0.03395122 0.50460243 -0.016975805 0.34652156 0.2572347 0.0056926473 -0.48544732 -0.7835533 -0.4724554
1748 0.32880428 -0.81681293 -0.466447 0.49165267 0.8854845 -0.29791686 0.5888712 0.08623847 0.173046 0.34995615 0.16611384 -0.08619704 0.49344635 -0.23218003 -0.15252572 -0.55194914 -0.31008425 -0.30663407 0.43799138 -0.2828286 -0.08563748 0.14829873 -0.012949066 -0.055540755 0.17860451 0.4640778 -0.6558963 0.43469054 0.100099064 0.35760278 0.24526791 0.42242274 -0.109562956 -0.34736177 0.1959462 -0.23804696 0.3187054 0.0968333 0.11973083 0.3085478 0.16717805 -0.15557225 -0.5577579 0.3786273 0.7605024 0.21172322 -0.76724076 0.24240169 0.5043022 0.50689983 0.23980153 -1.0235031 -0.07558923 -0.07073327 -0.06594284 0.17962708 -0.015067382 -0.010199018 0.31298175 -0.61515176 -0.16158763 -0.28087643 -0.06895015 -0.03534135
80 0.05506937 -0.4476021 -0.4929721 0.1780333 -0.3977664 0.37991944 0.48844185 -0.47050515 -0.17093079 -0.26773596 0.73871714 -0.070919074 -0.12550937 -0.44546938 0.14781919 -0.7855329 0.18745041 0.17398006 0.43270805 -0.36507243 -0.14761946 -0.2062878 0.5773243 -0.4284171 0.47618532 0.6608557 -1.0201787 -0.20494011 -0.71505076 0.58791834 -0.4852257 0.058529817 -0.39996094 -0.045742054 0.08200016 0.38927487 -0.7583766 -0.54873043 0.87791985 -0.18485649 0.1637502 -0.58039814 -0.8354561 0.18459389 0.014202284 -0.18978648 0.21048261 -0.2011675 0.1069805 0.035673317 0.28675342 0.04863431 -0.18086617 -0.20741476 -0.198415 0.24412666 0.2757847 -0.17279398 -0.087557875 -0.27310815 -0.38440487 -0.3056493 -0.6820635 -0.35555708
4673 0.8407822 -0.7301143 -0.39116532 0.31075624 0.10074825 0.15229128 0.40567082 -0.15040527 0.4907791 0.039037757 0.22733645 0.024967872 0.23166543 0.3743089 0.13932765 0.20121868 0.29532376 0.20745142 0.5146368 0.06983317 -0.090964474 0.21307649 -0.17968889 0.57900655 0.07677858 1.1690015 -1.0248164 -0.22099459 -0.6298839 0.12409929 0.04864792 0.80157167 0.74381185 0.65423906 -0.24774553 -0.04659556 -0.9013841 -0.020828988 0.69616795 0.078096785 0.017276771 -0.054717284 -0.23504806 0.054180603 -0.22184798 0.16098826 -0.0580261 0.038095124 -1.00718 -0.2636667 -0.03321925 -0.5400838 0.028555904 0.44951442 -0.00031480016 0.19184531 0.011451765 0.12802613 -0.43661004 -0.07776141 -0.09575491 -0.6069053 -0.07229055 -0.34595078
21 0.75162566 -0.38760453 0.18023726 -0.22919698 0.18959598 -1.0457994 0.015598601 0.39090776 -0.20829397 -0.25195318 -0.32376388 -0.20633905 0.4255143 -0.506965 -0.28485596 -0.09538003 0.60058784 -0.5954714 -0.6176699 0.21291915 -0.120504245 -0.29390422 -0.10966016 -0.7557686 -0.03281621 0.17225185 -0.9302036 0.14209403 -0.111280985 -0.5601027 -0.47493753 0.48277104 -0.310976 0.51580316 -0.01289497 -0.3853257 -0.05918446 -0.31128553 -0.10933066 -0.21609713 0.47066927 -0.08924449 -0.87698174 0.3958951 -0.23238127 -0.4460856 -0.22189172 -0.47409722 -0.047782086 0.30888346 0.23745228 -0.39983037 -0.12697732 -0.029212452 -1.116275 -0.45592663 1.1388134 -0.26958895 -0.29431072 -0.29257557 0.40037096 -0.11684277 0.012655548 -0.53542006
114 0.42867398 -0.34736487 -0.40761298 -0.17605914 0.14462721 -0.11667733 -0.29999003 -0.21624833 0.20915815 -0.36966434 0.060881373 0.6938225 -0.12249751 -0.24619944 0.1670907 -0.7289684 -0.13888128 0.19083539 0.020135012 0.61979043 0.33184943 0.19851856 -0.105553314 0.119964026 -0.73040396 -0.09834142 -0.41798118 0.32846764 -0.27379313 0.09573564 -0.639077 0.3379276 0.09205297 0.49197495 -0.33204058 -0.42920268 0.14894967 -0.0011962192 0.12207045 0.35202804 0.27971694 0.31738576 -1.2160233 0.42523497 0.016271926 -0.113234505 -0.5416667 0.25621822 -0.61449516 -0.2423907 0.46401417 0.34693593 -0.4552831 -0.45269427 0.09470485 0.353027 0.22578198 -0.63162166 -0.33920708 0.60842365 0.1288631 -0.023042582 -0.9597637 -0.48280427
4693 -0.1883086 -0.22159296 -0.6392738 0.43783522 0.73265845 0.2527986 0.43672663 0.3286468 0.416319 0.32895195 0.40862265 0.4133977 0.52983475 -0.19320902 -0.27469358 -0.3462043 0.6097867 -0.3128296 0.17482023 0.61883867 -0.059427116 0.1587538 -0.37889493 -0.11826214 -0.28937232 0.58241147 -0.5989308 -0.069820136 -0.846485 0.042304263 -0.49575856 0.3388338 0.33210763 0.10904254 0.5791294 0.5918589 -0.32759887 0.08409356 -0.26334152 -0.15752472 0.08457202 -0.18687782 -0.5163014 0.6632378 -0.4111251 0.5732363 0.5229691 -0.17214637 -0.0572165 -0.25280505 0.11046604 0.23758161 0.007847248 0.46284223 0.10671051 0.47754833 -0.42490527 -0.41983262 -0.0069315657 -0.10122598 -0.59599185 -0.537589 0.08658486 -0.2513861
4672 -0.13655521 -1.1576948 -0.79532415 0.05324704 0.5819856 0.0921783 0.3372704 0.20397694 0.67874056 0.08232129 -0.17125843 0.7981656 0.5013582 0.37030685 0.15445873 -0.11538379 0.34433794 -0.30189857 0.3135806 0.021635368 0.10606863 0.39253345 -0.47437766 0.09116725 -0.291621 0.41583803 -0.7181455 -0.02889396 -1.1293316 0.4134942 0.12798357 0.2730231 0.43501967 0.48857835 0.19396809 0.21197452 -0.4538892 0.17360093 -0.46482137 -0.013869477 -0.52502084 0.029084498 -0.47577775 0.0129222805 -0.14888586 0.24988104 -0.47024822 -0.25831702 -0.3254464 -0.077021234 -0.2113631 0.119140185 -0.53783816 0.29194078 -0.53425366 -0.14260185 0.13669787 -0.576605 0.28732082 0.29224768 0.09249816 -0.09905539 0.19762626 0.052018844
113 -0.20455554 -0.14891525 -0.013987508 0.15530309 -0.25143927 0.16467619 0.4181475 -0.007316826 0.10471088 -0.49251968 -0.029689355 0.5351033 0.4903008 -0.30636328 0.36615586 -1.4184939 -0.21736778 0.94463587 0.16854995 0.33945623 -0.47876334 0.011614132 -0.08271641 -0.37491462 -0.30332386 -0.19942585 -0.44408485 0.5643026 -0.12681204 -0.06834579 -0.61371154 -0.41910106 0.08391448 0.050592948 0.20774862 -0.16364807 -0.7117783 -0.3849461 0.22272918 0.33267623 -0.2079639 0.82447165 -1.0324298 0.24377899 0.073822424 -0.016593654 -0.47560617 -0.6813541 0.10596408 -0.21040215 0.1361688 -0.2807946 0.15308829 -0.23286854 -0.39634496 -0.0059787007 0.42396396 -0.45109636 -0.4945299 0.30562672 -0.13299812 -0.35523158 -0.9161138 0.06527464
4683 -0.2596224 -0.176069 -0.5178728 0.2435141 0.33836842 -0.50034463 0.35709667 -0.014355702 0.08539078 0.16445294 0.20482057 0.2708936 0.65481544 0.082375005 -0.20343873 0.07288268 0.42397714 0.13686845 0.24970692 -0.25076196 0.33620328 -0.30627254 -0.15197578 0.7064521 -0.60231906 0.5470207 -0.39899522 -0.14655982 -0.7607368 0.2643077 -0.088227265 0.24209332 0.48876458 0.13234042 0.21058536 -0.14564459 -0.4664936 -0.12443529 -0.13689224 0.12896588 -0.526206 0.5049857 -1.2594947 0.8273406 -0.47139344 0.42108983 -0.14058697 -0.17689784 -0.35234275 -0.9983631 0.3083017 -0.10766011 0.17086409 0.30399314 0.3323387 -0.19092096 0.27218387 -0.2367208 0.14283024 0.4216231 0.14782646 -0.25396985 -0.1984878 0.22499767
145 -0.2317292 0.24750946 0.0028763458 -0.34965926 0.7592684 0.4373879 0.24010126 -0.20710786 -0.429197 0.13647833 0.029193304 -0.27677488 -0.21009752 -1.3713403 -0.38995886 -0.045391664 -0.032727163 -0.14314257 0.5687881 -0.14474124 -0.5524558 0.31165197 -0.69339836 -0.34362906 0.11287043 0.25467914 -0.040731385 -0.8744318 0.22134292 0.081678465 -0.33949202 0.14657758 0.11938022 0.4640729 -0.66494864 -0.6916707 -0.8500296 -0.47319362 0.073012546 -0.36573783 0.42394826 0.23729235 -0.39800453 0.9923223 -0.396983 0.49534667 -0.5048276 0.01995371 -0.10339004 -0.43815607 0.97877777 0.23405525 -0.14856051 0.044227466 -0.24285482 0.5067474 0.6129794 -0.44776112 0.24294052 0.071519375 0.090225145 -0.22122891 -0.4182821 -0.1712449
115 0.89772063 -0.42418593 -0.24726665 -0.2948004 0.18001422 0.08637336 0.1634835 -0.61265165 0.30069113 -0.9354505 -0.549784 -0.024746856 0.14516082 0.10205995 0.22950855 -0.14357449 0.24461783 0.45342493 -0.18076736 0.69252235 -0.20296974 0.7253579 0.18671437 -0.26452878 0.015612575 -0.5629227 -0.587538 -0.01385914 -0.5263232 -0.2175127 -0.49177614 0.40616626 0.09490153 0.25058413 -0.22925004 0.32202607 -0.06625466 0.104151465 -0.045684636 0.09029794 -0.44571158 0.23829332 -0.9011632 0.14608881 0.5902207 0.15268715 -0.45047948 -0.13303411 -0.10590697 -0.41452768 0.84552586 0.13127226 -0.40387002 -0.27021536 0.17359814 0.070256904 0.19593233 -0.70370364 -0.34413564 0.2835516 -0.014590608 -0.51853395 -0.18644106 -0.56701505
1729 0.123027906 0.0788673 0.2551553 0.22018363 0.87294143 -0.045063585 0.38905755 0.33323336 -0.16442607 -0.69851595 0.09026723 -0.74644524 -0.07961366 -0.44539773 0.0835262 0.15122887 0.431418 0.012185993 0.24470937 0.5905243 0.01586501 -0.56188893 0.13762327 0.6355311 -0.34006783 0.03119374 -0.51597184 -0.09778064 -0.011539917 0.2736683 -0.5252821 -0.11900861 0.3798806 -0.17905095 0.37708592 0.008016972 -0.8333296 0.38944295 0.095881544 0.08763991 0.037215434 -0.3663721 -0.98713946 0.748018 -0.22811694 0.04545391 -1.0586762 -0.112335056 0.15655696 -0.07202931 0.14652348 0.17473166 -0.30039403 0.33327544 -0.03254793 -0.16394071 0.26824954 0.11167727 -0.30830997 0.5735621 0.5170385 -0.34354737 -0.07478618 0.23428243
4688 -0.153594 -0.29229018 -0.3926323 0.26528224 0.15459757 -0.073961556 -0.15174164 -0.030564874 0.3574498 0.60572374 0.373869 0.12273262 0.63462603 -0.6644463 -0.25627932 -0.4538838 1.0386797 -0.2384974 -0.20339614 0.2265255 0.02645225 0.19898446 -0.0609046 -0.009709517 -0.38144094 -0.06574795 -0.7394302 -0.172709 -0.8480599 -0.1026674 -0.05774169 0.7767284 0.1433635 0.16599032 -0.22117099 0.4467119 -0.4180174 -0.11048187 0.28126994 0.10887958 -0.31028625 1.0152599 -0.5269457 0.1574915 -0.43257907 0.22090693 -0.5216851 -0.06613277 -0.3037003 -0.1993908 0.48155814 0.12732163 -0.31200066 0.48287648 0.004397779 0.48095122 -0.15732601 -0.521749 -0.78100014 0.10600544 -0.41925743 -0.015760643 0.084882855 -0.11176846
4682 0.47275752 -0.37770128 -0.5588684 0.1531319 0.65380883 -0.06605696 -0.0904182 0.18759927 -0.18515798 0.10566751 -0.2058521 0.44951147 0.47018158 -0.05751467 -0.37701103 -0.15336725 0.19608589 -0.04765386 -0.20208432 0.09159224 -0.5215391 -0.08902575 -0.55742323 0.51715773 -0.12931956 0.0696392 -1.0424205 -0.047787767 -0.5532456 0.59643227 -0.01644488 0.8030459 0.17983356 -0.3323283 0.35164708 0.4590669 -0.5695475 -0.080371104 -0.5060045 0.3114683 -0.06078362 0.6418621 -0.37773794 0.48304814 -0.8483367 0.41661614 0.56634855 -0.83179843 -0.11380736 -0.17930411 0.36523956 -0.10674982 -0.327469 0.20550393 0.20138335 0.12825392 -0.0218221 -0.17628074 -0.098523855 0.035824414 -0.17387499 0.021171484 0.3192023 -0.4763954
4696 0.37781546 -0.47822186 -0.6036636 -0.20830104 0.6024028 0.08506378 -0.045874022 -0.1918841 0.21093313 0.091263175 0.07082437 0.45739377 0.66848797 0.08315258 0.43714213 -0.305673 0.24021263 -0.2822212 0.10247492 0.17002653 -0.35125458 0.28652832 -0.252122 0.58852583 0.042340383 0.69343805 -0.34717146 0.1149754 -0.51779413 0.06444118 -0.6145726 0.15545648 0.68791085 -0.35902178 0.40235105 0.75339705 -0.44668382 -0.22678737 0.17589812 -0.07854823 -0.54697317 0.75363886 -0.4258 -0.14135806 -0.041632574 0.05407751 -0.3930777 -0.18970075 -0.47347304 -0.557471 0.32772502 0.22067125 -0.26014727 0.11799749 -0.80982256 0.14163074 0.69435114 0.1099326 -0.5126018 -0.741281 -0.21221973 0.079446256 -0.009647096 0.031138396
4670 -0.55697304 -0.9729306 -0.26522985 0.2237686 0.4924326 0.2161843 0.20718542 0.30308592 -0.24126928 0.81708676 0.41576812 -0.50114053 0.49849796 -0.083141446 0.06919798 -0.3236139 0.7793492 -0.5271445 0.4027374 0.041493814 -0.21807869 0.34735003 -0.5782551 0.3390687 0.010339049 0.5179676 -0.15447496 -0.20634589 -0.677783 0.26245153 0.08062342 0.21178587 0.48747003 0.37342998 -0.16345064 0.33888578 -0.82380867 -0.46759787 0.3681744 0.24957722 0.19110075 0.57180583 -0.50050604 0.75208867 -0.6372583 0.14879146 -0.011585002 -0.34904486 -0.27165806 0.1422329 0.30073652 -0.116116054 -0.09626654 0.089854315 -0.27555585 -0.38070625 -0.042985715 -0.48516026 -0.022077678 0.4452022 0.20778716 -0.06636958 0.2599263 -0.44305623
4669 0.2922982 -0.36090037 -0.6251465 0.48186648 0.124113396 -0.6244311 0.51603633 0.1437472 0.49571145 0.029638775 -0.0030061766 0.18335907 0.5391451 0.19930553 0.06546133 0.39650014 0.6649107 -0.27714595 -0.47928005 0.22707096 -0.62562776 0.51654387 -1.0516741 0.118487746 0.039694045 0.3486221 -0.30796328 0.21536286 -0.727889 0.08722476 -0.4433099 0.21829681 0.16378617 0.50273633 0.059024945 0.78056 -0.5431452 0.09199575 0.11409688 -0.01993628 -0.026806293 0.14463943 -0.80525833 0.35876068 0.81395024 -0.23355748 -0.051239166 0.04236896 -0.37350684 -0.20667547 -0.12033645 -0.09453161 0.62090766 0.4355672 0.07878386 0.012256615 0.5568428 0.297335 -0.2673399 0.1267941 -0.46950895 0.062407568 -0.039265577 -0.1415112
4697 -0.011308997 -0.021658462 -0.22945827 0.027459895 0.49437246 0.04107636 0.5506465 0.025801262 0.39391726 0.9321034 0.23629372 0.5743585 0.8389598 -0.32573643 0.29625055 -0.5709968 0.48890308 -0.16994621 0.04136815 -0.055663362 -0.25669438 0.40298203 -0.4241691 0.3421162 -0.10426707 0.80578244 -0.54634637 -0.15523855 -0.44268623 0.6217417 -0.6314023 -0.10019054 0.44679892 0.31258458 0.013446562 0.15786865 -0.35191274 -0.57355416 0.18741016 -0.636817 0.59998345 0.0056585832 -0.66032183 -0.58722556 0.101843596 0.4913571 0.11274586 -0.028306168 -0.49023637 -0.606764 -0.19818485 0.06412525 -0.18451425 0.10384961 -0.07340218 -0.08185784 0.52308995 0.056680594 0.27162865 0.38848293 -0.83053434 0.11485264 0.25018618 -0.375417
4690 0.8358066 -0.63260335 0.3814142 -0.15942621 0.661208 -0.21918064 0.48245487 0.02441896 0.21495308 0.11960428 0.32408762 -0.33177444 0.8117621 -0.31229475 0.06811923 0.6048412 0.13891105 0.23864993 0.6160268 0.7384974 -0.52904373 0.088969044 -0.17388143 0.5760599 -0.43966457 0.6577242 -0.32542464 0.20082246 -0.73489505 0.4565737 -0.03895975 0.08810681 0.1516906 -0.040951096 -0.224886 0.36158958 -0.7301174 -0.43947223 -0.39987233 0.19599281 -0.18629175 0.53352964 -0.25696817 0.09510305 0.22364613 0.7602956 -0.34725437 -0.21266842 -0.8069195 -0.19475384 -0.10615752 -0.17629512 -0.67586935 0.3061067 -0.0060490044 -0.20198885 -0.02091211 -0.2704945 -0.5171927 -0.26746407 -0.45555827 0.031026129 0.23049738 -0.0026396576
4674 0.5776111 -0.20845069 -0.5477153 0.44810835 1.1291919 -0.36159614 0.8414343 0.19531204 0.21635619 0.35250294 -0.04664787 -0.22107358 0.4498883 -0.063410245 0.27355412 -0.20797813 0.5771769 -0.46715686 0.19846241 0.2995169 -0.40373605 0.49320444 0.6648196 0.56840897 -0.03977982 0.30817518 -0.08692771 0.056831498 -1.1044333 -0.04456054 0.05373517 -0.22039232 -0.054362364 -0.27031288 -0.005099819 0.7359211 -0.7992783 -0.045900077 -0.27309337 0.04475297 -0.016393408 -0.07531687 -0.63729507 0.16534558 -0.11182967 0.15537205 -0.29965022 -0.13186283 -0.28712752 -0.48727763 0.050642677 -0.5182104 0.56896627 0.35562962 -0.39128232 0.29710966 0.43908978 -0.08729042 0.14254464 -0.14742136 -0.117899336 -0.432032 -0.04492248 -0.2966561
4720 0.085103914 -0.37717277 -0.56027836 0.041335136 -0.4775058 -0.16286132 0.611028 0.22346902 -0.40304568 -0.29161656 0.32701015 0.2100501 0.38006538 -0.12607947 0.03839857 0.06447426 0.3528975 -0.33255726 0.46900132 -0.10000667 0.12588601 -0.17458348 0.3118637 -0.029679485 0.15850526 0.4865481 -1.0614303 0.11610014 0.013771973 0.6780033 -0.45760724 0.1562756 -0.06685314 -0.39417475 0.041884787 0.4192266 -1.0504377 -0.5718063 0.7376815 0.43945214 0.5332551 -0.62954426 -0.22785343 0.548831 0.27730852 -0.24235743 -0.45981643 -0.11971073 -0.23096348 0.7524075 0.87866944 0.83656704 0.42649832 0.04838748 -0.10529683 -0.038188778 0.16374496 -0.44554013 -0.18398029 0.2351861 -0.3092338 0.058391076 -0.52583694 -0.51616883
52 0.44192994 0.49849868 -0.060603686 -0.2717258 0.15578789 0.2825813 0.43158934 0.035750926 0.24668887 0.45863074 -0.048950057 -0.026147012 0.110717714 -0.38741878 0.32891124 0.082081445 -0.34729636 0.017314514 -0.5154066 -0.3197557 -0.51629454 0.63965946 -0.33577287 0.13039756 -0.11219363 0.3153743 0.14683875 -0.6751118 -0.23471932 0.7023032 -0.22066534 0.38001454 -0.16893497 0.54509944 -0.15345144 0.31523892 -0.3989849 -0.008797462 -0.81434447 -0.123352565 0.873372 -0.33198145 -1.2455779 0.61623645 0.44215125 0.2000689 0.44136035 0.012016667 0.1393041 -0.2138601 -0.099631004 -0.612056 -0.03129625 -0.3127622 -0.7500283 -0.135553 0.069742635 -0.72953373 -0.35587934 0.3420794 -0.2833425 -0.16895314 -0.049294118 -0.022607049
5077 0.21680729 -0.43043777 -0.05893423 -0.2619851 0.44626588 -0.19874398 0.63479245 0.12523551 -0.07786547 -0.26431865 0.21553731 -0.3114343 0.28627586 0.43421018 0.35647833 0.561705 -0.07675041 -0.15334265 0.071542315 0.841137 -0.48424032 0.34262192 -0.82989967 0.044269536 0.28768533 0.17969504 -0.76595324 -0.21533553 0.42352614 0.02700109 -0.36449313 0.48198465 -0.57416445 0.061335072 0.26200065 -0.22624035 -0.60493886 0.31173676 -0.29973143 -0.032197457 -0.9024472 -0.10622105 -0.66870236 -0.01648946 -0.1333264 -0.49289656 0.124617055 -0.34414056 -0.3611816 -0.6704497 0.641554 -0.5443624 -0.0017799174 0.0023475208 0.046879925 0.31994742 0.48698154 -0.3689118 -0.038261548 -0.061719995 1.0899098 -0.44628835 -0.5153032 0.12957917
133 0.6309846 -0.12883946 -0.49409148 -0.70769703 0.037028626 -0.5890408 0.7520912 -0.13181527 -0.0121796075 -0.48620397 -0.2418459 0.21706043 -0.122283265 -0.3009294 0.3684504 -0.5112137 0.3982416 0.15682429 -0.5021106 0.44469607 -0.010542521 0.3264618 -0.43038258 0.025491972 -0.37854278 -0.3626607 -0.48408517 0.24842861 -0.24626562 0.40760645 -0.58497125 -0.18863124 0.092711136 -0.19725789 -0.3152378 -0.5078231 -0.48184714 -0.40275916 0.15471382 0.17721348 -0.050807647 0.300637 -1.0981674 -0.050204005 -0.2874269 0.09179248 -0.99339163 -0.07047287 0.00059187075 -0.56283355 0.45651034 0.1258997 0.0026156749 -1.1318922 0.22638512 0.02074469 -0.0009985927 -0.53846747 -0.5698318 -0.2813826 -0.15608528 0.012004113 -0.7708442 -0.51493615
4691 -0.23278719 -0.5510269 -0.5113527 0.21724275 0.71321774 0.006148088 0.3274971 -0.5223642 0.11566702 0.542658 0.3120574 0.5023688 0.42692775 0.38978782 -0.27688554 -0.068141416 0.6760214 -0.10098979 0.24009484 -0.5675522 -0.21700372 -0.13750012 -0.4637946 0.7004195 -0.15713443 0.31783843 -1.0306233 -0.16871779 -0.3423333 0.2680998 -0.24733452 0.48755714 -0.21782504 0.106807165 0.3270157 0.22395198 -0.5937851 -0.23219505 -0.38857454 -0.7287979 -0.43471944 0.3572957 -0.43819836 0.102361575 -0.049541343 0.43924722 0.16473776 -0.43840533 -0.51043445 -0.46857214 0.67422783 -0.2119755 -0.5566362 -0.067032695 -0.4435942 0.11826777 -0.09116368 -0.5634449 0.071567886 0.46026003 -0.18891013 -0.23939134 0.063174106 -0.009317713
116 0.4979021 -0.5091809 -0.4161337 -0.19573706 0.19639072 0.14714855 0.16679381 -0.33153516 -0.16936128 -0.5608927 -0.7846029 0.67054486 0.844311 -0.43336502 -0.031890888 -0.3372787 -0.022436103 0.56458485 0.09451961 0.23666073 -0.22954686 0.4283224 -0.24166827 -0.37469772 -0.5101596 -0.6482573 -0.046046935 0.39246914 0.021419639 0.40178764 -0.77099425 0.32206357 0.34561107 0.4659493 -0.2560039 -0.31283942 -0.0045240507 -0.028121391 -0.3512807 0.2725747 0.5642478 0.0669188 -0.7739723 0.48212132 0.6288291 0.24231324 -0.69912785 -0.15097626 0.16293131 -0.7666247 1.0126116 -0.08672067 -0.41731042 -0.004180181 0.040764675 -0.6207223 -0.06227872 -0.16231748 -0.48093268 -0.035513543 -0.28690016 -0.41710827 -0.28612766 0.13530782
4677 0.75695115 -0.43589464 -0.20248681 0.4756439 -0.074123316 -0.33158264 0.32840142 -0.08608512 0.04506879 0.8906245 -0.47442135 0.25287652 0.5441256 -0.38250643 0.022682114 -0.34982908 -0.010796053 -0.5668726 -0.10069877 0.06299852 -0.6135633 0.29484904 -0.57220584 0.082760796 0.07024295 0.74011576 -0.008687507 -0.1784475 -0.8140489 0.31729552 -0.6639477 0.13279547 -0.24764301 0.41122693 0.061253224 0.60031 -1.0176979 -0.11588393 -0.39596206 -0.3052387 0.07794918 0.38028494 -0.6218916 0.13949615 0.27349934 0.4182367 -0.5151224 -0.14386505 -0.19742669 -0.26381198 0.20209573 0.20029928 -0.36459038 -0.18273003 -0.036752183 0.25748307 -0.3141785 0.113470696 0.01382024 0.32418764 0.60980624 -0.19398206 0.40430117 -0.53520674
4695 0.16649497 -0.36075732 -0.19670197 0.834208 0.8158318 -0.30833796 0.321746 0.012111693 0.23437923 0.7168113 -0.064441 -0.07487212 0.32340303 -0.29654703 0.22791865 -0.5303658 0.60886383 0.17560616 0.5191837 -0.23931287 -0.2670883 0.22993964 -0.22582756 0.36234888 0.21959877 0.11710482 -0.5199311 -0.1904818 -0.68945 0.6041803 -0.48944396 0.011228355 0.14132373 -0.035665456 0.049252298 -0.022276046 -0.2068385 0.35611224 -0.29726645 0.24258152 -0.42755082 1.0259807 -0.9729693 0.07869342 0.023023635 0.3002472 -0.5162225 0.1187213 -0.86494195 -0.09861799 -0.397222 -0.22214185 -0.015791513 -0.18783373 -0.34147644 -0.2098493 0.47850582 -0.34653917 0.6549921 -0.27036276 -0.3264917 -0.19617137 0.45112532 -0.14976883
124 -0.51561445 -0.51018614 -0.4173368 -0.56445277 0.4564596 0.086546324 0.82339615 -0.060909633 -0.118536144 0.46225604 0.13756369 0.19089586 -0.11845371 0.1003589 0.59735113 0.3122693 0.64504063 0.0057025785 0.18274838 0.14188933 0.011818698 -0.58442247 -0.14554791 0.5655935 0.44546673 -0.17058745 -0.8976314 0.22456114 -0.24631816 0.17398907 -0.32032004 -0.58613265 0.24064042 1.1073735 -0.6641247 -0.7575835 0.029658832 -0.6238157 -0.16490759 0.6121946 -0.44660956 -0.22899999 -0.48716718 0.18290116 -0.046648294 0.0001773279 -0.22726879 0.4914372 -0.14872716 -0.31038806 0.7039674 -0.51044405 -0.2935986 0.12104821 -0.37201944 0.46832517 0.3767029 -0.9201456 -0.6046764 0.23244596 -0.0696042 -0.1929905 -0.6045679 -0.34704787
4678 0.57739043 -0.5091468 -0.08529777 0.1425529 0.81374335 -0.30561504 0.10766338 -0.42650938 0.11037199 0.7820025 0.0043767225 0.15044247 0.20497893 -0.2442332 -0.19135052 0.19779667 0.40163332 -0.3767282 0.185291 -0.16468756 -0.8342403 0.42095172 -0.053379092 0.2886417 -0.07666043 0.7252063 -0.44199622 -0.311146 -1.0265021 0.5751711 -0.89167094 0.09819949 0.048044853 -0.17311433 -0.15479045 0.42653394 -0.4806776 -0.041007496 -0.15940176 0.3338307 -0.77688503 0.4072393 -0.08224985 -0.13883542 0.2651947 -0.01850026 -0.37278855 -0.59749365 -0.22176185 -0.72370976 0.19038522 -0.06700652 0.29793707 0.07231544 0.5617634 -0.28956613 0.08085838 -0.091376185 -0.54278684 0.61806047 -0.47078103 -0.092710465 0.06737009 0.096176535
4718 -0.024052506 -1.094925 0.7309984 -0.11085749 -0.5049869 -0.7245083 0.47182682 -0.11771007 -0.36152506 0.2904819 0.49055496 0.057031672 0.44338393 -0.16578892 -0.35696426 0.09712362 0.3006339 0.51764977 0.11287576 -0.0073436755 -0.15192688 0.40188336 -0.10628831 0.027728777 0.42521873 1.2097309 -0.5860108 -0.2421738 -0.29583827 0.31266418 -0.31851056 0.3049071 0.6510147 0.6205717 -0.19571982 -0.062430993 -0.78221214 0.08989305 0.1576001 0.25083032 0.8932439 -0.3905887 -0.67429864 -0.00072236365 -0.04437937 -0.17777552 -0.6222867 -0.13008073 -0.17663728 -0.44806868 -0.06755989 -0.092348695 -0.023324646 -0.2295472 0.04921859 -0.6376281 -0.5648843 -0.43937594 -0.2854286 0.28545552 0.3731363 -0.41243672 0.42827618 -0.30505168
4668 0.5176026 -0.8269322 -0.55070597 0.5325473 0.53848857 -0.28436688 0.20511153 -0.27788025 0.56828094 0.30178267 0.5454451 -0.026180508 0.23828425 -0.08977204 0.13771313 -0.1429027 0.2431904 -0.086188406 0.2833545 0.2564863 0.25036228 -0.14498234 -0.49325252 0.20416375 0.16729818 0.4127324 -0.09092791 -0.4135968 -0.7408478 0.3253475 -0.7354119 0.81787074 0.002966873 0.50065684 0.7759306 0.5961035 -0.9014508 -0.35165006 -0.046563137 0.246708 0.034964304 0.056955416 0.19391634 0.1376727 0.5769491 0.6399358 -0.109808326 -0.2562049 -0.9528292 -0.11714842 0.017528243 0.068448946 0.6133898 0.4749604 -0.29876983 -0.35821316 0.2857308 -0.6399597 0.014752181 0.29836076 0.30712315 0.09095194 -0.29280984 -0.20321651
4680 0.55817866 -0.4727869 -0.13773662 0.41702914 1.0774602 -0.43743083 0.54747766 -0.04590176 -0.68611825 0.57217485 0.10766316 0.22565891 0.18603313 -0.31113353 0.004960237 -0.10281224 0.31542155 0.072223365 0.09869393 -0.1297082 -0.33877236 0.33743674 -0.13750419 0.4984111 0.4008274 0.2101642 -0.1808721 0.009067728 -0.8013656 0.40667623 -0.8149741 0.25982043 0.599497 -0.09007247 -0.04620237 0.5166089 -0.7350145 0.07422827 -0.07436917 0.30423078 -0.031963546 0.35917097 -0.2639979 0.62976193 0.19209655 0.399739 0.012508958 0.53653675 -0.6729864 -0.4726951 -0.18261847 -0.11294149 -0.06880206 0.44319433 -0.19271368 -0.26350862 -0.033988543 -0.024723887 -0.21012853 0.4040733 -0.08593765 0.605639 -0.15949346 0.13557474
4687 0.5749685 -0.9008459 -0.70295584 -0.1449579 0.6218836 -0.27882382 -0.40750745 0.44207373 -0.1709205 0.4110356 -0.19424109 -0.065949045 0.99441046 -0.24177758 0.27432862 -0.24545258 0.5492223 -0.2503728 0.25520667 0.25771132 -0.1807083 -0.21493496 -0.46056587 0.15586981 -0.0886234 0.14610723 -0.8843965 -0.09858803 -0.7444485 -0.020857224 -0.21158536 0.13896926 -0.23972267 0.20086071 -0.18885717 -0.07556212 -1.0459449 -0.27798742 -0.14941011 0.09113341 -0.24990824 0.35342115 -0.17026635 0.49781105 0.6131115 0.33876306 -0.38600135 -0.06349491 -0.35976985 -0.15958385 0.15623134 0.069185704 -0.052648157 -0.035809115 0.30419725 0.52439684 0.39775813 0.5302573 0.44749895 0.18773517 -0.087935306 0.036138568 0.18379202 -0.61308354
283 0.33803582 0.00019902899 0.14752091 -0.38646677 -0.38505074 -0.30724305 0.60854673 -0.083985545 0.40550172 -0.3524747 -0.102331206 0.8993053 0.4653861 -0.116203316 0.09788821 0.16629288 -0.39444208 0.44230303 -0.23066074 0.12315666 -0.5003308 0.31332487 0.1859771 0.4106527 -0.16276632 -0.032005597 -0.2489375 0.16821988 -0.75806373 0.15309636 -0.38164023 -0.52237165 0.45256633 0.11021291 -0.48457298 -0.005939319 -0.38972414 0.56366694 0.2205861 -0.04197021 -0.092916645 0.44187528 -1.0276536 0.3426014 0.28022155 -0.27363402 -0.6085525 -0.45221645 0.77307624 -0.78024054 0.7182462 0.07068057 -0.21702749 -0.59259665 -0.1247265 -0.0966859 0.5891501 -0.2515103 -0.6561966 0.451398 0.73163253 -0.016679764 -0.471381 -0.7037252
4768 0.11283625 -0.086907566 0.53965336 -0.65810454 0.03118056 -0.6618984 0.35308197 0.27217436 -0.7845149 0.28560862 -0.17304733 0.5221235 -0.15587305 0.11727037 0.019769976 -0.2767549 -0.07538843 0.52713305 0.09019515 -0.13512447 0.041943625 0.44766456 -0.4478612 -0.34867227 -0.16051377 0.16593158 -0.6440968 0.34209365 -0.6800555 0.26904386 -0.39959472 0.4953368 0.2964979 0.12618142 0.6206041 -0.019088386 -0.19776443 0.466096 -0.16546267 0.65187603 -0.37413052 0.11162251 -0.2543936 0.72127634 -0.19818132 -0.60978526 -0.5271555 -0.46226856 -0.1288766 0.21072245 -0.04392945 -0.0053577474 0.16839877 0.2378783 0.40133497 -0.35273677 0.6706779 -0.48470813 -0.76893187 -0.12997206 0.05399371 0.21879485 -0.7438096 -0.8020682
12 0.5708852 -0.2759598 0.022025252 -0.28657016 0.31846577 0.381653 -0.31250155 -0.45880684 -0.20890939 0.11555581 0.19044481 -0.31833148 -0.19294222 -0.591559 0.5438198 -0.35583928 -0.46525142 -0.008714121 -0.37186024 -0.5142934 -0.25390336 -0.19953303 0.15686455 0.50921035 -0.3587844 0.08708014 -0.5668649 0.5314649 -0.6862517 0.63280165 -0.75635153 0.32760096 -0.23249003 0.14299333 -0.029457701 0.50120157 -0.6031508 0.44661325 -0.50536543 0.6693058 0.22761314 -0.039580774 -0.35560057 0.49017623 -0.049865767 -0.046681482 0.5956496 0.2466181 -0.085868545 -0.27910665 1.1840421 -0.4705885 0.2363769 -0.0256607 -0.16174011 0.33890572 0.6581964 -0.47567463 -0.37899375 -0.5072272 0.56372046 -0.59779185 0.02296547 -0.11740279
4972 -0.3857918 -0.35741848 -0.12711035 -0.22001162 0.51969236 0.33183625 1.2011458 0.45781514 0.4915547 0.287912 -0.5395354 -0.20305373 0.95263654 -0.07911407 0.6699904 0.14873806 -0.17981179 0.8059405 0.35026386 0.49938697 -0.51756495 -0.32186544 -0.10141705 0.15203284 0.35321414 0.2209346 -0.4983809 0.72248816 0.15137148 -0.08000524 -0.5471433 0.44176108 0.03300016 -0.022056907 -0.23294581 0.27705586 -0.4660349 0.20318377 0.101435445 0.52585644 0.24039763 0.74407506 -0.012005477 0.5848722 0.3001302 -0.119336925 -0.4237952 -0.19178963 -0.4711723 0.25616756 0.37353328 0.4666766 0.015746972 -0.71416587 -0.18841262 -0.37188658 -0.0389277 -0.4081213 -0.30050984 -0.41158321 0.09032437 -0.7569369 -0.003320548 -0.6150726
4778 -0.041625734 -0.06367115 0.83931315 -0.09048762 0.12542139 -0.055523746 0.47460786 -0.24678327 0.416518 0.10709634 0.18796211 0.6335669 -0.33774278 -0.55874246 0.017564146 -0.078147456 0.53006846 -0.2145478 0.70640504 -0.018655179 -0.08928358 0.34982026 -0.39004233 -0.6456436 -0.2647043 0.27354115 -0.1100022 0.3173198 -0.70188594 0.11284678 -0.51766133 0.30699027 0.15948433 0.69524306 0.09723032 0.37018296 -0.5226813 0.48357683 -0.38418466 0.46131498 -0.3664948 -0.38653895 -0.21297498 0.5082542 0.555903 -0.45460266 -0.44067308 -0.27410382 0.5041728 -0.5546602 0.5912723 0.36117348 0.41179615 -0.054638322 -0.5133824 -0.3018135 -0.20585345 0.49694902 0.046780404 0.6060935 0.053377215 -0.51818764 -0.12266214 -0.38896257
1862 0.6693223 -0.2120638 0.08231467 -0.03998146 0.121436 0.22388534 0.48429903 0.16321346 0.24941987 -0.15571012 0.160193 0.091745146 0.19962263 0.23391138 -0.112931214 -0.5719468 0.2924546 0.34979 0.8414267 0.08855727 -0.09069471 0.7488621 -0.5224617 -0.097330175 -0.5357039 0.93964624 -0.2567981 -0.66086084 -0.27563024 0.819941 -0.28448585 -0.7326828 -0.24600679 -0.14279339 0.4007235 -0.20968795 0.3122212 -0.31412074 -0.28118756 0.06831496 -0.19404462 -0.47470635 -0.8702736 -0.2496433 -0.10567366 -0.38514575 -0.46273032 0.35419074 -0.85379624 0.34661222 0.85922664 -0.181589 -0.35499972 -0.2767169 -0.31665018 0.02115669 0.74432987 -0.15234649 -0.47282758 -0.11211829 0.5150833 -0.42008677 -0.39656097 0.21288659
4777 -0.28857335 -0.029872311 -0.22717012 -0.7059184 0.26919627 -0.55457217 0.31015635 -0.5599944 -0.08970922 0.3172389 0.40207052 0.043134265 -0.03922732 -0.1490801 0.27636924 -0.47789404 0.4583569 -0.43396628 0.37718844 0.20006315 -0.7568147 -0.4408268 0.22153147 -0.43470204 0.4697709 0.5244432 -0.81573033 0.17751601 -0.011266828 -0.51285064 0.31332648 0.49878126 -0.59164506 -0.56371886 0.60129493 -0.56887317 -1.0171962 -0.3967459 -0.13132843 0.55450314 0.34587625 -0.14058997 -0.83155453 0.1727824 0.117983565 -0.1194444 -0.87253845 -0.042563066 0.11989004 -0.08061361 0.44440994 0.024108931 0.16719562 0.24104597 -0.25501227 -0.34707314 -0.34138572 -0.14698175 -0.20354469 0.7426873 -0.15267244 0.40918082 0.0039113155 -0.20414224
4899 0.34738782 -0.08507704 -0.16331741 -0.37517738 0.9430171 0.45672345 0.16280091 0.23226833 -0.029670771 0.35386318 0.5967131 0.57535946 0.7185354 -0.7166107 0.32571965 0.8048086 0.53436196 0.18506071 0.15769708 -0.37753573 -0.1418287 -0.0759851 0.4342164 0.64759725 -0.6402308 -0.6585155 -1.2224941 -0.027281435 -0.8073649 -0.08524767 -0.21548632 -0.35242426 0.047398627 0.06700964 -0.23959687 -0.4591829 0.34562853 -0.24758537 0.18026048 0.73790824 0.4517966 -0.3724988 -0.00454273 0.5034387 0.4240873 -0.16619696 0.010138551 -0.08470759 0.36682352 -0.02987483 0.09390099 -0.28706044 -0.34281224 -0.26559487 -0.013059639 -0.086024754 0.5504304 -0.35055986 0.09740643 0.1460793 0.3923208 -0.06258533 -0.21265566 -0.41077438
117 0.6573232 -0.12381164 -0.6589628 -0.28345966 0.10084842 0.29064435 0.09163641 0.56503636 0.20432134 -0.42851686 -0.22291751 0.5611519 0.1498556 -0.6728831 0.15217686 -0.54670775 0.23587903 0.36005002 0.007621195 0.8479726 -0.61428213 0.115947664 0.09127234 -0.1825272 0.40261716 -0.2625241 -0.6154728 0.119841896 -0.50276023 0.23033467 -0.4624947 0.30994105 0.29503536 0.33125854 -0.27380934 -0.20866747 0.23925428 0.20740217 0.025982393 0.08266793 -0.031218983 0.0048585655 -0.9203096 0.6223911 0.6424032 -0.07584823 -0.2623217 -0.5059021 -0.2286277 -1.1288644 0.49512085 0.4382388 -0.06493111 -0.46295357 -0.033158857 -0.19984977 -0.6124629 0.1454216 -0.6604574 0.51697946 -0.21229178 -0.32894146 -0.62890106 -0.3700394
4692 0.58596593 -0.3265306 0.4335519 0.14961569 0.10096034 0.004943846 0.50401175 0.35156286 -0.07717693 0.45469427 0.13788968 0.45693433 0.4113609 0.23925914 -0.12348775 -0.17463443 0.65993667 0.18753546 0.17454645 -0.35933548 -0.27360776 0.062063146 -0.7749496 -0.19483368 0.1276193 0.5114004 -0.2561262 -0.028681772 -1.1400111 0.089035496 -0.37186953 -0.22964504 -0.12027913 0.0017307654 0.39788538 0.5641049 -0.977668 -0.22648025 -0.48671392 0.43402207 -0.26540405 0.48564073 -0.92494506 0.30433458 -0.36741072 0.58614993 -0.44063762 -0.022278229 -0.7246454 -0.50813264 0.06168197 -0.25181442 -0.18429394 -0.059184816 -0.30010912 0.075923525 0.45709056 0.24725549 -0.120240554 0.19574048 0.0056969 -0.060115755 0.08284086 0.27605927
4987 0.07660153 -0.44097126 -0.224785 -0.6102614 0.50407606 0.6225461 -0.048413396 -0.12357062 0.4787519 -0.2073494 0.40200323 0.11651935 -0.120337985 -0.31433767 -0.3767559 -0.20387997 -0.35318837 -0.535099 0.7986007 -0.18219972 0.3748306 0.6990011 -0.24168617 0.86803186 0.09754531 0.6416618 -1.257107 -0.014517602 -0.11609866 0.9097546 -0.01625203 0.30001917 -0.5630888 0.1964598 0.40956295 -0.064777285 0.3364599 -0.58828765 -0.5272674 0.40341377 -0.4050251 0.041434005 -0.36282986 0.18239684 0.29404664 -0.3739797 0.43048522 -0.13184491 -0.30771965 -0.35536528 0.609183 -0.01581053 0.25305292 0.26992324 -0.20057812 -0.5294556 -0.020237233 0.2783326 -0.3269238 0.025882045 -0.061910637 0.058275048 0.16746478 -0.3701541
4679 0.16117035 -0.51391274 -0.36675557 0.24388586 0.61255157 -0.34920344 0.32941803 -0.16305947 0.2366177 0.11212603 -0.24136767 0.1282478 0.6806518 0.12607086 -0.39893278 -0.5169298 0.9647455 -0.43347576 0.022976914 0.24887958 0.030943867 0.32570627 -0.6120884 0.45457217 0.021145944 0.5460633 -0.68651736 0.2745844 -1.013323 0.6769754 0.097682 0.62005764 -0.18890816 -0.108079225 0.15454149 0.10107908 -0.55526066 -0.052019503 0.32460743 -0.1556583 -0.18613285 0.28647062 -0.3658447 0.69850886 -0.7735856 0.62409234 -0.005930777 -0.0067428835 -0.13912767 -0.49590552 -0.034040924 -0.17585678 -0.042749297 -0.034423806 0.24206735 -0.16368544 0.12474273 -0.5230747 -0.24601415 0.17635325 0.2611063 -0.29441336 -0.7110502 -0.37059477
2765 0.12307077 -0.032185808 -0.6213972 0.31655183 0.1998126 0.1218965 0.16738184 -0.58752614 -0.15745197 0.3996424 0.3612886 0.3417073 0.28193992 -0.5171441 0.030675804 0.9137165 0.23679629 0.12974513 -0.16510698 0.19826026 -0.5133606 0.15835954 0.40538898 -0.07047449 0.20060773 -0.17463891 -1.0768433 -0.68050903 -0.45282236 0.13947286 -0.97628224 0.4938157 -0.061517406 0.47105774 0.24922094 0.09455439 -0.6089515 -0.035617612 0.5656117 0.21168776 0.16623196 -0.17244135 -0.6759386 0.5105921 -0.18063964 0.12831648 -0.023990646 -0.17125177 0.6480278 -0.182215 0.74237925 0.04300263 -0.44379783 -0.38710204 0.25294077 -0.16949362 0.6735525 -0.38367206 0.7514815 -0.26544923 0.22230826 0.21095671 0.48925796 0.4793874
1850 -0.13659899 -0.26222637 0.18995874 -0.19162475 0.652285 0.11897049 0.28594393 0.7265363 -0.04476833 0.15745637 0.17551176 0.5399471 0.49077773 -0.46038592 0.4103938 0.4084417 -0.20155004 0.42890015 0.20408767 -0.64977545 0.50099736 0.5155187 -0.04817102 -0.02257591 0.050756868 0.053643398 -1.0821301 -0.17178616 -0.560411 0.43677488 -0.2964609 -0.69599086 -0.71330607 -0.2754562 0.23061273 0.23868072 0.5753259 -0.1697454 0.5152444 -0.063774996 -0.44130868 -0.26497397 -0.5014186 0.36766335 -0.015760368 0.5887728 -0.20399423 -0.10047167 -0.064515315 -0.08533215 -0.047447015 0.6082704 0.29179516 -0.07410094 -0.7506741 0.5309783 0.92980826 -0.47906193 -0.71261334 0.1705574 0.05096647 -0.08420746 -0.16382445 -0.18851286
4676 0.036939707 -0.23482049 -0.10990449 -0.085169084 0.815089 -0.17124718 0.36571106 -0.06588398 0.5399712 -0.01845867 0.3241357 0.58346915 0.16131264 -0.21793781 0.30251512 -0.71879905 0.61407834 -0.16218401 -0.362806 -0.22687462 -0.29050586 0.31770158 -0.34507695 0.6351749 0.09097843 0.42865157 -0.6240962 0.33889538 -1.0667303 0.49676257 -0.060545027 0.25793773 -0.17305669 0.12240235 0.49550176 0.19646493 -0.533166 -0.35917214 -0.31965423 -0.03479227 -0.9220568 0.5184102 -0.11521655 0.6394988 0.54711485 0.33863446 -0.09818739 0.03756104 -0.70502216 0.14904132 0.3954289 -0.044373576 0.36295527 0.525889 -0.015457237 0.033390954 -0.06512789 0.15028436 -0.14110972 0.037895523 0.17386764 0.0486637 0.4659556 -0.25183082
4907 0.41257587 0.1270866 0.62566435 -0.70320773 0.41378236 0.8332844 0.6412097 0.37468475 0.026646817 -0.11899039 -0.17573084 0.37876147 1.0432793 -0.19054899 0.6338712 -0.011976311 -0.4660529 0.35185707 0.44558838 0.12572998 -0.30570963 0.36190414 -0.089797035 0.557702 -0.00541532 0.31515548 -0.61421967 0.0193031 -0.38360262 -0.14950098 -0.5110736 0.33245334 0.5434466 0.2522485 -0.523355 -0.6449912 0.23439683 -0.72644424 -0.026872613 0.37015876 -0.37848234 0.16762878 -0.33684674 0.23277673 0.4394689 0.35811785 0.012853098 0.3034316 -0.04480887 -0.64607066 0.7560441 -0.34173974 -0.51624197 -0.22319365 -0.27365547 -0.40940246 -0.36885232 0.033530813 0.29866058 -0.3336779 0.27385038 -0.2429432 -0.09654274 -0.4047115
4883 -0.1703521 0.07493495 0.058493093 0.2215267 0.66825706 0.19155 0.2022419 0.58872885 -0.068735816 0.0643737 0.18948622 -0.39235148 0.32757333 0.5605334 0.6900036 -0.34093466 0.16663909 -0.03940581 -0.13391197 0.2916064 -0.10398529 0.27138624 -0.43732315 0.79947186 0.25576478 -0.4527699 -0.68128127 -0.23045498 -0.58828056 0.39140943 -0.048706613 0.31678665 0.21639845 -0.6221153 -0.015932728 0.035848532 -0.7729007 -0.787453 -0.51125604 -0.5225417 0.19811873 0.1213538 -0.3915265 -0.0018136805 -0.27070853 -0.18625617 -1.0440724 -0.8264938 0.5907629 0.6666099 0.66465056 -0.73197925 0.10977188 -0.3749067 -0.34028253 0.5688294 0.3808724 -0.23512472 -0.19576138 -0.0016852929 -0.09439873 -0.26538044 -0.44030032 -0.19169001
4694 -0.44049612 -0.9161813 0.0774206 0.22754319 0.35881606 -0.034213785 0.7804935 0.32342112 0.10709945 0.17821646 -0.19905804 0.27961653 0.84774864 -0.38651347 -0.0031604513 -0.12658536 0.37670314 0.09913726 0.56106466 0.28106168 -0.19807006 0.1807855 -0.50269616 0.59327674 -0.5296794 0.4455108 -0.07293371 -0.68087417 -0.73757094 -0.005155987 -0.557831 0.3849171 0.11549761 0.26323175 -0.13105713 0.44225296 -0.8070047 0.3947693 -0.2278331 -0.19443847 -0.24138609 0.39425683 -0.5148624 0.5066336 0.0023636501 0.039966 -0.012298298 -0.60099244 -1.0115862 -0.15451944 -0.1413788 0.2853444 0.46168625 -0.35154563 0.08231207 0.240422 0.23222254 -0.22849292 -0.9300782 0.08217019 -0.3860241 0.48645362 0.022982523 -0.39942315
4675 -0.0133188255 -0.94570625 -0.31001917 0.70950234 0.6500128 0.395863 0.0046894173 0.014495505 0.4161286 0.42899814 -0.17683443 0.38579205 0.17194347 -0.5664706 0.2840725 -0.0086784875 0.14569075 -0.3755258 -0.22940806 0.067768805 -0.58547705 0.018153988 -0.4845249 0.5554088 -0.102134265 0.54601383 -0.78213406 -0.008374862 -0.9264038 0.36085743 -0.31092918 0.029690798 0.6064142 0.021818088 -0.13329346 0.023536699 -1.0465006 -0.36250532 -0.42788306 0.026795011 -0.3448099 0.18860932 -0.78384906 0.278778 0.07355157 0.57326025 0.0745275 0.37182736 -0.60874367 0.08210557 -0.050177388 -0.13506277 0.27127537 0.194367 0.51324046 0.6490377 0.09586566 0.22138216 -0.13591084 -0.47272694 0.047967326 0.09720829 -0.42085096 -0.20795447
4905 0.012384075 0.061056793 0.41357818 -0.16003437 0.16074169 0.24750526 0.94889885 0.08154567 0.062599376 0.40336373 0.10683225 0.74518967 0.624502 -0.67573434 -0.37462202 0.13458984 0.3961046 0.5976207 -0.3727218 -0.13915144 0.614715 0.47534543 0.29593307 0.31694034 -0.41724196 1.001985 -0.7656624 0.39894524 -0.6260975 0.19790217 -0.03310494 0.47324935 -0.10980492 -0.58467484 -0.02072352 -0.5345696 0.19511622 -0.4697127 -0.33601165 0.047287475 0.1340695 -0.36151066 -0.17023295 0.4542967 0.5869792 0.3469761 -0.34400854 -0.39176825 -0.15545173 0.105426975 0.12331368 -0.64909476 0.0048222253 0.32723674 -0.021627054 -0.052706417 0.57097584 -0.002340778 -0.44353795 0.23918521 -0.04115768 -0.551865 -0.43596202 0.2545766
319 0.35224423 -0.0970068 0.20712435 -0.1260593 0.6798391 -0.23668183 0.42024133 -0.1716808 0.31586024 -0.091868676 -0.3164998 0.81560224 0.1312876 0.039740197 0.33904615 0.0074656373 0.6144794 0.18391536 0.34975907 -0.22770154 0.28559288 0.4607915 0.91251355 0.0076241335 0.15656164 0.40085542 -0.62357354 0.621223 0.22048217 0.25541773 0.02506423 1.0551585 0.5254227 0.8472594 -0.32747185 -0.37387297 0.19858433 0.34761944 0.101245835 0.24070325 0.037907094 0.78248185 -0.99487424 0.6561238 0.15195629 -0.5339389 -0.22347444 0.15145123 0.40993336 -0.31568006 0.29050756 -0.11277335 -0.18896656 0.44550127 -0.7433087 -0.26641485 0.20520625 -0.52528447 -0.018980118 -0.012856154 0.28184602 0.028875668 0.07937441 -0.3148653
4916 -0.18804403 -0.46166158 -0.18116066 0.069690086 0.8586257 0.43998712 0.3383457 -0.49584484 0.11519291 -0.3217393 0.13341892 0.16442151 0.07650076 -1.0050111 -0.3652901 0.45838144 0.5318292 0.6235361 -0.026803568 -0.39881685 -0.059218515 0.19937195 -0.3664895 -0.4433233 -0.07598677 -0.12389267 -1.6520634 0.045150504 -0.54807717 -0.19511442 -0.40620634 0.077961594 -0.2861944 -0.5275122 -0.5256586 0.27580506 0.27160484 -0.15120524 -0.16641894 0.6030325 0.20743765 -0.6260266 -0.10554028 -0.027365817 -0.11805858 -0.2591773 -0.27196077 0.27990112 -0.17576522 0.05984902 -0.2516148 0.043453526 -0.32517827 0.022936912 -0.22453465 -0.26533067 -0.21114631 -0.10370551 -0.8905829 0.056783788 -0.24038383 -0.66393316 0.3210975 -0.2395656
5030 0.47817957 -0.5270708 -0.55995417 0.086252406 0.016998503 -0.30160028 0.29961517 0.29154855 0.69768715 0.92145807 0.35306585 0.21586291 0.3732233 -0.07424579 0.07376604 -0.13591424 0.59381783 -0.12793444 0.30569285 0.07882096 -0.5549676 0.1398352 -0.64875764 0.3416498 -0.19015542 0.19627102 -0.6546384 0.10418825 -0.8627533 0.19482137 -0.24735238 0.483455 0.26982722 0.057732757 -0.36124992 0.5043718 -0.85999435 -0.006386341 0.22634158 -0.041532427 -0.5684109 0.40345907 -0.59482527 0.30419642 -0.21001971 0.5639863 -0.0078962315 0.1129508 -0.46111038 -0.5283957 0.19249506 0.06562945 0.33724093 -0.13679567 -0.4628416 -0.21307375 0.104013294 0.021488156 0.05004351 0.27298704 0.13816306 0.63263726 0.27200523 -0.14230272
4760 0.3091512 -0.5474637 0.5658462 -0.21413133 0.54306966 -0.5290334 0.2987383 0.009965785 -0.08384617 1.0733751 -0.05259784 -0.053023245 0.12503311 -0.32187614 0.03536272 -0.6646339 -0.011837847 -0.079896584 0.08941134 0.40890795 -0.16218768 0.57571834 -0.9059226 0.34574282 0.94394183 0.13890384 -0.15212299 0.19128795 -0.47105548 -0.16059388 -1.4670417 0.27135733 -0.23887843 -0.44737864 -0.8649968 0.057154223 -0.16178197 -0.6079102 0.0049050273 -0.27908427 0.14820272 0.15206186 0.2997345 0.5633003 0.091742896 -0.26291955 -0.3177569 -0.13421392 -0.12075873 -0.06499103 0.25943372 0.18832952 -0.06986258 0.53975725 -0.16610517 0.09369826 0.32150295 -0.2188158 -0.0004530885 0.18743216 0.07517369 -0.5199435 -0.2834376 -0.18048175
1856 -0.06120378 -0.7965798 0.5924843 -0.7217959 -0.16136919 0.015428408 0.6302061 -0.5095388 -0.054662097 0.33927754 0.4628439 -0.008766573 0.37014157 -0.11276249 -0.035375234 -0.05681032 -0.04995115 0.15326042 0.13073075 -0.38281873 0.17986283 -0.1677799 -0.42628187 0.6919986 0.78054845 -0.08878845 -0.2819015 0.5766274 -0.45867044 0.96019423 -0.58457464 0.70836365 0.2585234 0.17057903 -0.4008848 0.3169663 -0.28779465 0.3457656 -0.22590522 0.6291509 0.3110533 0.460304 -0.18197021 0.35604185 0.76031035 0.27279326 0.59578097 0.048896186 0.2711206 -0.42921388 0.6194105 -0.08352097 0.16115499 0.06445963 -0.89565897 0.18594414 0.27229866 0.12131689 -1.0076036 -0.31125453 -0.074191496 -0.16154125 -0.04079342 -0.028103638
4803 0.22047089 -0.525679 0.59159005 0.5495259 0.48638254 -0.67917687 0.9123502 -0.27801332 0.58667046 0.4452547 0.23500887 0.091350004 -0.26767516 0.4473237 0.08694869 -0.18405108 -0.57535887 -0.5583165 -0.055705834 -0.3319034 0.022329453 0.48334345 -0.31755844 0.47239095 0.24546272 -0.21448532 -0.6974801 -0.08912271 -0.04815973 0.09224579 -0.36292464 0.2657893 -0.5793706 -0.3057734 -0.4219324 -0.2917649 -0.16147694 -0.07683575 0.5003666 -0.60887307 0.65058166 -0.43573323 -0.75018424 0.3308822 -0.23849012 0.39899132 -0.35196006 -0.1517589 -0.80962044 -0.19413142 0.40602562 -0.54581374 -0.095339954 -0.110218376 -0.5627088 -0.43202445 0.07881772 -0.5350284 0.17146595 -0.42717662 0.03813585 -0.5515165 -0.44978535 -0.22959732
1855 -0.16702197 -0.16907832 0.17505148 -0.405001 -0.09215722 0.26380557 0.036120117 0.19122931 -0.24595496 0.9072374 0.28710628 0.477783 -0.07741761 -0.3470159 0.4610388 -0.10553069 0.10637476 0.10531899 -0.3386649 -0.27278072 -0.18917961 -0.30015817 -0.16277416 -0.039460864 0.55655247 0.5030085 -0.38862708 0.42005092 -0.5630362 1.4420687 -0.45709845 -0.20456353 -0.24889466 -0.10128533 -0.30268168 0.6400693 0.060401335 0.01577877 -0.055109918 0.5648866 0.31943163 0.14786759 -0.52162856 -0.116025455 -0.08264235 0.026411895 -0.46401936 -0.13055308 0.29856053 -0.2139566 0.8256833 0.0131890215 0.013280583 0.5157462 -0.2901175 1.0847805 0.39771348 -0.40520486 -0.46610224 0.06610518 0.09170223 -1.0132288 -0.056199137 0.24071161
131 -0.15994255 -0.613272 -0.42225757 -0.33184677 0.18792777 0.17480755 0.7495556 -0.042419076 0.7252236 -0.375037 -0.025417294 0.56857324 0.032340124 0.18037535 0.098197475 -0.66010016 -0.23103128 0.32137448 -0.72839105 0.8147271 -0.12075427 0.10485681 -0.24671243 0.0962816 0.22093478 0.13339415 -0.062643126 0.8476369 -0.44558516 0.0030989603 -0.48453334 0.67247003 -0.065538965 0.23563692 0.3345046 0.3516376 -0.44376546 0.4805353 0.6442123 0.5955471 0.59141403 0.06609522 -1.3805456 -0.5293007 0.29520303 -0.37719584 -0.3887444 -0.1512784 -0.43941936 0.115462944 0.50239325 -0.6424249 -0.36877227 -0.22470155 -0.3466235 -0.038980376 0.27023157 0.17980818 -0.38436544 0.08999441 -0.15004353 -0.1556385 -0.41607717 0.13442521
2814 -0.22159964 0.742581 -0.18854797 -0.4374951 0.15246439 -0.20391436 0.23288327 0.8893878 -0.18633795 0.016066523 0.90478355 0.46274972 0.02024186 -0.24408337 0.28239426 0.2509302 0.17219059 0.48461717 -0.65605694 0.54641676 -0.40691757 0.051137645 -0.2560277 0.16943836 0.2920046 -0.045957077 -0.36061677 -0.42470366 -0.38478854 0.9131094 -0.7634205 0.43181664 -0.28154734 -0.18439081 0.34722567 0.35746768 -0.5079609 -0.11318461 0.9043402 0.54187435 0.10340327 -0.2899697 -0.28808844 0.514383 0.76953155 0.16988419 -0.97254914 0.19799748 -0.41175056 -0.24735002 0.39739382 -0.04959269 0.018885514 0.7164644 -0.4127321 -0.32032824 -0.03216366 0.12019478 0.188635 0.02366818 -0.027004981 -0.4193562 -0.13393414 -0.26177052
47 0.69656485 -0.16449532 0.13716663 -0.4081726 0.23397481 -0.17015499 0.72720915 -0.5196337 -0.19047923 0.38264588 -0.5688022 -0.2566345 0.61461174 -0.5236211 -0.12750414 -0.4171018 0.40476528 0.114764735 -0.34376547 0.35853994 -0.18421915 0.2874474 -0.20236588 0.36154243 -0.1097881 0.70414335 -0.08860829 -0.28576466 0.06842796 0.45736504 -0.16964261 0.70721173 0.17586866 0.061730273 -0.71001273 -0.306251 -0.59580284 -0.6258214 0.14478056 0.30741102 0.5425233 -0.30680305 -0.8115685 -0.37255973 -0.23905762 -0.15476276 0.38150182 0.77651614 0.30164242 0.18444611 0.5404678 -0.57782716 0.34907204 0.11046726 -0.8959201 0.29649222 -0.50977993 -0.33085963 -0.60093087 0.3685476 0.5216367 0.002999128 -0.4819994 -0.35207146
2808 -0.16239165 0.3516919 -0.07119211 -0.7349992 0.9789719 -0.33277974 -0.2584353 0.111613296 0.39775205 0.11849844 0.12827694 -0.30536085 -0.06742875 -0.9868738 0.0008600064 0.18119088 -0.41218024 0.35076675 0.47983193 -0.49874946 -0.81991154 -0.3185116 -0.79709154 0.5458615 -0.10728963 0.4790906 -0.15676394 -0.07768106 -0.41775456 0.21022125 -0.5560037 -0.07883356 0.18539762 -0.6358739 0.2104182 -0.071500674 -0.0337659 -0.18853424 0.36236554 0.06869665 0.13315499 0.13632162 -0.81112427 -0.026894392 0.4034521 0.16080874 0.18255274 -0.31148678 0.053547632 -0.243705 0.22224733 -0.7664864 -0.20300107 0.31009603 -0.18535653 0.6729662 -0.47691515 -0.09971477 -0.697035 -0.6514997 0.39720982 -0.34013712 -0.32487538 -0.6253103
4788 0.12637599 -0.1493012 0.8357331 0.119904414 -0.20528182 0.25898144 -0.30814502 -0.41223937 0.8252386 -0.22315925 0.022592891 -0.4969605 0.50920165 0.036683857 0.28608906 -0.16256142 0.62337166 0.7725093 0.4531331 -0.39785862 -0.25317413 0.41185555 0.40278816 -0.24462119 -0.1075148 0.4110593 -0.90664405 -0.23247063 -0.047968578 0.51863533 -0.9574978 0.73626786 0.27583897 -0.11013804 -0.13997915 0.021274054 -0.2288269 -0.08067995 -0.098148376 0.49211332 -0.1634652 -0.430512 -0.4152118 0.4463158 0.19416553 -0.19956432 -0.21213244 -0.4029212 -0.35284433 -0.041796748 0.9549511 -0.3611061 0.015924256 0.81099075 0.44311163 -0.40011448 -0.36438423 -0.13883793 -0.17281128 0.40547147 -0.034209944 0.06725957 -0.4631025 -0.4889344
4817 -0.030460976 -0.65793246 -0.26594335 -0.23594145 0.04194629 -0.42537442 1.0917321 0.22715311 -0.39925554 -0.25466675 0.46762377 -0.45406455 0.67655456 -0.044221617 -0.109767534 0.24994093 0.045134503 0.24550161 0.750768 -0.346807 -0.24861248 0.24582241 -0.17779188 -0.29819402 0.25509477 0.8206637 -0.20090427 -0.054424446 -0.18642557 0.37935057 -0.23384395 -0.5015896 0.49045563 -0.33146513 -0.4921775 -0.06159503 -0.28334546 -0.12991314 0.2892949 0.5360282 -0.34690812 -0.04888444 -1.4601905 0.6465623 0.25230026 -0.7640447 -0.06600624 -0.14629765 0.25648054 0.57114583 0.07886397 0.26042095 -0.30535534 -0.35896248 -0.3528375 -0.13375558 0.47473925 0.486405 -0.14808439 0.12921277 0.08672312 -0.60714096 0.34305468 0.37880948
1827 0.27177748 -0.5208278 -0.039909743 -0.4468875 0.50946397 0.52906734 -0.0860726 -0.116941996 0.29549745 -0.5562423 -0.2127556 -0.22690086 -0.16975394 -0.38989437 0.17834614 -0.13166401 -0.30422017 -0.3531817 -0.39789522 -0.5583491 0.30197775 0.07905288 -0.4834988 0.41838956 0.76126367 0.72602683 -0.62280285 0.150946 -0.45723972 -0.0076482184 -0.8349312 0.043562178 -0.01718288 -0.09815338 0.02666265 -0.017005503 -0.23516178 0.22288135 -0.27417928 -0.108191796 0.053580076 -0.0359297 -0.3140269 1.0008605 0.48579538 -0.22902147 -0.032282736 0.28402448 -0.89793533 -0.81077963 0.22170879 -0.2670493 0.70664614 -0.090459935 -0.36562917 0.3274777 0.6567915 -0.64974225 -0.37824154 0.053694073 0.29881656 -0.19293575 -0.4421329 -0.2878766
318 0.1999706 0.12292613 0.69841754 -0.14281169 0.43221915 -0.36806384 1.3502897 -0.30648148 -0.23062918 0.22271498 -0.15773697 -0.17221606 -0.043819044 0.37270477 0.83058107 0.33496878 0.37488636 0.6994208 -0.1307516 0.115889795 -0.46811265 -0.42871937 -0.033451073 -0.23507245 -0.7130832 -0.31273234 -0.53405195 -0.919891 -0.862935 0.04753259 -0.16286643 0.05512866 0.10401187 0.4515156 -0.17345418 0.35346004 -0.27897063 0.80695003 0.12430003 0.07228162 0.29022667 0.04356779 -0.6101848 0.37924808 0.34509102 -0.3123121 -0.0133731 -0.3609708 -0.27782604 -0.095440365 0.54937226 -0.10841893 0.14736098 0.16823764 0.21936391 -0.05341946 0.73550177 -0.17026989 0.017448915 -0.10617588 -0.2281491 -0.38569188 -0.020584386 -0.45796487
4689 0.70435977 -0.8455542 -0.35008258 0.17249799 0.40271905 0.2616158 0.57519186 -0.14914124 0.25499946 0.35737646 -0.18255846 0.7539387 0.7345268 -0.120051004 0.26444417 0.07478763 0.6749832 0.26981243 0.36878684 -0.3974415 -0.5580138 -0.18906096 -0.47023478 0.6482426 -0.23870695 0.51766527 -0.3373715 0.42424068 -0.7026751 0.2675523 -0.20992799 0.19744864 0.12123896 0.613711 0.46543467 0.4147832 -0.5450228 0.1852088 -0.14923443 0.01912934 0.52458537 0.8314763 -0.5622209 0.31463882 -0.22209813 0.053845614 -0.35841945 -0.25177166 -0.19044848 -0.5654321 0.07795793 0.04329745 0.8018709 0.088111915 -0.36621007 -0.04560441 0.2209368 0.58741105 0.00701862 0.00558221 -0.36815503 0.13469909 -0.05932186 -0.1226872
4671 0.57272774 -0.43538064 -0.07512473 0.6323165 -0.0044442974 -0.05649529 0.70857847 -0.024353163 0.43968403 0.18589653 -0.26846382 0.3564605 1.0913388 0.17112236 0.02580588 -0.39407614 0.57174 -0.023778526 0.36563691 0.4318735 -0.5097318 -0.30961683 -0.27865326 0.7366949 0.024671914 0.14210369 -1.1490577 0.30323112 -0.43610722 0.6511365 -0.5829617 0.15541197 -0.1842475 0.14974639 -0.17651263 0.35695136 -0.43203056 -0.69225067 0.023774624 0.21234766 -0.5787008 -0.06825527 -0.22473653 0.2437485 0.2053622 0.20541726 -0.3416172 -0.09501792 -0.635793 -0.17724858 0.054207947 0.18633886 0.1875133 0.53806275 0.07841374 0.11073394 0.11765233 -0.30685478 -0.3332371 0.26196706 -0.20186524 0.28906882 0.7343416 -0.53208894
49 0.48478204 -0.22603448 0.45406118 -0.6022665 0.345004 -0.08778794 0.8586975 -0.09833704 0.46802756 0.2791077 -0.68563986 0.113357514 0.28841636 -0.9437409 -0.15684247 -0.14293823 0.42684212 -0.6909228 0.025273416 0.09689588 -0.60474414 0.2060327 -0.62602687 0.26527342 -0.15353462 0.06482678 -0.34086412 -0.57002455 0.4061402 0.2700611 -0.6137022 0.7514501 0.13602272 0.2642761 -0.09209253 0.03894474 0.12730995 0.049248528 -0.3454178 -0.15449686 -0.4358235 -0.3820569 -0.24858597 0.8864918 0.1860843 -0.27592677 0.04145804 -0.31003833 0.23696397 0.48080656 -0.42026922 -0.2292476 -0.62874883 -0.19337724 -0.8101111 0.5033377 -0.16217232 -0.9865689 -0.24337436 -0.06985023 0.11345778 0.08187795 -0.29883897 0.052094817
1847 -0.1400073 -0.33969253 -0.4396292 -0.47443396 0.7785819 0.3515681 0.62512076 -0.067039624 0.18163052 0.4008682 -0.032948934 0.37831545 0.29857117 -0.47281784 0.31842145 0.4515573 0.2224209 -0.4119947 0.63503164 -0.3217877 0.12592185 0.8908438 -0.070507966 0.17625946 -0.1664109 -0.20219922 -0.6809188 -0.06442379 0.34411454 -0.13423693 -0.46291107 -0.12534553 0.1328475 0.98064864 0.5047452 0.0011397938 0.13369358 -0.055096958 -0.2291648 -0.13390943 0.39189333 -0.74121505 -0.37581342 -0.3461374 -0.062240835 0.109608725 -0.26941258 -0.18787558 0.3687459 -0.7041806 0.2315752 -0.24100444 -0.19797722 -0.37136197 -0.21529485 0.2548963 0.6954062 0.2897537 -0.5130172 0.04576339 0.2501148 -0.630297 -0.7568203 -0.27284208
4684 0.5483504 -0.49370807 -0.49589312 0.01518459 0.5122027 0.50334686 0.499873 0.28148732 0.27677494 0.7434066 0.21022788 0.17258158 0.12421662 -0.49353325 -0.49024054 -0.551566 -0.123770796 0.18733093 -0.065685965 -0.11417715 -0.19903712 0.67076 -0.20638193 0.27936777 -0.014894628 0.6756165 -0.5028252 0.3353391 -0.80451894 0.052881185 0.019098405 0.062883005 0.34393197 0.26564053 0.13379773 0.9514539 -0.77787966 -0.38202342 -0.037104614 0.0047862874 -0.39682585 0.37321946 -0.65230477 0.18721642 -0.10137561 0.06761664 -0.44381014 -0.5379345 -0.65461993 -0.4921237 -0.1616887 -0.13288884 0.1748971 0.17461042 0.20947267 -0.033667125 0.64398414 -0.05493644 -0.18471368 0.2525288 -0.340911 -0.2472736 0.45108056 -0.21767217
4681 0.29069522 0.007366216 -0.533615 0.57669574 0.6814021 -0.5819192 0.36370087 -0.101479106 0.3575383 0.62504894 -0.041388817 -0.2812693 0.61439 0.19391745 0.28841445 -0.012512218 0.52428687 0.5642482 0.01039966 0.023746565 -0.0043055625 0.15107183 -0.29673338 0.45014685 0.23219965 0.80606234 -0.65368783 -0.19271903 -0.6814241 -0.30130336 -0.7830691 0.87200314 0.0002865619 0.48134902 0.097287096 0.36973736 -0.7222235 -0.2867032 0.02141786 0.21764071 -0.28267652 0.38333338 -0.9120879 -0.16982199 0.3937763 0.6526661 -0.4207711 -0.47877502 -0.101474114 0.17995848 -0.15927112 0.44019106 0.23756999 -0.17402129 0.2815056 0.382676 0.055951253 -0.17703849 -0.3519618 0.082868084 -0.1352515 0.39484125 0.28695655 0.3221487
4938 0.28641114 -0.16932116 -0.007106987 -0.07121854 0.42902282 -0.023910398 0.47113603 -0.59014374 -0.10385459 0.18161856 0.10179941 0.44580337 -0.31404755 -0.5645173 0.072855994 0.22734615 -0.23703533 -0.20645738 0.4879444 0.2760398 -0.02874702 -0.4492654 -0.3755063 -0.048266623 0.24378392 0.51461345 -1.5331216 0.09942628 0.43632007 -0.14008693 0.11706608 0.07591912 0.23433213 0.9486154 -0.16563687 0.5459709 -0.2926871 -0.1347213 -0.16881773 0.7149965 0.75827473 0.63165694 -0.847564 -0.089495644 0.39233583 0.091676034 -0.35199758 0.026583115 -0.0028701941 0.18086827 -0.2076104 0.6498399 -1.3369254 0.34735784 -0.01442956 0.18564016 -0.046773966 -0.39907718 0.46254647 0.08718867 0.12400962 -0.03215825 -0.101902 0.0864824
2796 0.037228797 0.0800835 0.4870598 -0.687172 0.19479384 -0.1639994 -0.16019903 0.52649444 0.44422874 -0.6017591 0.19619197 0.617947 0.8238956 -0.33769384 0.055166095 -0.061922234 -0.009577823 -0.4244715 0.50166 0.1378022 0.27575165 -0.37619147 -0.34280878 0.27723345 -0.4260222 0.49034375 -1.0556353 -0.2459415 0.28382286 0.6467824 -0.71970433 0.7785304 -0.48974526 0.3534592 0.1822982 -0.31831393 -0.45513046 0.38520765 0.35241538 -0.1031215 -0.25686884 0.18411605 -0.24782728 0.2092571 0.19111612 0.16038536 -0.29363793 -0.85750747 -0.606089 -0.5692107 0.41864452 0.019355953 0.22794151 -0.3966116 -0.5151396 0.23509383 0.0789573 0.31164715 -0.5024701 -0.064024515 -0.8884568 -0.089748174 -0.44352335 0.5386492
4740 0.49217054 -1.0622702 -0.5593239 0.15218614 0.32105482 -0.08246145 0.52074534 0.08683151 0.18451636 0.74079967 0.036473557 0.1071151 0.33877942 0.035663083 -0.013827364 -0.23613603 1.1046413 0.11299217 -0.014296461 0.28237805 -0.18985759 -0.23818696 -0.47259927 0.39420375 -0.35779017 0.38345245 -0.6142037 0.14104687 -1.1269383 0.0289742 -0.2103836 0.0788862 0.29366663 -0.009397846 0.004439842 0.5632108 -0.78461105 -0.17951263 0.08033252 -0.089384355 -0.3579457 0.3338605 -0.6503244 0.20222002 -0.0071458304 0.7161451 0.09027721 -0.09675585 -0.1580648 -0.11400983 0.119352944 0.092492975 0.36309 0.14068268 -0.2976238 -0.131823 -0.008702369 0.06560837 -0.11707667 0.07507259 -0.1712027 -0.10839521 0.020715963 -0.1797918
4969 -0.11656206 0.6154491 -0.5965009 0.37962198 0.80426145 -0.111376755 0.5968584 0.16377251 0.6019159 -0.014970539 -0.6896262 -0.0862592 0.16126275 0.01764391 -0.08656699 -0.006051448 -0.07007406 0.34249058 -0.03884895 0.3284354 -0.11310867 -0.7964369 0.16398521 -0.71942645 0.80089986 0.19739549 -0.9130534 -0.028682139 -0.02776892 0.574847 -0.5486079 0.6114601 -0.08604934 -0.13741228 0.40584812 -0.081864044 -0.31532606 -0.29394773 0.10760741 -0.43405855 1.0647942 0.25922972 -0.4037538 0.34393358 -0.28562123 0.011056671 -0.5330511 0.22022083 -0.47295943 -0.2550722 0.7177358 0.16015802 -0.5707059 0.45902592 -0.43161607 -0.8538019 0.14024618 -0.41404578 -0.14952491 0.08752108 -0.45462307 -0.6237323 -0.35682604 -0.27649125
56 0.6066137 -0.2948272 0.52819276 -0.18856151 -0.5526524 0.4331837 0.65405536 -0.077448554 0.78748065 0.40374866 0.38421807 0.2797436 0.5282608 0.030029366 0.2574804 -0.8467363 -0.15150705 0.041725796 -0.15327555 0.19213367 -0.10253044 0.5884469 -0.031102996 0.111193635 0.63165635 0.24756044 -1.2197782 -0.17052299 0.19727014 0.5181273 -0.21947311 0.47869778 0.06482318 0.47030655 0.6358876 -0.47446674 -0.10869545 -0.5443318 -0.5681579 -0.093334585 0.62117946 -0.3269303 -0.63030905 0.43401915 0.19039835 -0.6559164 -0.114248246 0.21739396 0.90590197 0.36645967 0.03098677 0.07256229 0.22810194 0.43542337 -0.35710555 0.05232085 -0.537641 -0.38165748 0.04094553 0.3711739 -0.26709202 0.05863353 -0.21382755 0.10265598
4763 0.21186678 -0.29538596 0.43486738 0.7369113 0.47567776 -0.50469387 -0.30476415 -0.3126154 0.81325626 0.62717503 -0.15661852 0.47236457 -0.82296926 -0.16369858 0.2461636 -0.09725784 -0.2791986 0.0008224948 0.3777917 0.64894086 -0.5679523 0.71127 -0.72422725 -0.31299576 0.20455854 0.88389844 -0.5758733 -0.06076024 -0.3742951 0.04089505 -0.2489728 -0.1577339 0.10178663 -0.13653411 -0.6687248 -0.19694068 0.14995676 0.2879013 0.26480272 0.17315045 0.9762402 -0.02689351 -0.39434683 0.84285367 -0.12016466 -0.18783535 -0.32701805 -0.27567053 0.010912998 0.03450161 0.3390527 0.31869137 -0.11323512 -0.2098713 -0.30120343 0.36660016 0.61163336 -0.46340466 0.13172273 0.19104707 0.08146506 -0.58653164 -0.19006614 -0.58989966
1818 0.65925765 -0.16316997 -0.19482706 -0.18578501 0.4176073 0.27573362 0.17930675 -0.45423666 -0.09674695 -0.71774846 -0.09878834 -0.008303901 -0.26285782 0.00023833642 -0.12627001 -0.024581887 0.51390857 -0.7761816 0.057490237 -0.29213873 0.032698914 0.346981 -0.70826817 0.27149856 0.048064448 0.47354072 -0.60287625 -0.4486901 -0.033495665 -0.16283044 -0.42995024 0.8288594 0.318187 -0.22096573 -0.35951465 0.043027997 0.1980022 -0.12047915 -0.95114845 0.6185847 0.36298224 -0.3446007 -0.182452 0.5429358 0.5914348 0.8034877 -0.79539686 0.1101523 0.075099744 0.34285232 0.729819 -0.04574313 0.30769163 -0.12492235 -0.5850588 -0.007358318 0.4609748 -0.2819204 0.7390047 0.37788355 -0.19135411 -0.6808381 -0.23894057 0.6061002
3924 -0.12937602 -0.64857745 0.47896698 0.31910092 0.37316424 0.011644948 -0.09600721 0.374963 -0.48328137 0.2998624 -0.19844045 0.0928386 -0.19672784 -0.25423825 -0.104598366 -0.3342997 0.07225305 0.21465969 -0.14704685 0.20772023 0.11834757 1.0503526 0.04286071 0.053992264 -0.39256766 0.0648556 -0.74350643 -0.48472592 -1.0293602 -0.22851755 -0.7966754 0.57755786 0.03355661 -0.58000195 -0.29204828 -0.5673067 -0.19598377 0.058646027 0.4025577 0.09148197 0.21874006 -0.9140435 -1.3103185 0.14853613 0.2642353 0.23608553 0.060541715 0.29794675 -0.12105029 0.26155934 0.4974172 -0.3987941 -0.4203849 0.12579007 -0.0837346 0.724229 0.34355053 0.28794345 -0.71451944 -0.056607515 0.14647588 0.20415735 0.62848216 0.24341103
4787 0.4306219 -0.33577147 -0.098127596 -0.51250005 -0.36483437 -0.52957296 -0.38064107 -0.07859296 0.1838851 0.92990714 0.0050547817 0.19479725 0.34884557 -0.44948474 -0.39181215 0.3357245 0.05860531 0.16383971 -0.07000324 0.07082805 -0.015245252 0.47556442 -0.3753035 0.18955451 0.7679398 0.42881712 -0.7382207 -0.23624699 -0.38786653 -0.40662423 -0.38576603 0.3419481 0.45252803 -0.23815104 0.19828711 -0.08861538 -0.57617944 0.12494262 -0.89068455 0.6319625 -0.36318186 -0.20900178 -0.4374828 0.2332843 0.4642579 -0.15152352 -0.49920157 0.029567333 -0.4717581 0.3276022 0.101714246 -0.1587465 0.95413697 -0.09182665 -0.13927354 -0.20161198 0.17775133 -1.1160654 0.18965112 0.24239025 0.18721731 -0.8336963 -0.61604875 0.076849334
5047 0.532236 -0.5611988 -0.08721907 0.45324126 0.6924176 0.054205384 0.441613 0.15424636 0.3347524 0.6690846 0.26960075 0.118811436 0.40454593 -0.20037852 -0.030133154 -0.19809015 0.8605075 -0.17207924 0.19223799 0.2883179 -0.34511802 -0.2971345 -0.43799502 0.69192153 -0.658962 0.49945283 -0.5910941 0.36231452 -0.5711404 0.2563844 -0.26014963 0.39738083 0.22584955 0.046952352 0.08300205 0.40808627 -0.98485416 -0.048369274 0.13467366 -0.2995282 -0.3973808 0.35318854 -0.64705944 0.46614704 -0.06254836 0.6265175 -0.16822983 -0.21262725 -0.3433222 -0.22757728 -0.13592725 0.23030739 0.0787046 0.18970825 -0.14070521 -0.19617963 0.12251303 0.106338084 -0.23924048 0.36780718 0.23317981 0.26416692 0.042046763 -0.025214538
4962 0.8203709 0.21323855 -0.5141912 -0.14367023 -0.114549495 -0.09761741 0.9105921 -0.26537856 0.13953976 0.24562392 0.5941554 -0.017887969 -0.3211749 -0.41777673 0.5922259 -0.29617408 -0.22443898 0.19748604 0.35934058 0.49296272 0.40946698 0.89949083 -0.17190401 0.15815845 0.41093814 0.48572263 -0.43487045 0.07612602 -0.9174002 -0.0018693176 0.4764692 0.35271823 0.13519217 0.21459688 -0.039909672 -0.13068883 -0.42583054 -0.049994472 -0.7941921 0.19259241 -0.15697908 -0.07821971 -0.38632745 0.7948656 0.12578413 0.5411295 -0.74517316 -0.65804636 0.63050365 -0.30261096 0.43316334 -0.053759903 0.1128196 -0.14993702 0.13680318 0.21313444 0.11342926 -0.5023495 -0.064013004 -0.13439447 -0.0865285 0.5177975 -0.32871613 0.48969623
4915 0.30923736 -0.20015246 0.33052573 -0.46277803 0.61301017 -0.16077034 0.19266438 0.061452966 -0.010138174 -0.010287774 0.6396181 -0.2881866 -0.13370924 -0.68303514 1.2237502 0.031085378 -0.1432808 0.59317064 0.2956812 0.037422948 -0.63580793 0.057262942 -0.30762118 0.5919131 -0.32615268 -0.09129874 -0.8575488 -0.45925906 -1.1799656 0.45629284 -0.33245447 -0.11776043 0.063928135 0.08020794 0.9881746 -0.21554784 -0.20912443 0.005059767 -0.48692626 -0.4393802 0.43021291 0.13600537 0.09235282 -0.07945948 -0.025097944 0.4412381 -0.08608237 -0.20772755 0.61243284 -0.44052607 -0.03286046 -0.18861422 -0.41360044 -0.48745942 -0.5399988 -0.20470338 0.0088152075 -0.2371793 -0.2148758 -0.22672844 0.33852053 -0.37205905 -0.070445485 -0.08205929
2810 0.4344342 -0.06561951 -0.39381626 0.01531115 0.73330444 -0.4741276 0.9199116 0.9021518 0.2646246 -0.047570318 -0.011868649 -0.23848037 0.046150725 -0.37773937 0.2336511 -0.2989242 0.1468564 0.6352466 0.23219423 -0.052818153 0.37487033 0.39667505 -0.29732463 -0.06457495 0.6234886 -0.10607441 -0.68081766 0.3709613 -0.36328617 0.8512274 -0.8652461 0.19055237 -0.15668643 -0.026400499 -0.9020544 -0.05830967 0.1004483 0.41202134 0.5006026 -0.1142367 -0.2512046 0.5963772 -0.6696127 0.20756957 -0.41087845 -0.1465153 0.116680935 -0.100758046 -0.1262108 -0.0032215142 0.08043364 -0.21521515 -0.16346507 0.52425635 0.20747763 -1.1461879 0.47915107 -0.18764743 0.27059752 -0.095889844 0.5141841 -0.2649586 -0.24975698 -0.17083712
4698 0.39087856 -0.74582 -0.58923113 0.22347593 0.5988444 0.1334926 0.48350897 0.057280544 0.25810847 0.6688083 0.01556198 0.105029576 0.26478428 -0.19340569 0.041400593 -0.2700286 0.8717905 -0.054756384 0.44794577 0.052962568 -0.38773042 0.0066338014 -0.40156156 0.3950031 -0.41814557 0.42096868 -0.44838297 0.3728858 -0.75044566 0.22566073 -0.32126874 0.46841773 -0.055616666 0.22570041 -0.18722375 0.5825783 -1.1030871 -0.004397351 0.03608367 0.27557465 -0.2358448 0.22560044 -0.39889187 0.5310168 -0.29763362 0.45265287 -0.033134602 -0.20900927 -0.39559928 -0.39722008 -0.011424613 -0.16892138 -0.03141103 0.22429928 -0.053546954 -0.16723587 0.26475027 0.027158128 -0.18773648 -0.061711688 -0.22094046 0.17572062 0.010069333 0.084488705
4860 0.45224282 -0.29386833 -0.09396681 -0.12732205 0.32244152 0.5779185 1.0547799 -0.1445847 0.38569537 -0.4778906 -0.21511374 -0.3416956 0.12734388 -0.022045327 -0.17625593 -0.6117129 -0.036907922 -0.80797714 0.08448485 -1.0067519 -0.331565 -0.3377892 -0.36641803 0.35956746 0.2924344 0.3745427 -0.50836194 -0.471872 -0.604974 0.78956425 -0.8331667 -0.07621125 0.39323154 0.110273555 -0.1285136 -0.2114471 -0.80877596 -0.036951527 0.07271283 0.5551517 -0.07419467 0.3604847 -0.31675118 -0.18607982 0.5741151 -0.2890364 -0.9131803 -0.210786 -0.22607772 0.17070182 0.16992733 -0.14727162 0.05626894 0.61972904 0.03891827 0.14872818 0.566318 -0.23107293 0.4979736 -0.114488415 0.055607866 0.43913126 -0.36647615 -0.22296607
4685 0.6338148 -0.31790143 -0.32836086 0.0049513197 1.0987213 -0.15436532 0.34057733 0.16238977 0.076269284 -0.27486435 0.15888362 -0.13754892 0.63616735 -0.616023 0.019572545 -0.33098552 0.6878344 -0.22745247 0.61128455 0.08911452 -0.7640397 0.22789225 -0.36314827 0.69112146 0.37392834 0.18443435 -0.4488694 -0.39584604 -0.9332736 -0.01559438 -0.19385828 -0.16208893 -0.0014364521 0.43040392 0.08634112 0.55533475 -1.0956132 0.11180371 0.39390033 0.37961197 -0.28858447 0.20155598 -0.7071977 -0.13868205 -0.021769598 0.28439793 0.0034854473 -0.12904124 -0.35954997 -0.08650133 -0.2794439 0.37447858 0.28585735 0.123596825 -0.25216743 -0.016765168 -0.39919677 -0.41533718 0.08049182 0.037656136 -0.074363925 -0.47353375 0.4390077 -0.03720051
3882 -0.06295809 -0.502865 0.41259223 -0.009486719 0.3113565 -0.4547937 0.46351022 -0.43951082 0.017275339 0.054491933 0.59549886 0.5422908 0.19649322 -0.15158749 0.0065506077 -0.35024592 -0.0051138606 0.17619278 -0.3670939 -0.8412446 -0.07197037 0.550377 -0.17119204 -0.1754854 0.55302745 0.4187287 -0.45944768 0.0355016 0.16395591 -0.28904697 -0.7916293 0.22291425 -0.53815305 -0.26714993 -0.6835905 -0.11258021 -0.13375114 -0.012370366 -0.3190231 0.18720476 -0.28790662 0.41243482 -1.0197607 0.07719635 -0.1463998 0.04882199 -0.28582948 0.6765506 0.112737566 -0.7405609 0.91633594 -0.49079734 0.100771606 -0.03111479 -0.54116833 0.157375 -0.69299555 0.4514712 -0.677321 0.38176262 -0.082443096 -0.26789373 0.89989465 -0.07383196
3914 -0.6761195 -0.5598917 -0.22145723 -0.0573404 -0.064129725 -0.12309128 0.29355276 0.6569744 0.28114194 -0.08428974 -0.27630717 0.12342189 -0.086877406 -0.81019217 -0.30773637 -0.20027488 -0.5037108 0.39473206 0.0642059 -0.13277824 -0.17691329 0.20053469 0.12197393 0.046123635 0.04254693 0.6196388 -0.1580363 -0.49641722 -0.078327455 0.14877164 -0.43516043 0.47234643 1.2198951 -0.4422444 -0.23108938 0.65562105 -0.76232904 -0.31429014 -0.41588697 -0.42797825 -0.0069711893 -0.085466295 -0.3664419 0.15264444 0.60802823 0.2182585 -0.42276427 -1.078706 -0.25554436 0.10104775 0.9367064 -0.85271895 -0.3477547 0.011265129 -0.62151587 0.23148568 0.26574588 0.19483072 0.42712826 0.41555783 0.69076496 -0.014787621 -0.2802208 0.20278227
4771 -0.024550147 -0.68408215 0.31453085 -0.19415131 -0.5015369 0.07201078 0.095073946 0.3459944 0.107383616 0.4415443 -0.2054856 0.23187324 0.05473636 -0.6435878 -0.58650815 0.19286926 0.17078713 -0.5214992 -0.11787316 0.1405445 -0.8943789 -0.02894066 -1.0323486 -0.018807542 0.20147945 -0.14137451 -0.49959487 0.07841441 -0.04189409 -0.13300551 -0.76880014 0.18189001 -0.19638646 0.055994168 0.49725354 0.30204013 -0.36939976 0.40501127 -0.43611637 0.5882338 0.2804465 0.37450993 -1.0218573 -0.32734385 -0.16201954 0.0045940843 -0.21754567 -0.19819522 0.061216716 -0.030548623 0.7646278 -0.5331668 -0.50118065 0.5239374 0.4623081 -0.017063223 -0.7761099 -0.21938126 -0.21056128 0.02869696 0.00643365 -0.6502157 -0.5879295 -0.26988137
1839 0.75757575 -0.3970342 0.031871695 -0.31470308 0.550165 0.40749535 -0.32256246 -0.7172088 -0.059663907 0.25689873 0.8666057 0.07877281 0.5939216 -1.0214264 -0.6446183 -0.16998231 0.19362077 -0.4040395 -0.069766514 -0.26956853 0.12989746 0.13153842 -0.08982481 0.085875414 0.31812382 0.18964095 -0.8108224 0.04442782 -0.38786578 -0.18897942 -0.3384353 -0.039462242 0.11661549 -0.0034784488 -0.1595736 -0.16608739 0.21207236 -0.30483717 0.32291713 0.25180775 -0.26894262 -0.45533112 -0.6058316 0.16829118 0.1850836 0.5754396 -0.63339496 -0.62514335 0.018183073 0.0194441 0.54859287 -0.022802906 -0.7104471 -0.15012102 -0.3575469 0.81616026 1.0864427 0.5150826 -0.1611066 0.052362837 -0.1347589 -0.51636904 0.053868935 -0.20444974
2658 0.24608742 -0.28845 0.019191789 0.25323725 0.5245496 -0.2223777 -0.1193554 0.70567274 0.48871493 0.3954178 -0.98359025 0.43089077 -0.41135097 0.17937939 0.4346997 -0.4300954 -0.77490187 0.045331046 0.10872812 0.09355787 -0.099459715 -0.30743226 -0.38491356 0.17314695 0.11287584 0.04514455 -1.4817643 -0.36385497 -0.8509058 0.4210366 -0.3801759 0.24731709 0.096920006 -0.027789393 -0.18302798 0.5291102 -0.03739967 -0.32061574 -0.21659234 0.21597387 -0.22867733 -0.32350472 -0.55302954 -0.16759191 -0.32013807 0.12050903 -1.149982 -0.4572879 0.39097083 -0.14301549 -0.2944234 0.51238865 -0.24492949 0.06236036 0.3305728 0.40433478 0.13383853 -0.053733025 0.2008358 0.445863 -0.31127244 -0.22549413 -0.37984627 0.2792901
4761 0.6944184 -0.02670931 0.67418516 0.02866281 -0.019687213 -0.5045944 0.5060967 -0.10835785 0.51006454 0.39456713 0.35322 -0.0474768 0.1538377 -0.49142185 0.045172922 -0.25681168 0.25987646 -0.043971434 0.305145 -0.2158278 -0.76006615 0.5559609 -0.92012686 0.40931892 0.633711 0.17824477 -0.73537326 -0.18431404 -0.18102562 0.13574573 -0.31637597 0.32300422 -0.31373242 -0.62074304 -0.69011694 -0.3751129 -0.15670809 -0.14378032 0.19514023 -0.011585169 0.37778506 0.43057162 -0.28734937 0.5281179 -0.40285686 -0.15623859 0.50153047 -0.38587826 0.24779017 -0.44590276 0.017760985 -0.111113146 0.36656812 -0.3272688 -0.10701355 -0.28360835 0.8431186 -0.21605512 0.02640083 -0.18136811 -0.6442709 -0.6781097 -0.03880267 -0.18028505
4908 -0.056910872 0.16899861 -0.12867934 0.27875015 0.73854136 -0.45443174 0.3822184 -0.070481 -0.28957027 0.69562507 -0.12750268 0.6830853 0.33945414 -0.7986694 0.6835614 -0.16628078 0.44267607 0.48475543 0.22221455 -0.08006354 0.5927746 0.3063992 0.0074684056 0.10563038 -0.12726697 -0.15543598 -0.86977124 0.018947534 -0.38666838 0.74857736 0.026855927 -0.10423555 -0.19740626 0.05470463 0.045122445 -0.08751639 0.11268855 0.50813085 -0.069081254 0.2571401 0.5467994 -0.4746009 -0.082028024 1.2567592 0.18311141 0.083672166 -0.69547194 -0.67510575 -0.513068 0.23640586 0.23556529 -0.36280563 -0.59335434 -0.06300182 -0.29898158 0.41321224 -0.918814 -0.088646725 0.23618919 0.004693059 -0.2914591 -0.4365134 0.025409527 -0.22908457
4762 -0.019841252 -0.5948577 -0.21799849 0.6718138 0.887636 -0.1328634 0.50513303 -0.5053462 0.56936556 -0.08266096 0.18723832 0.5012809 -0.4629085 -0.45570868 0.35294983 -0.015856937 0.051996578 0.1234986 0.24463157 0.3407472 -0.37415797 0.58197397 -0.6941898 0.15295115 0.5805592 -0.3248649 -0.11569222 -0.10187036 -0.43599844 0.013028974 -0.9088698 0.5592905 0.110732116 -0.6686905 -0.36451033 -0.3658922 -0.23033684 0.013440847 0.1409856 0.37118554 0.47870758 0.11868416 -0.30243927 0.7666074 -0.5320825 0.2360899 -0.33499485 0.49737087 0.0030630447 -0.027430052 0.041559987 -0.309862 0.933793 -0.2251142 0.5379696 -0.31986943 0.14541465 0.23618326 0.17217292 0.22579254 -0.21774855 -1.1176527 -0.41274282 0.20335431
4775 -0.39493316 -0.4550384 0.7971307 -0.5683311 0.38629356 0.15154092 0.44554752 -0.7130058 -0.14653899 0.2285238 -0.07763809 0.30439565 -0.059539735 -0.02340538 -0.35194573 -0.017793639 0.1443842 0.12879178 0.54989046 -0.07270197 -0.41617686 0.44633678 -0.53248894 -0.5841643 -0.3242367 0.020119172 -0.29086494 -0.052400537 0.06873254 0.80771166 0.11532692 0.27965212 0.4571518 -0.01845676 0.46818313 -0.015592372 -0.89646924 -0.4317961 -0.2867817 0.6352812 -0.15971474 -0.13600439 -1.1097021 0.18621704 -0.18483338 -0.3969405 -0.22376908 -0.61760986 -0.44269928 -0.5315837 -0.066660725 -0.2008622 -0.043910976 0.0021712724 -0.22021522 -0.38642925 -0.24024422 -0.6119244 0.24915148 0.21564566 -0.62569135 -0.81682557 -0.2349413 -0.3567402
4985 0.3523936 -0.40636396 -0.026137976 -0.54975927 0.70203733 0.7495787 0.6353914 -0.15792099 -0.3198264 0.09751974 0.21868907 0.5185276 0.45012286 -0.14219688 -0.5813229 0.6243666 -0.1546864 0.46759346 0.43003005 -0.0733964 0.6705996 0.8638725 -0.03740144 0.11221267 0.13916239 0.29493916 -1.6345164 -0.4345234 -0.15997736 -0.17982648 0.018835781 -0.10767643 -0.2591445 -0.0015642927 -0.17414524 -0.7347352 -0.12156071 -0.6129212 -0.010321894 0.52614 0.22567731 -0.35408303 0.15821418 0.3628713 0.1256174 0.18349765 -0.2290553 -0.63637257 0.39737394 -0.439163 0.23033507 0.062000614 0.3214121 -0.5412159 -0.20841905 -0.15229645 0.4873413 0.38481554 -0.5282638 0.3398332 0.4983419 0.3239708 0.030597972 -0.745144
4731 0.54612523 -0.040568516 -0.37886235 -0.17327814 1.2459221 -0.64476895 -0.34665367 0.24606009 -0.20547484 0.43806005 -0.11838811 0.56298506 0.02481327 0.46876377 -0.46293205 -0.019573087 0.4921545 -0.03613625 0.18665503 0.00090415933 0.33368978 0.590223 0.13405837 0.022861276 0.3111978 0.114815034 -0.36565775 -0.6629283 -0.25556496 1.0188819 0.11387208 0.6271009 0.24299388 0.19678475 0.10249353 0.6707462 0.15699227 -0.27360702 0.18470103 -0.38310927 0.3585764 0.05104829 -0.6096923 0.6068937 -0.26955578 -0.07617227 0.19897756 0.09662003 -0.3938288 -0.1794927 0.5148605 -0.051731385 0.004505596 0.8249137 -0.70928955 -0.1471604 0.1747749 0.42919472 -1.1081252 0.7605637 0.3341521 -0.33748192 -0.03236816 -0.3360124
4794 0.25294918 -0.47317624 -0.5462634 0.268067 0.39246634 0.10296735 0.3564942 -0.041934073 0.46778917 0.5051524 0.14791015 0.32327735 0.53126174 -0.29901406 0.10038613 -0.06750173 1.1769536 0.16297418 0.4204389 -0.056232292 -0.5560318 0.0024749544 -0.5197403 0.44312236 -0.3171473 0.42783496 -0.49162474 -0.034746874 -0.72864157 0.3925013 -0.09956042 0.19135895 0.03387771 -0.15807636 -0.13763066 0.9883256 -1.0325245 -0.23772536 0.14063837 -0.0006859362 -0.25203887 0.30169302 -0.27608186 0.4564895 0.008769205 0.57690716 -0.2828321 -0.24626146 -0.4479846 -0.15855896 -0.13234879 -0.07511245 0.15267056 0.1434134 0.13909024 -0.060518306 0.4784304 -0.33095777 -0.15198769 0.06381216 0.07229041 -0.15864527 0.09923769 0.17927916
218 0.62974715 0.40232882 -0.38627535 0.0016945191 0.3744235 -0.027924515 0.6480547 -0.28586778 0.54773027 -1.1042753 -0.023777004 0.3933209 0.4268122 -0.74820393 -0.43435678 -1.0895348 -0.4336554 0.092090294 -0.14082557 0.05093912 0.63702005 0.16669217 -0.27026957 -0.07186838 -0.1116237 -0.1751266 -0.67484 0.14827828 -0.20829019 0.008520099 -1.1691551 0.014904108 0.3611384 0.53865576 0.24195589 0.22189116 -0.31694886 0.6692146 -0.1544965 0.5242762 0.4892172 0.15824778 -0.29446542 0.11525641 -0.03352682 -0.026959205 0.13996902 -0.15328445 0.23896122 0.08406792 0.19477081 -0.13743849 -0.43390426 0.09860182 -0.4369562 0.037478495 0.114247814 -0.34260285 -0.691148 0.33028105 -0.35664225 -1.0799856 -0.16760723 -0.024211036
5048 0.26783895 -0.66415733 -0.28430468 0.16098045 0.49288145 -0.13316311 0.4062699 0.14178206 0.457986 0.82701004 0.089032836 0.117292866 0.45945358 -0.10588884 -0.301511 -0.6037661 0.889778 -0.098617464 0.31870803 0.10725673 -0.34395695 -0.1861608 -0.55997515 0.4266832 -0.61421114 0.68224007 -0.5957234 0.31182024 -0.7683707 0.30341116 -0.33771077 0.19460611 0.14190964 0.11115049 -0.21479127 0.43191904 -0.82835686 -0.17742348 0.12836942 0.15206656 -0.22599076 0.36156678 -0.6138966 0.1147632 0.10762469 0.6686008 0.051357083 -0.26583815 -0.5384325 -0.3330423 0.06552403 0.17285801 0.2522512 0.05356853 -0.22558089 -0.079552636 0.105031595 -0.17344198 -0.10138685 -0.017604008 0.05417756 0.17277515 0.17996801 0.020566568
4667 0.5562244 -0.5007813 -0.6325405 -0.0045456146 0.66266114 -0.08252643 0.14532398 0.31579533 0.147568 0.6937548 -0.118779145 0.31601956 0.4241072 0.054841634 -0.06523549 -0.0975672 1.0726705 -0.010668268 0.32358584 -0.19787678 -0.17327097 -0.013635289 -0.29411563 0.4301824 -0.40690348 0.31859183 -0.4262961 -0.051694404 -0.7199631 0.30449757 -0.32095543 0.2824034 0.36615342 0.20743173 -0.29853532 0.7797645 -0.67193806 -0.25810608 0.11905466 -0.031452563 -0.35016525 0.20873286 -0.77491546 0.76146793 0.14571568 0.63570786 0.030781824 -0.25007832 -0.62705785 -0.06843612 -0.16895647 -0.28357694 0.0006500793 0.09605093 -0.052404996 -0.21895507 0.040590867 -0.30866548 -0.27617052 0.124529876 0.06751096 0.11248602 0.09599091 -0.17613944
4753 -0.6914518 0.10721669 -0.10033557 0.13267148 0.062076613 0.32781577 0.9116765 0.46027395 0.14019899 -0.06378324 -0.73783183 0.4295684 0.5511724 -0.31391189 -0.83597714 0.13843897 -0.061785627 -0.19189335 0.17778973 0.35185504 0.43508786 0.3484436 0.0049299463 0.7507651 0.20380346 0.4063907 -0.7330451 -0.35014752 -0.45266554 0.11587037 0.42737767 1.1093057 0.3833501 -0.5536343 0.32922655 0.42833367 -0.042094618 0.2183906 0.04057836 0.29069722 0.70313025 0.76519054 -0.61232287 0.1473962 0.00572508 0.32019103 -0.052997664 -0.23427498 0.04231392 0.2560901 0.52577335 0.21892226 -0.36313438 -0.1794782 -0.32057172 -0.0044377814 0.5793327 -0.8123403 0.34049407 0.10096744 -0.02024587 -0.09906095 -0.36766765 -0.79034984
1846 -0.30188027 -1.0332137 -0.7861465 -0.46565524 0.6340921 -0.19156727 0.62787074 -0.07908044 0.15119193 -0.0076872203 0.4164725 -0.007666319 -0.03368972 -1.0323722 0.79851425 0.38105506 0.065322965 0.22187245 -0.46922624 0.2083066 0.36853766 0.6097003 0.28002825 -0.14755449 0.12046334 0.123734556 -0.9267114 0.042527437 0.09092324 -0.1219504 -0.18868111 0.18104368 0.4074242 -0.37963605 0.10651968 0.2591206 -0.33853793 0.41409266 0.51657915 0.10128175 0.35224184 -0.04204773 -0.6679978 -0.48846257 -0.08323682 0.20551561 -0.29566574 -0.4455349 -0.30958316 -0.2583994 -0.15785992 -0.33656856 0.09303315 0.068513654 0.29965508 -0.32228068 0.84482706 0.34849194 0.10283674 0.68078625 -0.16005507 -0.28157374 -0.5523677 0.4175711
5057 0.10345094 -0.3400041 0.9049802 -0.39440632 0.25151792 -0.017464202 -0.0047825356 0.23886535 0.13065599 0.31269768 0.0057195527 0.16245568 -0.06845762 -0.40586588 -0.47145668 -0.098240115 0.20823722 -0.23853467 0.24067093 -0.33144876 -0.6607861 0.07216199 -0.058749717 -0.49246976 0.23050295 0.4811345 -0.7653607 0.28144354 -0.3900817 -0.08875272 -0.59036785 0.3031913 0.13138308 -0.1159843 -0.12284297 -0.07138566 -0.9372328 0.4046205 -0.28817475 0.39100963 -0.266426 -0.30331498 -0.69208884 -0.153134 0.12397469 -0.49469027 -0.7939856 -0.17512089 -0.12677719 -0.082422525 0.3231244 -0.47535253 0.4465068 0.27187815 0.60668653 -0.8928371 -0.40274945 -0.4657146 -0.19076599 0.4267545 -0.36383286 -0.0045300056 -0.37178385 -0.6245256
4970 -0.035460636 0.47784224 0.13404241 -0.38671264 0.7069914 -0.040645912 0.8739545 -0.4799208 0.75083256 0.61635 -0.26745233 -0.08447677 -0.12939933 -0.25006485 0.1310606 0.73622435 -0.27003554 0.7458921 0.06826199 -0.04188338 -0.043468297 0.11329435 0.31480637 -0.2254129 0.33920774 0.32834873 -0.68176496 0.5634 0.016219446 0.069875635 -0.34217533 -0.1857747 0.20110312 -0.0615263 0.45848975 0.7135607 -0.4015334 -0.76751816 -0.21874388 -0.08428058 0.13481173 0.11955048 -0.6127094 0.8884494 -0.35412872 0.6348566 -0.26752678 0.6785185 -0.1933037 -0.35924825 0.45530152 -0.014580393 0.061202783 -0.14175421 -0.43440777 -0.563741 -0.004627924 -0.2482416 -0.82729733 -0.03662151 0.075012885 -0.5759396 0.11361002 -0.48707274
4744 0.5694629 -0.74621606 -0.18549304 0.3901559 0.5131916 0.13187477 0.48173225 -0.20887701 0.20314467 0.97050756 -0.011496011 0.24956079 0.217668 0.1569617 -0.10649216 -0.33396503 0.8161192 -0.05660672 0.3712288 0.2779271 -0.08721466 -0.120643035 -0.3848631 0.5126773 -0.31513137 0.4320901 -0.79423827 0.2014853 -0.9325641 0.13644494 -0.27575 0.272167 0.22887678 -0.024294201 -0.12487353 0.57156676 -0.7413783 -0.1805062 0.14053066 0.04935548 -0.3504134 0.32241005 -0.7696213 0.47914052 0.10846164 0.8059775 0.093404606 -0.51087964 -0.34550703 -0.13568637 -0.011166282 0.11888488 0.42254016 0.19617806 -0.10992315 -0.2265931 0.13057525 -0.03557133 0.0186512 0.08709233 -0.10852913 0.30593133 0.0008237682 -0.2841125
