1622 64
29 -0.6805582 0.45050406 -0.63870144 0.30849472 -0.40630823 0.27090657 0.13540077 -0.40709502 -0.3276803 -0.0033692853 0.475275 0.2912614 0.4671451 -0.39159983 0.20144744 -0.6106366 0.1812624 0.04783821 0.3788621 0.12778695 0.16722757 -0.022340061 -0.11031227 0.18747628 -0.2997734 0.031697135 0.07035578 -0.49469328 -0.2631937 -0.06667003 0.032713033 0.28224826 0.2935284 0.044759613 -0.0930982 -0.6541976 0.2787629 0.15127225 -0.3427772 0.28812206 -0.030479018 -0.2525437 0.19096683 0.17486146 0.07094427 0.19146831 0.106134556 -0.07337534 0.14874926 -0.0061155516 -0.08481969 0.48360065 0.63077635 -0.17360166 0.18122219 -0.29742178 -0.36019793 -0.02900517 -0.53416234 -0.10105671 -0.047791265 -0.51055735 -0.31348476 -0.49610835
3 -0.11704484 0.61582303 -0.49643755 0.40869877 -0.18083903 -0.29203773 -0.06581083 0.4742785 0.13735767 0.13532713 -0.24610564 0.09460891 0.17598741 -0.32217947 0.5196755 -0.29369292 -0.05439488 -0.3450779 0.5344122 -0.012340893 0.4637386 -0.055033986 0.36030972 -0.26151523 0.28887978 0.56048745 -0.29581693 0.028516734 -0.33146033 0.3181631 0.021829901 -0.03684924 0.05061688 0.70715064 0.12061198 -0.50032324 -0.30592915 0.39106175 -0.18371744 0.06619757 -0.46075088 -0.66560626 -0.19318098 0.15144661 -0.2284382 -0.14058776 0.16942386 -0.4874883 0.35594296 -0.39867923 -0.3032844 -0.3853422 0.18881343 -0.60478866 0.39533415 0.30434054 0.29888704 0.15226501 0.20581707 -0.40341666 -0.5483248 0.08112147 0.021108605 0.16611527
18 0.26056537 0.3953723 -0.5191502 -0.3074941 0.5121667 -0.12024681 -0.33280823 -0.7363593 0.47755095 -0.17247835 -0.07152865 0.57267904 0.54046035 -0.25734064 0.35948405 0.2723893 -0.35047257 0.30885342 0.5362236 0.00038886658 0.29754412 -0.25793874 0.16346215 0.29436857 0.017657692 -0.027829893 -0.3782166 -0.010788654 -0.49970505 0.5744603 -0.12132887 0.13691296 0.05994644 0.3980704 0.747207 -0.8829301 0.06338874 -0.27125776 -0.00726534 0.42453656 -0.20667903 0.07126619 -0.43167526 0.6083442 0.29534516 -0.58504736 -0.22866826 -0.62056094 -0.342277 0.24396014 -0.3402417 -0.31112778 0.5395587 -0.8204234 -0.33893988 -0.49355668 -0.4392362 0.29660812 -0.24322319 -0.36780873 0.08416992 0.26093757 0.010950524 -0.2916842
33 -0.06883646 0.124326415 -0.37705788 0.041083366 0.1386009 0.04146332 -0.23516707 0.36093542 0.2977123 0.027190797 0.14994694 0.010705762 0.32303968 0.24532208 0.25547788 -0.0070680445 0.11348717 0.23942818 0.26201984 -0.06404488 0.044772252 0.40442607 -0.14111762 0.646366 0.8748772 0.03163439 -0.5901689 -0.6933665 -0.6110076 0.268397 -0.5597042 0.24876927 -0.37204137 0.6578334 0.4398756 -0.86043733 -0.1972892 0.2620291 -0.8998941 -0.61200166 -0.6537061 -0.065311655 0.13459419 0.29383793 -0.16083929 0.17609003 0.4724969 0.112473115 0.15331475 0.47061402 0.20443155 0.23992452 -0.29075757 0.09784487 -0.005314481 0.023902394 -0.6786924 0.33840942 -0.35558328 0.033730973 0.2943977 -0.12207422 -0.12112118 0.024358299
13 0.056929667 0.6991823 -0.54152274 0.19280776 0.008784181 0.40685493 -0.6709217 -0.17256813 0.28272337 0.26325622 -0.25214082 -0.21550247 0.01266911 0.19023241 0.05967142 -0.23060814 0.12138993 -0.31566513 0.25562057 0.34221637 -0.02259976 0.23695493 0.1089782 -0.21579872 -0.21047015 -0.14335668 -0.5381584 -0.1306251 -0.7466334 -0.49690348 0.18255746 -0.23264852 0.14226192 0.27086702 0.23914646 -0.86917746 -0.13479824 0.25299743 0.339615 -0.34858873 0.01664479 -0.31330523 0.54941535 0.7348069 0.38510725 -0.55681497 0.15752485 0.14783366 0.69502455 0.5962171 0.0031168743 -0.16124922 0.31573185 0.33382043 -0.050227538 -0.5213983 0.08630276 -0.4106083 -0.37922367 -0.3556951 0.10149236 -0.1275776 -0.42073298 -0.046970453
31 -0.20687397 0.42510128 0.04158445 -0.64843506 -0.48393792 0.24426952 -0.5017416 0.1849794 -0.028604843 -0.052415844 0.37219694 -0.26010865 0.5302609 0.31747836 0.17329828 -0.18364486 -0.18580809 0.37108034 0.014262847 0.164456 -0.012315296 0.29298133 -0.39871365 -0.20296505 0.13137919 0.40511444 -0.49708134 0.07236907 -0.84802055 0.40252623 -0.14647275 0.46797687 0.93391913 0.16000742 0.24232925 -0.032275654 -0.24412385 -0.84924114 -0.2549813 -0.42428732 -0.9155789 0.06780739 0.17843239 0.7269483 0.3436496 -0.09392473 0.075618885 -0.07017631 0.0584626 0.011461449 -0.16759959 0.05263167 0.081306756 -0.28674772 0.3102282 -0.19592653 -0.16816455 0.02419358 -0.517171 -0.31705463 0.12226136 0.111916795 0.16690545 -0.2629911
1 -0.14611407 -0.12883775 0.24127863 0.34901428 0.37376654 0.73230034 -0.4315583 -0.0836527 0.15367328 0.37546718 0.22216068 0.20119047 0.911645 -0.26414877 0.049769286 -0.63096565 -0.06571485 -0.0869233 -0.06250011 -0.13911985 -0.25115845 0.09940034 0.17262223 0.2178944 0.34960878 0.34765548 -0.2073723 -0.29617232 -0.3888872 0.3120519 0.57221675 -0.31672788 0.3356761 -0.073533915 0.26408413 -0.23750842 0.15544955 0.3059442 0.103088535 0.20510727 -0.35448518 -0.11941232 0.024395533 0.27545562 0.44937438 -0.2428463 0.5561623 -0.22311908 0.33323917 0.039561864 -0.5010585 -0.6425876 -0.21710715 -0.37463054 0.6785312 -0.22579208 -0.40286264 -0.6714716 -0.54979736 -0.08175029 0.24143182 -0.0045878305 0.6850486 -0.41073397
15 -0.0041929204 0.32698667 -0.5241589 0.69408625 0.21739404 0.35307387 0.057080545 -0.67756075 -0.16702196 0.23194672 0.071485534 0.44295952 0.029520888 0.39416826 0.07560712 -0.48896095 -0.4811704 -0.6632334 -0.29021078 -0.024561828 0.44461083 0.07265156 0.02681979 0.040955614 0.012727013 0.13539271 -0.07871296 -0.32024536 -0.6838198 0.20222603 -0.5833778 -0.6250152 0.502352 0.01322731 -0.49061993 -0.41939524 0.4775247 -0.2128229 -0.42657444 -0.30398288 0.13691524 0.1900379 -0.3040782 0.82433414 -0.18671474 -0.2492662 0.66687936 -0.21359369 0.06286001 0.2465237 0.18295534 0.22537057 0.013610798 -0.1485482 0.39711216 -0.6499141 -0.13798037 0.69084966 -0.17404352 -0.06460323 -0.20424713 0.5559009 -0.038364895 0.15339279
20 -0.27600342 0.46345443 0.1101218 -0.50958735 0.10697108 0.00815255 0.5049466 -0.45993704 0.7433454 0.35005915 0.14604995 0.092994414 0.32469454 -0.10856983 -0.34969535 -0.7328638 0.18325244 -0.1569126 0.37956342 -0.007523373 0.43906727 -0.21967259 -0.25827387 0.056791924 -0.08201396 0.13174573 -0.41455305 0.3600518 -0.9138478 -0.1279549 -0.35435694 -0.06889652 0.2517171 0.3297927 0.43755814 -0.50536644 -0.37881407 0.5160038 0.40068728 0.20946595 -0.43734252 0.22452667 0.4777914 0.8006907 0.08758924 0.49672353 0.81159055 -0.13243517 0.2065018 0.13424413 0.29726067 -0.060790647 -0.21665356 0.05439932 0.2223108 0.09305212 -0.04197901 -0.035959866 0.21992938 -0.1194238 -0.6039057 -0.0146560185 0.0451807 -0.37895674
22 -0.4178411 0.48238117 0.53507364 0.4813637 0.09926955 0.25940847 -0.22425827 0.18069547 0.009339444 0.14915104 0.025312977 0.570957 0.33893257 -0.03351936 0.2791123 -0.03684696 -0.04444897 0.95484954 -0.09616682 -0.15576966 -0.2505848 -0.05022683 0.5170845 0.27170053 0.06760123 0.20708199 0.18266648 0.29094 -0.9958851 0.31829485 0.027247602 0.31451893 -0.03991689 -0.018338725 -0.29514766 -0.969543 0.41805416 0.3356106 0.17234616 -0.06439077 -0.14376779 -0.29123276 0.38629326 0.285522 0.055287756 -0.08996669 0.16589049 -0.47527668 -0.005605351 0.061531898 0.47430038 -0.6002193 0.33439374 0.040297594 0.27799124 -0.23907483 -0.8000155 0.15604274 -0.5093248 -0.0508708 -0.24640521 0.3908072 0.05530666 -0.20788066
68 -0.57553947 -0.5345588 0.0023294147 -0.009585461 -0.07296628 0.49424815 -0.83777094 -0.45236355 0.35191897 0.54678154 -0.19223686 -0.10692278 0.043094393 -0.37046647 -0.05178761 0.27137318 0.33077502 -0.4111424 0.28420055 0.057649307 -0.8790788 -0.046427224 -0.034737118 -0.3510401 0.26910827 0.14883937 0.21601273 -0.29390192 -1.1043057 -0.56443125 -0.2333802 -0.06982269 0.3190717 0.17194176 -0.30189604 -0.51470286 0.5569419 0.35330695 0.16358927 -0.045050163 -0.19874036 -0.22914845 -0.18393844 0.51471347 0.3436374 0.37648395 0.43275145 -0.26287532 0.48319837 0.34192505 -0.4315505 -0.5909761 0.6692031 -0.043023236 0.09613708 0.06072169 -0.2939972 0.577697 -0.15740682 -0.79350764 -0.066636294 0.34687135 -0.062900975 -0.40549904
146 -0.765934 0.44045228 0.47985446 -0.40535733 0.26183397 0.6000983 0.12570333 -0.1091092 -0.12360803 0.96627766 0.23675115 0.16461544 0.40721413 -0.376971 0.78609264 0.42425534 0.14590845 -0.14302824 -0.28217056 0.07450435 0.34493372 0.47734264 0.3480149 0.07659994 0.27377447 0.19296055 -0.41595364 -0.119254164 -0.481434 -0.056298412 0.2850614 -0.16650756 0.09733369 -0.2522863 0.085241064 -0.6130475 -0.04269306 -0.46501806 0.14512327 0.35452133 0.112795085 -0.3303687 -0.17426033 0.6646144 -0.1085715 0.16866262 0.16990945 0.046809997 0.7634003 0.045121666 0.057775106 -0.43467778 0.089741714 0.054300018 -0.217242 0.2336394 -1.0141914 0.16174953 0.18266569 0.18167497 -0.33501047 -0.32954296 0.08355714 -0.29142907
6 -0.1664178 0.13976447 -0.607101 -0.22393076 -0.10814195 -0.3357661 0.23393449 -0.07761569 -0.10821087 0.62407696 0.0026393132 0.4532825 -0.055033937 -0.054705538 0.4226926 -0.25891402 -0.28197762 0.15521269 0.02813476 0.32190964 -0.17419218 -0.23144479 0.2774086 -0.5805244 0.10821987 0.48738843 -0.46585903 -0.09805845 -0.52042216 0.49070796 -0.12511048 -0.12668803 0.6120652 0.10037967 -0.13704687 -0.48034874 0.8108178 0.76891273 0.124494374 -0.7748088 0.04652451 0.45113865 0.3088431 0.40218568 -0.3548691 0.19554348 0.1553575 -0.5639034 -0.52599716 0.1693426 -0.36683434 -0.45897835 -0.17075661 -0.3064667 -0.18628944 0.1488224 -0.44385 0.04973316 -0.7647204 -0.41896415 0.09803073 -0.77838016 0.35814002 -0.62815434
25 -0.05285232 0.09754316 -0.5113467 0.48616746 0.21745344 -0.07407306 0.5820044 -0.28788054 0.36107817 0.22472292 0.4588773 0.6011808 0.1881445 0.06841258 0.3830217 0.3499121 -0.03281943 -0.3709566 -0.122737445 -0.1560487 -0.41310292 0.26432213 0.006485816 0.54139477 -0.547994 -0.2238917 -0.085150644 -0.7992782 -0.715443 0.46391863 -0.21057053 0.5870328 0.19915283 -0.030443702 -0.050187416 -0.05449354 0.1211415 0.43878508 -0.4034108 0.045691043 -0.6499772 -0.20887995 0.38408297 1.0384644 0.4860379 -0.20765361 0.0562947 -0.067720875 0.80499923 -0.12476408 -0.1222402 -0.79771245 -0.00016381496 -0.36356443 0.23361748 0.30040038 -0.2535159 0.18654847 0.05829406 -0.3523326 0.26498336 -0.1790002 0.2561203 -0.26836962
79 -0.21382448 0.2297865 0.09531586 0.5522803 -0.52672595 0.64379776 -0.3081835 -0.5021875 0.30010304 0.698817 -0.057258192 0.18303445 0.39256996 0.13826388 0.48386133 -0.21082276 0.03444015 -0.1631183 0.6448249 -0.18816629 -0.09251374 0.23415345 -0.2756125 -0.3960129 0.36731964 0.23349012 -0.5449993 -0.018107396 -0.4330191 0.30491176 -0.7000898 -0.051428918 -0.020883543 -0.36913875 -0.2065228 -0.4716107 -0.15906441 0.23692186 -0.02816452 0.0743195 -0.32781643 0.07298841 0.45250517 0.32108143 -0.16407605 -0.16527893 -0.10534731 -0.2146326 0.100095525 0.2982952 0.25177884 -0.70423883 -0.378871 -0.49273154 0.14175956 -0.40390065 0.43451774 0.88567996 -1.0115172 0.058827043 -0.2461603 -0.20368609 0.122667566 -0.7099287
138 -0.28142238 0.03600035 0.3827532 0.19159968 -0.04379142 0.018620938 -0.23613861 -0.24877831 0.08897054 1.0947007 0.40875256 0.18849485 0.08343366 0.32206333 0.08406818 -0.103636086 -0.10626759 -0.44337696 -0.3409284 -0.13493529 -0.07071656 0.00444976 0.8354957 0.17443047 -0.019856196 0.22368388 -0.07942991 -0.4478035 -0.4661731 0.5965632 -0.10525553 0.05144683 0.17385724 -0.047438383 -0.093192324 -0.97936195 -0.09531717 0.14869195 -0.2564486 -0.1676943 -0.008906786 0.024778664 0.670589 0.50288653 0.4085864 -0.19516309 0.57176375 0.5372184 0.48510158 -0.14204319 -0.15302879 -0.56185764 0.36378816 -0.8052745 0.20232193 -0.014839167 0.08558942 0.03150639 0.1586328 -0.21012099 -0.32396984 -0.24251333 0.058045585 0.10338182
37 -0.15490164 0.46786743 0.10646138 -0.18880616 0.6376874 0.08144968 -0.010300224 -0.4077654 0.21384355 1.006436 0.113319114 -0.10020565 -0.4630145 -0.49731213 0.23125333 0.41586486 0.21378164 -0.04727554 0.3343052 0.26168728 0.006782951 0.1340019 -0.4262664 0.61947024 -0.33918574 -0.0018638708 -0.13356145 0.06283928 -0.61454755 0.24316178 0.2130783 0.15263265 0.36980987 -0.10380092 0.47032428 -0.3781522 -0.08736827 -0.29955712 -0.16898061 -0.19399461 -0.6452853 -0.1360276 0.44902363 0.83603877 0.018764371 0.40500554 0.5859407 -0.19375783 0.5571263 -0.5682932 -0.6882168 -0.36886978 0.110561475 -0.37259716 0.18853164 0.18881011 -0.5961082 0.27819943 0.020193862 -0.0692929 -0.16585536 -0.20266636 -0.048416737 -0.19821791
94 0.30871966 -0.4089206 0.11836375 -0.45462242 -0.61346495 -0.047470868 -0.1517753 -0.1822257 0.018418824 0.78088605 0.287104 -0.063009694 1.2433208 0.018389184 0.10275353 -0.073050395 0.00991569 -0.16064641 0.34331656 -0.63976824 -0.27839813 -0.12929012 0.3077501 -0.6216058 0.6455802 -0.08204266 -0.021252941 0.39305627 -0.6841871 0.46372807 -0.05339371 -0.24323313 0.23880836 0.34057686 -0.52324414 -0.8510358 0.32582623 0.40054086 0.027187714 0.40136895 0.051306605 0.15087688 0.33704492 0.8172929 -0.20811284 -0.7876775 0.41306046 0.405559 0.18594831 0.051179502 -0.28733897 0.14634049 0.29998448 0.05376418 0.17872953 -0.48376948 -0.31206188 0.17064564 -0.33427253 -0.23050754 -0.21529765 -0.3246261 -0.04543471 0.30433846
8 0.21682656 -0.06624719 -0.03797245 0.3978446 -0.1865946 0.44503862 0.33572158 -0.013312535 0.47652388 0.6666384 0.3586204 -0.6145815 0.49911305 -0.631415 0.5258171 0.12903652 0.275914 0.23136786 -0.5758081 -0.31595308 -0.063369595 0.5036358 0.47632307 0.03409989 -0.40924373 1.045507 -0.053149182 0.09652613 -0.56381613 0.4195488 -0.046721652 0.058401473 -0.18605922 0.2018117 0.3039117 -0.19087234 0.4220456 -0.0486775 -0.27409804 -0.07789477 -0.35973576 -0.014261593 -0.074066475 0.5343524 -0.25108907 0.23514158 0.47943357 0.12701948 -0.11705155 0.34216633 -0.16916282 -0.3054136 -0.4078998 -0.070618674 0.48248646 -0.65886307 -0.91607976 0.3071896 -0.34812966 -0.87197226 0.027813742 -0.52626425 -0.26591775 -0.70828307
148 -0.23917714 0.6025481 -0.16908425 0.29617766 0.25147328 -0.06428612 -0.4474809 -0.94755423 -0.29976562 0.9473716 -0.70592785 0.13880967 0.52066886 -0.25333875 0.22255713 0.18061501 -0.061284047 -0.41802943 -0.012386261 0.5799555 -0.2282442 -0.23469278 -0.74451095 -0.15523185 -0.024456676 0.54218847 0.23688632 0.07005972 -0.8503683 0.09799181 0.3816938 0.04532521 0.060710777 -0.19548373 0.17859122 -1.0600412 0.20282915 -0.31415722 -0.5662845 -0.54324293 -0.4633493 0.5730424 0.10878347 0.37897655 -0.31139556 0.03629428 -0.032836873 -0.14077918 0.51524967 0.11993554 0.4306154 -0.12557915 -0.057043154 -0.21699218 0.5116977 -0.19107218 0.31699678 -0.3710197 -0.2772318 -0.37827435 -0.03694456 -0.48486015 -0.035968278 -0.5271017
113 0.4078104 0.179424 -0.08958117 -0.55137664 -0.5873465 0.46340704 0.16085595 -0.16172571 0.34792465 -0.41634926 -0.4838647 -0.0010920028 -0.10975763 -0.6415604 0.7397508 -0.6447292 -0.14685172 0.06327705 -0.43038318 0.12617247 -0.13958508 -0.08165981 0.22006825 0.66684794 0.7075289 0.10896857 0.2158032 -0.17528348 -0.574019 0.16219117 0.5374037 0.22910465 0.48264498 0.4379034 -0.2660446 -0.6797771 -0.09804127 0.25746676 -0.56754667 -0.18569276 -0.40802562 -0.26734892 -0.06977531 1.0635929 -0.45056695 -0.4216836 -0.06304224 0.20699315 -0.38010958 -0.39499882 -0.0030244635 -0.40025136 0.03502084 -0.5291355 -0.44098368 -0.5805813 -0.68508613 0.7234651 0.0632751 -0.593881 -0.26021102 -0.25727662 -0.61899203 -0.39800668
81 -0.5813886 -0.007505369 -0.56389016 0.010656173 -0.41732085 0.61092114 0.049013864 -0.48347533 -0.3463438 0.21475841 0.10633463 -0.46567607 0.17332315 -0.1887293 0.08804289 0.6816863 -0.5011211 -0.14452992 -0.38628808 0.0128805945 0.0564087 0.18386964 0.29769054 0.15895255 0.1609012 -0.40518528 -0.6144754 0.110252306 -0.7288733 -0.015270373 -0.26053807 -0.26260963 -0.04031659 0.25277415 0.55250174 -0.60070884 -0.7267 0.710407 0.3857648 -0.09925625 0.059909567 0.30252135 -0.45394182 0.68723196 0.29527277 -0.10859979 0.5157006 0.38087815 0.030700818 0.08347346 -0.017140152 -0.4167879 0.25307855 -0.66276395 -0.013866271 -0.6460568 -0.28479588 -0.005766209 0.112691775 -0.5386373 0.053138167 -0.2882114 -0.44354415 -0.45951825
11 -0.30848083 0.21328264 0.085842505 -0.079168774 0.033609044 -0.118668206 -0.7198642 -0.024122218 0.48971796 0.9397201 0.03883347 0.17789583 -0.2036636 -0.34461516 -0.021196432 -0.2626598 0.5028865 -0.14778803 0.08193856 -0.19232716 0.17140593 -0.16759151 -0.49088913 0.11505867 -0.3067056 -0.1073239 0.25290668 -0.8544484 -0.7275238 -0.36670122 -0.17263934 0.36888257 -0.06860385 0.34888074 -0.04370737 -1.4497964 -0.5453152 -0.1942152 0.22000691 0.02368232 0.14043792 -0.3328988 -0.18851754 0.6167174 -0.19701391 -0.36201042 0.4618361 0.291965 0.034896888 0.18461786 0.19613957 -0.0882313 -0.3373736 -0.9851203 0.593605 -0.3617421 -0.34149858 -0.12048346 -0.5374432 0.08845983 -0.17336574 -0.057441182 0.245717 -0.9352502
502 0.48213986 0.008877171 0.066589564 -0.093742654 -0.29233855 0.039704174 -0.5184137 -0.05056325 -0.03658875 -0.056998707 -0.012562387 -0.36523554 0.9212217 -0.45001492 1.0427122 -0.3655382 -0.06461602 -0.046120614 -0.03963339 0.03814403 0.025665713 -0.031677663 0.12795761 0.09111624 0.24664034 -0.5810452 -0.19022109 -0.40447453 -0.26178354 0.31826875 0.3566873 0.05158283 0.34682482 0.6013291 -0.48638946 -0.4096444 -0.4059111 -0.23550838 -0.28210768 -0.12255527 -0.047031663 0.22965205 -0.37929997 0.9135042 -0.39184907 0.044572733 0.5228215 -0.45709187 0.22869696 0.59289044 0.049866408 -0.37423012 -0.26664108 -0.23900546 0.31530237 -0.8085603 -0.3285443 1.0805653 0.5547398 -0.819038 -0.5322021 -0.38143483 -0.55826247 -0.4845147
319 0.04131825 0.45444778 -0.80801034 0.05311043 -0.07109606 0.3119605 -0.12711208 -0.20442837 -0.20220523 1.1032983 -0.41621616 -0.089310534 0.41235074 -0.010512869 0.3754717 0.63323504 -0.19722147 -0.6085724 -0.1371919 0.16194288 0.026719334 -0.25310373 -0.29794738 0.18384866 0.16462807 0.21106164 -0.7651995 0.5530566 -0.57496685 0.4960087 0.4740605 -0.47723293 0.4421998 -0.19351299 0.15945214 -0.86608535 -0.15646209 0.043040577 -0.2739701 -0.40186846 -0.20642157 1.2049772 0.3606112 0.20149937 0.14156501 0.055116516 0.10720499 0.107192755 0.1732491 -0.6031073 -0.016332652 -0.29883552 0.12214788 -0.21788602 0.6511571 -0.70813155 -0.31040582 -0.15790167 -0.28568798 -0.32070264 -0.005086955 -0.1362963 0.45099774 0.26503903
1106 0.26673323 0.53665555 -0.14148873 -0.14515427 -0.37845743 0.32150552 -0.0038987906 0.64871734 -0.21327883 0.7866273 0.09276592 0.30411175 -1.8479084e-05 0.35734043 -0.20577885 -0.10087428 -0.93397135 -0.06275705 -0.21015114 0.47886842 -0.10083622 0.22381242 0.049690507 -0.11911629 -0.7059592 -0.08735514 -0.18891886 -0.39411494 -0.69595313 -0.32318145 -0.2380757 -0.32055572 0.25188357 0.3608989 0.38230535 -0.6768334 -0.05207576 0.1775733 0.04572094 0.27187863 -0.37444454 -0.45273143 -0.5709769 0.67018163 0.13609445 -0.71817267 0.058352176 -0.5877933 -0.027506495 0.21975632 -0.6231877 -0.6150754 0.54109216 0.33502313 0.14625704 -0.22557335 -0.46099696 0.2916781 -0.047067504 -0.64066845 0.2170243 -0.33831808 0.2554088 -0.15398593
192 -0.07723844 0.29443848 0.059241705 -0.3128145 0.18172406 0.26053676 -0.1524548 -0.11731485 0.28159398 -0.09764414 0.07411923 0.9428839 0.50777715 0.29839265 0.95990527 0.19244117 0.03952722 -0.42534566 0.6927847 0.35256997 0.52215576 0.13316771 0.44151503 0.12006632 0.64975226 -0.2968247 0.5114603 -0.14498974 -0.27131853 0.17953776 -0.47058836 -0.13239248 0.35052416 -0.51868784 -0.25459278 -0.68139637 0.65157235 0.55331266 -0.06510013 0.016333451 -0.91893446 -0.14406545 -0.6909554 0.58724266 -0.6412893 0.4490676 0.56704926 -0.18141878 0.4121578 -0.07764029 -0.40030345 -0.8559754 0.1923714 0.43064922 0.15100212 -0.38394794 -0.09983973 -0.44286275 -0.04278161 -0.26108626 0.053815197 -0.28921893 -0.16966166 -0.34166515
27 -0.72918975 -0.010875246 -0.63313353 -0.21644881 -0.02027486 0.24479762 0.39181706 -0.27414647 -0.15017189 -0.08574405 -0.44341248 0.35310096 -0.49506798 -0.5671595 0.2737796 -0.2292828 0.0050599743 -0.30632025 0.58872616 -0.5479212 -0.43054163 0.18970364 -0.620273 0.1489252 0.4121956 -0.102427915 0.4785697 0.09586493 -1.243931 0.4042299 -0.4773159 0.32712102 -0.07671999 0.5588098 0.47488174 -1.5104637 -0.05049004 -0.5179821 0.45432326 -0.2817344 0.05601255 0.032462504 0.19682404 0.4764098 -0.54081887 0.019428238 0.225503 0.15943152 1.1975424 0.41189772 0.3966089 -0.34897175 -0.43582565 0.24755631 0.6534801 -0.07833643 -0.4078375 -0.15278976 -0.23837592 0.044621684 -0.4337893 -0.8549478 0.7024225 -0.35142237
118 0.4695492 0.1641312 -0.6693646 -0.1340193 0.098465316 0.0881948 0.039761204 -0.56216013 -0.27462956 0.16871278 0.15378599 -0.54647815 0.49800393 0.29273316 0.4228082 -0.09405673 -0.8665952 0.59186375 -0.12817647 0.059686005 -0.2659653 0.38933635 0.59476846 0.46387666 0.30473185 0.43489978 -0.017658843 -0.22408105 -0.90808886 0.7350657 -0.33788717 0.4190519 -0.44808534 0.17864388 -0.14461881 -0.59220976 0.45021388 0.3361662 0.27226424 -0.25855073 -0.053894497 -0.053038877 -0.28223637 0.45187765 -0.3155245 0.03734822 0.17992556 -0.08523442 0.33469996 0.26260385 -0.4854637 0.24546804 0.41949043 -0.5915437 0.09958808 -0.32225612 -0.1277375 0.5116825 0.6914584 -0.64488006 -0.3327525 -0.82260394 0.674068 -0.37174508
854 -0.09666173 -0.39882174 -0.16548792 -0.015099529 0.10304104 0.5132795 -0.35218647 -0.13955434 0.5924397 0.24439187 -0.78451055 -0.07257598 0.6227204 0.40665781 1.139055 -0.5880379 0.64342743 -0.54244494 -0.34349558 0.55534387 -0.46827373 -0.0026460413 -0.11375048 -0.67798257 -0.037959702 -0.47727638 -0.90277785 -0.49811724 -0.96831095 0.2240029 0.12380587 -0.011255988 -0.2627585 0.8237458 -0.36773816 -0.5634317 0.26243767 -0.1884493 -0.035721 0.707494 0.47061074 0.3217404 -0.13613644 0.59192896 -0.23369907 0.10962589 0.67898995 -0.03476443 -0.07375726 0.64369726 0.073923156 0.004535268 -0.011696487 -0.45136473 0.36617026 0.15254423 -0.6229098 0.059605334 -0.42315194 -0.754091 -0.626446 -0.3660636 -0.15870915 0.1574654
59 -1.4196771 0.15686949 0.3096599 -0.04747287 -0.49312222 0.46758747 0.05842944 0.074406385 0.6757196 0.19656909 -0.3210418 0.88089955 0.50154436 -0.095327824 0.4681298 -0.13480781 -0.4426876 -0.3667533 0.008111914 -0.14943613 -0.10659444 0.39944282 0.09391414 0.3207829 -0.3647222 0.3345268 0.24536802 -0.05103631 -0.892968 -0.036591645 -0.15426931 -0.03749695 -0.21866444 -0.293979 0.65440065 -0.8591669 0.31617177 -0.41964012 0.37035197 -0.83929145 -0.2980905 0.34188792 0.13736798 0.7358052 0.26248977 -0.48500365 0.54150474 -0.274439 0.67364633 0.3676546 0.28024128 -0.38992092 -0.23384243 -0.9505062 0.058286943 -0.08514663 0.30713698 -0.23609243 -0.074377835 -0.2901808 0.4565613 -0.58056486 -0.13957416 -0.07725654
244 -0.3546337 0.17691341 -0.89254606 -0.41794115 0.37594733 -0.08888248 -0.1864817 0.10834356 -0.19299804 -0.101057336 -0.5718316 0.047895994 -0.09849764 -0.018937115 0.94457746 0.018227832 0.08292322 -0.37908983 0.44746372 -0.20269166 -0.5207938 0.17648542 -0.41983604 0.30830216 0.35808936 0.40822077 0.06589029 0.14743246 -0.26327303 0.22673836 -0.45060802 -0.017884262 -0.18541133 0.39348269 0.5337187 -0.7340109 0.099616125 -0.973535 -0.29272637 -0.0821268 -0.3794869 -0.8632488 0.7654808 0.88679254 0.19244409 0.3565935 0.31686854 -0.24040827 0.5881962 0.7236331 -0.43539506 -0.33731955 -0.5041651 0.28711775 0.034440108 -0.618947 -0.46330142 0.11740759 0.26361236 0.1304311 -0.7727201 -0.03775054 0.05180234 0.187585
1014 -0.14323133 0.66232747 0.4510494 -0.16986227 -0.42159438 0.39165002 -0.514098 -0.2756677 -0.32935894 0.5751641 -0.10447937 0.83441514 0.3926048 -0.19508094 0.42995983 -0.5231262 0.04287065 0.13843147 0.27431226 -0.09419674 0.35640526 0.16515833 0.018497739 0.68391585 0.12571423 0.033131957 0.4093153 -0.2938345 -1.2316276 -0.29053706 -0.16572887 0.07861082 -0.040648453 0.15375088 -0.19018799 -0.46039867 0.4376474 -0.116454765 -0.18907954 -0.40595612 -0.82573104 0.13758707 -0.639873 0.27729484 -0.18231219 -0.33823016 0.22108349 0.4724484 0.19540608 -0.09468371 0.32791048 -0.58194435 -0.16268435 -0.38138524 0.11834082 -0.075770035 0.15834418 -0.68321294 -0.64913607 -0.7763268 -0.14714457 0.5550892 0.04340252 0.37733158
361 -0.44222513 0.61852545 -0.2718951 0.098203264 -0.26407754 -0.44294012 -0.07895813 0.5550209 -0.29967523 -0.45464253 -0.030337408 0.13109809 -0.1559403 -0.16984446 0.6761027 0.059104495 0.06144668 -0.7842669 0.6330444 0.24157642 -0.011696578 -0.37072334 0.2509932 0.3908531 0.07916424 0.49352914 0.035039913 -1.0013239 -0.4638419 0.33145547 -0.47408995 -0.10192953 -0.18431464 0.11335174 -0.4795772 -0.73752177 0.51094985 -0.24494356 -0.24809025 0.38241312 -0.6003451 -0.7779473 -0.11821519 0.69066495 0.04534845 0.3003822 0.13710058 -0.25184187 -0.09097897 -0.2630078 0.06623674 -0.1410613 0.24097732 0.15620053 0.54904705 -0.7850091 -0.21553655 -0.65816337 0.10756734 -0.073985994 0.15343934 0.15834042 0.536667 -0.5630542
673 -0.26671898 0.03456511 -0.7747285 0.06974671 0.007280754 0.19307666 -0.5128351 0.8885956 -0.3146493 0.32500747 -0.04766146 -0.059532568 0.43494135 -0.061882377 0.028445365 -0.82798964 0.095792554 -0.51149243 0.051927987 -0.35435683 0.00038125768 -0.20476587 -0.51826876 0.20792393 0.17656143 0.46814215 -0.54152447 0.1205671 -0.23137681 0.15807846 -0.57831943 -0.21879785 -0.35005176 0.06311749 -0.53780615 -0.78170127 -0.32400864 -0.56728244 0.18854341 0.044653095 -0.44449002 -0.018175475 0.16472195 0.2033634 -0.6590633 0.36147717 0.65537506 0.25218788 -0.12427587 0.093159296 0.06937729 -0.44985822 -0.36501613 -0.43684596 -0.4641944 -0.7722212 -0.3786947 0.20444693 0.40704697 -0.7844221 -0.040365737 -0.052964598 -0.5816825 -0.77183586
608 -0.24279784 0.7619437 -0.11320486 0.2874622 0.48132974 -0.19996968 -0.10286759 -0.8392654 0.19427754 -0.31841928 0.63655186 -0.19822823 0.49734816 0.46580476 0.8528746 -0.076927006 0.29153818 -0.7662429 0.13391867 0.5887137 -0.09134387 -0.31315795 0.31601512 -0.640368 0.3540942 0.35303935 -0.18188705 0.34035465 -1.087553 0.033681024 0.2427313 -0.27312657 -0.27902174 0.21303235 0.24270032 -0.5593037 0.08509908 0.07421786 -0.12933435 0.50944257 -0.37913954 0.28874353 -0.19384108 0.85176265 -0.9269517 -0.122165486 -0.13918063 0.37235054 0.13804439 0.7030129 0.21390699 -0.17344365 -0.4813025 -0.41298786 -0.42646998 -0.0027468628 0.020871093 -0.2665683 -0.1251693 0.08323088 0.23040694 0.13885036 0.22433323 -0.70012385
111 -0.00798376 -0.00042160891 -0.8739929 0.058595944 0.2455318 -0.05121483 -0.18941441 0.40070337 -0.54161954 0.21340305 -0.18351759 0.55895054 0.21794508 -0.5627024 0.29253852 -0.3728415 -0.25302744 -0.45024237 0.14774983 1.0188134 -0.7955428 -0.43377203 0.26225913 -0.22494778 0.10965436 -0.0528523 -0.64457834 -0.63838595 -1.1584651 0.07462023 -0.67710006 -0.9501031 -0.07999111 -0.7471937 -0.319416 -0.77021915 -0.22660336 -0.29887357 -0.7360288 -0.25383288 -0.84804076 -0.09006788 0.058679853 0.11849204 0.32022128 -0.05984992 0.02276578 0.15883061 0.036551856 0.18865569 0.3380911 -0.36064813 0.08841462 -0.35805562 0.38428482 -0.08255806 -0.44426358 -0.18278849 0.17043069 -0.18127681 0.17570288 -0.20384713 -0.82644236 -0.2577963
803 0.15433884 0.2797653 -0.8567016 -0.3064523 -0.43895265 0.13874212 0.20670153 0.20501052 -0.14809239 0.15664965 0.0038913058 -0.25182283 -0.0023899665 0.67240936 0.339891 -0.5998657 0.20740812 0.2075871 -0.24761954 -0.49504185 0.04872294 -0.11251634 0.1936461 -0.060831234 0.17918544 0.60328203 -0.4206002 -0.2097624 -0.85068095 0.5223125 0.79840535 0.22401594 -0.084451266 0.044578455 -0.24394633 -0.5036205 0.6728972 0.41337734 -0.18037856 0.23238467 -0.90023 0.5824889 -0.22297162 0.0670921 0.30178472 -0.09527292 0.70994765 0.19342856 0.46931002 -0.4214415 -0.6458993 0.2576444 -0.0038175997 -0.22676623 0.14483267 -0.5848733 -0.54417914 0.8037175 0.2266732 -0.44569135 -0.22248709 -0.38260582 -0.4834509 -0.42299336
175 -0.27031383 0.1322016 -0.26796755 -0.9327883 0.075260974 0.0023170924 0.12865488 0.02789117 -0.55415255 0.33750188 -0.50206 0.2721157 1.0045028 0.4829212 0.9116829 -0.14553627 0.3523437 0.067011155 0.058118068 -0.09675082 0.50813645 -0.3312787 0.41800585 -0.19356804 -0.22034904 0.2595698 -0.1509287 -0.6608254 -1.2557522 0.95920825 -0.3387705 -0.23755717 0.5401445 0.073496535 -0.08070274 -0.32870963 0.45367166 0.26401 -0.75252104 0.3682134 -0.34582934 -0.08110929 -0.25315642 0.36235434 0.50708133 0.10964042 0.7475334 -0.3365076 -0.03035867 0.029283294 -0.37117636 -0.19259718 -0.11737005 0.4662649 0.07526369 -0.27965343 0.67906994 -0.5399474 0.066729754 -0.12449248 -0.010939776 -0.27390054 -0.5684022 -0.26474872
1422 0.089773245 0.33636984 0.077661395 0.15965897 0.3099399 0.40164638 -0.20388101 -0.46021077 0.50034153 0.08845922 0.22954343 -0.4572536 0.4353241 -0.19697428 0.7770835 0.14248158 0.21221542 -0.47878966 -0.13599785 0.24168096 0.2159922 -0.1315694 -0.24546106 -0.4075226 0.24080403 -0.40876517 -0.5245646 0.017947387 -0.84378934 -0.13600795 -0.30434448 0.099438794 -0.72847176 0.1746804 -0.051275864 -0.28176326 0.04920081 0.3137549 -0.0073219812 -0.45979518 -0.6162475 0.3654503 -0.10826029 0.34992993 -0.47470343 0.1451781 1.1418058 -0.68408406 -0.11227861 0.39183396 -0.5505845 -0.7927115 0.6284387 -0.34277385 -0.3477591 0.010257812 -0.8060555 -0.40331504 -0.20873606 0.6294613 -0.16277543 -0.4759158 0.26521787 0.18230145
57 0.31633124 1.2222748 -0.25802425 -0.35791126 -0.006322198 -0.39279193 -0.058362506 0.6662718 -0.6752182 0.16198395 -0.2855837 0.22128148 0.8821499 0.12113262 0.4971212 -0.23362415 0.2543913 -0.7462702 0.10262774 -0.2678501 -0.32360137 -0.29550615 -0.17192361 0.4792461 -0.12898889 0.18032812 0.29935002 -0.3744808 -0.5716137 0.48502827 -0.64825803 -0.6165174 0.15989578 0.055180047 0.3416296 -0.5848033 0.20379286 0.58658874 -0.3522458 -0.96519846 0.1629813 -0.32428497 -0.48215407 0.32352352 0.14067607 -0.2287664 0.043918703 -1.1737529 0.40701744 -0.18351889 -0.31641573 -0.17181826 -0.32532224 -0.3291257 0.23398016 -0.099660136 -0.46398726 -0.0024461967 -0.12628289 0.19365187 0.15744776 -0.08151351 0.13663727 -0.43022382
1570 -0.14255089 -0.21994163 0.14006655 -0.13656002 -0.14894353 -0.04158487 0.34452167 -0.03058308 -0.280444 -0.137489 -0.017615603 0.7789643 0.7893503 -0.41107354 0.1800124 -0.31266943 0.4353644 -0.49551013 0.41335115 -0.29145887 -0.37560913 0.08115943 0.6040441 -0.11857943 0.5607702 -0.13532166 -0.24909776 -0.24193922 -0.7941914 0.2776451 0.23491976 -0.44129333 -0.22418009 -0.18960054 0.0038399077 -1.107745 -0.182719 -0.1945132 -0.20012562 -0.17531808 -0.9303485 0.41572124 0.036824327 0.046652585 -0.20806547 0.03541764 0.29609752 -0.26294276 -0.28830233 0.6966432 -0.39486855 -0.57479745 0.6667531 -0.15997873 -0.5544383 0.09401656 -0.64149797 0.19068994 -1.0363095 0.41581005 -0.18374185 -0.5417026 0.106638685 -0.16256131
1639 -0.6942795 0.3853817 -0.2146505 -0.6479999 -0.1866165 -0.16154122 0.33400536 0.096145466 0.25620723 0.72783965 -0.2754679 -0.29974952 0.3515064 -0.09509756 0.046857055 0.31019732 0.028634245 0.54944164 0.6090914 0.3674123 0.13986298 0.2744057 0.03245235 -0.29230395 0.27281588 0.19230458 -0.3862257 -0.06645767 -0.11284006 0.28729725 -0.40019554 -0.057911307 -0.75492126 0.18068376 0.71630543 -0.6798461 0.46754688 -0.44019148 0.20345132 -0.2837759 0.13578281 0.02565332 -0.3400722 0.86863106 -0.49243793 -0.044560146 0.41645586 0.734808 0.12007762 0.07990083 -0.014807791 -0.5223911 0.5886487 -0.7762462 0.6023538 -0.301299 -0.30107462 0.019196177 0.44591057 -0.398617 0.22478165 -0.22165272 0.52061015 -0.40885702
294 0.45629102 0.043884832 -0.40802336 -0.63206834 0.36809376 0.56007695 0.044618238 0.10466655 -0.20582856 -0.22859347 0.12516178 0.71894777 -0.03213079 -0.07253348 -0.16305959 0.078007445 0.27221575 -0.802565 0.23842493 -0.842606 -0.12683299 0.0009868591 -0.11530853 0.17366084 -0.17366001 0.05204627 0.21138954 0.384647 -1.110824 0.47940987 0.33135167 -0.44282985 -0.1956198 0.8583281 -0.07524849 -0.69173926 0.1517106 -0.79472417 0.013749495 -0.3774691 -0.39396656 -0.33938518 -0.0045149215 0.8071557 -0.34801263 -0.06912041 0.33707523 -0.6221762 0.069128826 -0.40951434 -0.010024449 0.003019711 0.032504514 -0.52324283 0.78187597 -0.13373138 -0.25175902 0.4558966 0.3627927 -0.21071896 0.12677081 -0.18808983 0.64514583 -0.16747387
358 -0.6003883 0.54975206 -0.030866226 -0.7323683 0.14300404 -0.24822347 -0.3665804 0.4064679 -0.17645578 0.6302655 0.44054568 0.6459876 0.40501466 0.36533314 1.1515903 -0.122661866 0.21192256 -0.38317826 0.18845107 -0.030883951 0.11867641 0.22919309 0.2105017 0.7268796 0.54071134 0.027726194 -0.031545117 0.16167167 -1.1009951 -0.14069383 -0.44348896 0.09747235 0.6466891 0.5775643 0.04000279 0.043392487 -0.22984469 0.0017198378 -0.0068114437 0.09446169 -0.526178 -0.32711777 0.10045725 -0.09285711 -0.16520108 0.36266467 0.3525415 -0.31156465 0.108691745 -0.3325434 -0.7546756 0.23684812 0.27614 -0.09654331 0.7115593 -0.22828373 0.071866676 -0.65923035 -0.17576866 -0.49833226 0.061747275 0.0084343795 0.06561344 -0.74634737
834 -0.061702028 0.97813785 0.38721094 -0.6777204 -0.17969869 -0.068335384 -0.24193808 -0.10430663 -0.74205226 0.7840698 0.5648974 0.49509278 -0.27011898 0.1140488 0.5164533 0.058734115 -0.035739087 -0.69481 -0.027633851 -0.11094743 -0.46586055 0.4583923 0.16591664 0.59488946 0.15019456 -0.01724808 0.12172986 -0.27933016 -0.7051644 0.31925774 -0.79532653 -0.35555145 0.54223573 0.09224616 0.22328871 -0.85139 -0.03297009 -0.10007981 -0.75839484 -0.08706145 -0.20637216 -0.32036164 -0.0802218 0.18350792 0.41038334 -0.4869086 -0.018757738 0.1481258 0.14865881 0.01397516 0.15133777 -0.84000915 0.36399838 -0.5424073 0.78502804 0.24087088 -0.555774 -0.53094876 -0.07424724 -0.25482184 -0.18432564 0.042971592 -0.2616339 -0.7455864
1313 0.360941 -0.066840686 -0.61057246 -0.64191 -0.12182534 0.17256032 0.6286101 0.035110846 -0.28756195 -0.012249002 0.097070895 0.57166356 -0.08091452 -0.41829473 0.26832327 0.23804808 0.10118546 -0.23347247 0.085398585 -0.6390424 0.048004832 -0.084597275 -0.243752 -0.6127752 0.5262296 0.26881737 -0.0744046 -0.16122778 -1.1187366 0.35000512 -0.14058866 -0.77169 -0.50750387 0.40923887 0.38841072 -1.0976559 0.10652319 0.23535793 0.19072893 0.15907978 -0.11040549 0.23778994 0.70270056 0.4497375 -0.6191133 -0.44430712 0.49848637 -0.22933929 0.38214138 0.15747018 0.114854954 0.12272096 -0.12630717 -0.04532555 -0.40426737 -0.17506725 -0.31174418 0.40921307 -0.9849009 -0.3576375 -0.06523152 -0.50838435 0.5607248 -0.18782066
1160 -0.053226043 0.62505484 -0.284912 0.08847055 -0.3035723 0.681463 0.21662667 -0.11992053 -0.62059784 1.0075593 -0.22101127 0.10878557 -0.25468165 0.5922181 0.2675658 -0.019708743 0.019993449 -0.6110792 0.020367889 0.41762912 0.40665308 -0.35458735 0.45790255 -0.39469495 0.1581707 0.054306164 -0.16988944 0.2790903 -0.92423946 0.5986812 -0.705367 0.44284576 -0.43979082 -0.18035625 -0.4870516 -0.26809156 -0.32189044 -0.23790194 -0.72742337 -0.5006083 -0.4267262 -0.29877612 -0.2524256 0.53459156 -0.19873334 -0.53526014 0.096291125 -0.94946355 0.47197923 -0.0070288545 -0.78828883 -0.41072825 0.62745535 -0.23003013 -0.3681531 -0.24355301 0.5072073 0.21005218 -0.74116397 0.12351711 -0.76428264 -0.3601257 -0.23430823 -0.33311486
757 -0.12109441 0.032148402 -0.6093951 -0.55377984 -0.22739293 0.4756218 -0.2538321 -0.17833537 -0.03228536 0.4324937 0.08729569 0.08178372 0.3189615 0.62996256 0.7921742 -1.1130818 -0.2890351 0.17810111 -0.30939296 0.4414819 -0.8306597 0.8323778 -0.24198502 -0.22436102 -0.008836346 -0.013535284 -0.3319756 0.53081334 -0.34584567 0.37038055 0.04530152 -0.17656353 -0.8227819 -0.18185809 -0.18119703 -1.2445499 -0.31749466 0.17636001 0.3783585 0.6297035 -0.106491 0.03143556 -0.116360925 0.7343317 0.27016985 -0.2863375 -0.113456585 0.015434193 -0.016827436 -0.17560087 -0.24002072 -0.49076316 0.28003767 0.14872219 0.41801307 0.12644108 -0.015561381 0.30453634 -0.20567009 0.15777728 -0.32344407 -0.052950684 -0.03066472 -0.027453745
537 -0.27284044 0.49850705 -0.41430447 -0.82394034 0.0030545322 0.35588518 0.17511602 0.3941741 -0.087097436 0.2393578 0.11006455 -0.1869722 0.4957235 0.13547836 0.6650183 -0.14229761 0.41666067 0.15401275 1.2099375 0.0032227403 -0.4953415 -0.12685989 -0.4023574 0.22420736 -0.28497446 -0.010342121 0.06676752 -0.5550787 -0.7446649 0.57613087 -0.87148494 -0.7263533 -0.021788077 0.05665996 0.009528709 -0.06432764 -0.1070527 0.028267177 -0.4223621 0.22871417 -0.2604808 -0.4066369 -0.70155567 0.19284697 -0.21418919 0.06464455 0.2167421 0.09672281 0.17276971 0.22321321 0.16431366 -0.6806389 0.23661566 -0.25333232 -0.36487508 -0.58190656 -0.26494658 -0.14577611 -0.013255874 -0.8034453 0.40084428 0.13547397 0.44474062 0.026598325
858 -0.34402862 0.4749959 0.052481715 -0.3571447 -0.1699011 -0.31476584 -0.15112375 0.65203154 0.29578108 -0.10916021 0.18739136 -0.28244013 -0.07497322 -0.12998271 0.94988567 -0.9235088 0.34714565 -0.27252477 -0.3240768 0.044365767 0.48036474 0.9523633 -0.0003619913 0.18753427 0.66236603 0.25158817 -0.25066727 0.40502137 -1.2974933 -0.0007636692 0.18764429 -0.03065171 -0.20461623 0.14390023 0.19166942 -0.29076615 -0.65027815 -0.3140442 -0.67000306 -0.4597949 0.164971 -0.5594137 -0.035262886 0.3636008 0.12045989 -0.22866268 0.28049088 -0.17737086 0.41876918 -0.2726397 -0.3499829 0.4312388 0.730596 0.030993473 -0.013038686 -0.58632797 -0.33452398 -0.5153464 -0.7000785 -0.5806808 0.5447783 -0.60061836 0.61838144 0.037402555
395 -0.30016968 0.9116756 -0.12557706 -0.02717649 -0.16391571 0.5438753 -0.30123758 -0.532125 0.3757691 -0.2025219 -0.021892224 -0.16462961 0.3380849 -0.57323915 0.45942158 0.40492505 -0.19020025 -0.8903339 -0.29105973 0.22706138 0.3129344 -0.054034725 -0.5187077 0.06466626 0.51991016 0.026183272 -0.15538283 0.38994223 -0.8112809 0.54878634 -0.06273097 -0.08522416 -0.36279148 -0.04316897 0.6216572 -0.45520285 -0.20935246 0.51262677 -0.2206534 0.15239242 -0.23477052 0.7651362 0.62960577 0.12957902 0.1899407 -0.2130981 0.5872145 -0.069058344 0.17338343 1.118324 -0.17655787 0.1951389 0.25037906 -0.3710477 0.30104798 -0.18920512 0.21199039 0.27735895 0.055592556 -0.7430732 0.3820885 0.6986607 0.6841967 -0.56519675
467 -0.07710433 0.4695558 -0.30655462 0.43109733 -0.28793907 -0.001639822 0.43803662 -0.056890562 0.19071223 0.75376445 0.13705073 -0.2193677 0.5478609 0.035079535 0.0024583444 -0.6718277 -0.4105231 -0.29401937 0.08899824 0.22203517 0.20025356 0.7760754 0.6596512 0.0041055772 -0.08864216 0.6164501 0.23140965 0.52082634 -0.8552439 -0.49077225 -0.7891301 -0.22921564 -0.33125067 0.6367301 0.12395759 0.23417136 0.12267288 0.18249376 0.026380826 -0.45890087 -0.37298566 -0.26528946 -0.36363223 1.1684697 -0.041676056 0.1320944 -0.2817351 -0.3661995 0.38496795 -0.40033337 0.08790379 -0.39982727 0.62539303 -0.26548415 0.19842947 -0.61637056 -0.10126541 0.50662017 0.103684485 -0.50620836 0.85700977 -0.9915884 0.16631754 -0.28685662
586 -0.6607362 0.6532023 -0.118769355 -0.14086962 0.23878212 0.492663 -0.8404213 -0.47961888 0.18902543 0.9310216 0.016076332 0.07125048 -0.2541035 -0.45644355 0.9720303 -1.0904887 0.1608386 -0.4097321 -0.43062195 -0.41680834 0.2137118 0.33323067 -0.19134846 -0.653769 0.6102007 -0.3215061 -0.4568761 -0.3152149 -0.79488176 -0.44383433 -0.24027678 -0.16217674 -0.024065927 0.17984422 0.26430896 -0.1899169 0.06962912 -0.30062473 -0.4981073 -0.24893846 0.39032307 -0.281653 -0.3065717 0.22054073 -0.459654 -0.6172839 0.3081548 -0.67497337 -0.48698014 0.16679688 0.3939611 -0.09319851 0.37927204 0.0086060725 0.4634949 0.15603127 -0.7178923 -0.027608935 0.38967168 -0.65201086 -0.15173104 -0.13294396 0.17136146 0.274352
1406 0.032443926 1.114882 -0.425143 -0.6859125 -0.3107648 -0.36818475 -0.7461054 -0.4383352 0.4189758 -0.04961202 0.33920774 0.048002742 -0.047765233 0.04768022 0.028670996 -0.1880098 0.33012888 -0.46067566 -0.29334083 0.37918958 0.47890505 0.4970293 0.7002203 -0.20512031 -0.3976288 0.8501662 0.31792754 0.66214824 -0.092951454 0.66397697 0.12126282 -0.62705064 -0.055422354 0.57220733 0.28176913 -0.63462263 -0.018405788 0.3468187 -0.4322629 0.04032291 -0.07883326 0.16447225 0.37233847 0.2536727 -0.71161926 -0.34233087 0.5604608 -0.13848083 0.12640686 0.58442235 -0.6218342 -0.68351686 -0.5215546 -0.5661154 0.4679687 -0.052584365 0.002195768 0.05860206 -0.12980957 -0.33685756 -0.057080112 0.15878654 0.06487825 -0.6187826
470 -0.47928113 0.57922643 0.07351747 0.21837893 -0.11033229 0.112714835 0.050785657 -0.92134273 0.6529449 0.2406952 0.6998963 -0.23756084 0.24252613 -0.4225857 0.5864849 -0.95183235 0.62874174 -0.118911214 -0.07587955 -0.62249476 -0.3118245 -0.54742146 -0.37059298 -0.22599724 -0.50307655 0.41355288 -0.29377854 0.27101794 -1.1080073 -0.23030038 -0.2809021 0.7979836 -0.4892095 -0.1932654 0.4703582 -0.13914214 -0.04674194 -0.0709101 -1.0189391 -0.37538192 -0.8745686 0.4117908 -0.47529596 0.72674924 -0.5596491 -0.4350868 0.64002526 0.27444163 -0.08455832 -0.18259129 0.22211678 -0.33501413 -0.046757586 0.1443114 0.3482401 -0.27871728 -0.4738797 -0.4862036 0.31676587 -0.40537047 -0.29713988 -0.5713786 0.40267658 -0.33684278
539 -0.004362247 0.17855605 0.031406056 -0.36115605 0.112367816 -0.18123457 -0.63453394 0.37120894 -0.2021074 0.43512765 0.15836798 -0.13649988 -0.27564457 0.24642229 0.910776 -0.41086084 0.18160868 -0.6484007 0.21506861 0.087748185 0.11736196 -0.6487264 -0.27939352 0.04056979 -0.30589613 0.3389229 -0.08467722 0.267348 -0.72041184 0.1175208 -1.0729464 0.05362822 0.35499188 0.108985126 0.018667595 -0.24745981 0.251224 0.18287182 -0.68153805 -0.5015643 -0.35099688 -0.34335372 -0.29201502 0.4762925 0.28885633 -0.33033273 -0.30291024 -0.41028693 0.4851837 0.49133882 -0.1464649 0.16148354 0.7061457 0.30805603 0.23574077 0.1541676 -0.98311377 0.4349932 -0.0031833812 -0.06870833 -0.50185835 -0.09660482 0.17271087 -0.31668842
416 -0.27964893 0.5254054 0.21016805 -0.124555185 -0.69732785 0.19492918 -0.6687589 0.40984443 0.14468282 0.5294833 -0.046405613 0.19759066 0.42602947 -0.2640255 0.5963182 -0.27637526 0.22048125 -0.2590199 0.24757904 0.1538816 0.18207571 0.18143831 -0.6431913 -0.013912211 0.41213945 -0.12778051 -0.7433922 -0.21446148 -1.3680892 -0.47519565 -0.37388304 6.865806e-05 -0.46695635 0.37917995 -0.7094867 -0.090786114 0.016058758 0.15319416 0.15568866 -0.07475647 -0.75790876 -0.44228032 0.6735366 0.090693414 -0.07083178 0.23677677 0.3199075 0.29731944 0.29802394 -0.33820608 -0.5171642 -0.32137406 -0.27308682 0.17713189 0.22193228 -0.18743123 0.6723844 0.37721843 -0.07777637 -0.8049532 0.12882647 -0.060250774 0.0058785304 -0.44860485
1212 -0.36345404 0.12886108 -0.39075798 -0.2753422 -0.23839386 -0.549142 0.035797548 0.32900038 0.0055893064 -0.1281411 0.30238935 0.018648053 0.9214926 -0.10415551 0.30447707 -0.6677498 -0.15624093 -0.89413255 0.26864305 0.45689884 0.11443381 -0.41618434 0.16008268 0.20682769 -0.15643626 0.10807059 -0.42229503 -0.16421191 -1.1839737 -0.023823697 0.11112936 -0.20334415 0.024872098 -0.53022224 0.5317883 -0.7670507 -0.48655176 -0.16654609 0.5633224 -0.21085614 -0.17130575 -0.6145649 -0.10297902 0.2822154 -0.26461828 -0.929588 0.10789699 0.6146041 -0.039294604 0.22501385 -0.035361275 -0.5035102 -0.64630544 -0.5799157 -0.32464117 0.23974158 0.045172576 -0.08899432 -0.37050402 0.10749013 0.22504541 -0.18613061 0.5040527 -0.41038677
729 -0.3967359 0.622189 -0.07456865 0.13533649 -0.17959486 -0.45551136 -0.24079557 -0.34995452 -0.26391324 0.09502679 -0.40367815 -0.1235231 -0.07597982 -0.25657004 0.2918578 -0.45390916 -0.14576958 -0.015072263 -0.16462985 -0.037572574 0.07555848 -0.08840673 -0.6248468 -0.45569524 0.49000803 0.05180296 -0.3041563 -0.10764361 -1.310262 0.28333476 0.16662504 0.001586575 0.5190713 0.38970864 -0.017498026 -0.18273598 0.1370665 -0.56342185 -0.91265994 0.027603973 0.3940685 -0.46912572 -0.727726 0.5173482 -0.08763948 -0.566899 1.0126219 -0.5537889 0.2806476 -0.41375342 -0.30889735 -0.06653377 -0.061636075 -0.6123862 -0.43354908 -0.5399763 -0.021727275 1.1846052 0.39228076 -0.4793508 -0.5551082 0.5469015 0.17911611 -0.72264457
1429 -0.34606358 0.66145515 0.084204175 -0.24438202 -0.107012816 0.34958372 -0.34625274 -0.10997955 0.15856877 0.67382896 -0.11942206 0.46821553 1.3114936 -0.027668683 0.43733266 0.04573778 0.17068124 -0.09357303 0.14522111 0.6763582 -0.41847336 -0.25595 -0.49802172 0.13730687 0.42722088 0.012849251 -0.2923509 -0.182691 -0.58626527 0.84128827 -0.33825272 -0.23702165 0.20588908 0.28337896 0.5165325 -0.15496482 0.5168861 -0.1821078 0.06425986 0.41027352 0.35235646 0.12859406 -0.58864784 0.40348136 -0.27996302 0.09438564 0.37890798 0.689419 0.15663464 -0.24659182 -0.13607025 0.26895818 0.37589374 -0.42124152 0.8363579 -0.4056844 0.20126939 -0.35739103 -0.58186805 -0.49335754 -0.5330948 -0.53591967 -0.24377641 0.6359021
144 -0.10135644 0.0963554 -0.7641472 -0.95806783 0.47661567 -0.0905236 -0.3946574 -0.116574705 -0.19393629 -0.04176644 -0.19969185 -0.315291 0.052629046 0.46305948 -0.65600485 -0.2776497 0.6546154 -0.7741756 0.18824303 -0.35834286 0.21555962 0.25060156 0.7453009 -0.16588086 -0.39952108 -0.07661035 0.31599352 -0.55083066 -0.7920385 0.39483786 0.4662185 0.111338034 -1.0471085 0.27414313 0.37848747 -0.8481419 -0.2855167 0.22552265 -0.17686886 0.15897098 -0.55518985 0.37379116 0.35990012 0.41660172 -0.3382837 -0.2526771 0.20661083 -0.2075366 0.07787968 -0.4878479 -0.06331475 -0.05837276 -0.008810536 -0.7827327 0.05822291 -0.41051123 -0.24048403 0.23320314 -0.92898405 -0.2565973 -0.64222455 -0.37193966 0.32857627 -0.6495718
1095 -0.32291442 0.67367524 -0.0334738 -0.17458257 0.5548613 0.51075894 -0.037317403 0.41449985 -0.530595 0.23307228 0.6236307 0.2966551 0.31660292 -0.20576519 -0.30639383 -0.21899432 -0.0478935 0.22310475 -0.27980644 -0.14716361 0.53368646 0.29900452 -0.06855633 -0.013088418 0.019135222 -0.43575993 -0.31519282 -0.2159226 -0.97998685 0.12438335 -0.19194809 -0.5350954 -0.1805121 0.6009486 0.18332316 -0.9038213 0.7047131 0.36060023 -0.23717543 0.064511165 -0.0609197 -0.040644415 0.59097254 0.14536154 -0.86572343 -0.3768858 -0.14249712 -0.74775153 -0.5359 0.07769659 -0.28527927 -0.14169358 0.1579718 -0.10846686 0.13742243 0.32561514 -0.24694899 0.83156013 0.15428902 -0.78962666 -0.5667078 -1.044884 0.8420158 0.5312314
903 -0.11798114 0.3206133 -0.3344984 -0.38663456 0.361248 -0.25852257 -0.46552154 -0.6931758 -0.5270096 0.050320808 0.5115475 -0.087808825 -0.044220757 -0.3847158 -0.014158473 -0.29622248 0.114741884 -0.43233776 0.106115066 -0.44248235 0.19850193 -0.21221298 -0.59159267 -0.45050472 -0.2969973 -0.3291835 -0.028528623 -0.14847252 -0.87141603 0.26884654 0.028483465 -0.021663517 -0.13614851 0.46657133 -0.049215432 -0.34459794 -0.3315261 -0.45666403 -0.27460143 0.3429558 -0.23787187 -0.14520277 0.14217842 1.5868645 -0.436483 -0.21545471 1.175402 -0.061967086 0.65944314 -1.2162621 -0.12159329 0.1330646 -0.15204756 -0.7398407 0.21321101 0.20202929 -0.29969135 0.32195303 -0.42851093 0.17048202 -0.14369091 0.56933284 0.22908649 -0.83055985
344 -0.25791755 0.40799162 0.05495286 0.5926515 0.021417547 -0.24393581 -0.74512887 0.7979266 0.085512884 0.41868368 0.14929311 0.12019524 0.7456925 0.017390719 0.508525 -0.021044664 -0.21440914 -0.30015698 0.21104293 0.20985596 -0.5576632 -0.049276378 -0.11311104 0.6823921 0.060741816 0.096707106 0.08439696 0.32174626 -0.7308279 0.78932834 0.24525332 0.32342824 0.26695752 0.3836397 -0.07783533 -0.11821398 0.026641028 0.8138378 -0.15765353 -0.33486646 0.23767805 -0.23202857 -0.017461311 0.6248044 -0.6400502 -0.72833806 0.14221704 0.58931285 0.4016587 0.24815352 -0.048299238 0.0005076693 -0.7393372 -0.27669743 -0.6490798 -0.14716555 -0.53615725 0.17736116 -0.35842982 -0.24101242 -0.46044865 -0.5044717 0.18365501 -0.36809635
253 0.6350659 0.17558831 -0.26595333 -0.032286085 -0.43812677 -0.41478607 0.10083818 -0.14433081 -0.027510503 0.23677517 -0.635581 0.6333759 0.7279765 -0.25330645 0.6071247 -0.44970146 0.1948596 -0.5710606 0.1320223 0.7064517 -0.069335 0.2852199 0.14215094 0.061557204 0.29553655 -0.37749675 -0.25627947 -0.29770592 -1.3973608 -0.14477989 0.029481594 0.5355717 -0.19918509 0.06616221 -0.31028545 -0.31827158 0.24796914 -0.30740136 0.113670476 -0.5751108 -0.41945753 -0.4429547 0.48956865 0.36301476 0.06289076 0.19891292 0.9725433 0.38220584 -0.5261987 -0.0966909 -0.13651729 -0.43076614 -0.09958585 -0.11678453 0.10031992 0.50159645 -0.37098944 0.48045102 0.061579004 -0.19867462 0.109560154 -0.15609263 -0.23249924 0.34267488
353 -0.20750903 0.33810225 0.22294441 0.24477917 -0.3800843 -0.5220942 -0.32521045 0.26156655 0.6753502 0.8501854 -0.028090673 0.46224585 1.125728 -0.25418156 -0.26112336 0.2538721 -0.5403408 -0.6686802 -0.081895344 0.006155742 -0.41214606 -0.4299557 -0.6991402 0.6214404 0.4888562 -0.047023036 -0.55926603 0.28085226 -0.797156 0.84484184 -0.23331285 -0.090693854 0.24513334 0.34943026 -0.32796174 -0.104339086 0.25886902 0.38434792 0.12503667 0.32979846 0.2703008 -0.55044353 -0.39915416 0.4564868 -0.5390539 -0.38150415 0.38594672 0.12060483 0.42848477 0.040716656 0.24486116 0.07738273 0.13799988 -0.30650458 -0.11856834 -0.3163464 -0.6792074 0.064664975 -0.28457102 -0.22422357 -0.35710236 -1.01367 -0.6381854 0.15835296
1442 -0.7545777 0.13495877 -0.11908305 0.0711268 0.46466744 -0.15454085 -0.62365687 0.6252369 0.14985067 0.92047554 0.21545507 0.17555259 0.5105072 -0.70409316 -0.6230079 0.44814673 -0.46321735 -0.4358251 -0.20902544 -0.45214495 0.10319401 0.10438706 -0.46383128 0.78149986 0.2900508 -0.14993665 -0.8533434 0.034521732 -1.1772976 0.010166735 -0.15029328 0.09370728 -0.18675782 0.3517915 0.06616314 0.12551388 0.015229047 0.7498687 -0.157839 -0.24047057 -0.1143066 -0.06302371 -0.027575247 0.6215323 -0.1409295 -0.11614744 0.75857 0.23544592 0.13823144 0.011366656 -0.22871643 -0.4157517 -0.2398468 -0.042366482 0.3093124 -0.13916294 -0.35091907 0.65037054 -0.008150512 -0.3245187 -0.7381938 -0.6585385 0.21489194 0.19758978
1477 0.118143365 -0.5787061 0.013238468 0.48502532 -0.20795386 0.1595526 -0.32914087 -0.33394495 0.21490715 0.6602224 -0.11514703 -0.02382875 0.56483203 -0.33142313 -0.03483581 -0.5723024 -0.08909754 -0.57508636 -0.066120535 -0.0383724 0.46970132 0.70591044 0.09518396 -0.24362087 0.25583377 0.5372471 -0.3446836 -0.20364276 -0.34690058 0.75546014 -0.34040928 -0.41604948 -0.4066171 0.26055875 -0.23469178 -1.0610101 -0.57153475 0.40404284 -0.83246493 -0.7452192 -0.6218297 -0.018392371 0.28009006 0.47884628 -0.47120473 0.040602043 -0.092695616 0.2095183 -0.3461444 0.05064019 -1.0526904 -0.2830056 -0.01442552 0.21880269 0.14213033 0.15775633 -0.7195455 0.59556746 -0.2550771 0.2106348 0.09636439 0.014510441 0.696428 -0.5473985
323 0.040790126 0.06216062 -0.7245891 -0.45238206 -0.47747257 0.12457151 -0.58331865 0.13482252 0.04973937 0.52061915 -0.40453145 -0.26704663 0.14179415 -0.5259825 1.1201987 -0.5258659 -0.59003323 -0.0093227355 0.16886504 -0.1752327 0.10775501 -1.0768883 0.0013481197 0.7830909 -0.1896479 -0.066103995 0.5306195 0.0748103 -0.6746992 0.26914066 0.051422197 -0.22612181 0.21185383 0.48658875 0.015240846 0.0029561329 0.012499302 -0.19580571 -0.2858328 0.34317014 -0.05175477 0.36638623 0.26149347 1.728462 -0.45793396 0.013818682 0.11654352 -0.25300017 -0.10914728 0.8605487 -0.06475489 0.040405747 -0.07666151 0.11182124 -0.016414195 -0.24001805 -0.5442456 0.82031775 -0.06205531 0.11520446 -0.5074097 -0.026342016 -0.0596946 -0.41279256
726 -0.36712626 0.13494128 -0.013325394 -0.97182614 0.7289887 -0.13635054 -0.61929923 0.23923145 -0.08764824 0.3740676 0.04124962 0.44372535 -0.21686156 -0.19015257 0.57142234 -0.09521295 -0.715882 -0.109482 0.5541956 0.39017105 0.28819516 -0.65044266 0.21203116 0.31797892 0.23332223 -0.086426266 -0.2739728 -0.051424608 -0.579293 -0.4289143 -0.5684115 -0.2714759 0.33245796 0.24206057 0.4115433 -0.9887842 0.009878377 0.056978382 -0.5424913 -0.00031168995 -0.556977 -0.63460964 -0.307819 0.5221209 -0.1328437 0.019880911 0.3306385 -0.5757305 -0.32892826 -0.33956712 -0.41695648 -0.5424843 -0.17027806 -0.04671456 0.75906366 -0.2662168 0.35880634 -0.51074 -0.6288622 -0.20022637 0.3668326 -0.1518676 0.060660772 -0.4506672
1236 0.11081728 0.85243315 -0.79485667 -0.2058184 -0.6594396 0.36093265 0.3051831 0.13496894 -0.45682657 0.028270988 -0.43057486 -0.33624128 0.09542293 -1.1106037 0.7861737 -0.20332268 -0.0067352774 -0.5802892 0.46325934 -0.62504566 -0.25754076 0.25410435 -0.18689315 0.49215996 0.64671725 0.39910987 0.02072994 -0.39904 -0.55865866 0.33617663 -0.42333233 0.14033152 -0.5661393 -0.20995058 0.038293973 -0.4313024 0.0840448 0.7480398 -0.26459134 0.20532668 0.37777984 0.44903642 0.42597735 0.9073843 -0.2671169 -0.6623224 0.16111088 -0.5012767 0.27353182 -0.04379577 -0.03610586 0.2593206 0.22849375 -0.21443045 -0.3988468 -0.27964914 0.061123807 0.82333755 -0.24606448 0.3663371 0.1828179 0.3950518 0.3319181 0.014635127
1619 -0.34364226 0.60659796 -0.7093812 -0.10968692 -0.34367684 -0.5580821 -0.15879107 -0.036403984 -0.40350965 0.5866984 0.085389026 -0.101836845 -0.15018028 -0.14914104 0.009118299 -0.54219544 -0.28915116 -0.044113494 0.05163152 0.26953605 0.5032723 0.24613695 0.024816504 -0.58612883 -0.3777148 -0.11263986 -0.7315189 0.16271916 0.10532117 0.01833386 0.21108514 -0.28127125 -0.04948588 0.84009904 0.17736693 -1.1762124 0.48087695 0.16301301 -0.26325947 -0.20539117 -0.14051995 -0.40304798 -0.24865419 0.7769172 -0.7667883 -0.13211468 0.105475284 0.46561342 -0.52198815 0.08167358 -0.9978689 -0.6592571 0.065144785 -0.07635727 0.40586358 -0.32695705 -0.013089334 0.13105038 -0.34334716 0.2695506 0.27757147 -0.007639691 0.3415235 -0.7905792
1522 -0.39163476 0.20581876 -0.023122165 0.26285535 0.86693364 0.1640006 -0.7146199 -0.2751779 -0.028345544 0.20173684 -0.40424442 -0.16766681 0.5326107 -0.7501904 0.53572685 -0.11516689 0.0057713073 -0.15863329 -0.16882606 0.04150734 -0.1478979 0.20182805 -0.15222077 0.052900635 0.026870327 -0.117469035 0.372604 -0.33576566 -1.0398271 0.5073267 -0.17933726 0.019121572 -0.24494126 -0.6173785 -0.1387095 -0.9482549 0.25750995 0.13376763 0.020646581 -0.24772248 -0.56787324 -0.44718063 0.59027886 0.15108848 0.107256435 -0.029210303 -0.08492843 0.20013118 0.11682905 -0.41411915 -0.63387 -0.56929445 0.5006539 0.9017048 0.73385286 -0.5242595 0.47845507 -0.28747204 -0.28189725 -0.7706846 0.07012916 -0.28363144 -0.10992653 -0.6895839
840 0.13817973 0.62529606 -0.55450463 -0.33828074 -0.0044275927 0.27110973 -0.024015408 0.08301343 0.7684699 0.7102832 -0.5654228 0.4680115 0.6256291 0.11198953 0.12624152 -0.20294343 0.11643866 -0.24647875 0.5311093 0.17378408 0.7556754 0.617468 0.0054730508 0.25304514 0.0640283 0.5325894 0.22302842 0.2915758 -0.5376417 -0.21697482 -0.29372618 -0.67528236 0.0032563743 0.028007913 -0.740572 0.0028111425 -0.17910242 0.8057287 -0.55896795 -0.06616998 -0.45018688 0.19240063 -0.042123057 0.658805 -0.09506511 0.11462897 0.43109393 -0.004442734 0.57136244 -0.25535932 0.1436372 -0.77474123 -0.18017411 0.015730064 0.0977289 -0.53414387 0.26008078 0.0012156516 -0.40130547 -0.5161326 0.20325717 0.014378719 0.5900185 -0.49241298
326 -0.12445931 0.04416212 -0.7687159 -0.85300404 1.0380762 0.08971962 0.17713933 -0.16592756 -0.05744714 0.40991184 -0.22969604 0.36713326 0.9828206 -0.2665208 0.98300076 0.099149354 0.0831932 -0.16596015 0.48370707 0.44944444 -0.19739677 -0.05341841 0.05054418 0.35757133 0.18810163 0.57014513 0.17222577 -0.29668215 -1.0003818 0.2971507 -0.53416634 0.2129325 -0.14506827 0.09888834 -0.344644 -0.1511233 -0.11457476 0.0047754 -0.00974164 -0.3125753 -0.43392324 -1.0787731 -0.09298726 -0.32695192 -0.20840791 0.34242162 0.65930945 0.32379538 -0.23873782 0.21507943 -0.63002294 -0.23272778 0.32880816 0.23608528 0.83161473 -0.4365472 0.28522912 -0.030421903 -0.08636472 -0.54552126 -0.76619005 -0.16728343 0.09617189 -0.038803402
833 -0.40148637 0.012747917 -0.49973002 0.09867981 -0.26040617 0.018198878 -0.24245568 0.014905041 -0.40873957 -0.43963134 -0.33784613 0.6526907 0.5527903 -0.14060934 0.3740078 -0.39300132 -0.20132911 -1.1237475 0.7938684 -0.312648 -0.12598616 -0.17459898 1.0068655 0.45627218 -0.44182473 -0.221553 -0.38408706 -0.21650748 -0.9103238 0.30809298 -0.37708983 -0.422569 -0.43879303 -0.22974429 0.14946078 -1.2116191 0.07637203 -1.1695489 0.11876687 -0.26609817 -0.0040124953 -0.32038522 0.46170983 0.58668447 -0.11705702 0.5425134 0.03546543 -0.07983066 -0.28293028 -0.015165617 -0.29385108 -0.11121394 -0.02018309 -0.7980904 -0.33784777 -0.1309038 0.008197315 0.025769198 0.44733182 -0.43831566 -0.12315314 0.0012779236 -0.09521995 0.025496064
1473 -1.2425096 1.0286182 0.22059684 0.4692665 -0.30472398 -0.1222575 -0.48459607 -0.4425338 -0.07586009 -0.14381813 -0.30906639 0.048099525 0.7123497 -0.26167294 0.11269497 -0.2890989 0.13328427 -0.49021897 -0.2138313 -0.5249522 0.004965916 -0.30570245 0.6075544 -0.17117183 0.15930113 0.3096238 0.15173061 -0.09082563 -0.693743 0.592156 -0.31352216 0.21756919 -0.56440103 -0.19505088 -0.25889635 -0.97442853 -0.35952806 -0.3371581 -0.22736587 0.09708288 -0.33568552 -0.30926955 0.10576631 0.3815652 0.012590826 -0.27207813 -0.18703927 -0.34738016 -0.40755206 -0.6959864 -0.8214345 -0.34345064 0.025307043 0.3353415 0.42566186 -0.18210387 -0.49940968 -0.1459294 0.5340744 -0.32583314 0.082893334 -0.17596374 0.1556501 0.3531117
515 -0.11707369 0.019575756 0.1543075 -0.31959936 -1.0301859 -0.24019815 0.031639952 0.29303625 -0.42297703 0.057067715 0.08177775 0.17206015 0.55231285 0.4784596 0.852337 0.022326851 0.13118619 -0.6435238 0.49482787 0.44686154 -0.38700676 0.014841554 -0.46668226 0.9359511 -0.026701868 0.1925786 -0.22317043 -0.18268187 -0.9528846 -0.07448918 0.14384735 -0.94649667 0.4448536 0.05000283 0.43658152 -0.24556576 -0.40852764 0.15389423 0.0020715392 -0.78150946 -0.5065253 -0.580059 -0.19615732 0.5246527 -0.4728984 -0.62274116 0.24498633 0.08517421 0.25122973 0.25920275 0.48934737 -0.3477625 0.6958856 -0.2612178 0.47011238 0.13953578 -0.6026096 -0.49973103 0.28440267 -0.67624724 -0.25924835 0.46870646 0.0323437 -0.84881705
509 -0.28866127 0.84721 -0.5295422 -0.41553402 -0.5694143 0.121370435 -0.13508514 0.24743186 0.27085215 0.10818047 0.17367302 -0.3924462 0.013682227 0.58507794 0.10123061 -0.6269496 -0.12719657 -0.031463917 -0.409126 0.50899535 -0.026767544 0.3908532 0.1895367 -0.42106038 0.014336859 0.58731663 0.17371337 0.15919594 -0.37159207 0.2917792 -0.067843944 0.024484046 -0.55885667 0.21989457 -0.08611981 -0.13829297 0.24574988 -0.11137659 0.5320279 -0.5518356 -0.59954196 0.232145 -0.2521669 0.52707416 -0.2956277 -0.36596388 0.29905382 -0.43226126 0.76188385 0.17017554 -0.5979767 -1.1063104 1.0127412 -0.2435937 0.40906516 -0.3534287 -0.37255704 0.10412045 -0.056751713 -0.21292722 -0.68476176 0.17650592 0.019401502 0.32687327
162 -0.0054434882 0.58007485 -0.12691034 -0.21895163 0.42467904 -0.15843691 -0.15800793 -0.33977675 -0.6694694 -0.81242234 -0.25764656 0.9926992 0.2460171 0.11025583 0.64960533 0.03387795 0.34358793 0.034123152 0.55381393 -0.26252335 0.26002404 0.10267244 -0.18864822 -0.6262209 -0.33343166 -0.03125815 0.127364 -0.23105255 -0.7385338 0.39698586 -0.03157468 -1.1336598 -0.2463306 0.6508744 0.1508458 0.18109846 -0.22476481 -0.09175064 0.09752551 -0.14495854 -0.50714844 -0.19506973 -0.19503663 1.301676 -0.25515208 -0.15974335 0.37899104 -0.08810632 0.9089211 -0.24605317 -0.28306603 -0.20045845 -0.5832188 -0.14213271 0.11757288 -0.70555675 -0.8048717 -0.3921192 -0.4263526 -0.28002337 -0.0393706 0.14029118 0.3032143 -0.2944834
778 -0.36858088 0.7710442 -0.17039408 0.11694182 0.08353137 0.32782358 0.24215777 0.054587863 0.24937208 -0.29721174 0.5916181 0.097900115 0.12063246 -0.67037046 0.58532095 -0.4611346 0.39804307 -0.41084653 0.33834925 -0.43803492 -0.6390627 0.08700941 -0.914748 -0.005331484 -0.13593082 0.016108245 -0.33311692 0.28727502 -0.8393221 0.63260305 -0.15722854 0.6045434 0.05914275 -0.48846605 0.7411618 -0.69997996 0.86057967 0.28728735 -0.527629 0.3733539 0.5135997 0.29711765 0.36658695 0.9399732 -0.4548719 -0.022011587 0.84713763 -0.22227234 -0.06026901 -0.93394357 0.12715898 -0.0825953 -0.13391477 -0.19695902 0.060894478 0.03862604 -0.13162668 -0.096050255 -0.52634764 -0.11144134 -0.43498525 0.2271621 -0.118812166 -0.36576658
1560 -0.6454818 0.5915694 -0.65911615 -0.18288913 -0.20971309 0.00074557145 0.27001688 0.16381311 -0.2157147 0.6929722 0.11314215 -0.38826567 -0.28629383 -0.3793801 0.24178529 0.15502378 0.24963345 -0.45900282 0.58392346 0.344247 0.0726424 0.84736294 0.023765167 0.49366748 0.5278533 -0.17961715 -0.107189365 -0.8821619 -0.15665302 -0.2686943 -0.8672589 0.24597198 0.10822405 0.13660535 0.14347866 -1.4846265 0.2963613 -0.9436023 -0.09692206 0.43520227 -0.2514253 -0.1879613 0.32395115 0.2978091 -0.035407588 -0.48718348 0.48170185 0.18575376 0.50657284 -0.06281512 0.34185332 -0.44097403 0.24640237 -0.10182639 0.54188454 -0.19725017 -0.7663466 -0.6759428 -0.2377351 -0.07497917 -0.2005732 -0.35059035 0.40643233 -1.0314212
374 -0.3150585 0.8026295 -0.84280217 -0.39722797 1.14381 0.27855152 -0.32296547 0.12609245 0.19442329 0.3810508 0.24980691 0.25172502 0.38873532 -0.6036714 -0.45936283 -0.26535955 -0.23883605 -0.18357167 0.61552894 -0.0997123 -0.030556291 0.5780011 0.41199887 0.32183385 0.22433136 0.18192972 -0.16258027 0.5792037 -0.96381235 0.28511482 0.1488989 0.012409555 0.2880605 -0.30565223 -0.80516994 -0.060133714 -0.30121252 -0.021507988 -0.11030073 -0.70691365 -0.254925 -0.124622144 -0.38692418 0.57057786 0.17426737 -0.22969262 0.8562118 -0.11710944 -0.05556839 -0.13940674 0.2417343 -0.16233172 0.14450502 0.18374087 0.72594196 -0.14239325 -0.10496956 0.666099 -0.08131307 -0.5136975 -0.22110476 0.18351309 0.41260704 0.0936013
882 -0.47034293 -0.014470828 -0.3950554 -0.2716051 -0.55932665 -0.023400947 -0.70073336 0.10711417 -0.65756404 0.6140543 -0.31436005 0.10818072 0.24744816 -0.4159725 0.69619226 -0.6504122 0.41742262 0.08956826 -0.05941158 0.6762373 -0.28616995 -0.379993 -0.7069053 0.040166654 -0.41250104 -0.39557314 -0.2644523 -0.16121785 -0.6618816 -0.16539153 -0.012622727 -0.13973248 -0.30465618 0.60459673 -0.043772295 -1.2175887 0.009282266 -0.23962606 -0.6852678 0.565717 -0.40802196 -0.028509524 0.07450701 0.84946316 0.5403956 0.59374934 0.08927637 -0.14698651 -0.025185639 0.841983 -0.20939438 -0.22388467 -0.69002634 -0.13008791 0.4789738 -0.49704647 0.7924565 0.4236827 -0.16340493 0.21701057 0.067786306 -0.55108005 -0.08128894 -0.20645088
307 0.41525966 1.2123989 0.10613544 -0.14110379 -0.24857853 -0.028209435 -0.77980703 0.32905617 -0.4653347 -0.002114572 -0.4567889 0.23399134 0.37193683 -0.569467 0.50159866 -0.2062093 0.097488046 -0.17017558 0.27816793 0.35522935 -0.31686363 0.04651434 -0.29453838 0.532004 0.08685647 -0.04126461 0.11321167 0.31665602 -0.77028877 0.23017468 0.11378581 -0.12040667 0.5320006 0.4950911 -0.10192378 0.11595802 0.5840287 -0.20489094 -0.021363389 -0.124297544 -0.5695564 0.19107431 0.3200071 1.0700182 -0.3040555 -0.22373003 0.24430382 0.76573575 -0.48880076 -0.09185921 0.42338082 -0.17449498 0.40856645 -0.35693458 0.4432761 -0.17426026 -0.05721591 -0.12119991 -0.15597834 -0.26304334 -0.73422354 0.071044095 -0.42722112 -0.3283183
716 -0.5754141 0.19839063 0.14524305 0.21944343 0.46106407 0.09304664 0.14436762 -0.05028374 -0.74274623 0.17227162 -0.28899294 -0.06312942 0.3532584 -0.1269886 0.37916523 0.053239554 -0.6767278 -0.27451074 -0.2947027 0.017153941 -0.51111114 0.6310426 0.24899668 -0.07553057 -0.25141665 -0.23637442 0.4021384 0.6286847 -0.32751256 0.43354246 -0.70326376 0.4122939 0.5336576 0.6988972 -0.6004624 -0.84495336 -0.28440526 1.0607293 -0.6893173 0.28109914 -0.16577092 -0.09700578 0.69271904 0.8455237 -0.086976856 -0.3453846 0.7270112 -0.097256 0.4158567 0.3207852 -0.11454944 0.043030154 -0.3180223 -0.53750896 -0.17273745 -0.4379976 -0.62209827 -0.5011845 -0.610973 -0.45114163 -0.2219751 -0.23993315 0.14944588 0.41595528
1486 -1.0776166 0.53765327 0.23358363 0.15096727 0.61915 -0.5303555 -0.045348488 -0.1717175 -0.19078198 -0.5119183 -0.8437913 0.5096673 0.96378076 -0.024144042 -0.21201232 0.133206 0.6090075 -0.35436237 -0.15159255 -0.31821626 -0.29619202 -0.24922217 -0.14857706 -0.04868132 0.3271049 0.62843376 0.09590883 -0.40245846 -0.9723207 0.3133431 0.31178945 -0.26129907 -0.6550624 -0.3018928 0.34917328 -0.73237395 0.331816 0.06745856 -0.38375935 0.11579862 -0.44064277 0.6877128 -0.111965545 1.090812 0.08262773 -0.612525 -0.4310433 -0.4247126 0.4811418 -0.0070018587 -0.060484756 -0.07150964 -0.13115102 -0.4314565 -0.30212882 -0.10578656 -0.6397572 -0.112886064 -0.20474815 -0.062189184 0.32003668 -0.49908704 0.14950222 -0.35195103
1260 -0.40677026 0.46908432 0.01303781 -0.21156605 0.4172788 0.24759863 -0.86393166 -0.031117901 0.08129173 0.5600412 -0.17390136 -0.7991337 0.05426312 -0.78689235 0.14169921 -0.6491844 -0.04898974 -0.16802332 0.62099415 -0.4493865 -0.21650967 -0.07509703 -0.052680403 0.49334747 0.33477542 -0.17737211 -0.62827265 0.014412889 -0.7817547 0.27476415 -0.30081198 0.060548995 0.32068565 0.050568618 -0.11547399 0.13343227 0.20939425 -0.19067027 -0.7088464 -0.23501983 -0.3765771 0.1419318 -0.2843537 0.5021246 -0.36747497 -0.54261446 -0.33981976 0.19397454 -0.40806127 0.85128474 0.6027185 -0.8062823 0.015945027 0.031745214 -0.19759582 -0.28885236 -0.43877202 0.23863815 0.022726478 -0.89647883 -0.68220997 -0.182933 0.23892148 0.1838116
620 -0.6036631 0.8930383 -0.009356401 -0.5273392 -0.43308935 -0.68989855 0.12344515 0.16691181 -0.07188285 0.39786157 -0.10345876 -0.11083134 0.41019136 -0.5409757 0.43521917 -0.1852994 -0.15783967 -0.3632794 -0.07639204 -0.96563005 -0.075848475 -0.8819028 -0.05062158 0.10657832 0.47528383 0.106254734 0.55413675 -1.1594352 -0.5134961 0.59228516 0.09513367 0.28275767 -0.024791341 -0.25933018 -0.14275487 -1.0789108 0.29546794 0.2807214 0.46056303 0.6969796 -0.16514194 -0.2132809 0.082353614 1.4222169 -0.05386414 -0.255916 -0.32408234 -0.34406367 -0.22727098 0.34013492 0.2737677 -0.5081864 0.2387902 -0.0117284795 0.016048407 -0.59352595 -0.93594795 0.12008901 -0.42270598 -0.03812709 0.12458938 -0.034105826 0.062559485 -0.0014879787
1380 -0.5097234 0.032869384 0.5644915 -0.38379896 -0.38790464 0.32125124 -0.34294182 -0.04153998 -0.18888162 0.34008208 0.12115007 0.08241792 0.6079789 -0.49545324 0.06988644 0.16936986 0.43220294 0.10579175 -0.2716935 0.14800625 0.40866813 0.0066434355 -0.45145625 0.5903252 0.7754274 -0.25756845 -0.6096436 0.059952654 -1.1046776 0.3482476 -0.63094383 0.07068118 -0.58978075 0.36344433 0.04615092 -0.6473345 0.3503138 0.06648006 0.08136344 0.37666976 -0.32594708 0.49020073 -0.06997565 0.61637616 0.29901528 0.11976442 0.26587754 0.95122343 -0.22653775 0.66111386 -0.1509727 -0.3034528 -0.121193275 -0.5524315 0.30602193 -0.7759636 0.13535555 0.36684534 -0.6216418 -0.33422375 -0.13838644 0.23210882 0.5178923 -0.008720895
257 0.14169756 0.09171646 -0.14118569 -0.50436074 -0.58226025 -0.39777064 0.11123054 -0.14848685 -0.9112758 -0.3681684 0.28165752 0.52916735 0.18627582 -0.43625173 0.57716733 -0.43013024 0.38297582 -0.38794386 0.2917087 1.0122646 0.6198225 0.001486642 -0.12602518 0.2519425 -0.20769362 0.60247546 -0.65097743 -0.5054456 -0.62270445 0.70045763 0.26385695 0.597847 -0.7337587 0.36181027 -0.2771558 -0.82096136 0.18700317 0.23513968 -0.72159773 0.17936318 -0.31254455 -0.077395044 0.14113373 0.641596 0.5413615 0.34482834 0.87473243 -0.11530002 -0.13570033 -0.09675769 0.2615103 -0.78936195 -0.58295506 0.5021358 0.39802548 0.35327938 -0.089995146 0.49146336 -0.030860836 -0.46012658 0.2947755 -0.58352697 0.2304057 0.020287883
942 -0.07761309 0.3146442 -0.40186715 0.28193918 -0.3681017 0.27974027 0.5371304 -0.043475162 -0.60152495 0.28055066 0.3467574 0.64203316 -0.114744514 -0.042903464 0.1444063 0.1329069 -0.0005469815 -0.17533818 0.04355138 0.15177679 -0.2273839 0.6614324 0.2438577 0.45492554 0.891072 -0.4495005 0.44898036 0.090349235 -0.89879835 0.36186403 -0.7024799 0.22098315 0.78755426 -0.026822718 0.4529076 -0.95861244 -0.14660306 0.2998954 0.7101304 0.4012695 -0.26854947 0.2911313 -0.63547075 0.48761 -0.31417322 -0.23901318 0.14457862 -0.3469606 0.29673472 0.50966173 -0.19407234 -0.73748666 0.4056579 0.34673595 0.22234339 0.02370555 -0.75238526 -0.6873734 0.3059579 -0.5040681 -0.15099359 -0.55287623 0.3079474 -1.036498
1115 -0.5542268 -0.03897012 -0.26891878 -0.2796551 0.36674953 -0.15273206 -0.21527033 0.2244936 0.4775776 -0.38012895 -0.62279665 0.1246571 0.30927938 0.35433748 0.5969446 0.016952332 0.9228163 -0.2130769 -0.13905258 0.09564259 -0.45483342 -0.39472574 -0.62873566 -0.38533896 0.15289143 -0.010750542 -0.74099725 -0.08259238 -1.4184635 0.47760916 -0.17352967 0.6356869 0.19098331 -0.005380417 0.24399237 -0.40345123 1.313295 -0.13921382 -0.56408834 0.13770188 0.22538958 0.15736148 0.08294264 0.9051269 0.010647933 -0.45052534 -0.02834785 -0.3528193 0.027806345 0.17164451 -0.889411 -0.3863202 0.021957144 0.08677683 -0.08628535 -0.48482573 -0.6187144 0.558687 0.2889111 -0.38693228 -0.81714857 0.5679766 -0.8195895 -0.62081915
511 -0.06605262 0.058551334 -0.013125805 0.22468197 -0.3087076 -0.08281144 0.22970748 0.19665134 -0.37675467 -0.6450185 0.048442043 0.30179253 0.17241357 -0.27422136 0.7873982 -0.42898253 -0.044209223 -0.23105545 -0.11075754 0.12831874 -0.25812188 -0.07141445 0.7453858 0.523208 0.53813225 -0.4146891 -0.3087094 -0.28705013 -0.6063365 -0.1702463 -0.26363882 -0.6771597 0.087781765 0.003918155 0.29193136 -0.9547427 -0.21916781 -0.08624953 -0.20526254 -0.08871779 -0.5544762 0.51911986 -0.055019688 0.22490783 -0.60448956 -0.12004454 0.3189491 0.36148292 0.3208642 0.4231863 -0.108957686 -0.49943772 0.76638365 -0.4072148 -0.6676361 -0.26245838 -0.55695534 -0.11687707 0.12111301 -0.46872452 -0.14798683 -0.10977116 -0.452788 -1.1881766
1633 -0.35692868 0.54182607 -0.03005929 0.6897571 0.36381537 -0.28709993 -0.10438602 -0.16973099 -1.3479092 0.5634605 -0.30818555 -0.40964323 0.27809843 0.2222229 0.8198623 -0.0628717 0.31738836 -0.4815029 0.63062125 0.5129712 -0.39757258 -0.3381138 -0.76566386 1.0643222 -0.14024694 0.45016474 0.06856824 0.9055511 -0.5232766 0.31055278 0.50877 -0.4556314 0.27317593 0.14550078 0.16281942 -1.0945692 0.2486976 0.27989194 -0.028790947 -0.6292736 -0.18590398 0.024395652 -0.42362127 0.51131207 0.12467637 -0.88246906 0.2092258 -0.24816865 0.5321283 -0.0034337302 0.23787978 -0.3102996 0.5104476 -0.19438387 0.016889106 -0.34112105 -0.3122618 0.6241488 0.20071614 -0.4491989 -0.28229237 0.22144105 0.34483692 0.008041613
1125 -0.7145453 1.2020396 -0.4647401 -0.21391569 -0.33564445 -0.7640415 -0.13555056 -0.3998452 -0.61956024 0.40951636 -0.77467346 0.0021690894 0.6785093 -0.4518555 0.558119 -0.68300694 0.18924835 -0.27020246 -0.0736514 0.1365886 -0.28617597 -0.27737364 0.42049128 -0.0899084 0.15381293 0.60715556 0.010739487 -0.06495369 -0.099484175 0.9513549 -0.26553905 -0.72139496 0.69956726 0.3228838 0.03872864 -0.56265956 0.5081915 0.26171032 -0.5486786 -0.15192758 -0.68126523 0.15319593 0.3965232 -0.061372135 -0.80585444 -0.4728916 0.3235749 -0.7536142 0.32068232 -0.34829754 -0.4142934 -0.49432093 0.18262178 0.1271334 0.4971081 0.5763371 0.4314582 0.42761418 0.20833577 -0.016378038 0.072418176 -0.86518246 -0.22350505 -0.38641775
860 0.044608608 -0.027682094 -0.11233107 0.054662872 -0.0648278 -0.5028546 -0.14038011 -0.53425133 0.30426076 0.08826623 0.23995706 -0.31711096 0.6652494 -0.048234764 0.06357131 -0.09743721 -0.1305714 -0.6861296 0.23472753 0.394473 0.26819846 0.11815442 -0.22973719 0.25375226 0.41005334 -0.7467462 0.31056714 1.0719428 -1.0267477 0.2114691 0.011219476 -0.6248052 -0.039657008 -0.25597152 0.2109732 -0.16129287 0.5634438 0.079123355 -0.6214981 0.28920764 -0.3182813 -0.18590377 -0.09071957 0.112810016 -0.047645047 0.4807014 0.869657 -0.3762872 0.0023348655 -0.5373636 -0.72668165 -0.9152668 0.23538393 -0.20045494 0.021612577 -0.30942667 -0.68660337 0.07591658 -0.32682094 -0.031221882 -0.48897472 -0.2808848 0.12405671 -0.40044975
567 -0.38520834 -0.76483035 -0.35747123 -0.2256703 0.21779779 0.085603334 -0.122846656 -0.6292224 -0.28791454 0.50901496 -0.2719694 0.3305612 0.13132359 0.15130855 0.35802573 -0.01858435 -0.5410007 -0.60202134 0.3123728 0.5045558 0.630286 0.21118705 -0.36214834 0.102515124 -0.15321347 0.9964582 -0.4604553 -0.6931886 -0.8850076 1.2653444 0.22663951 -0.10111823 0.12855613 0.46169108 0.34427455 -0.21561639 0.07100184 0.1366278 -0.39029226 -0.51479733 -0.16039178 0.50122935 0.3927524 0.80850023 0.48855212 -0.32808262 0.3273527 0.045265906 -0.5437796 0.23952624 -0.34145954 -0.37406948 -0.11508112 0.3942064 -0.19517295 -0.46613201 -0.428786 -0.13610041 0.05724873 -0.12126955 0.31674537 -0.07949032 0.384776 -0.30257055
1499 -0.29738763 0.051008984 -0.9149476 -0.6727339 -0.056196023 0.3978864 0.027552284 -0.15187462 -0.13532175 0.51182455 -0.48684472 0.18173474 0.89842355 0.53807294 0.4692575 -0.94558305 0.11494879 -0.17247249 0.52118695 -0.13794276 0.69250596 -0.36070812 0.4873381 0.49573597 -0.48515856 -0.7153061 0.1692256 -0.1130207 -0.95744973 0.59309375 0.27145067 -0.27862898 -0.3809194 -0.08327313 -0.021899514 0.14515792 0.19549716 0.1643295 -0.4008606 0.5256328 0.07675071 0.26099557 0.17653129 0.93669945 -0.5336066 0.76084626 0.42773646 -0.3741798 0.489927 0.39798737 0.34630698 0.07635259 -0.02318258 0.19072732 0.37530836 -0.38985872 -0.5168383 -0.0870419 -0.65940183 -0.3371345 -0.15974954 -0.15991364 0.6400558 -0.5009506
55 -0.6732712 0.28518537 0.15717182 -0.15266712 0.12908971 0.3416235 0.18497677 0.34880173 -0.13203584 0.2839832 -0.33789834 -0.49922952 0.22369058 0.04865452 0.88064176 0.25473985 -0.21506207 -0.41202357 0.6911949 0.47112834 -0.7157005 0.35428035 -0.353152 0.49020317 -0.45080537 0.0339683 0.34791616 0.4863573 -0.64102334 0.063701935 -0.47315738 -0.36363962 -0.15702751 0.8582902 0.075808935 -0.6529976 0.27069664 -0.34989682 -0.5884532 -0.03033944 -0.722868 -0.122055024 0.11820038 -0.15671861 0.066936046 0.02486886 0.94615155 0.5806163 0.7481443 -0.06815114 -0.59533995 -0.3556128 0.3730897 0.08068247 0.25057808 -0.3363096 -0.31657353 0.30324504 -0.5157981 -0.4018908 -0.29678425 0.32981583 -0.29726502 0.6598227
1257 -0.6570139 0.19302233 -0.16315089 -0.24560378 -0.35171878 -0.29106012 0.15943126 0.09356883 -0.171399 0.50196403 0.066958986 -0.3014115 0.44384375 -0.5061078 -0.33888015 -0.36119217 -0.035993658 -0.68170035 -0.055471208 0.46974742 -0.3624426 -0.042550698 0.16655362 0.69781065 -0.111658156 -0.027121061 -1.0890996 -0.037786473 -0.5682622 0.17916067 0.35896027 0.1889261 -0.43607345 0.9385834 -0.0066524073 -0.29867682 -0.108258806 -0.084178776 -0.61986315 0.13633052 -0.14445774 -0.065510236 0.70688754 1.1429659 -0.067262195 0.22132067 0.6727964 -0.25302818 0.25605482 -0.10101058 0.15368617 -0.6676628 0.16659416 0.7319272 0.12032327 0.054443147 0.3629252 0.387081 0.14178362 0.24117023 -0.43377843 -0.64110047 0.23031446 -0.3198186
1382 -0.3451781 0.4255872 -0.3128955 0.6106454 0.582204 -0.15390344 -0.40933663 0.12707786 -0.6033577 -0.043639548 -0.066066585 -0.15929542 0.3789935 -0.2601151 -0.008712431 -0.19611058 -0.16053069 0.07379228 0.13108172 -0.12019519 -0.15719754 0.32759494 -0.46464357 0.62544906 0.15914823 0.34615773 -0.42593297 -0.13060354 -1.1753508 0.386276 -0.6995246 -0.094435886 0.69789064 0.86639714 0.12711464 -0.03391847 -0.5571218 0.4603666 -0.06978905 -0.71243054 0.22019234 -0.4295151 -0.7878092 0.25154254 0.45327607 -0.09552228 0.89624465 -0.28525308 0.102646805 0.04609271 0.42551935 -0.7401712 0.060419716 -0.42300007 -0.7795393 -0.6257012 -0.08163775 0.66899025 0.38239557 -0.35579586 -0.536707 -0.41348788 0.32983634 -0.25930384
538 -0.19432794 0.77716714 0.41970912 -0.70482945 0.38012716 -0.58365643 -0.30028844 0.4222562 -0.3688748 -0.17559418 0.22809415 0.25399405 -0.37973267 0.06125033 0.9618896 -0.2059717 0.032592867 -0.9443522 -0.04576682 -0.23953475 -0.032418095 -0.29687962 0.15061443 0.60836214 0.18233116 0.014664427 0.27853182 0.050905563 -0.75726014 -0.26351854 -1.1288081 -0.36041546 0.7464268 0.64158267 -0.044166144 -0.6751098 0.23236148 0.37772912 -0.56583124 -0.3567656 -0.20995124 -0.44917727 -0.10405862 0.31646907 0.5860367 0.05204984 -0.058123674 -0.56572753 -0.19873823 -0.31984884 -0.1706625 -0.29384282 0.15197268 -0.11351582 0.71467614 -0.55516344 -0.3813122 -0.28423086 -0.1646537 -0.15436685 0.0011812337 -0.23319387 0.30530125 -0.84739286
1002 -0.093728125 0.18006425 -0.001986012 0.38611743 -0.29038492 -0.6619061 -0.69158566 -0.58378804 0.2073006 0.41292194 -0.1558042 -0.5589557 0.47571418 -1.012689 -0.30403712 0.022439051 -0.44027138 -0.05694265 -0.26798907 0.07770077 -0.30726412 -0.2657843 -0.78862065 0.2392912 0.32223472 -0.11929545 -0.25924793 -0.033829473 -1.4520541 0.70533764 0.13995166 -0.1912299 0.57301664 0.066501334 0.1426001 0.05938127 0.4239791 -0.31519884 -0.79633105 -0.18904346 -0.031264573 -0.4261873 -0.38461578 -0.0010096167 -0.627545 0.28806552 0.18764427 -0.41353276 1.0887357 0.054275997 0.1269414 -0.42722452 0.35565892 -0.5831325 0.0026926813 -0.5577698 -0.37520576 0.32241687 -0.09497668 -0.55851835 -0.26183778 -0.73171747 -0.031259842 -0.23944403
1163 0.06149076 -0.35147882 -0.25108734 0.009918381 0.21297641 -0.29077524 0.5330304 -0.9301019 -0.24684483 0.1693064 0.49881133 -0.053017147 0.2050926 -0.59515184 0.34775853 -0.30989915 -0.5354082 0.15214728 -0.11300293 -0.14762753 0.3697699 0.11740164 -0.22035238 -0.007141435 0.09927664 -0.08299012 0.28671277 0.38406888 -1.1210685 0.5458699 -0.22230549 -0.4150889 0.052282706 0.3242187 0.74325776 0.12534098 0.22156304 0.4468868 -0.08483423 -0.50150573 -0.35240218 -0.45158583 0.23381463 0.9081931 0.206434 0.08782727 -0.1455509 0.1363959 -0.087417305 -0.6439664 0.10371382 -1.0300506 -0.0040324703 -0.56947964 -0.061795726 -1.0603004 -0.8943939 0.16860157 -0.023981374 -0.19399951 -0.15734464 -0.3609183 -0.19560383 -0.31750652
436 -1.4573733 0.4857551 0.14564009 -0.1785281 -0.60826737 0.050875075 -0.077784896 -0.3873992 0.45295832 0.25751978 -0.39387572 -0.5115793 0.26155952 0.1712304 -0.05508449 -0.48236462 -0.2273906 -0.13712695 -0.13032505 0.06435938 -0.34360504 0.0065926593 0.18259558 0.45846373 -0.66955596 0.47026646 0.19971766 0.27173597 -1.0184672 0.4589877 -0.2612074 -0.4701336 0.07962308 0.49070427 -0.08078118 -0.50477546 0.31748313 -0.36631832 0.08993205 -0.24668097 -0.3334896 0.3836095 0.21259907 0.23729476 -0.4992608 0.081628464 0.81830263 -0.6964857 0.42250404 -0.19343531 -0.6287771 -0.44480786 -0.13380139 -0.09463205 0.6188168 0.40018076 -0.5771706 -0.27325422 -0.7941808 -0.09863268 0.4964405 0.72074246 -0.4419401 0.086826265
922 -0.52887034 0.9313132 -0.8580651 -0.33117855 -0.50516564 0.99617416 -0.020187814 -0.10252118 0.3535507 0.5040619 0.08784258 0.30236825 0.7746569 -0.47863424 0.44133165 -0.40337408 0.6213717 0.6873679 -0.22797939 0.67369264 -0.5913923 -0.23329712 -0.089122094 -0.25301474 -0.41825005 -0.59595984 -0.425313 0.29207695 -0.6718791 0.6539567 -0.11488936 -0.7528586 -0.27680507 0.6823181 0.12619758 -0.8080015 -0.5824838 0.19560829 0.054140076 -0.028414859 0.059433483 -0.5394559 -0.39809722 0.19235 -0.044142492 -0.2266456 0.045279067 -0.07380805 -0.051861268 -0.5380531 0.39074844 -0.5869584 0.22084516 0.35655746 -0.11808889 -0.9786125 0.17827176 0.11909327 0.21634375 -0.18472847 -0.14652313 -0.0036749355 -0.14823678 0.1410251
1350 -0.36489818 0.66014767 0.72238284 -0.56377137 -0.5054059 0.007106622 0.03309444 -0.16978776 -0.8626984 -0.04982901 -0.05535788 0.19454885 0.41773346 -0.15188056 0.6094545 -0.24980453 -0.19558801 0.5476476 0.19721189 0.18093018 0.69540066 0.10690187 0.5889317 0.34240574 0.074868366 0.4544212 0.12366233 0.1432553 -1.3304037 0.9091151 -0.032356083 0.2866652 0.07097886 -0.028034445 -0.3652519 -0.70043546 -0.30807745 -0.41901588 -0.6896736 0.5947315 -0.44558096 0.25218505 0.09069206 0.32081822 0.8878237 -0.44168663 -0.02029092 0.18008062 -0.12648278 -0.34755534 -0.41878983 -0.66158056 -0.113543004 -0.09003324 0.34103093 -0.10938528 -0.41153494 -0.081732735 0.55883884 -0.36656427 -0.12118584 0.380083 -0.049428064 -0.056970723
329 0.030401884 1.3326254 0.017257158 -0.100333825 0.51570535 -0.3399572 -0.4336473 0.120291896 -0.42449585 -0.26445684 -0.33485103 0.07628434 0.10431833 0.27828065 0.19720556 -0.20208639 -0.77501714 -0.74194306 0.5964024 -0.112265185 0.09091661 0.31561458 -0.4564968 0.23118898 -0.30721185 -0.158267 0.40620992 0.2155017 -0.9861674 0.027228447 -0.71932197 -0.87422717 0.21475436 0.9233716 -0.3810127 -0.19702311 -0.010823056 0.4755665 -0.8247344 0.33054522 -0.17848672 0.19340518 -0.09688075 0.18102536 0.709675 0.49693486 0.8512658 -0.25397244 -0.16206487 0.047330312 0.24447155 -0.63467115 0.32370394 0.18488161 -0.07054474 -0.6021065 -0.28441682 -0.5520051 -0.5499385 -0.27498347 -0.44173032 -0.20264854 -0.15513174 -0.7377107
454 -0.10948657 0.13204786 -0.34102952 0.05996828 -0.049866114 -0.4807497 0.034325138 -0.10016275 0.17808546 0.24407549 0.8250706 -0.4252667 0.163973 -0.29433176 0.30371696 -0.5864097 -0.098960355 -0.39838138 -0.14814468 0.2738651 0.045861397 -0.620037 0.3978619 0.039197892 -0.43555045 0.03578189 -0.11828835 0.28977045 -0.4672748 -0.07384681 -0.25313354 0.09005326 -0.003141999 0.9019052 0.08947222 -0.4193197 -0.28067455 -0.03433064 -1.1970885 -0.3021766 -0.26077753 0.47749472 -0.2809406 1.9827346 -0.23213401 -0.062356066 0.061252266 -0.09994281 0.028828274 0.046632357 -0.8383795 -0.32755777 0.4686358 -0.2624189 -0.043894403 0.49877125 -0.3314924 0.37452424 -0.3056359 0.30841953 0.13866706 -0.12694499 0.74225175 -0.2610825
1087 -0.41154146 0.18464616 -1.3934466 0.13281834 0.0330472 0.38964885 -0.33184874 0.3793245 -0.258391 -0.4534948 -0.33084822 -0.61878663 0.013544589 0.28081706 0.3616043 -0.044675548 -0.37509093 -0.048056193 -0.17508072 0.056466263 0.13010174 0.42640647 0.09797305 0.6426336 0.30216357 -0.0053027268 -1.1082342 0.08044789 -0.37086833 0.61559886 -0.48159108 -0.047233894 -0.2271519 0.0050955773 -0.18481103 -0.6112437 0.4632268 0.5928961 0.061540328 -0.24746577 -0.16537663 -0.2929323 -0.08547773 0.8742503 -0.06198367 -0.74581563 0.4929288 0.64463437 0.68880016 -0.6476775 -0.36387995 0.10771459 0.3209382 0.12875563 0.42767543 0.1892165 0.014342688 0.26301494 0.0039226254 -0.38832265 -0.058163896 -0.8226924 0.05813259 -0.80137265
657 -0.3556498 0.6626465 -0.2837876 -0.5223342 -0.6093197 -0.16146263 0.5881647 0.43517965 -0.251928 -0.3015708 -0.2672964 -0.4640914 -0.05735705 -0.47590095 -0.16794896 -0.5603117 -0.31049362 -0.21995793 0.15885983 0.17987491 0.15660979 0.3697376 -0.18464483 0.2020105 0.8084475 0.072199516 -0.58740556 -0.24624546 -0.653407 0.063424185 0.9621649 0.6022789 0.045895465 0.9179645 -0.19928998 -0.7752741 0.5369011 0.35032222 -0.7878959 0.3221793 -0.4832503 -0.6863836 -0.13836879 0.8754635 -0.2386247 0.2453209 0.7721261 0.114739835 -0.93493986 -0.14898017 -0.080349416 -0.3896633 -0.45774743 0.07600566 0.28235278 -0.52974457 -0.15056948 0.51162195 0.021252437 -0.26240432 -0.5442933 0.091712154 0.13777103 -1.2961465
825 -0.55462486 0.15285899 -0.34444436 -0.25363505 0.083747104 -0.466516 0.06941254 0.14928609 0.31938502 -0.49537858 0.51264226 0.19963463 0.7094299 -0.1813099 0.101959355 -0.7920521 0.64297754 -0.42914915 0.20986703 0.27085042 -0.1479062 -0.58082175 0.16973293 0.059952486 -0.055259287 0.6115875 -0.064356744 0.22336444 -0.5765554 0.0705118 0.11672189 0.22488284 -1.0644451 -0.16443238 0.40800706 -0.61031336 -1.1198715 0.124528214 -1.0341275 -0.4460715 -0.46859208 0.18642637 0.11361128 0.712127 0.09301575 -0.09524816 0.7166162 0.12608193 -0.23092525 -0.056868233 0.041730728 -0.18695156 0.31496507 -0.1422919 0.4111174 0.39563397 -0.67541397 0.20188144 -0.78628814 -0.63805354 0.0025421178 -0.56098497 0.65932244 -0.14204271
1231 -0.46277392 0.12081367 -0.5089585 -0.5711025 0.18256672 -0.18604597 -0.12489785 0.022074886 -0.08987399 0.2687069 -0.12578747 -0.60319525 0.36066785 0.22189736 0.32047665 0.10849319 0.36725754 -0.91712695 0.46654323 0.5119692 -0.12062618 0.52715755 0.38276938 0.5785931 0.33758348 -0.74484557 0.04420418 -0.4309061 -0.47294873 -0.24242492 -0.5148349 0.5885992 -0.05313945 -0.090344556 -0.6083466 -0.8852461 0.29876113 -0.37326837 0.17781274 0.24628218 -0.81742936 -0.044515446 -0.44909295 0.39005226 -0.3505304 -0.6263807 0.11600537 -0.7400519 0.006286205 -0.5746432 -0.4491667 -0.4516629 -0.28247648 -0.71695226 0.5291199 -0.1209265 -0.14018214 -0.25535476 -0.47167826 -0.572491 0.051858798 -0.058410417 0.45036638 -0.27850702
479 -0.22771172 -0.50133467 -0.50980973 -0.22571571 -0.022062352 -0.34103546 -0.0069714547 -0.051804915 -0.097011045 0.34286377 -0.40879095 0.15538317 0.7514503 0.45890957 0.25162423 -0.5454705 0.34601343 -0.29708263 -0.31780285 0.4162845 -0.0110676 0.45297128 -0.15431225 0.6854273 -0.20692815 0.29333895 -0.42636973 -0.45009187 -1.3426886 0.40957355 0.18283635 -0.13530956 0.59093916 0.44657597 0.46546653 -0.4115591 -0.30193174 -0.16957715 -0.18432438 -0.67483765 -0.36171633 -0.55180144 0.5661961 0.7552462 0.47722363 -0.4511114 1.1098404 0.15529782 0.2789597 0.59320676 0.2180046 -1.0550383 -0.051608186 0.31955692 -0.696987 -0.08528026 0.22817647 -0.34338433 0.29454154 0.16351016 -0.4243442 -0.2457262 0.5531436 -0.49833646
767 -0.7506306 0.85245496 -0.7115313 -0.3121911 -0.007726457 0.18475543 0.052545954 -0.6255668 -0.27827215 0.2282186 0.36078367 0.47898132 0.023121499 0.11881419 0.4597885 -0.89743185 0.33942235 0.73289263 -0.19967759 -0.39755705 0.057540715 -0.076617904 -0.2637473 -0.8955459 -0.123517245 -0.23696074 -0.5330186 0.13824941 -0.6828856 0.19233361 0.13240609 -0.081821956 -0.39904803 0.2326384 0.273259 -0.055011634 0.077495396 0.5285676 0.40574366 -0.143568 -0.45393878 0.2228338 -0.6919303 0.5159945 0.112528965 -0.118361495 0.5459795 0.3266659 -0.47530857 0.054193564 -0.44570667 -0.8958559 0.66487277 -0.26297203 0.38565195 -0.52048486 -0.7908129 0.20423973 0.13132662 0.175214 0.11959145 -0.20809445 0.37884066 -0.19296323
1602 -0.18093655 0.84103364 -1.1531078 -0.48097664 0.36850545 0.0683639 -0.12959059 -0.017370032 0.27939275 0.072415374 0.41778994 0.79158425 0.2775093 0.22132328 0.063066274 -0.7376244 -0.57723 -0.20107496 0.22099295 0.3683327 -0.98937714 -0.6710879 0.4185831 -0.3158086 0.31684452 0.26654893 -0.097527824 0.054553825 -0.8305084 0.6657356 0.18547344 0.02298847 -0.9518812 -0.6338551 -0.0297392 -0.4271975 -0.5370631 0.4564366 -0.6881095 -0.29932246 -0.39469978 0.5020089 -0.49644992 0.74039185 0.9126306 -0.18731476 0.34620166 0.12078606 0.059173808 -0.45182282 -0.10967195 -0.692307 0.6994789 -0.83184224 0.4476475 0.27940542 -0.6953991 0.5565693 0.22752135 -0.71201783 -0.4780166 -0.24678595 -0.013091666 0.30255887
554 -0.99315375 0.30416018 -0.051857915 -0.35960925 0.96897644 0.08984682 -0.9659865 -0.121845305 0.21139629 1.2395725 -0.026837034 -0.0017338921 -0.30763993 -0.5626292 0.17607117 -0.11729005 -0.920562 -0.61466134 0.613764 0.53657657 0.40039292 0.16228618 0.2234043 -0.07189187 0.19019161 0.2895002 -0.39716196 0.46194804 -1.0054363 0.123285055 0.44779658 -0.20887649 0.43535575 -0.001958007 0.5241775 -0.16204628 -0.027810743 -0.030500239 -0.42843226 -0.04316068 -0.614275 0.28086665 0.19150561 0.5804349 -0.2238521 -0.3652256 0.65522355 -0.15235686 0.17519581 -0.1298114 0.39838943 -0.09516661 -0.49092284 0.23846087 0.66142327 -0.6299039 -0.56224006 -0.30087727 0.249009 0.07682324 -0.37419683 -0.05167355 0.014976279 0.28379896
587 0.16816947 0.98109144 -0.71197146 -0.19975278 -0.37264714 -0.08413508 0.03678127 -0.691578 -0.5794154 -0.22326726 0.12770604 0.30144987 0.3186604 -0.115881026 0.4233215 -0.12130832 0.21351036 -0.6961712 -0.1243527 0.8219481 0.31093207 -0.0898895 -0.061162684 -0.2669438 -0.15120572 0.33915436 -0.48972392 0.20403562 -0.433153 0.21033093 0.19655642 -0.5378472 -0.57266915 -0.0020526298 0.18388456 -0.9650839 0.48388696 0.3229609 -0.08030496 0.21082316 0.11005533 -0.13172467 0.49459603 0.24500512 -0.81446666 0.04367401 0.30218473 -0.17755327 0.4510799 0.19634278 -0.003603522 0.18809061 0.011457938 -0.054504726 0.3123577 0.2720495 0.2641068 0.35575467 -0.3897419 -1.0606799 0.10891327 -0.33583024 0.6040059 0.09364026
123 -1.0792253 0.40101093 0.028761515 -0.9004414 -0.0700204 0.07590608 0.4259011 0.17772153 0.6216702 0.25947762 -0.71626306 0.15562306 0.6335396 0.33281383 0.86232954 -0.6580521 0.027435808 -0.24230592 0.7804207 -0.39365792 0.55073184 -0.6724982 0.5653206 -0.27696332 -0.7268025 -0.24291638 -0.13898326 0.6396753 -0.8025201 0.8601617 -0.599426 -1.1913933 -0.079645105 0.35143828 -0.0504723 -0.43141183 -0.13043381 0.6987616 -0.3528293 0.14293681 -0.71082205 0.166355 -0.36125973 1.0009043 -1.040573 0.23087364 0.8466003 -0.14026588 0.9470744 -0.5019542 -0.5183247 -0.5434742 -0.63388956 0.4013478 0.54379463 0.025163395 -0.43148538 0.111523814 0.23402917 -0.593774 0.21032186 0.41861433 0.056170873 -0.089655
806 -0.38654026 0.41331312 -0.29660672 -0.21907 0.19529906 0.3954101 -0.04411574 -0.0045887977 -0.8013105 0.23386899 -0.13646829 -0.17517924 0.3569002 0.31849584 0.5857093 0.022044655 -0.62244546 -0.5013769 0.36698756 0.20123449 -0.045861717 0.393819 0.156707 -0.48770297 0.07405089 0.086249635 0.19122481 -0.10990863 -0.387298 0.49327865 -0.74565 0.42873836 0.6254169 0.091702804 -0.5027805 -0.9438371 0.24368395 1.1005309 0.22891611 -0.12932985 -0.4002293 -0.11045677 0.10868717 0.25620323 -0.5831303 0.7171097 -0.03187432 -0.300035 0.18996087 0.3212308 0.07342624 -0.109742574 0.5673096 0.12377593 -0.028465211 0.079551935 -1.1099905 0.2642919 0.38487095 -0.67179203 -0.31116316 0.09795394 0.3078648 -0.09075794
1356 -0.23411813 0.4054534 -0.12671228 -0.045807645 -0.44640765 0.4196361 -0.18041876 -0.36555836 -0.21311428 -0.24237338 0.24597086 -0.58350533 0.7897574 -0.67586464 0.9287188 0.09606401 -0.80916876 -0.49229902 -0.050633587 0.115108564 0.057769336 0.18922856 0.13063556 -0.19512267 0.3942395 -0.6150593 -0.16693373 0.47085667 -0.25178525 0.55874896 -0.1755837 0.33989567 -0.12730809 0.21727994 -0.52828515 -0.73257774 0.14404191 1.135103 -0.060041506 -0.03971368 -0.47570404 -0.13046801 0.06841691 0.5082662 -0.4867183 0.45389265 1.0402148 -0.7124018 0.124374524 0.6559445 0.023008022 0.13672252 0.38475025 -0.9249169 0.08626701 -0.3594245 -0.35026294 -0.20481946 0.92943317 -0.17267025 -0.1904856 -0.30185726 0.026693664 -0.09251468
1514 -0.096581765 0.48152474 -0.0712571 -0.561355 -0.5034283 0.25786525 -0.18293214 -0.0056992844 -0.17300747 0.1691438 0.47918573 0.14986971 0.041053854 0.12176173 0.13365632 -0.0020134097 0.22289594 -0.9363954 -0.36363834 -0.29890656 -0.06943012 0.3070227 0.19114457 0.23707761 -0.1672634 0.68540806 0.2829931 0.17055893 -1.5851569 0.26437297 -0.07998636 -0.07188104 0.7043255 0.47722334 -0.36809793 0.04512697 0.21685366 -0.5938803 0.60865515 0.10738275 -0.22135624 -0.059476182 -0.30185464 0.18384199 -0.2426392 -0.32688412 0.32825702 -0.08759952 0.26642326 0.58657336 -0.46055618 -0.27101365 0.42775926 -0.3750367 1.013283 -0.037943456 -0.34928373 -0.22068743 -0.36326638 -0.60352266 -0.27430317 0.820419 -0.13239 -0.793518
667 -0.10136017 0.19848822 -0.52604574 -0.43906385 0.22147743 0.41436327 -0.4900826 -0.00035357126 0.58199114 -0.02313285 -0.1540772 -0.40170717 -0.4487676 -0.32514757 0.426965 0.24921165 0.2799914 0.58332926 -1.1501288 0.18661961 0.10341352 0.38918847 0.16811633 0.56768024 0.09019929 0.18937741 -0.5938327 -0.38933805 -0.6724654 0.7756059 -0.016769538 -0.42500326 0.79799503 0.0023660674 0.0027062364 -0.79130137 -0.22919714 -0.28696498 -0.49803352 0.30860984 -0.7765729 -0.3912497 0.7759423 1.0282322 0.14032333 -0.3796244 0.48700643 0.2872306 -0.059070103 0.1179466 0.46053588 -0.8997425 0.4218496 -0.0079472475 -0.5521814 0.0019181027 -0.0747202 0.25983816 -0.23109159 -0.29137528 0.1410927 -0.26926458 0.5686242 0.10826582
1597 -0.14435036 0.21822508 -0.012503357 -0.07266268 0.16622597 0.09961123 -0.32645127 0.99601614 0.36154553 0.18540269 0.3216128 -0.36970058 -0.023606334 -0.10896292 0.8465453 -0.6416867 0.6984565 0.12962183 0.05414544 -0.28686482 0.1085318 -0.13959709 -0.69793916 -0.034439374 -0.21155934 0.8060234 -0.22299276 0.26562843 -1.0802445 0.30255854 -0.6657772 0.58695024 -0.031684875 -0.062142108 1.1488053 -0.70270383 -0.014103414 -0.46980113 -0.6337225 -0.43268886 -0.50805813 0.21992867 0.7408502 0.37427896 -0.67894965 -0.16302516 0.64522225 -0.058402114 0.13282809 -0.24916375 -0.5215466 -0.012423551 0.12767677 0.17839639 0.18110698 -0.11437708 -0.6696548 0.4482368 0.509376 -0.32892495 -0.5126467 0.02072186 -0.38179958 -0.542501
544 -0.3479857 0.6100633 0.41688737 -0.7112959 -0.16290191 0.37379578 -0.22938015 0.38342193 0.26425886 -0.138994 -0.45724955 -0.44144836 -0.03594349 -0.005205769 0.12904689 0.11340199 -1.0249053 0.02388507 0.62359655 0.14013435 -0.0032253354 0.34380186 -0.76982933 -0.035159536 0.038128432 0.07466081 -0.3623991 -0.0025332302 -1.3236848 -0.6628834 -0.25646728 -0.6395412 -0.41847214 0.47720352 0.20003769 -0.83962196 0.18328016 0.30925608 -0.565167 0.8802947 -0.7285701 -0.5478914 -0.04791568 0.43045476 -0.08904556 0.35491994 0.30761483 -0.36227626 -0.8422265 0.06406811 -0.4082922 -0.12366528 -0.4483434 0.042106435 0.31633323 0.0981931 -0.06292655 0.7841425 -0.20959213 -0.67394 -0.11018649 -0.54758793 0.3087827 -0.4320397
356 -0.07340478 0.3089375 -0.7184567 0.33006904 0.21974358 0.6079285 -0.66381156 -0.6094194 0.84226006 0.23171325 0.17935348 -0.07798102 0.5200681 -1.5407113 -0.014079795 -0.60975 0.37929296 -0.012166901 -0.7357785 -0.11974144 -0.19599748 -0.0676204 -0.04894273 -0.13809362 0.16173066 0.30338725 -0.6569341 -0.064469464 -0.78097826 1.052467 -0.34901643 -0.56459796 0.011957267 -0.48316938 -0.2706994 -0.8465116 -0.44504914 -0.40733746 -1.1180146 0.058013573 -0.46768406 -0.59635997 -0.039219238 -0.023152895 0.093938604 -0.25276977 -0.39332747 0.051545773 -0.23546673 0.25190017 -0.25438538 -1.0056112 -0.044817828 0.25075492 0.079285376 -0.5556775 -0.343206 0.18649934 0.26927054 -0.44840282 0.5298911 -0.5697412 -0.037266847 -0.14662148
222 -0.7942141 0.41925713 -0.6836046 -0.2723524 0.6558725 0.11019059 -0.5441975 0.0978606 0.010311401 0.50845635 0.1649605 0.45593438 0.41417816 -0.36316997 0.632335 0.15002312 -0.59208405 -0.38200805 -0.3129452 0.019882992 0.014148888 0.12003534 -0.27733636 0.15460306 0.23958126 0.03626618 -1.1781037 0.08718856 -0.8186928 -0.3890906 -0.48407248 -0.3873105 0.35762906 0.25263306 -0.3358798 -0.16935855 -0.6369651 0.122612536 0.49989837 -0.10098296 -0.061389823 -0.28210938 -1.1622983 0.3440354 -0.31059068 0.19613943 0.5182045 -0.48994383 -0.48529875 -0.20305723 -0.81345284 -0.72054434 0.72026366 0.068702355 0.17900974 0.112189576 -0.28738213 0.30095837 0.093685366 -0.14089215 -0.45960876 0.23763853 0.42214608 0.08034205
536 -0.14008799 -0.08731197 -0.23825538 0.20149033 -0.4659646 -0.0505264 -0.11271586 -0.5996321 0.31919295 -0.2041225 -0.36734647 0.21901934 0.3967835 -0.37163177 0.14172944 0.18155026 -0.60716 -0.84722143 -0.199845 0.2079635 0.086382985 -0.11164442 -0.28591138 0.5317384 0.17899807 -0.43579268 -0.2982605 0.24052213 -1.257405 0.36350855 0.057839952 0.2991058 0.09836685 0.041993286 -0.2815002 -0.018462852 1.310327 0.251787 -0.34588045 0.1199478 -0.35252655 -0.46959162 -0.3589853 0.79170007 -0.02079157 0.056961995 0.59228945 -0.18203527 0.11120594 -0.22086136 -0.22430228 -0.28782877 0.072162025 -0.3532191 -0.6579978 -0.18888935 -0.8906945 0.16951066 0.1052423 -0.5079415 -0.011140517 -0.39784524 -0.62942004 0.19816093
962 -0.46155074 0.80707747 -0.2566574 -1.022726 -0.18517911 0.10225433 -0.07399896 0.6567435 0.19430615 0.38430348 0.19471288 -0.34592324 0.42724282 0.72419304 -0.10701573 -0.044041477 -0.43355533 -0.25978547 0.35579056 -0.319337 -0.39668676 -0.10764796 0.21604314 -0.68497044 -0.72581446 -0.05812372 0.59313095 -0.7502257 -0.88644063 0.80137265 -0.084246576 0.3340454 -0.26461712 0.048835356 0.096262746 -0.56143796 0.19358425 0.32889044 -0.059301723 -0.10845973 -0.07317169 -0.10314739 0.077769704 0.94178087 0.16185257 0.8273442 0.35939372 -0.50834996 0.22481367 0.17848396 0.83074707 -0.47927827 0.89111423 -0.3187101 -0.1899844 -0.11547014 -0.4796358 -0.39193097 -0.2033292 -0.5908977 -0.24294692 0.044968795 0.49983913 0.017895
562 -0.38175988 0.056579642 -0.22140396 -0.6857861 0.5885344 -0.06552196 0.21242085 0.24197158 -0.37567723 0.4117155 -0.052948885 0.282188 0.6621536 -0.068759166 0.45323297 -0.2104176 -0.32603553 -0.07687885 0.45174116 0.26245672 0.1453495 -0.38118196 0.53486824 0.13897003 0.017033996 -0.54806876 -0.20126534 0.13366874 -0.5556636 0.74238056 -0.57665384 -0.21795066 0.28333208 0.12499972 0.19588311 -0.3145262 -0.0023933328 0.797719 -0.047041606 0.21793467 -0.42522535 -0.30690438 -0.08499624 0.3996404 -0.4232081 -0.38317367 0.42531136 0.5370764 0.46642795 0.45706633 -0.7759155 -0.14796546 -0.46330437 0.27719605 -0.682805 -0.5293529 -0.06671289 -0.381543 -1.1615993 -0.5329963 0.38091707 -0.3710669 0.47660366 -0.17573982
302 -0.40375736 1.0773267 -0.25269228 -0.46439952 -0.22126636 0.12687165 0.0344174 0.67479277 -0.15947957 -0.23499526 -0.2571062 -0.2744939 0.715441 0.40583542 0.53436476 -0.17488503 -0.21651319 -0.6681638 0.9527831 -0.2575036 -0.17019749 -0.08413753 -0.08399622 0.016191088 -0.50200325 0.21360962 0.23088382 -1.0358251 -0.74131054 1.0477425 -0.6909358 -0.38985673 0.008249217 0.2261235 -0.17296937 -0.3399361 0.327234 0.14284311 -0.636161 -0.21214655 0.008690861 -0.32544276 -0.4189069 0.438826 0.35313314 0.49315584 0.49881548 -0.7278554 -0.48013145 0.15292916 0.042038918 -0.53339005 0.26204795 -0.21811478 -0.26548675 -0.3757334 0.13903964 -0.911641 -0.034405712 -0.029047633 0.046212573 0.097288094 0.067818716 -0.33840925
446 0.29030475 0.89156246 0.3579724 -0.39348623 -0.19236979 -0.00029931567 -0.25063333 0.27706555 -0.5432973 -0.20317373 -0.18057758 0.2523149 0.13105376 -0.44025084 -0.020504488 -0.16141985 0.7197002 -0.3105077 0.27211976 0.293841 -0.12345289 -0.032649525 -0.34634948 0.48641264 -0.05310769 -0.30591044 -0.29157004 -0.23883107 -0.8751605 0.934418 -0.65076727 -0.4266838 -0.21523018 0.2873867 0.14948069 -0.0875974 0.24238944 -0.14808257 0.45578885 -0.009713579 -0.59117854 -0.67417264 -0.24234077 1.0699942 -0.541947 -0.55973136 -0.07787627 -0.01603762 -0.23353305 -0.14374027 -0.0051733553 -0.10726553 0.26132095 -0.82413995 0.97814864 -0.38911226 -0.23125318 -0.6480904 -0.28756654 -0.0026233576 -0.43858507 0.19361688 0.06085364 -0.16468823
576 0.30279127 0.22087355 -0.318311 -0.4946285 -0.16908018 0.031708222 0.15286632 0.61704206 -0.57133114 0.48208675 0.27956566 0.5226411 0.4050594 0.20156205 0.64208955 0.06074673 0.06443931 -0.4040332 0.17998861 0.35887963 -0.85325736 0.026835365 -0.1397512 0.35050836 -0.7758118 0.2527065 0.020779027 -0.6610724 -0.60538846 0.009021384 -0.9964665 -0.89355296 0.30753496 -0.28917468 0.5521627 -0.37735167 -0.095056005 0.24984886 -0.93715495 -0.28343546 -0.28053585 -0.485415 -0.55440295 0.5871127 0.1652202 -0.9293609 -0.19883886 -0.38099056 0.50023717 0.36774963 0.17858614 -0.62943804 0.2062937 -0.17801188 0.28481078 0.3719625 -0.618728 -0.052946854 -0.04412463 -0.79409546 0.28091055 -0.093959495 0.018716257 -0.3151028
325 -0.4354657 0.25693488 -0.047244962 -0.9131816 0.7259981 0.082809776 0.16780166 -0.11973196 -0.41620094 0.57895917 0.058766242 0.5763579 0.5192832 0.27263588 0.88805735 0.09650992 -0.11281353 -0.37083477 0.6619874 0.34975326 0.24315946 -0.47474882 0.4469036 0.28425294 0.36148652 -0.10327998 0.023008507 0.04315893 -0.97769 0.38720754 -0.4398733 0.059765212 0.74148095 0.22087888 -0.11132771 -0.52817905 0.017525598 0.2043058 -0.34385782 0.3119622 -0.827943 -0.49094662 -0.3395803 -0.30875936 -0.18137257 0.28000653 0.4620166 0.0688965 0.028823154 0.10108285 -0.92515725 -0.3462705 0.2920231 0.21497247 -0.08526816 -0.6902321 0.487341 -0.45361757 -0.60605645 -0.15831448 0.06325497 -0.2858667 0.10006239 -0.5700249
1563 -0.34849843 0.38108692 -0.64118934 0.2215101 -0.060203273 -0.22834136 0.00047587056 0.4260032 0.16155308 -0.25815904 0.31894672 0.27206528 0.067556635 0.021612944 0.72427046 0.36804038 -0.48400915 -0.52467406 -0.11489307 0.917753 -0.22191451 0.31659487 -0.20692196 -0.20737787 -0.25260925 1.1530855 -0.42719126 -0.4269275 -1.2342541 -0.100730255 -0.8327975 -0.19930711 -0.043594312 -0.2042361 -0.5922332 -0.86792094 -0.440827 -0.11339875 -0.17912307 0.10461119 -0.94809884 -0.17372184 0.10504512 0.96997577 -0.6246349 -0.35378352 0.6878834 0.2606429 0.01504768 -0.5269278 0.4236846 0.6725448 -0.1663724 0.004068666 -0.22605059 -0.20669451 0.011831357 0.19927524 0.40794936 0.10536151 0.2376118 0.16064064 0.3261304 -0.29308587
