4994 64
1737 0.15738162 -0.107483886 -0.052423727 0.21610606 0.39510685 0.048640277 0.0045119883 0.07750041 0.3186924 0.021924134 -0.43973055 -0.47499335 0.314307 0.17227963 0.20473616 0.2807865 -0.03342091 -0.042625654 -0.30011427 -0.1837041 -0.21610776 0.18984678 -0.3380324 -0.2258531 0.07480778 0.34128633 -0.15576039 -0.26422137 0.26360908 0.26913482 0.17675741 -0.07256688 -0.2784178 0.26787627 0.35920468 -0.25371683 0.113399506 0.6755791 0.18759966 0.15746242 -0.40271378 -0.12338441 0.45126525 0.5161094 0.22611597 -0.14385672 0.44394055 -0.19410811 0.61941487 0.11335551 -0.0012673317 0.18358214 0.11900198 0.36858797 0.32478222 0.053602234 0.12384859 -0.02765558 -0.36057287 0.1520613 0.12877828 -0.046933275 0.10781908 -0.60826707
58 -0.12725696 -0.023056356 0.63400626 0.25618923 0.5003512 -0.24461056 0.18191889 -0.5563776 0.33695212 -0.22145683 -0.32382405 0.0889459 0.17072113 -0.015612524 0.71261036 -0.026358033 -0.2447277 -0.4360941 -0.5303157 0.29664567 0.20938379 -0.52975667 0.26122668 -0.10523712 -0.55566204 0.032169525 0.3048658 -0.37234423 0.016330693 0.025011063 -0.30565363 0.15175664 0.22359703 -0.005303219 0.19863701 0.0117552895 -0.2631346 0.41081077 -0.1595512 0.65673953 -0.027455023 0.015336406 0.0087927235 -0.004628017 -0.010428089 0.058146585 0.17462339 0.34847358 -0.068288215 0.21556571 0.19124356 0.008520858 -0.14079063 -0.44969097 -0.2749143 0.19692715 0.37010357 -0.13585319 0.37168527 -0.008594392 0.5084931 -0.023966728 0.14534424 -0.3652971
84 0.0071989694 0.02793294 0.13167141 0.8193991 0.77414834 0.26780468 -0.03268467 -0.47057432 -0.08590729 0.28946593 0.19431303 0.14654882 0.44845477 -0.17850246 -0.14913212 0.08805952 -0.3443531 -0.19176762 -0.017093329 0.07387559 0.33946747 -0.3897731 0.08856339 -0.27792695 -0.62302744 0.06944406 0.4364518 -0.15098287 0.17008355 0.3660213 -0.15258682 0.29338226 -0.026009882 -0.3032706 0.044736363 -0.14886126 -0.23394679 0.26594186 0.0846873 0.06735229 0.2669386 0.29555246 0.2739959 -0.16687028 0.36036655 -0.019550668 0.630876 0.5660817 0.17097361 0.12936388 -0.08328358 0.31508785 0.08925724 0.2277402 -0.023712667 0.93940604 0.20143032 0.14262798 0.08490463 -0.11328799 0.4496891 0.4500209 0.101414576 0.06352407
61 -0.12817982 0.12857543 0.037649266 0.55724746 0.38223732 -0.19567108 0.30695754 -0.028122347 0.26554498 0.35105595 -0.17274208 0.029724715 -0.035542328 0.07880937 0.22704546 0.6018968 -0.03870715 -0.31655264 -0.22333513 -0.29412833 -0.27225417 -0.40360153 -0.55363876 -0.2636474 0.17346734 0.29039076 -0.2529525 -0.5398098 -0.73198515 -0.020610573 0.31557631 -0.2782248 0.020660382 0.28070226 -0.016806463 -0.34984204 0.45811978 0.4714337 -0.3076199 -0.3449713 -0.27763346 0.3340685 0.44882604 0.17534558 0.10614625 0.33476216 0.3398497 -0.10959869 0.10359733 0.23855197 -0.29164958 0.052433357 -0.36966455 0.20821615 -0.11746973 0.30074242 -0.0021853496 0.039662816 -0.06365876 -0.064524986 -0.13424902 -0.31244022 0.36409584 -0.6806702
1742 0.31232405 0.007346228 0.25043833 0.7244237 0.6259318 0.48372546 0.3038516 -0.49664533 -0.18464614 -0.22368838 -0.22228886 -0.033531472 0.025320377 0.29158145 0.42657867 0.40517884 -0.022320429 0.06374882 -0.3490704 -0.2444993 -0.20557173 0.32515776 -0.24225149 0.0950657 0.19734442 -0.18713981 0.056473836 -0.56462795 -0.142051 -0.17636831 0.49705577 -0.5555734 0.29902405 -0.20488729 -0.031820785 -0.04760291 0.40534908 0.62386805 0.28146097 0.33020738 -0.108491994 0.39946005 -0.23677716 -0.2600693 0.27502885 0.12506013 0.50304955 0.068997025 -0.13029455 -0.42416131 -0.2963954 -0.008451882 0.35410044 0.024764366 -0.5725343 -0.0025161337 0.29809594 0.012710286 -0.19135672 -0.06719186 -0.24540554 -0.05426418 -0.011089384 -0.26163542
1 0.37994346 -0.026004303 -0.18371016 0.6105827 0.2534122 -0.26949564 0.10115157 -0.4771773 0.072055176 0.21674763 -0.26415333 0.18720227 0.03234351 0.19418295 0.15152395 -0.38867092 0.5824468 0.1501861 -0.60995585 0.38963503 -0.23284931 -0.14946641 -0.016344368 -0.5352601 -0.16321689 0.23140186 -0.2553294 -0.38957196 -0.295327 -0.037635036 -0.03968588 -0.2038387 0.49137777 0.4063915 -0.28640836 -0.49454886 0.072127104 0.33624697 0.110989556 0.17568274 -0.39978474 -0.26916528 0.51336515 0.14708881 -0.1488745 0.40797755 0.037785973 0.39908105 -0.043495186 0.38600832 -0.3076488 0.4131945 0.6805422 0.32729205 -0.05986837 0.20403181 0.13475521 -0.07803218 -0.43547666 0.04962268 -0.24430306 0.40817857 0.2082445 -0.4346615
1740 -0.20675895 -0.0049417773 0.17670898 1.0751182 0.4372562 0.12923466 0.24847347 -0.17024723 0.3903468 0.39373863 -0.30267435 0.0072248825 0.0023790835 -0.008318799 0.13941182 0.3919974 -0.34615284 -0.43317643 -0.5500606 -0.2073661 -0.6744409 0.2095772 -0.45422637 -0.35565934 -0.080284454 0.2790905 0.04622676 -0.43728608 -0.47152913 0.03499226 0.4149323 0.020165535 -0.15369532 0.28334048 0.19935633 -0.2698307 0.12761846 0.34319055 -0.15198463 -0.114965 -0.07161539 0.22919697 0.43143415 0.28066832 -0.06940248 0.26606336 0.11892584 -0.3565856 0.14259873 0.19228157 -0.42719942 0.39982527 0.23232108 -0.03255284 0.30433333 -0.36535034 0.048223104 -0.19263045 0.18200146 -0.37831655 -0.13541283 -0.11034866 0.010385432 -0.36375484
7 0.46103916 0.040412586 -0.13578969 0.54590887 0.04325255 0.13435408 -0.071839385 -0.73354656 0.41051856 0.14537637 -0.38069597 -0.30149242 -0.14424181 -0.11741932 0.12816307 0.46563366 0.37460837 0.102212064 -0.61118674 -0.45793205 -0.56519115 0.032205768 -0.109316446 0.073616676 0.38714257 0.40405577 -0.029178431 -0.5958123 -0.35152337 0.41682485 -0.29174343 -0.017012224 0.00031967353 -0.26554704 -0.13570419 -0.007029782 -0.36318287 0.077105805 -0.02622744 0.23289655 0.044824082 0.107210875 0.5325888 0.039318744 0.22772048 0.35786262 0.026858177 -0.17283382 0.098824665 -0.039895654 -0.33380476 0.057949334 0.2795567 0.15190695 0.07854093 0.14240438 0.3726955 0.3312949 -0.75313246 0.27639937 0.11884372 -0.12506594 0.3667187 -0.53271735
5 0.20012514 -0.6183739 0.38732564 0.1079802 0.49293837 -0.0924527 0.29253384 -0.20348372 0.14701368 0.5754828 -0.58094907 -0.07737849 -0.101646945 -0.31045794 0.13782473 -0.032640923 -0.13748375 -0.104236096 -0.55373204 0.20467983 -0.44301668 0.19571602 -0.96366864 -0.11059608 -0.40877193 0.14616515 -0.12366079 -0.4765019 -0.5215107 0.37227756 0.026122654 -0.15593596 0.018324366 0.4586605 -0.09248213 0.0736912 -0.11144914 0.050455626 -0.045297056 0.1492012 -0.13682958 0.45548487 0.36709735 0.12844923 0.4575248 -0.0066100094 0.06805428 0.09747884 0.09073116 -0.034844898 -0.48867735 0.06208292 0.028881483 0.7164988 -0.13822675 0.1814303 0.19471966 0.14447595 -0.48603103 -0.35865998 -0.23366474 -0.19064276 0.13706611 -0.5458932
67 0.22936025 0.16020387 0.13955879 0.8457481 0.20475519 -0.037398625 0.118692145 0.026261859 -0.10802266 0.09239027 -0.72412074 0.074062996 -0.44275418 -0.068821855 0.25826094 0.22035968 -0.36421195 -0.12613243 -0.31903172 -0.17407875 -0.6658356 -0.22755615 -0.42172116 0.016599689 -0.18430872 0.2684303 -0.15605506 -0.54457456 -0.4700016 0.2375569 0.57044446 0.077803634 -0.4144495 0.16773906 -0.13014635 0.0065801954 0.03399132 0.4344341 -0.28599185 -0.23497528 -0.34670466 0.32155135 0.38624632 0.18310732 0.4970224 0.43385553 0.15567169 -0.108122855 0.2391896 -0.27432498 -0.35778996 0.06221338 0.31716505 0.053738676 0.201953 -0.15948409 0.4898921 -0.3770428 0.033494387 -0.30719844 0.08978491 0.26079372 0.39316505 -0.41093585
68 -0.13400505 -0.19794692 0.26216826 0.64924407 0.29775462 -0.07762693 -0.40385947 0.071569845 0.3982014 -0.061890215 -0.40578306 -0.3733032 0.03733676 -0.39505982 0.21634299 -0.21078971 -0.31942707 0.22903904 -0.14226311 -0.3711384 -0.52755725 -0.46661124 -0.2901654 -0.20733869 -0.26350528 -0.107452445 -0.104442894 -0.4465188 -0.4308223 0.2426154 0.26835632 -0.36068928 -0.13847935 0.021499315 0.058544915 -0.410208 -0.10586072 0.57391024 0.49131063 -0.040691253 -0.24452138 0.089377955 0.40449855 0.042880114 0.12477409 0.29001683 0.51375777 0.2858429 0.3845268 -0.069039226 -0.085369945 0.18645571 0.30830497 0.65539914 0.34478727 -0.26287356 0.25820416 -0.44829383 -0.19980836 -0.020485803 0.057017952 -0.43781886 0.24635442 -0.60928756
62 0.062475838 -0.23132755 -0.3054835 0.515489 0.35439044 0.27347976 -0.18822263 -0.4429149 -0.42257562 -0.26870748 -0.032203663 -0.16996741 -0.080518834 -0.25449538 0.092885315 0.13136669 0.15827775 -0.46691468 -0.1652754 -0.0046756887 -0.3380453 -0.3061278 -0.26828727 -0.028695654 -0.20988463 0.038670342 0.020131478 -0.6137021 -0.43642816 0.17564256 -0.58257395 -0.3416269 -0.21733485 -0.11319292 0.5295808 0.04156665 0.016424304 0.3758299 0.029731333 0.2839553 -0.75157416 0.23375121 0.5662594 0.09566599 -0.0092111435 -0.3101443 0.10843534 -0.19719101 0.3793067 0.26044264 -0.37580872 0.5499969 0.4970807 0.45288214 -0.3529093 0.042737633 0.18419966 -0.07981024 0.2953303 0.31129777 -0.6672886 0.39033267 0.038494196 -0.70255244
1788 0.08134279 0.3088002 -0.13526641 0.6097903 0.43311286 0.3258369 -0.029113792 -0.13130604 0.38637578 -0.12780896 0.02023758 -0.2498055 -0.4995182 0.18750623 0.5059834 0.23794985 0.15200278 -0.34087288 -0.816952 -0.37551707 -0.57044965 0.22900996 -0.08781773 -0.135575 -0.5660079 0.5556525 -0.080178455 -0.6057319 -0.38978988 0.65867805 0.00051581394 -0.3765001 -0.3268085 0.34941477 -0.286535 -0.06750247 -0.2577938 -0.0032087201 0.18134482 0.103940025 -0.106667094 -0.10882386 0.4504488 0.27715382 -0.06884577 0.38561964 0.3358737 -0.04350667 0.21594913 0.42800364 0.14417359 0.017890338 0.4749566 0.30468097 -0.1893849 0.22360274 0.06676953 0.2389494 -0.5594828 0.028925117 0.08517007 -0.33580196 0.14420135 0.14716136
6 0.37295502 0.25935912 0.1936007 0.6286758 0.30354187 -0.15518448 0.43685967 -0.3546413 0.3941142 0.087079294 -0.57871944 -0.3351276 -0.29249072 -0.34940284 0.023749812 -0.13207078 0.06958717 -0.19228095 -0.44777802 0.30666643 0.24094556 0.014146821 -0.7510257 0.27057585 -0.09965393 0.41827655 0.3739064 -0.21578874 -0.33373228 0.22674604 -0.02465789 -0.2223336 0.16466337 0.20583571 0.23352964 -0.10031755 0.055358995 0.5453114 0.11246419 -0.2184243 0.13050759 -0.1149521 0.5859536 -0.26460063 0.16798006 0.29901838 0.32877544 -0.049393535 0.61584455 0.0837031 -0.38626203 0.5536654 0.19551282 0.15575282 0.1495742 -0.2629046 0.04727799 0.56784075 -0.29311958 -0.36084282 -0.80107206 -0.1252911 0.52184266 -0.33170983
64 -0.26939484 -0.14920531 -0.012341476 0.7239413 0.66635615 -0.18338697 -0.25593567 -0.32531288 0.057174295 -0.0051652 -0.37389407 0.001370784 -0.36296237 -0.5443281 0.1380782 -0.099157654 -0.063126974 0.18813962 -0.44432455 -0.18527602 -0.4508895 -0.47288504 -0.5377527 -0.42826492 -0.46056768 -0.23173793 -0.15701671 -0.5474051 -0.5246067 0.42224208 0.6066573 -0.0072471485 0.11711299 -0.49270782 0.2581251 -0.39711067 0.054473303 0.600122 0.03565751 0.0010423913 -0.16902938 0.047614697 0.59997463 0.0220001 -0.0034077817 0.3043808 0.44021302 0.21359324 0.10063936 -0.12779792 -0.30789036 0.24114634 0.008771622 0.3038418 -0.093923695 -0.16000094 0.06668944 -0.09967265 -0.06463838 0.16176485 -0.28476998 -0.72519326 0.3021223 -0.2893481
69 -0.11819058 -0.08464271 0.07277734 0.43416777 0.5372667 -0.23881678 -0.15080036 -0.49496424 0.2702529 -0.19054464 -0.33825245 -0.008028953 -0.28506252 -0.5434319 -0.035300717 0.067518204 -0.18797211 0.4715365 -0.44682792 -0.05176241 -0.5935974 -0.54910445 -0.5017708 -0.3388231 -0.14464802 -0.08999737 -0.146588 -0.58290064 -0.43160883 0.27071837 0.42625722 -0.21153454 -0.045906022 -0.13677719 0.1476567 -0.07623827 0.04093606 0.48203292 0.3716954 0.10386759 0.028974473 0.011065751 0.8323833 -0.13011056 0.08146485 0.18081062 0.53260654 0.4150565 0.20054363 -0.18380278 -0.58792496 0.21887988 -0.19559133 0.3046629 -0.023257634 -0.19363303 0.025071755 -0.10447877 0.076385155 0.08891575 -0.16658947 -0.77887076 0.37639555 -0.43100595
66 -0.013130785 -0.1653633 -0.065685675 0.5299713 0.5419038 -0.04601152 -0.07222834 -0.27014437 0.32589078 -0.23950174 -0.42237547 -0.14818414 -0.2404497 -0.7511799 0.18292078 -0.033753347 -0.3907541 0.30424753 -0.41129827 -0.0315613 -0.3097771 -0.5891666 -0.6431221 -0.90642345 0.06451826 -0.26861036 -0.03625432 -0.47377032 -0.727355 0.23806411 0.4044628 -0.0525131 -0.18558358 -0.32267928 -0.0051412582 -0.19328211 -0.002181517 0.56124383 0.3951677 0.1631611 -0.20832853 0.043452013 0.6883473 0.019895695 0.044473466 0.095176846 0.57849646 0.08934669 -0.15189289 -0.24990427 -0.35915673 0.40798968 0.21823229 0.33312768 -0.1432768 -0.34094235 0.15270677 -0.08881324 -0.106039345 0.09920489 -0.08411812 -0.47084385 0.2891004 -0.15385145
1808 0.86850214 -0.17062071 0.12572017 0.38033754 0.26945984 -0.04806932 -0.12324185 -0.29004455 0.18130918 -0.09186661 0.36077508 -0.4213298 -0.39007396 0.18175548 0.6174345 -0.5175433 0.072565734 -0.4306469 -0.8833417 -0.007684984 -0.12612455 0.3220132 -0.4274477 0.0011884136 -0.42306104 0.4348856 0.15601318 -0.6013319 -0.42467844 0.372117 0.63809144 0.20594373 -0.028027667 -0.30865726 0.084074035 -0.11464944 0.12611818 -0.14120874 0.0012636181 -0.23412459 -0.49235857 0.04687135 0.537559 0.04082639 0.3461421 -0.026089536 0.29472166 0.33743998 0.4035707 -0.1917043 -0.76166886 0.44529614 0.026548797 0.2118909 0.1977681 0.29622853 -0.015249237 -0.30789867 -0.16663806 -0.04685648 -0.13536921 -0.07194222 0.6681558 -0.17680481
3 -0.36445117 -0.65472066 0.17218769 0.5289404 0.34456518 -0.09156943 0.25091764 0.23083879 0.15300688 0.24237901 -0.29931098 -0.013875287 -0.6063383 0.21899596 0.46060666 0.20019636 -0.16451886 -0.31329358 -0.61283565 -0.22446787 -0.70590633 -0.11536724 -0.54334295 -0.058787018 0.18294401 0.35723555 0.15460941 -0.59005505 -0.34916395 -0.23533727 0.14238264 0.36965796 0.15453215 -0.1317144 -0.6222187 -0.30398968 0.060599953 0.29126 0.67779046 -0.06087185 0.27279952 0.041133042 0.45740917 0.12034956 0.69844717 -0.21529824 0.61950034 0.07353379 0.17722191 0.41807288 -0.62560016 0.5473107 0.23325035 -0.18628132 -0.22905055 -0.039011654 0.44324514 0.050627496 -0.0044792015 0.36073384 -0.5172294 -0.08430604 0.3173272 0.09058084
15 0.108080104 -0.30130944 0.5625743 0.48837373 0.18773437 0.7003156 0.35748202 -0.6948611 -0.57178175 -0.24342175 0.27825806 0.2377041 0.3686409 0.3064989 -0.038414754 -0.3475714 -0.52448213 0.33223176 -0.3753063 -0.12885913 0.13644767 -0.5088418 0.05008109 -0.13068558 -0.7348078 0.06111943 0.16670756 -0.5887837 -0.5934357 -0.23287413 0.52252406 0.62897813 0.30628705 0.3319248 -0.50427294 0.3348746 -0.09926244 0.46040618 0.06977325 0.26083362 -0.4479319 -0.10256047 0.6233476 0.32539216 -0.2266382 0.25454804 -0.094792336 -0.37745878 0.58103836 0.06328967 -0.61799574 0.08906674 -0.03080389 -0.06690097 -0.4562398 0.04524973 0.7695853 0.021899853 -0.23498069 -0.6078757 -0.0411571 -0.097081155 0.3344855 -0.6990053
60 0.34988117 0.25650266 0.5779472 0.62832963 0.38441882 -0.0115638 -0.5235116 -0.0941936 0.50203323 -0.13854694 0.10349017 -0.11148039 -0.638711 -0.44782686 0.15394978 0.02041509 0.040293675 -0.36950436 -0.6265898 -0.16235664 -0.50134706 -0.48529875 -0.76488197 -0.3400273 -0.2599335 0.11967292 -0.43461967 -0.742499 -0.25390437 -0.0342591 0.19144176 0.1697901 0.347823 0.16513987 -0.08177762 -0.25261244 -0.2104116 0.9429911 0.57973266 -0.29783678 0.14270869 0.4584848 0.13362883 0.45029563 0.18924043 -0.50167686 -0.04687015 -0.05241444 0.34830597 -0.18496841 -0.32211354 0.51598775 -0.2252791 0.23174232 -0.09072992 0.011507205 -0.2073336 0.17588453 -0.37123963 -0.005862499 -0.08291077 -0.27081054 -0.22770402 -0.2590391
70 0.44886494 -0.24959451 0.0778881 0.39890385 0.46526265 -0.17032036 -0.11852436 -0.50671357 0.56126976 -0.48696208 -0.37355006 -0.088651426 -0.3707351 -0.51725376 0.17914222 0.32902223 -0.4449497 -0.22009623 -0.6287723 -0.14008015 -0.18265206 -0.44049025 -0.49470493 -0.6958519 0.0426592 0.37024164 -0.00659598 0.009400028 -0.5603426 0.28091267 0.35770053 -0.21446362 0.018585665 0.054100033 0.19191872 -0.650509 -0.5591997 0.493524 -0.18476209 -0.34434918 0.24447471 -0.10929135 0.16339037 -0.08814946 0.08801463 -0.523803 -0.3418824 0.081531584 0.34184477 0.2927491 -0.22966301 0.09266651 0.7821931 -0.080496535 -0.52560097 0.2866836 -0.016529338 -0.3773712 -0.03781919 -0.1866711 -0.22970864 -0.27984977 0.8446085 -0.335782
1748 0.5966 -0.2554416 0.26000273 0.48722586 0.68506664 -0.21250993 0.14779156 -0.24167977 -0.35418057 -0.007226212 0.032740805 -0.032358926 -0.62054 -0.3925615 0.07572462 0.22254403 -0.4562288 0.17479543 -0.59638053 0.57853085 -0.1675625 -0.45111868 -0.29061854 -0.52250797 -0.003072923 1.068153 0.012529432 -0.40409625 -0.11067762 -0.36791888 0.12771584 -0.09830947 -0.04447407 0.21597472 -0.52808523 -0.12724641 0.16004296 0.67290187 -0.3973226 0.0137529215 0.18562998 0.5438371 0.35690874 0.01359083 -0.16387676 -0.23821697 0.7153689 -0.40207142 0.6952815 0.18952027 0.71138346 0.2809674 0.491666 0.3923418 -0.20965564 -0.084936425 -0.48116645 0.0059451517 -0.3909699 0.20702267 -0.0703435 -0.41672352 0.050799675 -0.41545898
65 0.40880832 -0.20563087 0.19046316 0.49662113 0.11974803 0.1796574 0.22607957 -0.91205907 0.44744053 -0.24811988 -0.10999217 0.09740102 -0.30782172 -0.6343077 0.092626795 0.2734323 -0.3889398 0.091933176 -0.89295363 0.053045295 0.07154076 -0.34980094 -0.3137786 -0.5362195 -0.114830025 0.41604173 -0.26578853 -0.02744921 -0.21029504 0.37409756 0.58874583 -0.30839172 -0.4035024 0.27298722 -0.39747182 -0.70990866 -0.30924588 0.71698684 -0.3499392 -0.28581995 0.05411467 -0.08470881 0.41598365 -0.045559287 0.42043757 -0.13000253 -0.18846774 0.05228396 0.34431425 -0.059424583 -0.5593084 0.093382865 0.722158 -0.046696126 0.23349527 0.62835723 -0.29872587 -0.25243616 0.08183889 0.1595108 -0.660191 -0.39708 0.39665955 -0.13178955
63 0.43806663 -0.110629626 0.20771027 0.52558225 -0.019465506 0.15274824 0.38445485 -0.9077198 0.42501107 -0.19088818 -0.40231425 -0.005788164 -0.098235525 -0.53454983 0.019997818 0.2775607 0.02233988 0.0012395045 -0.7537168 0.15538703 -0.13438194 -0.59740067 -0.2524221 -0.53438956 -0.51125383 0.34414548 -0.21894857 -0.05399948 -0.520108 0.43947572 0.4049764 -0.6451873 -0.17719825 -0.008348252 -0.1780594 -0.48547938 -0.2698366 0.3027826 0.18453503 -0.4506091 -0.11480895 -0.05959245 0.13799286 0.20096003 0.44544917 -0.41088396 -0.21414228 0.13139543 0.59221077 0.16323358 -0.59531564 -0.24353391 0.6846723 -0.175058 -0.2352052 -0.026217015 -0.1370197 -0.6007811 -0.17057742 -0.354825 -0.22773552 -0.6301281 0.37951264 -0.26491618
16 -0.23899059 -0.25464964 0.3459162 0.22064675 0.7467243 0.21153301 0.5001521 -0.7690788 -0.17319164 0.08871939 0.09639325 -0.25765595 0.13071994 -0.21368231 0.0008114657 -0.38113964 -0.5756322 0.021696756 -0.18110661 -0.7632699 0.17248172 -0.47114083 0.3041759 0.105179876 -0.44410846 -0.14538178 0.086506344 -0.002258064 -0.5076175 -0.41095906 0.76957476 0.57101864 0.24692269 0.073344156 0.0777056 -0.023193622 -0.034576666 0.588905 0.01235981 0.67810917 -0.22994539 0.20109378 1.1645645 -0.04699342 -0.21463323 0.051030032 -0.47779244 -0.3043407 0.52921736 0.6966913 -0.5930082 0.061024044 0.22704737 -0.19090672 -0.5612327 0.17914718 0.23526601 0.35390285 -0.51532274 0.13862191 0.41946068 0.17533645 0.48350626 -0.557248
4720 -0.054710615 -0.040561255 0.22920121 0.56474257 0.78500116 -0.09903469 -0.1717497 -0.4945025 0.0540485 -0.56441224 -0.31467828 -0.94936776 0.36834142 -0.2710246 0.4006529 -0.32724914 -0.1931377 0.11396484 -0.80742645 -0.49467573 1.1281304 0.11879888 0.29562858 0.36878017 -0.06335022 -0.15220001 -0.10593556 -0.8856537 -0.31726518 -0.34409332 0.0839508 0.26744634 0.010519825 0.1932975 -0.9118614 0.078242995 -0.047360513 -0.4307206 -0.07900595 -0.22159493 -0.13619661 0.2617294 0.20886913 0.01697953 0.50668865 -0.0033837676 -0.056697924 -0.11055623 -0.046865843 0.27175623 -0.30377814 0.93588185 0.3876391 0.26743683 -0.6649242 0.51054615 -0.4141153 0.652734 0.416321 -0.34252995 0.23929042 -0.69233686 -0.16114166 -0.51539576
80 0.42219839 -0.36682117 -0.74247307 0.29452702 0.9661473 0.41128916 0.089098625 0.054396067 -0.4121001 -0.17738633 -0.4768094 0.2225654 0.29390603 -0.050112076 0.44569796 -0.5138431 -0.4746662 -0.8278923 -0.6463561 -0.71152407 0.5688923 -0.44104764 0.29922754 -0.43840745 -0.3350687 -0.09509045 -0.64588255 -1.3994066 0.39358348 -0.21045834 -0.082900286 0.2538746 0.42100888 -0.24351004 -0.78975236 0.078263484 -0.51133645 0.19185874 0.14890449 0.34565026 -0.31286204 0.05011232 0.29716069 0.095289305 -0.079498634 -0.37189916 -0.064004004 0.556765 0.19738573 -0.19673665 -0.10839467 0.7345854 -0.2645539 0.19558564 -0.21490455 0.019557407 -0.053347632 -0.011959442 0.007659843 -0.32970065 0.00094606384 -0.74310833 0.1032827 -0.64551437
115 -0.032463923 -0.18059506 -0.4240072 0.121188805 0.032703813 0.46671623 0.50284994 -0.08419596 -0.19427006 -0.41185018 0.22871336 0.1731941 -0.5777904 0.3826225 0.32136688 0.5817817 -0.28507918 0.28382838 -0.34195423 -0.022503212 0.5730092 -0.7534945 -0.30317652 -0.16365846 -0.18577072 -0.4988181 0.8568526 -0.9498079 -1.2928983 0.11610547 -0.51010454 0.19227426 -0.11454697 -0.13141674 -0.71116143 -0.10683545 -0.1617325 0.40310887 0.82790554 0.16153003 -0.10121356 -0.28140897 0.111095086 0.7947717 0.9401262 -0.32298514 0.33003944 0.12724248 0.13492629 0.32148957 -0.33625105 0.16878727 0.21049823 0.41241583 0.20669687 -0.14327793 0.19024546 0.16117035 -0.14777796 0.24098049 0.485556 0.56437707 -0.1898386 -1.0072235
145 0.24360278 0.46889648 -0.16068397 0.6214832 -0.0036625972 0.34544098 -0.22237723 -0.93602 -0.04503174 -0.26022744 0.19648209 0.14122912 -0.6516051 0.08785333 0.16893113 0.1886796 -0.58689886 0.17269321 -0.53647304 -0.4458127 0.25835496 0.16689724 -0.2398683 -0.06531504 -0.3808633 -0.10974868 0.9056342 -0.28920296 -0.03176286 -0.36388823 -0.50530434 0.5305404 0.20338167 0.2415168 0.369774 -0.06463202 0.35697562 0.6473838 0.62470305 -0.42813805 0.39984018 0.20109273 0.5945588 0.30725268 0.0088757295 0.31011128 -0.28632006 0.7870436 0.3156204 0.96170425 -0.4162504 0.5482946 0.06799027 -0.05614273 -0.7291846 -0.19128108 1.1875486 -0.05005204 -0.8040113 -0.37806976 0.2364752 0.03728333 -0.222416 -0.05823928
4681 0.29007205 -0.32766524 -0.13582623 -0.16630244 0.92613393 0.64324284 -0.028927935 -0.3999052 -0.24293506 -0.4113298 -0.237212 -0.44276008 0.35052603 -0.18570587 -0.7466388 -0.18554743 -0.107722804 -0.5361401 -1.2173263 -0.08070812 0.009376457 -0.34738967 -0.3461924 0.17970943 0.4007233 0.1152013 0.25272653 -0.29812732 -0.5025911 0.12449892 0.098876424 -0.5005615 0.29811656 -0.59739035 -0.53280765 0.057404533 -0.4202852 0.6149039 -0.45177713 0.22733223 0.23392355 0.21585993 0.50074697 -0.119099565 -0.12428333 -0.2630456 0.29998067 0.21117575 0.6234024 0.6527333 -0.6740107 0.014935706 0.063522235 -0.114029974 0.104043014 -0.7753213 0.49717036 -0.25644943 0.0163636 -0.771246 0.67669296 -0.14594708 0.021266412 0.44277942
12 -0.26249668 -0.18056662 -0.0136573585 0.7070217 0.6188164 0.6612108 -0.032527342 0.11860218 -0.4583894 -0.25459978 -0.2712404 0.50926 0.19061866 0.4106454 -0.061072603 0.6112388 -0.66123164 -0.3519416 -0.94569427 0.45845768 0.32306537 -0.04505813 0.2794808 0.048590474 -0.23320259 0.22024561 0.30180874 -0.47967517 0.20432647 0.20330879 0.011761769 -0.13735768 0.3036595 0.22861025 -0.27008066 0.5066554 0.4145328 0.4996289 0.48054928 0.33918408 0.08485094 0.68683505 0.3722046 0.4373671 0.07641561 -0.21820134 0.11686628 0.48707047 0.9887786 -0.7990959 -0.4133037 -0.3786988 0.79187655 -0.13398051 0.43530634 0.007512487 -0.39661607 0.1721949 -0.39695188 0.3941802 0.8094703 0.3188737 0.3916433 -0.5641745
4692 0.11639128 0.044830613 -0.3310366 0.12577865 0.8741066 0.5124514 0.5312723 -0.32300895 -0.20910108 -0.13066809 0.3038755 -0.3945236 -0.19571039 0.23425631 -0.09587439 -0.48275504 -0.23392038 0.028452793 -1.1849754 -0.21215995 -0.3520539 -0.06885247 -0.23989037 -0.16960312 -0.18545353 -0.73962647 0.10835171 0.39339355 -0.22251202 -0.33418152 -0.20446183 -0.06366338 -0.1373556 -0.2471484 -0.326564 -0.09996975 -0.012471834 0.85528815 -0.8551213 0.48406664 0.36713463 0.026433123 0.15484233 0.113673165 0.6635269 0.37096745 0.97575265 0.29741645 0.25718823 0.60765857 -0.16078883 0.040655524 0.08341811 -0.14281708 -0.19580339 0.7907609 0.58583194 -0.9236428 -0.14877683 -0.5226556 -0.21729136 -0.06876137 -0.0123365875 -0.2845109
114 0.18380389 0.93743736 0.06536031 0.47533855 -0.039991528 0.32443878 0.5552459 -0.5308892 -0.005933918 0.09712552 -0.69644094 0.0970758 0.5466908 0.40279946 0.65029544 0.3901576 -0.7407206 0.21785715 -0.37674657 -0.4461908 0.053370174 -0.003870955 0.10011457 -0.2139354 -0.5638743 0.078070104 0.2198114 -0.71723545 -0.70009965 0.37093374 -0.04664765 -0.36734822 -0.19040048 -0.32902384 -0.7494745 -0.39977786 0.2002043 0.443048 1.0496527 0.8620983 0.32871893 -0.15926038 0.112586096 0.3347264 0.1425025 -0.09376175 -0.25181648 0.28775984 0.06500679 0.34128347 -0.5699481 0.28592205 0.18511157 0.12099479 0.25747734 0.50782806 -0.71737087 -0.36087614 -0.12116968 -0.2519285 0.08654713 0.6287209 -0.16388741 -0.42766944
116 -0.42221627 0.13676089 0.10115708 0.49812543 -0.39591622 0.26690698 0.023970762 -0.8133337 -0.016641904 -0.019105805 0.06447986 0.28521073 0.036308814 -0.23901011 0.32779065 0.37107626 -0.7883238 0.5479493 -0.13813373 0.3913758 0.10790774 0.0417334 -0.2342386 -0.05077218 -0.29082268 0.054055355 -0.060239505 -0.85203886 -1.1168098 0.43866512 -0.15840034 -0.4642974 -0.15562448 -0.31167006 -0.61035985 -0.24839836 -0.66321987 0.43232676 0.059622526 0.44263935 -0.14544304 -0.63321215 0.0032199952 0.17203818 0.4246831 -0.12821694 0.42519042 0.06396729 0.3447798 0.52458775 -0.19897819 0.4567619 -0.18574315 -0.1665385 -0.16383745 0.270833 -0.48227894 0.22520226 -0.64802825 -0.60762155 0.7037312 0.4750767 -0.25506517 -0.8952269
4679 0.42236105 0.21670105 -0.72359157 0.1570523 0.7349671 0.38790753 0.326015 -0.07186833 0.24465944 0.38432565 -0.9643901 -0.52597934 0.018995538 -0.62530696 -0.069950104 0.06762672 -0.37076256 -0.044253845 -0.35045815 -0.3022741 -0.25509703 -0.13826239 0.17616518 0.2549239 -0.28473788 0.39289764 0.012490276 -0.115804374 -0.3031784 -0.2973506 -0.445403 0.002206267 0.79552925 -0.8760446 -0.7973883 -0.5016479 -0.2235296 0.78202844 -0.14862554 0.46775252 -0.24762082 -0.35295275 0.21655488 0.34752068 0.3305422 0.07342062 0.26330972 0.5582108 0.5505559 0.30941162 -0.5563462 -0.28880706 -0.0937681 -0.13800463 0.20717481 0.43220204 0.65707326 -0.17488246 -0.18046573 -0.25393456 0.13508669 -0.087499365 -0.4029674 -0.80554074
124 -0.6138761 -0.3541227 -0.10013432 0.5318032 0.6670372 -0.38496923 0.2553332 -1.2617784 0.29357913 -0.7131461 0.03861704 -0.10299133 -0.49806395 0.16073559 0.042288166 0.6451442 0.17337006 0.065531604 -0.9361721 -0.3308831 0.025333244 -0.26282436 0.28358412 -0.37410396 0.23405746 -0.7512988 1.1778303 -0.123075455 -0.20441893 0.17288351 0.026992738 -0.15684368 0.27016795 0.34460896 -0.6069555 -0.09134744 -0.72421193 0.5345316 0.08359559 -0.3816193 0.4315506 -0.3529705 0.5708503 -0.13449281 0.025813969 -0.30868268 0.37448192 0.07689343 0.65147537 -0.20232783 -0.29827896 -0.45377168 0.08860378 0.8195703 -0.35753515 0.1973928 0.21834557 -0.0114874495 0.13094676 -0.11380506 -0.13069233 0.1421666 0.042183127 -0.34532893
4672 0.29866636 0.10505734 -0.71002406 -0.017867804 1.0457482 0.2510593 0.50814253 0.061526112 0.22594266 -0.37398013 -0.18879448 0.33161247 -0.09474826 -0.9109596 -0.33923945 0.1914721 -0.6785555 -0.20353979 -0.7081012 -0.31301907 0.113458544 0.17353983 0.11862755 0.22749582 -0.16577165 0.708686 0.5124668 0.057114556 -0.57155836 -0.37374282 0.30402052 -0.42493394 0.3873665 -0.510113 -0.2873515 -0.5129907 -0.10276691 0.6254299 -0.24558942 0.8398049 -0.23559925 0.6102461 0.37816998 -0.024099896 -0.364592 -0.22758408 0.31571582 0.0003065261 0.17158769 0.5705717 -0.3737376 0.008553446 0.3539019 0.108982734 0.2548594 0.56510574 0.5281865 -0.41602072 0.016622357 0.17240635 0.3263037 0.39273134 -0.19421268 -0.27665558
4673 0.040314008 0.2262572 -0.18550727 0.20022331 0.9459866 0.30440137 0.14397824 -0.27247345 0.07734618 -0.1994745 -0.8403505 -0.30820256 0.29784447 -0.78059936 -0.19252926 0.1755192 -0.009204829 0.091844484 -0.59143984 -0.5669186 -0.04429234 -0.48624238 -0.44736835 -0.29230702 0.10368203 0.18205427 -0.369919 -1.0028404 -0.4573945 -0.23204985 0.10572107 0.302651 0.56098574 -0.3839394 -0.76123214 0.4203338 -0.060652703 0.036978558 -0.8666622 0.13203411 0.06448527 0.1279162 0.22589448 0.1851591 0.22134782 -0.37187743 0.84375113 0.6505111 0.32570556 0.45717743 -0.6650999 0.2861008 0.49966615 -0.6603071 0.31763977 0.42009535 0.20061535 -0.6660339 -0.25114733 0.2718812 0.30880937 0.52593756 -0.8068465 0.04101728
4911 -0.14929567 0.104885876 0.14964779 1.1023052 -0.02942074 -0.03274402 0.026951084 0.21944922 0.16840778 0.2571508 0.49900874 1.0145673 0.2913866 -0.2963426 0.27403527 -0.15904322 -0.6401519 -0.3682775 -0.4999464 -0.05521852 0.26850125 -0.03574955 0.068813086 0.37865576 0.40302843 0.53459543 -0.40284288 -0.066265225 -0.24063003 -0.013251488 -0.17953748 0.101410456 0.5082725 -0.35327855 -0.21046837 -0.34069532 -0.15605165 0.3010515 0.27862734 0.4365166 -0.7130898 0.455484 1.0169816 -0.4389839 0.5200487 0.29719412 -0.13227683 0.5855913 0.69271326 -0.2126219 -0.28964543 0.26865676 0.5293233 0.49417293 -0.7644623 0.004743472 0.25105608 0.033653576 -0.14068483 -0.12528287 0.07425152 0.011300954 0.94804966 -0.20711511
117 0.21537498 -0.12930553 -0.23091118 0.7980277 0.18166003 0.35363108 -0.30722952 -0.2615724 -0.16296127 0.13073374 -0.21547343 0.36538202 -0.37991005 0.071499996 0.6833828 0.9402074 0.03187908 0.08487359 -0.8396864 0.13461389 0.108232774 -0.47643638 0.05521293 0.32063994 -0.25809246 -0.38507503 0.6468747 -0.35795584 -0.8469536 -0.022148624 -0.2203945 -0.09801075 -0.4888611 -0.29762653 -0.74179333 -0.51224446 0.05840325 0.6388347 -0.3823985 0.2122387 0.08118661 -0.80652285 0.119307384 0.42216095 0.7805319 -0.5700357 0.27317798 0.55429393 0.46607888 0.033604912 0.132399 0.66498095 -0.45917195 -0.2990181 0.3928742 0.26636034 -0.16628192 0.061498195 -0.4843604 -0.52405345 0.29172134 0.34765765 -0.65050393 -0.14268495
21 0.048583176 0.8149565 0.42002872 -0.35107225 -0.083043285 0.50653386 -0.064812325 -0.13827002 0.15067422 -0.40498263 0.039488763 0.12255878 0.68921065 -0.19980425 0.14783132 0.40596718 -0.52913195 -0.5933369 -0.14901341 0.27773365 -0.04297082 -0.3340401 -0.22178346 0.9069215 -0.094086945 -0.067557104 0.33078545 -0.45143828 -0.34302548 0.17807204 -0.27814692 -0.29627004 0.027940718 0.11540819 -0.6957096 -0.35936347 -0.10664085 0.992708 -0.21997197 0.3496415 -0.31199735 0.49213004 1.323593 0.25489807 0.031787377 0.20580451 0.5560527 0.46518603 0.2688549 0.011599052 -0.59151703 1.0667613 0.77736384 -0.10934862 0.1016559 -0.08027465 -0.24144468 0.5758456 0.29943323 0.38047945 0.15768485 0.38666835 0.68880993 0.5340532
4685 0.030430686 0.29008865 -0.7681572 -0.15962562 1.1851902 0.2688702 -0.38592282 0.2464185 0.06482068 -0.36406237 -0.13775758 0.2072689 0.36961523 -0.104324915 0.40191084 0.01908509 0.100128934 0.18457387 -0.6844806 0.02980848 -0.12411654 0.24700387 -0.59433264 0.2680896 -0.49273363 -0.3775628 -0.06463925 -0.42820716 -0.6530488 0.566015 0.5258709 0.0267368 0.5621794 -0.28418916 -0.64722216 0.2619127 -0.15796284 1.019753 -0.43473583 0.14194918 -0.5140637 0.39307538 -0.33021677 -0.23110247 0.5239684 -0.41927606 0.3106159 0.15577006 0.25424668 0.9922623 0.19150501 0.26524264 0.036689486 0.8991397 -0.21089822 0.24862939 0.555924 -0.638925 -0.35615215 0.25266346 1.0002556 -0.11067818 0.030606847 -0.14351474
4762 -0.75199425 -0.5845456 -0.3300265 0.30883312 0.05382965 -0.16705585 0.43474397 -0.108007915 -0.5696643 -0.39813817 -0.6641114 -0.33889005 -0.010052759 -0.41909423 -0.2624519 -0.4151967 0.030057194 -0.32240146 0.07403652 0.02306661 -0.14270534 -0.30739236 0.45532593 -0.204399 0.046394154 0.25888982 0.6036552 -1.1445634 -0.6409941 -0.16035469 -0.025617942 0.46865585 0.0699419 0.26706028 -0.056737375 -0.5380474 -0.18699218 -0.0018304243 -0.053247023 0.4426418 0.36614594 -0.29652217 0.9955163 1.0248333 0.22025715 -0.10620822 0.21828647 -0.027870268 0.77692425 0.12547383 0.3918988 0.39224523 0.15055609 -0.18208289 -0.2815504 0.69005173 0.14495505 -0.0109758405 -0.040926896 0.07799011 0.6884505 -0.3087269 0.02932077 -0.51222926
4682 0.37919828 -0.028812038 -0.5880751 0.0564042 0.6593879 0.20495652 0.19452596 -0.75428265 0.29611447 0.30845153 -0.7067543 -0.11877446 -0.12019595 -0.34702888 -0.15581624 -0.3559219 -0.780644 -0.10623815 -0.37723774 -0.26643077 -0.030341646 0.14708875 -0.27642798 0.023043226 -0.4412785 -0.10473554 0.18105562 0.20380487 -0.6580179 -0.18877694 -0.018514488 -0.23764731 0.4882201 -0.17755142 -0.9648611 0.42564914 -0.5271728 0.8832572 0.1850979 0.63647354 0.31488588 0.24285544 0.23275357 -0.18848774 0.015493143 0.23974311 0.525075 0.23103078 0.52531004 0.5671706 -0.36115143 -0.019582732 0.4836898 -0.22339436 -0.020720309 0.41915214 0.62956935 -0.18756837 -0.353658 -0.009019809 0.32339442 -0.40265688 -0.3914706 -0.13186508
4675 -0.11345796 0.34479016 0.08265544 0.5847039 0.42793524 0.9697627 0.25827244 0.027154272 -0.015320052 -0.3515392 0.16801111 0.02641095 -0.37541854 -0.7553867 -0.49510947 -0.41311783 0.4079135 -0.54824305 -0.34702647 -0.09123269 0.1965168 0.22705711 0.25020146 0.019208014 0.10343628 -0.31548488 0.18772352 -0.6122961 -0.8229069 0.46961868 -0.27403653 0.19126308 1.2755414 -0.2846696 -0.06752509 0.28503585 -0.13749054 0.90181476 -0.34854016 0.4213533 -0.25479126 0.22121805 0.5266362 -0.26461497 0.7885524 -0.43161142 0.41766915 0.4161738 -0.03162312 0.3066052 -0.38849673 0.28364784 0.16277836 0.0035631554 -0.10835584 0.33713433 0.098082565 -0.573666 0.09067184 0.062479805 0.60841024 -0.65659094 -0.38405874 -0.3422086
4730 0.474062 -0.49319926 -0.46846193 0.25446257 0.42236984 0.3434353 0.40315947 -0.5035757 0.8538298 -0.6578653 -0.19750601 -0.13011748 0.29282472 0.09195677 -0.32725763 0.3953171 -0.5457886 -0.15394898 -0.42321464 -0.47150347 0.23991795 0.07743451 0.05657152 -0.049286626 -0.93070734 -0.03755541 0.08953344 -1.1074337 -0.3926987 -0.10218179 -0.026971621 -0.15051477 0.6091826 -0.3989974 -0.010518456 -0.42557216 0.35046425 0.015270235 0.550538 0.11327035 0.44317573 -0.083303906 -0.14284594 -0.10300044 0.48961785 0.2711955 -0.06414674 0.23626433 0.7190265 0.31588984 0.24022885 -0.6090205 0.52726406 -0.08700446 0.38350722 0.16415782 -0.14079499 -0.07656443 -0.12524387 0.90563464 0.39451292 -0.23278213 -0.017523436 -0.22246517
4696 -0.21632063 -0.023887888 -0.33186066 0.37182486 0.2721049 0.68778414 0.04637347 -0.50130385 0.35830694 -0.77914876 -0.21271582 0.039305285 0.19589005 0.14614983 -0.22237113 0.26978013 0.11935618 -0.19269246 -0.9419199 0.106246024 -0.120613575 -0.4683776 -0.7209183 -0.088129 -0.62977535 -0.33494428 -0.107930385 0.04575473 -0.14709933 -0.25022376 -0.16361894 -0.711996 0.90145123 -0.7243856 -0.27537757 -0.46086115 -0.26141092 0.3097121 -0.47502038 0.3573547 -0.54207104 0.12356426 0.68882483 -0.29949412 0.37497848 0.11191817 0.4540537 0.25628892 0.5221107 0.5469386 -0.4542385 -0.34017345 -0.10615416 -0.031302385 0.48384696 0.10972193 0.70397854 -0.9228124 -0.2961069 0.1571978 0.49699295 0.16498575 -0.17152256 -0.1694922
4668 0.35759228 -0.14119983 -0.09835517 0.37102777 0.84259266 0.3409622 0.2688606 -0.31772518 -0.44267842 -0.1967284 -0.32019377 -0.15915723 -0.061838828 -0.53070056 -0.6620156 0.30787593 -0.112815976 -0.16884574 -0.41944623 -0.8548728 0.08171271 0.07238752 0.41156155 -0.04605849 -0.24418463 -0.049091294 0.481974 0.056645267 0.15989478 0.16414982 0.15449335 -0.38279805 0.7295684 -0.235898 -0.052352026 -0.45065188 -0.14668123 0.51854664 -0.12095235 -0.42876396 -0.7433808 0.60461503 0.274047 0.39187866 0.20902981 0.39699838 0.23245294 0.30431524 0.35996127 0.8216054 -0.30802506 0.3339467 -0.22149017 0.21510379 -0.5910045 0.58486825 0.21289866 -1.2793083 -0.19231105 0.05852408 0.6629217 0.323642 -0.25812438 -0.1877405
1896 0.46528977 0.340419 0.5373342 0.33767265 0.1961356 0.4543286 1.0159452 -0.2656811 0.50974023 0.059002496 0.8877377 0.13828509 -0.27307832 -0.59705836 0.13356274 0.40090275 0.5644937 0.07731265 -0.8161304 -0.3081912 0.20386876 -0.501385 -0.1844889 -0.26738802 -0.54283714 0.057338122 -0.1683298 -0.6314609 0.36629573 0.2486344 0.15390588 -0.52107966 -0.47603223 0.38758954 -0.5638588 -0.001151652 -0.32041633 0.22537754 -0.41052008 0.18038101 0.30667618 -0.07129489 0.353973 0.8826391 0.66850674 -0.5567839 0.23757601 0.5717021 0.038232576 0.15228634 -0.48084092 0.3531715 0.56351954 0.06435038 -0.3110786 -0.24957563 0.5406755 0.24315108 0.42305392 0.1546331 -0.25203395 0.24797376 -0.43755984 -1.0401064
113 0.23956786 0.4569277 0.3415491 0.7255102 0.22940297 0.33420113 0.51686 -0.5819567 -0.7021007 -0.23654087 0.19178951 0.7247618 0.14352302 -0.30118895 0.40608072 -0.037060644 0.25111645 0.5456424 -0.43871498 -0.3838801 0.16436328 0.07536716 0.36807182 0.64758396 -0.6813989 0.46230027 -0.03601342 -0.19949704 -0.74036986 0.171031 -0.3729849 -0.046132144 -0.44302 -0.559629 -0.6891291 -0.4284054 -0.6413304 0.47979122 0.37571856 0.5617889 -0.024903389 0.49620503 0.94542384 0.39214274 0.6699591 -0.33025265 -0.1577091 0.42219833 0.11377727 0.045476124 -0.5176121 0.09340501 0.11048803 -0.26625264 0.48804802 -0.27987486 -0.23400274 -0.16950162 -0.19903773 -0.9352023 -0.16482753 -0.13393977 -0.15433295 -0.75099456
4688 0.29045656 0.49128708 -0.29640198 0.24116273 0.9139905 0.20519972 0.48346734 -0.5371732 0.010194272 0.35663548 -0.7685842 -0.27668718 0.10688966 -0.34361696 -0.07092309 -0.08116763 -0.63551235 -0.07092009 -0.6359676 -0.13297038 0.21633849 -0.1342618 -0.03802395 0.16450216 -0.5758748 0.34829605 -0.61813265 0.28204754 -0.07640739 0.13623731 -0.09011445 -0.34333885 0.8622442 -0.36491275 -0.4004013 -0.2229642 0.011383901 0.6768409 -0.2625707 0.063517496 -0.10555077 -0.5575765 0.53649986 0.63778764 -0.30048817 -0.69293016 1.0636536 -0.37500364 0.29801807 0.35738656 -0.50427973 -0.05544993 0.34386796 0.30942982 0.14440893 0.18724936 0.8331568 -0.25172174 0.22557628 0.2691057 0.54003376 -0.54788625 -0.8508672 0.2963014
4683 0.328097 0.4567347 -0.042756837 0.4325667 0.18830942 -0.27031398 -0.025165109 -0.1620321 -0.20843503 -0.25698653 -0.21464896 -0.33437353 0.18959217 -0.52946997 0.085029386 -0.2602167 -0.21911865 -0.5099652 -1.0146313 -0.29337808 0.5381019 0.07737643 -0.67404586 0.662514 0.01608195 0.3764232 0.09169258 -0.21938774 -0.40717787 0.040470704 0.044527307 -0.103802055 0.47112492 -0.35818332 -0.64366347 -0.0939469 -0.36502823 1.0557997 -0.2670261 0.2534154 0.13159494 -0.172489 -0.03927361 -0.36261252 -0.014955518 0.3449368 0.23787867 0.00068691955 0.14597173 0.32237124 -0.050282583 -0.4547817 0.68783724 0.32810652 0.44845968 0.51126117 1.0934557 -0.13196065 0.35847935 -0.026911676 0.18047401 0.030154342 -0.49917826 -0.47145516
4759 -0.6069711 0.2846992 0.57406914 0.44609433 0.11631041 0.632411 0.9021472 0.02494669 -0.41369078 -0.25233123 0.015956072 -0.23568527 -0.028667113 -0.41236177 0.06286419 -0.22084296 0.3065293 -0.20639238 -0.66298544 -0.2652443 -0.5305342 -0.37693515 0.28132415 0.14445868 -0.74933 0.19655876 0.79134196 -0.96221614 -0.29396915 -0.036458373 0.27861235 -0.20145436 0.035003882 -0.092933826 -0.0021523428 -0.54468757 -0.367691 0.5228686 -0.28828773 -0.18273176 0.09227529 -0.23505947 0.6232326 0.06545214 -0.30637777 -0.48821545 -0.08719423 -0.6907341 0.5250716 -0.5124682 -0.009355143 0.19289525 0.3665834 -0.34384376 -1.0931221 0.44170535 0.7504754 -0.008606035 -0.08738359 0.041109867 0.42607382 0.12768202 0.09196917 -0.25146353
4773 -0.4295433 -0.19817036 0.18936132 0.46107942 0.44520736 0.6615163 -0.10022619 -0.8708554 0.47036985 -0.18346977 -0.26501858 0.016471742 0.12007095 0.5298877 -0.18673316 0.28511608 -0.71469957 -0.14347808 -0.7782967 -0.23019744 0.32592514 0.032499377 -0.24780393 0.237815 -0.46688604 -0.11243503 -0.4540284 -0.7065513 -0.14466453 0.60210705 0.53813607 -0.56294066 0.105952725 0.31006497 -0.644237 -0.0461659 -0.086224064 0.29372227 -0.023877539 0.279134 -0.108693816 -0.15736051 0.6812401 -0.51423955 1.0412706 -0.033001903 0.26217103 -0.2848557 0.821189 0.2896687 -0.42473492 -0.35778338 -0.09722059 0.017026022 0.040691867 0.17516205 -0.59319925 0.6854907 -0.38503394 0.11976469 -0.1016286 1.0097113 -0.8532985 0.052651063
4678 0.06940469 -0.10742077 0.2707107 -0.12152093 0.43648815 0.49307573 0.48672965 -0.6150367 -0.00463152 -0.2492756 -0.54184324 -0.8565032 0.13905087 -0.31648132 0.040926374 0.0283011 0.07324821 -0.9245599 -0.62938035 -0.2706143 0.08237559 -0.14255103 0.29886004 -0.030853525 0.06114327 0.4253301 0.25026459 0.08719808 -0.6713944 -0.51370156 0.38622373 0.047408585 0.37627113 0.036301132 -0.37398803 -0.22100891 -0.32497534 0.66035044 -0.108969375 0.44330877 -0.43068293 0.19064659 -0.03947552 -0.23048058 0.18944044 0.23476748 0.5571604 0.59356064 0.43572304 1.1463047 -0.7653865 0.13063946 -0.060728755 0.61983085 0.04418383 0.0033664727 0.14519495 -0.8349205 -0.6594453 -0.3501434 0.20094906 -0.13202497 -0.5370356 0.15044747
4971 -0.21391582 0.3602041 0.40165126 0.37791213 0.52951556 -0.101319775 0.052306466 0.10760963 0.21033199 -0.714624 -0.13537063 0.29332346 0.24827476 -0.0049774772 0.5007954 -0.06770538 -0.65139323 -0.025898855 -0.44916221 -0.039330155 0.4472385 -0.07995173 -0.32824278 -0.3529782 -0.0851382 0.8227478 0.09739031 -0.04205765 -0.30883062 -0.20584449 -0.6832093 -0.6074086 -0.22599398 -0.61671215 -0.52626187 0.9594722 0.19104844 0.024472529 0.19050103 -0.38389808 -0.008157343 -0.50674665 0.36439124 0.66622806 0.18275493 -0.36348364 0.07533318 0.064761475 0.710691 0.3722564 -0.5651601 0.13449024 0.2854703 0.261977 -0.7555875 -0.22013435 0.83564633 0.33352625 -0.98682994 -0.043181654 0.79210496 -0.043235462 0.6819465 -0.6154465
4697 0.11156103 0.483967 -0.049516182 -0.2417466 0.28268525 0.23009303 -0.5634789 -0.4222216 -0.056159806 -0.6755761 -0.84433335 -0.21210307 -0.07820924 -0.30149412 -0.19278924 -0.63782626 -0.3162442 0.087431766 -0.9265634 -0.47117808 0.19374105 0.24332751 0.2682223 0.6066567 0.11180978 -0.033593368 -0.18774682 -0.23728392 -0.520284 -0.03883082 -0.0017103021 -0.17244098 0.7077155 -1.1671625 -0.46299654 -0.36906698 -0.28852543 0.5284349 -0.596423 0.3775832 -0.34658974 0.75713265 0.12831989 0.39720157 0.5169463 -0.21384296 1.2125239 0.0592783 0.28402403 0.6617444 -0.048060983 0.5086252 0.58690983 0.43908903 0.057220582 0.20456636 -0.35114706 -0.48646668 0.1068568 -0.3474999 0.10215039 -0.18572702 0.22870487 -0.57627827
4677 -0.12807903 -0.07226915 -0.028838947 0.20167427 0.88366437 0.41796514 0.45158112 0.34217238 0.20398685 -0.30610493 -0.12068537 0.6309216 0.21861038 -0.2868316 -0.39070615 0.06252599 -0.07747086 -0.5724322 -1.4043468 -0.6964811 -0.1770854 -0.3946862 -0.053291865 -0.17911626 0.16262515 -0.15687129 -0.44856963 0.04880822 0.1995542 -0.43678522 0.31679314 -0.28547102 1.0696539 -0.17919557 -0.71536595 -0.034417324 -0.30022478 0.34743693 -0.35016388 0.27354944 0.0517991 -0.007657301 0.21127827 0.11105132 0.18750459 0.10487314 1.1196688 0.55540067 0.081863545 -0.06723381 -0.5718672 -0.07585615 0.45642653 0.68729305 0.25560468 0.23613462 0.3584383 -0.23008724 -0.28455794 -0.29900998 0.40294996 -0.07139392 -0.58548635 -0.7328439
4770 0.6991955 -0.047866266 -0.18105626 0.11903204 -0.012173497 -0.6657263 -0.101799585 -0.57400054 -0.10118385 -0.56694436 0.35435787 -0.6635828 0.8478912 0.40401575 0.023536952 0.3187917 -0.7673427 -0.48929378 -0.488971 -0.15394004 -0.0043313364 -0.5665069 -0.6457382 0.18430471 -0.34972367 0.5773004 0.7758638 -0.1632656 -0.25999373 -0.41363508 0.4746934 0.08055736 0.06441277 0.26385066 -0.0625925 -0.5064272 -1.254906 -0.00076962716 0.25884122 0.10188828 -0.19766004 0.08461599 0.5806031 -0.5960651 0.6444078 -0.46437228 0.23728943 -0.05088904 0.23658672 0.053843044 -0.19198288 0.8342578 -0.37517893 0.44009498 -0.49920252 0.29668298 0.2954773 -0.050660513 -0.3711545 0.055618208 -0.37521657 -0.21906707 -0.54429746 -0.19681802
4676 0.088070765 0.34567237 -0.45808673 -0.057541933 0.82062924 -0.056339934 0.48930594 -0.71653795 -0.592235 -0.3582959 -0.49491277 -0.057658136 0.40093866 -0.23409167 -0.031757664 0.14432643 0.49158326 -0.4103494 -0.6150815 0.07626284 -0.49480623 0.4778469 -0.09110181 -0.09711155 -0.05066877 0.44332156 -0.025048904 -0.02187698 0.068821356 0.43278795 0.34779948 -0.66349065 0.46218333 -0.21854524 -0.79450357 0.017656837 -0.8400502 0.04058582 0.23602031 0.7935259 -0.012699587 0.36310774 0.36562017 -0.30484667 0.5672979 -0.34668112 0.3476581 0.872518 0.4947248 -0.115660615 -0.58874077 0.030028412 0.20046322 0.01871498 -0.34466073 0.44872475 0.42079827 -1.1074529 -0.17414165 -0.27094066 0.4290401 -0.10010364 -0.23163538 -0.37496886
4684 -0.037361372 0.89138395 -0.06857845 -0.03814185 0.7806492 0.24677712 0.5264567 -0.65373725 0.1770836 -0.48736537 -0.4346404 -0.5063415 0.31449264 -0.56597143 -0.74553525 -0.73957956 -0.2171923 -0.71593916 -0.81579953 -0.5233991 0.04651296 -0.13320008 -0.5166034 -0.39545968 -0.025973458 -0.041992784 0.06042169 0.119719006 0.10579391 -0.69896615 0.2382637 -0.22993752 0.15687849 -0.7489689 -0.11952748 0.2800003 0.122052 0.5128775 0.046317004 0.49311876 -0.46940324 0.113740526 0.2548942 -0.004177366 0.56526905 -0.09319131 -0.022641111 0.77085656 0.63524073 0.5106888 -0.53089374 0.33279026 0.14655931 0.58098817 -0.114875205 -0.04036241 0.25904745 -0.20340565 -0.11727839 0.71741575 0.46548095 -0.033189148 -0.45819888 -0.46559128
4670 -0.37585416 0.015103211 -0.31076202 -0.015334888 0.29822668 0.1879247 -0.4319862 0.08238441 -0.0397357 -0.61169255 -0.53769594 0.22568624 -0.37734258 -0.62684274 -0.20110993 -0.21159926 0.012888922 -0.33757186 -1.1772497 -0.75152755 0.5616591 0.35146168 -0.103691936 0.13818163 -0.59433913 0.54554284 -0.04235776 -0.22597857 -0.08603231 -0.5029688 -0.38063684 -0.5619047 0.2044726 0.1925071 -0.40841419 -0.1960549 0.12354787 0.6233325 -0.14675966 0.45870587 0.17198038 0.2871369 0.4456363 -0.034622986 0.18818027 -0.025452461 0.45901793 0.32070068 0.06885609 0.44735393 -0.6325671 0.26828238 0.078166224 -0.28529322 0.13733783 0.6034503 1.2927594 -0.08391798 -0.38006637 -0.10878653 0.39028472 -0.2617374 -0.7294427 -0.39126372
4689 -0.11130733 -0.23758237 -0.7269538 -0.2993397 0.26079947 -0.074038945 0.18826051 -0.13370366 0.19389227 -0.54624104 -0.63544923 0.46011704 0.056294072 -0.08050242 -0.5453056 -0.1611055 -0.23898637 -0.377597 -1.1648798 -0.41686922 -0.4696933 -0.14815207 -0.49942052 0.27368134 0.1819791 0.2637194 0.38135055 -0.43516475 -0.25044963 -0.057468325 -0.32481948 -0.37790036 0.57193303 -0.33855373 0.40038517 -0.26342857 -0.21807069 1.0714209 -0.2996564 0.47407746 0.2059046 -0.44271955 -0.15623935 0.099390484 0.18320253 -0.14332812 1.0362384 0.70523113 0.19953074 0.6791234 -0.6736982 0.34504318 -0.021159088 -0.12349853 -0.015168018 0.57705384 -0.013874144 -0.6079306 -0.321158 -0.04964209 0.7279374 0.09806337 -0.5303082 -0.1488449
1862 0.41229615 -0.03163084 0.058191948 1.1010187 0.4210746 0.3751083 -0.2145834 -0.08635186 0.16194978 -0.13438655 -0.15703487 0.2581906 0.43734857 -0.05016599 -0.22453825 0.23448347 -0.63882875 -0.8094751 -0.31989965 0.29022092 0.24771342 -0.48136112 0.25171244 0.15705033 0.57728696 -0.35964993 0.17756607 -0.65650904 -0.25498694 -0.4224464 0.31281224 -0.13829793 -0.0143340295 0.19268334 0.35742885 0.45040646 -1.392022 0.09204486 0.4426554 0.16264604 0.12451857 -0.26953667 0.44814438 0.5713194 0.28474024 -0.33911717 0.11791688 -0.39590904 -0.17142306 1.1269962 -0.12910771 0.13094445 0.9001629 0.1522244 0.44875878 0.64372617 0.22071995 -0.074103616 -0.61404955 -0.38730404 -0.4511393 -0.077925906 0.30517206 -0.48212317
4694 -0.19762509 0.38868886 -0.59958404 0.09641484 0.56544554 0.32480547 0.5273783 -0.16915067 -0.069797635 -0.37141988 -0.55046 0.308152 -0.13634212 0.17640628 -0.17178708 -0.10963452 -0.047067627 -0.67967427 -0.7968606 0.09766368 0.5024609 0.0026963882 -0.51133776 -0.2227917 -0.67229515 0.6558974 0.5340436 -0.20656219 -0.09151849 -0.65601605 -0.13982286 -0.34773847 0.8243461 -0.8571279 -0.1482981 1.1457618 -0.1108194 0.7300325 -0.47174716 0.1185595 -0.41691253 0.17256452 0.48640618 0.17507644 0.25536412 -0.008032606 0.47973523 0.1968996 0.5718614 0.62278306 -0.29164296 0.2456054 -0.10289283 0.29201302 -0.48417312 0.25350818 0.3158575 -0.8928933 -0.4540126 -0.90704495 0.29103634 -0.09914445 -0.101148345 -0.008770925
4690 -0.41777542 -0.395232 -0.279284 0.20808458 0.59909326 0.05109657 0.3837456 -0.42456922 -0.42355844 -0.16224031 0.24154139 -0.2130042 0.19718748 0.21659076 -0.60545254 0.001876923 0.047179926 -0.255991 -0.7345315 -0.47604984 0.46967727 0.693569 -0.24254324 -0.075831614 -0.15831473 0.1996312 0.46575046 -0.09854832 -0.24351111 -0.29461163 0.1529829 -0.4172078 0.9359287 -0.3796167 -0.31537834 -0.36665106 -0.45124364 0.43448642 -0.7276046 0.36528134 -0.04063946 0.24655603 0.6003647 0.30653214 0.49658513 -0.10183006 0.22506112 0.4188624 0.41061866 0.636572 -0.67790467 -0.14415336 -0.12215698 -0.050886482 0.048517827 0.47060132 0.03627654 -0.31452048 -0.05620007 -0.002626947 1.1377438 -0.70472395 -0.36930805 -0.3074305
4909 0.49342203 -0.19562538 -0.05670771 1.0104394 -0.24529175 0.17433129 0.6880042 0.19117154 -0.6483622 -0.44280648 0.014758062 0.54147947 -0.48455787 -0.7957956 0.009766374 0.1987166 -0.58985704 -0.2867638 -0.9470752 -0.021333534 0.7400702 0.015165666 -0.13380313 0.13249774 0.49922127 0.5715662 -0.3042515 -1.0543742 0.2541991 -0.3526017 0.00020529014 -0.5226903 0.30592695 0.17110711 0.17386219 -0.04179599 -0.11471219 0.4286679 0.7382494 0.12646805 -0.03764117 -0.37169775 0.40045002 0.12668253 -0.026161103 0.08684396 0.48295665 0.52881056 0.42472205 -0.20433399 -0.30952132 0.49650747 0.12882347 1.033067 0.3913169 -0.36904958 -0.007672105 -0.22508812 0.45647028 0.66118324 0.30025336 0.42601067 -0.12719582 -0.12209605
285 0.056481116 0.08207341 0.16062774 0.25574002 0.17896412 -0.10929693 -0.014085089 -0.76430297 -0.24151184 -0.3974214 0.032693774 -0.44628716 -0.6617984 0.5919958 -0.12707834 0.5632855 0.17124145 -0.6991371 -0.77893645 -0.043064006 0.5040447 0.074964784 0.13597527 -0.30414075 -0.056331728 -0.18883324 -0.06856255 -0.08764462 -0.5685942 0.6637103 -0.006625277 -0.29822728 -0.5081973 0.43205544 -1.2390431 -0.27936092 -0.0855508 0.7417959 0.723899 0.8983365 0.704736 0.43613127 -0.030230587 -0.018730303 0.5638096 -0.16447192 0.45530128 -0.091875255 0.750394 0.54367995 -0.25783595 0.7741989 -0.07193861 0.38488752 -0.20080376 0.007853681 -0.00855464 -0.36740747 0.47109425 -0.012445711 -0.42584965 0.20126654 -0.017821977 -0.38608742
5048 -0.077536404 0.336533 -0.5214085 0.3410599 0.77975315 0.68266946 0.07367111 -0.4895482 -0.09118137 -0.28830725 -0.7478125 -0.0910342 -0.033049725 -0.6674791 -0.41290233 -0.21829021 -0.07798902 0.056074172 -0.86079025 -0.275656 0.1307174 0.16336913 -0.47551832 -0.40207672 -0.056452397 0.39091754 0.15159896 -0.05170836 -0.2993232 -0.3113165 -0.0019378252 -0.15308891 0.89797854 -0.34482896 -0.3895244 0.049248606 -0.42209488 0.76145214 -0.28490856 0.5584068 -0.39839455 0.20220491 -0.13448001 0.07170331 0.5044301 -0.031214876 0.44849312 0.019563708 0.61656797 0.365734 -0.098254055 0.08593761 0.13264303 0.0842314 0.07750147 0.476238 0.51422477 -0.32269728 -0.060265694 -0.07477793 0.7774492 0.059377115 -0.29195952 -0.3307365
4862 0.053536873 -0.2232606 -0.2849671 0.28919765 0.23460005 0.036460552 0.00027416504 0.0406761 -0.46501586 -1.1525468 -0.30677915 0.36357135 0.970817 -0.020390015 0.3753199 -0.43693736 -0.2678101 -0.736676 -0.4387064 -0.57244563 -0.6966838 -0.31732774 -0.1679627 -0.9598136 -0.47570047 0.34158865 0.338757 0.023342798 -0.7547135 -0.0030699002 -0.5002544 -0.35223293 -0.022480784 0.2626849 -0.033775456 -0.60429734 0.12766477 0.48509517 0.098849475 0.6014615 -0.22058463 0.5363667 0.589588 0.36873826 0.103081904 -0.5819696 0.27420342 0.7330769 0.38704368 0.7344417 -0.26417908 -0.2401829 0.19439872 0.22948936 -0.3353114 0.28572035 -0.43428814 -0.54370576 -0.042203784 -0.42497063 0.23736303 -0.066382155 -0.21691462 0.3466961
4899 0.41667855 -0.5365346 0.1557782 0.4700616 -0.43619984 -0.22589129 0.5638921 -0.40621224 0.359105 0.65084106 0.09840076 0.36203098 0.32925043 -0.56728625 0.58336467 -0.33119088 -0.7260251 -0.038784664 -0.30116877 0.074139126 1.1453195 -0.44615373 -0.84928906 0.44086796 0.84104174 0.25477117 0.4851192 -0.5321801 0.18503208 0.57558787 -0.14058095 -0.025793318 0.27662975 0.22251397 -0.68588585 -0.09173512 0.27322438 0.9687416 0.3461814 -0.48880935 -0.5542689 0.47936237 0.93434256 0.21518281 -0.33640426 0.12561391 0.115665294 0.6397294 0.07942482 0.23720053 0.0066547883 -0.108792834 0.28719693 0.6185584 -0.4710098 0.57643306 0.4734328 -0.34967673 0.7644559 -0.16922775 0.46736538 0.42997473 -0.15781748 -0.6883896
4747 -0.24561733 -0.13912064 -0.31384853 -0.28064692 0.31760392 -0.2750615 0.010008993 -0.7569818 0.43980935 0.30453023 -0.118090354 0.3502541 0.3137223 -0.14814521 0.71786356 -0.3727265 -0.19753596 -0.6313247 -0.34396744 -0.1922691 0.48441723 0.04530423 0.0146116605 0.3558366 -0.46574068 0.4461805 -0.2794302 -0.5631635 -0.7681431 -0.396858 0.1416967 -0.12432615 -0.11672117 -0.03188682 -0.5634121 -0.9670628 -0.10310836 0.7489115 0.1547343 0.007158658 0.034690514 0.022474779 0.05281891 0.26957208 0.5987826 0.15880236 0.5451877 -1.1412469 0.30019036 -0.18704517 -0.39008588 -0.4452744 0.1943147 0.3948131 0.067067444 0.3053406 0.5870582 -0.9171042 -0.392193 0.15458123 0.39380723 0.2128323 0.2847717 -0.02913241
4265 0.02980066 0.27352884 0.37307346 0.6498333 -0.41241503 -0.45472318 0.8870619 -0.8244498 -0.2392089 -0.7133517 -0.42224124 0.27572507 -0.10408365 0.027720014 -0.3753654 -0.5980583 0.7042581 -1.0494678 -0.04833328 -0.09197941 0.27238315 -0.49958476 0.32512864 -0.18186074 0.079849645 0.09679967 0.007633153 -0.856073 -0.7924602 -0.095116615 -0.18188222 -0.15615262 -0.15134338 0.40417615 -0.7430752 0.29894292 0.35516787 0.978309 0.2089378 0.36921275 -0.11721936 -0.32304397 0.17926644 0.15913583 0.6108717 0.020353455 0.49157766 0.29762205 0.32421973 -0.2880347 -0.35129836 -0.2544049 -0.28718957 0.9813264 -0.15215236 0.106556565 0.02477335 -0.4155673 -0.1833448 0.13402036 0.2429197 -0.090084955 0.36837596 -0.10608192
283 0.1168252 0.48132756 0.005654321 -0.044330854 0.677904 -0.13122268 0.06893815 -0.9114366 -0.12704124 -0.4418076 -0.5127731 0.25940973 -0.5722954 -0.03170388 0.26713306 0.4884549 -0.2657258 0.043312088 0.3419248 -0.33560866 0.65753305 0.085778445 0.29801482 0.08848547 -0.5056592 0.12964047 0.45578524 -0.40179032 -0.91016454 -0.00013832278 0.1447626 -0.9036209 -0.4289462 -0.11772222 -0.43034202 -0.5956224 -0.2783037 0.35710537 0.40459603 0.47210547 -0.23139453 -0.1741191 0.7443279 0.8408959 0.48197344 -0.49797735 -0.09054228 0.3352407 0.024223657 0.5861786 -0.044258766 0.42132366 0.030639462 0.49602512 0.6009124 0.045138367 -0.26806778 0.052737497 0.1334325 -0.54432774 0.058655694 0.0740376 0.310301 -0.9324292
2789 0.07112385 0.35023344 -0.29174203 0.017940076 -0.17933457 0.46871755 0.78907347 -0.27440697 -0.3341738 -0.23078199 0.10117172 -0.6467401 0.3130238 -0.2580508 0.6650259 0.3202993 -0.8416039 -0.5251939 -0.08999225 0.18742204 0.4161498 0.37587875 -0.096975915 -0.19736478 -0.23795249 0.4384031 -0.18040508 -0.49695298 -0.537168 -0.091704436 0.20980012 0.01962977 -0.117811255 -0.11897563 -0.5096029 -0.08979837 -0.19876345 0.54982245 0.48018008 0.609756 -0.18300185 0.24036348 0.848798 -0.8826543 1.0903217 -0.32030043 0.6923673 -0.47896743 0.17172526 0.6717503 0.16530108 0.25905332 0.32120427 -0.4514977 -0.13042207 -0.3695174 0.054696765 0.47070137 0.31158054 -0.39522204 0.37575635 -0.93872195 0.40773585 -0.34272018
2822 -0.03617918 -0.133733 -0.005218845 0.85217994 1.2442322 0.097194 0.5581016 -0.75332284 0.7547864 -0.61647886 -0.11544239 -0.058549784 -0.4915354 0.23195809 0.33759275 -0.50807065 -0.0034075198 -0.8768357 -0.005369112 -0.104113616 0.19274035 -0.022225533 -0.07553451 0.12295876 0.2749818 0.097395934 -0.3151759 -0.22007766 0.012940539 0.20562942 0.31380302 -0.6214433 0.14905658 -0.25426823 -0.9947596 0.06374174 0.38205096 0.72220385 -0.3534045 -0.1285954 1.0051451 -0.5243624 0.66312224 -0.27317092 0.19918068 -0.41231698 0.42243087 -0.008469057 -0.08443606 0.63649666 -0.14162347 -0.08273183 0.69803166 -0.25284448 -0.37486282 -0.6161423 -0.1324088 -0.51653093 0.06997754 -0.17905104 0.6332161 0.5365378 -0.36233363 -0.2598622
4695 -0.17989276 0.43314505 -0.3926423 0.42686865 1.0354844 -0.21335396 0.11183559 -0.10917383 0.13404651 -0.64995 -0.49704835 0.24943008 -0.028323123 -0.25732332 -0.96038526 -0.1486964 0.5669048 0.057642493 -0.34362713 -0.4274821 -0.07255798 -0.06734836 -0.43777668 0.45736668 0.10350398 0.12692928 0.2369313 -0.091555014 -0.56397617 -0.46959063 0.11173371 -0.5191778 0.43386394 0.23177741 -0.31362304 0.18055344 -0.7188402 0.95500594 -0.37629354 0.62556005 -0.6286516 0.120051995 0.5370691 0.60628605 0.61209726 0.047952462 0.33555874 0.5703229 0.5720928 0.7085022 -0.13577211 0.13903594 0.60268533 0.13953228 -0.13380094 0.41201872 0.30999544 -0.14886926 -0.39431626 -0.6187018 0.043320823 -0.22126341 -0.36442766 0.17128602
4944 0.5854125 -0.18232879 -0.140746 0.5805672 0.53031325 0.30536547 0.07688694 -0.6608348 0.30242863 -0.35108343 -0.026307667 0.37383953 -0.2850161 -0.47171944 0.10332273 0.84390104 -0.1002064 0.008534721 0.12113686 -0.37274894 0.11786785 0.36975303 -0.28530073 0.014845991 -0.13380107 -1.2106045 -0.40814754 -0.98102236 0.20439547 -0.083307445 -0.88449305 -0.14899185 0.36246637 0.24242336 -0.1330585 0.094576135 -0.30657232 0.11992249 -0.29904833 0.031205025 0.08452259 0.12909894 1.0113915 0.56458646 -0.31229198 0.5871606 0.5512052 0.14732598 1.3631122 0.44141844 -0.342261 0.037654936 0.30286983 0.33866206 -0.6654083 -0.21205777 0.20963752 -0.47581312 -0.26309893 -0.38377902 0.07409182 -0.048245583 0.041413378 0.3772198
4687 -0.0048431 0.24338254 -0.19469789 0.3240968 0.4281999 0.49115208 0.87573606 0.03181057 -0.36248428 -0.58921164 -0.11313789 -0.039193965 0.36763516 -0.5004163 -0.21815194 -0.0002043771 0.15613602 0.2781671 -1.1846626 -0.5651469 -0.05401284 -0.41515556 -0.11501018 -0.048696235 0.12507246 0.40700254 0.57126015 -0.32430208 -0.26799223 0.062718615 -0.6793084 -0.054320805 0.34701005 -0.4828886 -1.2940763 -0.0839245 -0.16133346 0.80186164 -0.59554476 0.28095084 -0.084083654 0.3925402 0.09266418 -0.21661694 0.12331731 -0.34914297 0.8121389 -0.20582137 0.32499003 0.5378007 -0.29580992 0.12965596 -0.53303474 0.18660326 0.23197302 0.23442283 -0.1338942 -0.7317455 -0.6296208 0.3582396 0.24544665 -0.4482673 -0.49772543 -0.42894164
4985 0.604434 -0.8803151 -0.2099166 0.92777675 -0.38872728 0.26273656 -0.02487699 -0.13328825 0.77855474 -0.15986863 0.2914036 0.41985396 0.4545534 0.08235015 0.68688774 -0.5220936 -0.2980084 -0.04641307 -0.66898626 0.086862095 0.68001705 0.050332077 0.035584427 -0.18930484 0.35333884 -0.01626675 -0.11359671 -0.06664858 -0.9052757 0.6028361 0.15665044 -0.083022274 0.21647727 0.06911657 0.085871585 0.5063028 0.05397541 0.13567112 -0.085994355 0.856618 0.40159488 0.8870335 1.0229316 -0.07634152 -0.2594175 -0.028045066 0.56320727 0.36986306 0.7512286 -0.24549764 0.10216393 0.9189523 -0.557767 0.32442686 -0.47253492 0.6332708 0.2251849 -0.12589173 -0.30415735 0.23325807 0.04645384 0.24769852 -0.012573312 -0.3187635
4906 -0.11892662 0.56809074 0.22886656 0.7158462 0.18595935 0.15360242 -0.027106244 -0.11506135 -0.03666166 -0.34071955 -0.022207867 -0.40618998 -0.21554124 -0.14996415 0.00719926 0.06616877 -0.20779902 -0.55991554 -0.51077276 -0.4557809 0.2677282 -0.13483644 -0.56280553 0.15916546 0.43252802 0.75378275 0.3495519 -1.0160415 -0.0003297046 0.39190343 -0.8521516 0.50303787 0.21193135 0.2957996 -0.4047742 -0.40233877 0.30207732 0.6739855 -0.30469033 -0.23999012 -0.44214603 0.445562 0.9370982 -0.22339864 -0.0855755 -0.10004413 -0.19804507 0.73405397 -0.40697226 0.23062411 0.08023844 0.30317324 0.32156217 0.3208184 -0.4019737 0.2729792 0.7645088 -1.1089386 0.19567284 -0.23498027 -0.34296748 0.040280044 0.3605055 0.0413063
4905 0.5081046 -0.29793757 -0.21982622 0.62549776 -0.43504974 -0.51785535 -0.05309295 -1.4855341 0.19919713 -0.20503706 0.2806231 0.5817547 0.4061583 0.18008459 0.12036988 0.33701763 -0.55310756 0.031533636 -0.4243343 -0.14494784 0.24481381 0.28008345 0.617821 0.70514745 0.471354 -0.23110558 0.28018662 0.30551976 -0.23140773 0.022721762 0.056404855 0.3648927 -0.44356126 -0.06611291 -0.008907526 0.14079718 0.13667455 0.57877904 0.54410774 0.0029964568 -0.38652515 0.09870187 0.8586918 0.3389828 0.24224085 -0.30847418 0.44529557 0.19231713 0.1828837 0.18212542 0.06671899 1.1110783 -0.19993916 0.49297065 -0.4820822 0.2180872 0.5546649 -0.30967885 0.26785403 0.29952008 0.17376916 -0.15549792 0.40261927 -0.9074075
4920 0.14618988 0.0033084373 0.11967467 0.95403934 -0.16536778 0.21545163 0.13310106 -0.1438689 0.6988536 0.14811693 -0.44961095 0.43912804 0.40299472 0.08152991 -0.15122849 0.23899646 0.11758676 -0.17786378 -0.5716145 -0.38249493 0.8491827 -0.5122019 -0.48398384 -0.08161768 0.42928144 -0.073163256 0.5744074 -0.22777864 0.15095797 0.45048836 -0.43043053 0.04489145 -0.03523042 0.2447014 -1.0969757 -0.2618291 0.28869197 0.7547278 -0.3897552 0.51621795 0.24929135 -0.24121736 0.8247347 -0.2722827 0.030093526 -0.21694683 0.03688435 -0.29277393 0.33981183 0.093468636 -0.4957805 1.0445502 -0.053165212 0.65100867 -0.88283336 -0.26021063 -0.5100355 0.35336083 -0.1218904 0.22841054 0.54407287 -0.19062623 -0.01686449 -0.0041453396
4693 0.33416244 0.1737156 -0.25258103 0.5878046 0.7027846 0.49389136 0.16388257 -0.15910617 -0.42185372 -0.16654412 -0.6039836 0.21434742 0.28527814 -0.44425312 -0.22892952 -0.069325864 0.48126918 -0.61803657 -0.71753764 -0.09928586 0.62007844 0.13445432 -0.38286227 0.12811206 -0.69431186 -0.0847573 0.102776006 0.094206184 -1.2403562 -0.10732192 -0.09675008 -0.13423473 0.34280863 -0.6516618 -0.41960368 0.07025159 0.2631075 0.4870599 0.019390501 0.27110994 -0.038426213 -0.30480736 -0.29352388 0.57945746 0.25372326 -0.02305711 0.47356433 0.22190446 0.37483114 -0.20033982 -0.61086076 -0.30370432 0.5768203 -0.48374626 -0.05686221 0.574358 0.5694952 -0.12219222 -0.08240378 0.08531005 0.6097267 -0.4769748 -0.28142467 -0.5115383
4896 -0.39771712 0.36031097 0.30823585 -0.29204306 -0.2328586 0.5964267 0.21455644 -0.9240452 0.123645835 -0.9268273 -0.5344875 0.2625967 0.24574785 -0.40946057 0.01750188 0.8541209 -0.9137766 -0.17223175 -1.0497131 0.31083268 0.17607576 0.4125889 0.42564514 0.1651397 -0.0078229215 -0.026338018 -0.30033296 -0.2965488 -0.70517296 -0.21914682 0.020421883 0.08026493 0.06402368 0.130346 0.3821776 -0.03268491 -0.5070003 0.17893155 0.17274915 -0.29957572 -0.10000437 0.3017367 0.14605449 0.48681217 0.5966132 0.30574605 0.5729597 0.118615575 0.06324271 -0.2174474 0.13730869 0.24196886 0.7164812 1.0363222 -0.033155613 0.052189678 0.23395401 0.70719844 -0.43531215 -0.5498024 -0.24787205 0.3015437 -0.12132947 -0.68156993
4674 -0.16926807 0.08352561 0.7088374 0.31511873 1.062272 0.031004043 0.6701256 -0.08724256 0.53235143 -0.8951222 -0.102139354 -0.091819845 0.13755535 -0.6389402 -0.17348744 0.038784057 0.19119275 -0.25303167 -0.18567291 -0.527304 -0.14202473 0.46563244 -0.37939385 -0.1640633 -0.06570059 0.016814206 0.51640594 -0.059225313 -0.21204999 0.1644468 -0.46196613 -0.19964336 0.5499105 -0.50655293 -0.3241062 0.18158631 -0.20919338 0.79107016 -0.78336304 0.61901575 -0.0726688 -0.30035812 0.047445774 -0.12929755 -0.07117273 -0.5008062 0.24490032 -0.28135577 0.9877782 0.62409395 -0.4658811 -0.07157335 0.47299805 0.17863534 -0.1083742 0.6165715 0.57755977 -0.804178 -0.31145585 -0.13410126 0.22009435 -0.048519276 -0.58946764 -0.60900235
4926 -0.043779995 0.08574302 0.18753652 0.8396136 0.68289715 0.65077776 -0.2688053 -1.3463964 -0.40548542 -0.9271951 -0.16819617 0.14734398 0.33242097 -0.90491503 -0.15205814 0.27440983 -0.5936756 0.36297864 -0.28436497 -0.11450448 0.6257561 0.37823528 -0.05052203 -0.009107866 -0.6481314 -0.11371231 -0.079231165 -0.57879275 -0.32692704 -0.22239852 -0.044389326 0.06781828 -0.10551459 0.22201434 -0.3123918 -0.93033725 -0.067772515 -0.1991608 0.12909287 -0.6419108 0.06676967 -0.4678495 0.26059428 -0.49530897 0.21493962 0.76338685 0.66401446 0.09539822 -0.065841146 0.6161057 0.0990391 0.33825248 -0.070024855 0.00352169 -0.52725506 0.037648294 0.12966965 -0.09822606 -0.06384289 -0.10111877 -0.17953837 0.09414496 0.22063646 -0.09664464
4686 0.13179685 -0.11704942 -0.52214974 0.3198538 0.6425536 -0.05036815 0.829461 -0.13196471 -0.6507472 -0.7880499 -0.5385004 0.44680482 -0.2380129 -0.48192444 0.22592288 0.13641147 0.105390675 0.16686478 -1.0245854 -0.03751138 0.3498761 -0.049021225 0.25309783 0.05898789 -0.13606404 -0.37737298 0.52613914 -0.37417206 -0.0054012067 -0.22931851 -0.06372423 -0.4687564 0.18422326 -0.10063944 -0.3639533 -0.117556125 -0.21360052 0.49629882 -0.11178597 0.61683786 -0.37775666 -0.58800185 0.5019894 -0.13742208 0.37713945 0.064567156 0.4557758 0.37587464 -0.036623217 0.92864555 -0.6599732 0.45690593 0.18741533 0.5015548 -0.223367 -0.20957783 -0.10903337 -0.9034945 0.19176002 -0.25342494 0.7257491 0.4160762 -1.341079 0.049792618
47 -0.5284771 0.13520443 -0.20942841 0.71473515 0.0643888 0.4181247 0.99394214 -1.1422195 -0.31980896 -0.06411154 -0.06909739 0.22582711 -0.10035122 0.09734634 0.24638972 -0.43539262 -0.73017764 0.29854777 -0.20425034 0.14112018 0.4039878 -0.20777312 0.025424263 0.13409957 0.09045916 -0.10126646 0.032846794 -1.0724304 0.6691519 0.10181553 0.051302962 -0.20267601 0.15090592 0.22371301 0.013634351 -0.27833146 -0.46529293 0.25513428 0.12276649 0.5673791 -0.28927332 0.31545106 1.1135004 0.3255143 0.6888819 -0.5199401 -0.00175906 0.47781473 0.14218858 -0.583956 -0.22765917 0.7344217 0.054630127 0.26346853 0.054897495 -0.4101971 -0.18368395 0.20463641 -0.41688895 0.4622861 0.11946709 -0.8482217 0.67933035 0.24416065
4886 0.19997159 1.1711309 -0.241876 0.17743012 0.3735674 -0.16508439 0.025601488 -1.0853683 0.09234786 -0.13482253 0.15510832 -0.32016122 0.053808257 0.6301598 0.10104177 0.47047165 -0.6249996 0.1475001 -0.35617772 0.02161931 0.26614517 -1.0252212 0.5745801 0.06331644 -0.35488153 0.25499237 0.23161 -0.7829258 -0.23414217 -0.21654221 -0.19150257 -0.46160582 0.37110135 0.41151375 0.35573283 0.03996994 0.23670733 0.20571835 -0.15558246 0.0882512 0.43254527 0.44188875 1.3141721 -0.23424143 0.37447554 -0.15644138 -0.2811081 -0.07400646 0.013956923 -0.23209172 -0.50929296 0.058609527 -0.052951068 0.30823052 0.47225145 0.36092216 0.52215517 -0.62281287 0.10596148 -0.50514084 -0.15773097 0.05253168 -0.13497382 -0.2780761
4743 0.07647172 0.03554071 -0.7880821 0.062194888 0.26025352 0.43581098 0.37836474 0.038813166 -0.28192428 0.08859819 -0.51362365 -0.3244605 0.15685934 -0.5512291 0.26709872 -0.19133756 0.16050613 -0.5749029 -0.7992023 0.21464443 0.27480403 -0.13186297 -0.073285416 -0.600886 0.0417954 0.03240363 0.35489622 -0.37956735 0.14956413 -0.029334305 0.19797449 -0.7607924 0.40747464 -0.40974134 -0.09693119 -0.09844772 -0.7473229 0.5835637 -0.15636408 0.31167305 -0.14620161 0.2541638 -0.20838223 0.520652 1.2315125 0.7238638 0.613687 -0.86804074 0.2936108 0.51782596 -0.6759244 0.711841 0.3054238 0.39782602 -0.54991114 0.48487857 0.47123423 0.2587864 0.16815098 0.53014684 0.2649438 0.31263605 0.17778713 0.40029442
1833 -0.15352061 -0.66805255 -0.47295567 1.0084786 0.19957875 0.18325266 -0.052654058 -0.14270346 0.26801464 -0.6016949 -0.66437054 0.31399375 0.36287144 -0.4158944 0.92068595 0.38136014 0.2810204 0.48010626 0.12341949 -0.17098604 -0.07459903 0.17841683 0.017111136 0.2559577 -0.3374527 0.15655604 0.39298344 -0.7524493 0.054639902 -0.054625507 -0.28404897 -0.107204914 0.031349145 0.16325064 -0.16923097 -0.27777305 -0.403147 0.4427885 0.04484239 0.23324928 -0.22533144 0.9961329 0.66641945 -0.06499106 0.34966165 -0.036970496 -0.074187405 0.75847924 0.029364094 0.06140547 -1.0695251 -0.064409494 -0.344263 0.7995171 -0.3294411 -0.6094361 0.0006924722 -0.32571992 -0.22340259 -0.18827493 0.20756099 0.23545873 -0.0888742 0.16372614
1847 0.30700737 -0.6176148 -0.42012423 0.14505152 -0.81495494 0.06749077 0.42182884 -0.52028984 0.53352106 -0.41046345 0.24197721 0.2494889 -0.29877663 0.6722779 -0.03785769 -0.27583888 -0.62392426 -0.42777228 0.011731841 0.046577014 0.2521642 -0.29622397 -0.5776803 0.4847427 -0.41727862 0.23826073 0.38838348 -0.067943715 -0.03351793 0.021684917 0.13503338 0.12021354 0.73187137 -0.402943 0.0008925961 -0.09500118 -0.30378786 1.3514053 0.109157 0.3470275 0.017658308 0.15622348 0.6167909 0.041557983 -0.15072015 -0.17515846 0.70023805 0.26213568 0.38753745 0.45905438 -0.24983647 0.3962465 0.36606547 0.22644559 -1.1723217 0.1416178 -0.01871207 -0.14345586 -0.11234596 -0.3791071 0.009063879 0.08457716 0.29639465 -0.50710565
1733 0.23950061 0.48427808 0.29097787 0.052692916 1.1578143 -0.22886151 -0.074111596 -0.42204484 0.0963731 0.11042023 -0.30993196 0.008104328 0.12302051 -0.4706105 0.19768469 -0.01325296 -0.7889291 0.08470731 -0.38247755 -0.7521636 0.15696645 -0.40084383 0.52466697 0.4161296 -0.19614245 0.1418484 -0.007903491 -0.40128848 -0.046957567 0.100479804 -0.8768599 -0.44003353 0.3122898 0.1926449 0.007323434 -0.67559636 -0.047585264 0.7305897 -0.47552806 0.04087213 -0.41800782 0.05820113 0.6107105 0.14439814 0.43341604 0.3060238 -0.11114659 -0.5698105 0.2938144 0.5960932 -0.5664803 -0.2729521 0.0027581025 0.45668224 0.061035536 0.044917624 -0.38657427 -0.78348637 0.08556631 -0.28349432 -0.8126651 -0.58533704 0.09029904 -0.39775044
48 0.050741535 0.8967403 -0.26164773 0.59258646 0.7675791 0.10612711 0.14518744 -0.309825 0.6598135 0.03319871 -0.1389799 0.76052797 0.018365784 0.25544477 0.47261912 -0.29708236 -0.7374896 -0.048073012 -0.20043933 -0.32500315 0.12875387 -0.26040784 -0.7813302 -0.63295615 0.15164952 0.3750256 0.043036897 -0.8739722 -0.1905133 -0.1550034 -0.7401265 0.0113934735 0.18052922 0.73254275 -0.29476827 -0.21893613 -0.6022504 0.48910403 -0.42778915 0.1744968 -0.36426625 0.06561957 0.15491633 1.2273494 0.8383431 -0.5612885 0.23970242 0.41833353 0.41153976 -0.7285935 -0.5204221 0.28753826 -0.10858031 -0.024694618 -0.51131344 0.1293765 0.27415878 -0.2158763 -0.20047612 0.032641146 0.43484002 -0.13532919 0.5669972 0.35883957
2811 -0.07767852 0.14038518 0.0015755817 -0.44239843 0.40414172 -0.23681869 0.6689103 0.044781756 -0.10404829 0.123403236 -0.36426696 -0.07792079 0.009206893 0.11497713 -0.35403025 0.08066839 -0.16091874 -0.6671559 -1.4015732 0.07910989 0.28165373 -0.029141786 -0.2754104 -0.42058626 -0.2307221 -1.0147102 -0.14674972 -0.82722706 -0.58572906 -0.074169755 -0.10469054 -0.3171515 -0.621841 0.021671465 0.3439361 0.13302165 0.9138016 0.78109246 0.14566846 -0.0582415 0.38059857 -0.10684011 0.15413278 0.70858204 -0.069631286 -0.33904845 0.94059545 0.26284924 -0.7540009 -0.41931707 -0.84548885 0.23993976 0.27690873 0.07094453 -0.47183037 0.18323244 0.3252177 -0.052814074 -0.5608703 0.04114928 0.9573701 0.25280464 0.49046782 -0.41678342
2847 -0.81532055 1.0666589 -0.19110247 -0.12640417 0.8153463 -0.36716852 -0.32222652 0.06087053 -0.5300463 -0.19093876 -0.17355904 -0.27979466 -0.21683691 -0.20818354 0.47667894 0.2745627 -0.31886107 -0.24634185 -0.7642565 -0.3149915 0.7576992 -0.02350126 -0.25292248 0.6029387 -0.72054523 0.086309455 -0.8501058 -0.58894885 -0.32643405 -0.32392824 -0.025599312 -0.12948187 0.25449073 0.35693142 0.2707635 -0.17529503 0.60029364 0.39916548 -0.07758094 0.420043 0.9054505 -0.21612257 0.6985727 -0.100755945 0.9800312 -0.07749751 0.007791522 0.65504646 0.18325254 0.02425268 0.28417483 0.7447911 0.4397023 0.8725297 0.20809935 0.123159386 0.45624033 -0.33025497 -0.13670585 -0.35602048 0.20117092 -0.19680402 0.09294434 -0.29392838
4913 0.60082597 -0.46253547 -0.7478718 -0.21979056 -0.30489153 0.099373445 0.64676696 -0.43886724 0.10984868 -0.13684261 0.42703977 0.43181387 0.38512152 0.15565273 0.6388006 0.31046045 -0.30441666 0.2365943 -0.66611934 -0.04098117 0.7084728 -0.22313341 -0.18020663 -0.3046287 0.19787933 -0.33683112 0.19678868 -0.68951964 -0.15294757 0.62691206 0.04245668 0.14225334 0.30048412 -0.090948105 -0.05789395 0.038533878 -0.7183581 0.2074697 0.059541952 -0.3784928 -0.25828812 0.3568994 1.5145429 0.5133182 0.10465515 -0.09414755 1.2461498 -0.37045565 -0.23641217 -0.25530308 -0.09486144 0.32594725 0.62564296 0.24780163 -0.38198727 0.44730756 0.4846763 0.3030117 -0.46161935 -0.023135018 0.702616 -0.0130099375 0.0029530667 0.106883354
54 -0.14115061 0.4312559 -0.2406048 1.1733426 -0.008709431 0.19138142 0.19536155 -0.84113014 0.3487444 -0.9704486 -0.32642123 0.07447863 0.27882606 0.13485678 -0.3074114 -0.30392292 -1.3011873 0.024829121 -0.40603608 -0.26834393 0.40353212 0.23290426 -0.7619975 -0.039200213 -0.052593727 0.07767431 0.1800056 -0.53596824 -0.12131334 0.18511103 0.13977031 -0.06727532 -0.00018405792 0.63837075 -0.12589706 -0.012192232 0.10966839 0.33049867 0.0775797 0.55909115 -0.02210206 -0.032302964 0.28781694 0.75080025 0.44161916 -0.60068744 0.6561381 0.24058323 0.11216317 -0.6444824 0.42495394 0.6184593 0.729837 0.104696974 0.020694152 0.30051875 0.12826017 -0.03633838 -0.026536746 1.1634504 0.2940227 0.01295466 -0.19585818 0.19785137
4765 0.3698829 0.40801632 0.5300821 0.16498709 0.62032515 0.65423334 0.80228555 0.8562137 0.43741983 -0.34542534 -0.50681776 -0.42775077 0.11476291 -0.44274974 0.37845093 -0.61202806 -0.56559914 -0.4146554 -0.47797206 -0.11176219 -0.14993395 -0.48740336 0.64611775 -0.15095069 -0.655768 -0.20027164 0.07800526 -0.7597938 -0.6997622 -0.85106456 0.11437438 -0.049847692 0.43350527 -0.2576959 0.20246509 -0.2468738 0.136958 0.4644876 -0.012579499 0.59394646 0.32768017 -0.5932759 0.71992147 0.66026324 0.29672328 0.037064113 -0.38086575 0.078227915 0.43395966 -0.21492134 -0.33407927 0.4224997 0.44723317 -0.3695833 -0.1343279 0.5650929 -0.37181732 0.0035165618 -0.9480424 -0.041836314 -0.30656147 0.30166546 -0.14195679 -0.109379195
4740 -0.118695386 0.4131248 -0.6546358 -0.022513382 0.56893504 0.5330461 -0.0063313395 -0.3940667 0.06982242 -0.23844808 -0.30650884 -0.3483103 0.14409123 -0.11268416 -0.09736016 -0.19485196 0.14869332 -0.33511266 -1.0339197 0.03528296 -0.18306912 -0.12288247 -0.24986535 -0.18663087 -0.03264884 0.1852267 0.24794456 -0.027545312 -0.22363207 -0.1289537 -0.099869646 -0.078579955 0.9852791 -0.46776327 -0.59589136 0.11048258 -0.1907553 0.96619606 -0.3129853 0.6550143 -0.18207963 0.46599528 -0.08592812 -0.0032958908 0.47803175 0.4028478 0.50916195 0.22557159 0.43890283 0.78841805 -0.6596283 0.22611196 0.006821793 0.4476031 0.0018326325 0.4502439 0.6114026 -0.03312167 0.0060851043 -0.54297197 0.4988062 -0.0727434 -0.45114037 -0.13738549
2840 0.18215156 -0.06905267 0.11662069 0.6073991 0.24506511 -0.010175488 -0.17381059 -0.34091133 -0.23651858 -0.45659995 -0.74547195 -0.8495124 0.23480564 -0.11951578 -0.5303022 0.18624684 -0.26905975 -0.32635596 -0.47104114 0.123341 0.59416246 -0.26851177 -0.24841307 -0.6714551 -0.45716935 0.5239646 0.44081268 -0.55913943 -0.14353889 -0.09823208 -0.10169164 0.50605434 0.1710024 -0.20706436 -0.0036744855 -0.41058657 0.8044119 -0.08835106 -0.39212725 0.18069063 0.02807363 -0.2041738 0.4366674 -0.31493396 0.9324094 -0.0037288524 0.62196326 0.53834826 -0.17447025 0.22023988 0.2703532 -0.77511823 0.36154294 0.6635096 -1.159443 0.31442544 0.20628786 -0.29557526 -0.5183432 0.69365615 -0.6682602 0.27897355 -0.39273247 -0.5715007
5049 -0.14977105 -0.010307143 -0.34293368 0.33922783 0.79058427 0.736915 0.25538188 0.1362698 -0.25711125 0.10013355 -0.24348633 -0.4207483 -0.12817137 -0.16502659 -0.12618078 0.05703783 0.068751134 -0.1986644 -0.94343626 0.030726228 -0.5518359 -0.13415459 -0.33710036 -0.20912312 -0.09754781 -0.02792315 0.45588374 0.044253327 -0.011790311 -0.05872799 0.27560306 -0.1382468 1.2150509 -0.365103 -0.77685285 0.0980466 -0.37227428 0.8230478 -0.1079846 0.63860506 -0.26738146 0.054071575 0.21107627 0.28632808 0.38938633 0.029803466 0.4602471 0.009224567 0.89313066 0.7853256 -0.6058323 0.077704675 0.033545744 0.18820857 -0.15241747 0.5576934 0.34331465 -0.41847053 -0.15036526 -0.4311456 0.48019573 -0.39904982 -0.3213988 0.10144941
4831 0.09867281 -0.5364364 0.7922893 0.7007171 0.11950873 -0.5445144 -0.04371275 -0.077203736 0.2579302 0.25712052 -0.7582617 0.007393298 0.34853372 0.33214024 -0.7272538 0.5489929 -0.27829722 -0.16621381 -0.20095259 0.12097322 0.99749476 -0.5708623 -0.5114883 -0.18351209 -0.1312215 -0.24100351 -0.43770534 -0.34984565 -1.0150685 0.38396248 -0.3388683 -0.21861711 0.46140844 -0.7089409 -0.16750269 -0.20505695 -0.60893756 0.55564076 -0.13522604 0.42493913 0.7959181 0.20897442 0.22812952 0.32595354 0.24148162 -0.6582689 -0.01019565 0.2236071 0.30867898 0.19680804 -0.6163554 -0.21579765 0.41303048 -0.019196207 0.0070675863 -0.6143726 0.3660912 0.35483214 -0.5734289 0.23168874 0.4642249 -0.3941399 0.40868208 -0.59614885
3924 0.8704588 0.010093454 0.47673723 0.7433392 0.86346525 0.09204637 0.2135024 -0.32279116 0.12867501 0.33791322 -0.10592332 1.0435264 0.79211384 -0.5653386 0.49622256 -0.24878417 -0.08460631 -0.38389847 -1.1102252 -0.100234896 0.07390378 -0.24012192 -0.18259403 -0.33076882 -0.10763008 0.61908084 0.17029113 -0.013928381 0.29343897 -0.4017666 0.32073897 -0.67288965 0.31670672 -0.13809943 -0.36227968 -0.19618459 0.13906245 0.59014815 0.20047401 0.08455734 0.23805206 -0.30653057 0.1136247 0.86765325 0.58108777 -0.119071335 -0.15438567 -0.30591217 -0.51027244 0.9103821 -0.3448783 0.30258334 -0.119001575 0.36050102 0.24169749 -0.016854139 -0.60230035 0.06778197 -0.11563162 0.4955489 -0.13087083 -0.4273813 -0.28049546 -0.0606225
2824 -0.21712518 0.016272828 -0.060850482 -0.115429185 -0.04052027 0.42992288 -0.063662246 -0.4841155 0.2016679 -0.50956815 -0.87785554 -0.2968208 0.45245123 -0.48488262 0.8202049 0.39454514 0.019865157 -0.8196236 -0.71881527 0.73050505 0.14373897 0.4002732 0.4929018 -0.49312606 0.013821438 0.21519919 0.25284654 0.22176725 -0.34121135 -0.35647014 -0.22839098 0.17114842 0.5157332 -0.37405702 -0.76601005 0.13876365 0.09940405 1.0168037 0.14959393 -0.10978466 0.19882342 0.5453842 0.6301381 0.32214662 0.030843418 0.30460826 0.16093062 -0.1572908 0.117906936 0.33084673 -1.0247959 0.71693933 0.2818245 0.4952884 -0.45564574 -0.49353212 0.25680774 0.26601017 -0.860168 -0.71168154 0.11653937 0.16760486 -0.17670874 0.23411025
4729 0.31024322 -0.15222436 -0.45151496 0.25364855 0.8280623 0.42783406 0.18378396 -0.29342684 0.10505834 -0.6565797 -0.6708273 -0.472698 0.72825783 -0.12809168 -0.5563207 -0.11829003 -0.5781529 -0.40180737 -0.56090146 0.05656779 -0.48061737 -0.30880955 -0.2953135 0.28708062 -0.28114635 -0.5649972 -0.5050402 -0.35935077 -0.9751843 0.09051512 0.00942797 0.22680832 0.4712632 0.33833438 -0.22816226 -0.013681765 -0.84233767 0.5820157 0.062991895 -0.021409458 0.25724804 0.111559056 1.2605035 0.10271932 -0.042409018 0.1273663 -0.30319762 -0.28368014 -0.14901906 -0.1366564 0.3583291 0.3229164 0.33655587 -0.45464283 -0.13714263 0.5311746 0.7386448 0.5550666 0.22694276 0.24664018 0.16337438 -0.26064232 0.22205561 0.22264086
4750 0.5223167 0.54981947 -0.22590512 0.058828034 0.3741081 -0.41683355 -0.62966466 0.07425088 0.60461134 0.1385989 -0.4638784 -0.40924814 0.19534007 -0.33390933 0.16831739 0.3581605 0.22606574 -0.24593967 -0.42905918 0.5835578 0.269672 -0.2474568 0.28497157 -0.03956037 -0.6267612 0.29704958 0.4721327 -0.4659595 -0.41306525 0.107161246 0.29450667 -0.53703314 -0.6826177 -0.20929389 -0.8470271 -0.32948393 -0.18433745 1.0184284 0.07762852 0.38806152 -0.053299937 0.14519598 0.3799427 -0.32071468 0.31480044 -0.52748394 0.2656076 -0.24120593 0.19450937 -0.33166277 -0.28930372 0.3975706 0.32722396 -0.028253779 -0.563696 0.20626363 1.4748967 0.22013922 0.13450924 -0.4905395 -0.11209879 -0.0019044525 -0.6618757 -0.21345712
1730 -0.041475862 -0.28906733 -0.19186543 0.40030771 0.50149614 -0.46088827 0.25361344 -0.7128882 -0.12642628 -0.7457706 0.32997847 0.124901175 0.20331672 0.10302402 0.89974004 0.20061252 -0.57919425 0.20055747 -0.5870016 0.050845366 -0.21500307 -0.09356956 0.7180691 0.28229788 -0.16476215 -0.24000518 0.07533592 -0.60533017 -0.077698484 0.6836059 -0.42236632 -0.14459947 0.19630228 -0.3548238 -0.44150144 -0.47121763 0.37406483 0.3461652 -0.34960762 0.49613208 -0.07628265 0.3456475 0.42256206 -0.056438975 0.55908835 0.08013347 -0.5378703 -0.7605621 -0.50463885 -0.57929444 -0.049591117 0.9029407 0.98929363 0.026672548 -0.14442618 -0.4490432 0.20236999 -0.029491542 -0.85607547 -0.42088914 0.34493366 -0.58889204 -0.16786364 -0.43417007
4734 0.28666982 -0.4877084 -0.34981593 -0.07087013 0.9161553 -0.37819988 0.8897996 0.1422642 -0.11903169 -0.46521717 -0.22162618 -0.50079894 0.1277097 0.0605717 -0.3195171 0.57091105 -0.37860182 0.28450668 -1.187004 -0.8591267 0.41046944 0.021723762 -0.83042526 -0.19545372 -0.5396997 0.20523095 -0.08447689 -0.599636 -0.35904992 0.21430011 -0.1468764 0.7993826 0.745536 -1.1349806 -0.2470895 0.24038592 -0.4362362 0.800375 0.23562479 -0.17536443 0.4573998 -0.025107289 0.76257235 -0.25139838 -0.23517154 0.42304668 0.53504765 0.4268004 -0.5844606 -0.2591757 0.25868335 0.15796149 0.16554305 0.07927198 0.022927273 0.28263757 0.16166195 -0.5961596 -0.37258223 -0.31232443 -0.10938225 -0.053132944 0.117028154 -0.3708365
1856 -0.13488717 -0.5031308 -0.042884164 0.4162979 0.3753634 0.5042118 0.010869247 -0.0356324 0.0043109655 -0.44442365 -0.5798136 -0.040908895 0.18980083 -0.20197311 0.030365849 0.31762183 -0.16597481 -0.6275021 -0.24708845 0.45157367 0.09713319 -0.3390424 -0.39482814 0.22271198 -0.31812757 0.32429773 0.07942481 -0.92460996 0.38673836 -0.25573108 0.18462646 0.24794401 -0.22788142 0.33007792 -1.2308455 -0.6001023 0.6610178 0.5341308 0.2597056 0.3156678 -0.17517477 0.2021564 0.50528044 0.5414795 0.09313842 0.3398957 -0.494789 -0.54268575 0.5259245 -0.16015959 -0.9401636 0.1792011 0.582624 -0.58772343 0.08059562 0.53484315 0.0026811205 0.033928744 0.21297285 0.13459787 0.5998769 -0.70427585 0.46097043 -0.18058449
2851 -0.075076446 -0.040001355 -0.17724717 0.86767185 0.22806443 -0.18614747 0.11357119 -0.6234548 0.12247114 -0.06388052 0.12889309 -0.52337676 0.33525988 -0.55271304 0.17652252 -0.45100966 -0.48891932 -0.084744774 -0.60035425 -0.409134 0.981053 -0.42298213 0.6527629 -0.47806463 -0.19524418 0.30087912 -0.1349343 -0.7382324 -0.60454273 -0.16448556 0.06210066 -0.55204433 -0.12210324 -0.61710477 0.001583291 -0.6281687 0.26850057 0.034761127 0.47851995 0.117291525 -0.08798681 0.8209464 0.23218416 0.14058624 -0.22089203 0.5990252 0.53174883 -0.8254069 0.18095623 0.58315825 -0.8658168 -0.16135712 0.75617534 -0.20463118 -0.058895085 -0.28585106 0.5403883 0.12673527 -0.34487548 0.47098505 0.22702926 -0.3601657 -0.90468323 0.044967968
4613 -0.03245655 0.035286143 0.46074617 0.11350325 -0.49877882 0.7748339 -0.11541505 -0.6600527 -0.34786275 0.42147076 -0.87725896 0.033530075 -0.25987157 -0.31556982 0.2636503 -0.29163685 -0.63213104 0.26344144 -0.5235286 -0.18143249 -0.0076052053 0.2262936 0.11804435 -0.1899514 -0.333506 -0.16981031 -0.00019062318 -0.7976989 -0.4484985 -0.51730174 -0.4009576 -0.44149894 0.14647488 -0.44551829 0.10169039 -0.33455485 0.599644 0.9814369 -0.11988152 -0.061875846 0.28649426 -0.34702417 0.9292511 -0.28900453 1.2247322 0.37454352 -0.7473512 1.0179065 0.3337065 -0.09887197 -0.1600862 0.19337755 -0.029411731 -0.43401682 -0.3364633 0.4077356 0.39486519 -0.2838432 -0.33039263 0.29592744 0.40753436 0.07992358 0.4393389 0.015744733
4955 -0.6074839 -0.28122747 0.1981108 0.9380671 -0.12855299 0.6210626 0.95223874 0.13953172 0.106579676 -0.1310045 0.19216897 0.15803444 0.46113294 -0.5544911 -0.057361666 0.17752689 -0.12661363 0.38819173 -0.53911215 -0.6210161 -0.20890246 -0.28649157 0.51563424 -0.15188953 -0.35363454 0.46153605 -0.056454588 -0.9851878 0.5469924 -0.1853482 -0.41891304 -0.08332119 -0.2650743 -0.23848037 0.014605503 -0.13205026 -0.5950616 0.9065757 0.6589589 -0.27459812 0.14928828 -0.14893268 -0.08282636 -0.25620416 0.43033308 -0.26815915 0.034130525 0.44375685 -0.015725847 0.9302974 0.06481923 0.24726275 0.30110538 -0.35197353 -0.17651044 0.6915294 0.52495533 -0.1014273 -0.5347308 -0.2528756 -0.6114144 -0.90175515 0.036677893 -0.4445591
3882 0.021928996 -0.6981053 -0.20587158 0.2559554 0.44849387 0.57520396 -0.20158625 -0.38565928 -0.5641195 -0.12038932 0.027652254 0.16162656 0.2179617 -0.07898436 0.14218172 0.6448505 -0.0112103345 -0.48592982 -0.20533021 0.46745175 -0.8117416 0.45882654 0.10601004 0.22699897 -0.3930826 0.14558741 0.13726516 0.11523863 -0.019956626 0.102563806 0.2677491 -0.13907863 0.7406611 -0.16399892 -0.11892648 -0.6839562 -0.50079185 1.3425599 0.060289394 0.121345066 0.35111552 -0.38847646 0.682613 0.4226691 0.13678296 0.23671202 -0.12753974 0.028663846 0.05198537 -0.0035745858 -0.5283423 1.0649748 0.29531243 -0.3093789 -0.45273408 0.02017424 -0.6092547 -0.18442298 -0.06923216 -0.072627425 0.5644064 -1.2465115 -0.1181883 -0.2596493
4266 0.17551866 -0.22077373 0.21313195 0.90562063 0.097904235 0.053303845 1.089223 -0.9281934 -0.5637555 -0.56767905 -0.5727564 -0.7400547 0.22745264 -0.24906462 0.2850564 -0.048890997 -0.25298777 -0.75266385 -0.1424109 -0.38430363 -0.46469694 -0.9694888 -0.15071337 0.012452923 0.14092149 -0.22591732 0.2974775 -0.6209602 -0.121243395 -0.57558817 -0.46826094 0.10003855 0.19804539 -0.38747984 -0.7694645 0.15136187 0.35763165 0.4385644 0.22378846 -0.4494625 0.4051559 -0.019217208 0.39108843 0.1427284 0.04135665 -0.10628564 0.6771101 -0.13282476 0.13781264 -0.07803014 -0.44169292 -0.10333709 -0.25489116 1.0719422 -0.06589622 -0.6023295 0.17378089 -0.08402919 -0.2810746 -0.63178 0.19142997 -0.16384713 0.27578327 0.12581076
2790 0.6756434 -0.0869554 0.100835614 0.15270737 0.49957022 -0.09076815 0.063161984 -0.54665107 -0.6127604 -0.195828 0.46614757 -0.72221786 -0.43967807 -0.5647655 -0.32438448 0.20808387 -0.82848996 -0.028088953 -0.6036791 0.5095921 0.122476146 -0.3373732 0.32056305 -0.06003481 0.49688742 -0.0928167 -0.2356477 -0.4799527 0.510208 0.60155374 0.091304414 -0.3595844 0.2710855 -0.34106275 -0.58519226 -0.1525916 -0.073738866 -0.1281506 -0.16720985 -0.091243476 -0.8179376 0.12507246 0.6857071 0.8356098 0.9740096 0.32821465 0.22126502 0.11144383 0.32469365 0.30008197 -0.02841966 0.7545908 -0.5779692 0.05761548 -0.56650007 -0.09050424 0.42070124 -0.31707862 -0.14073168 0.6558988 0.2284825 -0.22716607 0.60412437 -0.7539987
1848 0.88786304 -0.09156991 -0.13006304 0.86159676 -0.13286284 0.20634708 -0.0829024 0.27078006 0.5922314 -0.9360325 0.14718828 0.5867313 0.30060855 -0.3522394 0.8585278 0.6547893 -0.12409922 -0.18920003 0.050070483 -0.14097871 -0.09249807 -0.45274097 0.43966854 -0.09407263 -0.074352026 -0.04725878 -0.012069466 -0.5981231 -0.5212037 -0.03647466 0.0018800877 0.06888881 0.6643795 0.20183772 0.68116534 0.006363228 0.09843422 0.02865921 0.44180587 0.47653103 0.3249278 -0.39702195 0.607743 0.58863354 0.40906113 -0.0019657714 0.42268112 0.4340244 0.15578155 0.5125619 -0.5994189 0.10142357 0.22076377 0.82684296 -0.55683637 0.6121464 0.10381609 0.3596569 0.42014608 0.03526606 -0.073116556 0.6540157 -0.2935889 -0.55231833
2781 0.4982166 0.36707124 -0.40457243 0.026450919 0.42179498 0.6863282 0.66943127 -0.25253135 -0.0043416917 -0.7680836 0.36883935 -0.7469564 1.1196707 0.6923008 0.75871205 0.13228197 -0.51297146 0.19554953 -0.6285581 -0.18531494 -0.31612998 -0.03689548 -0.22463079 -0.12965824 -0.2892699 -0.4194632 -0.082744695 -0.40351173 -0.11054905 0.011130818 0.38726664 0.8191495 0.055756122 0.05119846 -0.4347404 0.07487725 -0.2783282 0.48441178 -0.03585147 -0.25220904 0.55024076 0.19040236 0.30376753 0.81658596 0.45591748 -0.25496536 -0.22928426 0.8138514 0.17286533 0.8727378 -0.042767055 -0.0058737705 0.13692759 0.73213124 -0.08190928 0.105195366 0.3626044 -0.078350626 -0.040908355 0.13175246 -0.40054697 -0.56393725 0.17233999 -0.3295604
4803 -0.007071801 -0.16259828 0.07878216 0.49874043 1.262587 0.28012922 0.9025458 0.17591497 0.47437796 -0.8811815 -0.1338231 -0.3806976 -0.33230308 0.67173046 -0.3069893 -0.4065655 -0.31289935 0.29070216 -0.6691279 0.14281024 0.13187867 -0.0054751677 1.0166785 0.01586032 -0.13614988 0.09568627 0.6271512 -0.75689375 -0.12609795 -0.076465935 -0.1609597 -0.16431975 -0.0810636 -0.5451752 -0.40388152 -0.69610727 -0.922015 0.54398876 -0.2973972 0.18380535 -0.09895624 -0.09459183 0.9457815 0.35115293 -0.39329454 -0.37385127 -0.32005137 -0.32433686 0.51377255 -0.3386135 -0.06088759 -0.18435891 0.55762976 0.47093305 -0.20468728 0.24254921 -0.01454798 0.56746304 -0.12590048 -0.22355588 -0.31139466 -0.4323131 -0.04896604 -0.25186324
2768 0.7603285 0.110778525 -0.208138 0.19238561 0.36327526 0.055789266 0.8375011 -0.4622296 0.020687968 -0.52992725 -0.40250015 -0.2568938 0.012199621 -0.70029473 0.032731485 0.2617401 0.3554342 0.02749638 -0.33643925 0.20775881 0.14513507 -0.059562504 0.8428059 0.1873561 -0.01389717 0.4673483 0.38331693 -0.4303065 -0.15628566 -0.32598138 -0.048109364 -0.07454643 0.481252 0.5240727 -0.20773117 0.5231234 0.016694719 0.3576095 -0.2961395 -0.62103075 0.10956448 -0.49057177 0.48854232 0.77095306 0.5598164 0.68646157 0.17143157 0.3743021 1.2732608 -0.069569156 -0.108104 0.7069441 -0.45868748 0.06647215 -0.57298994 -0.40153572 0.58079565 0.26245913 0.17880711 0.3071014 0.042615257 0.10118227 -0.057308875 -1.2155044
1726 0.49511197 -0.061156012 0.15023254 1.1107813 1.1656507 0.44314682 0.23310032 -0.10411143 0.3484185 -0.28459668 -0.10374102 0.11872946 0.016298015 -0.0061267475 -0.60079056 0.06934199 -0.22005852 -0.3901165 -0.75596315 -0.013410426 0.0984099 0.009036654 0.3828975 0.0006442423 0.41856846 0.3416395 1.0682225 -0.38831788 0.09173072 0.4928972 -0.004106533 0.83012724 -0.46164373 -0.6244146 -0.06219754 -0.30922008 -0.27257937 0.631883 0.18984647 0.42281425 -0.7210103 0.96169615 0.57962406 0.22937429 0.44804266 0.2668377 -0.10475186 -0.31262463 -0.5550809 0.008195128 0.0696892 0.24976687 0.1840724 0.29979107 -0.011676942 0.31894076 -0.5275686 -0.1350672 -0.39348793 -0.16976103 0.7214482 0.036011755 -0.2008578 -0.04783969
2843 0.2788766 0.119014315 0.6300299 0.12951252 -0.2130368 -0.37749788 0.25232318 -0.2703445 0.53612477 -0.14620131 -0.28368106 0.57171184 0.04756626 -1.0052624 0.48873445 0.61634755 -0.444595 -0.5022801 -1.3435774 -0.5428216 0.2739361 0.047918 0.19252273 0.41244292 -0.15413347 -0.118410334 0.40574718 -1.0165367 -0.2573905 0.39921653 -0.20003483 -0.13835023 0.36945325 -0.14607471 0.34463394 -0.21194366 -0.33445114 0.38865066 -0.29302606 0.67028266 -0.25300866 1.1285313 0.36180258 0.33366844 0.54507595 0.8845735 -0.15356863 0.10732594 0.18713638 0.60554385 0.19091736 0.047776755 0.67667526 0.26885897 0.5661831 -0.7109041 0.1149775 0.091795504 0.09628401 0.9022123 0.255186 0.16479692 -0.43962008 0.3320024
34 0.23202711 0.57518095 0.70503443 0.5625825 0.030142212 -0.14580217 0.536963 -0.26238045 0.089433104 -0.16156982 -1.2220771 0.27301097 0.47803408 -0.52307844 -0.023543784 0.46326333 0.045792125 -0.48432493 -0.8591951 -0.21297532 0.23853377 0.36180025 -0.14587708 -0.5048532 -0.016887615 -0.7161256 0.5277793 -0.44324985 -0.0009393666 1.258057 -0.10430649 -0.7115639 0.13494956 -0.1359747 0.3977059 -0.14085186 -0.68952954 0.2658986 0.6648972 -0.26851243 0.10114678 0.46416917 -0.019640569 0.23223144 0.49629018 -0.04828264 0.11479184 -0.055946726 1.1154932 0.3237565 -0.0761876 -0.2416543 0.6245121 -0.040998586 -0.5211048 0.603557 0.012272936 -0.36739016 -0.32828707 0.39455593 0.088369265 0.12884703 -0.1788435 0.029293787
2816 0.21365853 0.2075346 0.97662157 0.73640966 0.53466374 0.054907028 0.4194114 -0.44990185 0.48352885 -0.2007049 0.14791045 -0.4167849 0.37127852 0.16311617 0.006526258 -0.24048765 0.29150286 -0.09055093 -0.8260698 0.65094364 -0.09743493 -0.117535196 -0.43735442 0.46373174 -0.09854476 -0.15505125 -0.0659311 -0.6630438 -1.0358683 -0.16298462 0.3019648 0.08821692 0.37280223 -0.14450906 -0.49739268 -0.43766913 -0.00044039806 0.111884914 0.54717034 0.37663618 0.61774606 -0.37029022 -0.7523958 -0.26057622 0.39680722 -0.2782528 0.395544 -0.12406443 1.0410461 0.08413199 0.32914966 0.08230761 0.6294149 0.41278964 -0.40151328 0.23239094 -0.10701548 0.160886 0.064333655 -0.21966785 0.11232079 0.26507294 -0.38525793 -1.0060985
2810 -0.27625257 0.7939907 0.13890517 0.23829469 0.53979564 -0.3200638 0.9870486 -0.18828921 -0.33785248 -0.63774073 0.15018098 -0.30985612 0.081674114 -0.21826269 -0.023088554 -0.6876795 0.033041835 -0.3597268 -0.7918303 -0.34039977 0.20851414 0.386787 -0.08571921 -0.3410488 -0.13737455 -0.2629069 -0.23218659 -0.8851473 -0.6425007 -0.22609937 -0.25982744 -0.16330558 -0.5529658 -0.61701584 -0.3211524 -0.88283205 0.9524926 0.55409116 0.29132542 0.19594167 0.30508494 0.47905037 -0.17744151 0.6962359 -0.2327915 0.25509796 0.5053902 0.17504886 -0.23913424 -0.2967759 -0.5785157 0.5816385 0.32051572 -0.43078196 -0.37613988 0.97051466 0.5012927 0.3319417 -0.61147314 0.43847537 0.26904324 0.6053167 0.30200294 -0.7789937
5030 0.22901495 -0.06776456 -0.65506345 0.2678028 0.57712144 0.7812551 -0.09953314 -0.25201336 0.006906732 -0.06427678 -0.59829 -0.24409182 0.36437064 -0.33424678 0.050470013 -0.061353303 -0.3189121 -0.36604384 -1.0055051 -0.36446792 0.1631891 -0.13793877 -0.27897054 -0.4907329 -0.01394623 -0.0022450376 0.11167579 0.08914565 -0.24061123 -0.18772724 0.079929665 -0.47888055 0.81095237 -0.67143834 -0.14982693 0.115592875 -0.051991403 0.486158 -0.6101973 0.7418971 -0.34702158 0.5160191 -0.123083 0.23663877 0.25009942 0.0069280355 0.615586 0.18849513 0.4615899 0.7219869 -0.78828186 0.11763244 0.05093913 0.20339896 0.31612357 0.5662231 0.6217255 -0.14458165 -0.18817382 -0.28199238 0.4869487 0.11586932 -0.29627252 -0.14575422
4818 0.6024464 0.022618566 -0.31363872 0.7853955 -0.13496053 0.30110186 0.040294543 -0.2947019 -0.37682897 -0.52887815 -0.4083426 0.8480673 -0.105186716 -0.6342541 0.038929638 -0.14465952 -0.50827694 -0.78128016 -0.90308607 0.10508102 0.010530932 -0.23427893 0.52179277 0.19840203 -0.3649871 0.5944667 0.10410021 -0.23590676 0.14080335 0.7666259 0.19440337 -0.31347442 0.044142902 0.65944505 -0.1642883 -0.14546765 0.24441905 0.32481244 -0.15065143 0.5855627 0.0021892993 -0.041693304 0.70793015 0.1727845 -0.33777663 -0.18992524 0.5790167 -0.04984781 -0.042415217 0.020221537 -0.4480339 -0.1003867 -0.40592805 0.6277756 -0.4067355 -1.0931195 0.19159304 -0.33145535 -0.3481064 0.05807387 0.0069073783 -0.7919343 -0.43847927 -0.6191182
4815 0.7537841 0.0562596 -0.06769592 -0.031892356 0.18729712 0.5495335 0.22940473 -0.14383595 -0.036899958 -0.2848522 -0.16983472 0.6426381 0.19688587 -0.4019092 0.20264468 -0.17963892 -0.3126564 0.07553258 -0.34523448 -0.07097655 -0.06451685 0.02167829 0.30496493 -0.4339809 -0.27581635 0.3126094 0.25443596 -0.76498693 -0.096179016 0.41750532 0.16487238 0.13673818 -0.22537859 -1.0433694 -0.120458424 -0.3975391 -0.43016016 0.5721463 -0.5282465 -0.6953479 -0.096848965 -0.223894 0.78504795 -0.57294935 0.010323133 0.37799403 0.3483616 0.0487986 0.49012142 -0.3360311 -0.8837802 0.49689072 0.2735813 0.3083218 0.17820282 -0.10530905 0.7551196 0.45408887 -0.67354035 -0.08975962 0.5410406 -0.67480105 -0.9619488 -1.0156107
4763 0.2734221 0.023059964 0.008589664 0.15275858 0.9961968 0.056319367 0.62336653 0.47442645 -0.28485194 0.20320138 -0.28232735 -0.5496843 0.039166182 -0.43670604 -0.11738239 -0.039513625 -0.09307812 0.19538231 -0.8080002 0.08947718 0.61040914 0.022475898 0.37855664 -0.17490716 -0.36051854 -0.26110905 1.3081964 -1.1837589 -0.11994059 -0.4316472 0.4921652 -0.076009035 -0.358449 0.21589194 -0.31652832 0.044086352 -0.39780015 0.29939586 0.3396407 0.47812018 -0.02091276 0.63391286 0.5737409 0.32870424 0.071080916 -0.10922202 -0.2198215 -0.26826313 0.9491007 -0.39054507 0.14799553 -0.03571899 0.0409103 0.08449816 -0.96426874 0.36165917 0.30282924 0.03623258 -0.11903744 0.23719668 -0.36961433 0.5127445 -0.032921545 -0.023251003
4860 0.11439094 -0.41679284 0.45007563 -0.14585553 0.87761587 0.32782498 0.09282197 -0.49697882 -0.20272075 -0.5914723 -0.41946015 0.84547985 -0.047579058 -0.5087592 0.041271 0.10788147 0.33397037 0.067150466 -0.107298784 -0.30403638 0.18659066 0.49301764 -0.26955035 0.04882866 -0.74217606 0.7362337 0.16747119 -0.40324688 -0.20767736 0.6913242 0.10546129 -0.27270442 0.2931441 -0.0923535 0.03545022 -0.22118793 -0.33451504 0.5630476 -0.21853685 0.1680055 -0.05088911 -0.012242125 0.7706004 0.3146366 0.51050466 -0.45118815 1.2795982 0.20119372 -0.46433857 0.9632096 0.060262773 -0.00083241524 -0.1510255 0.4636579 0.25856027 0.068435036 -0.078371815 -0.5100441 -0.5170746 -0.2334712 0.1033756 0.055894516 0.094844334 0.17736019
4767 0.23063873 0.09839286 0.2253096 0.45666876 -0.13041595 0.044496167 0.39499626 -0.4764779 -0.63107026 -0.10242828 -0.099063516 -0.6138213 0.9286703 0.34510177 0.27233613 0.32209086 -0.49780563 -0.62076837 -0.791748 -0.19520572 0.2240289 0.13957143 0.051072422 -0.9395023 0.06238301 0.51460546 0.058125377 -0.37499815 -0.73081905 -0.95941585 -0.0374334 0.33513346 -0.49938932 -0.23546748 0.2721362 -0.05177501 -0.6506046 0.59153414 -0.105726175 0.33514005 -0.8661405 0.056597587 0.35414463 -0.4880138 0.6065474 -0.05431639 0.50340056 0.44731206 0.5214284 0.4451482 -0.1933122 0.32513866 -0.16411828 0.16733421 -0.23620012 -0.037816465 -0.4339593 0.05225291 -0.004323623 -0.16092135 0.31078565 -0.21740629 -0.75993735 0.32241678
4859 0.036665 0.3526129 -0.0025980612 0.3724446 1.0630542 0.48093495 0.109017305 -0.45476004 0.22674085 -0.5542179 -0.119403884 0.5222343 0.51938456 -0.41322696 -0.037654214 -0.4707489 0.55743086 -0.39058805 -0.6005311 -0.45746776 0.02089078 0.06458623 -0.10639778 -0.4441615 0.04908628 0.40367204 0.47723544 -0.11400932 -0.015869012 -0.23484063 0.489546 -0.31240538 0.8447681 -0.36611673 -0.7173373 0.025957925 0.1232802 0.3692723 -0.35412094 0.57883024 -0.19451514 0.1513032 0.3656489 0.31265277 0.5903688 -0.41506556 0.68726885 0.14127615 0.22376318 1.0856514 -0.26680753 -0.16531399 -0.033714954 0.3209703 -0.004066156 -0.14230323 -0.04068644 -0.7551654 -0.13628376 -0.09851596 0.42072946 0.19705628 -0.33934066 -0.07954062
2671 -0.0021000674 0.04378017 -0.16971909 0.0036590365 0.93809855 0.16666295 -0.041422147 -0.4377136 -0.3227158 -0.23052783 0.15910298 -0.3031556 0.5489836 -1.4114552 0.1823971 0.097153954 0.053607598 0.08453151 -0.31320226 0.3593818 -0.09942673 -0.19945079 0.2038461 -0.31556416 -0.32534364 0.3055827 0.0008056253 -1.4485273 -0.43010777 0.29678768 -0.038407248 -0.0494339 -0.25356293 -0.85890526 0.2763981 -0.081554346 -0.15994143 0.5303574 -0.44792083 -0.16013125 0.2806945 -0.119570166 0.057246644 -0.19961168 -0.1981422 0.09238667 0.4889966 -0.33622754 0.0471341 -0.089274414 -0.87567025 0.14824432 0.11665243 0.62459594 -0.25260118 -0.148034 0.6092545 0.09017964 0.71519214 0.48515117 0.9548038 0.1232435 0.7287981 -0.0013926516
13 -0.3485293 -0.3809333 0.42090058 0.3233085 -0.87835205 -0.102625646 -0.3357422 -0.5812264 -0.23690483 0.44472748 -0.4035101 0.18810669 -0.2280785 -0.26225382 -0.015578423 0.40206957 -0.54420817 -0.39791328 -0.72791106 -0.15224244 0.24422036 -0.5799567 0.42230847 -0.07772343 -0.4366953 -0.58071107 -0.09168469 -0.9823339 0.022484206 0.04370721 0.8851724 0.28372067 0.32523888 -0.28894538 -0.83480763 -0.54727596 -0.37945917 0.236929 -0.5154995 -0.09075066 -0.7750383 -0.7704064 0.7800471 0.4103153 -0.20324342 -0.5645981 0.3929143 0.03149359 0.3503887 0.6602479 -0.6100923 -0.019936189 0.5798363 0.07882054 0.09969835 0.19264697 0.30324447 -0.20263988 -1.0033119 0.45405325 0.12253518 -0.7448713 -0.29704934 -0.5572281
4830 0.34675238 0.45232916 0.2273888 -0.0856243 0.17513637 -0.82497156 0.08142835 0.54576504 0.3612943 -0.2262284 -0.22770269 0.33213794 -0.105712004 0.3567685 0.0042933584 0.6144416 -1.0974618 -0.29733807 -0.691093 0.51471096 -0.15655243 -0.08408259 -0.11927272 -0.37932205 -0.38984644 0.15411454 0.8282721 -0.5080776 -0.44712487 0.15411401 0.057692297 -0.4029718 0.38955876 -0.097504616 0.026674712 0.20426941 -0.15537496 0.35925156 -0.76607686 0.56199205 0.78819364 -0.18285021 0.00058671285 0.56176907 -0.31050518 0.28369027 -0.07514885 0.6906798 0.31696475 -0.18718976 -1.2633753 1.1782465 0.46974194 0.13698775 0.14489837 1.032952 0.021911694 -0.4139989 -0.10355433 0.42719352 0.35068923 0.040303413 0.21495299 -0.5366586
