3866 64
2731 0.10225222 0.71345013 0.27023077 -0.25714618 -1.3092506 -0.6658077 -0.122194976 -0.72781616 1.1148013 -0.50753605 -0.7066488 0.6046134 0.027872398 0.94032174 1.1130656 0.065435596 0.21643013 -0.7408281 -0.45425555 -0.82421434 -0.6905276 0.1380308 -0.7678228 0.7319812 0.38890672 0.23022649 0.89833635 -0.5718256 -0.6400176 -0.16679735 -0.6649291 0.9803553 -0.34465986 -0.6493481 -0.7520928 0.32676294 -1.0128579 0.15147735 -0.2837199 0.78074235 -0.14549343 -0.47772107 1.0484167 -2.1067672 -1.0936191 -0.45150062 0.5626866 1.1517601 1.1023558 -0.034670934 0.08206535 1.0948826 0.10490231 1.5256256 0.736801 -0.0961249 -2.177247 0.6101906 0.11243374 -0.82337344 -1.8332309 -1.3124605 0.25123373 0.27205342
581 -0.8764415 -0.16897917 0.52842456 0.4599979 -1.2218413 0.88065183 -0.26470488 -0.65682733 1.0972629 0.1389592 0.21504055 0.97280973 -0.14035405 0.44122452 0.41153967 0.30304188 0.82986397 -0.47119436 0.23200472 -0.37510604 -1.5409311 -0.48035106 -0.10606948 2.2888143 0.08129296 0.0045150323 0.20772325 -0.23135327 -0.57220894 0.12827507 -0.8146737 0.10245379 0.20694973 -1.0945673 0.9895717 -0.6715982 -0.2775332 -0.35752624 1.1802276 -0.08452336 1.1606324 1.0855641 -0.3127994 -0.49058405 -1.6755868 -1.01146 1.5686408 -0.4100346 0.9679461 -0.34857842 1.1829914 0.78744864 -0.28807893 0.8114398 0.22340994 0.8849837 -0.1745941 -0.20555495 -1.7006593 -0.07891029 -0.5585634 -1.1745236 -0.0929214 -0.81487733
2124 0.76664287 0.18657692 0.80424994 0.5380026 -0.99940217 -1.015982 -0.09899152 0.5060182 0.15420291 -0.70975024 1.5428729 0.10446831 0.7208187 0.0039059266 0.93491715 -0.32628274 0.28538394 0.08990389 -0.41794556 -0.60461116 0.6849077 -0.8352283 -0.019402811 0.17754447 0.21749145 0.75195235 0.6372403 0.9989819 -0.29267302 -0.067457736 0.2830697 -0.21533969 -0.3477225 0.31377706 0.44339165 0.130234 -0.8587094 -1.7785164 0.3299183 -0.327141 0.6487709 -0.35061967 0.70999044 -0.82875925 -1.8858557 -0.6884901 1.374335 0.6852364 0.3908643 -0.12780014 -0.6592665 1.3487496 -1.0064967 1.5246438 -0.0922808 1.3898152 -0.46061632 1.4680885 -0.5913202 -0.19068985 -1.9818788 0.6224157 1.3799472 -0.7842936
1697 -0.87725866 -0.30680645 1.1375048 0.9830848 -0.553184 -1.1546705 0.15816958 0.32307315 1.8381554 0.023126753 0.002466229 0.8442413 0.012888738 0.56046927 -0.24664283 -1.1936907 -0.20892687 -0.051137693 0.8095209 -0.21700932 0.39858994 0.49724743 -0.16016826 1.4114623 1.2937107 1.0050652 1.9483377 -0.79386544 0.4150876 -0.008908941 -0.65506846 0.6111649 -0.66654825 0.7173858 -0.3628188 -0.34146124 -0.21248324 0.19232504 1.6356517 0.42846254 0.13879389 0.5936014 1.6736937 0.0359418 -0.5591806 -0.37888566 1.4633653 -0.8469548 1.2276261 -0.32920328 -0.28355223 1.7050549 -0.31884623 1.670785 0.25194073 -0.2360169 -1.3543203 0.34050333 0.32457373 1.1458181 -1.5230805 -0.20764002 0.7925366 -0.39077988
2305 -0.48824134 1.1825503 0.7360582 -0.011557539 -1.1251554 -0.7106099 -0.87318444 0.054177575 -0.39553702 -0.49027255 0.26001257 1.3073047 0.1720965 -0.028084705 -0.26454303 -0.27100527 1.3804572 -0.58975154 0.69095963 -0.5595555 0.56393886 0.27223644 -0.07365316 1.4906306 0.11210822 0.9344849 1.3079288 -0.3588352 0.2917785 0.10730917 -0.7920657 1.2202673 1.0974662 0.011189048 0.4761708 0.12480339 0.11410269 -1.4076544 0.44163847 0.8192486 0.10729095 0.3726361 1.0021014 -2.0708532 -1.0505263 -0.22142734 0.30951563 -0.16967204 1.1031612 -0.011098874 -0.88768995 1.0231081 -0.49016204 0.084920906 -0.3323961 0.7425721 -1.0139182 0.6310686 -1.5109304 -0.20718755 -1.3651059 0.2446691 -0.54534364 0.35315394
1108 1.8122703 0.3472247 0.33579397 1.0142285 -1.0628792 -0.96208584 -0.48576248 0.4376097 0.9456043 -1.2940774 -0.47515306 0.3998005 -0.666992 1.2305628 1.3492647 -0.4011321 -0.14103897 -0.2771233 0.7665596 0.18599647 -0.56815815 0.30446514 1.1287053 0.25002196 0.8214893 0.05340651 0.43532747 -0.47933346 0.7103226 -0.37713373 0.08394258 0.09051506 -0.02866739 -1.2726582 -0.46493945 -0.2815977 -0.025076037 -0.74935913 -0.41924483 -0.042042594 -0.87423843 0.20124711 -0.19073346 0.055582333 -1.9590347 -0.7073564 0.7296386 1.0035381 1.834547 0.4608868 -0.76608557 1.9764606 0.65257514 0.34791288 -0.43505207 0.6770935 -0.07925392 0.23699728 -1.1935012 -0.30271274 -1.7896899 -1.4636838 0.47222826 0.11302934
2338 -0.8987173 0.94825506 1.2101488 0.4079851 0.28369114 -0.40954384 -0.17753503 0.05862611 -0.013289569 0.9519715 1.3908466 0.89832455 -0.5025492 0.69493747 0.22796027 -0.7331979 -0.34859088 -0.8511598 0.23009285 -1.2181181 -1.9721736 -1.0731919 0.03777755 0.44583437 0.9454624 0.6739932 1.9574658 1.3749924 0.6967261 -1.5653021 -0.19688407 -0.9398821 -0.05376303 -0.74130374 0.17647417 -1.589582 -0.6758501 -0.32815114 0.5634734 0.5310213 -0.9164626 1.0848397 0.029007718 -1.4374812 -0.90703136 -1.438959 0.7427021 0.4512094 0.6210261 0.15175575 -0.37793505 0.9295528 -0.2617327 0.886612 0.61309457 1.0492995 -0.28157416 -0.1767585 -1.0361743 0.46985102 -0.93903136 0.6158621 -0.589602 0.14234367
885 -0.37176076 -0.1505024 1.3497576 -0.7022151 -1.5822581 0.34049317 -0.39434218 1.1350626 0.2017689 -0.47995552 0.3390913 1.0177741 -0.6545769 0.09678907 0.6653917 -0.84305316 -0.28407302 -0.64206237 -1.0125052 0.094587766 -0.793527 -1.15228 0.81091994 2.6129665 0.15661079 -0.53738743 0.5970049 -0.34736905 0.8639677 -0.65646386 -0.72029483 0.62698877 -0.63479036 0.4014413 -0.16890109 0.47230777 0.071131535 -0.04562001 0.40941244 0.3063911 -0.24381408 0.68649757 -0.31645092 0.019203853 -1.6648577 0.23703775 0.2778099 -0.2194457 0.93730813 -0.85405135 -0.06325805 1.6142907 0.20821051 0.021497486 0.26965842 0.031100906 -0.76542455 -0.0011367825 -0.8256337 0.5463136 -2.0478556 0.057222858 0.46551517 0.3982229
332 -0.7983907 -0.030069213 1.2520683 0.17570326 -1.6253675 0.57013875 -1.1964002 -0.677548 0.6012272 0.19395715 -0.77706605 0.32752496 0.2290799 0.717539 -0.5844359 -0.85386014 0.5170689 -0.3792946 -0.40423992 0.10572585 -1.1816988 -0.56221294 -0.19725162 1.4496704 0.31750807 0.38019702 0.26496866 1.3397082 0.70748943 -1.1184707 -0.61547166 1.260258 0.04620169 0.42409945 0.7397828 -0.8641514 0.43270835 -0.23349644 -0.56185627 -0.2177971 0.2543082 -0.2153587 0.41586077 -1.3539182 -1.3739487 -0.99391514 -0.062489413 0.5330688 0.5070045 0.65163714 0.5210007 1.4588829 0.018549778 0.48823717 -0.25137654 0.7694561 -0.8912969 -0.07434495 0.21216892 0.8283392 -2.3130028 -0.67937404 0.4560944 -0.18449466
455 0.70961726 -0.5841808 0.7051967 0.09143584 -1.5334601 -0.10506824 -0.54578 0.47212955 0.72548115 -0.1726625 0.5057492 0.8279739 -1.1263813 0.34166238 0.20704105 -0.5141956 0.93566334 -0.32134476 -0.34422678 -0.10886194 0.05473815 -1.0815239 -0.6000387 1.3940439 0.19542667 -0.11764213 0.6281243 0.41025504 0.40655506 -0.83376724 0.33865717 1.485948 0.4856558 -0.20569448 -0.20986441 -0.71387494 0.79728895 -0.09209128 -0.09320385 0.9860445 1.4317575 0.29066712 1.4006606 -0.35193387 -0.38279685 -1.2684898 0.6344477 0.11481963 1.1661782 -0.9083186 -0.11932471 0.9522905 -0.20334859 2.7638164 0.54247844 -0.378983 -1.5015043 1.209456 -0.0072358306 -0.27073422 -0.7818037 -0.15729733 0.8015677 -0.08999619
2100 1.10992 1.2857759 0.9230915 1.3047526 -0.3699467 -0.31107637 -0.40869668 -0.028026441 0.2260315 -1.059067 0.22149554 1.0224106 0.05937069 0.83103174 1.0055786 -0.7725376 0.35967532 -0.1671934 -0.8814813 0.074982785 -0.28095385 -1.0974405 -0.5194594 -0.6830817 -0.049365003 0.53144443 1.0366377 0.7375758 0.41181207 -0.9960536 -0.33286867 -0.24256408 0.46465227 0.7159746 -0.5562869 -0.34879333 -1.4127396 -1.5951422 -0.33351627 0.0002994144 -0.56841177 -0.75423414 0.1486635 -0.20162976 -1.3792415 0.25574964 1.1511782 -0.17393546 1.6354263 -0.25808126 -0.9532118 1.9086585 -0.41049075 0.50463563 1.3352704 0.10958448 -0.74571645 1.1764078 -0.26724026 -0.1333641 -1.3366916 -0.5892768 -0.54283005 1.4251713
1871 0.17500138 -0.5931155 1.1818198 0.0020343973 -0.97349083 -0.3388824 0.019013725 -0.65806055 1.4643632 -1.3258319 -0.4038396 0.47794384 -1.352694 0.87385696 0.023224622 0.42201632 -0.19749314 -0.20203695 0.3003495 -0.4357685 -1.0392932 0.09347309 0.25652036 -0.08463556 -0.2900394 0.030956041 0.3138075 -0.31744918 0.133378 -0.6227272 -0.8293581 -0.47869205 -0.014442972 -0.17952965 0.3002395 -0.2549388 -1.0921278 0.21889143 -0.23928253 -0.5951972 -0.27649665 0.8301404 0.06544257 -0.71667546 -0.22910917 -0.5219881 0.448085 -0.34961364 1.3250474 0.2302546 -0.40724635 2.5136182 -0.8460998 1.7828681 0.50263196 -0.07796244 -0.40051204 0.83764243 -0.57005525 1.3756596 -1.6768005 -1.0152949 0.5784188 1.2175075
275 -0.14146435 -0.8174435 -0.3370985 0.097030185 -1.910812 -0.4610438 -0.17839895 -0.26548192 -0.40128753 -0.79435974 0.73868674 0.42337686 0.21180232 0.6252334 0.6389657 -1.2753074 0.24062796 -1.0371569 -0.9319848 -0.49089605 -0.73353505 -1.3510405 -0.24381316 -0.1349681 1.1427624 0.13063201 0.57659376 0.6042024 0.40681192 -0.5249038 -0.30896482 0.13126107 -0.09401821 -0.37368903 0.50562185 0.2772609 -0.10978075 0.28143576 0.49496838 0.7810887 0.21419188 -0.5001503 -0.1691661 -0.9639891 -1.2858752 -1.2447425 0.75846696 -1.0234045 0.8515177 0.7488042 0.3990907 0.92830557 -0.69895494 1.2857816 0.6160917 -0.07806803 0.14271493 0.17111424 -2.0345018 0.17559932 -2.127663 -0.46679124 0.47316638 0.89170444
1947 0.46402103 -0.40610245 1.4888343 -0.5390219 -2.0383692 -1.2300413 -1.0339103 -0.39935726 1.9129357 0.40087157 0.22684126 1.1823014 -1.0401638 0.6174757 0.39430925 -0.31026715 -0.60023934 0.3050105 0.4101261 -0.045835406 -0.092436396 -0.5533952 -0.7037111 0.89935213 0.80103433 -0.37360376 1.7545208 0.9995001 0.33236885 -0.68519795 -0.6740836 0.13732053 -0.40714452 -0.8219459 0.06765843 0.21882768 -0.8633951 0.2426198 0.10847753 -0.3888884 -0.3865171 -0.62111723 1.650808 0.337642 -1.0499893 -0.61426157 0.6530331 -0.40996462 0.76972294 -0.13505022 0.7240989 0.44334036 -0.47323972 0.25630382 0.63888687 0.48333287 -0.95617664 -0.5075408 -1.4232706 1.1062602 -0.9573257 0.8541726 0.37941495 -0.10424736
2855 0.88265234 0.06109554 0.34928077 0.8681531 -0.9859084 0.6476726 -0.3528624 -0.22713804 1.1238236 -1.5806628 0.1660647 1.2027315 -0.5133387 0.65691257 0.9563457 -0.49624255 0.6272345 -0.49485445 0.45991617 0.7928382 0.60153645 -0.39383918 -1.1329774 0.6826712 0.8503985 -0.66906536 1.2507153 0.7803767 0.52962273 -0.38365117 0.20554252 0.8178061 -0.64340645 -0.028286153 -0.40877604 0.4212688 -0.5906116 -0.9768558 -0.1783658 0.36116177 0.25450626 0.9356667 0.27405897 -0.37991032 0.035617255 -1.3453891 0.47863913 -0.12009867 1.1709746 -0.6907834 0.3778377 1.9116429 -0.46144122 0.001344695 1.4586098 0.19393878 0.43745676 -0.7793235 -1.061638 1.41465 -1.9426719 -0.7263084 -0.7290007 0.66340965
2340 0.8869835 0.1575782 0.991223 0.023161566 -0.585091 -1.2297543 -0.15432505 0.10560231 0.9282932 -0.75542253 0.92801845 0.17877148 -0.022665747 0.35874844 1.0191034 0.1456963 0.66740716 0.30667704 1.3087811 0.513399 1.288927 -1.1096838 0.07160095 0.81736165 -0.06996011 0.8912322 0.4395769 -0.18731463 -0.68563014 -0.56088156 -0.80529684 0.527491 -0.80326486 -0.8048275 -0.47846943 -0.28947896 -0.2976273 -0.2741944 1.0347067 -0.081727006 -0.69310653 -0.08826037 0.9242419 -1.1842374 -0.6889458 -0.5044477 1.7541372 0.5932269 0.35332316 -1.5108594 -0.221848 2.2382011 -1.5224872 0.19061284 0.70754546 0.4419533 -0.331031 0.3338683 -0.437246 0.50223446 -1.40256 -0.81609374 0.22977033 -0.12777467
1110 -0.24347977 -0.77583164 0.2986645 0.9707444 0.6458887 0.46645927 -1.379557 -0.18131094 0.46371484 0.5684525 0.7086273 0.7752556 -0.48458108 -0.20192932 0.08963919 0.22915322 0.7428319 0.5359393 -0.86506194 -0.9179942 0.13386452 -1.4107347 0.19536175 1.3156295 0.5539565 -0.08391853 1.5367477 -0.14151789 1.0589396 -0.4217571 0.30863863 0.27351275 0.74675643 -0.42144322 -0.06908479 -0.92696923 -1.0118648 -0.38249147 0.11195053 0.44980085 -0.05220714 1.1361529 0.3997833 -0.95703846 -0.3933268 -0.58290476 1.5982637 0.37973607 1.4532709 0.58769006 -0.084789835 1.4567076 0.92973477 -0.17735608 0.48311174 0.24986055 -0.69737965 1.0294677 -0.99703354 -0.16811524 -1.4571812 0.479032 -0.16328906 0.2219106
2039 -0.4330824 -0.31690437 0.90349376 1.6005946 -0.9018156 -0.9201055 0.69868875 0.8584519 0.4367386 -0.388516 1.2036648 0.42423007 -0.70293236 0.45974147 0.70783275 -0.2536807 0.8522772 0.09227132 -0.47619066 -0.54774207 -0.53096235 0.07060437 -1.2768716 0.18284468 0.01744599 0.97567147 1.1554012 0.51905507 -0.07399984 -0.3979139 -0.7742078 0.15430227 -0.13731483 -0.6917014 -0.8046217 -0.9482507 -0.6940603 -0.5969938 -0.6594911 -0.07889926 0.08659326 0.13853972 0.08717503 -1.5254905 -1.3565564 -0.40785956 0.7431664 -0.46251428 0.95397675 0.9096282 -0.0647653 1.0756391 0.79178536 -0.20965512 0.6491427 -0.058711443 -0.4617631 1.0641983 -1.1438782 -0.87512445 -0.83038616 -0.15153109 0.6058445 0.020502832
2643 0.22698225 -0.34302935 1.7251201 0.24265727 -1.0942369 1.0235983 -0.09091087 0.44338316 1.0132967 -0.5224302 0.3203296 -0.32160294 -0.40043437 -0.0721483 0.4897559 -0.6324061 0.6435873 0.18569961 -0.33960688 -0.4067272 -0.971673 0.00867498 -1.3147333 1.3011563 0.51045394 1.3394598 0.35325587 0.41510528 1.0805751 0.21980153 0.68367296 -0.43694568 0.62078273 -0.9306108 -0.28218856 0.038055927 -0.59775054 -0.14345606 0.19086456 0.05115157 -1.0373806 -0.30464926 1.9296478 -0.5202475 -1.0362273 -0.14510785 1.9704107 -1.0331098 1.4114736 0.48579374 -0.4820734 2.3991184 -0.720289 0.7394204 0.099729896 0.626468 -0.12778401 1.3846691 -0.44506097 0.34727943 -0.2081126 -0.5756034 -0.70959735 0.36443734
1085 -0.22698207 0.81196296 0.4616843 0.17612416 -0.7790558 -1.8634793 -0.071319476 -0.043739047 -0.20842852 -0.73515874 0.17515914 0.8037065 0.25598323 1.3590127 0.83931434 -0.7932017 -0.43611923 0.6513427 0.011740011 0.0037591278 -0.14932992 -0.5026791 0.9628177 0.46042562 0.11149836 -0.77591294 2.3834648 -0.62427753 -0.80367863 -0.9224303 -0.9166453 0.8767184 -0.6137373 -0.20540713 -0.8809834 -0.112312585 -0.11356193 -0.8026981 0.13946784 0.835413 0.23998739 0.37946332 0.28745627 -0.613051 -1.3828714 -1.1221364 0.07575604 0.23811707 0.2733513 -0.6096693 0.0036780583 1.1888238 -0.6580349 0.99707174 1.3578572 0.68337095 -0.7043833 -0.96660805 -1.4824166 -0.77160543 -1.7480981 -0.7753496 0.52118874 -0.16165818
201 0.33275416 0.27929375 0.06187916 1.7113956 0.090750195 0.48244393 -1.1977668 -0.33567038 1.343351 -0.09430346 1.1428257 0.92261136 -0.8879941 0.44585422 0.24440132 -1.2106495 0.79610956 -1.5172194 0.29123262 0.12230794 -0.45694304 0.37778413 -0.84394383 -0.016851395 0.20942403 0.7190537 1.5166767 -0.12430584 0.059797976 0.4066342 1.0570549 0.10403975 -0.6833955 -0.47148716 0.6023501 -0.21992375 0.52570987 -0.5066056 0.56004167 0.21498914 -0.2330251 -0.21523963 0.34864727 -1.1085427 -1.0656065 -0.74276394 0.53304356 -0.43359458 0.46518156 -0.07092339 -0.086443566 1.1865216 -0.326557 0.5340713 -0.03936459 1.578431 -1.2642865 0.705766 -1.0762151 0.15972687 -1.1869615 -1.2173365 1.2760522 1.441654
651 -0.790719 0.5459795 -0.0493386 0.42581037 -0.42278597 -0.39574566 -0.49406296 -1.0074685 0.5828162 0.57335716 -0.09709582 0.41522503 -0.1454187 0.3026506 -1.1803707 -0.1127305 -0.3170939 -0.40225396 -0.32624155 -0.46074387 -0.2500633 -0.86692876 -0.69338274 2.372922 0.3202578 1.3622528 1.1844072 -0.3088438 -0.3972627 -0.30234703 -0.5258118 0.36247617 -0.36339438 -0.5326518 -0.18263188 0.50819135 -0.26305485 -0.08613967 1.3326067 0.08613679 1.1605483 0.8702503 1.7638439 -1.5706505 -1.6310527 0.41218317 0.8107021 -0.71934235 0.35282025 0.35516587 0.27407068 1.621323 -0.21646863 0.63672113 0.07723822 0.62340176 -0.8937572 0.2515338 -0.05677687 -0.8405226 -1.2295414 0.689277 1.1857469 -0.5329392
2778 -0.6304436 0.56347555 0.86512107 1.2608647 -0.6524073 -1.3874227 0.37271714 -0.042927284 -0.102459215 0.7496052 0.6073599 0.7023208 -0.15238994 0.17741013 -0.0059259194 -1.0412484 -0.5765368 -0.27008504 -0.08481587 -0.88745344 -0.62036645 -0.5120173 1.0356687 0.8153679 0.7675863 0.42199853 1.7829374 -0.14564545 -0.7104594 -0.5735797 -0.48596388 -0.50442487 -0.008634695 -1.0828818 -0.0049398663 -0.8761845 -0.40808234 -0.46768764 0.9429181 0.5799401 -0.25198206 -0.03229249 1.3048184 -0.7119011 -1.0056595 -0.8342065 1.1964003 0.3734627 1.320122 0.42034593 -1.0730888 0.70517415 -1.4266036 0.8063903 -0.79907763 1.0111415 -1.5774443 0.93185073 -0.0022543147 -0.97376454 -0.70450044 -0.17132331 1.2914354 0.47107518
1361 -0.43464237 -0.63187367 0.67816234 -0.10402924 -0.15647769 1.0732391 -1.4556899 -0.6446749 0.9434446 -1.1383861 0.1932821 0.35091877 -1.2534703 0.31415927 0.39845031 0.17792393 0.76920813 0.120819375 0.2868265 -0.14717537 -0.08797327 -0.9215525 -0.48020065 0.8971833 0.10112623 0.9682339 0.15236825 0.6435929 0.4451313 -0.7391509 0.27344695 1.002414 -0.528763 -0.08171418 -0.91373754 -0.8026991 -0.82716334 -0.71601117 0.1838221 0.112547204 -0.0050824736 -0.5585897 0.42000708 -1.1656858 -0.6212436 0.53159547 0.7366336 0.23199207 -0.016145468 0.0014002713 -0.5251727 2.9430034 -0.20362213 0.28948137 1.6060338 1.3390279 -1.0460626 -0.009753407 -0.9842916 0.7456135 -0.61933 -1.1402959 -0.33550635 1.1138165
2406 -0.14547762 0.41865802 -0.025486149 0.69439805 -1.2115376 -0.44223994 0.97082835 0.36861786 0.38579684 -1.2016404 0.3447393 -0.4723079 0.36127615 0.7179554 1.1423059 -0.40830532 0.8477046 0.067292504 -0.42810148 -0.64063823 -0.9934895 -1.11672 -0.25335446 1.2075044 1.2254196 0.316871 0.4337193 0.82534 -0.11124984 -0.33369538 0.15254784 0.9175501 -0.45696586 -0.7587849 0.618725 -0.8253734 -0.698029 -0.8250902 0.74973226 -0.805702 -0.24184145 1.0460438 0.69545615 -0.84874797 -0.18931817 -1.1245267 0.4335039 0.14257596 0.32117724 0.41245642 -0.47023177 1.0773594 0.53728515 0.59998953 -0.6323229 -0.19733776 -0.42589194 -0.036554705 -1.2740941 0.14275265 -1.9414866 0.21982345 -0.5749665 -0.63074934
1212 -0.88279223 0.16825816 0.7870875 0.9768132 -0.28011465 -0.28831992 0.12072405 -1.474192 1.0439774 -0.7873245 0.908713 1.05806 -0.3337812 0.43766338 -0.6924127 -0.37695733 0.28346166 -0.1340136 -0.667306 -0.04387575 -1.2450911 -0.11655797 -0.08943695 1.5065758 0.6387262 1.46117 0.69139516 -0.13729869 0.15438236 -1.2604817 0.42361453 -0.6280724 -0.7435305 -1.762583 0.66146266 -0.7247273 -0.7604399 -0.16049649 -0.69987524 -0.08853905 -0.36514145 0.25452322 -0.30213732 0.06940224 -0.23855959 0.19589098 1.2277015 0.42866364 0.12564634 0.6617036 0.16193905 1.6666028 -0.73069876 -0.031031573 0.3868663 0.40429246 0.24254256 -0.031657375 -1.6301932 0.5498873 -2.0712745 0.37272027 0.088714235 0.5935099
853 -0.15119873 0.20798762 0.6081618 1.08468 -0.41394335 0.5575252 0.17973427 -0.2028424 1.0707579 -0.17452706 0.28925276 0.8813344 -0.6542422 -0.00460269 -0.37959993 0.3897294 1.0025754 -0.579909 1.0975533 -0.09461115 0.37862223 0.47422218 0.10737304 1.0820307 0.056048617 -0.17213355 0.6998092 -0.0027406442 -0.8410747 -0.48850903 -0.6011063 0.57075864 0.8549358 0.29893434 0.26824418 -1.3550265 -1.2324227 -0.42836708 -0.117388844 -0.5296587 0.57025915 -0.20591713 0.15090099 -1.3855584 -2.1140084 0.022757806 0.8953733 -0.118520394 0.25066715 0.39024723 -0.65439266 1.2722951 -0.09834234 0.5948265 1.4295149 0.5379906 -0.69424045 1.0874966 -0.3526415 -0.5428016 -1.8495747 0.35611638 1.610151 0.052873913
1174 0.55009097 0.9462581 0.70890343 0.58839643 -1.2485594 -0.09123311 -0.1610384 -1.1333269 0.97501856 -0.21962939 1.5152944 -0.20280205 0.33553076 0.44994906 -0.3493647 -0.4186183 0.6773286 -0.70538443 0.2939444 -0.27564555 0.11099763 0.7259732 0.2878637 0.4122828 0.33491865 1.4580549 0.373954 -0.7654483 0.77953446 -1.6123294 0.7726466 0.8304526 1.0298431 -0.26029205 0.28129864 -1.3186519 -0.045525283 -0.94161767 0.07883998 0.07210358 -0.8232277 0.6074151 0.24070236 -0.3721536 -1.0933939 -0.7495011 1.2024889 -0.07877497 1.0672992 -1.2616345 0.8470412 1.6758846 0.4038171 -0.073878914 0.63030696 -0.22957686 -0.40354824 0.21403623 -0.6782876 -0.6213834 -1.8137394 0.14423856 -0.07353378 0.8016383
135 0.16850162 -0.029732728 0.38521296 0.7252133 -0.41983026 0.21429841 -0.89977485 1.0067524 0.10941765 -0.15020834 -0.30606583 0.4859584 -0.69087535 0.11564918 0.9580326 -0.52219355 0.14692648 -1.0080429 -0.13364919 -0.4048119 -0.71404994 0.5872274 -0.63034856 0.6924734 0.5151582 1.1902092 1.0753648 -0.49035832 0.41468114 -0.90199023 0.23237032 0.584331 0.1264684 -0.00796616 -0.18323869 -0.70399904 -0.9164385 -1.2481787 0.27040818 1.0328764 0.61758703 0.60135543 0.78704274 0.15266564 -1.0152211 0.78280026 1.3562858 0.5103068 0.26223272 -0.11423117 0.52931297 0.09281891 -0.5273053 0.45329833 1.0988126 0.22321378 -1.1473111 -0.22524805 -1.8680507 0.38518563 -1.5320319 -0.50002337 0.82453394 0.06722538
2550 -0.20524465 -0.023460556 0.17132199 0.71031755 -0.3508416 -0.10411034 0.19009016 0.2804435 0.3818287 -1.3411077 0.7746154 1.2260203 0.5369911 0.74216706 -0.25623322 -0.94001985 0.17872038 0.51233304 -0.5185359 -0.020164657 -0.90256023 0.29473543 0.74567735 0.78039205 0.58584887 -0.0063972403 1.4939163 -0.4026584 -0.36618596 0.32807904 0.16328791 -0.57453257 -0.13602483 0.39170498 -0.45829925 0.25791582 -0.75785553 -0.88606966 0.81682616 0.37253296 -0.0462778 0.6221349 0.17048956 -0.8957933 -1.5901136 -0.64462155 0.15751544 -0.040906787 1.8271592 -0.5632055 0.99007326 1.9957997 0.3476759 0.28671074 1.1973145 0.769195 -1.0729828 0.37502992 -0.17460771 -0.66369104 -1.0884172 -0.5698774 -0.91011816 1.0787994
613 -0.30810466 -1.2977754 -0.049890958 0.18111649 -1.8281715 0.022042103 -0.61470795 -0.6850849 0.6704748 -0.66112715 0.61818373 0.5730596 0.057630263 0.43551457 -0.28155804 -0.8513378 0.3550079 -0.6449763 0.76360714 0.34510994 0.27939925 -0.21105687 0.2173499 0.60519254 0.08076687 -0.2331472 0.94342154 0.26775473 0.5886468 -0.19711097 -0.7366013 -0.069791354 -0.3834106 -0.67099077 -0.96225417 0.5318411 -0.28953883 -0.4621546 -1.1524101 -0.008129192 0.036377635 -0.22391099 -0.18055384 -0.87712 -2.1822786 0.4030385 0.93437606 -0.12313108 0.1268841 -0.46470606 -0.44278714 1.1270155 -0.6076094 -0.36315995 0.7509352 0.9826833 -1.8349408 -0.18549053 -1.5958576 -0.07851968 -1.0252376 -0.98072577 0.6365062 0.921446
611 -0.58195364 0.6582379 1.0525966 -0.38460812 -1.4153277 -0.76388866 0.15434915 -0.28579548 0.7360516 0.3345073 1.0504622 0.95031255 -0.16437308 0.5024766 -0.42782366 0.6263043 0.29861426 -0.1646703 0.62411803 -0.04796825 -0.28218943 -1.0432463 0.60515016 0.9055228 -0.05714703 0.5691079 0.28658944 1.0304143 -0.13002563 -1.3929617 -0.520908 1.0858033 -0.049154714 -1.3851027 0.74330103 0.15343225 0.32729533 -1.1784714 0.24392577 0.908512 -0.04679299 0.96058655 -0.12209173 -0.084716804 -0.9937854 -0.10474639 1.6695436 -0.34558368 0.8163909 -0.47491106 -0.26522502 0.8410376 -0.8448386 -0.4716862 1.4362587 -0.5070181 -0.78839415 0.20611599 -1.8987818 -1.2423812 -1.2368155 -0.26469842 -0.19473214 -0.19418742
1184 -0.55122167 -0.27343607 0.47221568 1.2408804 -1.2103448 0.023825072 -0.35961953 -0.6298999 0.6254426 -0.7162218 0.9933992 1.271816 -0.54511964 -0.048697308 0.28490996 0.4944896 0.5472494 0.593109 0.81500965 0.10933151 -0.6456579 -0.41259596 0.12992162 0.6401594 -0.2507741 0.68394786 0.30639797 -0.08860264 0.26186165 0.63608074 -0.073312946 1.2057147 0.288881 0.066320784 -0.63971937 -0.94393826 0.64584666 -0.18418613 0.8208987 -0.37418965 0.2955533 0.088991925 0.7058893 -0.37109596 -1.3161857 -1.469209 0.44766912 -0.39272997 0.29062995 -1.4720856 -0.72395796 1.9358636 0.83505595 0.5198981 -0.46238717 1.5907023 -0.0024713036 -0.3033614 -1.0500007 0.22056244 -1.8783522 0.6209988 0.7457563 0.66804224
1968 -0.6209356 -0.46071106 1.0483948 0.73035246 -0.13260771 -0.23082672 0.29039508 0.5556034 -0.28962746 -0.4374032 -0.23566857 0.25178146 -0.6905556 0.22279751 -0.59349173 0.53858733 0.25358337 0.0880458 -0.39015993 -0.5412796 0.12577866 -1.2583464 0.45815194 2.3279846 0.09696621 0.34769052 0.137194 1.0843887 -0.036281865 -0.47899973 0.40488517 -0.01485116 -0.59568757 -0.60906595 0.8813618 0.16707812 -0.6548624 -0.90943956 1.3481457 0.11684033 -0.29286408 -0.43928963 -0.24672803 -0.87479144 -0.79231316 -0.6911994 1.585567 0.17857267 0.3818217 0.80465895 -0.9798631 1.7304873 -0.9032251 0.9154077 0.9370362 0.6609407 0.016240457 -0.28988945 -0.2712104 -0.8309783 -1.8851469 -0.6189147 0.9260116 0.13767448
2414 -0.6197359 1.12906 0.33298206 1.5284243 -0.08036357 -0.17062204 -1.2266521 -0.92506 1.0331223 0.24716674 0.44081688 0.065358646 0.29435897 0.51479197 1.4568301 -0.6223655 -0.64109224 -0.05794972 -0.7944928 -1.120719 -1.3302215 0.10109104 0.15614511 -0.11982248 -0.021165432 -0.5698608 1.5575434 0.23875026 -0.46769238 -0.40647218 0.3588246 0.8091492 0.48667377 -0.5055056 -0.49316144 -1.0165967 -0.1850078 -0.353213 -0.10639071 0.32106566 -0.57073164 0.5496958 0.9293667 -0.44137266 -1.0778403 0.17060539 0.66988987 -0.604332 0.40944353 -1.0780251 -0.18775932 1.6946753 0.7029706 0.8566554 0.5957382 0.71091986 -0.27817005 -0.26267013 -0.92471087 0.91629994 -1.1291445 -0.33638713 0.26242992 1.1140544
787 -1.0677302 0.3611069 0.767003 0.8361126 -0.87850606 -0.30523023 -0.88551104 -0.836681 -0.4695956 -0.3978098 0.87001073 0.26393396 -0.377151 1.2255005 0.34538034 -0.7008862 -0.5938063 -0.8783989 -0.2122294 -0.6629572 0.20214151 -1.5112246 -0.26291704 0.9128277 0.9593415 -0.10694442 1.9805617 0.67449254 -0.8229645 -0.38066578 -0.54350924 0.30396545 -0.9609522 0.11310562 0.6059835 0.07463377 0.32243165 -0.99048036 0.9427332 0.5163647 -0.87860346 -0.3275548 0.3232555 -1.1290022 -0.9979804 -0.56858414 -0.083406724 0.24136087 0.40420306 -0.87432003 0.34241265 0.1714961 -0.41564262 0.49088755 0.08606915 1.3660133 -1.1072102 0.26917103 -0.30220506 0.36461166 -2.4316459 -0.35265747 -0.4436537 0.3497202
401 -1.0594238 -0.72364765 1.121999 0.7697895 -1.094701 0.13880517 -0.99515545 -1.252614 0.5741562 -1.2100298 -0.4114545 0.31063852 -0.71315324 0.056391496 -0.24842793 0.013873207 0.22090389 0.2113183 0.13592678 -0.6874882 -0.4126058 -0.30848792 -0.5957362 0.691038 -0.5591744 0.85783136 1.988415 0.09254518 -0.7520543 -1.1490217 0.6277929 -0.7739286 0.6876823 -0.43509477 -1.0565186 0.43019104 0.07121445 -0.91930085 0.7921028 -0.12519772 0.5646439 0.059620712 0.026716368 -0.6813236 -0.9767955 -0.6568316 1.3576022 0.08175709 1.6142555 -0.2783923 -0.902815 0.55096245 0.53796995 0.89445126 0.8159173 -0.18046673 -0.6706466 0.83276427 0.029428639 -0.50937116 -1.3442619 -0.2775579 -0.41341716 -0.27841187
1695 0.45110217 0.49178907 1.1328604 0.6404411 -0.055892114 -0.2052169 -0.48377824 -0.35020265 1.1991676 0.74016535 0.014019822 1.694383 -0.17098607 0.09408673 -0.04672383 0.21204917 -0.21309237 -0.5990427 -0.110157475 -0.8313999 -0.4595817 -0.86536324 -0.9976109 1.1649702 0.70758533 -0.6652694 1.0673019 -0.72104067 0.72413033 -1.3165952 -1.0183018 1.0346152 0.36380842 -0.42103246 0.30049643 -0.15513161 -0.08451935 -1.3137639 -0.26048207 0.47490734 0.101513356 0.43792632 1.465753 -0.51499444 -1.9247154 0.48721945 0.81700134 -0.7773972 0.639022 0.28535098 0.46540317 1.1959372 0.32312146 0.48459354 0.32092455 1.0403554 0.3474137 -0.51155657 -0.6669342 0.68225944 -0.3783851 0.11301637 0.7486933 0.8098743
2408 0.43790427 0.2216678 0.62866735 0.868739 -1.817542 0.9244228 0.46259555 -0.017330715 -0.16323404 -0.46236002 1.2382073 1.0373374 -0.11980218 0.93258935 0.06299295 0.638048 0.9856445 0.120523 -0.0523328 0.5230785 -1.2466501 -0.105877675 -1.1258992 0.25726703 0.71469975 0.27009973 1.3108368 0.05120196 0.878845 -0.008072835 0.762786 1.0244061 1.1349934 -0.90891606 -0.12492475 -0.28322366 -0.47028905 0.0505788 -0.17532428 0.9444113 -0.30407882 -0.09729251 0.93743503 -0.20519854 -0.9701643 -0.015573664 0.26957038 -0.36118063 1.056736 -0.49318716 -0.12898894 1.1707102 -0.6535448 0.8538485 -0.10236663 0.4754664 -0.92031395 0.42386386 -1.131392 0.32541078 -1.2300911 0.59420747 1.0638179 0.6984364
984 -0.6185099 -0.1298582 -0.40852836 0.7242335 -1.6987593 -0.7078867 -0.7654067 -0.27876943 1.4871403 0.45799717 -0.011548834 0.23243427 -0.3834164 0.58616215 -0.36673808 -1.3146347 0.52039975 0.22498238 -0.010937546 -0.5858473 -0.6979278 -0.8117762 0.38356724 1.4204117 0.46047795 1.4946635 0.8765999 0.8899888 0.025219288 -1.1301997 -0.027395375 0.43583906 0.8684921 0.12546565 -0.4227493 -0.67570907 -0.56631863 -0.21736282 0.1584902 -0.39957166 0.1299063 0.01477162 0.5012779 -0.48206177 -1.2280352 -0.85556763 1.3289375 -0.5325732 0.30779886 -0.4897715 0.1974605 0.8329132 -0.21986215 -0.0016687019 1.0813801 -0.19255167 0.49217173 0.3498414 -1.1293802 0.2000797 -0.3418759 -0.13695881 -0.31766918 -0.8663712
2776 0.2253007 -0.14441015 0.49918777 0.8089343 0.077667736 -0.43297827 -0.17332765 -0.33839473 1.0773406 0.057223585 0.33720443 1.8826678 -0.09753875 0.7840604 0.83210105 -0.14877267 -0.36442253 -0.33985433 0.21608914 -0.28243744 -0.020128364 0.090983644 0.7642276 -0.05884378 1.6248733 0.94697744 1.043784 0.6061017 0.49558988 -0.26373607 -1.1859637 0.013747843 0.43649206 -0.5601452 -0.43688312 -1.0220253 -0.25463998 0.21411203 -0.29894957 -0.7111243 0.5288056 0.31803405 0.65431607 -1.4855554 -1.1314389 -0.9498329 0.81467533 -0.69128996 -0.24504194 -0.51204705 -0.8311568 1.2310628 0.29011533 0.56169313 0.5090304 0.484137 -1.7312212 0.41759586 -0.30088875 -0.86415267 -1.0623924 1.0219806 -0.29877704 -0.10008754
615 -0.013258649 -0.96333253 0.5410763 0.4603073 -0.22154638 -0.45862103 -0.3505224 -1.0233574 0.8991663 0.0114990305 0.40831974 1.1537297 -0.9300309 1.07116 1.1621798 -0.25466916 0.7416665 0.59482014 0.3040165 -0.16225025 -0.63618547 -0.4208194 -0.64234686 0.63255084 -0.60246664 -0.15797135 0.48486018 -0.48806348 -0.18088302 -0.43013152 0.6923437 0.5943976 -0.45019102 0.56680363 -0.050615195 0.57918227 -0.7510437 -1.0169226 0.64770603 0.22585663 -0.55993235 -0.123101585 -0.3138902 -0.49149272 -0.4728157 -0.70228934 1.4396318 0.51562387 0.03363523 0.33015513 -1.350301 1.2419738 -0.15650666 1.5806552 0.65979123 1.3202904 -0.33723092 -0.2109277 -1.5865741 -0.64539844 -0.92476004 -0.8038866 1.2433472 0.15540095
1054 0.5800834 0.88676345 0.8592143 0.5858798 -0.24455862 -0.16925003 -0.1481756 -0.19922905 0.6528606 -0.44454706 0.3184849 1.1032286 0.24563621 0.8316045 -0.051498592 1.3149629 1.089144 -0.13563542 -0.045282356 -0.4003805 -0.67389965 0.55431044 -0.25464413 0.9827189 0.80402374 -0.6038435 0.2954081 -0.16314556 -0.3656473 -1.0351335 0.45521098 0.48198652 -0.6710005 0.17238615 -0.9513604 -0.96142924 0.4692981 0.20362633 -0.16398744 -0.5776621 0.5803097 1.2343807 0.5893593 -0.098198935 -1.6764992 -0.022614766 1.233681 -0.7031534 1.471296 -0.069229074 -0.45526975 1.661822 -0.4656462 1.4444971 -0.5376544 0.113444164 -0.085466534 0.8798335 -1.5093687 -0.074318685 -0.6080365 0.38017717 1.0196036 -0.46378782
740 0.08032328 -0.21633695 0.40513355 0.36087745 -1.4566655 0.65317166 -0.5278023 0.27951327 0.84178305 -0.39868516 -1.2240661 1.7023518 -0.7795878 1.2350489 -0.34431127 -0.4571403 -0.32365695 0.73391736 0.012309043 0.7386265 -0.09712476 -0.3919026 -0.2711478 0.77893937 -0.1259559 0.348324 1.0122416 -0.11635957 -0.28450412 -0.11596267 -0.3509628 0.36738655 -0.5168268 -1.0446254 0.10825811 0.4740294 -0.70991254 0.12845667 -0.7359158 -0.15933381 0.42332295 0.33499026 0.256545 -1.3970457 -2.0056386 0.18371487 0.6558817 -0.4873088 0.47573408 1.5189079 -0.07680431 1.6018308 -0.5479985 0.5915029 0.7061202 0.5883375 0.12410614 0.5898261 -0.21013808 0.44562152 -1.5300126 -0.21015875 0.6401776 -0.06813715
399 0.7528909 0.47048053 0.84172 1.0128217 -0.386777 -0.005170475 -1.0573425 -0.18182267 0.6087212 -0.1290487 0.27214885 0.95386374 -0.20462099 0.71610034 -0.42017424 -1.2300673 0.450818 0.83379245 0.04111555 -0.57579684 -0.6700333 0.066369005 -0.20074598 0.7849434 0.12995349 1.5586109 -0.07229965 -0.08290643 0.48290944 0.4893663 -0.10860482 0.10849557 0.15100576 -1.016081 -0.62451184 0.2661259 -0.7072071 -1.4556942 0.49353594 -0.048398666 1.0254154 1.2571446 -0.08039548 -0.23586611 -0.94803107 -0.99758375 0.97118115 0.4791675 0.8726848 0.60438514 -1.0208921 1.8941784 -0.13692084 1.0594058 1.3627498 -0.2599257 -0.59459746 0.5272137 -1.2451745 -0.46683922 0.0709865 -0.26904938 0.48630005 0.77429265
2608 0.1770517 -0.016012792 -0.63582754 0.298676 -0.62675303 -0.8170937 -0.25327873 -0.22093664 -0.43869203 0.033220906 1.0140569 0.87098753 -1.1837404 1.0139062 -0.7003355 -0.15446326 -0.22156493 0.6603179 -0.47368735 -0.5600237 -0.15735474 -1.2452351 -0.6739528 1.6167223 -0.16212796 0.46161178 0.57756895 0.23496589 0.26262817 -0.6249574 -0.62711567 0.19278151 -0.16383794 -1.3612349 -0.029328687 -0.23160443 -0.16868296 0.0063538877 -0.4520769 -0.6386227 0.13678007 1.2142845 1.4119998 -0.079322636 -0.88787335 -1.0744472 1.6702021 0.86372787 0.19076224 -0.45195982 0.5780635 0.80268407 -1.2653742 2.1904917 -0.3213814 0.65745425 -0.46792567 0.37518296 -0.8318463 -0.459271 -1.1452816 -0.48514968 -0.12208139 -0.8227686
2267 -0.23490512 -0.17697854 0.6133406 0.18160422 -0.59958315 -0.46099016 -0.07206208 -0.21192138 0.80830914 0.6966682 0.72838235 1.2503562 -0.018776506 0.06801748 -0.57635045 0.40021783 0.1406994 -0.48657125 -0.80460775 -0.8580254 0.012663542 -1.1589869 -0.4980184 0.9858984 0.2757919 0.4673518 1.1109428 1.2663956 0.34474257 -0.7683056 0.91592413 -0.97560626 1.2736162 -0.34708863 -0.7091967 -0.08979699 -1.4327962 -0.5066092 0.74768335 -0.9709102 -0.55966455 1.178489 0.05035056 -1.149643 -1.7645563 -1.1468072 0.29058313 -0.4138462 0.20847943 -0.18698157 0.9682215 0.75005275 -0.4488822 0.98894006 0.061166517 0.95957744 -0.023931088 -0.2591786 -0.646441 -0.40307784 -1.7358854 -0.33222947 0.90122074 -0.4290046
1260 0.8323266 -0.5726054 1.1844023 -0.28469524 0.20124626 -0.5009074 -0.5528246 -0.39894384 0.11427601 -0.8526125 0.9964518 1.0708786 -0.2809672 0.20440923 -0.44384223 -0.16643025 -0.68034184 0.2736493 -0.6233376 -0.8168051 -0.21413083 0.1606856 0.0795077 0.8089706 1.4772713 0.5515531 1.5406656 -0.22544718 0.3892379 -0.47182623 -0.8932925 1.2841822 -0.5646922 -1.3092455 -0.5009354 -0.3870839 -0.44703314 0.281151 0.6660688 0.01956288 -0.28625572 0.99707156 0.46211118 -0.3082488 -1.0891386 -0.7481176 0.93358076 0.15914877 -0.1438097 0.53354347 -0.9040563 0.49551493 -0.9670512 0.81331915 -0.38938165 0.6114436 -1.0230596 0.32610542 -1.5544225 1.0779345 -1.3864527 0.11947969 0.89160174 -0.8845791
1623 1.3643215 0.87126356 0.6017888 0.83480495 -0.81263334 -0.37594384 -0.9215751 -0.5876428 -0.2943134 -0.6414825 0.015456099 0.26226446 -0.47510004 1.0528579 0.11478333 0.6444013 -0.23756646 0.0067246584 0.33352306 -1.098037 -1.116856 -0.3187345 -0.47528988 -0.386403 0.27479377 -0.26510793 0.76728565 1.9779407 1.011695 -0.4588091 -0.31208032 0.1534792 -0.25713897 -0.95871675 -1.1698158 -0.10222297 -0.47733438 -0.9063049 -0.381696 0.5874594 -0.29192546 -0.3992463 0.3255079 -1.471177 -0.5343647 -0.4430656 1.4831496 0.63766587 0.98157436 -0.39076322 -0.019049589 0.605884 -0.511296 1.548271 1.0068735 1.064 -0.8438289 -0.16787632 -1.1320068 -0.23156504 -1.0813705 0.306376 -0.13153262 0.2913277
649 -0.376657 -0.23884724 -0.4378352 0.9978371 -0.68909174 -0.73268974 -0.36301145 -0.7366803 0.8136317 -0.26638165 0.19024566 1.1091509 -0.16059437 1.1954031 -0.318985 0.48640937 0.8168364 -0.029315848 1.0279524 -1.049826 -1.1085254 -0.12633274 -0.0076589664 0.66445136 0.01829779 1.6799475 0.023757067 0.8239707 0.5375856 -1.1902349 0.12390293 1.0409536 0.49923962 -0.5321935 0.94197786 0.19236305 -0.92048734 -0.5551993 0.97544396 0.10605791 -0.13283186 0.809664 1.6194848 0.09897474 -0.88937515 -0.7327353 0.7442169 -0.9145095 0.3583203 0.04849009 -0.24108058 2.1217892 -0.0429218 1.0619884 -0.34435236 0.3344634 0.1713928 0.6355061 -0.15460503 -0.3767853 -0.8629625 0.6640902 -0.12344305 0.38366652
543 1.1125759 0.20902424 0.4715629 0.4998114 -1.109673 -0.25379053 0.0020509106 -0.6239974 0.2446366 -0.6364864 0.9538476 0.9095404 0.49609745 -0.50921315 0.95428324 -0.5892614 -0.9403381 -1.1288846 -0.6451841 -0.9620306 0.07400343 -0.06223079 0.67593175 1.2543432 1.0838169 0.02655671 1.2456315 0.093615964 -0.95001876 -0.38518274 -0.03135119 0.37373713 0.16616024 0.71580225 -0.8181365 0.29628956 -0.64591545 0.035687048 -0.47024733 -0.6236377 -0.57529235 -0.034603428 0.0011049141 -0.4238841 -0.11943011 -0.17547242 1.3447211 -0.43205944 0.33802125 -0.8487751 -0.4247119 2.0802295 0.15564373 0.08606225 1.1230267 0.45984334 -0.14192751 0.7158403 -1.0429342 -0.08707527 -0.9771566 -0.97125345 0.2691451 0.28598502
661 1.1656712 -0.06779525 0.71527255 0.3092316 -0.38179228 0.20822875 -0.38111764 -0.5764526 1.4005847 -0.12166413 -0.069767945 0.47419524 -0.27979833 0.030405177 1.4680535 -0.25686556 0.87709904 -0.5214435 -0.29494506 -0.25639856 0.79481834 -0.17512989 -0.62408257 1.5698445 0.12304987 0.7663486 0.3726701 0.5770416 0.29840857 -0.69262165 -0.9726965 0.64912635 0.074154556 0.33595347 -0.39502522 -0.1541355 0.17237607 -1.3060414 1.1971486 0.023667486 0.33928066 0.94107777 0.3912279 0.17954762 -0.54510874 -1.2773424 1.1098282 0.9065075 0.39469534 0.022304632 -0.77895486 0.93537694 -0.115743674 1.494099 0.025030164 -0.06809709 -0.14166398 1.5217159 -0.13526137 0.71976405 -2.2276702 -0.8038096 0.13098237 -0.79553956
1855 0.11671355 0.5647872 1.5734174 1.0529579 -0.3833941 -0.58668077 -0.43385068 -0.6337963 0.117979646 0.4459058 0.4950875 -0.65947986 -0.4898256 0.9387832 0.45357692 -0.2547993 0.8349223 -0.74373114 -0.031152723 -0.6646541 -0.425471 -0.37007612 -0.035855312 1.8583978 -0.62660134 -0.0703702 1.1435773 0.16333476 0.2613773 -0.6924369 -0.2721912 0.4165392 -0.3216026 -0.15356308 -1.1031173 0.34134245 0.091081604 -0.100922324 -0.43864936 -0.8374189 -0.15476528 -0.59497374 1.1923403 -0.9758044 -0.5343677 -0.6647623 1.6759932 -0.6764393 1.0844972 0.2476255 0.21429133 0.727691 -0.16716075 1.1976576 0.014842232 1.0150113 -1.4184744 -0.3123001 -0.4670242 0.4940398 -0.18851568 -0.93012726 0.1088232 -0.44411907
1257 0.6441107 0.60891414 -0.4551414 0.014319396 -1.3629192 0.31781968 -0.021833917 -1.0519505 0.36853552 -0.6372245 -0.55508155 1.2322688 -0.5512953 -0.25101689 -0.20678312 0.3286602 0.32224035 0.07404499 -0.030412873 -1.2174679 0.26144937 0.59343415 -1.2265038 1.3561687 0.8537408 -0.3914548 0.64711034 -0.17776321 -0.76832336 -1.1142958 -0.5742721 -0.3359046 -0.2824065 -0.92952204 0.18257514 0.30744502 -1.0286114 -1.1247146 -0.8159483 0.046197046 0.012742672 0.88726145 0.7111045 -1.4686203 -0.6076826 -0.04914162 2.3023932 0.14871897 0.7708942 0.3325362 0.03647967 1.0961329 0.4507601 -0.025975348 0.33220822 1.0562015 -0.3683061 0.29767898 -0.9597618 0.2871441 -1.2668297 -0.1507595 0.3510614 -0.5425836
1027 -0.8565728 0.64767647 0.6178145 -0.07768027 -0.3673469 0.6896566 0.080209516 -0.5540574 1.1514363 0.04356624 0.848083 0.54093194 -0.22426315 0.40922558 0.7271873 -0.23123842 -0.06506553 0.1121313 -0.02330571 -0.83849585 0.23685455 -0.9112664 -0.0025385735 1.1991025 0.6676154 -0.28131288 0.6889945 -0.40233526 0.6804195 -0.9632677 -0.6840857 0.18839303 0.4433879 1.0594598 0.3070607 -0.7164842 -0.8388749 -1.7178545 1.4654855 -0.40947092 -0.24181084 -0.21097235 0.81964475 -0.13500547 -0.3469788 -0.70046324 -0.44894123 0.43413654 1.287848 0.32060772 0.36660016 1.8070439 -0.094585344 1.8354756 -0.02156675 0.7443443 -0.0033117116 1.5075628 -0.81317246 0.5194756 -1.5757326 -0.5459497 -0.34855333 0.74516094
272 0.82848006 0.40658548 -0.3013298 0.8442564 -1.1031098 0.41090438 -1.1201622 -0.20463635 0.53276265 -0.87237686 -0.9266769 0.19751981 -0.83706075 1.1531639 0.49387538 0.26395193 0.78947055 0.094057605 -1.1120757 0.18608178 0.46084526 0.2163178 -0.18951692 1.5134256 -0.7311749 0.37468383 1.4924623 -0.2918283 0.111600086 0.17828026 -0.18483174 1.3400835 -0.37109926 -0.32973883 -0.08582063 0.44627884 -0.88264316 -0.8039019 -0.020485623 -0.021378031 0.377567 0.087547146 0.98530215 0.26895905 -0.93997 -0.7339283 0.7571217 -0.36185405 0.8432663 0.21710145 -0.25148222 0.93439317 -0.8441033 0.5481706 0.83919376 -0.053147893 -1.2368392 0.8109178 -0.6906386 -0.27236673 -1.3436153 -1.9144454 -0.29078406 0.0536452
513 0.38997266 -0.5806844 -0.15115553 1.7062367 -1.2069708 -0.737912 -0.51306796 -0.6472482 0.85389477 -0.77236116 0.49578357 0.6448077 -0.090733476 0.61974233 -0.031106781 0.40295184 0.22375083 0.48588166 0.084459335 -0.3091707 0.51288176 0.03684511 0.19134504 1.8072937 0.54089576 0.320591 1.2564635 -0.14305227 0.100079924 -0.51755184 -0.6535123 0.80084777 -0.29374167 0.16593213 -0.31417465 -0.15876916 -0.06748834 -0.8645479 -0.25046155 0.61427945 1.4998811 -0.1059626 0.9805903 1.1649977 -1.092001 -0.37083432 0.78410816 -1.2193623 0.43258443 -0.43452856 0.5702957 1.32551 -0.84222686 0.22589393 -0.17469221 -0.15764982 -0.65352684 0.44247836 -1.0988837 -0.09977224 -1.3647153 0.30212438 0.87963086 0.12825307
2783 0.24596588 1.2026635 1.2245859 0.872093 -0.78943187 -0.73193216 0.16349518 -0.29582268 0.9590534 -0.7613449 -0.45194998 1.092582 -0.8510535 -0.58717936 0.5885799 0.29847622 -0.15550375 -0.41986442 0.49339816 -0.35144883 -1.2384794 0.4877275 0.061717484 1.0846081 0.9022979 0.7968845 0.79929274 -0.07636062 0.28845435 -0.7171957 0.016879342 0.39999494 0.1730682 -0.5784222 1.306023 -0.7386733 -0.75924504 -0.44847542 -0.041365907 -0.6889961 -0.3406508 0.8757272 -0.21327555 -0.5374043 -0.8661403 -0.23606028 -0.312624 0.12878756 1.1346097 -0.016131317 0.045006044 0.8095839 0.103097625 1.0428804 1.3983399 0.18796895 -0.10071336 -0.21851668 -0.29059252 -0.40699708 -1.8713682 -0.51992506 0.07567009 -0.7281131
1302 -0.840218 0.32527506 0.4090278 -0.28345335 -1.102512 0.031792466 -0.2131267 -0.9973593 1.0827354 0.80151933 -0.94610405 1.2827971 -0.19474484 1.2544326 -0.49345142 0.20577814 0.31408995 -0.3778021 -0.4601567 -0.40038803 -0.60696894 -0.9093017 0.0008850176 1.036609 0.7000763 -0.052989803 1.2392908 0.2669592 -0.20852534 -0.6064685 -0.4384504 1.7188388 -0.16494763 -1.2656306 -0.49801666 -0.7559652 -0.09120843 0.09565768 -0.23767383 0.63558894 0.66039485 0.4215041 0.3211276 -0.5277912 -0.43054783 -1.1648262 1.1548818 0.3425704 0.46980995 0.28762156 0.3776499 1.3246626 0.70021194 0.13103724 1.9217728 -0.14877543 -1.2539183 -0.5319961 -0.7800467 0.29462123 -0.8876071 -0.04636797 0.114828415 0.20703708
219 0.32685536 0.1345091 0.97995514 1.010119 -1.2849877 -0.041174244 0.009130703 0.5794248 0.5395668 0.06235176 0.11942719 0.5729285 -0.5064272 -0.28863811 0.44005856 -0.03343152 -0.95746684 -0.43990266 -0.3020877 -0.52845937 -0.61537796 0.51478004 0.30311707 0.6688752 0.49445263 0.71040684 1.0097989 -0.07178097 -0.6335801 -0.43886837 0.6030979 0.9522972 0.008686058 -0.8044037 0.09313966 -1.1093997 0.6378839 -1.3748899 -0.12119324 -0.35055313 -0.8975852 -0.9470973 1.1315075 -0.24757813 -0.26976544 -1.18931 1.5118816 0.10212197 0.97823125 0.302571 0.6739445 1.549656 1.0010369 1.7006342 -0.06640876 -0.2681945 -0.71755904 0.63224286 -0.0031334625 0.0064549446 -1.0662881 -0.4884834 0.4074912 -0.39518893
198 0.55992264 -0.6226507 0.28238723 -0.063081406 -0.7947279 0.09824226 -0.4109365 -0.59894055 1.1519842 -0.24764366 0.16473648 0.53521967 0.40443954 0.7842016 0.7757502 -0.17377949 0.9319056 -0.21002711 -1.1296688 -0.8278156 -0.5657384 -0.14792158 -0.22830592 0.01050794 0.4683485 0.8578471 1.3068365 -0.4664675 0.3195959 -0.22744232 -0.012593056 0.27858594 0.72571033 0.4419055 -0.009095118 -0.07802568 -0.118650064 -1.0816604 0.40042043 -0.06499189 -0.9355241 -0.06859474 0.73108906 -0.521966 -2.3650687 -0.7009749 -0.03140329 -0.12743346 1.4165745 0.39605993 -0.52397406 0.6868448 -0.13758302 -0.4269828 0.29189754 0.9228905 -0.2675414 0.7693757 -0.74306893 1.4860553 -1.4074215 -0.6991279 0.6983221 0.6080205
1189 -0.5513669 -0.37964228 -0.23173156 0.55361205 -0.82242334 -0.18864363 -0.0151472585 0.32255632 1.4559892 -0.11005145 0.4909573 1.2731706 -1.1945264 0.8476724 -0.046487734 0.6251042 -1.0263519 -0.4749777 -0.27283797 -0.587829 -0.7833569 -0.60601586 0.17450665 0.64602065 -0.5189132 0.72325104 1.1175003 0.4802899 -0.5601292 -1.309465 0.15469055 0.25108176 -0.82050735 -0.5318402 0.020948146 -0.597912 -1.2202861 -0.2018475 -0.4266346 -0.3808272 -0.3620628 0.18753155 0.9354845 -1.1329216 -0.72975224 -0.00242423 1.1807189 0.5874564 0.06791653 -1.252438 -0.17863202 1.5073442 -0.5617699 0.25199872 0.26343778 -0.60532117 -0.24273947 -0.4077799 -1.1602925 -0.18137775 -0.89068854 -0.5848985 1.4683583 0.560292
916 0.06389468 1.3840474 0.7831896 1.1611388 -0.84308577 0.71269035 -0.8163943 -0.63500667 0.66317624 -0.30183843 0.33623838 0.32037333 -0.2527328 0.45807222 -0.43934536 -0.35609716 0.56609124 -0.32239386 -0.2645942 0.8852597 -1.1421804 0.04329281 -0.9606369 1.4919771 0.5583339 0.69297546 1.3120228 -0.65102994 0.19826418 -0.11898155 -0.6165405 0.61071163 -0.39298818 0.21768609 0.04090959 -0.9929732 -0.6117401 -0.5241644 1.0980564 -0.96191365 -0.13703401 0.2832474 0.12729855 -0.50988257 -2.087767 -1.2241302 0.11183723 0.49988547 0.35700068 0.0004911314 -0.85906845 1.1220192 -0.8985453 -0.029800426 -0.30083993 0.10303665 -1.3592354 -0.17892732 -0.68909156 0.52952313 0.05231086 -0.8298597 0.6489337 0.5197484
2538 -0.13619633 0.4684208 -0.20406188 0.3979007 -1.3055743 -0.13900058 -0.1740971 0.6890722 0.7302867 -0.99719036 0.77434456 0.036910504 0.97206366 -0.25785568 -0.4915236 0.5474951 0.46101883 0.5070385 -0.8530986 -1.0827821 0.010234571 0.020472025 0.49711528 1.4327544 0.5446322 0.44560847 0.34072953 0.111105 -0.11134224 -0.89820766 -0.92591923 0.7133453 -0.071869574 -1.3093103 -0.8022652 -1.2535169 -0.39148772 -1.1640017 -0.17667745 -0.66234356 0.036579467 0.10174092 0.79119384 -0.28893563 -2.2721496 -0.82221836 0.31739938 -0.32561925 1.2427473 0.1593462 -0.08790511 0.98582417 -0.711922 0.2471525 -0.042730063 1.0708082 -0.19784376 -0.051594157 -0.07939271 0.24403024 -1.6644938 0.64423895 -0.22885047 0.39084095
205 0.19068338 0.23210807 -0.10655099 -0.18640319 0.33147675 -0.7123806 -0.87983763 0.6613257 0.8023278 -0.22380796 0.81252885 0.7650805 -0.37261686 1.5151471 0.78604245 0.98118335 -0.2984291 0.6712778 -0.35505736 -0.2994817 -1.6114739 -0.31822595 -0.053834148 2.0099096 0.7717471 0.5637064 0.91704035 0.7006764 -0.35804656 -0.040525988 -0.10661259 1.3338575 0.38644645 -0.8008956 0.25229964 0.13775714 0.22808547 -0.26610616 0.3201325 0.054158982 -0.21313673 0.43739763 0.801043 -0.5987297 -0.65426797 0.2673388 1.483035 0.17094114 0.59747267 -1.079137 -1.1088352 1.2139161 0.18744428 0.41709435 0.93950063 0.34283686 -1.4174908 0.1920245 -0.31019822 0.08925816 -0.51400054 -0.08060909 -0.24179527 0.29249567
971 0.11922593 0.20942935 0.56446457 0.1464384 -0.547745 -0.52596885 -0.593298 0.35608184 0.7803873 0.05076531 -0.19320132 1.243334 -0.33423254 0.6893637 0.4055418 0.014940514 0.24941377 -0.13534401 0.72602904 -0.022790698 -1.2075064 -1.0697793 0.11920336 0.22371212 -0.5745033 0.67624104 1.5561025 -0.5037693 0.5233998 -0.75119066 1.1939254 -0.21502265 -0.6014963 0.9188243 -0.47046563 -0.9939795 -0.77353764 0.10702399 -0.2950373 -0.19693834 0.15855877 0.22575046 1.2245213 -0.8205651 -0.3750262 0.104040354 -0.39490992 -0.5518451 1.0336756 0.22394852 0.29826954 2.562863 0.12948073 0.3692069 -0.47200176 0.118590735 -0.8957512 0.17250979 -1.451993 -0.5822622 -1.2073586 0.030894952 0.564187 0.854954
530 -0.2976603 -0.70070297 1.3465834 0.04620163 -0.19107282 -1.396913 -0.3238329 0.5586047 -0.01316282 0.29230577 1.5128577 1.0296857 -1.731738 0.39217454 0.45314285 1.0422392 0.28893724 0.11296047 0.60831475 -0.47096527 -1.2982844 -0.6620983 0.72853166 1.2891027 1.2573941 0.6421344 0.35117167 0.37245667 0.28892806 -0.57219416 0.5423467 0.08794698 -0.075954266 -0.32251143 0.26892197 -0.999178 -0.7933333 0.5730793 0.19325474 0.06706985 0.48880148 0.35853592 0.840143 -0.45900068 -0.46900117 -0.07569032 0.8663635 -0.1434231 0.9380353 0.07718888 0.16269991 1.4559029 -0.44668275 1.4405092 -0.9106178 0.21248673 -0.3999534 -0.27548364 -0.9870833 0.3652163 -1.808707 0.1633495 -0.152886 -0.31649354
927 -0.15534249 -0.28165945 0.7302066 0.43280333 2.8444596e-05 0.8847708 -1.4677368 -0.3818209 0.5169395 -0.47099578 0.46820912 -0.26511025 0.65076315 1.139485 0.4963025 -0.16014083 0.37503645 0.75978607 -0.39608985 0.7783786 0.21198048 -0.96790683 0.26191884 2.2686272 -0.36410722 0.96320707 1.7645774 1.0973451 -0.24648914 -0.39614147 -1.050696 0.6216652 -0.47919035 -0.29068446 -0.7144199 -0.60801184 0.93390363 -0.36145228 0.34271708 -0.4681009 0.37735736 0.6900178 -0.5139778 -0.5150863 -0.5443756 -0.4407163 1.4302446 0.4641677 1.18447 -0.28522202 -0.76699775 1.3154881 0.01778019 0.17933384 0.5670738 0.6904537 -1.419076 -0.31334776 -0.95521706 -0.30022782 -0.5082848 -0.50897664 -0.1439826 0.9869305
1292 -0.87090445 0.75910336 0.60720825 0.26129836 -1.1689703 0.28215963 -1.3441603 0.24990451 0.4949818 -1.2868183 0.34350118 0.623481 -1.5239735 0.25312707 0.43388668 0.70619595 0.019580202 -1.1159863 -0.64386183 -0.89128166 -0.1706662 0.40795916 -1.0157093 0.5603483 0.4216229 1.4806534 0.64468104 0.57475805 -0.6342524 -0.01940769 -0.3617425 -0.3891234 0.3194085 -0.19072568 -0.87588966 -1.1285956 -0.85715216 -1.1799816 -0.34460866 -0.71494347 0.56433713 0.33544326 -0.3337355 -0.07949354 -1.2325298 -1.2754716 0.24656503 -0.23719947 0.3850915 -0.9464518 -0.39420488 1.3744789 0.18110332 0.6967545 0.4172454 0.9130209 -1.1726165 0.9443007 -0.37639597 0.25349265 -0.7148165 0.27169928 0.7249469 -0.052577727
249 -0.45320415 -0.4166 0.90589225 1.152416 -0.70382184 1.8349563 -0.9327964 -0.7406838 0.8259764 -0.56965756 0.07352329 0.33061525 -0.5430984 -0.4360704 0.12590064 -0.058653507 1.05815 -0.8550556 -0.039163563 0.47205928 -1.3653116 -0.13891175 0.5995981 1.5791303 0.90714025 0.4510556 0.8553396 0.54758894 0.29678413 -0.26793334 0.52180123 0.22728387 -0.010896532 -0.5336663 -0.010902961 -0.5042994 0.11714892 -0.25904492 0.4098497 -0.156782 -0.36649942 0.3767391 0.4690382 -0.8203176 0.08543877 -0.90808254 1.2885709 -1.2911117 1.1507301 0.16734958 -0.4864013 2.031753 0.6829738 -0.24727808 0.43034106 -0.025901763 -0.5000732 -0.82861346 -0.76089895 0.14776866 -0.86494327 0.07827554 -0.018440483 1.4465292
1734 -0.16803755 -0.035032947 0.3578759 0.045401774 -0.9290901 -0.10569366 -0.9571395 0.6935158 0.6901612 0.73346144 0.50062144 -0.375016 0.78453046 0.15067151 0.024890553 0.700235 -0.1724376 -0.067384034 -1.1661103 -0.1327013 -1.1065838 -0.29430407 -0.28791684 1.4721023 -0.55077153 0.09237478 0.62054956 0.7844799 0.7937237 0.01945185 -0.631955 0.07324661 0.3239704 -0.60759383 -0.43594462 -0.07028889 0.26091248 -0.8214137 0.15022941 -0.5217964 -0.48476645 -0.13561065 1.0850896 -1.4462167 -0.53113323 -0.5117863 -0.28549096 0.33472735 0.78201413 0.5142975 -1.111013 2.5918162 -0.57462007 2.1607056 0.43418592 -0.056522634 -0.66009766 0.12431997 -0.91234916 -0.06720128 -0.5331844 -0.45483896 0.5423945 0.06326435
1252 0.05766254 -0.8366653 0.49702865 0.61155444 -0.7876973 -0.11723659 -0.1725962 -0.31670335 0.69514346 -0.34217587 0.9435495 0.3625407 -0.99785036 -0.21756485 0.83909965 0.46099922 0.76392883 0.94227177 0.43144986 -0.2862073 0.13461076 0.23438968 0.82203484 1.112237 0.079084404 -0.30887276 1.2494853 -0.061577667 0.5743181 0.0032115579 -1.0700268 1.3048741 -0.7527891 0.5959435 -0.25410149 -0.5061161 -0.07781908 -0.67327565 -0.20619145 0.1538076 -0.21096213 0.081942804 1.1038343 -1.643835 -0.51870966 -1.5460378 1.1856782 -0.6534626 -0.20216164 0.51169515 0.9858504 0.90331864 -0.18759029 0.838022 -0.14602545 0.8131693 -0.7129058 -0.23116441 -0.43256804 0.47230357 -1.1375858 -1.0521852 0.6976246 0.48168543
1604 0.15200578 0.8594808 -0.27567387 0.64858335 -0.57658744 0.29902625 -0.6882819 0.6682708 0.49167278 -0.6582664 0.8104921 0.31486657 0.48170292 0.4454473 -0.29404795 0.019464577 -0.36044544 -0.5664286 0.88224703 -1.0185136 -1.2043264 -0.12060591 0.122371666 0.76226777 0.41482648 0.2750087 1.057097 -0.5061828 1.5818167 0.009225919 -0.12117627 0.8650792 -0.6707144 -0.51319426 0.4767942 0.21609458 -0.16689372 -0.9277479 -0.39995652 -0.3403143 -0.33275035 0.7953141 0.77637243 0.17382129 -0.73352444 -1.399329 0.045874525 -0.7667556 -0.041175157 0.62322307 -0.10140354 1.6573504 -0.3773897 0.10687923 1.3525528 0.4685821 -0.58825815 0.94298255 -1.2678789 -0.30606422 -2.0126147 0.14886627 -0.55965227 -0.6593689
1393 -0.6249017 0.14567094 1.5970612 0.41615525 -0.5975856 -0.028972257 -1.6831422 0.086937234 0.3302768 -0.84560907 0.65113753 0.26182434 -0.22212726 0.40095246 0.9124836 -0.62156165 -0.6463441 -0.1358494 0.41279805 -0.17247663 0.16211426 0.23081438 0.11143566 1.0788926 -0.60307527 0.27870026 -0.13835819 0.2482019 -0.13865998 -0.3430056 1.0243157 0.92732054 -0.29030976 -0.7018173 0.35239246 -0.18184474 -0.25193405 0.220525 0.6916248 0.21751586 -0.1017009 0.47592235 0.9827035 0.0020313344 -1.7864399 -1.0789473 1.3814796 0.4333 1.829571 -0.6775533 0.5871556 0.39880526 -0.3628133 0.46471632 0.20388958 1.0125095 0.52304435 0.08769453 -1.2239212 -0.20485625 -1.3348367 0.1575562 0.52613395 0.28703365
1596 -0.58685356 0.63539284 -0.30613905 -0.34487158 -0.3610529 -0.3690601 0.43866953 -0.2077089 0.28947616 -0.71547115 -0.49688923 0.7663838 0.36864266 0.64402825 -0.10458215 -0.34231475 -0.84551823 -0.7432803 0.27253053 -0.3183918 -0.7711827 0.26942024 -0.97308993 0.47823116 1.1060119 -0.3886363 0.75906605 0.8129609 -0.35078812 -1.0616151 -0.2744735 -0.6142794 -0.052044496 0.19077924 0.13685168 -0.5714961 -0.96980584 -0.5199925 -0.3533589 0.26409334 -0.58428 0.7774374 0.31669557 0.021801727 -1.7397783 -0.85547024 1.6620443 -0.15203208 0.7333314 -0.61612964 0.6501007 1.5032868 -1.1233889 0.20577705 -0.29908508 -0.010402336 -1.1784395 0.520177 -0.6356408 0.7859566 -1.689122 -0.33544162 0.5869716 0.71484256
211 0.36894745 0.6104089 0.18616322 0.5106539 0.20770669 -0.12297802 -0.7404238 -0.407882 -0.560397 -0.51564085 0.21114564 0.6516636 0.3238878 -0.12440136 0.15594196 0.020775698 0.9365517 -0.9046822 0.6617845 -1.4550774 -0.68959314 -0.6861478 -0.60824096 0.027708357 -0.59845424 0.5653407 1.5276393 0.4770741 -1.2172549 -0.17646435 -0.8607618 0.81023 -0.1347689 -0.3032912 -0.59638083 -0.053384196 -0.6932705 -0.8918239 -0.7226698 -0.0050849835 0.27228463 0.84166694 0.26420167 -1.0395151 -0.9225697 -0.29373005 1.0496817 1.0563887 0.1813269 -0.27883014 -0.5557433 2.104521 0.3038313 1.0103292 0.82513523 1.0983727 -0.4241592 0.781617 -0.39015794 0.6999375 -1.0479698 -0.93419874 -0.52569246 0.55319583
406 -0.5688548 -0.18147083 1.4097813 -0.025502373 -0.8374448 -0.61719096 -0.80254745 0.63207346 0.019318156 0.1626506 0.15159723 0.6796032 0.441983 0.95844066 -0.36141613 -0.13914508 1.1084999 0.5023565 -0.86252147 0.49715886 -0.5302053 -0.70821065 0.7836562 0.37232652 -0.3413841 0.6725406 1.5548173 0.24374504 0.6394016 -0.67269135 -0.36743024 -0.07648523 -0.6994422 -0.39286307 -0.11409795 -0.763534 -0.39682853 -0.58433765 -0.62627643 -0.30213404 -1.3255259 -0.098526575 0.87361044 -0.24949814 -0.98376644 -0.3550966 1.5704076 -0.86152685 0.84245557 -0.80888885 -0.29907206 0.54106027 -0.3566495 0.67969584 0.12905228 0.06398136 -1.047498 -0.5934044 0.046988755 -0.07462258 -1.5817611 -0.4034588 0.4781583 0.75322604
520 0.6788075 0.08255538 -0.16963206 0.41116676 -0.29065782 -0.93382955 0.17955743 -0.75022024 0.05621189 -0.35048753 1.3328236 0.7796403 -0.7578178 -0.061064217 0.58669406 0.02713407 0.3231091 0.10505576 -0.41700116 -0.1942964 0.09890927 -0.77953404 0.2999413 0.4775714 0.10984449 1.4868076 0.9704889 0.11452856 -0.48016298 0.10827357 -0.44653863 -0.35466516 0.94738185 -1.2175093 0.44991806 0.15328278 0.41954717 -0.03982674 -0.057691313 0.5999458 -0.6170282 -0.14975506 -0.090869114 -1.1293981 -1.0181375 0.21577664 1.3658419 0.19641034 0.4803854 0.51869375 -0.42034563 0.8501169 0.6187148 0.82910514 1.4513482 1.4308627 -0.5081206 0.52497387 -0.56790245 -0.48713848 -2.3802724 -0.7778338 0.46247256 0.75496536
715 -0.13429186 -1.0212562 0.49532425 1.0459433 -0.075793795 -0.6888735 -0.6145587 -0.18321802 1.834468 -0.18194684 0.932216 1.3774043 -0.85296494 -0.14361529 0.21836853 -0.17022707 -0.0033563562 -0.40645045 -0.08650383 0.32016286 -0.44750074 -0.042625614 -0.877251 0.78449774 0.43632838 0.61535877 -0.042486023 0.48233047 -0.5881802 -0.7207043 0.59939456 0.81708354 -0.47118872 -0.07462571 -0.60823464 -0.77249545 -0.46055993 -1.3412006 0.8862216 0.53939855 0.14341491 0.47620094 -0.58368134 -0.5335719 -0.67353547 0.72653097 1.2596967 0.22231615 1.1224847 0.08864101 0.39747968 0.5025945 -0.15441032 0.8754979 0.015540502 1.4365098 -1.1740853 0.84871274 -0.53002775 -0.22461332 -1.7093507 -0.042241544 -0.5069843 0.5442114
1838 0.6404387 -0.57733744 1.1309619 -0.023319777 -0.95745045 0.48002562 -0.95883566 0.041324556 0.6439675 -1.5126485 -0.2399427 -0.2632146 -0.22709592 0.95818555 0.84401745 -0.019024927 0.61242855 0.59905595 -1.0584024 -0.7877856 -0.96770644 -0.385319 0.716384 0.6854236 0.17665224 -0.057962783 1.0400063 1.5186877 -0.84319395 -0.11100852 0.430842 -0.0015729844 -0.933326 0.22393608 -0.089859076 -0.81657755 -0.04154181 -0.57118475 0.020688133 0.29853973 0.16391473 0.34587294 0.8666518 -0.9426723 -1.6023258 -0.97024643 0.73546886 -0.9380355 0.6846959 -0.059272494 0.19203965 1.1309729 -0.14522587 0.6157063 -0.791109 1.0954734 0.09790459 0.74190634 -0.6266753 -0.19976962 -0.6239837 -0.39690578 0.036038127 0.6895286
115 -0.4045067 0.2172816 0.66166437 0.0781339 -1.1944973 -0.41593695 -1.1009214 -1.0353963 0.13723497 -0.9722602 0.5346059 0.63349044 -0.25450218 0.5928659 0.29228216 0.30881613 0.05463686 0.26124346 0.1422133 -0.51907 -0.93846595 -0.57603323 0.3050952 0.9909666 0.9122594 0.25623342 1.4983594 0.61432433 0.2505296 0.049336523 0.40713385 -0.16952114 -1.2861362 -0.5523644 -0.48768324 -0.8230882 -0.8929188 -0.43826288 0.3744222 0.47612542 0.4792845 -0.35364956 0.52608657 -0.23631705 0.041799627 0.3358498 0.058228526 0.07080848 0.7591172 0.09615697 -0.61365163 1.312308 -0.20232338 1.4130726 0.71821487 0.8759412 1.3808097 0.49992377 -0.86268157 0.2648359 -1.0268062 0.40237096 0.49141392 0.6999282
203 -0.20935848 0.4801736 0.42464095 0.7874833 -1.8295015 -0.80297947 -0.81072783 0.67461187 0.6627644 0.38552263 -0.46154848 0.19506308 -0.28975716 -0.33678818 -0.46569312 -0.3421487 0.7882112 0.349943 0.927096 0.50854445 -0.47544047 -0.9273643 0.79367673 0.5549496 0.2186131 0.8985313 1.164655 0.75639105 -0.00032939343 0.16701585 0.1289872 0.88266975 -0.9741603 -0.5742661 -0.6188215 -0.85466075 -0.11383691 -0.96351665 0.3158467 0.7741233 -0.015578145 -0.5430684 0.8152047 -0.79612136 -0.62158006 -0.5431961 0.18076017 0.36640835 0.56210756 0.17138298 -0.8323242 2.1916862 0.041923575 0.8159581 0.878321 0.46817857 -0.48762462 -0.37450698 0.3138418 0.6842499 -1.0669336 -0.35111046 0.8429379 -0.48210964
1181 0.37308478 0.27102602 -0.12040942 0.5745875 -0.88822114 0.24096553 -1.2671194 -0.46813902 0.84330845 -1.2349502 0.85925287 0.2650418 -1.2682576 0.508652 0.46979707 -0.99018 -0.040161055 -1.0786183 0.50801355 0.46271667 -1.3672214 0.1986377 0.33841383 1.213642 0.20137724 0.12809809 1.6277083 -0.103662156 -0.58806634 -1.2657123 0.24519797 0.43539858 -0.069314934 0.38365135 0.2282929 -0.38499582 0.13086633 -0.4579789 0.12312992 0.3847199 -0.45862392 0.52102035 1.2868572 -0.37431622 -0.7717763 -0.23579326 0.16349632 1.0929425 1.2156303 -0.36689284 0.41456568 0.675865 0.0007343114 1.0207328 0.9058516 -0.5807702 0.16677567 0.8620116 -0.02980113 0.92287564 -1.2426738 -0.32705018 -0.25694603 0.4796094
1873 -0.3782918 1.0492326 0.30306914 0.6475422 -0.23570096 0.2864445 0.08124674 -0.6509982 1.0514959 -0.8654055 0.96737194 0.62810194 -0.32712987 -0.3074087 -0.31916153 0.2684599 -0.042984575 -0.99633014 -0.7657746 -0.15658627 -0.36733377 -0.5825802 1.015682 0.9909798 0.43218735 0.41877192 0.5114078 -0.4784523 -0.28137735 0.7135674 -0.12132451 0.88701737 0.76135004 -0.3822346 -0.5656551 -0.3280355 -0.03236478 -1.295843 0.87921923 -0.03252294 0.317004 0.46390507 0.61528856 -0.08496874 -0.78582704 -1.1433352 2.0090811 0.24746086 0.7686472 0.13791586 -0.39238545 1.4635125 0.63982826 1.342787 0.8686279 0.15152547 0.030757679 1.0964863 -0.39529657 0.13433088 -0.61092716 0.8699117 0.54927 0.44663554
1239 0.46353835 -0.13019054 -0.15447567 -0.1276115 -1.2182825 0.44225362 -0.090217635 -1.1465834 1.0070069 -0.029818982 0.58031076 1.2233046 -0.3933004 0.37966502 -0.17325582 0.6714567 -0.05175778 -0.24686415 0.050435316 0.35204622 -0.92344844 -0.28186846 0.75892264 1.5184475 -0.4075376 0.9533131 1.7778281 1.2483444 -0.12605834 -0.06912763 -0.30631816 -0.45680174 -0.35713246 -0.09386403 -0.6458182 -0.67082626 1.0291038 -0.7768284 0.069266506 -0.45626956 -0.58188224 0.8721781 0.51774144 -0.77908593 -1.2814045 -0.9850167 0.90914565 0.628823 -0.02460239 -0.8901107 -0.6875893 1.3115616 -0.43504205 0.42631 0.31597525 1.1319196 -0.46000507 0.88108546 -0.51823777 -0.25092223 -0.1886161 -1.3516818 -0.0066351816 -0.32910597
112 -0.53668416 0.23862214 1.2737947 -0.17339805 -1.1707962 -0.6912315 -0.65820676 -1.2506725 -0.059705794 -0.84196156 0.403468 0.5752288 -0.18770808 0.9263558 0.28055626 0.43637687 0.49242097 0.1947558 0.12625603 -0.34815434 -0.27955708 -0.41010204 0.6922178 1.2674689 0.60890687 0.12999071 1.5174764 0.83606535 -0.31194025 0.23098153 0.41507143 0.11098228 -1.1359277 -0.12344702 -0.18967651 -0.7249773 -0.9876662 -0.7313603 0.19212152 0.21967344 0.6367289 -0.053032015 0.44695517 -0.11067602 0.20084022 0.52799684 0.51252174 -0.042308424 0.8974068 0.09239356 -0.7167906 0.8415507 0.10853537 1.3531051 0.62520486 0.57534933 0.81297415 0.307928 -0.50336677 0.051486984 -1.5940137 0.45710492 0.6693636 0.49184707
779 -0.0056856787 -0.2585669 0.0013553625 0.21175233 -0.09733051 0.24690098 -0.8208685 0.3443152 0.527491 -0.1323408 -0.41618687 0.90909207 0.02757477 0.6463493 0.4739243 -0.6545174 -0.64457625 -0.07051233 -0.4369871 -0.75702685 0.30599105 0.4889132 -0.39028454 0.8026048 1.5102444 0.5507051 0.47164232 0.7340538 -0.78803235 0.20119141 0.12354396 -0.2989852 -0.43607372 -0.6355813 0.91415894 -0.80992144 -0.12255178 -0.90391624 -0.119185865 0.67246485 -0.7926464 0.44942892 -0.39813137 -0.82941765 -0.40852603 -0.065248355 -0.0036152333 0.06364129 1.5489347 0.107514076 -0.51000017 2.091321 -0.70458996 1.6598569 0.45907205 0.13117562 -1.1389369 -0.32480654 -1.0835714 0.16294016 -1.8362532 0.78386813 0.72285783 -0.63149333
1046 0.35067204 -0.7200958 0.074809305 0.2923703 -1.5222517 -0.28787512 -0.13693227 -0.18513958 -0.13583577 -0.61247075 -0.32288095 1.2585758 -0.59496677 -0.55256176 -0.14377634 0.1321628 0.17190984 0.073900566 0.48401874 0.18849483 -0.17213355 -0.5792633 -0.14482208 0.37361374 0.22495693 1.1662333 1.8284116 0.8975773 -1.1289765 -0.15415642 -0.8784386 0.56628376 -0.45196578 -1.2645597 0.40216258 0.4414665 -0.293526 -0.21825959 -0.20867158 1.2704512 0.6902915 0.7322386 0.24454232 -0.958564 -1.2322685 -0.25440818 1.6827708 -0.6946691 0.40354228 0.3205196 -0.59813684 1.3294817 -1.2767913 -0.055458024 0.76689273 0.79406565 -0.9489995 -0.8328526 -1.8209583 0.37863982 -0.9488822 0.6961582 0.75665826 -1.085329
63 0.19929081 0.06434342 0.18671781 1.1602408 -0.5330336 0.16491598 -0.5720449 -0.85590905 0.4324751 0.06081033 0.22093013 -0.3784838 -1.0963072 0.6375503 -0.5407114 -0.7206137 -0.60971826 0.32122684 0.15983765 0.06356026 0.46281675 0.13811518 -0.31240264 1.0328778 0.34238234 0.31851396 0.3654307 0.23713048 -0.17132114 -1.0835856 0.9048893 0.49779633 -0.71780443 0.1488104 0.07397539 -0.48614526 -1.1519264 -0.00037745226 0.63782316 0.28156433 0.6930933 -0.6455669 -0.08805148 -1.3550107 -1.4951063 -0.5656692 0.15067914 -0.16433798 0.424112 0.11144951 0.28814778 1.5999522 -0.2636685 0.38043606 0.30199713 -0.27054298 -1.477855 1.4482181 -1.1285406 0.6283056 -1.8527619 0.5788133 -0.1753796 0.1909489
65 0.17234951 -0.011509964 1.6663432 0.37947318 -0.27019987 -0.0070769084 -0.2161671 -0.44501707 1.50511 0.06696775 0.4541424 0.280814 -1.0717477 0.7698321 0.043298833 0.19634935 0.34199768 0.68893665 0.55145663 -0.4314735 -1.0344373 -0.2646156 -0.31119633 0.5653273 0.9666578 -0.038474284 1.7606738 0.6496802 -0.018462013 0.28876382 0.10254848 -0.62788594 -0.02148117 -0.35747623 0.81700474 0.6833285 -1.4143778 -1.3473265 -0.08648218 -0.22715142 0.42773384 -0.10293376 0.973873 -0.6823507 -0.20464166 -1.3151785 0.4798758 0.38059998 -0.26055366 -0.09318353 -0.5608164 0.84465724 0.73527384 0.37457156 0.79312575 0.6360077 -1.1974025 0.87913144 0.16070098 0.66206145 -1.605729 -0.3100777 0.07427586 0.102504626
957 -0.51358134 0.34597793 0.58027846 0.31026843 -0.5632014 -0.9961264 -0.46424708 -0.28082448 0.4577973 0.06228498 -1.1887372 -0.2334125 -0.36519215 1.2413275 -0.08426286 -0.8926381 -0.62246287 0.19458324 0.20501009 -0.4551587 -0.09796878 -0.3118039 -0.37186462 1.0322291 0.7446672 0.89647996 0.6770708 -0.046863873 -0.77222496 -1.2802299 -1.1468129 0.46289855 0.795689 -0.9187556 -0.17480753 -1.6677918 -0.3204253 -0.38566604 0.10688347 0.60759765 -0.39956692 1.0177397 0.33446693 -1.0230163 0.33568484 -0.9249062 1.5949615 0.19316445 0.73566663 0.24388444 0.13316984 1.9365662 -0.53909206 1.1459898 0.27809933 0.062063638 -0.80129564 0.19177459 -0.27595344 0.2206975 -0.4551272 -1.0208032 -1.0403838 -0.23747902
1248 0.44935173 0.09604231 -0.690455 0.3048857 0.19909954 -0.83721876 0.25211132 -0.8372744 1.0933684 -0.56642914 0.5456615 0.6613217 -0.012582031 0.7334065 0.2517618 -0.1600853 0.34932598 -0.58491683 -0.493092 -0.7414546 -1.2304987 -0.1631942 -0.1203775 0.6048543 0.94402534 1.1375191 0.5521541 0.0033875452 -0.10294518 -1.405842 -0.21368338 0.5206421 -0.25203347 0.30116186 -0.8714994 -0.579515 0.61357653 -0.7472447 1.2493103 0.43640265 0.09581358 0.81006044 0.21007144 -0.8851158 0.059320148 -0.46014035 0.31795564 -0.2585235 1.2879318 -0.47787607 0.1800899 1.3300188 -0.41669205 -0.12530217 0.4189459 1.2133259 -1.2286049 -0.6610566 -1.3123653 0.3761376 -1.0416882 -0.8699848 1.2823449 -0.48497063
1245 -0.25230685 -0.27675098 0.21228527 0.097203165 -1.5865585 -0.028570712 0.009436749 -0.031320017 -0.74874496 -0.48876247 -0.057061154 1.2697748 -0.8908855 -0.46394813 0.56750494 0.09242 0.16439585 -0.50029594 0.08224702 -0.89406365 -0.8329509 -0.3011353 -0.22576533 0.13493516 -0.00053432386 0.9195832 1.4140149 0.70925313 0.23880953 -0.14953694 -0.30446914 1.0151161 1.1896857 -0.6380806 0.6577323 0.3975098 -0.37445015 -0.6782885 -0.20076242 -0.21832462 -0.7148749 0.36555803 1.0402638 -1.5384136 -2.376642 -0.988588 0.37771043 -0.56083494 0.0014017846 -0.53671026 -0.3640492 0.8770375 0.3096365 0.9916838 0.91926986 1.0216622 0.044873815 0.34727073 -0.0461717 -0.056799043 -0.40783694 -0.28369513 -0.1286452 0.44270775
1216 -0.72897553 -0.5972256 0.26093423 0.77198195 -0.10825266 0.46313617 -0.65653265 1.3089752 0.29429662 0.8207268 0.4654057 1.7676154 -0.50859976 0.36731696 0.4117592 -1.0240825 0.9606496 0.29903 -0.013415392 -0.31633687 0.08991218 0.12432192 -0.48080716 0.55627596 0.8732786 -0.21003926 0.949327 0.45536888 0.20166112 -0.21090885 -0.6951198 0.158652 0.24664633 -0.89088047 0.4796439 -0.6892303 0.1408411 -0.7209863 0.70188445 0.27115396 0.23798306 0.8309623 0.5874636 -0.083042525 -1.7088022 0.18676883 0.3106191 0.25383118 0.9557876 -1.2861692 -0.5374561 1.2406389 -0.6032573 0.14480664 1.0713903 1.4494053 -0.20320651 -0.6266313 -1.277699 0.21122746 -1.0991523 0.4674942 0.26907128 -0.012882464
1796 -0.03923825 0.38330114 1.3359392 0.6275784 -0.18202089 0.40033954 0.31130058 -1.1492475 1.026113 -0.73693943 0.35747254 0.14126833 -0.1944651 1.5350773 0.06600188 0.80009776 0.79381025 -0.810511 0.6731362 0.19864337 -0.0365073 -0.30234066 -0.7475353 0.60422045 0.2671674 0.10974386 1.640677 0.88119435 0.6290058 0.642653 -0.2526776 -0.3916016 0.20598309 -0.4647892 0.7620722 0.110943176 -0.19167158 1.0019965 -0.16937503 -0.23170425 -1.3279445 0.596661 0.800097 -0.23939858 -0.7877521 -0.2401095 0.84794116 0.086346015 1.1585606 0.18657853 -0.6211201 1.2589031 0.07832612 1.0848161 0.095547564 1.2773007 -1.5737697 -0.16540352 -0.5248531 0.057446625 -1.4307702 -0.43551722 -0.38471344 0.69022083
2261 -0.56513673 0.0802332 0.76853293 0.19567141 -1.1015003 -0.16507769 -0.07279818 0.29735032 0.62415445 0.085216925 1.0296551 -0.13982375 0.54028016 0.423297 1.5359685 -0.17660624 -1.3544968 -0.082747936 -0.41046673 0.06075346 -0.1698373 -0.8559142 -0.33013237 0.5715851 0.06974047 0.40605405 1.6861043 1.5997972 0.6227125 -1.3192364 -0.56281734 0.28513014 -0.7497336 -0.22254194 0.25498393 -0.518889 -0.08800392 0.45528808 0.59730995 0.91883564 -0.9805096 -0.96533 0.65702754 -0.08056043 -1.2665677 -0.034454722 1.4255296 0.24586233 0.65433145 -0.24353062 0.4895365 1.1732094 -0.8622205 0.39137092 1.1841358 1.1729076 -0.63175714 0.05104099 -0.086510025 0.87357986 -1.0368766 -0.8349342 0.059221763 -0.31481534
1632 1.1653458 0.37730253 -0.8715729 1.2348272 -1.5396732 -0.2362331 -0.34945697 -0.8431244 0.49892926 -0.58178365 0.8843386 1.82454 -0.96113425 0.95976806 -0.07819473 -0.20117454 0.8848271 0.20398766 -0.43975925 -0.24669771 -0.100439705 -0.9182599 0.6198445 0.43646464 0.8214283 -0.036899596 0.3920444 -0.3853667 -0.21100795 -1.3007419 -0.23687974 0.06735341 -0.058405407 -0.57008064 -0.65366167 -0.8688531 0.10414238 -1.0292684 -0.4034852 0.91090816 1.0267148 0.6237421 -0.4025756 -0.51528984 -1.7935127 -0.910814 -0.057969127 0.1296955 0.19948657 0.62929803 -0.21690944 0.8749871 -0.3627488 0.58049893 0.17770346 0.92522323 -0.19131252 -0.743664 -0.9826027 -0.49203733 -1.257082 0.24443653 -0.053092543 0.047416095
1676 0.3004666 0.46828502 0.3178614 0.72818774 -0.729517 -0.49270514 -0.8698766 -0.657686 0.3149488 -0.12298791 -0.24662454 -0.054920163 -0.9636588 -0.333808 -0.5236097 -0.6521741 0.06445402 -0.13886102 -0.5534245 0.34554875 -0.023673655 -0.60502297 1.0474774 0.49787176 0.5556964 -0.061196376 0.32847232 0.07205513 0.49519393 -0.44292462 -0.56251043 -0.10362065 0.20719267 0.28596106 0.41718727 0.056693867 -0.62635356 -1.0393293 0.20078912 -0.38511056 0.38607293 0.055382524 0.7443481 -0.53426397 -1.3074733 -0.3811302 1.3510759 -0.058569003 0.67486936 0.329728 0.19369195 0.42621678 0.5558934 1.1796116 -0.1412782 0.8332179 -0.60774255 -0.023113297 -0.75440574 -1.2096516 -0.98592687 -0.51804835 0.14479502 0.5813766
911 0.40704775 0.529328 1.3648629 0.2199225 -0.92927796 0.32826632 -1.0954641 0.20000015 0.13898225 0.105758935 1.1633666 0.20936829 -1.239561 -0.005538538 -0.01483611 -1.1853902 -0.11959694 -0.74913406 0.344938 0.105999246 -0.07233858 -0.5265598 -0.53066343 0.47403643 -0.06691365 0.9564952 1.5661958 0.32443082 1.0726116 0.7844139 -0.89632744 0.1394036 0.59421736 0.7178585 -0.17132996 0.45713666 0.25051382 -0.5853281 0.19497614 0.6429375 -0.09883587 0.21813674 0.783785 -0.87670976 -0.7847255 -0.48191115 0.6724311 0.78358614 0.6703241 -0.6255555 0.5022768 0.93764144 -0.03589524 0.12827423 0.12939872 0.50279814 -0.09539067 -0.56051844 -1.829711 -0.20965725 -1.3400153 -0.53324074 0.75384116 0.9003014
744 -0.08204699 1.0108505 1.137821 0.50388473 -0.8886925 0.79007965 0.2581168 -0.3379837 1.1327152 0.16061696 1.3329942 0.58725363 0.71323705 0.7521688 0.013773487 -0.38478175 -0.4436524 -0.6402154 -0.5843193 -0.55603355 -1.0289547 -0.94422466 -0.20102987 0.8847249 -0.12524946 0.19254792 0.27727202 0.6290112 0.6562327 -0.31756258 0.85864174 -0.48704943 -0.2610604 -1.0882548 0.3423569 -0.6702247 -0.086503595 0.20546402 -0.38393316 0.058374535 -1.0795951 0.31963086 0.81265277 -0.58735555 -0.82840335 -0.015436118 0.9930635 0.5827024 0.48808175 -1.0749692 1.0039898 1.5409237 0.39897072 1.084807 0.4333307 0.70052916 -0.5380411 1.2468684 -0.85720575 -0.59260345 -1.0496682 -0.91661257 -0.14473829 -0.60707086
2781 -0.1852869 0.86488557 1.5156966 0.79579544 -0.58049905 -1.0106764 -0.43289837 -0.28746736 0.047752608 0.28641304 1.4652293 0.18677868 0.5288241 0.20632727 0.7149288 -0.36318117 -0.3121703 -0.30253166 0.25595635 -0.027816445 -0.7231467 -0.08826912 -0.2862255 2.233508 0.26229593 -0.89981383 0.65895957 -0.4188619 1.1218268 0.04484297 0.014316705 0.5424511 0.93765014 -0.7332316 -0.11356508 -0.3820291 -0.42036244 -0.6820216 0.059810396 -0.3364204 0.87211055 0.25209537 0.89876974 -0.1936899 -0.892586 -1.030854 1.3941818 0.061346892 0.448036 -0.09067169 0.713107 2.2455668 -0.0042132856 0.59434587 -0.9105631 0.8532808 0.13616014 0.24478537 -0.5263568 -0.0114154285 -0.7961388 0.23617007 -0.9257907 0.22070798
1849 -0.16922413 0.03066859 0.23615837 0.50404304 -0.8657713 0.26120344 0.29328445 -0.49902955 1.3249032 0.5038564 0.26645598 0.9954518 -0.23017235 0.37293285 -0.45953217 0.16479161 -0.21011196 -0.32282153 0.055104915 -0.8217241 -0.8442966 -0.7838136 -0.89228857 0.87530255 1.1594977 0.41952333 0.2726358 0.81904453 -0.40283123 0.68057793 0.24812548 -0.040970836 0.07341452 -1.1676188 -0.64973235 -0.69950247 -0.71330184 0.025813026 1.0506498 -0.8285855 0.2296242 -1.206429 0.7476449 -0.52508163 -0.8980455 -0.05537202 1.2168236 0.78313744 0.2608237 -0.2939414 0.21741226 1.1149284 -0.8863354 1.4589529 -0.24617745 -0.11973187 0.2934713 0.6343344 -1.4300959 0.789353 -1.6545731 -0.13550128 -0.08871041 -0.20218858
516 0.56113046 -0.4020536 0.1929831 0.85334635 -1.6552049 -0.39654678 -1.1254265 0.09492794 0.0044095647 -1.3705373 -0.30204442 -0.047506623 0.9692707 0.24855804 -0.2515912 0.31377593 -0.5360308 -0.4736198 -0.309948 0.30992946 -0.47694805 0.5956607 -0.5882213 1.255431 1.1234577 0.16584589 0.6510266 -0.027482023 0.17693953 -0.25413358 0.6485343 0.54073435 -0.040300414 -0.6001754 -0.66622704 0.3507318 -0.15121348 -0.08910855 0.48718864 -0.15382299 0.5801706 0.22883114 0.81539434 0.054323807 -0.76203704 -0.49512482 1.5364665 -0.5758993 1.4585803 0.4328497 0.3439985 1.2294306 0.6841001 0.69331986 0.27126008 0.22773992 -2.0058508 -0.82701737 -1.1283145 0.88940597 -0.6630783 -0.4139046 -0.00045049237 0.23494129
2230 0.4101496 0.72376543 0.4609184 1.3336204 -0.9314425 -0.77911156 0.46375796 -0.9109321 0.44313478 0.022283373 1.0560409 0.31746912 -0.11738368 0.88982177 0.663359 -0.059748713 0.6132504 0.43844628 0.7862027 0.6715111 -0.15178277 0.62348664 -0.0040953723 0.5308248 0.16452807 0.8844535 1.2308323 1.1205652 -0.42480358 -0.7105326 -0.45482916 -0.05650072 0.00022399273 -0.6168412 -0.0987589 -0.78276724 -0.5915963 -0.5397406 0.32678393 -0.04503603 0.46912155 0.15216258 0.24774338 0.33643112 -0.62100315 -1.728377 0.8601369 0.6549393 1.1036217 0.055688757 -0.058976967 0.6535759 -1.6129391 1.5443786 0.7723178 0.5007898 -1.3871315 -0.43414497 -1.068467 0.0072062276 -0.17819282 0.30750027 -0.25785908 -0.6425076
1657 0.25873098 0.8782012 0.31851405 0.2419017 -0.6337427 -0.43726555 -0.91009307 0.14576903 -0.26829574 0.008494022 0.27401394 -0.3626628 0.22209214 1.3670738 0.59010464 0.5704495 0.21023892 -0.26225123 0.85116714 0.459225 -0.97052276 -0.30667427 -0.29646584 0.6577845 0.75609875 -0.65531933 0.29455996 0.72002864 1.2301983 -0.93710434 -0.066297136 -0.5570074 -0.19062434 -0.8428044 0.91184473 -0.4721157 -0.6082663 -0.70195097 0.7600933 0.23803478 0.22956316 0.2592759 0.114436604 -1.1507506 -0.36701596 -0.9136909 -0.04179785 -0.447619 1.1766598 -0.31086978 0.3515742 2.0596328 0.8082472 1.142264 0.81794655 1.109876 -0.10594817 0.7276898 -0.9126773 0.6373607 -0.7893865 0.21426515 -0.3827345 0.89935297
535 0.6062794 0.016202854 0.7430151 0.3174906 -0.49819463 0.08031853 0.3520225 0.41199616 0.18283118 1.3867058 0.53849435 0.08408245 -0.47426912 1.2593604 -0.2637825 0.43534893 0.66543144 -0.31281242 0.3456272 0.5269183 0.1310532 -0.445226 -0.601574 2.1167853 0.5304906 0.43267474 0.91610944 0.6243506 0.47761717 -0.19828112 0.13715774 0.5584898 -0.64391714 -1.8496578 -0.64708537 0.22654714 0.024825528 -0.081699885 0.5452532 -0.77270997 -0.20695113 0.67944294 1.0434954 -0.4282986 -0.51332694 -1.1226461 0.9421356 -0.82182527 0.3461269 0.045065828 -0.83094096 1.5618346 -0.70221466 -0.48460263 0.36916056 -0.11409563 -0.32947326 0.6075478 -1.1632416 -0.21432148 -1.5026888 0.06251494 -0.016529195 0.25129104
1065 -0.33304426 0.9274064 0.6517655 0.6689405 -0.09919573 -0.33574668 -0.36947206 -0.46152988 1.0036062 -0.35928106 0.981972 0.9165319 -0.6204237 0.17627516 0.09072845 0.32611525 0.26318198 -1.2021264 -0.97152025 0.14604816 -0.56783104 -0.3278604 1.2328593 0.68608814 -0.0029726692 0.5832472 0.07619438 -0.45666087 -0.19232489 0.70466906 -0.16786432 0.72838825 0.34943533 -0.69773334 -0.7386906 -0.7646052 0.03454933 -1.6176811 0.6973694 -0.064254306 0.32054725 0.43535095 0.4986527 -0.38377494 -0.32305697 -0.83990675 1.8140172 0.49259278 0.7963396 -0.3205447 -2.0216646e-07 2.0445418 0.06761499 1.5513903 0.50086266 0.048963208 0.04574055 1.0860782 0.10833778 -0.3466284 -0.47589087 0.46751174 0.12557445 0.26188198
1308 1.4008098 0.01156356 0.2424329 1.3544394 -0.4932991 -1.389934 -0.5355446 0.61416215 -0.5924771 -0.82453614 1.0588579 0.66534257 -0.81553614 0.62110245 0.08075523 0.17477572 0.38613257 0.9081847 -0.8212167 -0.23927881 -0.036305007 -0.5058138 0.26063892 0.55726355 0.17822963 0.18792647 1.7184668 0.3178333 0.35763985 -0.42802808 -0.71674293 0.9330285 0.20480539 -0.40514156 0.2496579 -0.12790623 -0.4710926 -1.1700594 0.082384534 -0.4854152 -0.7792718 0.4842583 0.030796655 -0.5928158 -0.6375939 0.17765233 0.067199595 0.013325908 1.4659218 0.0883813 -0.13604507 0.9317608 0.67386866 1.3000746 0.45720977 0.09979229 -0.41892976 -0.46404162 -1.856977 0.68763417 -1.2487459 -0.124949284 -0.19941369 0.15737683
2170 0.5296658 1.1898898 1.0280793 1.2118071 -0.52236277 -0.33819702 0.10148146 -0.8238362 0.8053236 -0.5165431 -0.37433755 1.5191729 -0.8259532 -0.21639004 0.54727036 0.49265766 -0.06428348 -0.5110719 0.011015554 -0.08394413 -0.78109103 0.6501247 0.06172139 0.76407444 1.1905105 0.9525242 0.68811995 0.019650152 0.7319037 -0.60030293 0.2618247 0.23632194 0.5791107 -0.25300226 0.7917944 -0.5481226 -0.6937131 -0.49810335 -0.17535244 -0.5224992 0.2138955 0.5813038 0.07015555 -0.26029915 -0.2251211 -0.26632568 -0.10288086 -0.16110143 1.0587108 -0.25903577 0.13552573 0.83323437 0.03392751 1.4342885 1.4758843 -0.2975631 -0.15267915 0.105311275 -0.83360344 -0.2897548 -1.7398136 -0.43560427 0.6429476 -0.6117365
1602 0.2848471 -1.2158841 0.76753217 0.8545177 -0.2865523 0.702111 -0.34258878 -0.7382694 0.23662609 0.071004026 0.85858315 1.2710847 0.120450795 0.38194075 0.09004433 -0.80703175 1.0256456 0.0153082395 0.0854932 0.24833247 -0.294954 -1.1812035 0.52199906 0.514356 0.7533594 0.94933844 0.47664636 -0.25436693 0.29220477 -1.1360463 -0.28087592 0.044528957 0.2509794 -1.1026672 0.3965976 -1.0044357 0.4204624 -0.92499673 0.5400546 -0.35090595 -0.46344733 0.48782226 0.59691703 0.025367254 -1.2673384 -0.30289215 0.651797 0.024431845 0.2670744 -0.03181171 0.5425436 1.4949049 0.36026025 1.0838037 -0.12967232 -0.86653817 0.21724989 -0.1011967 -0.5106644 -0.25200927 -1.1048403 -1.2424959 0.48223653 0.17617992
1480 -0.20780236 0.87229794 0.29775104 -0.07248744 -0.8011651 -0.37937376 -0.009747346 0.5101689 1.355116 0.34207684 -0.026302172 0.6989414 0.9231118 -0.072266676 -0.32183993 -1.4574941 0.6163452 -0.69049305 0.105233565 0.09319259 -0.68081796 -0.64899284 0.7265221 0.93789697 0.8953276 0.6544228 0.3924367 0.40623394 -0.13538161 -0.046642702 -0.72307664 -0.0052264943 -0.16262646 -0.9449937 -0.22984402 -0.281701 0.39607233 -0.066118844 -0.38886812 -0.040563226 0.34775528 0.9542898 0.09828116 -0.8273279 -0.8193668 -0.048076443 1.154611 -0.098275095 1.2209179 -0.4795254 -0.30747795 1.9994788 0.32566404 0.35412726 -0.5470999 0.7687409 0.10526126 0.3680676 -0.7189888 -1.1534644 -1.0066538 -0.36186743 0.2937713 -0.621504
2450 0.4553095 -0.26801923 -0.40396473 -0.44038165 -0.07217342 0.54812884 0.11081184 -0.61559224 0.6036412 0.04612451 0.5703191 0.0072740107 -0.8104066 0.40995976 -0.037791103 -0.30625176 0.705894 0.5238724 -0.06618727 0.93358624 -0.20827186 -1.3925514 0.24224688 1.3418881 1.1569287 0.37490797 1.2899686 -0.24685964 0.34418863 -0.5154225 -0.26577145 -0.25732186 -0.6162378 -0.21774587 0.1030908 0.21777299 -1.0285013 -0.80503684 0.5040368 -0.025989719 -0.3402504 0.18083991 0.2948068 -0.5493227 -1.1376958 -0.4419579 1.4499186 -0.7369049 1.6443524 -1.0996145 -0.16267206 1.1143129 -0.15693267 1.602948 -0.36234114 -0.16889696 0.17383508 0.6143813 -0.4296682 0.050502762 -0.61293876 -0.24806117 -0.9336267 0.61128736
1344 -0.5996917 0.8327808 0.58492196 0.13907127 -1.5038689 -0.4834456 -0.9226463 -0.23842137 0.7620342 -0.67663175 0.49057603 0.67576516 0.03707845 0.3438648 0.89127487 -0.6980774 -0.16502906 -0.50142694 0.7288602 -0.38045996 0.35346898 1.6680783 -0.64026314 0.18119599 0.64234823 1.0818123 0.8238152 0.1471818 -0.3632215 -0.19676512 0.12852053 0.48063567 -0.757578 -0.76287013 -0.6645665 -0.7452359 -0.3347773 0.3624224 0.12229536 -0.22865129 0.07803288 0.6479405 0.21354234 -1.0801966 -0.5243346 -0.20026423 0.46150276 -0.5666536 0.48026013 -0.116244055 0.1342546 1.4496412 -0.10422507 0.9093462 0.7347113 -0.12463316 -0.6717799 0.036002837 -1.6364207 1.161571 -0.9807897 -0.6441292 1.6467141 0.15239275
389 0.58493286 0.05266621 -0.061855663 0.7593843 -0.98929447 0.3893723 -1.095832 -0.25517786 0.4098438 -0.8627553 -0.96216303 0.21347356 -0.9744291 0.90253353 0.35505334 -0.11421835 0.49220464 -0.12047467 -1.1269256 0.19679637 0.56682694 0.5404055 -0.14434516 1.7937913 -0.6935348 0.3995079 1.453479 -0.2740062 0.040649984 0.15637273 -0.17530389 1.128427 -0.33659053 -0.2269657 -0.16974695 0.366327 -0.6628976 -0.5575528 -0.10960092 -0.06698276 0.27127925 -0.029399041 0.8318483 0.22268514 -1.1279473 -0.45559356 0.84352255 -0.28930858 0.9821765 0.32443225 -0.36691973 1.0510042 -0.69764364 0.39572722 0.83030844 -0.1855199 -1.2015464 0.6311088 -0.7140705 -0.054434508 -1.3328782 -1.9567496 -0.24304584 0.1754767
2500 0.10175363 -1.1778584 0.7666167 1.0348018 -0.3028464 0.6349293 -0.40251258 -1.0381976 0.37866113 -0.24503313 1.0215719 1.4047924 0.42903727 0.25277454 0.30074456 -0.86033106 0.90226096 -0.26460746 -0.23824044 0.28424254 -0.31917748 -1.2630196 0.5516318 0.23307548 0.5881529 0.86553663 0.5993857 -0.3472618 -0.06435718 -0.9549103 -0.46678826 0.13935618 0.20133387 -1.3099865 0.12571876 -0.87121016 0.28590304 -1.1835824 0.28530493 -0.13117424 -0.25241375 0.3692169 0.3607343 -0.120771475 -1.5800531 -0.19384815 0.74768114 0.010445875 0.07750928 -0.2687821 0.33982164 1.5727966 0.3133447 0.7201854 0.19892253 -0.94626164 -0.02666592 -0.069545865 -0.8195372 -0.10539232 -0.91490537 -1.4535848 0.6002629 0.21162793
1158 1.1504835 0.5017315 0.55338675 0.6972702 -1.1457875 -0.16729575 -0.968514 0.037292194 -0.053348668 -1.4470385 0.17910656 1.1335379 -0.6189525 0.5003213 0.77882975 -0.90279454 0.45801923 -1.4615983 -0.8373088 0.11532196 0.21111098 -0.36006838 -0.7250132 0.5921222 -0.09725313 -0.6031815 1.2318074 0.711069 -0.8028379 0.28100273 0.31314936 0.13281836 0.23505577 -0.7629329 -0.25519073 0.24001504 -0.27882442 -0.35543784 -0.21807615 0.2365882 -0.60989296 -0.41604158 1.5510775 -0.9262066 -0.7973432 0.48791608 1.02504 0.19643356 0.42956433 -1.1714687 0.48293495 0.88478035 -0.034947798 1.5918736 0.46077055 0.878023 -0.625981 -0.5030264 -0.5592869 0.16019759 -1.269264 -0.36640552 0.5607835 0.7339855
2243 0.0022104934 0.39767194 0.1327711 -0.26644734 -0.85443294 -0.5060798 -1.5347146 -0.47791967 0.06962345 0.48618656 0.66323525 -0.029189661 0.76931596 1.3324772 0.78542316 0.5442366 0.43283287 -0.6815387 1.191054 -0.00066704076 -0.99262124 -0.54168284 -0.26957557 1.0131917 0.41450432 -0.863472 -0.31215647 0.8039334 1.3556561 -0.76312655 -0.20907353 -0.41196245 -0.40918347 -0.66001713 0.6051673 -0.5481568 -0.27263728 -0.9181181 -0.3614043 0.024828319 0.12653203 0.8616735 0.7837251 -0.83473784 -0.3673357 -0.9720302 0.7048172 0.18248092 0.5489536 -0.508919 0.01664514 1.6356747 0.13113686 0.9771989 0.35967416 0.09252553 -0.35633156 1.399061 -0.82917315 0.6627139 -0.9644658 0.057861123 -0.05475285 0.84750456
1809 0.13945757 0.8089978 0.37548172 0.12840031 -0.9998755 0.23693949 -0.862102 -0.5840277 0.45781523 -0.09315307 0.32337013 0.4565466 0.37577477 0.80003035 -0.13424174 -0.68817496 -0.26422298 0.47391075 0.43724197 -0.69519967 0.89913255 -0.14562176 -0.10570135 -0.18136112 0.23195042 -0.5189843 0.5650432 0.5244795 -0.109809555 -0.82956064 -0.719703 0.10107568 -0.16852264 0.36501476 -0.6008897 -0.7334897 0.46434063 0.444479 0.64949113 0.61902064 0.2709176 0.25345588 0.8023474 -1.2936648 -1.1877675 -0.43320507 0.9808587 0.07387857 1.4842986 -0.447457 0.1068063 1.0308076 0.7074538 1.359191 0.5244576 1.2540835 -0.074247986 0.55061954 -1.2756239 -0.03647948 -1.2702872 -1.2691038 0.3397154 -0.652872
49 0.6504103 0.2745129 0.793406 0.36363685 -0.033623137 -0.10961806 -0.38495123 -0.40507498 1.1737605 0.10983291 -0.09527568 1.3471279 0.2065078 0.33027917 -0.17959622 0.16613117 -0.46444565 -0.44940665 0.0032825244 -0.80184615 -0.3359297 -1.0192959 -0.98887587 1.0565919 0.57691544 -0.25795263 1.0058689 -0.99967015 0.67358214 -1.1102566 -1.0227314 1.1351271 0.4270517 -0.2769065 -0.054531038 0.3912989 0.105836116 -1.2489332 0.14385277 0.24831162 0.0573795 -0.016823461 1.4328562 -0.5510737 -1.8747303 0.59303623 0.7161179 -0.49235305 0.45089826 0.061905123 0.26588413 1.3360605 -0.13370955 0.8057933 0.33584273 0.69952434 -0.0024593612 -0.60550666 -0.44919255 0.58434045 -0.03529999 -0.05328533 1.0397792 0.51500005
2245 -0.37246624 -0.548995 -0.36498183 -0.70121306 -1.7415072 0.18861233 -0.5445927 -0.20240416 -0.14404811 -1.3225526 0.722379 -0.599458 -0.58652884 0.9425494 1.0463021 0.043880098 0.17352246 -0.97228485 0.011404484 -0.4087004 -0.6681168 0.0061784675 0.67616653 0.9454286 0.13250726 1.3031591 1.1572835 0.44941157 1.0703399 -0.4710018 0.10246483 0.005234089 0.5039965 -0.8905468 -0.61890143 0.483819 -0.2850578 -0.30966166 0.7260195 -0.4328625 0.17325734 0.6103254 0.23355135 -0.66252387 -1.0813547 0.0049110265 -0.46481177 0.41919452 0.63706136 -0.108963564 0.6912265 1.4540578 0.045063704 0.28325656 0.51089376 0.6395974 -0.66017884 -0.18785514 -1.6257266 0.17372555 -1.1682082 -0.17940083 0.540082 -0.059215944
848 0.32961556 0.5636919 0.4694292 1.3037299 -1.2339294 0.12449267 -0.8180793 -0.6481431 0.751894 0.45118698 -0.49344343 1.0780418 1.0630956 -0.23618944 0.050579365 0.1118039 -0.1098193 0.515871 0.42660296 -0.106687844 0.013362161 -0.008892738 0.6159702 0.91252863 0.14408968 1.1173527 1.4785086 1.0334775 0.80009717 0.036248855 -0.40063947 0.43958357 1.3036697 -0.3043701 -0.7833686 -0.23596358 0.16280228 -0.63249975 -0.44950944 0.2621398 0.729829 0.4045223 1.1057492 0.13934724 -1.1753609 -0.81335706 0.07846307 0.0026204917 0.2364119 0.40643057 0.16841434 1.9467058 -0.22944592 -0.118898734 0.36037114 0.6029804 -0.54014105 0.48852587 -1.1025406 -1.2965726 -1.0529679 -0.62307173 -0.4724414 0.07764473
4 -0.99987376 0.28778106 1.0960115 0.1181302 -1.6397645 -0.1816562 -0.91517735 0.17774759 1.1184943 1.0549575 0.032769453 0.25688627 0.062896445 0.9006127 1.1189545 0.3771554 -0.5864936 -0.6328209 0.14928699 -0.25206402 -0.22557993 -0.20650777 0.8765075 0.6377202 0.23823862 1.2558293 0.18848148 0.3024758 0.84015757 0.55935705 0.10798491 0.77129316 -0.46579164 -0.16281965 1.0670205 -0.058576997 -0.6730663 -1.4056476 0.7419172 -0.18978293 0.41505373 0.11784981 1.0193042 -0.7077428 -1.5024586 -0.23958096 0.7342554 -0.71545905 0.5732795 0.38506418 -0.4919521 1.1856703 0.28645065 0.53603536 0.7551987 0.79889196 -0.26861903 0.3905262 0.18598643 -0.6547294 -0.8100168 -0.5257829 0.37775677 -0.6281991
1726 0.6379119 -0.329211 0.7687556 1.3726356 -1.0711989 0.44418034 0.32292587 -0.64614767 0.63002354 -0.0411715 0.5350078 0.25482327 0.20947263 0.66061676 0.23641637 -0.6003016 -0.33755773 -1.3764328 0.08461559 0.1760864 -0.08658755 -1.0567806 -0.27646005 1.5214772 0.06401237 0.31463292 0.42088792 -0.36128256 1.2720175 0.05616743 0.5106985 0.78817123 0.64373463 -1.1378984 -1.1675904 -0.9066905 -1.0503498 -0.33210105 0.24635525 -0.48569375 0.48790133 -0.25424308 0.93000835 0.31383494 -0.533359 -0.7335086 0.092696935 0.01965699 0.9517401 -1.1377558 -0.56525445 1.3052305 0.7366187 0.9797902 0.8672268 0.7855827 -0.07203125 0.52837205 -0.2792697 -0.3940794 -0.8039114 -0.5382502 0.3597328 0.58306533
83 -1.1389667 0.34227565 1.7169484 1.0061381 -1.2445023 -0.49064907 0.6157822 0.40837446 0.12532762 -0.26303315 0.4692269 0.78551626 -0.11033965 -0.13997513 -0.3530367 -0.86067075 -0.18401048 0.17428716 0.6793395 0.012995952 0.002030366 -0.025346389 0.7705513 1.1630878 0.30484846 0.43080774 1.5974506 0.562696 0.72507083 -1.6144218 -0.45246643 0.18057916 0.5851044 -0.20525947 0.8412536 -0.48781 1.0100768 -0.56462765 0.6149821 -0.7656194 0.70336056 0.2951456 0.2803234 -0.37176841 -0.5055799 -0.3129023 1.364427 -0.855481 0.2587687 -0.07016801 -0.0050753653 1.5027447 0.19043037 0.35931402 0.6680983 0.8053311 -0.16780092 0.0407469 -1.3926605 0.41546482 -0.63033575 1.0617535 0.61168087 0.6525325
2504 -0.37274432 -0.24468043 0.3727648 0.46704572 -2.0194273 -0.38486144 -0.09213602 0.22284694 1.2135975 -1.1057407 -0.09413282 0.10907052 0.30916768 1.1135938 0.34574103 -0.16496523 0.098013885 -0.39561576 0.16198225 -1.1277816 -0.20941088 0.41230804 -0.2947024 1.5925559 -0.4249685 0.6525198 0.64322096 -0.07830219 0.650757 0.39287814 0.6998701 0.25789833 0.6480784 -0.79424375 -0.39722624 -0.6888479 -0.9698346 -1.3862593 -0.6687073 -0.17218873 -0.19638643 1.0454507 0.53608227 0.28740716 -0.6001152 0.30884898 0.5495476 0.32780024 0.84187526 -0.7399566 0.522472 2.3809955 -0.42181185 0.36449614 0.036373608 0.07415934 -0.1273433 -0.044396617 0.011194621 0.09225409 -0.21454886 0.026029257 1.2265333 0.17122133
1616 -0.9355275 -0.71410656 0.29572877 0.32806057 -1.2908019 -0.32035497 -0.40219542 0.26307088 0.08200785 -0.7329385 -0.67135125 0.7162576 0.378116 -0.7790151 0.63961744 0.47166604 -0.9411366 0.47888824 0.14333518 -0.17937759 -0.4350271 -0.32162338 0.21201539 1.1354486 0.5834843 1.1677741 1.1075451 1.2120144 0.4012001 -0.2853982 -1.8287327 0.735322 -0.40637553 -0.30574206 -0.37098226 -0.29157743 -0.3499031 -0.5240877 0.24603659 0.1385586 -0.64114326 1.371029 0.9298464 -0.92867136 -0.7588127 0.24776673 0.7543696 -0.473687 1.6133454 0.16961484 -0.038808294 1.5490552 -1.1615262 0.27986598 0.6655982 -0.07106174 -1.0279224 -0.14238326 -0.5878019 -0.1362106 -0.46416527 0.43573356 -0.12616481 0.7375994
2542 -0.81589866 -0.42354262 0.32130253 0.18388161 -0.8772046 -0.09759639 -1.8753256 -0.94665545 1.2643685 -0.5086656 0.15093707 0.47954795 0.30397308 -0.40182686 -0.21696794 0.19703208 0.41278553 -0.3763004 -0.13480987 -0.37858468 -0.2534781 -0.73219424 0.3243064 0.9872768 -0.43172464 1.597127 0.83669657 0.44601992 0.4413842 0.6524803 -0.22829773 -0.074023604 -0.61071616 -0.19160657 -0.8692075 -0.24753612 1.0598717 -0.13485733 -0.120055616 0.042069722 0.8496863 0.114180885 1.5028964 -0.37696937 -0.694577 -0.85434604 1.5486468 -0.4277406 0.68684256 -0.22366957 0.36144027 1.9140363 -1.069218 -0.17064591 0.2794895 0.26373973 -1.4940213 -0.35725236 -1.0402094 -0.12187667 -0.09838847 -0.17221542 -0.10860329 0.036995646
260 -0.15697804 1.2813513 0.16240633 1.0940537 -0.2273416 0.46006316 0.57660747 -0.31382886 0.51289535 -1.0277959 0.24434161 0.3652852 0.6572954 0.3953178 -0.27973184 0.8045569 0.41499498 -0.25894615 -0.34764132 -0.5670396 0.32957345 -0.07773792 -0.8113412 1.0788094 0.59076345 0.6553215 0.56350696 -0.07451804 0.25329792 -0.6714035 -0.5708228 1.3360249 0.12121502 0.5751045 -0.19387272 -0.5576543 -0.5487375 -0.41578528 -0.15837461 1.1916721 1.1850369 0.48050982 0.588004 -1.1996391 -0.45726556 -0.2800562 0.68356115 -1.2101067 1.0854201 -0.1654818 -0.3034077 1.7766558 -0.34542 1.6165361 0.22391039 -0.27278936 -0.5121035 1.1395372 0.29872173 -0.10336474 -1.6592066 -0.8680105 -0.067487285 -0.20752431
657 0.11211797 0.60189795 1.7558788 0.5394288 -0.5861232 0.6561281 -1.4237379 -0.37167808 0.6738526 0.050574068 -0.0316208 0.7786253 -0.24557923 0.46054384 1.0852618 -0.13342686 0.58642346 -1.2458096 0.92268133 -0.17355557 -0.07039112 -0.47531232 -0.057330955 0.8534591 1.1338581 0.5665689 1.6656168 0.93135864 0.62888074 -0.36086032 -0.17675251 0.49720618 -0.7591054 0.6725249 -0.67682314 -0.4095219 -0.417558 -0.668302 0.7861918 0.51291716 0.13900536 0.48014042 0.8043877 -0.32139212 0.15371819 0.35731855 0.58890337 0.27746695 1.4365765 0.6400092 0.35236952 0.9862224 0.46496886 0.21261664 0.8811434 -0.24990888 -1.4856063 0.15555887 -0.2035172 -0.011504699 -0.6152218 0.47545102 -0.68043184 0.61993825
2453 0.069263145 0.54352534 1.4211658 0.48709354 -1.3571018 0.21561182 -0.36443335 -0.06631668 -0.31961522 0.8640017 0.42497298 0.2633099 -0.53835887 0.06946731 -0.53643537 0.9234697 0.1620613 -0.63579136 -0.7765175 0.5316711 -0.3648514 -0.24961257 0.09234622 0.94493526 -0.30739352 0.3439675 0.8948614 -0.040837303 -0.49604693 -1.1562124 0.88593453 0.6745694 -0.60568154 -0.4802055 -0.01803583 -1.3378508 -0.5950958 -0.37873918 0.82426566 0.35338005 0.5137093 0.8721443 0.4817583 -1.3470523 -1.0136287 -1.6180661 0.84057266 -0.5363049 0.17380138 0.56384313 -0.03955603 1.2361661 -0.880969 0.11000584 0.9094692 0.14444935 0.23802921 -0.106611066 -0.76328397 -0.2606763 -1.653359 1.1625657 0.9688486 -0.6072916
2795 0.18627715 0.47474173 0.34847 0.48562407 -1.4787242 -0.6409761 0.33002654 0.5626783 0.972537 -0.05139832 0.9608089 1.5697097 -0.29033336 0.90761626 1.0283225 -0.4251064 1.0475962 0.324567 0.4224112 0.71886146 0.49006733 -0.7615158 0.7021001 1.0365466 0.43817666 -0.79486805 0.94055015 0.54129755 -0.68366385 -1.478509 -0.50226235 0.61111385 -0.43250117 0.5980551 0.691817 -0.15437084 -0.8600738 -0.20832188 0.41120133 -0.41079208 1.0102206 0.74646133 1.0269471 -0.056126464 -0.82688326 -0.4057301 0.08060986 -0.35646406 0.558241 -0.25443396 -0.38227928 0.94832176 0.66593015 1.1147043 0.40776655 0.2498285 -0.035079673 0.7837998 -1.2690556 0.4464893 -1.4503845 -0.4379896 -0.61931455 0.45956594
1409 1.3971295 0.29010892 1.4423857 -0.1878705 -0.11507854 0.29127133 -0.97380745 0.031711403 0.98295707 -1.7311803 0.026595192 0.36219615 0.062043905 0.75195694 0.5670802 -1.3815064 -0.32049882 -0.6620094 -0.69850034 0.36273965 0.943942 -0.79325366 0.6085636 1.150498 0.13955235 -0.3176697 0.44544393 -0.12481135 -0.16369951 0.2893666 0.31618086 0.74256635 -0.104368865 0.27357772 -0.01420022 -0.057753418 -0.09398357 -0.7095677 -0.11495972 -0.33537975 0.1757305 0.61093396 0.03640126 -1.4490734 -0.7150661 -0.14185496 -0.16153778 -0.60711586 1.2024516 0.44583714 0.3346894 1.1407372 -0.786045 0.75842065 0.534151 0.49214727 -1.1024287 1.0827771 -1.2226299 0.087441 -1.7377707 -0.20101207 -0.12073545 -0.037744913
1600 -0.16535686 0.7608697 0.742983 1.5077866 -1.20264 -0.8092962 0.13539779 0.5011051 0.020576313 -0.72406346 0.32876796 0.51124126 0.1589747 0.31887248 0.1899163 -0.5633985 -0.22808029 -1.2340405 -1.0489849 -0.22465807 0.0124303885 -0.32643044 -0.69830745 1.2034007 1.2336211 0.6470436 1.3115536 -0.8765275 -0.50061387 -0.15615168 0.15095378 -0.15558554 -0.63729954 -0.3347654 -0.43918306 -0.074706 -0.24734917 -1.4912323 -0.33887002 -0.1020439 -0.49829048 0.9755403 -0.22278985 -1.1421815 -1.1820016 -0.31570423 0.25396758 0.74268687 1.0812744 -0.36340234 0.35874194 1.1599143 0.55544645 0.64558107 -0.1039143 1.1367097 0.40416285 0.04072547 -0.41599074 0.2621373 -0.5751161 0.79323465 0.056022014 -0.4488269
2270 -0.21478839 -0.005268722 0.1039716 0.48611954 -0.75768024 -0.870104 -0.2179397 0.47085398 0.6715976 0.608839 -0.32780108 0.9651716 -0.44151464 1.3165231 0.377465 -0.50415623 1.0525703 -1.4442967 -0.7323197 -1.1169821 -0.36675602 0.20615107 0.117458574 0.76652986 -0.010952613 -0.43565086 -0.12189224 -0.7875259 -0.77870464 -1.4413848 0.5024759 0.73681915 -0.31919637 0.05095703 -0.35459247 -0.046177264 -1.3400851 -0.96747315 -0.09333891 0.15760785 0.08128854 0.45453015 0.82324433 0.26615486 -0.98274666 -0.6982164 0.35461724 0.19264588 0.40227666 -0.5294939 0.05163736 1.563167 0.51359046 1.1616889 -0.38425112 0.80055404 0.04524786 0.17333815 -0.8136897 -0.34572333 -1.8594893 -0.22075255 0.33053926 -0.22634478
947 0.9898563 0.41684493 0.58606684 -0.5800522 -0.88631463 0.31359333 -0.11090851 -0.37350628 -0.1542123 -0.8322487 0.515225 0.22783189 -1.0634532 0.50087035 0.44110855 0.23806529 1.0418118 -0.6813618 -0.20756395 -1.2644205 -0.8866951 -0.6334141 -0.5592263 0.282612 -0.1602871 -0.63452446 1.023771 -0.61464006 0.38271132 -0.030447856 -0.29659423 0.26083335 -0.25312543 -1.4091564 0.46532843 -0.5489837 -0.70422333 -0.6335733 -0.18487276 -0.16989821 -0.15010592 -0.15195249 0.47740966 -0.5485123 -0.80229247 -0.6068586 1.0216812 0.6671546 -0.6425701 0.46818945 0.86282766 1.7303245 -0.7986944 1.3491321 0.10512484 0.73306733 -0.93189836 -0.11705915 -0.94081813 -1.1494386 -1.3205872 -0.5425725 -0.25041813 1.3411037
945 0.43440053 0.49365798 0.22103517 -0.2672104 -0.76135504 -0.28795102 -1.7624577 0.41960275 -0.2405603 -0.28304824 1.0076202 1.5612985 -0.16714644 -0.37534055 -0.18253493 -0.32806954 -0.14262533 -0.7667232 0.5415343 -0.2729171 -1.1202279 -1.2024654 0.27477238 0.61091155 1.5466912 0.5371535 0.44003385 0.5721249 0.31323326 -0.14624117 -0.76484364 -0.3465239 -0.26713842 -0.36825097 0.37737995 -1.2224029 -1.034554 -0.23061554 -0.32810515 1.0417981 1.204318 0.2532666 -0.4099813 -0.3277955 -1.2726492 -0.724602 1.0633991 -0.4177976 0.5010529 -0.3949187 -0.06766589 0.51266384 -0.89401805 0.41053736 1.4316686 1.320044 -0.046443637 -0.00018117641 -1.1542364 0.7990347 -1.3211434 0.058072597 0.3511064 -0.38849273
1641 0.46415648 -0.10572036 0.5840155 0.12455669 0.09392127 -0.26816824 0.088473625 0.57165563 -0.07522278 0.30062371 0.8434152 0.5013764 -1.12585 -0.17247379 -0.55388093 -0.43743867 -0.2927294 -0.3804013 0.58635205 -1.2811729 -0.45459914 0.7371667 -0.27931073 1.294126 -0.08148217 0.9750311 1.322506 0.5232164 -0.3712798 0.28376675 -0.22375801 -1.160407 0.14108452 -0.48619708 -0.27194762 -0.41724738 -1.558531 -1.5369714 -0.63050777 0.70102465 0.14926472 0.515719 0.510279 0.3560208 -1.0746038 -0.2989861 1.1950366 0.36051965 0.99308294 0.10328333 -0.16620187 1.7298645 -0.23596166 0.4256965 0.44934356 -0.283302 -0.37614456 -0.4483538 -0.40123692 -0.3197523 -1.4315736 -0.9662528 -0.5006729 0.14469571
1284 -0.20806132 0.728433 -0.09979123 -0.14893761 -0.8786334 0.11958422 -0.6128567 -0.53845 -0.8716814 -0.50055575 -0.37685227 1.2714688 -1.0121821 0.725969 0.19025391 -0.33242115 0.97556496 0.37669024 0.5139285 0.40136537 -0.053221315 -0.04588499 0.48694766 -0.315369 0.20928785 -0.29940394 0.37047616 1.4129825 0.36244726 -0.24233297 0.047476526 1.3873802 -0.16193996 -0.32349452 -0.09600414 -1.1061829 -0.3704323 -0.76270676 0.045879066 0.42692044 0.46822163 0.6364347 0.832018 -0.21789144 -1.5307888 -0.2941677 2.0804706 -0.98601985 0.29097307 -0.74678814 -0.79869205 0.78131616 -0.3796744 0.96344846 0.6529423 0.72469336 -0.45801836 0.3155797 -1.7270747 0.41205 -0.7169326 -0.602739 0.9862399 0.3972447
622 -0.3597277 -0.14621565 0.51803654 -0.12003401 0.08553188 -0.25503564 0.20861225 -0.1573236 0.18129274 -0.5180369 0.79004407 -0.401974 0.080796205 0.02552306 -0.5730436 -0.14422548 0.22962552 -1.1905415 0.6346505 -0.3957643 0.18432115 -0.0085863955 -0.5480202 0.064082675 -0.06711302 0.81185555 1.5210975 0.279205 0.36397758 -0.96454805 -0.93852246 0.65781355 -0.498191 -1.2766199 1.1801835 0.58750767 -0.66005206 -0.2553011 -0.12288955 -0.42763528 0.7293875 0.43911225 0.65212286 -1.05957 -1.1543621 -0.9006156 0.93067414 -0.014761699 0.9867396 0.14859919 -0.30263346 1.2011634 0.82146174 0.68204355 0.48717815 0.9833083 -0.60744923 -0.8104074 -1.574201 0.5991001 -0.67938757 -0.004566042 0.9399086 0.73538435
1258 0.7749795 -0.8804128 0.7233025 0.012217269 -1.6860527 0.88718903 -0.7388334 0.52224463 0.7964858 1.0831221 0.0023540412 -0.16296554 -1.0428771 0.593032 1.4124221 0.5441264 -0.30410847 -0.40120542 0.41644448 -0.38894793 0.05757244 -1.1517614 -0.63575095 1.0192094 -0.21607092 -0.34779269 1.0286342 0.43780744 -0.51413876 -0.30674103 -0.92002195 0.5237916 0.7041582 0.031320475 0.1026943 -0.72205323 -0.10284626 -0.77413386 0.84481746 -0.045351487 -0.21287242 0.11664149 -0.029595723 -1.0090204 -0.734778 0.2040082 0.97991973 -0.80349684 1.1397408 -0.5692139 -0.64974475 0.9846767 -0.09828632 0.5121334 0.34528756 0.89701575 -0.90020645 0.5105371 -0.04405202 0.12344107 -0.6850017 -0.3610285 -0.023717718 0.36985183
