1990 64
114 0.066708855 -0.19750609 -0.04741814 -0.036980476 -0.122227296 0.19801497 -0.18884574 -0.1530821 0.049172718 -0.06586087 0.4089236 0.27142024 0.26206586 -0.031165022 0.05045304 0.0289045 0.10965661 0.32027864 0.09341908 0.19307289 -0.22293608 -0.03640697 -0.0044238614 -0.048665065 0.065100215 0.3065357 -0.031076847 0.07112092 0.042346645 0.17653964 -0.018958682 -0.09217614 0.08362347 0.03514043 0.019588204 -0.052867543 -0.009978343 -0.1131336 0.046308916 0.21255875 0.020087006 -0.14769402 -0.012452177 0.18419524 0.18859766 0.013095067 0.29133943 -0.2534746 0.022422852 0.09036878 0.14955938 0.152892 -0.2400739 0.24568172 0.22145066 0.17709717 0.0011286408 -0.19027081 0.077493876 0.18657123 0.32745758 -0.12938336 0.055094335 0.16848315
1677 0.06269642 -0.27841863 -0.015195943 -0.02467542 -0.25705853 0.25378498 0.02986762 -0.35601088 -0.023513367 -0.109974705 0.40362155 0.34194827 0.32039264 0.04757635 0.074151844 0.07711085 0.11122923 0.26962894 0.08214019 0.28559914 -0.13046932 0.108173564 0.12446916 -0.07110622 -0.029522127 0.38390118 -0.050976034 0.033414252 0.069503576 0.13482155 0.059830293 -0.108873434 0.06428165 -0.055818263 -0.035665497 -0.1295291 -0.017073365 -0.082635716 0.08617572 0.092985265 0.128456 -0.089042045 -0.0043990095 0.1493294 0.07140158 -0.01497317 0.17100786 -0.12709542 0.11100677 -0.062124684 0.2262811 0.0954226 -0.23863477 0.14938623 0.17890725 0.10111842 -0.06264959 -0.031151712 0.07149688 0.1943551 0.2594397 -0.114200935 -0.030858729 0.1791391
1698 0.1333698 -0.22348087 0.27136952 -0.005455574 0.10176975 0.23705608 -0.32819062 -0.25391403 0.4411045 -0.11511221 0.1973944 0.5355093 0.4180531 -0.2586006 0.09215594 -0.14395112 -0.074482895 0.3894867 0.42210248 0.2673379 -0.47035438 0.214142 0.20472257 0.15794969 0.2204044 0.10308201 0.06637446 0.0381616 -0.09016737 0.11356129 0.05574612 -0.11571143 -0.18914178 -0.027228793 -0.23013778 0.1922924 0.013851581 -0.21377549 0.0016307575 0.325284 0.32261032 -0.16865943 0.06418875 -0.023357514 0.560348 0.32303238 -0.043342553 -0.45050713 -0.11099681 -0.21654001 0.2771001 0.103680715 -0.4205363 0.4956869 0.30644733 0.42057398 0.11688983 -0.040041123 0.10301029 0.003498225 0.22640106 -0.24794003 0.32641754 0.48390365
1760 0.14135693 -0.6223778 0.19925977 -0.012144653 0.012565945 0.25578427 -0.41740328 -0.5065381 0.1910477 -0.041865896 0.17801715 0.353069 0.32976925 -0.2685756 -0.110873334 -0.16117272 -0.14313462 0.2505724 0.37705383 0.17406939 -0.37729704 0.23789492 -0.047276653 -0.035716742 0.047202528 0.1242186 0.10097306 0.20943134 -0.27741545 0.20216075 0.2003103 -0.11329223 -0.046783943 0.09310453 0.087153316 0.163075 -0.10447598 0.37790012 0.04941317 0.644796 0.3618968 -0.37848675 0.08341514 0.13205491 0.55600476 0.26821893 0.26876104 -0.5883184 -0.018578582 -0.29128894 0.30609733 -0.03297499 -0.2387579 0.45580825 0.42042714 0.4681635 0.10738117 -0.15423016 0.18094923 0.09761382 0.27886817 -0.048242386 0.16487053 0.39109933
1797 0.1504 -0.29108852 0.04007758 0.009506538 -0.49930522 0.12451659 0.05922608 -0.19030485 0.27734843 0.32239425 0.22908619 0.4857317 0.29591253 0.12801467 0.04860766 -0.21171509 0.06925954 0.15729648 0.25677282 -0.06754273 -0.49676394 0.2853494 0.43438837 -0.12483721 0.35800675 0.2165343 -0.078284614 0.18870455 -0.1563618 0.34232113 0.28697377 -0.0836551 -0.23251705 0.041449383 -0.3504035 -0.033275217 0.27399516 0.03944596 -0.4067099 0.29145706 0.026204888 0.14668113 -0.14942856 0.23875906 0.22517143 0.22947074 0.13100357 -0.840895 0.030197764 0.13490447 0.29972166 0.033111084 -0.27084595 0.2928467 0.015793804 0.36110112 -0.051479064 -0.108257286 0.026067553 0.60765266 -0.1914597 -0.04126872 -0.36660132 0.19053683
1785 0.02465081 -0.25448924 0.055003364 -0.041995075 -0.44003662 0.4791822 -0.124422796 0.17131294 -0.08265737 0.34587008 0.47297844 0.44654402 0.3978964 0.5902329 0.38168755 0.06742504 -0.111233555 0.19071768 0.014925265 -0.026949972 -0.40888733 0.10919004 0.31698367 -0.053213708 0.29786113 0.5508484 0.090189226 -0.21508427 -0.34368145 0.37580505 0.22547598 -0.016239477 -0.035597507 -0.3133521 -0.11015728 0.007285773 0.38065705 -0.22986014 -0.40588477 0.31949925 -0.25115287 -0.058759484 -0.31766498 0.24187535 0.3147457 0.025499199 0.087931365 -0.3032383 -0.12166941 -0.020875068 0.4104989 -0.10815981 -0.32731616 -0.17308454 -0.1864485 0.82533646 -0.20120473 -0.20817846 0.1282213 0.314594 0.08943261 0.23239724 -0.6608634 0.07636233
1680 -0.14472567 -0.3106443 0.3438144 0.45025837 -0.378483 -0.13482872 0.015639503 0.20477569 0.06265209 0.236849 0.102453075 0.8187372 0.11133955 0.0078540165 0.32435957 0.5052922 0.25483853 0.7457256 0.15255435 -0.060463075 -0.12157167 0.42773873 -0.0016573281 -0.08793425 0.21052517 0.8752019 0.13083772 -0.43421483 -0.04703698 0.31504694 -0.3677973 -0.05519539 -0.2397133 -0.2355864 0.14567842 -0.27637708 -0.32177055 -0.436823 -0.5198925 0.29017508 0.406132 0.17311007 -0.078056805 -0.28934228 0.7306763 0.44845426 -0.15246911 -0.6698883 0.3026028 -0.31103903 0.35227576 0.280094 -0.40237042 0.34118265 0.3633422 0.17701727 -0.21284258 0.15006591 -0.23451202 0.220587 0.3634369 -0.3316086 -0.29745 -0.30251342
119 0.45555097 -0.47275004 -0.121745855 -0.0071620154 0.6634853 0.10649721 -0.043168765 0.34946388 -0.15910462 0.1442598 0.68812865 0.31718305 0.058777694 -0.17829561 -0.03913808 -0.19471224 0.18813246 0.2170382 0.35352877 0.3301304 -0.39882594 0.042778566 0.32394257 -0.68520045 0.25118575 0.42529994 0.4087684 -0.008142417 -0.22016233 0.7116332 0.39689484 -0.122735776 0.0022411554 -0.19740692 0.20302026 -0.2074462 -0.28136155 -0.85861135 -0.09722951 0.5875067 0.005280482 -0.22902201 -0.3384839 0.31895185 0.8332932 0.14843917 0.17560312 -0.5308431 -0.11803215 -0.35224137 0.36883473 0.37449074 -0.10200875 0.5758643 0.41442916 0.05972988 -0.043787118 -0.69806755 0.47564209 0.12173146 0.101001434 0.111473724 0.24804035 -0.15854846
1642 0.21581188 -0.1892213 -0.2351781 0.36280686 -0.97497123 0.15281372 -0.39674884 -0.1835136 0.10464079 0.21846215 0.5220161 0.66900796 0.13207072 0.90224254 0.011263014 -0.13671716 0.2618748 0.24884303 0.0041352804 0.023635363 -0.52176815 -0.122922085 0.0525549 -0.18891202 0.48022708 0.4805503 0.033033762 -0.35585648 -0.12423271 -0.023098048 0.0064747888 0.13508452 -0.0067219036 0.2260088 0.06847937 -0.08824847 -0.10814064 -0.37797 -0.6137364 -0.09413417 -0.3680812 -0.44027907 -0.06843586 -0.5189158 0.01786878 -0.10899082 0.037463572 0.29973093 0.17871216 0.07244847 0.82999307 -0.21469553 -0.24003308 -0.37823758 0.119177885 0.31166694 0.0410192 -0.3836246 -0.47326195 0.38056344 -0.06737891 0.06686277 -0.3932131 -0.5949444
1660 0.13448638 -0.31383896 0.12579915 0.41971534 -1.0531999 0.26649478 0.33809063 -0.29193524 0.6574877 0.18216564 0.2420412 -0.21223144 -0.25253212 0.44822344 -0.34027958 0.1450598 0.14781001 -0.2016691 0.010710492 -0.13663362 -0.94658154 0.04281466 0.08822707 -0.020634567 -0.10320161 0.2981972 0.03742625 0.05617489 0.09654483 0.50454056 -0.35237882 -0.33262283 0.011376654 0.056149736 0.26382598 -0.45066878 -0.11193841 0.019239103 -0.21160866 0.28245887 -0.15862891 0.0070085083 -0.039003454 0.07973057 0.23528664 0.5655975 0.6977111 -0.39308012 -0.37314022 -0.16691297 0.9814675 0.030093394 0.008154537 -0.32746178 0.5110581 0.40811175 -0.32849932 -0.54753745 -0.12971099 0.21815246 -0.021322515 -0.03961282 -0.30957642 -0.103097625
1632 0.4488838 -0.42416885 -0.5340802 0.48942629 -0.49520886 -0.4819095 0.06614673 -0.14567885 -0.28698665 0.09640759 0.025575424 -0.053300835 0.37887108 0.24876967 -0.33073813 0.095729075 0.17698076 -0.018405166 -0.6433889 0.10308135 -0.74448514 0.07137653 -0.011664585 -0.22645935 0.311507 0.62422484 -0.17702395 -0.36418575 0.42794913 0.4712277 -0.5413258 -0.05564031 0.024284696 0.25664967 0.0826657 -0.27900323 -0.17876393 -0.27476984 -0.16810367 0.294491 -0.6585057 -0.3654207 -0.06858384 0.18378311 0.020991141 0.31261253 0.07701951 -0.1364308 0.06927197 -0.10178169 0.76555085 0.01178276 -0.45137736 -0.62535316 0.20795622 0.37387732 0.059915643 -0.73642373 0.6250983 0.47557223 -0.30724323 -0.08988586 0.024777632 -0.5222856
1654 0.2496831 0.018012272 0.4969311 0.03172634 -0.7785078 0.0017341283 0.06185203 -0.22249521 0.45381993 -0.32042232 0.1277252 0.50589013 -0.03716555 0.69432026 -0.37791148 0.2396761 0.08528498 0.35014644 -0.14038824 -0.39123884 -0.56286955 -0.19585992 0.080331 -0.164168 0.47280762 0.6728877 -0.43987212 0.34483904 0.57779664 -0.32496062 0.03516164 0.37255555 -0.5723371 0.33788326 -0.3098897 -0.58645517 0.12136191 0.15046047 -0.6366721 0.10736283 -0.10891391 0.07921468 -0.06059742 -0.071015224 0.055281073 -0.10363383 0.44170836 -0.12662764 0.4753177 -0.1886339 0.8869024 -0.52944475 0.24427105 -0.23884322 0.051744375 0.42866495 -0.03096938 -0.5245634 -0.08477448 0.9657669 -0.1223345 0.07850904 -0.3434975 -0.62038416
1663 0.2048044 0.1609168 -0.37885192 -0.28336564 -1.2118562 0.06516617 -0.602066 -0.20188758 0.4267869 0.46600994 0.46267146 0.0063163913 -0.3328547 0.40601277 -0.24269256 -0.013133183 0.2356762 -0.06466067 -0.2677034 -0.3759766 -0.50982136 -0.13446112 -0.2877417 -0.19417633 0.5200635 0.49421343 0.057966404 -0.110073745 0.05206688 -0.12556633 0.009573713 -0.48408547 0.0212493 0.42205682 0.45883134 -0.59998935 -0.08020569 -0.0400648 -0.18637246 0.28106186 -0.4137772 0.010615727 -0.31524476 0.3577401 -0.19660038 -0.07145662 0.10731945 -0.6056624 0.36531577 0.113077775 0.40023434 0.4992456 -0.55893236 -0.4171269 0.049450725 0.72279066 -0.1382906 -0.48683357 0.13117614 0.5280377 -0.38597122 -0.04658525 -0.3065306 0.010214595
1667 0.2044067 0.020384835 -0.13404989 -0.17867307 -0.43431723 -0.0044048196 -0.3889954 0.057783302 -0.35974753 0.2751899 0.48218474 0.27220762 0.19528045 0.51794255 0.25113377 0.21805595 0.30310172 -0.27888608 0.44190758 -0.109444536 -0.5170797 -0.53563064 -0.088936366 -0.49984986 0.5170743 0.027823871 -0.07125539 0.09358468 -0.2525567 0.45115778 0.038477097 0.275037 -0.28219333 -0.035526738 0.47704875 -0.114659235 0.17148359 -0.088748656 -0.6239381 0.3664051 -0.26334932 -0.18384703 0.25389677 -0.3414167 -0.25826815 0.49163067 0.51686454 -0.4523817 0.47563058 -0.38652736 0.7641377 -0.37187538 -0.1685294 -0.37854236 0.30750573 0.8368689 -0.27694872 -0.34702903 0.3663415 0.5335105 0.010491475 -0.32238925 -0.58015007 0.37788704
239 0.72664493 0.36963236 0.16344973 -0.32029152 -0.36852965 0.19355363 -0.35162202 -0.1071504 -0.0115104625 -0.11926749 0.058836345 0.45005053 0.18504705 0.62453383 -0.060933843 0.26735443 0.49882507 0.74056464 -0.09629302 0.2895379 -0.34367353 -0.1826594 0.6193642 -0.6240166 0.59149224 0.57075304 -0.40725672 0.0783359 0.37281957 0.33406484 0.1077082 0.3625038 0.9325076 -0.22729652 -0.043640465 -0.13822183 -1.1744825 -0.5193906 0.62448317 -0.07865031 -0.40531766 0.22755092 -0.069406904 -0.18287909 0.42286387 0.38513282 -0.2218499 0.42718843 -0.27862284 0.08655481 0.1502327 0.45346844 -0.033599876 0.1477575 -0.6851195 0.14199033 0.022703977 -0.29867274 0.2808819 -0.058195494 -0.07407731 -0.8972257 -0.14324445 -0.6494066
1639 0.030169234 -1.00606 -0.64303863 0.47786042 -0.117116965 -0.4723457 -0.13163768 -0.15954179 -0.14207229 -0.032860406 0.06274195 0.34270084 0.6704647 0.34385866 -0.24211706 0.32399568 0.5827472 0.71668035 -0.2569107 0.1722945 -0.35278356 -0.18825857 0.554885 -0.18176946 0.39467227 0.25269645 -0.006914496 -0.18617056 -0.083260305 0.5201334 -0.6628757 -0.21603964 0.013650206 -0.08052013 0.35280672 0.013776538 -0.2600212 -0.7035227 0.09802292 -0.47763982 -0.4013683 0.37702733 -0.4874022 -0.41362518 0.005390068 -0.06002689 0.011759036 -0.3078237 -0.6542205 -0.19917318 -0.08836368 -0.0742431 0.124246225 -0.23633572 -0.33188123 0.7789049 0.14950013 -0.52476394 -0.12459683 0.6985583 -0.016953189 0.5546318 -0.2150264 0.050702177
1678 0.51386774 -0.1014914 0.037415117 0.55414176 -1.1175781 0.5843715 0.07595272 0.13032907 -0.19169511 -0.16689697 0.5881506 -0.08062587 0.2287039 0.14439182 -0.4282787 0.19645394 0.59250546 0.0901843 0.65613776 0.10077496 -0.37662154 -0.29272288 -0.37422952 -0.07510425 0.11127249 0.38565424 0.012829417 -0.2598338 0.1740157 -0.28115273 -0.038241345 -0.4917895 0.16128446 -0.14924407 0.51941943 -0.36086544 -0.60338044 -0.24372894 -0.3042351 0.6747586 -0.19095892 -0.095948994 -0.29628944 -0.25234318 0.21928318 0.45508343 0.7070176 -0.10665559 0.41299248 -0.1435743 0.40782714 -0.70033646 -0.082965516 -0.2152994 -0.010137725 0.38389248 0.5409487 -0.39942828 0.038656738 0.28590068 -0.006363016 0.22690167 0.061017722 0.28984722
633 0.117824726 0.16211602 -0.5217539 0.25875416 -0.25128588 -0.17669612 -0.23361138 0.20422864 0.2116387 -0.24960607 0.8182479 -0.37050328 0.801167 0.13864458 -0.18279324 0.62910646 0.24238455 0.8076762 -0.23930112 0.255273 0.13867219 -0.18918404 0.20602584 -0.22449043 0.18561444 0.10988157 -0.5238002 0.22026564 0.9243308 1.0810776 0.26772016 -0.2921483 0.094162606 -0.006109066 0.630864 -0.08266487 -0.24481279 -0.6081592 -0.072903335 0.017288655 -0.3667003 0.32354438 0.23552148 0.05956734 -0.39929292 0.464476 -0.14058176 -0.54495084 0.23886128 -0.23329775 0.42326856 0.17097025 -0.60379183 0.2192574 -0.19942705 -0.0339981 -0.05716154 0.44989362 -0.33884862 0.0469304 0.31661373 0.5703795 -0.43534663 -0.23321469
1641 -0.063585326 0.16773085 0.20500855 0.7562173 -0.25330552 0.14037552 -0.80243206 0.553999 -0.043090522 -0.2375023 0.29295552 0.47809774 0.45989755 -0.21429524 -0.47031268 -0.21962793 0.18700778 0.75790936 -0.5779959 0.05587172 -0.36564657 -0.20001648 0.2096347 -0.023552837 0.09639755 0.882895 0.4691182 -0.3446106 -0.26517582 0.06819413 -0.44760618 -0.0055631446 0.40756437 0.36211315 0.34253848 0.08529741 -0.35978195 -0.5933819 -0.011806606 0.34588563 -0.7117244 -0.21143045 0.0015315283 0.11546036 0.6551517 0.24801368 -0.020464929 -0.06585562 0.09618674 -0.12183184 0.28786656 0.4895877 0.014402574 -0.4062257 0.054356206 0.7525075 0.17074846 -0.7202749 0.307947 0.050779026 0.4743872 0.22896338 0.504384 -0.33536518
1693 -0.2866951 -0.096920274 0.48814285 -0.16725902 -0.089794174 -0.035823945 -0.3619678 -0.6709869 -0.042689193 0.05922118 0.08347272 0.7586145 0.4167961 0.14664182 -0.101382226 0.27318236 0.4953979 0.3072567 0.03725934 0.17619392 0.042390443 0.69604766 0.4675626 0.163123 0.33988667 -0.22677428 -0.10859885 0.15653624 -0.035439223 0.27799597 0.19745198 -0.9301719 0.3495401 0.336916 0.2594439 0.12714136 -0.515099 -0.49625537 0.4013802 0.906348 -0.030004589 0.029395003 0.10412151 0.23865637 0.19987448 -0.24603786 -0.13583694 -0.44383547 0.23776637 -0.6926968 0.13714488 -0.30740812 -0.56791294 -0.15039077 0.43764922 0.6875144 -0.36736044 -0.086049564 0.598047 0.1596057 -0.32637087 0.14475918 0.39134914 0.0048022047
1630 -0.25208348 -0.23244774 -0.40092874 -0.057322297 -0.45611095 -0.14095007 0.25873548 0.42942387 0.06301004 -0.2140417 -0.09775563 0.46432737 0.7758232 0.11239485 -0.08648287 0.019036252 0.39080647 0.39642367 0.35145235 -0.14106 -0.59064305 0.4652604 0.31028503 -0.17400394 0.4242255 0.37248215 0.16820705 0.021739503 0.251906 0.49931666 -0.28164604 -0.4755404 -0.020704929 0.3171148 -0.456151 0.29061055 -0.40729216 -0.1424543 -0.35550916 1.193874 0.019388191 0.20681913 -0.36867994 0.030822668 -0.32067385 0.37821215 0.4228158 0.55510044 0.5191209 -0.24853037 0.11621268 0.10635818 0.11806424 -0.097909026 0.051674664 0.19504406 0.14375216 -0.11674367 -0.32208115 0.7863954 0.56030613 -0.5875519 -0.35662302 -0.34781182
1671 0.43924516 0.062451206 -0.34495434 0.06796177 0.12216867 0.7120858 -0.48610476 0.009882571 0.10004526 0.48414114 0.51043075 0.10633915 0.8814324 -0.40461445 0.49553886 0.5685796 0.26321882 0.28442055 -0.036330346 0.039370216 -1.0480057 -0.28707707 0.4490709 -0.33364975 0.4159517 0.055909954 0.11722949 0.3081548 0.3807795 -0.14892532 0.09338642 -0.31481433 -0.50492835 0.15871598 0.2968189 -0.13854842 0.39493003 -0.42641264 -0.32477543 -0.24446432 0.3136368 -0.16655785 -0.0149901165 0.12025548 -0.25342077 0.2793551 -0.45218897 -0.27728978 0.36114126 -0.008095046 0.8581164 0.38001677 0.46618968 -0.6073871 0.30241123 0.31722018 -0.12096937 -0.27659523 -0.17149463 0.6396028 -0.23299277 0.053455967 -0.1408512 0.44554332
131 0.43092868 -0.14733616 -0.43370262 0.13526939 -0.61392343 -0.1189331 -0.06381344 -0.16011406 0.64965564 -0.46407083 0.054894578 0.06697076 -0.08284893 0.0048374515 -0.3304702 0.40096027 0.19061473 -0.53452677 0.64725304 0.16064268 -0.75186896 -0.806031 -0.123131655 0.16593163 -0.07004148 0.07734715 0.3826344 0.14132974 0.39091322 0.51881826 -0.19691412 -0.40898302 0.7636827 0.16825229 -0.5706654 0.23124233 -0.20829722 -0.884878 0.486746 0.45054913 0.20528314 0.90871686 0.48332882 0.34262168 0.33130828 -0.3382612 -0.35808063 -0.049820103 -0.36507168 -0.009086601 0.8187563 0.35718045 -0.011369488 0.23061432 -0.42574105 0.7098814 0.25118372 0.20495674 0.14580435 0.5655179 0.6547758 0.2697255 0.064502746 -0.8613901
1666 -0.014368556 0.47019663 -0.16164055 0.18099415 -1.1524819 0.36475894 -0.21862288 0.15341322 -0.19237696 0.22095937 0.05584551 0.5397294 0.5525672 0.06927363 -0.08124244 0.66544455 -0.46408525 0.83766824 0.12621067 -0.09987615 -0.89603776 -0.21977976 0.32219824 -0.09074175 0.118027225 0.007619094 -0.13106 0.44765517 -0.21575506 0.33064783 -0.35002264 -0.39736617 -0.06811287 0.15647808 0.616612 -0.49538434 -0.6472601 -0.2530895 -0.4029424 -0.40164495 -0.017535603 -0.008883376 -0.06435379 0.5885258 -0.3141928 -0.21017367 0.12715954 -0.34676898 -0.3234302 -0.11100561 -0.1622335 -0.14240825 -0.007007309 -0.2336312 -0.2369752 0.7774067 0.43262574 -0.13364343 0.014048074 0.42665812 -0.9462786 -0.44103104 -0.35069105 0.19381844
190 0.120468095 -0.25038922 -0.39835873 0.47311878 -0.11489999 0.57905877 0.4024601 -0.4419592 0.2853153 -0.69410706 0.30597457 1.1786371 0.64115286 -1.1315626 -0.42344034 0.22107928 0.41596872 -0.0005219887 -0.16471069 -0.7269147 -0.016688528 -0.29584408 0.3866589 -0.34324536 -0.39836392 0.52923 0.41359866 0.53398025 0.21063074 0.74812764 -0.0046066986 0.23346221 0.3959445 -0.09575013 0.6863661 0.012763789 0.09029597 0.23592384 0.4018301 0.44998804 0.08325544 -0.35276785 0.13809167 0.6030779 -0.0601475 0.1691686 -0.06117898 -0.28708243 -0.32828733 0.18088138 0.25386095 0.11706391 -0.53512925 -0.28016824 -0.15009575 -0.18102148 0.4495378 -0.3981923 -0.70276785 0.6030574 0.2615044 0.12622687 -0.49186832 -0.08318772
1673 -0.10023551 -0.32411727 0.0038423175 0.22952464 -0.16939089 0.58182204 0.300638 0.04548916 0.2277517 -0.40371045 0.7175318 0.13207711 0.82561994 0.2125365 -0.11573903 -0.23886867 0.569099 0.08159077 0.12721565 0.3291843 -0.51681244 -0.5705085 0.85891896 -0.826418 -0.7836207 0.47548744 -0.015558238 -0.26134443 0.44110847 -0.8226018 -0.03643555 0.3795215 -0.40138337 0.35720938 0.23137781 -0.2433409 0.22214523 0.042649 0.5891134 -0.82373846 -0.2847574 0.6875504 0.21729176 0.18813385 -0.20531964 0.5274315 0.44607535 -0.0748283 -0.3110454 0.26151422 0.5038194 0.161065 -0.15877737 -0.37005022 0.14628874 0.6148156 0.30054697 0.25052524 0.70703226 0.41525438 0.21334672 -0.13706261 -0.43534973 -0.7349761
1668 -0.072227806 0.36958042 -0.84713566 1.0371433 -0.28909957 0.16146609 0.07756218 -0.67017937 0.43283364 -0.07948955 -0.006932208 0.24087502 0.22866648 0.62600136 -0.1325331 0.5030412 0.38182616 -0.08338652 0.32642344 0.11185376 -0.75067985 -0.2095686 0.7156687 -0.076581985 0.6564983 0.10794487 -0.59373236 0.6172458 -0.21959989 0.13380288 -0.31917396 0.012191456 0.03395577 0.40595356 0.20861548 -0.48438966 0.07396364 0.09337077 -0.09845688 0.11645983 0.049651146 -0.5821825 0.41770172 0.19213942 0.049378276 0.282606 0.29718366 -0.42998564 0.40876904 -0.16426933 0.35017517 -0.08278648 0.28575975 -0.026329726 -0.0150875 0.32365647 -0.1468374 -0.4766996 0.22907893 0.44027495 0.14771467 0.07447623 -0.29819584 0.055379003
1672 0.055673156 -0.099373505 -0.10347979 -0.021129316 -0.05518873 -0.012470535 0.3988204 -0.18481392 0.6759444 -0.4677435 0.42503434 0.5408124 0.60147536 -0.058246672 0.48771513 0.53377587 0.5363838 0.16627951 0.16896304 -0.37016183 -0.68509656 0.11703549 -0.10130825 -0.13499224 0.1225076 0.27035448 0.06764545 0.40264934 0.15403216 0.27875298 -0.6275871 0.010283628 0.20629166 0.031277258 -0.0741495 -0.7390425 -0.30981418 -0.03187894 -0.5530577 0.47609663 -0.43649846 0.5633285 0.3260358 0.37781185 0.4599162 -0.10928101 0.22133788 -0.195704 0.08330384 -0.6408207 0.92336726 0.25569293 -0.35932007 -0.58058447 0.0478739 -0.11208707 -0.28643966 0.60386 -0.3842976 -0.019899474 0.46625134 -0.5428059 0.4307993 0.12869199
154 -0.02212759 0.43638274 0.3976993 0.7304817 0.2294646 -0.49251777 -0.4267777 -0.4402143 0.68461955 -0.25359994 0.75574565 0.21306974 0.10492877 0.14905265 0.22840257 0.4317845 0.10902556 -0.023377795 0.15551257 -0.60274786 -0.53685063 -0.69208467 0.32902372 -0.3322672 0.64486706 0.35275415 -0.24260452 0.13592282 0.23725933 0.60267663 0.10949933 -0.23466599 0.1882597 0.04020177 0.35727337 0.39327642 -0.7074241 0.12745668 0.12781318 -0.21965434 0.096606664 -0.09226012 0.01204892 1.0308814 0.052553985 -0.22112465 -0.10363555 0.672862 0.50275964 -0.21373157 0.43044412 0.08987647 -0.37924427 0.89586884 0.38930836 0.7595946 0.3929713 0.24699809 0.06354539 0.34471813 -0.25484213 -0.16718741 -0.559349 0.089719154
138 0.39264667 -0.4030664 -0.30951324 -0.026517285 -0.6099959 -0.29915112 -0.12716408 -0.07204241 0.52706087 0.5482028 0.09483038 0.13677226 0.41912696 0.0011328534 0.43962795 -0.19561465 0.73835766 0.5507015 0.39383662 0.3383266 0.38483697 -0.5570117 0.15956937 -0.46990633 0.11230785 0.012407998 0.18107611 0.57796776 0.7193483 0.43396497 0.32411617 -0.20121896 -0.39793032 0.0054946584 -0.14415608 0.040968172 0.034532975 -0.14954923 -0.41239247 -0.07278253 -0.5650485 0.06926927 -0.28953424 0.7521392 0.47300005 0.1368638 0.49088702 -0.37323466 0.2610674 -0.21547131 0.3072374 -0.16499223 -1.0179079 -0.2003222 0.083173946 0.016878186 0.45057434 0.2554104 0.5176511 0.028238216 0.13529275 -0.77469814 -0.41467658 0.22010227
24 0.6140983 0.42673317 -0.4421009 0.48729664 -0.27071053 -0.8711983 -0.49497434 0.18708727 -0.04841322 -0.617553 0.8351484 -0.018499754 0.38827676 -0.9058267 -0.17710422 0.83726925 0.19488524 0.28268027 0.92148906 0.05443309 -0.12809175 0.060695466 0.08547118 0.26312718 0.09702355 0.034561742 -0.35814977 -0.09071248 0.46477517 0.21965565 -0.13158666 -0.6438699 -0.2031782 -0.09579661 0.7283996 -0.249595 0.08672481 -0.2579934 0.015447232 -0.6106678 0.32980484 0.5116566 0.29102516 0.40681458 0.70408964 0.19598952 0.35457474 -0.050717242 0.02586984 0.34989125 0.16337267 -0.14404738 -0.52943176 0.01617641 -0.2700967 0.9813089 -0.072182134 -0.9357882 0.4261069 -0.14597766 0.12084867 -0.18911842 -0.311312 -0.09904059
1 -0.08069046 -0.17963436 -0.018805468 -0.43501088 -0.15070754 0.16659243 -0.5039116 -0.17108944 0.16864915 -0.88172406 -0.050039697 -0.007377025 0.06600803 0.38978896 0.5095299 0.71669704 0.5795137 0.19134164 0.14697906 -0.31070483 0.5803546 -0.37589577 0.23079503 -0.6773074 -0.5408172 0.017232964 -0.20814724 0.32622758 -0.4560845 -0.010237806 -0.15302129 -0.65012956 0.42112222 0.035215482 0.2273349 0.37707475 -0.095974304 -0.40175238 -0.2968573 -0.15774427 -0.83504033 0.19402432 0.22203517 -0.01921729 0.71440095 -0.18291807 -0.08511216 -0.35127056 0.27300197 0.69299275 0.9591957 0.41662416 -0.8064163 0.011344751 0.47446522 1.1420519 0.5449274 -0.12535645 0.22441414 0.50095546 0.1695721 0.34104237 -0.258887 0.20704736
96 0.121915415 -0.27655727 -0.2520637 0.16193952 -0.2809696 -0.10485649 -0.026005222 -0.1310087 0.22340575 -0.101759814 0.3081509 0.58830935 0.4013975 0.017986517 0.11975834 0.21010831 0.3493119 0.64948654 -0.06500844 -0.015960697 -0.6681343 0.36619082 -0.37618795 -0.7923951 -0.1307391 0.4470543 -0.03393082 1.0294198 0.48642805 -0.49947724 0.0075061875 0.45505416 0.48660624 -0.20343101 0.32641602 0.45680493 -0.24994794 -0.78304005 -0.634361 0.441243 -0.59978086 1.1092324 0.4848019 0.9436115 -0.19617325 0.06145377 0.2202232 0.3719895 -0.04828963 0.5583998 0.2781617 -0.74086505 0.0466507 0.29473767 0.15370885 0.48177615 -0.116748266 0.28425103 0.073604204 0.5147964 -0.27344397 0.1260644 0.16949654 0.6310324
58 0.52146316 -0.48465943 -0.7913002 0.057304244 -0.36484438 -0.36754113 -0.42741773 0.00033664523 1.3632866 -0.95806724 0.2799076 -0.116278596 0.12019101 -0.0052445014 0.036556065 -0.111823 0.00043476114 -0.030337336 0.23100501 0.97299093 -0.52171427 0.27432898 -0.050682373 -0.6591801 0.057752654 0.9274644 -0.38775906 0.5905552 -0.5796063 0.6250016 0.17906584 -0.32861936 -0.5651275 0.5442784 0.11931387 -0.15486525 -0.19114879 0.10111301 0.21654618 0.13454404 0.5285337 0.024055691 0.6857851 -0.043190785 -0.19032282 0.19045651 -0.0684479 0.35975713 0.09393851 0.2010331 0.20370707 0.5276754 -0.62101674 -0.33693 0.5466501 0.022073206 -0.5007686 -0.29988438 0.092095 0.2344129 -0.24393584 0.06688446 -0.16760643 -0.1273188
132 -0.05427625 -0.6651897 0.41960356 0.42365858 0.24233632 0.32727244 0.67496145 -0.4719396 -0.24520878 -0.1366076 0.39762196 0.35311785 0.03918818 0.12501308 0.28850195 0.6676846 0.2220646 0.61938405 0.06411505 0.88503313 -0.9121128 -0.54113275 -0.0537103 0.109199435 0.109619156 0.26073372 -0.09792655 0.5230994 0.042569865 -0.056202173 0.30694765 -1.1714095 0.13298757 1.0777107 0.32336277 0.86875576 0.13342091 0.26446176 -0.3946155 0.17668933 -0.054972045 0.05200318 0.57489413 0.17189272 0.089569576 0.2384739 0.121555865 -0.01400704 -0.21536763 -0.5574376 0.49320802 0.21397835 -0.47254008 0.30126682 -0.37895477 0.059034843 0.18215922 -0.21684028 0.382359 -0.121861786 0.20884095 -0.40202275 -0.27640393 -0.55848426
61 -0.5703103 -0.103135794 0.2187727 -0.103587806 -0.30859897 -0.4479352 -0.15463759 -0.6225455 -0.11669748 -0.6257598 0.36099106 0.29915708 0.31601286 0.62773347 -0.017904501 0.22870946 0.5111077 0.7307629 0.76036817 -0.08957633 -0.19088453 -0.13137655 0.08452558 0.6942174 -0.51596165 0.49375528 0.3614567 0.08647839 0.17675741 0.23647961 -0.20259699 0.17314434 0.3151512 -0.31308106 0.3717567 -0.09472157 0.04373611 0.51637 -0.28351697 0.42313716 0.17345092 -0.21997102 0.38046122 0.1257051 -1.0018306 0.1359433 -0.3367366 -0.42698425 -0.41057637 0.00575116 0.40846753 1.1456369 -0.055322696 0.16760154 0.37883228 0.6192335 -0.38865662 -0.7595152 0.61672616 -0.12519793 0.16625263 -0.35097474 -0.4119248 -0.51955247
1665 -0.08413138 -0.5279041 -0.572919 -0.32762915 -0.4724695 0.07834692 -0.17885305 0.14052679 -0.15588886 -0.6427158 0.092639714 0.8534649 0.18122657 -0.18765514 -0.3364926 -0.2532627 0.47054374 0.556602 0.16509105 0.02296606 -0.9067261 -0.81869525 -0.033084154 -0.21546333 0.30533624 -0.344978 -0.60970664 -0.02228743 0.24444114 -0.2623698 0.4609723 -0.6549177 0.23827258 0.058916163 0.4373474 0.08077946 -0.9546815 -0.22330518 -0.22502708 -0.33011067 -0.25671804 -0.55716807 0.5619326 0.587099 0.1802681 -0.33007145 0.46173552 -0.60736436 0.46489358 0.24197155 -0.49010214 0.044246882 0.3421805 -0.11620933 0.46224713 0.20160536 -0.6237829 0.07524934 0.10812675 0.5563777 0.5966525 0.031284392 -0.69809383 -0.27190074
67 0.075927034 -0.37991768 -0.3294262 0.09024285 -0.26220712 0.6275678 -0.09323905 -0.44176865 0.42877406 -0.29232833 -0.20459679 1.0846814 0.43693075 -0.10604816 0.023882579 -0.51619077 0.5553245 -0.06882112 -0.46407032 0.49729562 -0.21836826 -0.33389676 1.0898489 0.08488266 0.04226988 -0.03785038 -0.6233988 -0.116046906 0.15906863 -0.15384793 -0.61939776 -0.9503767 -0.21758759 -0.41795725 -0.018004796 0.016645037 -0.10163694 -0.087389424 -0.077017106 0.7290544 0.45511812 0.49364418 -0.5199284 0.36140686 0.6940763 -0.007541669 -0.19155869 0.34707195 -0.15461606 0.7496072 0.39156437 -0.4502556 -0.04614681 0.030367123 0.36863598 0.17730552 0.2592994 -0.5900601 0.41089216 0.12775089 -0.13772188 -0.20279866 -0.050341114 -0.61011547
90 0.16144156 0.22376552 0.3831285 0.7512412 -0.20767927 -0.13284291 0.32963192 -0.41625413 0.14721256 0.35985732 0.22481415 0.46065497 0.23746972 0.04492637 0.38890398 0.29651156 0.56799304 -0.41557822 0.27888834 0.33772457 0.10672254 -0.3379891 0.13352132 -0.2929692 -0.10731559 0.06152109 -0.19727468 -0.03873034 0.70087034 0.045318376 -0.52805734 -0.19175121 0.87195724 0.43514118 0.18704255 0.30265555 0.76762867 0.005523648 -0.008057745 0.055500798 0.5133659 0.6119312 -1.139062 0.05817255 0.2506937 -0.011282622 0.280874 -0.4363659 0.11645429 -0.27249047 0.33822694 -0.42490077 -0.24852474 0.16120405 0.21495888 0.22043516 -0.19343871 -1.2005819 0.6191459 0.74952096 0.6903031 -0.14385165 0.2281424 0.5582029
77 -0.30078414 -0.04809665 -0.04994677 -0.7603109 -0.47349817 0.28979698 -0.6263215 0.56854266 -0.26212537 -0.19594839 0.06102958 0.9465898 0.6271916 0.104984365 -0.68121743 0.3511401 0.7811996 -0.14305054 0.52606577 0.66065294 -0.6381655 -0.8631505 0.30756482 -0.073543265 -0.3535515 0.5619741 -1.0591341 0.42508957 -0.22628672 0.65322626 -0.14857987 -0.021048784 -0.38507918 -0.045853 0.5991013 0.5157239 0.2681306 -0.17457713 -0.039972663 -0.2251155 -0.3543191 0.53087467 -0.607788 0.17161524 -0.41729817 0.1744063 -0.24447918 -0.15704499 0.29555324 -0.40055862 0.14543265 -0.13762872 0.010377167 0.3025585 0.44741806 0.43633178 -0.11592008 0.06587716 -0.18365198 -0.03530196 -0.25915006 -0.5421739 0.94411725 0.165244
1675 0.589818 0.65448207 -0.29124117 -0.7731127 -0.2854753 -0.70734715 -0.055685505 -0.08543522 0.25880668 -0.32876745 0.88514584 0.9230506 0.7606084 0.56791914 -0.2590865 0.56618875 0.1927109 -0.266709 -0.29348123 0.30073202 -0.15379915 0.026403492 0.25305453 0.14505474 -0.29371184 -0.006393236 -0.24867634 0.2365744 -0.5058328 -0.13528727 0.103278264 -0.62433445 -0.52089804 0.082231805 0.08664241 -0.20984478 0.053609803 0.45958787 0.5658063 -0.0036056037 -0.25457907 -0.30044374 -0.23138729 -0.13064955 0.5829147 0.21917567 0.5114909 -0.5667453 0.08722287 -0.28517076 0.7343518 0.6671615 -0.15026939 0.33619004 -0.50962013 -0.13936657 0.36601505 -0.06431477 0.16932406 0.62741864 0.75115937 -0.25424728 -0.30363956 -0.3116715
71 0.55419654 -0.20992418 0.18943536 -0.78219366 -0.52376896 0.7275851 -0.03995621 -0.18190722 -0.23648162 -0.5063176 0.4260709 -0.010766415 0.3748166 -0.2067579 -0.008463431 -0.08126271 0.14204615 0.10093266 -0.77689993 0.35419425 -0.047250494 -0.3890933 -0.30483943 -0.5145519 -0.1413836 0.024600562 -0.0061918437 0.6873835 -0.344353 0.1601646 -0.31037563 -0.33641103 0.15433654 0.36249146 0.009102751 0.28468892 -0.6977958 -0.29090306 -0.6515954 -0.3257604 0.6320649 0.7184732 -0.6175694 -0.50055426 0.51534474 -0.011449947 0.36724004 -0.07059964 -0.5388355 0.09461795 1.0480114 -0.12981345 -0.60880893 0.24518469 0.38677526 -0.2909853 -0.39827555 0.02141875 0.13158767 0.8591715 0.63569224 0.30943114 -0.4214114 -0.13517134
196 -0.8261684 -0.2174859 -0.9344669 0.06521184 -0.39877543 0.2298901 -0.25550553 -0.6351006 0.33747342 0.5068547 0.64674395 0.34533694 0.26134223 -0.20869844 -0.48023793 0.42179325 0.089517035 0.34628096 -0.23857167 0.70707273 0.043888498 0.16158086 -0.05435726 0.3213004 -0.36110416 0.5616498 0.09380325 -0.1246132 -0.35331354 -0.17278688 0.22282256 -0.16973913 -0.3027407 0.21977003 0.30985624 0.22816898 0.19259535 0.31756508 -0.1309236 0.14771968 0.4918712 0.52715564 0.45859736 0.59603006 -0.32229006 -0.038938824 0.08478125 -0.28823295 0.4409738 -0.26376495 0.62819767 -0.395581 0.07595109 0.84138083 0.61187214 0.90430975 0.30124685 0.09664292 -0.66119117 0.5633747 0.36119637 0.45276546 -0.8921597 0.089065574
29 -0.740161 -0.65706414 -0.19598895 0.21447356 -0.20216948 0.671793 -0.7877118 -0.15313591 0.25159106 -0.6061397 0.04131918 0.08514931 0.68743914 0.6061695 0.20963004 0.10462291 -0.05518097 -0.009854029 0.26739594 0.037092157 -0.045590486 -0.1949719 0.27988845 -0.52133137 0.47624147 0.5553102 0.10271547 0.1319352 0.4137128 0.37367293 0.10416025 -0.46524125 0.09176445 -0.05489472 -0.42570594 -0.43381876 0.38181254 0.11481643 -0.58942056 -0.41351146 0.025835192 -0.35566148 0.38171622 0.64934194 0.58083683 -0.61457783 0.4428138 0.1181054 -0.90225446 -1.1314342 0.49706113 0.37689024 0.7491775 0.2717133 0.46656442 0.19498771 0.32565174 -0.05000036 0.68564487 0.11579842 -0.34935123 -0.28645003 -0.025785258 -0.058479227
64 0.2055875 0.03773598 -0.4516234 -0.06090532 -0.03387235 -0.32516024 -0.26303107 -0.42546117 -0.09148353 -0.6518883 0.24897772 0.36016688 -0.08005869 0.80845857 -0.3980051 -0.43330446 -0.2281274 0.18085313 0.021924658 0.5750944 0.13316283 0.08496429 0.33190018 -0.32588777 -0.06456047 0.8440166 0.23052846 -0.47633925 0.44669184 0.57870674 0.33449316 -0.5743898 0.86357623 -0.6549267 0.12494125 -0.079746835 -0.2377735 -0.18413076 -0.64996326 -0.78850955 -0.14452715 0.9644861 0.35949916 0.5197177 0.11452429 -0.2639227 0.20969208 -0.7179445 0.22355321 -0.23971125 0.6079748 -0.20068055 0.19364169 -0.34641066 0.5196964 -0.22570114 -0.21380346 0.051836446 0.26839185 0.6986432 0.75214595 -0.6476996 0.09018212 0.45035028
70 -0.23116785 0.3391376 -0.8072769 0.22002605 0.5419335 0.38882303 -0.23814489 0.23618516 0.07668969 0.3288499 0.23130068 0.76594883 0.53364766 0.44080532 0.62649554 0.05259713 -0.21030608 1.1665536 -0.57254153 0.06899612 -0.023578133 -0.5963167 -0.34902 0.066216476 -0.30825 -0.071561344 -0.8481762 0.69487906 0.14205606 0.42389685 -0.06649548 -0.7823366 0.51571864 -0.14616549 0.7314783 -0.3645021 -0.39170158 0.3942613 -0.3898726 0.43075943 -0.2103209 0.17234299 -0.22267301 -0.0806635 0.056783 -0.3323844 0.19405957 0.09444804 0.6195124 -0.09585567 0.8151278 0.4711326 0.19008915 0.031990863 0.08707143 0.2276463 -0.049272794 -0.022820788 0.65678704 0.5972316 -0.20188381 -0.4736789 0.18731731 -0.07034554
1092 -0.14632569 0.08039498 0.17301834 -0.37092066 -0.25109208 0.00025055246 -0.24263822 -0.94647396 -0.05608191 -0.88194776 0.3654432 0.9371788 0.021680811 0.05260855 0.39656162 0.17887229 0.69663537 -0.097483836 0.30050656 0.77148956 -0.042765055 -0.1950183 -0.029314728 -0.344383 0.45306695 0.311957 0.08489604 -0.10444485 -0.019402284 1.0148076 0.11498538 0.14296153 -0.4567733 0.7169505 0.23912172 0.12862803 0.016038338 -0.90378773 -0.30348158 0.3756444 0.7529004 0.42497563 -0.20067728 0.423522 -0.08553854 -0.20394672 0.046858385 -0.12451944 0.1818313 0.32906216 0.6254389 -0.06751757 0.29027256 -0.7209484 0.01854811 0.20851052 0.33716914 -0.14854892 0.434176 -0.4497443 -0.10973328 0.288036 -0.8230664 0.45739734
103 0.91448694 0.17243138 -0.38825092 -0.3246696 0.03358028 0.35197905 -0.40993512 -0.79101944 0.519828 0.23524855 0.3452202 0.59312767 -0.22652897 -0.25700325 -0.31835735 0.9754201 0.36155245 0.53961384 -0.082182646 0.88307834 -0.11169656 0.25483468 0.10632336 -0.33777347 0.8427514 -0.0742655 0.09215891 -0.18309018 0.45331293 -0.054176606 -0.318472 -0.20192432 -0.09116809 -0.09473914 -0.17596154 0.7833719 0.087869085 -0.37717742 -0.18734269 0.08036677 -0.09967421 -0.42517826 -0.27872017 0.16646259 -0.55264574 -0.31734848 0.90334463 -0.30955267 -0.14691773 0.32198295 0.5166981 -0.37432528 -0.07737532 -0.276611 0.037944283 0.4444972 0.3850642 0.14791043 0.09108234 -0.28179452 1.0128933 -0.74858856 -0.22489727 -0.61495584
16 0.43078598 0.34186977 -0.8000057 0.2795088 -0.4520018 0.6236345 -0.025126874 -0.11498246 -0.15773444 -0.4183919 -0.021000564 -0.027273094 0.24764703 -0.24740842 0.8000726 -0.29101554 0.16809127 0.29823765 0.7125768 0.7698046 -0.01089768 -0.2825119 0.45918298 0.49235383 0.5048147 0.76424456 -0.22884876 0.06285688 0.21306376 0.10515023 -0.8540613 -0.6351856 0.072465524 -0.26941717 0.25870448 0.6621706 0.3223414 -0.4245364 0.3930107 0.31813043 -0.6154132 -0.41563395 0.45181653 0.2069455 -0.35751185 -0.1759487 0.55972284 -0.31236318 -0.19401884 0.43716943 0.06028433 0.183457 0.06628687 0.68049735 0.78701717 0.41556832 0.27419806 -0.23070343 -0.40762624 0.70507467 -0.4056208 0.19888441 -0.28026882 0.025533926
59 0.7154231 0.23519373 -0.3436956 0.18933126 -0.4514936 0.6267161 -0.17503391 0.10616479 -0.22426952 -0.41498625 1.0307764 -0.12009204 0.77394605 0.5837175 -0.34919897 -0.30424306 1.1612874 -0.16753572 0.36446512 -0.06830138 -0.73140734 -0.17881864 0.33801177 0.33542484 0.35217923 0.32827863 0.13092 0.27919662 0.32309958 0.49756834 -0.11075467 -0.64810663 -0.4910593 0.42693925 0.09628448 -0.30994523 -0.4421961 0.6387233 -0.21440186 -0.36732587 0.15168427 -0.2634798 -0.28964967 0.06466874 -0.3817758 -0.96516687 -0.048753683 0.10148059 -0.37207144 0.20657852 -0.057611488 0.033985578 -0.5543238 0.42773893 0.4904614 -0.10020165 -0.10849408 0.20975669 0.27538955 0.48702005 0.38728392 0.04665053 0.80415606 0.08196621
110 -0.048566893 -0.16217412 -1.1303499 0.31664416 0.0650011 0.021261495 0.24030599 -0.47388262 -0.1476686 0.10058775 0.41126582 0.5525637 0.61768025 0.19641566 -0.5241313 -0.46392146 0.5416196 0.24131492 0.3359557 0.3071105 -0.1209217 -0.16631639 0.09674427 -0.38586986 0.9251246 -0.31497195 -0.36696962 -0.14487943 -0.5348219 -0.030593488 0.61489433 -0.08979856 1.0618786 0.4373631 0.3220958 -0.10131333 -0.07775728 -0.55690545 -0.3558719 0.31646818 0.4034222 1.104249 -0.4899717 0.042128775 0.17987293 -0.32571653 0.25915006 0.25798777 -0.06450921 0.13263227 0.29712567 1.1471517 -0.39317086 0.09188101 0.21341704 0.6614454 -0.5137336 -0.09689515 0.23836556 -0.11056908 0.08546712 0.123292394 -0.019080296 0.3966463
1659 -0.016817674 -0.23431794 0.16912189 -0.3113561 -0.09522424 -0.5876009 0.6054205 -0.41039035 0.45784476 0.087068245 1.0422825 0.19610271 0.35240152 -0.7489239 -0.4821691 0.6398545 -0.13358827 0.22933762 -0.69250345 -0.13897304 -0.28097254 -0.55380523 0.05125832 -0.3883619 -0.14148624 0.0021261966 -0.8758323 -0.91424847 0.19755079 0.33097443 -0.051308665 -0.6195836 0.35135013 0.076072425 -0.49772844 0.08996655 0.36671612 -0.59860426 -0.53070617 0.45720577 0.052149296 -0.13805017 0.36914584 -0.47257873 -0.49844936 0.04635952 0.5135196 0.027099745 -0.37363756 0.08042325 0.8174898 -0.039081473 -0.59432185 -0.018962925 0.6662114 0.55826646 0.45226893 -0.09684668 0.41082627 0.33711532 -0.20547362 -0.44142506 0.14674278 0.21994688
104 0.39385554 0.38884085 -0.011674851 0.2598157 0.17829584 0.5421267 -0.05728393 0.014074396 0.5700183 -0.20419888 0.5402626 0.41038296 0.6893661 -0.09777101 -0.22234751 0.2718983 0.68774414 0.5714368 0.06803883 0.46563253 0.6700993 -0.32375547 -0.4154775 0.0057535684 0.27573967 0.21663149 0.06733932 0.37460586 0.0046991073 0.3231621 0.65402913 -0.36899376 -0.43339208 -0.7607695 -0.06410224 -0.0532558 0.042671826 0.24969867 0.39455646 0.3767935 -0.34538895 0.74060184 0.3019548 0.53235936 -0.34277773 0.224163 1.1226611 0.07659886 -0.35020807 -0.20111284 0.07157754 0.6573242 0.59758943 -0.62696606 -0.044137366 0.8596103 -0.04506309 -0.46024793 0.57882214 0.81868744 0.30414772 0.5265068 0.2038658 0.44484872
91 -0.42521495 -0.1134969 -0.8295964 -0.13723025 -0.18069287 0.1634743 -0.7852604 -0.024431093 -0.61031604 -0.7950262 0.4452589 0.79634666 0.17248356 -0.5554647 0.73361975 0.19882418 0.78104657 -0.51259017 0.0069644563 -0.28871396 -0.566632 0.28575444 0.5604265 -0.19377549 -0.14711918 0.44497713 -0.5116368 0.11256266 0.8434255 0.3010128 0.056239262 0.36056608 0.57991433 0.48054996 -0.39651173 0.08887865 -0.015298132 -0.18494962 0.08477424 0.2699026 -0.31832078 0.0774535 -0.12174351 -0.7325423 -0.356417 -0.36864674 0.18864061 -0.23333527 0.38486016 0.09925264 0.9492313 0.3982997 -0.03353598 0.8831273 -0.31458282 -0.22686026 -0.16159658 -0.14299521 0.5028949 0.20073655 -0.2893178 -0.25331983 -0.47613773 -0.0974158
53 -0.08367037 -0.36182204 -0.66398597 0.45167977 -0.14379391 -0.25413698 -0.7334933 -0.06871333 0.2690671 -0.14889917 0.75362855 0.2808547 0.46105674 -0.3791386 -0.077538535 -0.23307751 -0.03948477 0.22039568 -0.0026856777 0.48609585 0.21765275 -0.7177229 -0.11813397 0.219066 0.470049 0.5549853 0.26376736 1.3362525 0.5691984 -0.23980342 0.24579066 -0.32507253 0.3948101 0.28801003 -0.14809804 -0.5369028 0.23834445 0.05333104 -0.41617933 0.93723917 -0.07090006 0.7747983 -0.044418238 -0.7800365 0.0035913384 0.3080147 -0.25146687 -0.24622615 -0.8745602 -0.06745811 0.16327703 -0.039441966 -0.7132602 0.043463267 -0.22116685 0.15706155 -0.4073756 -0.09051559 0.36666444 0.049241733 0.21542007 -0.34156138 -0.5136921 -0.6063636
107 0.09573651 -0.0058928453 0.1909941 0.16335772 -0.4128168 0.5480735 -0.78305966 -0.58988345 0.44364434 0.121623576 -0.2956587 0.033242594 0.020892922 -0.19245245 -0.07376243 0.20666896 1.0853071 0.8546577 -0.2441442 0.09668164 -0.5073232 0.335316 0.74332356 0.10765259 0.4697025 0.7675424 -0.80854416 0.53798276 0.19766848 0.06142893 -0.20556606 -0.040659357 0.4373839 -0.47077602 0.5292909 0.10953635 0.30312675 0.5152346 0.816895 -0.016095087 -0.16726056 0.3196704 0.3134541 -0.2649039 0.41774136 -0.8658916 -0.018525949 -0.404259 -0.14427756 -0.31686467 0.73759323 0.22706616 -0.1698342 0.042142693 -0.10610721 -0.29581332 0.26708743 -0.13446738 -0.1532305 0.25607908 0.6231724 0.22952178 -0.28861544 0.33495966
63 0.15058029 0.024406534 0.14447434 0.88992965 -0.43827555 -0.1216863 0.43809825 -0.024857357 -0.39019674 0.105424754 0.8119036 0.8007064 1.5699668 -0.30859753 -0.24025136 -0.6125585 0.228583 -0.111658126 0.50061166 0.5085391 0.07113784 -0.3755781 0.15069574 0.17632325 0.25827 0.560876 -0.4723867 0.7420415 0.19510435 0.5705391 -0.084203064 0.027855122 -0.1920481 -0.59461653 -0.19041856 0.5626721 -0.46256062 0.017370997 0.045317955 -0.31655082 0.25373802 0.21553618 1.0007521 0.0449967 0.3557237 0.018290717 0.39668036 -0.28814957 0.21760674 -0.3422004 0.62255293 -0.27602696 0.10869367 -0.85877436 0.4356744 -0.2874519 -0.0684338 0.41861042 0.000119590564 0.056070525 0.18353343 -0.17268391 -0.39246646 -0.31825405
638 -0.40868607 0.36345956 0.35047686 0.009338099 -0.2932126 0.2242303 -0.15109766 -0.4292499 0.1505626 -0.33026132 0.33639345 -0.282335 0.52720934 0.23203191 -0.09188136 0.7699524 0.028932126 0.4649664 0.3533981 -0.20685302 -0.2681718 0.19351734 0.9105926 0.18856199 -0.039168723 0.7189094 -0.6685911 -0.24044846 0.18595716 0.45730212 -0.2956474 -0.002392333 0.14642371 0.24147019 -0.34296608 0.65062636 -1.1533858 -0.37255794 -0.1113757 0.48898938 0.7419441 0.50114375 -0.52499163 0.0007992074 0.06825714 -0.3359799 0.99280626 -0.8117837 -0.042300753 0.63655686 0.329674 0.3838429 0.2939116 0.08547294 -0.08060281 0.47984305 -0.2622847 0.2564807 -0.018056907 0.5709763 -0.06762052 0.5357699 0.29304418 0.22218376
23 -0.17946677 0.5176361 -0.6841512 0.64477396 -0.5522956 0.3521862 -0.63268685 -0.49576333 0.25451007 0.3381408 0.6922514 0.24295695 0.81612104 -0.38570493 0.26095814 0.3098393 -0.6144715 0.19151144 0.13431837 -0.17130072 -0.19448678 -0.5627497 0.36022556 -1.053118 0.30876222 0.5358119 -0.033372942 -0.2703305 -0.24427956 -0.50489426 0.16357063 -0.6719919 0.073184915 0.054256923 0.3343977 -0.13956343 -0.16467594 -0.15346736 0.05686615 0.3367898 0.02954509 0.558882 0.44226748 -0.14142264 0.11958357 -1.1731416 -0.1373631 -0.5904509 0.21823421 0.16139106 -0.047815684 -0.1713868 -0.86219823 0.21076699 0.5471787 -0.33496794 0.27278322 -0.47420824 0.088585034 0.07625769 0.506177 -0.012236058 0.11520077 -0.008253177
75 0.13873702 0.17394234 -0.79143167 -0.010784811 -0.06642164 0.381236 -0.41754377 -0.35840106 0.5556511 -0.26463148 -0.11293438 0.34997737 1.2635802 0.17478351 0.072764955 0.599794 0.2579196 0.37359816 0.13358556 0.3844603 -0.080809064 -0.32941297 -0.42625207 0.47608688 -0.7887428 -0.17708574 0.4734242 0.019413931 0.18470672 -0.16846754 0.17972393 0.8056449 0.6021097 0.018953457 -0.0837792 -0.05982921 -0.38611972 -0.84137774 0.012989549 -0.010915671 0.60472894 -0.46042565 0.52073306 -0.31220695 0.49541906 0.119952254 0.2511604 0.16891071 0.28392914 -0.39105093 0.28849843 -0.39683846 -0.20176278 0.06458047 0.33292347 0.4588064 -0.512344 -0.67884576 0.6808556 0.5072317 0.3717868 -0.582325 -0.2616938 0.22407627
35 -0.28573635 0.06926503 -0.42191553 -0.37772283 -0.5860575 -0.22390983 -0.31911907 -0.026160397 0.27783242 -0.41397765 0.7156042 0.6652226 -0.06997313 -0.44545522 -0.22944775 -0.66849905 0.014793427 0.43554994 0.15953098 0.31898984 -0.23651421 -0.36972135 0.6499604 0.1619617 0.20917742 -0.8487988 0.32591066 0.1335851 0.5069283 0.44115502 -0.3053198 -0.050220557 0.610293 0.12177466 0.23358563 -0.18675026 -0.85453373 0.3613399 -0.40225378 -0.14156035 0.31622267 -0.1608233 -0.21961467 0.50412196 -0.3729432 0.4492093 -0.22902204 -0.40934393 0.38601065 -0.23888206 1.4459628 0.55686194 0.16078645 0.016023383 -0.08041802 0.3575207 1.1504751 0.04569183 0.38280103 0.51568925 0.35266256 0.3952955 0.38520747 0.1908491
31 -0.12937456 -0.15698153 0.2824124 0.6450006 -0.43638226 -0.42435342 -0.12672867 -0.1261331 -0.28360245 -0.90895057 0.7023012 -0.33755916 -0.0131991245 0.33667105 -0.123058975 -0.04016533 -0.06398114 0.8765911 0.44715646 0.59195083 -0.58549124 -0.31267112 0.1488295 -0.40937412 0.019731589 -0.052982744 -0.2140121 0.67685604 -0.2841873 -0.023309564 -0.31139657 -0.32037127 0.19904913 -0.22533472 -0.09592855 0.6788881 0.031595357 -0.31298834 0.5257442 0.38056758 -0.15850686 -0.30829316 -0.5627513 -0.1551081 0.16625354 -0.40482038 0.62091345 -0.4577762 0.104130514 -0.022027994 1.0594217 0.22290151 -0.0062775807 -0.7894045 0.080131665 -0.1335561 -0.19101305 0.18752834 0.3412373 0.7183917 -0.40731755 -0.98791724 -0.74090934 0.23692012
100 0.4289499 -0.3395266 -0.1471954 -0.04110796 -0.0042780438 0.65576106 -0.15498139 -0.18160316 -0.6461804 0.0770037 -0.21665312 -0.1381978 0.1626564 0.08970176 0.50648683 0.48595002 0.534644 -0.17214063 -0.33304846 -0.19717695 -0.12117935 -0.44644284 0.4252465 0.4601279 -0.49137336 1.0110308 0.44336447 1.2770616 0.12247954 0.4832274 -0.39528573 -0.103998266 0.051471684 -0.31555507 0.082412586 0.59500957 -0.5812692 -0.49014243 -0.35928527 0.250129 -0.25847864 0.5168559 0.5100407 0.3813249 -0.59829485 -0.34876308 0.091648266 -0.4585889 0.16717756 -0.7283326 0.1029476 0.031044897 -0.35057518 0.00612864 0.766203 0.35869652 -0.051851876 -0.5696505 0.312481 0.62085956 0.24359839 -0.63528407 0.008032526 -0.50555104
94 0.1819529 0.09306944 -0.16867523 -0.244345 0.017026529 0.66459185 -0.5565223 -0.33468696 -0.55268425 -0.25394183 -0.17127953 0.47290292 0.37452415 0.7966195 -0.5995593 0.38943347 0.02045312 0.22464967 0.27619237 0.44003397 -0.14399622 -0.051603097 -0.15831828 -0.39874527 0.327746 0.3009905 -0.083214656 0.5819157 0.70404774 -0.6880942 -0.31433785 -0.4067199 0.20836572 -0.16771764 0.28410056 -0.4136309 0.3785856 0.098624684 -0.25827262 0.5301766 1.1301895 -0.15593359 0.16707824 0.16135505 0.1956315 0.23619615 0.10181166 -0.22598132 -0.24083476 -0.0787766 0.46235523 0.4037566 -1.1466746 0.03516038 -0.20031601 0.53445494 -0.107442215 0.47029105 0.37236604 1.2459084 -0.3164455 0.079653084 0.13154726 -0.15169752
36 -0.056167025 0.06316648 -0.33206606 -0.55414367 -0.21349278 -0.14173912 0.3369374 -0.68170464 -0.029885296 0.24245712 0.64147735 0.96599764 -0.48528945 -0.07364491 -0.6682079 0.80016226 0.22931841 -0.3578098 0.19684988 0.03814088 0.13332127 -0.1843551 0.2070333 0.14824095 0.38480094 0.72411823 -0.08494239 1.0174297 0.14562984 0.48794967 -0.3612483 0.35252586 0.42167005 -0.08404274 -0.047157947 -0.37553543 -0.47877738 0.28352198 -0.18041418 -0.4588889 0.15401185 0.18205483 -0.48070425 -0.114230745 0.0019538815 -0.31883416 0.062107313 0.39410627 0.18851472 0.4123584 0.43338287 0.49229178 -0.38443828 -0.80814165 0.9797949 0.7787532 0.3663365 0.026905274 0.30533457 0.4525904 0.020783242 -0.36677235 -0.3497211 0.36513305
68 0.2098594 -0.25374883 -0.35944727 0.14107749 0.04997732 -0.13222285 0.27398226 -0.3881491 -0.9601759 -0.51179886 1.1280359 0.059080344 0.03954199 -0.11883075 0.4058044 0.09168369 0.14549899 0.65348876 -0.34870338 0.3328731 0.054444086 -0.06657779 0.33742782 0.42013398 0.35797912 0.31562454 0.34980342 0.7044859 0.20610736 -0.56576556 0.16175956 -0.5854649 -0.33317247 -0.12303109 0.0063564354 -0.53976077 -0.34897354 -0.14015347 0.3029525 0.23661105 0.51359415 0.5407065 0.3173292 0.43778828 0.2837871 -0.432362 -0.4070195 -0.03982543 -0.20477565 0.63929814 0.73588413 0.27053797 0.10696755 -0.010151151 0.015770163 0.94765186 -0.07392292 0.013465142 -0.31423745 1.0045012 0.26308665 -0.5459298 0.30700445 -0.36602026
108 0.2696328 -0.23320894 -0.34448397 0.3700306 -0.7977558 0.47381505 0.12089116 -0.4065768 -0.5700202 -1.0649116 0.4391328 0.67432326 0.7651008 -0.45052546 -0.40161967 0.32141846 -0.41811985 0.075128816 0.4366275 0.4307333 0.40182063 0.59230566 -0.29939997 0.65766394 -0.15360828 0.36311448 -0.8774532 -0.015151795 -0.34497932 -0.3862013 -0.05004852 -0.06220403 -0.057129506 0.29144022 0.23773983 0.01182712 0.48687676 -0.66837066 -0.49542007 0.16102998 -0.73540765 0.01347344 -0.2772547 0.42660573 -0.3469559 -0.57413024 -0.13585244 -0.19141272 0.31445476 -0.1516869 0.6462243 0.35337973 0.0687682 -0.2811093 0.4796015 0.19259351 -0.03376619 0.12170376 0.7858865 0.5585446 0.52848816 0.13080029 0.27028 -0.13627882
39 -0.010114121 -0.0013642624 -0.5483707 0.34332615 -0.43630582 -0.2108473 -0.8749424 -0.9089816 -0.4494542 -0.58064514 0.11654094 0.46799096 0.40865302 -0.3749953 0.20673458 0.1815507 0.15313907 -0.027484493 -0.05796573 -0.08739471 -0.42577085 0.65790087 0.7948559 0.24302185 -0.21914881 0.75212234 0.2531863 0.40299106 -0.35331362 -0.27559054 1.1357653 -0.015002404 -0.0003771221 0.077197045 0.09117521 0.13730451 -0.6814865 -0.12628998 -0.14610511 -0.0635476 -0.09813371 0.83096325 -0.13571231 0.3151611 0.013592242 0.5994134 1.0210695 0.5958816 0.17308387 -0.581416 0.25214565 0.38413942 -0.6428228 -0.27490982 0.46761155 -0.0051975045 0.35141772 0.019394033 0.00709256 0.35440674 -0.23570128 -0.55469954 0.085313685 0.21983366
83 0.6980581 -0.97758144 0.30615374 0.07711734 -0.635524 -0.18840349 -0.4661584 -1.0976653 0.1181642 0.4010628 -0.15219566 0.16475688 0.50292474 -0.48189533 0.33654264 0.21621081 0.24537283 0.1317377 0.29034775 0.032589678 -0.05897653 -0.29611224 -0.16613767 -0.3569121 -0.033394847 0.23651673 -0.18624666 0.8128687 0.7338632 -0.30504388 0.43722615 -0.46537566 -0.16927044 -0.5125571 0.03036904 -0.08322075 -0.8765051 -0.04183829 0.3993221 -0.30233052 -0.425779 -0.091008805 -0.24491772 -0.17128767 -0.6120861 -0.0033810586 0.5087419 -0.058766443 -0.26826003 0.09560309 0.9759717 0.7159489 -0.03847521 0.2839479 0.958317 0.24689822 -0.15597236 -0.35754806 0.29991156 0.0005346525 0.3175685 0.73684376 0.4107382 -0.2463608
50 0.7990914 -0.21904853 0.051507372 0.0599506 -0.40919602 0.2392169 0.060090464 0.51691025 -0.105740756 0.1401168 0.53340596 0.4972196 -0.07821517 -0.3750019 -0.53425264 -0.05934908 -0.06345004 -0.10095471 0.205421 0.62248576 -0.25484368 0.11081536 0.88616985 -0.17315084 0.11074656 0.5350612 0.38033804 0.5658937 0.97081894 -0.48166814 -0.207064 -1.0444267 0.6379008 0.7636101 0.17752425 0.23349068 -0.16809212 -0.45520687 0.30348614 0.29500374 -0.28357 0.439782 0.49829236 -0.07377414 -0.27091086 -0.24498649 0.065073326 -0.51756835 0.45583224 -0.07051199 0.3074209 0.6173211 0.14962561 -0.16775058 0.31427383 1.0437014 0.040658727 0.08567595 -0.23436384 -0.38176203 0.13465495 -0.65269566 0.11965249 0.49932763
56 0.96157753 -0.71168303 -0.8273042 0.27358016 0.23868598 -0.72149205 -0.5753651 -0.12532182 0.023221824 -0.32346436 0.08891098 0.9950394 0.35646403 0.3454675 0.35502416 0.14057435 -0.0737327 0.05611444 0.6853621 0.124187455 -0.25654373 -0.18482049 0.23283769 0.38923168 -0.5390234 0.92314804 -0.24459831 0.42008546 0.014778385 -0.69481945 0.17215553 -0.012508207 0.81012875 -0.21652071 -0.15207872 -0.28025684 -0.51870954 0.22268546 -0.29845002 0.29760134 -0.11068853 0.292274 -0.69206756 0.18301865 0.06552176 -0.095322266 -0.41926646 -0.07213227 0.36726105 -0.49474588 0.45061818 -0.19702269 -0.2897321 0.015543436 0.4407742 0.47272 -0.11804484 -0.76907957 -0.66135126 -0.38552815 0.42465094 0.23133935 -0.43310556 0.094679244
51 -0.085773736 0.12554367 0.3831447 0.82370967 -0.0009385665 0.44984347 0.057151496 -0.22189982 0.14233708 -0.036772933 0.8594509 -0.10690726 0.22772323 0.38390976 -0.44172952 -0.00015491678 0.75643814 0.036117695 0.13644779 0.2255522 -0.024710981 -0.3644637 0.12358989 -0.11839773 -0.28683573 0.75148666 -0.025560437 0.6407681 0.27392778 -0.10750441 0.5033306 -0.052209623 -0.038778692 0.7064768 -0.052273154 0.07977352 -0.38639858 -1.0761901 -0.34010175 0.19974534 -0.062940784 -0.17579809 -0.074769564 0.28003004 -0.0781124 -0.6381973 -0.36441654 -0.06460352 0.21410684 -0.76346684 -0.26577708 0.63018966 0.10160889 -0.048534542 -0.46467543 0.4929353 -0.2862414 0.01835279 0.2878107 0.81967777 0.6612934 -0.72241825 -0.5799655 0.61707866
1679 -0.05382589 -0.026569694 -0.2906197 -0.16280793 -0.08996904 0.4161014 0.3283613 0.21747483 -0.18092342 -0.40302125 0.26822165 -0.21766485 0.11903881 -0.5236853 -0.28868204 -0.59855783 0.9161237 0.7971545 0.41251415 0.00042670764 0.39388207 0.20232607 0.8742913 -0.79144645 0.22666858 0.4590087 -0.69159377 0.6288714 0.064881556 0.27943608 -0.92020196 -0.25782117 0.0066384547 -0.29617268 0.5713622 -0.8830891 -0.24567798 -0.57499355 -0.44194648 0.42607364 0.13660409 -0.27924773 0.14081194 0.0686142 -0.011865146 0.03950774 0.25041974 0.51070285 0.07363802 -0.3690051 0.8776667 -0.1242453 -0.43490842 0.07554367 0.27805912 0.85234547 0.2697203 0.14751883 0.3588861 -0.26110905 0.14036596 -0.2540039 -0.33046338 -0.3845133
66 -0.59071237 -0.12870714 -0.27912626 -0.81750333 -0.110885344 -0.1844662 -0.583464 -0.47226524 0.0221332 0.12122893 1.0544264 0.03827272 0.17440307 -0.34824327 -0.21338424 -0.42487428 0.57834536 -0.03822822 -0.73523843 0.10493812 -0.8510301 0.060739443 -0.15854688 0.5317243 -0.18183124 0.7865555 -0.50992304 0.046038024 0.24844353 0.2642342 -0.118745916 -0.11599418 0.08880019 -0.021150408 -0.2070763 -0.27435803 -0.24292652 -0.8169204 -0.08209594 -0.32288086 0.1980287 0.33697537 0.041861426 0.11279984 0.55588657 -0.4254895 0.3723966 0.26599133 -0.44116405 -0.5484541 -0.08444664 -0.16944286 0.0791645 -0.47794896 0.25140724 0.89679193 -0.37427723 -0.79707485 -0.47031066 0.0767585 0.26233453 -0.76254237 -0.44598398 0.049821537
89 -0.42800644 0.41462472 -0.4179996 -0.07770424 -1.2016487 0.11232186 -0.30319402 0.026999958 0.03220605 0.073892616 0.14044489 1.1948361 0.5237353 0.30065754 0.24938256 -0.07750575 -0.16387482 0.05939073 -0.30787474 -0.072979584 -0.52457047 -0.044488825 -0.046620425 0.20053494 0.2040098 0.11696184 -0.047919285 0.0847651 0.96668416 0.5074817 -0.110385336 0.4133777 -0.43144426 0.04253266 0.18479724 0.064729944 0.0053423895 0.009629745 0.39699203 0.48300996 -0.08129038 0.2870703 0.19682014 -0.11578809 0.37425274 0.053081043 -0.049045224 0.9264566 -0.6910832 0.19848537 0.7371094 0.90399384 -0.46362245 0.13425706 0.82977456 0.16334021 -0.32284984 -0.08858517 0.6632875 0.016356612 0.46069744 0.50109744 0.10660264 0.4026234
84 0.2765719 -0.5504121 -0.6802236 -0.27247435 -0.33310264 0.37080434 0.33029717 -0.104038514 0.6995591 -0.24877347 -0.28595772 0.61824954 0.5023757 -0.18058224 0.5738684 0.049429547 0.4695349 -0.4383557 -0.46430725 0.09209459 0.6275535 -0.4975877 0.55829316 -0.08876653 0.3435109 0.7526921 -0.31763625 -0.25986657 -0.75334525 -0.051688034 0.18468305 -0.3641901 -0.23835813 0.39547628 0.6049212 -0.41693595 -0.3112747 -0.44568226 -0.06390868 -0.3307309 0.18024229 0.21491326 -0.08363411 0.39721414 -0.7731541 0.27536198 0.50228316 -0.4374568 -0.27004507 -0.45700842 0.598912 -0.46557972 -0.44685084 0.34464994 -0.40983215 0.68477356 -0.12403013 -0.3676698 0.22403926 -0.14082408 0.59856004 -0.7973014 0.1548541 0.71029454
85 1.2434287 -0.38308275 -0.41882578 0.47307384 -0.2247177 0.39562696 -0.15790445 -0.79299676 0.39933437 -0.37098244 0.3491748 0.111815915 0.18216702 0.2270029 0.024494117 -0.1442653 0.78795403 0.5147494 -0.5730666 -0.14409614 0.11572728 -0.83339566 0.1837147 -0.048844166 -0.46022314 0.76759595 -0.44678214 0.6309795 -0.6255544 0.069836564 -0.06734222 0.45839015 0.34982327 0.24925348 -0.27865186 0.26975626 0.42075315 -0.13908212 -0.271067 0.27628055 0.14686556 -0.2737452 -0.4031346 -0.5231721 0.5730805 0.0061269826 0.056911737 0.14595973 0.07202367 0.015678076 0.29434374 0.62186104 0.21230513 0.4692268 0.59146917 0.51604295 0.23010881 0.66083133 -0.30289176 0.64595085 0.20826465 -0.57532376 0.21729188 0.32671946
106 0.13453232 -0.8809903 -0.87049246 -0.32857057 -0.87314296 -0.4476517 -0.37716773 0.3074545 -0.12648353 0.71768886 0.5722473 -0.071559526 0.41822487 0.12136362 0.06516594 0.6162987 0.94857156 0.15865077 0.20612337 0.116536364 -0.084650956 0.48294678 -0.0189687 -0.24567553 -0.7979695 -0.19197327 -0.41794413 0.37803984 0.27098793 0.59579694 0.08397908 -0.24979256 0.31289968 0.4521281 0.6265224 0.3944465 0.1488598 -0.31820527 -0.034994636 0.19179481 0.9013385 -0.3729432 0.34862152 0.35369635 0.32228208 -0.63303995 0.9333436 -0.19763325 -0.3931652 0.36293703 0.21311682 0.31003645 -0.28515315 0.0024504005 0.20418227 0.21953946 0.15209486 0.036074158 0.3174739 0.7634131 0.1170183 -0.14120412 0.5368974 -0.4732193
98 0.4845406 -0.33754075 -1.0735887 0.6273084 -0.20545173 0.8877109 -0.61800736 -0.41356924 -0.045517225 -0.14660461 0.9341196 0.30676347 0.07385705 0.38099486 0.30375105 0.048856407 0.48381925 0.087101236 -0.5830986 0.27571446 -0.029134743 -0.6014905 -0.5009746 -0.001884435 -0.18414734 0.66489935 0.24527828 -0.009499723 0.0406566 0.15655652 -0.22993915 -0.14829701 0.9679918 0.19192542 0.118426785 0.5500553 -0.2465703 0.46474096 0.4273185 -0.314945 0.53752 0.46614257 -0.20338579 0.84412473 0.047839496 -0.36349615 0.56303275 -0.6671234 -0.07456151 0.39480177 0.5156814 0.17579223 -0.4301995 -0.29881442 0.1040035 0.28904876 -0.0741494 -0.079654634 0.24431655 -0.6088862 -1.0220997 0.21019322 -0.20765083 -0.20346792
105 0.77205443 -0.42324236 -0.46754545 -0.36040926 -0.7147584 -0.21694845 -0.08509727 0.35042343 -0.35429636 0.20828494 -0.01914337 0.47912374 0.7651416 -0.168959 0.63348764 0.119457304 -0.36076358 0.21415845 -0.38270235 -0.014490182 -0.26254898 0.08105275 0.04148344 -0.06764481 0.48563763 0.12484751 -0.6783085 -0.1492782 -0.17341444 0.31335118 -0.62343925 -0.24722762 0.7065047 0.13980867 0.6180229 0.79353434 -0.05376507 0.04723631 0.25083968 0.5627917 0.47581607 0.5409972 0.514498 0.77842355 -0.24866056 -0.008803673 0.256905 -0.42677823 -0.337473 -0.2526652 0.47164303 0.7498678 0.10345775 -0.2524428 -0.018203259 -0.067466915 -0.00199302 -0.5593997 0.7833466 -0.066512026 0.51581997 0.29373524 -1.2209563 0.5788164
1658 -0.20825642 -0.2659442 0.13010117 -0.33912107 -0.63140225 -0.048419733 -0.17334253 -0.31363264 0.84388405 -0.29013607 -0.0055885506 0.2949088 0.18277872 0.11419566 0.07477329 0.04425567 0.2020602 0.0018773668 -0.6991538 1.1171407 -0.25238428 -0.83493984 0.027186254 0.27044973 0.18261042 0.9992556 0.24102235 -0.052858643 0.5471541 0.12531248 -0.5573807 -0.26514202 0.20165886 -0.8562838 0.5843504 0.01571982 -0.13259217 -0.24781126 0.26750192 0.5013776 0.08963271 -0.102645 -0.49704176 0.43760186 -0.5000481 -0.16552074 0.31811053 0.13569376 0.31266662 -0.08449933 0.1303852 -0.18642558 -0.5669385 -0.031003822 0.25965407 -0.32621863 0.64354414 0.3017029 0.6372867 0.96445864 0.3840139 -0.15818246 -0.41426623 0.50831145
32 0.06199904 0.0068444395 0.076659694 0.18275169 -0.2965745 0.55973554 -0.44056994 0.11815174 0.346578 -0.8517849 0.23482879 1.1012024 -0.14925304 0.4348408 -0.2953145 0.91057706 -0.12447641 0.2126259 0.16078678 -0.21350835 -0.4547038 0.18567769 0.29104763 -0.5177365 -0.5083788 0.24425526 -0.2585672 0.15828006 0.5075718 0.038821887 0.4812782 -1.010637 0.518635 -0.16288391 0.34629598 0.11878232 0.441036 -0.56608695 -0.26387057 -0.30202356 0.32341796 0.54957867 0.04652179 -0.44666344 -0.47482514 0.10805029 0.137125 0.736002 -0.35258493 -0.1058724 0.35156974 0.28828427 0.09953364 -0.3470562 -0.022390636 -0.11287479 0.2099195 -1.0902439 -0.0369561 0.11040672 0.46418965 -0.02897349 -0.0416302 0.23180619
82 -0.22790405 0.14484431 -0.53866696 -0.4653822 -0.47188133 0.28489643 0.34138614 -0.32391736 -0.15335682 -0.31273386 0.32080606 0.042716533 0.18543005 0.8433651 0.3648421 0.11898217 0.09536304 0.4365358 0.03069021 0.07113062 -0.21148135 -0.04864894 0.40111956 -0.29586738 0.33816943 0.65455586 -0.5276221 0.77696794 0.008371556 -0.43353057 0.16637528 0.006146873 0.5610022 0.46679989 -0.25634903 0.20049001 -0.87860215 -0.12067443 0.004117212 0.09793645 0.627127 -0.55105567 0.62020975 0.75008166 -0.30538023 0.43522605 -0.1309943 -0.13234583 0.1682178 0.48263592 0.28982508 -0.9155887 -0.5818421 -0.12262183 0.43513188 0.4237093 1.0238193 -0.44604942 0.062076498 -0.0060263835 0.5494577 0.058900405 0.6359152 -0.14524065
54 -0.17181179 0.1689758 -0.009720048 -0.027128832 -0.8702913 -0.28523868 -0.31432548 -0.6820997 -0.68010646 -0.19166413 0.16870616 0.070890814 0.41691148 -0.47169626 0.07933575 0.18665132 1.0056776 0.363419 0.56608355 -0.22085635 -0.2506748 -0.5888007 -0.48588386 0.32157615 0.69748783 0.4505718 -0.3036103 0.1164439 0.030081078 -0.6097113 -0.22107369 -0.020244127 -0.013182075 -0.091988035 -0.3592184 0.065539606 0.45813444 -0.60639644 -0.3823205 -0.25187987 0.05840328 -0.051404275 -0.073595256 0.83378905 -0.2440841 0.20262825 0.13475 0.23720297 -0.8013071 -0.3493743 0.9607307 0.26987934 -0.5248321 0.042726565 -0.6484954 -0.008350206 0.6869492 -0.20623015 -0.051221073 0.4152202 0.3070668 -0.81822425 0.08514771 0.6726775
109 -0.30357468 -0.3489854 -0.4941422 -0.18044816 -0.3137335 0.08824682 -0.42649496 -0.4334598 -0.38995546 -0.52151597 0.8422985 0.32964644 0.3803077 0.04421268 0.17101514 0.7249202 0.037156686 0.22325431 0.15269117 0.65256774 0.15892294 -0.2029709 0.5715838 0.508062 0.42341128 0.43591556 -0.039854065 -0.5678748 0.85208017 0.70235884 0.607389 -0.103397354 0.053510513 0.61783844 0.5782311 0.15542653 -0.2967622 0.9834139 -0.014524305 0.60564244 -0.63859123 -0.24230033 -0.14346075 0.05599089 0.77852994 -0.31047973 0.32021704 0.32325003 -0.48823166 0.23693812 0.7320453 -0.7243009 0.13286285 -0.108047344 -0.15351716 0.21286596 -0.01664909 -0.20022961 -0.32440728 0.4990373 0.012344819 -0.6384119 0.23724508 0.26515907
233 -0.1635931 0.526757 -0.17412236 -0.02571649 -1.0565842 0.5228142 -0.15186845 0.16837269 -0.007487019 -0.26253828 0.6140217 0.3922569 -0.16738795 -0.49887118 0.08373278 -0.24848372 0.35536903 0.6035744 0.12023757 -0.3794745 -0.06531596 -0.6340258 0.28032508 0.11968577 -0.22671263 -0.097318076 -0.23620357 -0.14247267 -0.52327085 0.15983905 0.6467697 -0.24945836 -0.4956285 0.4543889 -0.7594214 0.42873508 -0.6452837 0.12156946 0.4538582 0.25687447 -0.1694615 0.28776976 0.46040547 0.23167048 -0.17087424 -0.28556314 0.36467132 -0.16915892 0.391386 -0.62460136 1.0314813 -0.011047265 -1.1137435 -0.33336943 0.013084126 0.2616674 -0.76353824 -0.8142468 0.64303106 0.29731354 -0.30717522 -0.302704 0.33418685 -0.29467708
43 0.051590957 1.0290985 0.06605792 0.19997855 -0.40083006 0.76250136 -0.35483202 -1.0699297 -0.61006665 -0.1760789 0.4703475 0.016162995 0.21519828 -0.5452455 0.0648959 0.06907625 -0.034880787 -0.42050695 -0.3572206 0.5111145 -0.37057573 -0.1502342 0.29306823 -0.33873615 0.030224558 0.5551362 -0.59946394 0.2552408 0.52298456 0.19906531 -0.14404191 -0.3813362 0.3641992 0.01060341 0.2084522 -0.16944575 0.010889284 0.49429026 -0.94317573 0.5195087 -0.4073818 0.3920324 0.26250207 0.24655047 0.3105872 0.9476567 -0.037951775 -0.1425144 -0.27964205 0.28078765 -0.3510045 0.6296224 0.25395015 0.01744958 0.54624015 0.8295799 0.21703258 0.18690373 0.45226088 0.3365235 0.74037236 -0.3938219 -0.3198159 0.26269138
1233 0.15780279 -0.6877004 -0.1199126 -0.44439757 -0.16911869 -0.29017794 0.28653997 0.20504901 -0.021001942 -0.80103016 0.665684 0.714247 0.4827472 0.048904598 -0.2588456 0.76965624 0.2426151 -0.07207138 -0.85291535 -0.24782903 0.12431524 -0.5599846 0.020826688 -0.9434486 0.22137645 0.69615936 -0.11578166 0.46769208 0.92174184 0.44842026 0.10168254 -0.30794176 -0.14647251 0.265201 -0.9251136 0.14582832 -0.035753764 -0.08049594 0.15339787 0.18085144 0.32963985 -0.3251686 0.09370499 0.51334286 0.71857613 0.17819777 -0.52367544 -0.7162527 -0.10107237 0.07529038 -0.23161268 0.25241223 0.23008843 -0.18184367 0.06929765 0.8136518 -0.08430859 0.25909778 0.58072037 0.15158597 0.22635835 -0.062313158 0.02821944 0.71102065
69 0.4806387 -0.06781458 -0.1675939 -0.19769557 -0.2454097 0.6646383 0.07066286 -0.011372464 0.422282 -0.25415444 0.33639315 -0.03591386 0.5849903 -0.39437142 0.663722 -0.35208893 -0.4008322 0.7060672 0.4009029 0.6409425 -0.6702464 0.064797744 -0.07216089 -0.23811334 -0.09015387 0.28700644 -0.008936174 0.25721356 0.5675422 0.61262804 0.1707908 -0.2959908 0.8015428 0.2254757 -0.38903096 -0.023354536 -0.095070675 0.777503 -0.12953433 -0.51726073 -0.44770166 0.28574178 -0.013490885 -0.8040375 -0.11357288 -0.46885556 0.012130461 -0.07258593 0.007137605 -0.1685472 0.7048368 0.0900594 -0.41680878 -0.42516786 -0.5041007 0.9451137 0.008518164 -0.049883667 -0.46928328 0.3605137 0.26452863 -0.40581065 -0.2648909 0.7513392
97 0.35499254 -0.47727957 -0.0392609 0.3045507 -0.48630175 -0.2544491 -0.19118382 0.26988038 -0.19252759 -0.57871777 0.8173494 -0.05183499 -0.13192117 -0.06985882 0.0673374 0.59490275 0.26286298 0.6180001 -0.7466253 0.58622515 -0.24969752 0.18854842 0.6623855 0.27174696 0.04026346 0.63342965 0.22686096 0.5814182 -0.1984516 0.17771767 0.024283737 -0.23928267 0.31994462 0.62556255 0.5157543 -0.5165897 -0.39659157 -0.76321715 0.8477943 -0.32364437 0.16299678 0.54041886 0.0022162143 -0.4661533 0.08044294 0.091738954 0.5032074 -0.037054233 -0.37602943 -0.49847108 0.62608564 -0.5347947 0.6588148 0.8257002 0.4766215 0.1944148 0.0142410565 0.086063534 0.8399972 -0.001355827 -0.40811428 0.2619665 -0.5497504 0.5097849
20 -0.031177782 -0.11818801 -0.33859843 0.44414604 -0.49776757 -0.40573385 -0.7041408 0.039602514 0.2648367 0.00054683466 0.9664006 0.5018745 -0.51029843 0.02156401 0.36514455 -0.09025529 -0.16926627 0.6666212 -0.11373247 0.35234028 -0.042877953 -0.23017627 0.20167597 -0.7597722 -0.49958304 0.77504116 -0.62622005 0.442407 -0.17044334 0.017443238 -0.47899005 -0.7902978 -0.5513265 -0.5684685 -0.4999852 0.4835429 -0.1771988 0.20322941 -0.63727856 0.1067225 0.095332645 -0.010117002 -0.38900384 0.3268873 -0.446517 -0.24216028 0.03690598 -0.43278828 -0.6328909 0.1693254 0.44113627 -0.035610817 0.09977591 0.65613604 -0.9852463 0.55667365 -0.38620663 -0.77265435 0.13961364 -0.16569464 0.33420867 -0.11912367 0.34541154 0.5491011
1807 -0.1792687 -0.022227649 -0.9548559 -0.2018657 -0.36707285 0.51250166 0.21141893 0.07113471 0.1301654 0.0816533 0.40384653 0.37808028 -0.2580581 0.1987003 -0.27999136 0.19704135 -0.29467267 0.9191844 0.41634533 -0.19943415 0.22295682 -0.14442153 -0.17049536 -0.6282676 0.14972664 0.96931255 -0.496725 -0.3404373 0.65494233 0.048043832 -0.04872501 -0.18288662 -0.36839277 0.9686014 0.37519437 0.5430194 0.06111423 -0.30879757 0.894563 0.038947623 -0.076202124 -0.15640903 -0.584903 0.44590223 0.4617634 0.12239009 0.3267375 0.22534898 -0.064271025 -0.5611265 1.0895197 0.52736866 -0.018913502 -0.4871453 0.3201006 -0.09752006 0.41684574 0.21015836 -0.34941986 0.37282446 0.40547243 -0.2587995 0.37716797 0.36250538
37 -0.034143478 0.26119235 -0.40285257 -0.24926072 -0.73779964 -0.48380062 -0.2605156 0.10955637 -0.26272494 -0.83900744 -0.11852047 -0.04746504 0.6969115 -0.038427487 -0.13205278 -0.12734668 0.41823223 0.57646745 -0.7270361 0.043673854 -1.1786698 -0.59583706 0.16072175 -0.15700983 0.37161452 -0.31652772 0.23513512 1.0367873 0.10682968 0.27446076 0.61771333 -0.84497684 0.53399664 -0.0144818695 -0.4635918 0.1580392 0.6984376 -0.117002904 0.20967808 0.1562873 -0.37818867 0.24812861 -0.27668402 0.15793712 0.0724218 0.22534172 0.34272242 -0.42934504 -0.009234065 0.12419626 0.18860964 -0.11286408 -0.32413593 0.1216471 1.0385281 -0.0053838613 0.7595134 -0.65307605 -0.2498883 0.20548812 0.3412732 0.053487226 -0.035954364 0.29006988
19 0.2769136 -0.25430536 -0.18469046 -0.05843042 -0.36393464 0.46580008 -0.17408581 -0.3131531 0.30988157 -0.44986185 0.087052666 0.16285469 -0.4756547 0.20512319 0.33393648 -0.445862 -0.6518856 0.6986059 0.20570534 0.51483023 0.07958665 -0.7937485 0.8605728 0.66227865 -0.5519065 0.13867335 -0.200766 0.104974166 0.7129646 0.8972798 0.2877188 0.6306036 -0.32966587 0.5498987 0.26682025 -0.3688396 0.12459907 -0.2641805 -0.20088965 -0.046589438 0.3155236 0.28703532 -0.388136 0.3027448 -0.03423523 -0.8497916 0.45662978 -0.5341907 -0.29980224 0.11575271 -0.07629691 0.24206975 -0.7978949 -0.024915697 0.54380286 1.0959843 0.38075364 -0.35334685 0.57243305 0.11151684 0.8028989 0.23224965 -0.10142503 0.046704605
60 0.15711686 0.001563063 -0.008689477 -0.3526814 -0.7257006 -0.083572604 0.4467917 -0.6664296 0.6104938 -0.09542746 0.75348175 0.5434415 0.49058068 0.6654047 0.8647472 0.39413312 0.60331583 0.70465493 0.25650048 -0.06918768 0.34158003 -0.78171515 -0.48632133 0.1474098 -0.31672513 -0.34806013 -0.4094881 0.55377895 0.5052084 0.095675185 -0.19105384 -0.8808262 -0.40458962 0.2967818 0.11730533 -0.08678677 -0.637665 -0.23150629 0.471917 0.42719832 0.23991318 0.22481307 0.02543438 -0.42274407 0.07718958 0.31211287 -0.26723248 0.018289747 -0.13885714 0.06846729 -0.18502678 -0.20823398 0.15399542 0.03774948 0.5985221 0.5239628 0.106277555 -0.5837825 -0.7596204 -0.19677217 0.11661302 -0.23193227 -0.88275605 0.15014921
111 0.43674874 -0.060176443 0.0144619765 0.33604962 -0.26158696 -0.04098094 -0.33675072 -0.09248848 -0.017863104 0.77527726 0.45635688 1.2719839 -0.39285693 0.27529353 0.45580888 -0.6534992 0.4599174 0.07973196 0.4397707 -0.38573205 -0.16396901 0.019405639 0.1950736 0.11322471 -0.2485477 0.71624714 -0.6993129 0.058773346 -0.44574353 0.38241568 0.31787744 -0.6347635 0.89908177 0.025949784 -0.34461492 -0.17831065 0.023802215 -0.04104986 -0.037885964 -0.24384254 0.35458434 0.29499435 0.5288822 -0.21275729 -0.039435394 -0.23926505 0.34060785 0.14793058 -0.3076594 -0.019550899 0.10254584 -0.08725787 0.10145971 -0.3794015 0.09012962 1.0837532 1.1067071 0.26906773 0.82061136 0.8161577 0.09867422 0.1026654 -0.11533736 0.018337231
101 -0.4713615 -0.30340278 0.2000626 0.20345218 -0.5356822 0.3183641 -0.2501727 0.31223443 0.3114976 -0.1665805 0.12849884 0.3519435 0.90502375 -0.4903472 0.28359148 0.9889158 -0.12556535 0.34845856 0.4603881 -0.17117232 -0.5209221 -0.7741502 -0.33209878 0.33642638 0.5058362 0.5210374 -0.77711415 0.5206888 -0.41774946 -0.083707154 1.1119211 -0.10636967 0.6870135 0.41425142 0.19258744 -0.55644846 0.27015468 -0.10982833 0.4696403 0.09877275 0.9301858 0.19420204 -0.68956745 0.23968169 -0.19283937 -0.4184765 0.1409142 -0.09854696 -0.25276503 0.774807 0.5407741 -0.27349374 0.44619238 -0.08147949 0.2753227 0.55957496 -0.17955083 0.05816471 0.076196015 -0.17487656 0.6087376 -0.51741683 -0.1271876 -0.36734664
95 0.38453776 -0.09919323 -0.4318061 0.041199245 0.47565705 0.31231397 -0.13765784 0.16248521 -0.40457946 -0.05699733 0.47740105 0.6737737 0.38714564 0.091751195 0.3310805 0.15849686 -0.20076375 -0.041592125 -0.008509306 -0.3339084 -0.19355942 -0.46815807 0.045080766 0.080973476 0.66976166 0.6410974 -0.8207384 0.18646596 1.1545451 -0.49674976 0.12655793 0.27047426 -0.23338057 -0.2603513 -0.01850897 0.6874724 -0.63742524 -0.2623348 0.15411483 -0.12145146 0.5036071 0.28654072 -0.054335732 -0.17762975 0.0810568 0.48892403 0.9263182 -0.5178537 0.047159705 -0.2882041 -0.11610967 0.3867878 -0.8053927 0.33878738 -0.005815152 0.6009567 0.71277195 -0.6058032 -0.13319889 0.13935699 0.26601532 -0.23059101 -0.123462245 0.40027118
1676 0.34694102 0.14651105 -0.72404915 -0.5509165 -0.44596016 -0.038423363 -0.74317765 -0.6410408 -0.54914814 0.31335428 0.49150622 -0.26054177 0.9340493 0.10029767 -0.9873823 0.23841062 -0.21509351 0.64557785 0.70398134 -0.59467417 -0.24885356 -0.7248227 0.8704188 -0.38949868 0.20404771 0.18083945 0.04267178 0.10799924 -0.19414343 0.10477329 -0.401731 -0.85358196 0.22315046 0.3761714 -0.486817 0.41806972 -0.14458363 -0.1615082 0.22593746 0.18061413 0.25600985 -0.14614306 -0.5712671 0.5471557 0.037082266 0.25496462 -0.34913093 -0.28320152 -0.5858305 -0.43915334 0.42357862 -0.16400817 0.36033738 0.013220188 0.73430526 0.4048798 -0.4583285 0.1753197 0.16281533 -0.046526838 0.40055636 0.2612664 -0.61555475 -0.012991918
65 -0.26057404 0.4738794 -0.8790393 -0.22653988 -0.012229254 -0.03904281 0.6647882 -0.50670177 0.23838224 -0.09678793 0.105562344 -0.11706436 1.1515213 -0.40336055 0.15894362 0.61940247 0.5509702 0.44417447 0.2816915 0.5793785 -0.585585 0.08941607 -0.20271364 -0.5603016 0.26174235 0.59178543 0.13152419 0.4096188 0.056380317 0.24030255 -0.5249944 -0.22203599 -0.033815246 0.31213546 -0.53425276 -0.39161137 -0.8850233 0.17840852 -0.3155054 -0.59943223 -0.2636533 0.50398093 0.070291035 -0.32180956 -0.1786294 -0.41388214 0.194349 -0.4324667 0.3440119 0.008571492 0.099487565 0.3586845 0.10536639 0.93052405 0.16998702 0.21585381 0.27875093 -0.6871978 0.9303659 -0.3785805 0.2553616 -0.28492418 -0.25176245 0.27753833
33 0.3324021 0.3234088 -0.33088696 -0.32075858 0.2987879 -0.3477862 -0.15546654 -0.99918664 -0.33182335 -0.1611726 0.74426687 0.07446401 0.3934128 -0.19569309 0.07609432 0.14160787 0.31169048 0.81033605 0.75132835 0.2832091 -0.93954355 -0.19804804 0.042335007 -0.41027468 -0.7965925 1.1113601 -0.2946022 0.15579033 0.1697704 0.106732965 -0.10512032 -0.11637851 0.2762898 -0.12179722 -0.14268956 -0.5293522 0.447013 -0.18305945 0.45851958 0.97939885 -0.24457668 0.34514454 -0.42503047 0.12689951 -0.43634 -0.53232944 0.55603975 -0.37368992 -0.041049637 -0.497404 -0.5463281 -0.498596 -0.34747937 -0.36466688 -0.04136423 0.030164963 0.4975314 -0.1728234 0.7740375 0.24063651 -0.14920233 -0.16142519 0.41845393 -0.01936893
80 0.5053473 -0.2509364 -0.6465701 -0.3485041 0.20449282 0.38459074 -0.23784333 -1.0321747 0.4643104 -0.23366523 1.0174681 0.5049038 0.07582235 -0.2846867 -0.13900113 -0.739939 0.12114645 -0.06980971 0.62189233 -0.34400323 -0.4301104 -0.21708387 -0.18892586 -0.005106268 0.07094277 0.09169506 -0.77532196 0.10863937 0.61502415 0.005370425 -0.91672623 -0.04750499 -0.21992725 0.62071556 0.4862372 0.15298037 -0.4711157 -0.4395545 -0.3059738 0.18619221 -0.5752502 0.7496595 0.24575505 0.094202474 0.42737266 -0.26503208 0.038900863 -0.23949024 -0.5996352 -0.64623415 -0.084771015 0.15164402 -0.06875619 0.24933247 0.23657516 -0.27980387 0.7505469 -0.08078178 0.44368708 0.69149065 -0.47191927 0.06286997 -0.45559615 0.23153907
87 0.23364894 -0.19648628 0.4743091 -1.0507985 -0.11040619 -0.29445362 -0.5338712 0.107902616 0.5451076 -0.6097732 0.9740333 0.94882065 0.56584823 0.01701445 0.050838474 0.19078559 -0.028696386 0.173875 0.18423107 0.558912 0.32488135 -0.4554248 -0.19792303 -0.36634293 0.4997147 1.1094791 -0.04818794 -0.059000365 -0.3319016 -0.7586775 -0.34561023 -0.1372304 0.6963916 0.2594823 0.007326755 0.110149324 -0.5001957 -0.14832251 -0.54477227 0.07081869 -0.38634464 -0.18025993 0.16628936 0.26808184 -0.54863757 0.22898461 0.7663205 0.18400262 -0.1689115 -0.6470884 -0.054620232 0.44684398 -0.119001165 0.06805764 0.431054 0.22456717 -0.13580719 -0.20332187 0.08969235 -0.014090424 -0.64192563 0.28952995 -0.032270215 -0.16810147
17 0.3310557 0.5031558 0.17031968 0.13036592 -0.33134058 0.14391738 -0.6809108 0.38615534 0.4326417 -0.49492258 0.6287773 0.40655208 0.57483214 0.16810633 -0.4443125 -0.35554346 -0.0077425605 -0.33647612 -0.41669947 -0.08329977 0.11317003 0.5630181 -0.28760493 0.66236806 0.005053511 0.034107476 -0.5176189 1.4634109 0.53064245 0.019528892 -0.4600576 -0.36108622 0.27811563 -0.39451718 -0.2855091 -0.13493444 -0.004460603 -0.51671505 0.29872936 0.19257733 0.32281667 -0.81930214 -0.42473686 0.47789824 -0.05404406 -0.27497533 0.7037734 -0.1793278 -0.0033991232 0.16834553 0.784707 -0.033141803 -0.23969622 0.6383631 0.3650055 0.7276082 -0.31452248 -0.028699346 0.6209088 -0.13267274 0.30279776 -0.49386695 -0.5056402 0.15352933
62 0.58987856 -0.32172444 -0.13134395 0.25480765 -0.9691907 0.23533326 -0.008648499 -0.14115797 -0.15099572 -0.64749485 0.014852813 0.24491005 0.31027654 -0.56359607 -0.26384768 0.08327336 0.4614835 0.3845469 -0.2292972 -0.0535073 -0.065019086 -0.5217774 -0.1688798 -0.31065464 -0.3119516 0.32283005 -0.7568417 -0.28447178 0.40199295 0.016985249 0.28053334 -0.4693093 -0.05917805 -0.3072147 -0.32733873 -0.43161002 -0.15844075 0.031900764 -0.19980606 0.109004185 1.0949142 0.27386984 -0.35458034 0.20732656 -0.29960042 -0.86207974 0.092832625 -0.39730573 1.2397182 -1.198214 0.1690576 0.652245 -0.034554258 0.22103088 -0.06350232 0.17730018 0.7986231 -0.64007664 0.06675758 0.1214574 -0.058593087 -0.39010826 -0.39758697 -0.2570548
99 0.102324925 -0.05965001 0.040521767 0.15343925 -0.20797905 0.16362539 0.08837932 0.3475143 0.49774963 -0.41193846 0.6804329 0.8544632 -0.19813384 0.5933037 -0.025795827 0.17162557 0.56741935 0.7189715 0.024197025 -0.831938 -0.22995071 0.10430551 0.5104525 0.17577475 0.7025839 -0.081071764 0.3358118 0.54608446 -0.48133644 0.22535129 -0.7007291 0.018948885 0.071159996 0.1868846 0.67195016 0.55153674 -0.09825584 0.4445853 -0.031637195 0.11678784 -0.021395905 0.82369286 -0.07983063 0.26849067 -0.521734 -0.05672637 0.8144843 0.06200046 -0.5389047 -0.265961 0.0032366286 -0.07865147 -0.6391492 0.43753767 1.0593364 0.022986537 0.00081325485 -0.5780189 0.29327714 -0.11190374 0.7147368 -0.54157215 -0.20733391 0.20948364
1670 0.043467853 0.52941304 -0.64967424 0.10295702 -0.46678835 -0.48934078 -0.18350264 -0.29472354 0.15216748 0.5411529 0.75626445 0.8707034 0.38993543 -0.2500336 0.44776756 0.092848144 0.2749566 0.41638693 0.2789202 0.36906394 0.06826399 0.4245046 -0.25023153 0.15404148 -0.28010345 0.6721538 0.7734067 0.76517904 0.3410384 0.29327992 -0.4865713 -0.84639806 0.18078546 0.67990196 -0.2946115 0.50243163 -0.62364835 -0.33178002 -0.20150568 -0.5984636 0.24575335 -0.023394687 -0.14819735 0.18922448 -0.19017746 0.81504416 -0.36818758 0.16467005 0.15597118 -0.722619 -0.09925711 0.04616151 -0.13675688 -0.032652542 -0.079447575 0.23690368 -0.148854 -0.57803005 0.34801108 0.90697724 0.015667055 0.3576897 0.22973262 -0.31987944
86 -0.39593226 -0.17771637 -0.18608885 0.020790854 -0.3411181 0.7727514 -0.15692651 0.6237424 -0.21506576 -0.020353846 -0.13739377 0.46601745 -0.40935373 -0.3521688 -0.54336476 0.33048514 -0.07680157 0.024237128 0.5778511 0.3045206 -0.32964215 0.06495592 -0.9413624 -0.55311245 0.27426288 0.9294815 -0.072428025 0.4143482 0.35202712 0.42658025 0.12767945 -0.4714017 0.42274576 0.16557682 0.3055888 0.26460403 -0.2807199 0.4549798 0.43735975 -0.18928072 -0.14198622 -0.19555485 0.042884007 0.56819963 -0.012650708 -0.19918725 -0.44592783 0.24301666 0.24263218 0.1426536 0.9492992 -0.16776296 -0.5688971 0.3489051 0.4844324 0.41060078 -0.18831877 -0.7087087 0.8526426 0.44398347 0.64672107 -0.27993032 -0.64439964 0.073945075
73 0.23804128 -0.3032536 -0.5347485 -0.32808822 -0.16635747 0.005360259 -0.3163894 0.3075762 0.43737566 -0.4454652 0.4745068 0.33083004 0.13997938 0.67915493 0.6063026 0.06576074 0.80113924 0.8652743 -0.38383368 0.4385588 -0.5584946 -0.10375575 0.24584931 0.6675892 0.2995899 0.36314297 -0.49943852 -0.052728392 0.19024725 -0.4446758 -0.49036312 -0.66946346 -0.1440434 0.17432952 -0.600801 0.33073372 0.38218033 0.040679026 -0.30169314 -0.31583804 0.55440587 0.3585405 0.7983698 0.038192995 0.4107787 0.36814648 0.22894566 -0.0015016876 0.2896799 -0.5962463 0.31516287 0.09524194 -0.4043705 -0.75796604 0.83355105 0.4010849 0.39948422 -0.017339166 0.47800213 -0.20261617 0.20635675 0.6736794 0.37697563 -0.080373995
1657 0.37866879 0.3491136 -0.12870698 -0.13754278 -0.5438073 -0.2612776 -0.18777603 -0.1328475 0.060083177 -0.69326496 0.7569349 0.4238161 1.326479 0.16384503 0.016856235 -0.24503435 -0.08466892 -0.032527387 0.0398411 0.2854298 -0.0006647376 -0.09143818 0.5236088 -0.39090273 0.11853188 -0.14030291 0.50541586 -0.040231872 0.15495244 -0.10412167 -0.9131566 0.13635577 0.7304249 0.38279483 0.060663704 -0.20212619 0.5314964 -0.07003169 -0.1662263 -0.30614376 0.11821346 0.21283525 -0.31948486 0.5635941 -0.16719826 -0.8957782 0.50940126 0.025951706 0.3183519 -0.42342687 0.7218626 -0.24820422 -0.19231343 0.2860422 -0.028467841 0.69579786 -0.030009355 -0.64367265 -1.0213845 0.3606935 -0.37057176 -0.5498708 -0.08603967 -0.16942957
34 0.09955321 0.10594336 -0.12096706 -0.27476585 -0.21409647 -0.43774393 0.40500295 0.10091931 0.18052916 -0.48287964 0.43871796 0.3427166 0.51130265 -0.31590432 -0.08077912 0.056348205 0.07755447 0.14939521 -0.26073393 -0.0015713243 -0.07824773 -0.49906033 0.28531924 -0.04177816 -0.21643 0.31638974 0.18917164 0.5308072 0.46310776 0.18219385 -0.12136248 -0.5181307 0.030200824 -0.06501504 0.2578287 -0.11659413 -0.24021766 0.013676507 -0.0062951706 -0.04914059 -0.022214 0.26114553 0.08355489 0.066762865 0.32122073 -0.51269084 0.108093336 0.05876437 0.37286943 -0.30343875 0.47797278 0.044818256 0.021979876 -0.18697329 -0.057506185 0.7722758 0.4173019 0.1716871 0.27974635 0.29479098 0.06568203 -0.26293287 -0.5045435 0.17294987
1656 0.38740343 -0.14026017 0.1597711 -0.103225306 -0.55374736 -0.5077912 -0.16635554 -0.08418932 0.35199964 -0.12265098 0.41149065 0.40879706 1.3033746 0.4320297 0.04942522 0.20090854 0.026076935 0.31074667 0.22024868 -0.67465657 -0.109545216 0.12566791 1.0118713 0.024820648 -0.19741584 0.5183614 -0.07400616 0.038589034 0.19977069 0.02711 0.1213124 -0.5383798 -0.26783293 0.41386637 0.78178763 -0.25609362 -0.15118991 -0.53406006 0.12401043 0.35962567 -0.4244908 -0.14962223 0.6294948 0.1345849 -0.30690056 -0.40639994 -0.8835078 0.37156183 0.41223156 0.28548378 0.63220316 -0.27069312 0.22979838 -0.26516074 0.25780353 -0.1566662 0.48286742 -0.40793398 0.7901509 0.4700842 0.19809553 -0.32555184 0.022953657 1.017981
26 -0.6860474 -0.4256538 0.441506 -0.18615615 -0.9319863 -0.21765363 -0.561165 0.38802567 0.38349223 -0.07481292 1.143279 0.48172337 -0.045429066 -0.44241643 0.28405982 0.73768806 0.5203717 0.5792292 0.36333254 0.8646385 -0.19475865 -0.70219123 0.7406742 0.09304267 0.44335756 -0.41105342 0.3244658 0.22753052 0.16506353 -0.58800167 -0.055571157 0.32345432 0.12500098 -0.10319073 0.24216121 0.40168694 -0.5185382 0.0075074947 -0.5007859 -0.020757504 0.29693165 0.07427658 0.5884675 -0.67356324 0.08506894 -0.3772375 -0.015969876 -0.54544204 -0.40046996 -0.20729958 -0.3594972 0.11979552 -0.055021007 0.1405624 0.30566353 0.2784891 0.16904193 -0.8475166 0.04830551 0.9586571 0.021843094 -0.28493738 0.11654765 0.35563815
79 -0.5302059 -0.23858374 -0.22948074 0.3403995 0.67856205 0.07823257 -0.19928446 -0.20968524 0.41739208 -0.56880075 0.5324649 0.38580212 0.544657 0.15978056 0.20057672 -0.21877888 -0.15722014 0.14108698 0.11316768 -0.5617999 -1.1263484 -0.5278896 -0.45769688 0.45725244 0.05527055 0.80903465 -0.6549599 0.19540612 -0.30609795 -0.11630746 -0.5400764 -0.6154051 0.51044154 0.14010857 0.1974581 0.12751493 -0.42295653 -0.84748733 -0.0069687977 -0.5670008 -0.0033559455 -0.29889363 -0.059846066 -0.23020533 -0.8696342 -0.09718843 0.31023785 -0.42767382 -0.51797104 0.13976727 0.61385757 0.27740213 -0.5604745 -0.11686489 -0.008997913 -0.08049954 0.16500287 0.03145047 0.22521499 0.60134435 0.729098 0.041914802 -0.52099276 -0.017039353
112 -0.29590356 -0.3460148 -0.2503868 0.175241 -0.28510997 -0.2636527 0.11074424 -0.33403653 0.17887148 -0.06867984 0.60892564 0.5113239 -0.27996483 -0.1820473 0.3360457 -0.72382575 0.3980681 0.22072332 0.038575128 -0.07928738 -0.19416429 -0.9208783 0.64877605 -0.5154702 0.14934981 0.32636502 -0.5434634 0.10465332 0.5612213 -0.32893533 0.2585636 -0.4249052 1.1303111 -0.8905897 0.26574394 -0.64893407 -0.045287836 -0.5017364 0.49712548 0.19397025 0.417939 -0.3562456 -0.044491068 0.11025603 -0.43885484 0.41970372 -0.2784557 -0.3228917 -0.4209673 -0.50323355 0.7367062 0.021786662 -0.076811805 -0.25521109 0.67293423 0.37994066 -0.7093421 -0.13335225 -0.5779076 0.37310734 0.051979195 -0.20937195 0.35514453 0.5588689
28 -0.34922385 -0.20386532 -0.54102975 0.020318069 -0.5820563 0.50466454 0.34630287 0.19119456 0.27770156 0.20511366 0.97335345 -0.20605929 0.66251516 0.060531575 0.22075312 1.1868774 0.020421125 -0.40895587 0.6626337 0.76799977 -0.4935889 0.20247637 0.6700852 0.039836608 -0.2550269 0.05504891 -0.9004318 0.31408697 -0.05503286 -0.2631287 -0.076923765 -0.15766226 0.49641332 -0.53987736 -0.15109733 0.18930537 -0.75998724 -0.43519837 -0.3808692 0.19070509 -0.21542867 -0.4106429 -0.214965 0.30994618 0.15102236 0.06562851 -0.45018914 0.53637993 -0.8605031 -0.6256751 0.2796704 0.8902905 -0.8274645 -0.12259844 -0.010400403 -0.046411037 0.2967669 -0.07512823 -0.13459541 0.48152837 -0.15699174 0.16512693 -0.44713774 0.42119974
93 -0.1942809 0.34798723 -0.6849996 0.9404835 -0.9765657 -0.32450557 -0.18104473 -0.17347154 0.46312425 0.2021657 0.2530039 0.90434784 0.49655083 0.48706123 0.49930847 0.39373305 -0.24627654 0.04260331 0.161143 0.49730805 0.30347028 -0.44549206 0.06780301 -0.119627826 -0.031118326 0.5102784 -0.25930107 0.87857777 0.4310528 -0.009361555 -0.07954633 0.38445795 0.39763466 0.7565518 -0.019095436 0.07966699 0.10370739 -0.8143867 0.061453205 0.36784655 -0.050444804 0.084896624 -0.14102657 -0.19583541 -0.26550812 0.45909387 0.7691558 -0.9214882 0.26515672 -0.43296653 -0.16091612 0.86758614 0.48245633 -0.16708173 0.41609883 0.20487681 0.80959 -0.0061629997 0.07099261 -0.6459484 0.10318565 -0.3074085 0.02268165 -0.126831
41 0.40035772 0.3115798 -0.055860016 -0.23525982 -0.44986054 -0.19140883 0.21899861 -0.057359364 -0.08011669 -0.05502824 0.48211363 0.20511328 0.40782088 -0.22069193 0.10967855 0.21321845 0.4897738 1.5549699 -0.49366707 0.82194626 -0.5624987 0.26365602 0.31969103 -0.6693941 -0.09647893 -0.21750674 -0.9184287 -0.10420057 -0.13761571 0.0083284825 0.1357188 0.13463588 0.23684463 -0.14105341 0.5302912 -0.12524688 0.45235583 -0.026884876 -0.3141871 -0.3814652 0.15943448 0.11677854 -0.25346562 0.7312415 0.37432072 0.3628489 0.23259735 0.90440685 0.0061450074 -0.5999532 -0.54438305 0.30633292 -0.17974578 0.43275288 1.0493479 0.59980696 -0.17386724 -0.36924356 0.56185275 0.3626553 0.34934634 -0.10274295 -0.26810807 -0.36250752
42 -0.1816299 0.43950045 0.2771308 -0.6230393 -1.1026958 -0.042629573 -0.49501467 -0.18582524 0.2374526 -0.07172275 -0.26658008 0.08793994 1.0413269 0.024490753 0.22413476 -0.59930545 0.65141016 0.3206111 0.38612393 0.04259836 0.5440033 -0.5088321 0.022094768 -0.41723803 -0.021202603 1.4107052 -0.21722867 -0.06454659 0.14194317 0.72575486 -0.26499444 -0.99178135 0.5744666 0.5407983 0.41358918 0.015801497 0.0634395 -0.06060501 -0.3043779 0.3226219 0.77190965 0.2577461 0.33496144 -0.6439208 -0.07723224 0.2940441 0.50489944 0.21197511 0.25289145 0.18901837 0.030483562 0.26125598 -0.054032564 -0.20446284 -0.32844698 0.32982695 -0.24164431 0.11125143 0.04996353 0.44159117 0.56968206 -0.27745104 0.27125788 -0.012380298
21 -0.016267238 0.22313116 -0.3261753 -0.13648234 -0.090757914 -0.37828678 -0.08616554 -0.13578969 0.30255562 -0.22665215 0.36560547 0.31036434 0.86930954 -0.32972234 0.10762973 0.3103431 0.23431824 0.1442407 0.16347344 -0.15509644 -0.3110422 -0.36103085 0.5334831 -0.41257805 -0.10685853 0.4829003 0.44164154 -0.0039624404 -0.023417508 -0.37018365 -0.11203919 -0.44443783 0.03805963 0.21021074 0.5267593 0.14176539 -0.28736317 0.12914236 -0.23509474 -0.08593479 -0.3708317 -0.21108785 -0.006668101 0.41322052 0.182697 -0.31057844 0.23440108 -0.18519756 0.025689112 -0.2098427 0.35849312 0.069514886 -0.04373737 0.09882188 0.17354538 0.43209982 -0.0068834913 -0.065221585 0.13144045 0.16038471 0.14786045 0.27059802 -0.48352155 -0.13193022
961 -0.03009683 0.3712313 -0.4697947 -0.12708217 -0.26077878 0.014159848 0.22820723 -0.053531073 0.25837854 -0.14455791 0.4741623 0.26411903 0.5702122 -0.2370447 -0.030181779 0.29231152 -0.17990202 0.30892807 0.2867549 -0.65791357 -0.3779269 -0.14410071 0.623646 -0.14812912 -0.16806531 0.45591232 -0.114262134 -0.1592544 -0.034761354 -0.32775554 -0.22786787 -0.46538362 -0.27666432 0.29508597 0.2669251 0.32053775 0.07818807 -0.2771154 0.02879609 0.13673325 0.09226808 -0.16754839 -0.10929952 -0.11595218 0.11564595 -0.25172755 0.4793535 -0.07244376 0.062138643 -0.29818824 0.89706266 -0.01398309 -0.2516891 -0.3216873 0.049906604 0.5159879 -0.12591977 -0.098167606 0.32076627 0.2453778 0.18006583 0.10923593 -0.10477331 -0.18359526
40 -0.1995598 0.3722972 -0.2991971 -0.31727466 -0.33327472 -0.28250286 -0.11931202 -0.17805097 0.14772679 -0.43116492 0.33675474 -0.0049715894 0.5200561 -0.20063704 -0.32340854 -0.19708747 0.3970997 0.2768929 0.18321379 0.13773336 -0.011380621 -0.18073075 0.38483503 -0.22591493 -0.15349756 0.07915441 0.17410688 -0.15954557 0.1352476 -0.010644221 0.13185106 -0.45234588 0.4379739 0.16352211 0.31852856 0.2079588 0.36623704 0.12592345 -0.4190333 0.18623054 -0.027215118 0.3156351 0.12708679 -0.051711917 0.009605142 0.30104458 0.36440405 -0.15687424 0.16783811 0.18973891 0.7521427 0.38540906 -0.1451309 0.29398325 0.18968005 0.8414097 0.3843928 -0.0064272587 -0.017250387 0.18331061 0.49701262 0.12331288 -0.227137 -0.27135196
726 0.34586748 0.041148584 -0.39616123 -0.117885634 -0.57809323 -0.3641857 -0.17637318 0.25998548 -0.12525028 -0.18100123 0.37712416 0.317316 0.38084668 -0.13426334 -0.16682276 -0.08438203 0.45955542 -0.0009547717 0.32426536 -0.041547995 -0.40815106 0.09387602 0.15774935 -0.13952018 0.0438288 -0.026316319 0.18721618 -0.11447715 0.18868433 0.031398293 -0.06752305 -0.25889906 0.09903113 0.22124694 0.5207327 0.29766193 -0.38381827 0.2576356 -0.38551044 0.03459859 0.3736718 -0.20758466 -0.18931668 0.28030393 -0.024831839 -0.32618776 0.42740336 -0.19791724 0.05015632 -0.16170517 0.21991555 -0.09169544 -0.24453557 0.018362856 0.21318379 0.6027632 0.08587767 -0.009295782 0.14695917 0.587644 0.025125358 -0.1391744 0.05733301 0.020712541
727 0.23290072 -0.008032911 -0.6603446 0.11419775 -0.47880286 -0.19787121 -0.12798548 0.31319454 0.10647171 0.050698873 0.1507864 0.09938576 0.19012031 -0.2549351 -0.058922432 0.29306817 0.368474 0.116105914 0.3287483 0.062901236 -0.3184896 0.115128405 0.2944587 -0.28733137 0.10007309 0.34815857 -0.13371709 0.16492328 0.49791417 0.21743247 0.018150039 -0.3588214 -0.055024605 -0.08502385 0.54177296 -0.023465255 -0.1340607 -0.31421423 -0.22575279 0.31797168 0.32397017 -0.16331081 -0.13667019 0.0009891313 0.17369719 -0.1842949 0.1775867 -0.15841685 -0.2892911 -0.20046961 0.45589176 -0.012116725 -0.0819778 -0.06528493 0.03263352 0.6228027 0.0036975301 0.05130131 0.1007849 0.30951795 -0.015516521 0.19125707 -0.115173206 -0.35328278
92 0.0855756 0.4295987 -0.24800687 0.0199067 -0.52692854 -0.024689801 0.09901529 -0.017984856 0.23644699 -0.59228534 0.40149254 0.014794926 0.022980077 0.012988547 0.019728795 0.03670336 0.16511184 0.50246364 0.34075275 -0.27905017 -0.44994062 -0.20755856 0.3235983 0.0013254628 0.44235295 0.10012853 -0.14110598 0.31039375 -0.20919515 -0.09506315 -0.34569067 0.085605174 -0.2085095 -0.11971085 0.39319843 0.18866284 0.22376579 0.11040812 -0.23602173 0.20995851 -0.01106082 0.053597815 0.07672971 0.35916987 0.0023962958 -0.3279488 0.39786208 -0.10451753 -0.07389443 -0.5166688 0.8361208 -0.14434195 -0.54797953 -0.20462042 0.011253602 0.32810014 -0.2979993 -0.29456735 0.19510607 0.21685968 -0.032418665 -0.6255274 -0.13724424 -0.035973758
44 0.066108584 -0.33786854 -0.24513997 0.07012203 -0.27505258 -0.011348416 0.31498516 0.10933959 0.43890682 -0.28592125 0.23644452 0.005940426 0.38276652 -0.46212587 -0.18555763 0.1726699 0.45103872 0.07515312 0.1874265 -0.13407883 -0.036999233 -0.22960396 0.4857166 -0.41784078 -0.33689952 0.36761373 0.1313619 -0.02004323 0.2861024 0.2879381 0.061437167 -0.21381833 0.09246112 -0.04137761 0.006628586 0.23896565 -0.08671603 -0.2880185 -0.34228486 0.4235559 -0.17477371 -0.037988726 -0.0032804701 0.08571253 0.095653154 0.014620402 -0.01473784 -0.071942635 -0.22909142 -0.06569862 0.67042685 -0.033855453 -0.553504 0.0073173987 0.23822802 0.48609853 0.4250468 0.015520349 0.18682337 0.14636785 0.12775362 0.03316175 -0.2646848 -0.33062455
898 0.05681707 0.17559534 -0.3494267 0.4041172 -0.21222368 -0.2124535 -0.4460513 -0.06249276 0.41072163 0.07792945 0.1902331 -0.0722443 0.31270424 -0.21692015 0.11875322 0.3435538 0.45582584 0.30620426 0.07533176 -0.047662497 -0.26220962 -0.080459796 0.29097655 -0.25052267 0.449654 0.40401858 -0.16560732 0.20556815 0.26261055 -0.01774572 0.24367897 -0.0506918 -0.28702432 -0.17062132 0.42362356 0.01683109 0.07884783 0.07006732 -0.10358936 -0.0245354 0.08943083 0.18136191 -0.0035713462 -0.029348558 0.24694741 -0.4192902 0.13279954 -0.5161511 0.06807444 -0.22026813 0.51497644 -0.1311502 -0.36713237 -0.28033587 0.16223149 0.3812103 -0.051073343 -0.21204601 0.20477782 0.2800754 0.1268159 0.08980309 -0.28840014 -0.03154955
867 -0.31379813 0.111835666 -0.22179145 0.076490395 -0.24733865 -0.10695781 0.3051634 0.01112653 0.45815796 -0.14342421 0.31168526 0.24342962 -0.09192268 0.33172455 -0.07844048 -0.4552302 0.39196348 0.2917547 0.16867858 -0.33194354 -0.35977146 -0.12531056 0.5287949 -0.27687997 0.7446731 0.267465 -0.3202514 0.2142408 -0.04971817 -0.22821324 0.27313694 -0.027483381 0.45608392 0.09567362 0.61143196 0.2585606 -0.4652632 -0.076042816 -0.18926609 0.3817736 0.1762444 -0.23116188 0.06525434 0.270587 0.09309117 0.10333863 0.36942685 0.102327205 0.06831646 -0.14629558 0.4032124 -0.009338506 -0.28896886 0.0054350193 0.36574396 0.7122754 -0.0621107 -0.33152434 0.07578333 0.06165296 0.453164 -0.18863183 -0.060077254 -0.15187453
820 0.34487787 -0.02361398 0.1078697 0.1611145 -0.45748234 -0.010332814 0.0067288927 -0.12586379 0.16731445 -0.32677984 0.33990267 -0.16206323 0.13991313 -0.15396231 -0.35538128 0.023011787 0.20078483 0.2380635 -0.3265873 0.13022345 -0.33107525 -0.43877771 -0.19410014 -0.3659655 -0.01688022 0.34048337 -0.17989413 -0.1020465 -0.3519228 -0.021593908 -0.0561124 -0.009066641 0.011842836 0.036665507 0.1665534 0.39640632 -0.22650787 -0.18225439 -0.42244843 0.5043817 0.07927841 -0.09594239 -0.21292405 -0.47596085 0.37057975 0.13672125 0.18209355 -0.4047218 -0.08642847 -0.17370717 0.7548137 0.19179308 -0.07696991 -0.027448032 0.47055838 0.44593176 0.0008054096 -0.28007847 0.20305982 0.5643998 -0.1310957 -0.2822695 0.027976017 0.056270327
1098 0.12063989 0.2972981 0.04374427 0.76977795 -0.2745459 -0.22847475 0.04256359 -0.06756986 0.38097665 -0.184241 0.61180925 0.03820418 0.3649662 0.11136346 -0.3681256 -0.0665431 0.30041128 -0.06096965 0.22170587 0.057517786 -0.38658878 -0.12271229 0.09283218 -0.026465181 0.11695833 0.48259202 -0.20477293 0.2511733 0.15736437 -0.05094637 0.2562383 0.050856777 -0.061120644 0.017086085 0.47883856 0.261696 -0.310842 -0.15535876 -0.19905347 0.089225724 0.07878943 -0.22156134 0.14264473 0.28682634 0.5473699 -0.10745242 0.06133286 -0.09522771 0.032702792 -0.09758432 0.40478835 -0.007209692 -0.020885598 -0.15743977 0.05869326 0.57823867 -0.06359003 -0.37204844 0.3248368 0.257418 0.042662263 -0.16985011 -0.059346285 -0.16576192
1359 0.44500187 -0.2733979 -0.18384832 -0.33518514 -0.33480534 0.18894002 -0.029707996 0.12149401 -0.34222966 0.35876763 0.38202074 -0.040038954 0.2058712 -0.04759374 0.36604503 0.14489724 0.32165653 0.57439196 0.058547925 -0.08217246 -0.35708874 0.15196648 0.30388623 -0.49470899 -0.077100776 0.35837647 -0.0056843045 0.5277841 0.33440647 -0.12046081 0.12566099 0.19847065 -0.3187431 -0.12743343 0.6358838 0.084675156 -0.38334975 -0.38516513 -0.2358993 0.013615656 0.17626318 0.2115628 0.19448678 0.3143619 -0.27308485 -0.30840525 0.045259696 -0.13704601 -0.12872508 -0.112789966 0.58928484 0.085973725 0.100994244 -0.06397607 0.33478743 0.5941863 0.06273152 -0.09392368 0.24651308 0.6170711 -0.06944559 -0.021085154 0.17492774 -0.64179283
27 0.09049628 -0.008407362 -0.35238713 0.48314995 -0.5737911 0.3677023 -0.13164404 0.09123846 0.14932397 0.0017952047 0.59737563 0.26117387 -0.16653876 0.54129606 0.6347135 0.12772577 0.119776264 -0.100455046 0.23556568 -0.07107768 -0.4186884 -0.3029787 0.87575704 0.065206565 0.33468324 0.37884492 -0.12146133 0.5710207 -0.17598541 0.17778736 -0.27652335 -0.30052373 0.13712674 -0.3178122 -0.18674366 0.46355802 -0.4204163 0.10950029 -0.57344556 -0.21351978 0.030690137 -0.44987077 0.3166589 0.44173917 -0.18263677 -0.3307644 0.008167656 0.08900813 -0.62303966 -0.2982062 -0.083958894 -0.16922039 -0.12491906 0.54419196 0.3757982 0.3919921 0.3130422 -0.33837155 0.20599851 0.51707405 0.007331114 -0.0796014 0.19264646 0.03142851
72 0.10977627 0.1682484 -0.13565555 -0.19280997 -0.18586081 0.19767156 0.20701161 -0.022531427 0.27018613 0.046806265 0.3771315 0.15551275 0.23925228 0.14338166 0.12895508 -0.119824074 0.4032889 0.21057619 0.19242056 0.12858945 -0.4826917 -0.14700384 0.2785216 -0.5591311 0.098498285 0.5227744 -0.115345284 0.05047887 0.36201575 -0.4923088 -0.07891089 -0.07578699 0.04686131 -0.22195198 0.50125265 -0.39027855 0.24768448 -0.16880661 -0.27447215 0.12272264 0.34822023 -0.18212627 -0.12408164 -0.018851904 0.105105236 0.26959392 0.06619948 -0.40708864 -0.01013272 -0.38235453 0.8723043 -0.09090153 -0.287828 -0.36782336 0.24249753 0.4607628 -0.24196449 0.302173 0.09022526 0.42397034 -0.113255836 -0.18176194 0.032040477 -0.19086604
868 0.055983607 -0.044891458 -0.052977104 -0.19685975 -0.73753077 -0.30751705 -0.18970883 0.058698278 0.4715522 -0.2816493 0.29701465 0.63043433 0.596638 0.22191276 -0.2655257 0.14028157 -0.18932651 0.31838197 -0.08211216 -0.19037929 -0.29322636 -0.03208353 0.5236689 -0.5348066 -0.14774157 0.50866663 -0.16501078 -0.06517981 0.23205894 0.19319664 -0.08752323 -0.47756794 -0.15245642 -0.042253874 0.25153038 0.30245736 0.31601664 -0.15367399 -0.48810378 0.04948754 0.04233803 0.026252927 -0.15962476 -0.27000266 -0.678582 -0.35381293 0.07457033 0.18109821 -0.041282054 -0.19002672 0.11973636 -0.24455923 0.08589357 0.19164455 -0.20337333 0.68397385 0.047887683 -0.39986584 -0.06436962 0.4776911 -0.1211475 -0.34478176 0.35375255 0.06709263
308 -0.37720317 -0.1553598 -0.3301971 -0.009339332 -0.63304347 0.0010663279 -0.37413314 -0.1570255 -0.14937007 -0.08696019 0.3007402 0.40434083 0.02277284 0.3649831 0.06802086 -0.086439475 -0.18825202 0.4402454 0.3283002 -0.08750006 -0.24086523 -0.41835514 0.24521048 -0.70882297 0.11642055 0.3483193 -0.1917098 0.099336766 0.0139694065 0.2425094 -0.18558635 -0.4274231 -0.2501936 -0.17619848 0.16277447 0.20915112 0.015042941 -0.25370845 0.13491634 0.02016889 0.045978095 -0.13860643 -0.4134322 0.08777826 -0.19015993 0.02605722 0.05314532 -0.41276577 -0.4002962 -0.664409 0.5583043 0.0039561945 0.2729989 0.076296374 0.21179913 0.40861595 -0.31441242 0.084885605 0.015693579 0.28142676 -0.20899324 -0.3520988 0.15709685 0.15953405
1314 0.39618 0.09150717 -0.3632295 0.14678542 -0.6370119 0.107586205 0.15635921 -0.0386997 0.6615883 -0.06266239 0.42866004 0.3511424 0.111463904 -0.15167302 0.12319578 -0.020646106 0.43339917 0.41888946 -0.21058246 -0.25509372 -0.18350129 -0.41709054 0.1545322 -0.114421494 0.1022576 0.2968611 0.25525 0.6136254 0.49049047 -0.08034249 0.19795029 0.41093934 0.29227814 0.07553147 0.3779122 0.065804325 0.04397839 -0.13810506 -0.64189225 0.2697262 -0.10390747 -0.026482962 -0.21385866 0.115967855 -0.048655506 0.33402094 0.20000345 -0.5547151 0.17503415 -0.03807163 0.6332689 0.28560552 0.021568816 -0.24597801 0.259606 0.18524066 0.24128684 0.36748368 -0.11359636 0.31859884 -0.048754986 0.019890439 -0.036655255 0.22312407
1404 0.0604572 0.27181157 -0.56402004 0.10782689 -0.6161678 -0.748741 0.015530021 0.14433523 0.19929409 -0.29850805 0.18824674 0.8769047 0.07838076 0.12607941 -0.12738518 0.15695994 -0.05170725 0.17331815 0.024013799 0.14237645 -0.52191025 0.021624753 0.122608036 -0.054727208 -0.10038488 0.30153018 0.036425285 0.39112976 0.20139132 0.0068310252 -0.18198408 -0.5214384 -0.3110917 -2.3212524e-06 0.20562534 0.33061156 -0.39078292 -0.32235578 -0.31542116 -0.18308991 -0.1134254 -0.21585658 -0.1853353 0.13101774 0.40777326 -0.14217447 0.30592865 -0.2295588 -0.17561385 -0.30902296 0.14048001 0.110064246 0.02124588 0.09528925 -0.4076713 0.55913746 -0.15601686 -0.34017685 0.15487397 0.4440733 0.4963331 0.12081624 -0.0546242 -0.49415573
