804 64
537 -0.06688674 -0.6051349 -0.17728442 -0.081582256 -0.35174125 0.5382803 0.23150666 1.326172 -0.07225516 0.39657077 0.27934188 0.49598357 -0.15289183 -0.3678549 -0.07741186 0.12602107 -0.13538529 0.8166342 0.29388505 1.0295988 0.38833204 0.034875266 1.3992865 -0.19089554 0.3039492 -1.4277792 0.6316222 -0.98350567 0.07234579 0.044559915 0.10092293 -0.13905847 0.016642924 -0.23638296 0.07030413 -0.45154154 1.3207322 0.81182015 -0.66850436 0.8162904 -0.32235935 0.5531006 0.46678275 0.4081394 0.67463344 -1.0568266 -0.43233013 0.5642258 0.13381511 0.07277676 -0.44454437 -0.06725238 0.71572185 -0.6310032 0.62232727 0.60157114 0.7371369 1.1355697 -0.21628134 0.29685724 0.79079455 0.57632804 -0.07112306 1.3933737
202 -0.25396737 -0.47981283 0.21085824 0.024071703 -0.028738288 0.618855 0.31772074 0.9560887 0.51625913 0.9891229 -0.26538253 0.23701037 0.18470372 -0.83615446 -0.093762025 -0.7784641 0.101420045 0.7055609 0.51742303 -0.34546262 0.6350658 -1.0422345 0.20955288 -0.47134462 0.33675617 0.042634673 -0.64189476 -0.32416046 -0.2869547 0.78993714 0.28630528 0.102180205 -0.22254711 -0.24642955 0.040623426 0.19989963 0.90964115 1.6191128 -0.88519275 -0.14544348 -0.10933902 1.3916119 -0.015968041 -0.007387526 0.5511401 0.11824773 -0.01288663 0.66563636 -0.75878114 0.5249422 -0.29123494 0.3276282 0.2770669 -1.0525094 0.049500644 0.39532426 -0.3591162 1.4650719 -0.17573 -0.5577326 -0.30507916 -0.117534004 0.7352571 0.34429678
14 -0.35782814 0.18418895 0.19913131 -1.0867193 0.12112193 0.25982532 -0.43412736 0.29286897 0.16053613 0.04720201 -0.09827797 0.9607999 -0.8463991 -0.6210559 -0.1642166 0.62960565 0.3613299 0.9343008 0.3718 0.21127005 -0.3584612 0.3267486 0.39783967 -0.4263864 0.09717 -1.0373648 0.57087684 -0.36552313 0.03524873 -0.3525181 0.73504895 0.02447029 0.17924123 0.52306545 0.49781218 -0.21850647 1.0449948 0.109061524 -0.7542383 -0.058898807 -0.6197602 1.4474992 0.9910982 0.17666493 -0.49198076 -0.053401355 0.4884029 -0.17790633 -0.47131142 -0.49499312 0.75208557 -0.24941951 -0.08826339 -0.8891299 0.02755328 0.75164187 0.20417812 0.23785107 -0.22726987 0.3801811 -0.022148812 0.23395453 1.0290668 0.28996444
410 -0.20285754 -0.6735885 0.8893517 -1.0730339 0.78033525 0.2659589 -0.85338897 1.0871863 -1.102532 -0.60319376 0.6568126 0.12408235 -0.34416372 -0.7711237 0.9950567 0.28275576 0.4550368 0.6178534 0.45527676 0.6550599 0.6978513 -0.2705785 -0.37177095 -0.06733885 -0.025859958 0.19266951 -0.16303846 -0.58612424 -0.1632684 -0.4545764 0.654143 0.15005524 -0.020606844 0.03870739 0.16603766 0.7163264 0.7349016 0.9229764 -0.85651857 0.57768524 -0.17513461 1.0534769 0.5290054 0.3833552 0.13255233 -0.775043 -0.58195204 1.0817392 -0.123247586 0.27023816 -0.36775362 0.12731649 0.42949986 -0.8940442 0.544042 0.55032825 0.40870994 1.195048 -0.25760686 -0.09077561 -0.06668089 0.12896124 -0.16000654 0.16222747
635 0.17056774 -0.05708889 0.25208524 -1.0794268 0.44681203 0.666908 0.8584127 1.1502941 0.14237994 0.73324883 -0.2578538 0.24346846 0.44450453 -0.80775356 -0.5592814 -0.5466693 0.48298943 0.040217638 -0.31602362 0.10609787 0.68636215 0.37435892 -0.206524 -0.033112463 -0.16453403 -0.884337 -0.293924 0.52747524 -0.3715376 0.4483825 0.18403627 -0.3389346 -1.2448047 0.95224273 1.0174462 0.14662151 0.9753647 0.5533328 -0.6405186 0.3460175 -0.47040564 1.015177 -0.7887221 0.13293327 0.071010776 0.42419913 -0.4269643 0.45478326 0.16230196 0.109153494 0.1468867 -0.38427883 0.77319914 -0.8994429 1.3911462 0.7626931 1.0690109 0.9647691 0.16406052 -0.021903325 0.34391215 -0.0073485128 0.33164436 0.05297436
487 -0.27314156 0.1774764 -0.04889954 -0.02770806 -0.41327652 0.24375401 -0.6446635 0.8951852 0.12390979 0.96638286 0.93168014 -0.2934565 -0.0064317463 -0.86083895 -0.98442394 0.7163367 1.1207652 0.60619473 -0.1524859 0.47163707 0.7100674 -0.06840861 0.6088679 0.61480206 -0.3375276 0.27664542 -0.14067194 -0.85512966 -0.3802045 0.6847795 0.4018844 -0.31420162 0.5170595 0.24734695 0.25573978 0.09063697 -0.06351899 -0.24599896 0.23341247 0.76400137 -0.63986814 0.8583453 0.79220104 0.77577174 0.054711618 0.3589905 -0.36124226 0.3253531 -0.40059587 0.11983125 0.6823598 0.16777363 0.01876269 -1.4154519 1.451516 0.74742174 0.9820644 1.0185757 -0.7496525 0.63220865 -0.53565276 0.13137257 1.0910225 0.56282544
20 -0.20057926 0.059783895 -0.18406378 -0.56892824 -0.21264708 0.44454473 -0.15274525 0.7544756 0.022950701 -0.118587814 0.023490185 0.90268636 -0.30272248 -0.8848448 -0.13295399 0.8451454 0.6196572 0.5126924 0.405544 -0.08322376 -0.4860252 0.53181195 0.37101185 -0.5532091 -0.14586787 -0.731396 0.37219325 -0.683754 0.037226133 0.19133551 0.33748406 0.42960212 -0.1932198 0.44912672 0.2638325 0.0753429 1.0972562 0.11166615 -1.0758003 0.094182834 -0.5667162 1.5876459 0.8328053 0.32611963 -0.086233854 0.17852397 0.8343715 -0.30720997 -0.34887323 -0.3337951 0.65864724 -0.35721534 0.13563561 -1.0418872 -0.037546333 1.0002646 -0.038774475 0.54526776 -0.31735444 0.59491205 0.059278585 0.46526414 0.5670949 0.54049736
358 -0.058918495 -0.21432754 -0.36306328 0.49931335 0.74734485 0.037166167 0.07485191 0.09295938 -0.54032433 0.17566808 0.10418608 0.4563665 -1.1778107 -0.113653645 0.18314226 -0.3769316 0.780722 -0.27520213 0.25784296 -0.38067663 0.4242844 -0.79791605 -0.6926471 0.45585123 0.08081014 -1.2045441 0.22023639 -0.69802296 -0.14483355 0.25038198 0.08351291 0.109179474 0.05640677 -0.2090305 0.19697681 0.6535106 -0.14884733 0.29952854 -0.7246903 -0.005501903 -0.7169734 1.3350974 0.10997357 0.86694086 -0.5135641 0.4983991 0.11934798 0.4280378 -0.08512227 -0.29261455 0.3076067 -0.04286618 0.8438577 -1.2020587 1.5469227 1.0015959 1.2443208 1.2494689 -0.49163005 -0.09629886 -0.14872785 -0.43311158 0.8397763 0.49105
50 -0.1947749 -0.22661406 0.29045776 -0.21170259 0.62843525 0.16855231 -0.39741018 0.71999687 0.940478 0.6728384 0.49978828 -0.11238146 0.32622138 -0.050287656 -0.15591583 -0.51690143 -0.26280618 1.1825924 0.064907506 0.54260284 0.6567903 -0.82794815 -0.39942876 -0.09042377 0.20417604 0.041328758 0.7402887 -0.70800567 -0.7544664 0.047214426 0.34328732 -0.0200246 -0.61388195 -0.21874325 0.805007 -0.40950733 1.1268337 -0.4805827 -0.8281928 0.7781254 0.53374636 1.0977166 0.46457684 0.15138932 -0.5091444 -0.17711636 -0.13943537 0.5363662 0.16845344 0.09745929 0.20298341 0.211056 0.02776911 -1.0971117 1.1416024 0.48132765 0.32014418 1.201912 0.08780192 -0.030975817 -0.37601635 0.38397828 0.20641802 0.7826784
451 -0.51015913 -0.29677737 -0.036805235 -0.067942984 0.6216276 0.28923503 0.31900647 0.2869337 -0.104827106 0.9847638 0.34397 -0.25728646 0.5152362 -1.0545907 -0.34253883 -0.2412551 0.29024985 -0.31230715 -0.64562345 0.7204708 1.2808541 0.08626753 0.24908982 -0.9461694 0.38227233 -0.39295614 -0.071079955 -0.6679557 -0.9940439 0.6886679 0.4408579 -0.5293185 0.12718475 -0.057335924 0.42707646 -0.07431796 0.7607495 0.7736377 0.05670282 0.19657533 0.2976813 1.4236032 0.48495078 -0.46553746 0.17749612 -0.3985354 0.27915087 -0.6677889 -0.62010115 -1.2159758 0.10006862 -0.17405438 0.71979725 -0.7732203 0.7424814 -0.064178534 -0.36807358 0.927883 -1.0398372 0.736476 -0.14268184 -0.1305839 -0.2939335 -0.06036616
406 0.7226669 -0.33223438 -0.6676445 -0.4850475 0.6283991 -0.23466273 -0.6254935 0.75345755 -0.4044555 0.3908432 -0.40258393 -0.0058296584 -1.1637224 0.61074746 -0.1880221 0.43534634 -0.10364249 0.4880751 -0.12722632 0.43297735 0.6490101 -0.5482144 0.42203808 0.41150618 0.50425005 -0.5578046 0.25685677 -0.015684875 -0.27015078 0.38667396 0.549532 -0.7531004 -0.530328 0.9933719 0.8627777 -0.5959128 1.2565713 -0.5136333 -0.12494467 0.0633051 0.23988305 1.3294221 0.15573433 0.61895865 0.34408867 -0.48498648 -0.077746205 0.5784072 -0.04353705 -0.5217859 0.014402166 -0.09863021 0.532911 -1.4772657 0.9168677 -0.017572323 0.35720658 0.7378962 -1.0121828 0.3528109 -0.054072812 0.39878833 1.3519895 0.052974742
558 -0.1733765 1.0237085 -0.060524475 0.40260383 0.5371311 -0.21322322 -0.31299964 -0.14253159 0.06403242 -1.045653 -0.014319611 0.75633335 -0.5549749 -0.957711 1.2248383 -0.30209365 0.68904513 0.5011699 -0.67988235 -0.19355708 0.7033752 -0.5175886 0.062361203 -0.14724702 1.0975223 0.3296319 0.12747419 -0.088467605 -0.6024244 0.9372747 1.2392778 -0.3334218 0.2624901 0.11656053 0.7492641 0.4330255 0.63178164 0.42791897 -0.43264663 0.058619704 0.18791334 1.4472358 0.57128376 0.06834002 0.2514294 -0.1323742 1.0077515 -0.3121068 0.047518693 -0.5597428 0.23541531 0.037354045 0.7760001 -1.0958294 1.322239 0.54304355 0.8459522 -0.12433869 -0.91798913 0.4418129 -0.08476649 -0.19222513 0.22204363 0.873566
655 -0.5158373 -0.5409741 -0.07887639 -0.6308214 0.18375005 0.09831403 -0.30062908 0.5975977 0.25963798 -0.39336744 -0.7427361 0.28962705 -0.0021259969 0.19407612 0.43371063 0.13982537 0.7418856 -0.24782225 -1.0673614 0.33310235 0.8378147 -0.1271672 -0.06448527 -0.5753718 -0.061679848 -0.30098197 -0.015058157 0.002933759 -0.8976889 -0.24614365 -0.17652087 -0.9967957 -0.38786703 -0.66802883 1.28764 0.22229971 0.4360515 1.0868667 -1.1463399 0.55121386 -0.4553319 0.22916977 0.43338996 0.3275824 0.46940473 0.1782462 0.8193671 1.0088317 0.4082227 0.15922867 0.6265481 0.3913626 0.39539438 -1.1512003 1.2005125 0.59893966 0.4251078 1.486187 -0.32785392 0.84199435 -0.09703939 -0.042471524 0.45742878 1.1571264
17 -0.14070833 0.002835643 -0.029238114 -0.3639986 -0.23268037 0.28425398 -0.28609544 0.25609717 -0.46610323 -0.14174905 0.020410514 0.58599836 -0.7164709 -0.4426953 -0.6531699 0.85710526 0.46025932 0.7317052 0.068368375 0.15057136 -0.15218309 0.29920465 0.38968253 -0.33932558 -0.03559029 -0.69423544 -0.27086776 -0.5655889 0.06616347 -0.045882702 0.6206149 0.2035892 0.012638902 -0.13824913 0.36000815 -0.12049365 1.0177976 0.3401565 -0.82561994 -0.07619452 -0.563465 1.7987792 0.56888443 0.43358704 -0.620825 0.3540725 0.9196443 -0.39261466 -0.55756927 -0.11307174 0.8133679 -0.20837997 0.27678767 -1.0700319 0.0043258467 0.97154576 -0.17823821 0.69631606 -0.5751765 0.86120033 -0.1752825 0.57544214 0.56599474 0.07347514
415 0.18408646 -0.67541456 0.49859622 0.07405581 0.14154746 0.10173092 -0.20796086 0.5269808 -0.041521937 -0.21819375 0.6655016 0.18227895 -0.91612065 -1.2409202 1.33895 0.7024096 0.24305347 0.5355897 -0.65117335 -0.8812148 0.690832 0.15756646 0.20839496 0.12706512 1.4817398 -0.5168967 -0.68970275 0.058772065 0.098374605 0.6543273 -0.04054046 0.21065968 -0.3068094 0.96816814 0.08640556 -0.06548092 0.8698887 0.3764094 -0.68191695 -0.049480584 0.2592648 1.0806551 -0.51015 0.7859229 0.22031231 -0.161501 0.552359 0.045133673 -0.34301117 0.38853645 -0.04263231 -0.03503975 1.1050885 -1.4715602 1.1036597 0.67909503 0.5496159 0.92012227 0.0063112923 -0.25007597 0.23256491 0.44169495 0.84588796 0.6402563
325 -0.15899476 -0.092222765 0.92167926 -0.5527831 0.6602826 0.772861 0.3562982 0.1721467 -0.1389267 0.8416749 0.31593308 1.3953648 0.24103445 -1.6583283 -0.42670354 -0.06421481 0.5251382 0.12162814 -0.04665716 0.2264792 1.3969406 -0.22562152 0.809846 0.21727243 -0.069819026 -0.99321866 -0.1105514 0.28706548 0.6711342 0.49202406 0.74059415 0.24527891 0.01831157 -0.04019745 -0.8764831 -0.4859436 0.45408687 0.75347877 -0.25073308 0.3713602 -0.19365548 0.95333433 -0.35221374 -0.25671312 -0.20483793 -0.3504827 1.169756 1.0095595 -0.6069163 0.6041117 0.17390786 -0.46499202 0.36456263 -0.30303168 0.9447949 0.2070137 0.4531982 0.98676074 -0.66252863 0.010923049 -0.35329992 0.3216048 0.34142187 0.34125975
78 0.6122444 -0.18940666 0.98648125 -0.6053145 0.5172437 0.6078442 -0.24637826 0.16253935 -0.68967545 0.84189945 0.29218277 0.5323221 0.022787316 -0.12210273 -0.5305156 -0.26776657 -0.1362633 -0.13048024 -0.4819422 0.046838723 -0.32908335 -0.4613311 -0.54859585 -0.90422255 -0.24797265 -0.42380264 -0.05212293 -0.36183637 0.31905222 0.20342058 0.44507104 -0.7189538 0.046128824 0.45905387 0.051522035 -0.4277756 1.0447206 0.72153735 -0.79881936 0.6271051 -0.43671677 1.5981146 0.28596425 0.6485581 0.14512551 -0.22241743 0.9875387 -0.085402064 -0.018921668 0.7148432 0.76365864 0.544672 0.39818478 -1.0637912 1.7285097 0.3278016 0.4123796 0.4479468 -0.13251626 -0.14295577 0.03904967 -1.0127857 0.45378652 0.08057809
52 -0.061778992 -0.50746864 -0.083953306 -0.7216938 0.79662615 -0.48280042 0.455674 0.50929993 0.731508 0.77131444 0.40327105 -0.052505653 0.17012088 -0.17008297 0.5170209 0.26024735 0.7305299 0.037075534 0.91929054 0.13919051 1.0903286 -0.27572975 0.11603814 -0.6878978 -0.34666017 -1.0488217 0.22185382 -1.0559871 0.14834292 -0.32342777 0.23723318 -0.23879708 -0.09118706 0.81393474 -0.13940743 0.18679474 1.0245975 0.35855308 -0.31056437 1.4208474 0.10391692 1.459847 0.28179455 0.49742955 -0.37235817 0.504211 0.54634273 0.21919498 0.24538124 0.18407303 -0.041858632 0.81970125 0.7575816 -0.83539206 -0.069976866 -0.086331785 0.40883833 1.1723287 -0.8113303 0.7739215 1.1283191 -0.17064472 0.42248043 0.16489568
630 0.16852674 -0.35449648 -0.40494904 -0.9002035 -0.5835173 1.0633367 0.066736236 0.8390543 0.09069318 0.85066694 -0.08610331 0.7018698 -0.796291 -1.2197124 0.097219326 -0.5021275 0.07583774 0.34279153 -0.07485381 -0.49768564 1.0895462 -0.3213067 0.31148663 0.009324882 -0.26091325 -0.24009621 -0.7594664 -0.88332444 0.5303532 0.81071 0.61057556 0.65500647 0.40795493 0.93439794 -0.2364774 -0.30754954 0.5577005 0.6477981 -0.3979159 -0.2981953 -1.0518878 0.8492464 0.7419462 -0.08886523 -0.43553865 0.060306452 -0.26352316 0.014527104 -0.015315062 -0.039659966 0.32659584 0.16655321 0.20994855 -0.40656868 1.0264285 -0.02432171 0.9253503 1.3600312 -1.0476363 0.6496134 0.5063548 -0.4117328 0.60129154 0.29507118
371 0.011128755 0.2897686 -0.35036063 -0.107229106 0.60747087 -0.6242381 0.011387694 0.96710956 -0.8405225 1.0136995 -0.33879286 -0.2014306 -0.28657705 -1.3412906 -0.16483253 0.2757325 0.020061625 0.30137655 -0.3016512 0.17334123 0.26757357 -0.44482797 0.040868126 0.19576287 -0.23049314 0.25235683 -0.2443906 -0.4407315 -0.26464352 0.27235723 0.84037435 0.49419287 -0.3424288 -0.32850108 -0.4164562 -0.79643 0.39974803 0.65875864 0.6088974 0.54514927 0.44091275 0.9164843 -0.45810252 -0.4407947 -0.30295494 -0.101185605 0.75740457 0.85947615 -0.5265452 -0.31218773 -0.06605194 -0.35553905 -0.21448568 -1.9006288 0.86339486 -0.040139887 0.4344054 1.3514115 -0.96969825 0.35200006 0.30708215 -0.36265537 0.8040053 1.1774681
584 1.0013908 0.10711069 0.7134306 0.09778824 -0.16778335 -0.5277002 -0.02347095 0.43824887 0.5201865 0.53806055 0.0406323 0.8421381 0.48930585 -0.74943423 0.12390482 0.2978187 0.76429576 0.4000439 0.5301084 0.667717 0.24303992 -0.47721714 0.32714388 -0.5407215 -0.015605957 -0.12570259 0.6141809 -0.13378958 -0.58189017 0.7232143 1.1079953 -0.14533721 0.07763821 0.57790345 0.26780447 0.20218115 0.47301838 1.2524672 -0.64985543 1.1693931 0.17723975 1.0666876 0.03402606 0.7385295 0.047974076 -0.105831444 0.03722594 -0.41090775 -0.2903185 -0.7658697 0.29646719 -0.55720854 0.2899997 -0.58583206 0.9408355 0.65202814 0.26667252 0.76054144 -1.1560493 -0.4072495 -0.06807665 1.1515411 -0.39731744 0.613166
285 0.34129623 -0.6778992 -0.17975031 -0.89269114 0.6452363 0.1427526 -0.3463888 0.19757769 -0.25005943 -0.037239093 0.026989892 0.86706454 0.22329326 -1.1548402 -1.0087053 0.5156088 0.08502374 0.8825389 -0.11462332 0.6550572 0.311347 -0.010356209 0.62175345 0.7123 1.032771 0.30472875 -0.7891851 -0.93001604 -0.5376761 -0.53733873 0.39580882 -0.013040812 -0.8950852 0.2328225 0.29336315 -0.039479367 1.0982668 0.934793 0.048821177 0.036393385 0.39858022 0.6457097 -0.45175081 -0.015111615 -0.09079792 -0.50256306 0.0009874749 0.49427107 0.1830339 0.20226038 0.021790912 0.66280407 1.184431 -0.54433 0.7314803 0.5821376 1.0600864 1.3426298 -0.23489374 0.84484977 -0.3961553 -0.16208227 0.43745512 0.8118056
480 -0.59919715 0.1982567 0.7042147 -0.6714538 0.6208838 -0.4512143 0.121589825 0.8429515 0.6394777 0.42808092 0.7334027 0.058886923 -0.9755404 -0.14431697 0.90135086 -0.55582875 0.40317482 -0.40884745 -0.34317857 0.23264758 -0.1684863 -0.40401912 0.8316205 -0.15248574 -0.21538888 -0.52504545 0.73076814 -0.15300523 -0.20422104 -0.33215228 0.94636464 -0.7100256 -0.73993945 0.76753265 0.33718154 0.16795139 0.64326924 1.2544122 -0.15730841 0.22973673 -0.33678 1.2233219 0.32365805 0.12574454 0.8262854 -0.31721053 0.39893 0.5675832 -0.32687587 0.11857914 -0.34231532 0.07489967 -0.40505564 -1.0642008 0.48987654 0.05086811 0.57377255 1.4484602 -0.2714837 0.039470334 0.5328575 0.6164936 0.6658097 0.32678333
454 0.24698712 -0.029393254 -0.17082044 -0.45531598 0.74741185 0.58742577 0.36175472 0.63980097 -0.04457722 0.6482009 -0.38060558 -0.24887274 0.62135226 -1.1914806 -0.58932763 -0.10743261 -0.11319237 0.0037825238 -0.46879345 0.78309625 1.3559538 0.102677315 0.26508638 -0.84859884 0.35835612 -0.75239486 -0.6065164 -0.33178344 -0.8905851 0.50010103 0.121389575 -0.6519329 0.14398298 0.1617207 0.046053417 -0.3474524 1.2540591 0.45403972 -0.23852205 -0.027795937 0.4541399 0.8164259 0.8172662 -0.059372894 0.3571238 -0.22829339 0.6144837 -0.24644573 -0.462126 -0.8249145 -0.4441965 -0.21347755 0.84109724 -0.5870466 0.80538136 -0.25110537 -0.4721768 1.1581893 -0.8436979 1.0715183 0.085082546 -0.121884786 -0.3765745 -0.035235845
111 -0.63356215 0.3894728 0.09372804 0.15578629 0.36552718 0.22395413 -0.3263899 1.356085 0.1351378 -0.15158151 0.46783125 0.09926672 0.258735 -1.2632941 0.6626723 0.17598394 0.5572926 0.3641324 0.3263791 -0.01726983 1.3210782 -0.08568018 0.69836617 -0.59237885 -0.6537853 -0.68694806 -0.6351828 -0.49958676 0.25249416 -0.39313713 -0.49109453 -0.20871982 0.6014207 0.92276657 0.78192556 -0.20891614 0.861531 0.82102317 -0.15915552 0.735065 0.3746333 0.9530661 0.26650456 0.3264132 0.18443017 -0.14602889 0.43476066 0.22102197 -0.36142474 0.45234478 0.47225046 0.30261177 0.659232 -0.81472236 1.2387339 1.1842225 0.7595453 -0.15818682 -0.31155655 -0.20708816 0.14250287 -0.17518923 -0.18445642 -0.16944535
443 0.38036844 -0.50725156 0.09626744 -0.25939387 0.18688744 -0.37557077 0.3022482 0.8688248 -0.54758525 -0.009000771 0.6075905 0.9958793 -0.41734976 -0.44937122 -0.32511422 -0.43603995 0.5436222 0.0070532206 0.0800917 1.1083798 0.2829596 0.5517067 0.6366238 -0.26051778 0.014669398 0.042817004 -0.84785116 -0.31561816 -0.07684576 0.31746936 1.50974 -1.3129082 0.0565661 0.9202246 0.2014146 -0.24846739 -0.41447896 0.37960365 -0.81640786 0.04734034 0.18332732 0.5337892 0.12046921 0.7067569 -0.014044762 0.18825138 0.63374937 -0.4274826 -0.80440354 0.03873035 0.5785002 0.44146207 0.7708267 -0.9468481 0.7880494 0.76687753 -0.030819355 0.664861 -0.61148447 0.04576138 0.29842296 -0.6539931 0.3117225 -0.0043490306
95 -0.73481745 -0.36550608 0.6216641 0.08604714 0.5006647 0.40782884 0.42742297 0.50211626 -0.25666222 -0.16861738 -0.16878176 0.72692853 -0.06190614 -0.5075147 -0.099064544 0.90569526 -0.21129614 0.38509625 0.27215612 0.5389324 0.60492665 -0.66438717 0.05952003 0.019312829 0.20890318 -0.34454706 0.93756837 0.10393584 0.045703493 -0.6141374 0.30078465 -1.2434208 0.51179254 0.7381676 0.30681938 -0.45578796 -0.0270391 0.92218846 -0.74874866 -0.39534947 0.1492683 0.8396178 1.1049536 0.7966686 -0.1494585 -0.33123872 0.18298276 1.2545346 -0.762436 -0.15017554 0.24078798 -0.0016111268 0.12735333 -0.9292837 1.3805101 -0.16026296 0.27490377 0.8082686 -0.5786643 -0.5378393 -0.34908634 0.15353315 0.59148264 0.48907608
503 -0.06857688 0.5204603 -0.2223937 -0.87839377 0.24954356 0.47491264 0.35589218 -0.046947047 0.5122087 0.3198342 0.34934357 0.6138186 -0.20878242 -0.28206763 0.20019631 0.018817076 0.59853286 0.7069922 -0.29164222 1.3188499 0.27924076 -1.0216918 0.37337428 0.32359982 -0.12654915 -0.5442737 0.010821696 -0.27054876 0.76961005 0.014512604 1.0635228 -0.8441322 -0.02354962 -0.09142326 -0.41160274 -0.54910994 1.1920931 0.551888 0.07774588 0.43535745 0.3862976 1.082702 0.95846254 -0.33627176 -0.66869086 -0.6568714 0.5235678 -0.35314745 -0.23935108 -0.57457155 -0.45176396 0.22347285 1.096103 -0.33356902 1.3653992 0.9087208 0.8083721 0.13605973 -0.73132545 -0.15533455 0.100696735 -0.014165968 0.26423517 1.3750362
312 -0.10931361 -0.67744046 0.5798266 -0.023187866 0.8225425 -0.53270036 0.22190005 1.0098615 -0.6246709 0.31830034 -0.28575742 0.49927232 -0.43574148 -0.42056152 0.24039662 -0.7405379 -0.90822214 0.30868766 -0.7732124 -0.44352898 -0.15566222 -0.19274919 0.035853215 -1.1062558 0.08826223 -0.61218935 0.2220735 -0.528002 -0.04175094 0.85124534 0.67859536 0.05162033 0.09248356 0.7235598 1.301627 0.1111978 1.4393709 0.568329 -0.08073157 0.6324888 -0.2473387 0.76080495 -0.63601387 -0.09112129 -0.10102944 -0.14532793 0.18203977 0.6413628 0.018017255 -0.78334427 0.42753667 -0.41246638 0.5810657 -1.1329838 0.847424 -0.5334634 0.5224471 0.8300583 -0.06814795 0.3302874 0.24155648 -0.56161046 0.726297 1.1955795
524 -0.8062449 -0.18240234 0.57071483 -0.55531245 0.29182547 0.4619237 0.3965468 0.38652217 0.5087358 0.7962564 0.28457353 0.3497024 -0.41766462 -0.35430604 0.82842714 0.10883192 -0.006040935 0.932514 -0.22141157 0.1182496 0.9960276 0.31265286 0.5453249 0.6768006 -0.26383466 -0.07799549 0.80163276 -0.86854124 0.5877356 0.9775188 0.20453356 -0.8559281 -0.10777386 1.4122667 0.6688011 -0.54879034 0.1342347 0.8489763 -0.041190498 0.47702608 -0.31139353 1.089998 0.24024412 0.23865631 -0.12500985 0.7074979 0.5398972 -0.005335904 -0.10510047 0.7225241 -0.019244645 0.26640487 0.37301052 -0.64504594 0.76469386 0.23391634 0.8551532 1.111255 0.07857309 0.6606833 -0.94636285 -0.16151744 -0.3562697 0.68512964
408 -0.62304634 -0.13507092 -0.51572216 -0.17964286 0.7478852 0.41055715 -0.41824752 -0.062722065 0.3517417 0.20961726 0.41405794 0.47609237 0.2557742 -0.92259264 0.02147933 -0.22085926 0.26735973 0.6947128 -0.4030062 0.22760455 0.8980555 -0.12673089 -0.2823208 0.0453936 0.38446304 -0.4245029 -0.8547352 -1.6172003 -0.10774868 0.021152873 0.88276416 -0.46657166 0.39983514 0.45200926 0.46657875 -0.5686841 0.4947309 1.021158 0.04716106 1.2454904 -0.61077803 0.81245136 0.10544366 0.08706251 0.19854286 0.06969579 0.022861198 0.1720623 -0.8894534 -0.7242378 0.50367814 -0.6828602 0.65912485 -1.59247 0.3431085 0.3581512 0.88707423 0.13983247 -0.001817846 -0.04942985 0.60864645 0.8186184 0.5340905 0.49877077
92 -0.79362607 -0.328478 0.39995342 0.08235325 0.43958122 0.2557907 0.3642337 0.5446467 -0.31273857 -0.1550883 -0.15594748 0.6276283 -0.061610192 -0.43492404 -0.058902178 0.8902834 -0.2839086 0.33862332 0.14731114 0.5873225 0.6658026 -0.7145207 0.11341304 -0.090383 0.27342796 -0.41586408 0.92147386 0.026626695 0.09283272 -0.589783 0.080341354 -1.3756262 0.48767653 0.8238098 0.39327744 -0.53313553 0.08288121 0.89972365 -0.8431694 -0.4150787 0.08448104 0.77432173 1.1112244 0.6165406 -0.22738628 -0.27391645 0.29542375 1.2114651 -0.6740248 -0.22510214 0.34374613 0.06418797 0.1665889 -0.8960554 1.3015434 -0.20971856 0.216733 0.85239506 -0.595882 -0.51617306 -0.25579894 0.028656172 0.61824346 0.4883389
414 -0.23140459 -0.15139922 0.26037753 -0.10435405 0.51770264 0.05072665 -0.6078366 0.65739506 0.91358995 0.5578561 0.58912903 0.004451032 0.45015463 0.1958497 -0.044839498 -0.45021993 -0.29940864 1.2124075 -0.14910084 0.51876134 0.6534454 -0.8633225 -0.31810904 -0.31000775 0.41632158 0.036758937 0.5582023 -0.83030313 -0.6381916 0.11033796 0.12677749 -0.07874694 -0.8331536 -0.28700024 0.964196 -0.42115784 1.1656791 -0.3193811 -0.8537741 0.84270185 0.5975523 1.0754473 0.47056046 0.32475808 -0.3071181 -0.23388346 0.1174848 0.5925143 0.07204749 0.058240894 0.22961676 0.42109787 0.2109009 -0.99059355 1.0915471 0.32598996 0.35402185 1.3464562 -0.13550879 0.113243885 -0.29690713 0.33296052 0.28498065 0.7942878
622 0.0931468 -0.72332025 -0.42358845 -1.021025 0.668894 -0.7846596 -0.19089875 0.38075602 -0.9317941 1.3564218 0.83779323 0.10849969 0.83801615 -0.26686138 -0.77523714 0.78046286 0.22594297 0.07529442 -0.53162515 0.5740861 0.52330923 0.08145923 0.13283002 0.20726465 -0.8644703 -0.047130458 -0.035148915 0.07774197 -0.10436039 -0.0112639535 0.43214974 -0.81875443 -0.02189818 0.3640255 1.114971 0.39524424 0.32200724 1.3493531 -0.84103036 0.7518653 -0.6627691 1.3137275 0.35685506 -0.34460723 -0.34824333 0.36914766 -0.15478519 0.742553 -0.60181206 -0.8085453 -0.057323534 0.020278323 0.2597261 -1.3224406 0.37543535 0.78739506 0.10869359 1.3060508 0.20142381 0.49721754 -0.25115654 -0.27178556 0.3437934 -0.120499
254 -0.0060535735 -0.24987274 0.046473864 -0.57235587 0.5896076 -0.12573291 0.07375515 0.90442 -0.063593745 0.32056493 0.25279254 0.59906644 -0.07239051 -0.9048808 0.15560205 0.014384128 0.40497983 0.5799326 -0.20311788 0.5543688 1.0346199 -0.40340257 0.5261326 -0.18037438 0.20948339 -0.49787143 -0.019305829 -0.4099627 -0.23559447 0.53023267 0.6752747 -0.46545416 0.08241494 0.4842422 0.3695431 -0.025363399 0.9509575 0.9246149 -0.75662285 0.30141136 -0.09335421 1.4353957 0.4758474 0.3020082 -0.12923576 -0.014495452 0.33850375 0.40979052 -0.34828418 -0.017157475 0.1976838 -0.044913452 0.56491363 -1.4523839 1.1755453 0.635306 0.6038516 1.2697201 -0.6281342 0.28977102 0.015766026 -0.20568968 0.5502083 0.8598556
279 -0.14646733 0.55653596 -0.35892203 -0.8284698 1.1016133 -0.076229006 -0.28165814 1.3113528 0.77378666 0.403731 -0.20820855 0.22060765 0.015394772 -1.0481797 0.12850073 -0.59626067 0.34270698 0.29256496 0.3707848 0.5428027 0.4745706 -0.06899836 -0.7706855 -0.73787916 0.3841117 0.082615316 -0.0492189 -0.7092596 -0.29658338 0.30617326 0.43502602 -0.19385104 0.051042452 -0.7582037 -0.12072231 0.0045193974 0.5171181 0.58683383 -1.1471488 -0.22567958 -0.4738705 0.38332823 1.0396472 -0.16365173 -0.37330428 -0.8017788 -0.038302194 0.0387869 -0.5083279 -0.44176105 0.2780315 0.31268263 0.7785935 -0.7409912 0.112856805 1.0107684 0.8039515 1.0901955 -1.1337047 -0.11040267 0.32560495 -0.35905612 -0.39803812 1.1496214
261 0.39398634 0.36636728 -0.21454842 -0.4310114 -0.25489673 0.11593461 -0.4735178 0.6594189 -0.21714367 -0.15324631 0.7835948 -0.05746662 0.48732665 -1.5725267 -0.3345091 0.8166784 0.02917469 0.16437203 -0.21000884 -0.60747635 0.23443931 0.41071928 0.52367306 -0.15789258 -0.040401425 -0.3213057 0.027070608 -1.2308733 -0.37329152 -0.3099441 0.1837145 -0.5958726 0.45166445 0.77734005 -0.087950796 0.30524704 0.2356548 0.6569056 -0.87104374 0.37743384 -0.5157119 1.3319896 -0.5401301 0.550695 -0.18359488 0.27547383 -0.27926564 0.5342955 -0.9266737 0.2631236 -0.09018195 0.25876752 -0.18062136 -1.3885775 1.6417809 -0.54658055 0.25755388 1.2481787 -0.26396278 -0.0046085115 0.0121153435 0.026551327 -0.46111694 0.994061
210 0.2292653 -0.44082057 -0.61835563 0.11689047 1.0801612 -0.6071684 -0.2655699 1.0814146 0.35720208 0.90331906 0.58539563 1.4237211 0.13188007 -0.12091925 0.33025217 -0.43151075 0.92859215 0.2547711 0.56128645 0.15240894 0.9153163 -0.5987041 0.360901 -0.57210994 -0.45780152 -0.926327 0.41417652 -0.22705841 -1.0990516 0.46324524 0.35995337 -0.29360726 -0.06895392 -0.7046099 0.5824176 0.24194042 0.5884935 0.46322793 -0.7663686 -0.34595194 -0.16396567 1.4400074 0.54748297 -0.45285824 -0.7459261 0.47311285 -0.00480717 0.526675 0.3353934 -0.9879318 0.14936486 0.12514193 -0.11024259 -0.5573808 0.4079178 0.38017341 -0.008475975 0.6439297 -0.3300567 0.19802442 -0.095016465 -0.32202005 1.4423262 0.33345333
609 -0.2269843 0.07179723 0.118067436 0.93048596 0.421144 -1.0760802 0.17794926 0.49508965 -0.8026476 0.82479566 0.52465296 0.6013995 -0.93352884 -0.23069525 0.4043307 0.22669935 -0.2599156 0.46002218 0.59194964 0.75189984 0.5869596 -0.20203221 0.56060344 0.044832032 0.21026689 -1.2232744 0.56039864 -0.27461934 0.36788413 0.5917877 0.23863956 -0.48699695 0.8976078 1.1392943 -0.485348 -0.26483667 0.95463526 0.13598754 -1.0355979 0.7905978 1.244981 1.3526245 0.9424598 0.34208012 -0.46861985 -0.11705705 0.5106371 -0.08453649 -0.040215705 -0.3926377 -0.39162168 -0.14046289 0.8468639 -0.7035255 0.72299075 0.57794553 0.43710896 0.4366396 -0.93856543 -0.29743087 0.38442084 -0.31131953 0.3356557 0.66281897
615 0.20720126 -0.36111188 -0.108208 -0.0028018036 -0.2788302 -0.12291694 0.2889284 0.21274096 -0.075585105 -0.24536988 -0.2301364 0.44229257 0.6597968 -1.1805204 -0.33876327 -0.41478577 -0.03952393 0.36209568 -0.35541368 0.11752252 0.35702327 -0.7259439 0.44080994 -0.5564198 -0.017967006 0.79888254 -0.5220429 -0.057534054 -0.5103076 -0.48520634 1.2220153 -0.065856636 0.11969037 -0.010757046 -0.5954222 -0.3942118 0.79013056 1.2528992 -0.6852074 0.46583444 -0.069865175 1.66565 0.60839367 0.84306574 -0.7203905 -0.46536213 0.09760969 0.14032003 0.49890488 0.7166302 0.9460915 -0.16451722 1.1211908 -1.2338322 0.4198788 -0.31247818 0.7894206 0.8127276 -0.13007613 0.44241235 -0.39795527 0.30329165 -0.3799354 1.4226501
145 -0.90895563 -0.9155232 -0.13451315 -0.3980193 0.20290238 -0.19362007 0.49297133 0.49028575 0.19569907 0.1974673 1.1461807 0.19773819 -0.37968847 -0.3611289 0.6149485 0.22268498 0.909947 0.2507265 -0.07437441 -0.31439173 0.4439388 0.31320164 -0.24227178 -0.8468786 0.31962392 -0.9563151 -0.5513008 -0.0879545 -0.25127193 0.90740716 0.18091038 -0.8693878 -0.00063539506 -0.12380325 0.46781945 -0.5573597 0.33143795 1.5173485 -1.0267634 -0.5441635 -0.3357662 1.1058035 0.4475005 0.31161594 -0.42099068 0.47761595 -0.19915582 0.571536 -0.60761625 0.31243765 0.49516153 0.116155334 0.75524265 -0.30059272 1.2469193 0.21532506 0.15411316 0.4291051 0.44025314 0.38442776 0.3142221 0.67092067 0.6744555 1.067381
2 -0.2612305 -0.065992884 -0.9404305 -0.7135897 0.5044534 -0.08675425 0.68807477 0.45442292 0.20898938 1.1846952 -0.021191124 0.9224748 0.16114233 -0.87591046 0.32924804 0.06390483 0.7152925 0.45795485 -0.44851568 0.91519 -0.35249987 -0.23308706 0.029361522 -0.36295858 -0.15821548 -0.8311294 0.82928467 -0.50289243 0.31108066 -0.07922057 0.8884416 0.10552532 0.30439693 0.3325095 0.25435185 0.19398111 0.034642853 0.39553103 -0.16261934 -0.06141987 0.46332768 0.5854861 -0.15942433 0.59914285 -0.34663078 -0.010097387 0.048894234 0.568801 0.011354227 0.27779147 0.6967137 -1.1225361 0.3981044 -1.3226501 0.3624437 0.9653328 0.49302575 1.6000836 -0.69132847 0.3267651 0.12430755 -0.5620255 0.15877824 -0.33899382
541 0.18423316 0.8545851 -0.08541339 -0.65680164 0.18204673 -0.11653582 -0.76220906 0.90577614 -0.21475293 0.06856552 1.330991 -0.05121592 -0.51920724 -0.51119274 0.2405937 -0.16881754 0.44491324 -0.040354285 -0.40439934 -0.3476296 0.87868327 -0.90907276 0.3640183 -0.27644125 0.052475393 -0.7103653 -0.49169764 0.42786476 -0.05520869 1.2401829 0.76861626 -0.26439866 0.24748787 0.12542708 0.75782025 0.24115573 0.4456503 0.9696702 -0.37699398 0.6389836 -0.56183904 1.0409433 -0.19857523 0.93368286 -0.5222713 0.36836854 -0.44783768 0.5777276 -0.9977943 0.33272544 -0.5031623 0.38852635 0.38996947 -0.23945494 0.70848095 1.197787 -0.22383715 0.562357 -1.3157529 -0.25242743 0.16333516 0.008545703 0.45473123 1.0427178
336 0.2798302 -0.09685671 0.06800448 -0.6581459 0.5476347 -0.42392495 -0.09356183 0.0074998774 1.4675417 -0.24780855 -0.22819927 -0.22202502 -0.16113015 -1.0978012 0.1955748 0.27816042 -0.35343143 0.30094463 0.5828309 0.5041701 0.14379893 -0.28556842 0.012621246 0.63503665 0.68703485 -1.0787988 -0.23238972 -0.404082 0.18124482 -0.2374564 1.0396471 -0.30523938 0.1400931 -0.24656793 0.88171464 0.5992605 0.5881775 0.6679072 -0.1291286 -0.3329684 0.11512952 1.3004462 0.35767433 1.2098511 -0.17330518 0.012175882 -0.32047132 0.32056305 -0.654626 0.51899093 -0.22462139 -0.24848002 0.3744706 -1.1216531 1.1875252 0.37349647 0.22909467 0.6099077 -0.41666085 0.3848607 0.3516415 -0.0038492915 0.27393353 1.0114777
186 -0.5986139 -0.006413009 -0.54495287 -0.9194322 -0.20971851 0.6112861 0.7211369 0.97538906 -0.14338568 -0.365735 0.4198739 0.8345788 -0.4221784 -0.6221812 0.16243891 0.34075066 0.066863514 1.4570502 0.79099846 0.31447026 1.1170456 -0.6241952 0.0776431 0.00016461987 0.51372653 0.04895993 0.06412689 0.52236235 0.16793996 0.7079182 1.202709 0.5777702 0.37557933 -0.40219438 0.4214905 -0.21125664 0.6983159 0.9633424 -0.3757452 0.8031554 -0.0072248154 1.17618 0.13144173 0.61103326 0.33364582 0.061710123 0.3203508 0.65287495 0.7030566 0.2367405 0.40304258 -0.5136314 -0.24100626 -0.7614805 0.9466678 0.6847792 0.42340773 0.46915588 -0.6577428 -0.065780036 0.3691452 -0.6290098 -0.23919034 0.1875643
119 0.43666014 0.133017 -0.334866 -0.43484873 0.10051301 -1.1204665 -0.16053624 0.16575187 -0.35548818 0.14708644 0.48120755 0.65615946 0.41171578 -0.23908101 -0.04777612 0.124800585 0.7567603 0.38168368 0.075628124 0.03698326 0.8662808 -0.1363271 -0.33755457 0.46580365 -0.5147853 0.058019795 0.59133846 -0.10412113 0.28314385 1.3334285 1.229576 0.5777093 -0.017202549 0.06360172 -0.47546023 0.16369496 1.3324192 0.29582798 -0.68795335 -0.3346155 0.38961333 0.32905987 0.46170118 0.4032551 0.26252183 0.8124595 1.0830401 0.31179306 -0.20473973 0.6531578 -0.017197112 -0.64824116 0.2705952 -1.0775448 0.914693 0.71274555 0.5048521 1.2969042 -0.46443215 0.1517766 0.12526074 0.37105715 0.6374154 0.92749155
383 -0.5475378 -0.6533948 0.19230178 0.15434085 0.8534875 -0.088506304 -0.15060541 0.042887602 -0.6215687 -0.74299777 0.69925815 -0.05034161 -0.62971413 -0.75565964 0.5794764 -0.19862361 -0.048405536 0.7555868 -0.3394325 1.1774291 1.0351992 -1.3651445 0.07802574 0.31293017 0.31206706 0.22242525 -0.87068385 -0.57320565 -0.19402581 0.4835459 0.7789749 -0.7308631 0.8247176 0.39765647 -0.13254479 -0.19393912 1.0828743 0.7534979 -0.3342147 0.17400214 0.4037118 0.3755555 0.9484443 -0.0977781 -0.16849072 -0.07701995 0.4555769 -0.40493897 -0.67117655 0.05949873 -0.03152722 -0.8086944 -0.095559604 -0.64976895 0.39044687 0.7999859 0.12573151 1.0540233 -0.7069878 0.654625 -0.1492838 -0.13475968 0.7515769 0.12267581
37 0.10266648 -0.3462973 0.24848373 -0.6805103 0.15539232 -0.26346266 0.18140595 0.46029148 0.2099312 0.6140963 0.012210025 1.6186612 0.07633224 -1.4647905 0.64407855 0.39320856 -0.5707543 0.6682419 -0.26040718 0.015805267 0.65195614 -0.68102276 -0.3237476 0.1795942 0.051964626 -1.0078987 -0.29678324 -1.1756965 -0.6348198 -0.27589762 0.7830919 -0.4675389 0.2225276 1.4557076 0.67534286 -0.15924075 0.6644427 -0.38376972 -0.5834798 0.3275553 -0.46101382 0.36250997 -0.079841785 0.1614656 -0.64448434 -0.3015126 0.7729527 -0.10529783 0.54036754 0.063533686 -0.33117142 -0.20349844 0.9575008 -0.7659855 1.0363057 0.21298341 0.6324891 0.5875778 -0.18359205 0.6561212 0.0030819094 -0.30180585 0.5060549 0.06968663
46 0.38067988 -0.57284963 -0.28076404 0.5259928 0.4321908 -0.16337162 -0.35563165 1.4280809 -1.0757991 0.10765646 -0.01509581 0.86560285 0.42795086 -0.5164347 0.67812467 0.08534537 0.14719634 0.9561444 -0.116363086 0.50981086 0.26758218 0.5908298 0.25932017 0.03302712 0.35435656 0.5926346 -0.153692 -0.55335283 -0.2729987 1.1749713 0.088610925 0.23735483 0.25818372 -0.16620724 0.46308896 0.068340026 0.8713002 0.5343295 -0.61703944 0.12134447 -0.33064356 0.45810866 0.37849277 0.3635545 0.09137149 0.6620441 0.33937502 0.19376187 0.3482427 -0.19604939 0.609062 -0.2412407 0.68626344 -1.7466744 0.64856446 -0.23862205 0.21820462 1.2981925 -0.18014738 1.3485303 0.26917845 -0.47503516 0.07877045 -0.0032127711
561 0.040707108 -0.61866593 0.21958907 -1.1395634 -0.14126572 -0.39777285 -0.09490643 0.17335081 0.061048783 0.8640299 0.3292321 1.5464078 0.43134522 -1.3578763 0.71141297 0.4364811 -0.27655685 0.6298802 -0.48939064 0.38356897 0.43378124 -0.5857169 -0.13181224 0.12796454 0.14459044 -0.790042 -0.238317 -0.76555383 -0.58283526 0.076879986 0.5923731 -0.6400303 -0.062987745 1.3176625 0.79774547 0.04887977 0.7833553 -0.2412867 -0.73134595 0.5474441 -0.8154965 0.3160532 -0.12616293 0.3303271 -0.26434055 -0.45820642 0.48325583 -0.10345392 0.4254704 0.38356405 0.04013496 -0.25191778 0.66293067 -0.9976511 0.5045807 -0.23088048 0.5113716 0.6113694 -0.4201946 0.14870244 -0.33392942 -0.6326551 0.37490055 -0.033483554
441 0.2713682 -0.47867405 -0.1313887 -0.25780237 -0.14277183 -0.32950667 0.39423415 0.8710034 -0.48069108 0.29732978 0.65287983 0.73407936 -0.5964706 -0.3084249 -0.3090578 -0.22712576 0.4272967 0.026509197 0.16653605 0.75980973 0.4438582 0.44152084 0.7184641 -0.019674825 0.30519214 0.027386047 -0.7771488 -0.49840334 -0.08512803 0.16766252 1.3529236 -1.4038678 0.110756956 0.9627143 0.5573945 -0.3676275 -0.44200316 0.38959154 -0.75171536 -0.31531182 0.33005702 0.5741646 0.14953235 0.7568699 -0.0051552095 0.00483109 0.56239754 -0.4856235 -0.597143 0.38110286 0.44261172 0.42169064 0.8956127 -1.1823657 0.7100067 0.47160444 -0.22388901 0.56216216 -0.7162102 0.4944346 0.14553738 -0.8894882 -0.08002198 -0.045627076
334 0.17006053 -0.3053785 0.34911078 -0.27566716 0.2195675 -0.31034172 0.84085137 0.72108805 0.29614693 0.087579824 -0.3396664 1.2717581 -0.3532607 -0.5515572 0.47874328 -0.8370792 0.6166295 0.4385798 -0.5529647 0.66700006 -0.18114102 -0.71802276 0.24504583 0.26663584 0.7525131 -0.4795499 -0.47470665 -0.21229641 0.57898855 -0.044913508 -0.18850014 -0.8959087 0.14482316 0.3421936 0.5788223 0.2780057 0.96115154 0.13400961 -1.1132084 -0.028074563 -0.31958875 0.8746182 1.0345722 -0.3938437 0.26626813 -0.00844955 0.5366379 0.17732874 -0.25233346 -0.099937074 -0.11872159 -0.49460566 0.8480348 -0.9033322 1.1658361 0.0775312 -0.04148515 0.57199717 0.07239674 -0.5727662 0.59821963 0.7481739 0.64309293 0.41593054
453 -0.17280588 -0.5130113 0.7123817 -1.2366804 0.5152285 0.48289043 -0.3022045 1.10284 -0.3579223 0.11588614 -0.22830485 0.14433284 -0.3830657 -1.101339 0.03898966 -0.4661389 0.5182836 -0.35133395 0.32413286 0.42063457 0.60371995 -0.49699134 0.4505268 -0.01915428 -0.12640825 0.05270905 0.9530654 -0.10602493 -0.63806474 1.4892366 0.19989394 -0.5143568 0.5659704 0.5805575 0.36631876 0.1527589 0.7597063 -0.32957563 -0.4697924 -0.26051974 -0.30895796 0.43603656 0.5572814 0.15839374 -0.35764846 0.5863555 -0.27186486 0.043459482 -0.88032174 0.69864357 0.03387243 -0.29976413 0.9046306 -0.7880884 0.89838386 -0.29692236 0.066879526 0.9982995 -0.45510003 -0.5974732 -0.10006775 -0.89823973 0.21348971 1.0102404
156 -0.41531998 -0.45109913 -0.36245045 -0.62238795 -0.2172691 -1.0693268 0.061389904 0.39031354 0.38792288 -0.08706743 0.035216194 0.669576 0.34257498 -1.0998654 0.36106795 -0.68094087 -0.5583005 0.4078628 -0.29209068 1.3100601 0.95581454 -0.41883218 0.87316686 -0.3010156 0.099036984 0.18639682 0.36446002 -0.51740664 -0.041390922 0.04017268 0.22770987 0.2711097 0.4509018 0.5693776 0.05912464 -0.6067298 -0.008230525 0.07582399 -0.41696268 0.44280905 -0.62590724 0.7345644 0.40640375 -0.24834241 0.14837286 0.7678559 -0.47353435 -0.070764504 -0.4656101 -0.80202806 0.1839751 0.17089945 -0.024100194 -1.605641 0.8664206 0.92402136 0.50994146 0.81617886 -0.15873154 0.15579464 0.7666783 -0.12594587 -0.0766965 0.4600149
248 0.07550271 0.65944433 0.38570684 -0.7622833 0.0065639867 -0.44552484 0.5768101 1.4582227 0.33987758 0.95315623 0.39351773 0.33654025 -0.61151445 -0.2710655 0.44547132 -0.5415768 0.41384667 0.39723432 -0.051375702 -0.016994964 0.07828275 -0.2578418 0.46241853 0.16825102 -0.27723622 -0.34574723 -0.5653296 -1.0348011 -0.6603066 0.5296447 -0.044424836 -0.106636554 0.2984054 0.57919014 -0.10932997 -0.13022907 0.3205555 0.9938755 0.32050243 0.91991854 0.71301335 1.2082158 0.81957245 -0.25914386 -0.16640158 -0.2727012 -0.030013023 0.20989116 -0.039499745 -0.7883669 -0.9035524 -0.94176036 0.40779433 -1.130829 0.5431701 0.8016962 0.41421008 0.58169705 0.020379258 -0.1579717 -0.26151228 -0.3802962 0.88324845 0.43999255
365 -0.07720628 -0.8450489 -1.33836 -0.37997976 0.47363627 0.49735785 0.43983525 0.66011417 -0.24280986 -0.6706197 0.6123794 0.3266669 0.1742168 -0.9674556 0.61332643 0.024810435 0.5164471 0.3706345 0.5207559 0.3073395 0.38976586 -0.6592819 0.8803619 0.10259264 0.17518261 0.041325223 0.09854585 0.07364197 -0.47767192 0.7430478 0.10513935 -0.09956372 -0.37359217 -0.5230752 1.0533191 -0.12510507 0.9879882 0.38173375 -0.65213054 -0.25904405 0.47595808 0.76236486 0.31103227 0.20296836 -0.3562202 0.08260794 -0.0585685 0.6508843 -1.2222824 -0.22527707 0.7150083 0.32136324 0.050487462 -0.91858107 0.4440226 -0.2109864 0.21637903 0.9113154 -0.7632332 0.5224473 0.055695046 0.39964408 -0.20783633 1.2791673
632 -0.10347259 -0.6854546 0.44043103 -0.1793707 1.032343 0.041646894 0.45942178 0.5659623 -0.32376614 -0.056411106 0.243479 1.0143672 -0.47011593 -0.4868545 0.35981697 0.9485308 1.3560482 0.27365974 0.28679284 0.08289163 0.29232645 -0.96657383 0.66178846 -0.5281964 0.47241673 -0.6467146 -0.74309754 -0.47691754 -0.7530376 -0.21613233 0.47713828 -0.18633121 0.61250263 0.011293684 0.4973853 0.7591583 0.56072354 0.025111547 -0.38642108 -0.6144668 -0.022612527 0.68686414 0.44603798 0.24650994 -0.52570593 0.041740898 0.8959437 1.2433007 -0.23990013 0.96564555 -0.00451314 0.21041311 -0.18957521 -0.8143246 0.3918316 0.4237454 0.035029713 1.2528033 -0.36395395 0.5693295 -0.48023224 -0.975133 0.3987493 0.50414985
82 -0.77636623 -0.5539052 0.04120238 0.38332093 0.24081476 -0.059712466 -0.7013175 0.25233552 0.31062493 -0.6689693 0.68633455 0.007044726 -0.19898158 -0.58572435 -0.47858864 -0.8561804 -0.048266567 0.3141169 0.49936107 0.53634316 1.083112 -1.0921891 0.64374846 -0.36343998 -0.1995876 -0.8725445 -0.08548878 0.46320352 0.4519241 1.000331 -0.24326468 -0.49706352 -0.15651777 0.68934304 0.18166463 -0.098054074 1.0891335 0.21055925 -0.8454559 0.30696285 0.25170535 1.4520599 0.3981694 0.09458669 -1.1721594 0.043220375 0.17206804 -0.024592813 -0.51924425 0.43537286 0.090158254 -0.18336025 1.2715243 -0.70581806 0.8802841 0.8611642 -0.27215904 0.86514044 0.42794517 0.29299277 0.48001182 -0.31901535 -0.06585179 0.45036668
476 0.7734053 -0.11600162 -0.15235154 -0.7660844 0.14212957 0.06714941 0.14407445 0.35292315 -0.35371083 0.26551962 -0.22927797 0.2475762 -0.31768522 0.031841617 -0.518435 0.41660324 0.26420617 1.1994839 -0.19414096 1.1856785 0.20166373 -0.4438614 -0.0029619215 0.9672361 -0.49423644 -0.23739257 0.32993937 -0.36739215 -0.2880687 0.20660114 0.71586907 0.08605284 0.721598 0.83551043 0.16549279 0.19320892 0.15955001 0.6535457 0.18549147 0.5624321 -0.06165464 1.4416498 0.9911655 0.3811476 0.6047804 0.2762382 -0.33731103 0.19445881 0.66562694 0.2085121 -0.29545024 -0.0982493 0.6664944 -0.96996075 0.42422283 1.001519 -0.13377948 1.5569602 0.22913481 -0.08040975 -0.82700247 -0.5175786 0.57958704 0.86646235
167 -0.019299537 -0.20676951 -0.04178131 -0.37886336 0.4502303 -0.09740834 0.07750386 0.6657702 -0.05667158 0.17288229 0.14484623 0.4814571 -0.14668605 -0.67651886 0.099560626 0.060118217 0.2628458 0.41130936 -0.19935086 0.376261 0.7264221 -0.23458639 0.33387372 -0.11165047 0.12089494 -0.35253298 -0.042184323 -0.28467876 -0.18647899 0.39764985 0.46013176 -0.33636788 0.065354675 0.33601156 0.23014872 -0.044303194 0.6866841 0.5669447 -0.5680776 0.19119056 -0.09121139 1.0813704 0.34847075 0.26572025 -0.103305064 0.0076935994 0.23723917 0.23793098 -0.25236583 -0.040346526 0.13551873 -0.0152306855 0.39115942 -1.0222764 0.782612 0.5035386 0.39463162 0.92127496 -0.4422482 0.21697827 0.033423975 -0.1693795 0.39213118 0.60771626
221 -0.04068389 -0.052008443 0.16800982 -0.50806963 0.2912845 0.12683587 -0.012391242 0.58543813 0.13298969 0.09688288 0.17210057 0.39921287 -0.105128765 -0.66100556 0.09324443 -0.117565185 0.34917232 0.28957352 -0.21885853 0.48710343 0.77639073 -0.23794478 0.3944377 0.006314351 0.3267513 -0.55611783 0.05826822 -0.36767766 -0.22557864 0.49639237 0.49161398 -0.4316016 -0.069792755 0.28772005 0.41530135 -0.18037492 0.57420534 0.4722106 -0.33341303 -0.05491356 -0.17316563 0.89188284 0.33774704 0.10273079 -0.036194336 0.11818528 0.26751414 0.27508184 -0.3942084 0.02841625 0.13865186 0.13114785 0.3337822 -0.9135184 0.77515537 0.5978217 0.4503256 0.9676652 -0.22751628 0.100048274 -0.028522337 -0.28236374 0.4636983 0.4521149
42 0.017240617 -0.22453734 -0.00026415774 -0.47452566 0.48573345 -0.12144008 0.053866982 0.7231182 -0.07095494 0.2694145 0.18685386 0.51383656 -0.10794665 -0.73081887 0.13212916 0.051665112 0.3528518 0.46141255 -0.16315477 0.4670458 0.8270628 -0.35757503 0.41382515 -0.13607806 0.15554827 -0.41197717 0.019993506 -0.3667446 -0.1777455 0.40084788 0.5763107 -0.3971112 0.033590417 0.42896676 0.3374146 -0.050444257 0.8170612 0.7761283 -0.64257 0.2890331 -0.09812144 1.2348797 0.4270303 0.28029916 -0.13753293 -0.05355947 0.28865805 0.357729 -0.26128584 -0.07674947 0.13217819 -0.03624647 0.4419589 -1.2247663 0.9972028 0.54630214 0.5185124 1.0595945 -0.48435673 0.27102488 0.004848324 -0.19831958 0.46901911 0.72558117
577 -0.023267983 0.33514345 0.16823348 0.0337 0.47120854 -0.08285058 0.55953956 0.3788899 0.044649757 0.9236046 0.51252514 0.21517146 0.86880016 0.5646147 0.29246688 -0.42789096 0.4345517 1.0504584 -0.2179655 0.31867635 0.7131017 -0.26317504 1.2322221 -0.14769432 0.6932784 -0.56260294 0.5520808 -0.93679875 0.07225523 0.38456842 0.8145562 0.056747023 -0.091196164 0.7927667 0.7573655 1.1239572 0.4844518 0.79910654 -1.481059 0.20914745 -0.39998674 0.5585541 -0.10870779 0.22901288 -0.3997582 0.053369716 0.5679913 0.18626742 -0.33467013 0.40979183 -0.23425485 0.52639645 0.5251334 -0.61810154 0.34983003 0.20527165 0.35392538 0.48026204 0.18652913 -0.03222229 0.2176326 -0.18743515 1.3068429 0.6681871
399 0.48900834 -0.15570961 0.07658663 -1.3722957 1.1512518 -0.0012677218 -0.4871901 1.3668783 0.72978026 -0.014694984 -0.6165146 0.5247623 -0.22379494 -0.93845224 0.047833394 0.8980984 0.71974754 0.59538805 0.47692832 -0.32401147 0.76857996 0.16668466 0.4674926 -0.54770505 0.3809416 0.40848595 -0.81132525 -0.044484764 -0.25910527 0.70544577 0.55251664 -0.5899525 0.2589903 0.19862609 0.10804327 -0.28821525 0.020853404 0.46161428 -0.5559736 0.44138712 0.071709886 0.99244654 -0.051389065 0.6171992 -0.59928745 0.17819363 0.38325134 0.733521 0.008959329 -0.003438916 -0.022678588 -0.6150817 0.13120668 -0.977641 0.68217295 -0.63256556 0.6394263 0.28322712 -1.1594371 -0.21462859 0.6779222 -0.510182 0.45482442 0.14510481
370 0.58039236 -0.9816458 0.27116382 -0.43402454 0.2550136 0.5820936 -0.33615357 0.32282802 0.24808227 0.29379055 -0.4292022 0.49012277 -0.11617961 -1.2755458 0.52403605 0.39424056 -0.06269314 -0.43832955 0.5541504 0.7327026 0.8138507 0.6670482 -0.51631564 0.109499276 -0.13203523 -0.53703654 -0.49095738 -0.63165575 -0.6232931 0.36775836 0.106551625 -0.0032594264 0.38548657 0.29783842 0.30927438 0.19773671 -0.105102494 0.18625651 -0.76703954 0.03564972 0.32407576 1.2246656 -0.051183607 -0.28102967 0.6663761 1.0452702 0.7131533 0.076834574 -0.36395305 0.32091323 0.6409809 0.017245974 0.14692898 -1.8094025 0.90160674 0.42657864 1.1962814 0.9207416 -0.3142602 0.4740469 0.54811037 0.35728532 1.1176202 0.2869765
379 -0.63848925 -0.398842 -0.3179817 -0.07094565 0.32686883 0.14356937 -0.008498383 1.1279556 -0.18314303 -0.43338186 -0.37639803 -0.65862036 -0.7048816 -1.0113075 0.14005585 0.08856057 -0.09715854 0.5244653 -0.26901916 0.37144402 1.2234493 -0.074264675 0.4804666 -0.3116446 0.9517757 -0.4424095 0.5186879 -0.57445383 -0.3992656 0.8438842 -0.30620557 -0.603625 -0.23993969 0.27911097 0.24300964 0.2365579 1.0447071 -0.011317872 -0.12864675 -0.5117218 0.48523614 1.4045818 -0.058271218 0.2748606 -0.22061975 0.38851598 1.2329415 0.9690857 0.1980428 0.8776533 0.23561315 0.17468248 -0.25720474 -0.9635291 0.543047 -0.0075490917 0.891402 0.44988415 -0.22962303 0.98951775 0.32848078 -0.75368625 0.4044378 0.4333477
586 0.11147609 -0.020367993 -0.37925407 -1.0687586 0.90714204 0.8662785 0.45379627 0.52316713 0.08018066 -0.01594107 -0.5288952 0.41457292 -0.15781018 -0.3551889 0.42948836 -0.4937906 0.13991381 0.21693143 0.43100095 0.7367793 0.58301127 -0.54845244 0.09083937 0.026586503 0.8836253 -0.5718931 -0.6786271 -0.8388554 0.026485737 0.548939 0.28992605 -0.24509609 -1.285049 0.74571705 -0.14036727 0.033402417 -0.17483702 0.8271318 -0.60779494 0.45495003 -0.66946423 0.6799181 0.43838963 0.5696951 -0.18887438 -0.48003012 1.4785882 -0.18380019 -0.21407183 0.20326433 0.016213851 -0.49065354 -0.26485273 -0.4472135 0.7626477 0.7089035 0.25995886 1.0417724 -0.17018175 0.04193779 -0.55195796 0.59566575 0.4063991 0.7816609
206 -0.020397047 -0.22508027 0.058986705 -0.45359012 0.45830452 -0.06940939 0.059783142 0.6865412 -0.083021216 0.24781257 0.16748649 0.55246437 -0.09614926 -0.70034313 0.11369971 0.054968007 0.36454883 0.44485322 -0.1588748 0.4162132 0.7628491 -0.3248377 0.39573517 -0.07621042 0.14099398 -0.40693408 0.016162895 -0.33296797 -0.18325564 0.41368556 0.53615105 -0.35489762 0.040215693 0.40451178 0.3232288 -0.027122937 0.7341048 0.67953813 -0.576933 0.2627003 -0.062056553 1.1855768 0.3582361 0.253847 -0.1158536 -0.012636504 0.2963449 0.33294562 -0.24626054 -0.019433532 0.19133365 -0.09429908 0.43935373 -1.1528163 0.9745586 0.49094796 0.4731582 1.0184743 -0.46091023 0.24540834 0.025301727 -0.18545677 0.4357152 0.6722765
45 0.53852206 0.04377368 -0.031431347 0.1145886 0.9747209 0.53438634 0.06567558 1.0845445 -0.072891474 0.82160854 0.56402636 0.3318836 -0.2545477 -0.5873648 0.19600148 -1.155262 0.66882825 0.73960274 -0.24845217 0.208504 0.93891424 -0.5336886 0.7028762 -0.8071419 0.06922192 0.36624458 -0.17957547 0.18327506 0.06696153 0.78519756 0.8140574 0.644003 -0.3587169 0.40326124 -0.21009459 0.16856216 1.4414136 -0.26595807 0.038895596 0.51288974 0.2349479 1.6744128 0.25205666 0.27599055 -0.45033863 -0.83472747 0.09490333 0.069124825 -0.04412631 -0.34525046 -0.3439128 -0.47471672 0.4164571 -0.48744115 0.22121459 0.40988955 1.1873088 0.3167248 -0.6855898 0.26386356 -0.5280694 -0.73546135 -0.4059907 0.87050205
395 -0.2330389 0.13393088 0.04258239 0.41618076 0.25840598 -0.67979354 -0.928227 -0.32945174 0.22697319 0.49954885 -0.13436237 0.3978063 -0.57152915 -0.78365135 0.16305035 0.9868085 0.66913027 1.1811138 -0.050708342 0.082841545 1.3516763 -0.10082398 0.04018925 -0.159037 0.071769774 0.59604675 -0.04490959 -0.3357685 -0.068218045 0.2576873 0.58095574 0.7848902 0.43142435 0.1798412 -0.2633805 0.036447044 -0.19351046 0.71811205 -1.1128178 0.8278911 0.26401904 1.4993651 0.86117893 -0.086531416 -0.4641943 0.4021564 0.023840044 0.05515262 0.4499325 0.12905608 0.30966607 0.30224562 0.8744798 -1.7804104 0.56953096 0.20958705 1.206593 0.81670815 -0.20100614 0.1997646 0.12174575 -0.3941773 -0.117980115 0.47377098
174 0.050292812 0.5805467 -0.51004565 -0.40953407 0.8844419 -0.060805533 -0.11484936 1.0546445 -0.45263684 -0.39943263 0.13402118 0.22072741 0.032464508 -0.32790995 0.5366059 -0.1384483 -0.36188528 0.97235245 0.7264005 1.275522 0.9192823 -0.19510095 0.5199209 -0.54618174 -0.49867487 -0.67453265 0.11858048 0.37222064 0.5551733 0.35096914 -0.5665554 -0.70747745 -0.30440885 0.35810226 0.5897341 0.65785134 0.8688082 0.40655676 -0.8701608 0.36481184 -0.16167499 0.7220057 -0.5017074 0.50179344 0.36351046 -0.15276664 0.44898915 0.4426273 0.42112142 -0.75531274 0.09803252 -0.4316507 0.102242045 -0.574559 0.103391625 1.3457595 0.6535104 1.197922 -0.2676595 0.27130705 -0.5995151 -0.1881201 0.89590424 1.0750788
292 0.28463656 -0.9922373 -1.0875891 -0.20958637 0.23881906 -0.300226 0.6344313 0.3687482 0.28960067 0.6520148 -0.6650612 0.32218936 1.1102258 -0.49071482 -0.05790338 0.41125992 -0.01925736 0.560426 -0.806146 0.50591594 0.9924957 -0.69330895 0.8153224 -0.14866187 -0.23907432 0.008100162 0.02160575 0.08868393 -0.5329564 -0.05198707 0.9034609 -0.8381371 0.1148613 0.8168341 0.72747433 -0.2911434 1.7272968 0.83120644 -0.04219482 -0.08586624 -0.8809391 0.46479896 0.68192387 0.34385142 -0.10246923 -0.26102698 1.1032698 -0.06694518 0.3689965 -0.51699126 0.6185371 0.3241277 -0.15032154 -0.79710203 0.55793643 0.5190431 0.59008795 0.43952233 -0.69619596 0.1974607 0.0024366314 0.61310637 0.7668331 0.527162
215 0.045763806 -0.05520664 0.45721328 -0.3214188 0.14586167 -1.3567264 -0.4365078 0.693172 -0.7890663 0.25832802 0.8757067 -0.5685032 0.09964902 -1.0025411 0.06576484 -0.29806808 -0.065592706 0.5911252 -1.2876838 0.49914268 0.30423057 -0.19231571 0.11002055 -0.79001755 0.42948627 0.17083712 -0.39608768 0.24039255 0.5455377 0.08965103 0.3018016 -0.4771224 0.65417343 0.58895737 0.136279 0.5378688 0.44927108 1.8091208 -0.6411922 0.23878337 0.0365754 0.9848183 0.8904198 0.8721153 -0.3274439 0.36381558 0.15850483 0.43840116 -0.70634264 -0.56378096 -0.24388573 0.06909944 0.47713426 -1.0432593 0.4665879 -0.0010979272 0.19481872 0.79446256 0.16908512 0.37743604 0.05526967 0.66754156 0.5772696 0.24617843
573 -0.93697995 0.13779594 0.024196994 -0.9976314 0.07742043 -0.87001336 -0.75422204 1.3152655 0.5081533 -0.25425276 -0.03135833 0.2778374 -0.17512418 -0.6107721 -0.17033458 -0.14511055 0.40535587 0.93348074 -0.3425799 0.26570746 0.16472723 0.24597572 0.45879364 0.066555195 0.33771464 -0.38954747 -0.5165102 -1.0700442 0.36632398 0.7981168 0.6388854 -0.5463788 -0.8906278 -0.08772513 -0.37023297 0.14524095 0.20814708 0.40166947 -0.61025214 -0.022877725 0.36150005 0.858913 -0.23641133 0.41333646 0.59012884 0.7132549 -0.25512603 0.41912183 0.06862396 0.33487964 -0.45264643 -0.543117 0.4682036 -1.0789561 1.2999699 0.25829682 -0.5046949 1.6143258 -0.14333807 0.2842108 0.7126801 -0.121954575 -0.150048 0.6697081
473 0.8115367 -0.505371 0.81658787 -0.8066661 -0.30113998 -0.20358352 -0.09965465 0.3896528 0.5952258 -0.15159115 -0.13436264 0.40791744 0.40343064 -0.6977189 -0.6448457 0.13987815 0.037598766 0.6835456 -0.16448028 0.60830396 0.6922112 -0.107769325 0.028186543 -0.7129115 0.18152912 -0.8215271 -0.48268765 -0.46397597 -0.5252914 0.15088299 0.016026406 -0.1693925 0.4184754 0.6381211 -0.22491008 1.0467637 0.5589164 0.5074896 -0.07911811 0.27224937 -1.0135738 1.0340862 -0.36116526 -0.38833565 0.3134621 -0.45348978 0.8051712 0.0130424285 -1.0648814 0.019768892 -0.23824307 0.15722735 0.3611539 -1.8446708 0.37033305 0.5550438 0.38953462 0.5455573 0.28475666 -0.28144667 -0.26820123 -0.29579392 0.99519587 1.1887664
98 -0.47534907 -0.5476824 -0.04961112 -0.39691442 0.79710835 -0.673537 0.21205854 0.25458243 0.47247165 -0.6094788 -0.5194051 0.010245434 0.60091597 -0.32043922 -0.06468334 -0.33067396 0.26577806 0.3338372 -0.46451318 0.6847722 -0.06763929 0.6029149 0.38624558 -0.06531664 -0.7455158 -0.012012969 0.07512076 0.1915039 0.51131195 0.84597224 0.7323766 -0.24991597 -0.35510525 1.1036258 -0.80827177 -0.62890106 0.87771916 0.53015596 -0.52891785 0.3271638 0.48485813 1.1625187 1.1792568 -0.14286011 0.014625746 -0.2902717 -0.19134793 0.2701056 -0.4277469 -0.92502004 0.29131606 -0.35170865 -0.21680112 -0.85727423 1.5917605 0.495133 0.69017905 1.5501823 -0.2482225 -0.05843306 -0.28536245 -0.34290925 0.28464407 0.33225083
152 0.63733387 -0.08375185 0.22138573 -0.7472973 0.34442973 0.21856017 -0.3408085 0.6954645 -1.493811 0.48130924 1.3025594 0.16648515 -0.4823414 -0.6912432 1.036329 0.4246686 0.023102343 0.5280721 0.4204478 0.20923084 0.7293413 0.06705458 0.68260425 1.0223743 -0.14553013 -0.28868964 -0.056582097 -0.26117182 0.90056175 0.5851336 0.4570147 0.5108269 0.48860532 0.9109218 -0.5636261 0.15648296 0.12137929 0.79439104 -0.7258517 0.18378605 0.34182632 1.4368625 0.021698397 0.061140064 0.21695296 0.10519587 -0.23108983 -0.28126702 -0.5116186 -0.5023684 -0.15401894 0.16109017 0.48819917 -1.6841714 0.6804573 1.0810006 0.30411568 1.171613 0.3304212 -0.64650077 -0.0004213858 -0.5565595 0.2485498 0.41303113
397 -0.38247427 -0.50899535 -0.755857 -0.6579185 0.47969523 0.49097148 0.14337686 -0.33996296 -0.19287148 0.49464363 -0.24126823 0.14123304 0.26250574 -0.6642513 0.7837665 -0.5102093 -0.1897154 0.98874134 -0.46789023 0.64841366 0.8807565 -1.1796786 1.0721328 -0.7350186 -0.22467892 -0.38903937 -0.55373687 -0.4688246 -0.07147297 -0.015188437 -0.4450133 -0.7721754 -0.15370484 -0.08901621 -0.058664594 -0.59442925 0.4047764 0.8654302 -0.067050934 0.38045862 0.36135757 0.83566964 0.690088 0.16051133 -0.026640568 -1.025093 -0.55882466 0.44819742 -0.30899906 0.619067 0.32947898 -0.5469738 0.3211844 -1.0414933 1.2186733 -0.12529896 0.18424283 0.6033202 0.16967687 0.35882223 0.45237345 -0.57849455 0.9510197 0.614
475 -0.31882775 -1.2098289 0.6986476 -0.81046045 0.33500835 -0.2846988 0.08728541 0.37761503 -0.4023549 0.40737876 -0.7647264 0.95484704 0.33678424 -0.1792019 -0.38471305 0.21519767 0.62805355 0.43152687 -0.3507818 0.7429725 0.5777838 0.0978032 0.5705598 -0.05646798 0.36385936 -0.08676814 -0.2825902 -1.4559301 -0.023103788 0.67507565 -0.32752648 0.3845586 0.31429142 -0.47745198 0.9417565 -0.38450447 -0.24667399 0.21618323 -0.5685246 0.7738661 0.17930134 0.8864726 0.050457716 -0.08679516 -0.19350019 0.058691654 0.4074033 0.55239874 0.35267508 -0.14231946 0.13344957 -0.20118247 0.55162716 -1.3195475 0.32892784 0.7075249 0.3605377 0.50029105 -0.58786327 -0.231835 0.77767515 -0.37511656 0.892168 0.98149395
653 0.48704624 -0.89098006 0.29316154 -1.1174364 0.93373495 0.50438946 0.70822024 1.6099875 0.12872264 0.2525115 0.5585872 -0.09238229 0.113986395 0.19094494 -0.15209585 0.29443285 0.17329098 0.19039081 0.22983597 0.72021216 0.7695436 0.45129114 0.8388823 0.32738772 0.35030746 -0.36688283 -0.36828864 0.5879084 -0.5450362 1.0576838 0.50379413 0.24883758 0.8192534 0.08376022 -0.1193519 0.32898757 0.6818935 0.66061586 0.24255681 0.5650624 -0.0017215868 0.112967454 0.26414478 0.019683965 -0.0043665282 -0.35176003 -0.28040573 0.026704773 0.20403473 -0.62500864 0.1463945 0.5858262 0.39489135 -1.43381 1.1717948 0.2388333 0.14515989 1.032722 -0.45945266 0.11796711 -0.48571184 -0.2129814 0.2730381 0.6688404
138 0.4036582 -0.5799437 0.56262696 -0.015722796 0.8827732 0.49318084 0.5733185 0.41190767 0.5798766 -0.6113237 0.55267054 0.74540067 0.80546737 -1.0436414 -0.5739628 -0.30084506 0.5434051 0.5106569 -0.011915176 0.3789946 0.80652356 0.45908013 -0.17248365 -0.013957355 0.044949647 -1.0824506 0.32890865 -0.5005205 -0.027467757 0.19263536 0.11706886 -0.51221484 0.40979385 0.52018213 -0.07073583 0.2754221 1.0193467 -0.038266234 -0.19890322 -0.752554 0.75524753 1.4435152 0.11286023 0.43940538 -0.29571527 -0.07317363 0.388295 0.30953044 0.7378681 -0.010518106 0.059801012 -0.3893773 1.1845487 -0.47566372 0.91243863 0.87247646 0.44879293 0.6198066 -0.2515542 0.19157764 0.039139643 -0.34795457 1.2854277 -0.010856387
341 -0.24912305 0.46060768 0.18623556 0.07261823 0.46197462 0.040531747 0.9648953 0.6783269 -0.20182198 -0.12645948 -0.426379 1.010568 0.48091525 -0.82966644 0.7498201 0.1065513 0.55972224 0.18980883 -0.4623911 0.15148926 0.2441397 -0.10175182 0.96278375 0.16787118 -0.031342164 0.16701427 0.24890225 -0.5812509 0.835952 0.5644151 1.4146317 -0.44430155 0.11457609 0.6356754 -0.19366486 1.1430295 0.60167074 1.0891584 -0.18304978 -0.8713082 -0.79163253 0.74696714 0.8861133 0.5107044 -0.31115794 -0.06776837 0.07093876 0.19790187 -0.3491891 -0.0833501 0.34878343 -0.17720158 0.2100345 -0.5502346 1.1586525 -0.12771809 0.03093981 0.6390128 -1.1316986 0.19360746 -0.16949221 -0.88912654 -0.48711497 1.2013243
49 -0.35842004 -0.24476829 0.29381475 -1.2036114 -0.01460357 -0.18033125 -0.15892927 0.37293097 -0.1754409 -0.32904476 0.045326795 0.98828775 -0.22122326 -0.088939086 -0.64817077 0.12384955 -0.39268783 0.3568502 -0.45151386 -0.4438285 0.60132545 0.014825736 0.068923935 -0.080561444 0.26315436 -0.495347 0.2630845 -0.10695502 -0.365843 0.19119808 0.01697085 -0.8145151 -0.47815156 0.3318812 0.19232078 0.17282963 0.29681486 -0.36382538 -0.89883876 -0.049069796 0.5407335 1.4420791 0.2996877 0.5004929 0.3695735 0.51393116 0.25755265 -0.32837635 0.36936083 1.2747823 -0.13097905 0.31193158 0.9691984 -1.3710052 1.171695 1.0604942 -0.12058634 0.8287795 -1.0797793 -0.009173268 -0.76492614 -0.12779896 -0.050781496 0.7167519
322 -0.013965932 -0.18965657 0.038312104 -0.45536083 0.49627566 -0.106954426 0.07456562 0.6775538 -0.0845846 0.23632136 0.18547064 0.5328736 -0.091728166 -0.7435309 0.113126464 0.06862204 0.34010166 0.4729937 -0.17555454 0.43921974 0.78193593 -0.3284927 0.3841464 -0.17050771 0.1621826 -0.35266906 -0.042055003 -0.30504966 -0.17013213 0.44188648 0.55099595 -0.38608024 0.0491183 0.4194941 0.3048561 -0.023202106 0.79099715 0.72273386 -0.6040653 0.2671938 -0.10891789 1.1707897 0.38970092 0.28292033 -0.13681553 0.0034429622 0.27943712 0.35284442 -0.26509532 -0.06993397 0.12359257 -0.039049804 0.41064337 -1.14623 0.93986386 0.51023996 0.4901355 1.0117825 -0.5184215 0.25366196 0.025576709 -0.16811189 0.4028267 0.72741866
272 -0.3314925 0.02525716 0.026179682 -0.5277148 0.33256418 -1.0330682 0.28956062 -0.00849941 -0.19985853 -0.20734474 -0.94016457 -0.07598231 -0.876973 0.24780077 0.086981446 -0.5709479 -0.15556166 0.15499061 -0.1670993 -0.21977328 0.5924661 0.23940225 -0.21042986 -1.1877134 -0.14737403 -0.12205674 -0.305895 -0.401189 -1.302069 0.61664116 0.13617487 -0.50325435 -0.06707466 0.38272518 0.6509137 -0.46179298 0.6946585 0.59648305 -1.363352 0.30055574 0.248089 2.1271627 0.42118967 0.54358476 -0.80820537 -0.21394734 -0.36841458 -0.31010357 -0.43292516 -0.2611039 0.21217982 -0.225261 0.054245315 -1.1293528 1.1673167 0.10458005 0.6874466 0.49625424 -0.67424655 0.70396084 0.52253836 -0.13539763 0.30333364 0.23074064
176 0.26437494 -0.6739468 0.4605306 -0.67639095 -0.3965396 -0.24716198 -0.119384415 1.0137185 -0.13983884 0.84154916 0.555657 0.3564424 0.15178771 -0.24658324 0.07139398 -0.76339203 0.5154541 0.029046603 -0.42033422 -0.08004469 1.232033 -1.0681874 0.8993866 0.6783965 -0.05321908 -0.4086421 0.57220984 -0.25413287 0.3399163 -0.012542422 0.86472434 -0.86994004 -0.23203179 -0.24319555 -0.24300297 -0.898815 0.75400203 0.19354767 -0.5971739 -0.39386654 -0.72255576 0.9080875 0.23280868 -0.00195918 0.4688989 0.48370734 -0.19015968 0.9259679 0.10187326 -0.67364466 -0.12402041 -0.53487223 0.8447321 -0.9536031 0.65690684 0.0742011 0.50369424 0.045226112 0.14515667 0.24060714 -0.62411225 -0.4319464 0.21620302 0.66394603
306 0.1576008 0.45538613 -0.46615186 0.024827085 -0.13959585 -0.18664284 -0.4709129 0.3276894 0.45671514 -0.40799457 0.47860146 0.23042907 0.195884 -0.9292387 -0.22890459 -0.4689004 0.569195 0.21794878 -0.027644673 0.5381415 0.424246 0.09527362 -0.21506944 -0.2137267 0.6802437 0.09979894 0.013926923 -0.33426815 -1.0947181 0.067003295 0.2119554 -0.26534835 -0.77813214 1.4355015 0.0029607986 0.11414318 0.26625153 1.2588534 -0.28104314 0.086722754 0.3979017 1.399755 0.39182472 0.14822206 -0.0035084817 0.7184707 -0.24399716 0.43348524 -0.30187377 0.022130543 0.9958883 -0.4950088 -0.04001618 -1.2090644 0.30804768 -0.29433048 0.15852039 1.3545303 -1.127249 0.9875013 -0.1968893 -0.7178902 0.7501274 0.21461494
439 0.00053009193 -0.2638803 -0.909015 0.67058986 0.52093697 -0.13550167 -0.050284114 0.15122277 -0.38443834 0.994088 -0.5036732 0.6297724 0.14666194 -0.97534347 -0.06826123 0.5291962 0.079711966 0.31447798 -0.54698384 1.083002 0.8141419 0.06917978 0.60488707 -0.4183161 0.56798995 -0.68540823 1.1625869 -0.112561785 0.7507145 0.63076884 0.66542596 -0.44861308 0.09567406 0.929827 0.34019086 -0.3283844 0.7604285 0.50781274 -0.42151022 -0.27786717 0.019790476 1.5533067 0.2462456 -0.853431 0.22325496 0.45608833 -0.4109572 -0.09598371 -0.5086421 -0.033048354 0.07506385 0.6326841 0.03886856 -0.6540931 -0.10218461 0.024554782 0.31079072 0.9261656 -0.7540686 0.43166617 -0.7971493 0.018125294 0.29244643 1.1016071
649 0.52984583 -0.4863028 -0.078759775 -0.16168629 0.5372155 0.44124302 -0.15633555 0.41471106 -0.3890017 0.372962 0.31603584 0.4681982 -0.14568318 -0.2264834 0.32316613 1.0057579 0.7072028 -0.050101917 -0.2792705 -0.40870425 1.2942699 0.77991325 -0.18919514 -0.68757004 0.6260009 -0.6287273 0.44070438 -0.051385995 -0.09567614 1.0224824 0.95259815 -0.21720567 -0.3488724 -0.1084953 -0.046924155 0.39389944 0.22954123 0.7749521 -0.66116166 0.973013 0.034315187 1.6401217 -0.5798936 0.24862024 0.11549023 -0.27396107 0.47687957 0.8205867 -0.025777167 0.93492526 -0.42415857 0.44003433 1.3214685 -0.90889865 0.62289274 0.30047902 1.0689315 0.36476073 -0.399869 -0.087641634 0.60239 0.16651064 -0.49670917 0.857342
7 -0.5711016 0.23763919 0.09092713 -0.7506302 -0.17065004 -0.53562415 0.82043254 1.1448975 -0.20412172 -0.27433768 0.6894972 0.0017472175 -0.0972432 -0.3286686 -0.049099613 0.3613997 -0.5684597 0.7940034 -0.11905146 -0.7715975 0.84914297 -0.1408305 0.5563465 -0.4257415 0.43772808 0.2575261 -0.7140274 -1.1112213 0.13748454 0.16510652 0.33011276 0.06960027 -0.2150989 -0.39066425 0.5874804 0.20173572 0.72439677 0.7494841 -0.6521659 0.4403942 -0.2694734 0.60172623 0.6340755 0.6539946 -0.38349497 -0.057881802 0.3812328 0.0970249 -0.67885065 0.16021183 0.3501217 -0.06968397 0.97547114 -1.1482322 0.4567781 -0.6608719 -0.18332392 1.3885447 -0.34583274 1.0793191 -0.21671936 -0.6047811 0.9496933 0.3818852
77 -0.41360724 -0.46005988 0.40739635 -1.2601761 0.78101397 -0.2730772 0.61710566 0.3386286 -0.30639553 0.61141706 0.12519437 0.5763173 0.3543599 -0.8718669 -0.5261955 0.048217174 0.39745408 0.9359072 0.2525821 0.8859208 0.039313532 -0.6155377 0.9240229 -1.2994823 0.56116974 0.58952236 0.34601694 0.576773 -0.43524018 -0.61728805 0.19145 -0.26242316 1.0870327 0.4458706 0.108577296 0.16999061 0.6320476 0.08125778 0.116282254 0.4533748 0.5187719 1.4270335 0.3969017 -0.19832325 -0.31899628 0.025136856 0.38305193 0.5806865 -0.29592982 -0.06540501 0.06850438 -0.3337846 0.38700005 -0.90921956 0.5931384 -0.29887453 0.7021655 0.39305037 -0.872083 0.56233203 -0.033362698 -0.4314008 0.5086764 0.8792828
641 0.64702255 -0.38868076 -0.29788923 -0.63873947 0.5359757 -0.07800587 0.2799078 0.15443864 -0.9796973 0.3940832 0.21270156 0.6616079 -0.035776198 -0.5238401 -0.4479069 -0.94035155 0.40565673 -0.12249809 -0.22264433 0.57753766 0.8146235 -0.13936841 -0.16566767 0.2682326 0.06965338 -0.11662389 0.09505007 -0.28578392 0.30790406 0.49257568 1.0974203 -0.13768838 -0.39879033 -0.67456234 0.29742172 -0.908502 0.4178719 2.009854 -1.4568326 0.6355845 -0.1141451 1.5602437 0.28714657 -0.6252929 -0.49251914 0.02114924 0.41050294 0.1695876 -0.26829877 -0.29061466 -0.32174408 0.46162552 -0.09093836 -0.58119637 0.43927535 0.73005694 0.23251669 1.052008 -0.23560533 0.45762098 0.40759826 0.039994974 -0.44942644 -0.12339857
118 0.802981 0.29746085 -0.9878394 -0.57073593 0.40685266 -0.21714284 -0.09462011 0.3342782 -0.1968974 0.78322226 0.08856051 0.5159536 -0.030964857 0.11190077 0.14486909 0.36051327 0.61466753 0.4984635 -0.34488449 0.19675097 1.4174865 -0.2759071 0.9612751 0.3124723 0.09208286 -0.5480995 0.8474323 0.5685031 -0.009984991 0.65479016 0.21897064 0.70082784 -0.08922892 0.72267365 -0.5487229 -0.6524734 1.1088909 0.78880036 -0.57720697 1.2357893 -0.47255445 0.4509546 0.31990308 0.10445114 -0.22776876 -0.5866097 0.12738322 0.09233332 0.014242759 -0.6870639 -0.19953498 -0.48028937 0.25949726 -1.0730958 1.2739877 0.62679416 0.35006163 0.7147018 0.15587711 -0.25903472 -0.4798664 0.43437544 0.007971854 1.5052824
494 0.22715262 -0.7773026 1.0632206 -0.8329565 0.68173003 -0.21137016 0.25097296 1.193788 0.13656583 0.043582205 0.6157744 -0.10578562 1.035398 -0.4959947 -0.29112443 -0.09926618 0.09182113 0.6136286 -0.57145274 0.724203 0.89801455 -0.8980545 0.6341106 0.28071463 0.9247781 -0.60566026 -0.2939402 -0.07023369 -0.4884553 0.29589432 0.4927232 -0.13366859 0.31785652 -0.02155629 0.012104248 -0.13991712 0.07155248 0.36204886 -0.8092054 -0.46986616 -0.5239632 0.93999016 -0.91292286 0.55717456 -0.34283915 -0.20011887 0.7771982 0.09178115 -0.31679732 -0.039926615 0.59999526 -0.1561127 -0.009432168 -0.88353074 1.0651065 0.66459954 -0.28742212 0.9807486 -0.2784115 0.4938425 0.65417933 0.64243895 -0.23249692 0.065843575
251 0.036885954 -0.86230147 0.29254487 -0.36545414 0.3986228 -0.1974061 -0.48383412 0.5599588 0.010665498 0.1671565 0.6094369 0.62086654 -0.3241108 -0.13976118 0.338653 0.38039055 -0.13329901 -0.16665906 0.03720989 0.10752467 0.08881797 -1.1839972 1.0919018 -0.5614449 0.40952662 0.24341862 0.6679873 -0.8605396 0.18885134 -0.21463227 0.44382432 -0.4282406 -0.5437547 0.20633851 0.69086385 -0.15085606 0.48830932 1.2010753 -0.3199201 0.022666054 -0.24449757 0.6826281 0.6094497 0.62397087 -0.20491508 -0.36476496 -0.572575 -0.77178776 0.79858273 -0.44164872 0.43533456 -0.39200056 0.012038455 -1.2026757 1.3608971 0.1097971 0.63995135 0.7299025 -0.4925099 0.20157407 -0.67916584 -0.46397412 -0.18958853 0.8871412
523 -0.21074693 -0.07317104 0.019262094 -0.37946856 0.042794902 0.18446955 0.2854219 -0.10147752 -0.17734042 0.65646034 0.10813885 0.99098116 0.11152444 -0.2803451 0.49449915 0.05869772 -0.06475863 0.17588614 -0.6009551 -0.32815817 1.1083684 -0.119707815 0.8506869 0.9949689 0.6175742 0.58328485 0.41929236 -0.26545727 -0.09613497 0.55759513 0.6150774 -0.47089094 0.38510638 1.0681212 0.4424818 -0.30714452 0.49412113 0.580898 -0.3541369 0.805448 0.4725134 1.260216 0.09902154 0.6287232 -0.56545734 -0.02067384 -0.37439984 0.34728602 -0.52871627 -0.9728765 -0.16698371 0.4549226 0.17682411 -0.524241 0.57967395 -0.41962257 0.4202268 0.6350926 -0.30709252 0.6674405 0.7669327 0.16821204 0.9393663 1.4463614
56 -0.25915164 1.0292526 -0.6218066 -0.7539903 0.66155654 -0.62604076 0.34503567 0.8457519 -0.09788975 -0.38962758 0.15027335 0.3331944 -1.1034211 -0.73719484 0.10567432 -0.20677269 0.5031839 -0.31877816 -0.3977475 0.9821463 0.6227508 0.073294684 0.9957033 -0.23034877 0.1756925 -0.20566587 0.06992438 0.082774796 -0.21819755 0.27938446 0.2710051 -0.61616874 -0.073740795 0.2116439 0.14849658 0.8552101 0.76443076 0.49358588 -0.6979226 -0.6069154 -0.65486485 0.60977095 -0.19084792 0.35505053 -0.15395784 0.050509177 -0.44469264 1.1720002 -0.6751948 -0.30425128 -0.050096374 -0.5576569 0.76172394 -0.9841131 0.7518533 0.4278156 -0.46914497 0.9474522 0.1927472 0.40151834 -0.28384733 -0.07378306 0.08857024 1.1802559
190 -0.66541183 -0.47998255 0.5442604 0.15195476 0.5359593 -0.40320536 0.1895633 0.5875868 0.108874016 0.0757042 -0.82001615 0.005331446 0.44637996 -1.0708976 -0.18676099 -0.17208295 0.9009686 0.12320326 -0.20036955 0.65133214 0.23762949 -0.37472796 0.5365297 0.6028571 0.24643643 -0.59686965 0.32225645 0.31859112 -1.028187 0.09738863 0.88840586 -0.8125747 0.13149738 0.358227 0.6156969 -0.1368657 0.997325 0.26318163 -0.45526946 0.5449612 1.1398947 0.7113027 0.1706496 0.5819316 0.34668913 -0.44089893 0.49820223 0.10568305 0.21117721 0.33350268 -0.33809397 -0.58798367 0.7765702 -1.413493 0.5546046 0.009241733 0.5781049 0.49122965 -0.24366215 0.114042886 0.24508841 -0.56722903 -0.6523208 0.57988524
64 0.37480772 -0.17545941 0.8152801 -0.3925576 0.7524321 -0.33501783 -0.35028866 0.6716701 -0.08800219 0.07846342 0.2835058 0.32739526 0.24191521 0.016381131 -0.4743064 0.17790037 0.065661155 0.51867193 -0.49150854 0.18879297 1.5075967 -0.93439955 -0.0061544925 0.34173733 0.22656709 -0.028505307 0.4405253 0.28550684 -0.14644544 -0.236397 0.11430604 1.142291 0.14701673 0.4981646 0.30137452 -0.10247024 0.5517054 -0.12607534 -0.88938725 0.63250405 -0.63021624 0.67913103 1.1613171 0.23410898 0.35316336 -0.36697313 1.1352148 0.14261548 -0.68196684 -0.2352147 0.23928489 -0.3120227 0.79503846 -0.78759456 0.94843894 0.59943813 0.21224494 0.57356954 -0.22178464 0.7912368 0.51193726 -0.3842641 1.0200046 0.3804709
55 -0.19181864 1.058275 -0.6602631 -0.6941136 0.70292586 -0.6428178 0.3791807 0.84735674 -0.13263474 -0.37701005 0.15115727 0.32135004 -1.1269453 -0.7532487 0.12552117 -0.1875187 0.48052913 -0.30851454 -0.3861053 1.0481422 0.6466968 0.0143969385 0.9566268 -0.26466957 0.10973219 -0.1620222 0.0583689 0.14812432 -0.19080612 0.25995034 0.27015814 -0.64802223 -0.03945804 0.23728597 0.18470012 0.8593306 0.8200424 0.5448929 -0.7113474 -0.6250645 -0.68942356 0.64571357 -0.16305897 0.38605124 -0.17690906 0.070303075 -0.46565327 1.1668441 -0.6612406 -0.38737082 0.0107476115 -0.5358524 0.76996505 -1.0043857 0.7214939 0.44309306 -0.46180323 0.9450544 0.16481426 0.3711375 -0.36449468 -0.08609665 0.10792389 1.2017593
405 0.32538396 -0.17953199 0.8535703 -0.3984269 0.7095886 -0.34248817 -0.29811943 0.5723699 -0.1518198 0.007310459 0.2542992 0.3422449 0.19997847 0.031400457 -0.49092504 0.18085837 0.044192854 0.49436182 -0.56278795 0.18031192 1.452225 -0.95240116 -0.03432692 0.285581 0.20191962 -0.10513224 0.4518665 0.3122407 -0.17084235 -0.24108799 0.13194901 1.1240762 0.10299109 0.53428197 0.26380444 -0.11527855 0.5501678 -0.14640263 -0.8544092 0.6990638 -0.5628365 0.7018942 1.142817 0.23529212 0.2715362 -0.39679548 1.1334357 0.14561439 -0.66440946 -0.17845398 0.21644023 -0.32271805 0.79606473 -0.7178293 0.89799696 0.6085693 0.23587883 0.5984835 -0.17460378 0.8276744 0.49143478 -0.42949033 0.98722386 0.46831566
602 -0.7103983 -0.5502341 0.5949864 0.1940321 0.55593497 -0.46253318 0.15648936 0.61598265 0.14411816 0.06534266 -0.8267054 0.024446834 0.47314453 -1.105312 -0.19635083 -0.13989733 0.9056328 0.1497896 -0.19237037 0.6389641 0.25165278 -0.35403815 0.5754628 0.5801991 0.26551372 -0.6416542 0.2966413 0.30914357 -1.0173777 0.04665774 0.9150423 -0.8360751 0.17922604 0.38127336 0.5717017 -0.16326863 1.0008768 0.2480141 -0.49733347 0.5524046 1.1507676 0.7095849 0.17022389 0.61526644 0.36974812 -0.45275098 0.49655724 0.07717629 0.21467346 0.37962976 -0.33952573 -0.6342791 0.8004746 -1.4549732 0.5883377 0.00033811477 0.6392908 0.49792132 -0.20369487 0.14933072 0.27709776 -0.60060817 -0.6331296 0.59112024
223 -0.25720572 -0.13780987 0.112178914 -0.42044485 0.02558527 0.19225682 0.30114007 -0.041350823 -0.16864502 0.6349401 0.15837277 0.9299443 0.12274833 -0.2592782 0.59199303 0.053079586 -0.07196621 0.210866 -0.5235753 -0.33400843 1.0845059 -0.07591249 0.8030217 0.99482805 0.62952906 0.62829345 0.42712688 -0.19832031 -0.15751006 0.493325 0.6412125 -0.415698 0.428465 0.95532435 0.44912872 -0.28293464 0.46153274 0.5812958 -0.32980305 0.81938535 0.5974895 1.3016962 0.11802843 0.6870246 -0.5047204 -0.036372595 -0.40022627 0.3209694 -0.47127673 -1.0356044 -0.16193229 0.45001748 0.12106088 -0.52679676 0.5500184 -0.44107231 0.40982288 0.6226692 -0.27815893 0.66328764 0.762011 0.13376085 0.894122 1.4614592
403 0.23817444 -0.75991845 0.9609722 -0.79099506 0.7148143 -0.17476615 0.28280208 1.1448344 0.1572161 0.027136104 0.5899192 -0.05543135 0.97189033 -0.5488256 -0.2600956 -0.063588224 0.024256643 0.6037907 -0.5842647 0.6903136 0.90379477 -0.948897 0.6602276 0.2892728 0.94313806 -0.6003254 -0.20742132 -0.08171068 -0.45816863 0.24273197 0.5315435 -0.10901473 0.36086652 -0.010763177 -0.0326317 -0.13332927 0.059948567 0.3679106 -0.8106677 -0.49500227 -0.57252604 0.9654803 -0.9054863 0.50531715 -0.4197966 -0.24074703 0.73207504 0.14110383 -0.26965013 -0.05100271 0.5599621 -0.12383223 -0.11352386 -0.88241 0.98400325 0.6414639 -0.3184719 0.93426114 -0.24248424 0.48059863 0.60739255 0.6403363 -0.22741339 0.115855746
250 0.08017696 -0.87007785 0.1927152 -0.32032722 0.3667267 -0.18596506 -0.46387148 0.5513587 -0.011295448 0.14740367 0.5488398 0.6539623 -0.2748368 -0.17736758 0.31824574 0.39148778 -0.12147336 -0.21741888 0.013299149 0.17513321 0.0621855 -1.125336 1.1683143 -0.52451277 0.40813822 0.25509906 0.67099875 -0.81370205 0.15856624 -0.27548143 0.43853232 -0.47814605 -0.61875945 0.26581973 0.66885376 -0.17321752 0.49251306 1.1392902 -0.3293084 0.031278744 -0.2266047 0.58727944 0.6307427 0.5659029 -0.22914977 -0.42117852 -0.56530577 -0.74108106 0.75191325 -0.5444083 0.39417335 -0.4025576 0.008836917 -1.1981235 1.3183289 0.08588052 0.64745456 0.7230812 -0.46177262 0.24511085 -0.6633508 -0.41408166 -0.121597104 0.8815679
310 0.008229489 -0.1884709 0.21858875 0.66567546 0.2772673 0.1931229 0.15059942 0.5127077 0.6649569 0.53056806 0.17943172 1.0951197 -0.68881136 -0.19245197 -0.1656393 0.0919895 -0.35703865 0.44033337 -0.65265435 0.5726299 0.926444 0.06148665 0.423735 -1.0873404 0.16038768 -0.85739046 -0.48138514 -0.13483481 0.00461958 1.058765 0.14548963 0.05274738 0.4955896 0.46608514 0.24626373 0.16042523 0.4340086 0.9071333 -0.45802537 0.7293817 0.22306852 1.5267628 0.5433209 0.19753319 0.08169148 0.58114564 0.12466667 0.55590403 -0.65450275 0.91840315 1.1104039 -0.2930762 0.8777462 -0.72377807 0.38152033 0.15154822 0.015538526 0.46756878 -0.8502792 0.3624146 -0.33270913 -0.1384967 -0.19187841 -0.3453436
354 -0.79546773 -0.20280412 0.058924876 -1.175231 0.5501079 0.74694663 0.3016057 0.38601133 -0.38546923 -0.08790079 0.21618897 1.0918311 -0.5355991 -0.4615584 0.14763746 0.17559695 0.65409374 0.50553584 -0.74976 0.79156625 0.2034419 -0.30147567 0.22155538 -0.59019005 -0.037076075 0.22378314 0.85817605 0.35752794 -0.44163978 0.95626026 0.47223002 -0.3369428 -0.118594654 0.4642157 0.20669498 0.12091258 0.49340305 0.61999524 0.2577318 0.4266602 0.1915704 0.5287475 -0.59149456 -0.47549233 -0.84383506 0.31871992 -0.27239546 0.6125241 -0.07347199 -0.1337213 0.62925696 0.20106326 -0.060222372 -1.6746426 0.60823935 0.9108018 0.82516426 0.71654457 -0.24438974 -0.35598373 -0.02384545 -0.1927152 -0.62783146 0.9015334
155 0.020114841 -0.13829517 0.23595439 0.67974705 0.23938534 0.15206143 0.17176974 0.5126367 0.64804584 0.48493898 0.15273018 1.125661 -0.68353665 -0.25221306 -0.11896485 0.07727099 -0.37958366 0.4508894 -0.70779186 0.5358761 0.8984975 0.037255734 0.4771424 -1.1193006 0.17380822 -0.8379848 -0.48906446 -0.13501884 0.020514362 1.0266411 0.19063354 0.029045148 0.46933043 0.4788855 0.21966495 0.11420812 0.43314898 0.92106694 -0.5111305 0.75615 0.20843072 1.494795 0.5456064 0.20708044 0.1454083 0.5451313 0.19209516 0.58898175 -0.6133937 0.9063127 1.0821579 -0.28290004 0.85309 -0.70964164 0.34904757 0.11594661 0.008109839 0.44096217 -0.879746 0.40870965 -0.32179928 -0.16471164 -0.2100572 -0.33416918
568 -0.4522515 -0.19936165 0.29898903 0.10843367 0.8928617 -0.4617057 -0.21696512 0.49971914 -0.027228262 0.2081337 0.022604402 -0.4641886 -0.032616768 -0.88243914 0.36295822 -0.021345258 0.41388506 -0.20447005 -0.23954628 -0.35255787 0.34281877 0.12102976 0.7411861 0.89353305 -0.29668373 -0.3756937 -0.01363572 -0.2028909 -0.07563829 0.6403829 0.030896895 -0.77282727 0.051492486 0.03277047 0.755182 -0.3346682 0.1755058 0.93707496 -0.96330595 0.12475487 -0.1963341 0.9780319 0.3200924 -0.0969157 -0.2500555 -0.017441511 0.8747051 -0.015209119 -0.06056132 0.026625674 1.1381506 -1.0771911 0.20927262 -1.7588603 0.6789797 0.064511314 0.23708835 1.019579 -0.58398676 -0.4860467 -0.19641456 0.00874246 0.26124024 -0.112430885
122 0.3779693 0.17986315 -0.28614792 -0.46777666 0.09075185 -1.0407282 -0.08274319 0.1595956 -0.29664645 0.15687886 0.46313995 0.5900592 0.39042374 -0.2467389 -0.063853584 0.062066168 0.70682573 0.3892421 0.05991905 0.093933925 0.849652 -0.10357972 -0.3332846 0.4539804 -0.42538598 0.07024554 0.5448757 -0.0873789 0.2592682 1.2196736 1.1931354 0.4761993 -0.069597974 0.03160476 -0.45417738 0.13772054 1.2058592 0.28781885 -0.581704 -0.38411263 0.39297128 0.29174402 0.42348617 0.37419528 0.21768163 0.72084415 1.0350994 0.28030092 -0.20890823 0.63739103 -0.033391006 -0.665542 0.2637994 -0.9951542 0.878574 0.6991582 0.4826254 1.2235742 -0.43787962 0.17794284 0.06937276 0.28931016 0.6158693 0.87200147
231 -0.6070016 0.024176676 -0.49685347 -0.86454546 -0.16170736 0.62378985 0.74234205 0.8748774 -0.10274655 -0.27746555 0.44411394 0.80815005 -0.36895674 -0.6116954 0.17739235 0.37237263 0.111228324 1.3740569 0.7433859 0.25417405 1.0814476 -0.6340795 0.07272014 -0.017042417 0.4855175 0.035996698 0.10341756 0.5416496 0.19718292 0.6706932 1.192911 0.5371506 0.39752412 -0.3471012 0.40202525 -0.17650022 0.6057771 0.9658624 -0.33129123 0.8048819 -0.016530063 1.06982 0.16828337 0.5805441 0.2925837 0.014421444 0.26346654 0.66453415 0.7049454 0.20923805 0.34506977 -0.42839956 -0.22446567 -0.6365567 0.92860776 0.6457612 0.43470606 0.37811902 -0.6358931 -0.12488488 0.3763257 -0.64937025 -0.25763953 0.16829847
746 0.38368893 -0.57644963 -0.19461505 0.4098205 0.33783835 -0.22797063 -0.428269 1.2479777 -1.0258787 0.057464037 0.023809751 0.8524376 0.35604948 -0.51865286 0.6362946 0.24794368 0.1339854 1.0859758 -0.17887722 0.584991 0.3765406 0.48492545 0.31705388 0.010255949 0.13103503 0.7282536 -0.03028683 -0.71538925 -0.19840662 0.98286384 0.09747305 0.22031286 0.24740212 -0.113436945 0.24121729 0.10903914 0.7713723 0.43903667 -0.63498217 0.0078061456 -0.31634524 0.354392 0.3664983 0.24015412 0.09055389 0.7053547 0.3353083 0.17245676 0.27711254 -0.1330569 0.3795505 -0.21965227 0.6835443 -1.7303495 0.64862955 -0.124269985 0.2141141 1.1591365 -0.23731932 1.2420411 0.16884659 -0.3247591 0.2156993 0.07665838
426 -0.75209534 -0.22748567 0.055209946 -1.1879184 0.48255473 0.694195 0.268481 0.37094235 -0.29645663 -0.12712094 0.21535453 1.0110315 -0.56866664 -0.3630754 0.27953056 0.21463706 0.6216187 0.5770692 -0.8193107 0.8664673 0.18520632 -0.32281235 0.09833382 -0.6252853 -0.053799253 0.14553338 0.85046023 0.35423496 -0.45166203 0.87577236 0.4347621 -0.36008772 -0.08155002 0.4830441 0.17517942 0.09442975 0.47220206 0.77427214 0.24353932 0.33643785 0.1511791 0.5708502 -0.5448412 -0.51250106 -0.8112046 0.2490136 -0.23360126 0.45180574 -0.08345135 -0.25343984 0.59184873 0.14401974 -0.11551343 -1.6917425 0.53305143 0.8937666 0.7792234 0.6536512 -0.22952944 -0.26428035 0.021957938 -0.24923582 -0.6224028 0.9156776
425 -0.7153717 -0.24606638 0.06858897 -1.2214633 0.4252304 0.6567056 0.17305504 0.42448282 -0.21484928 -0.17735651 0.13741165 0.9164264 -0.6301785 -0.32684177 0.361356 0.25826073 0.61686605 0.58102703 -0.8099358 0.91440856 0.24087688 -0.32596317 -0.016587513 -0.5922229 -0.08098816 0.07735744 0.8160241 0.3644682 -0.43202388 0.82273704 0.40781185 -0.38347486 -0.056238145 0.5334721 0.1274427 0.11948454 0.5232757 0.86127716 0.16809583 0.27143225 0.13236411 0.67980015 -0.4568227 -0.51639646 -0.78139204 0.21738613 -0.16416909 0.3495427 -0.062864944 -0.28175175 0.5351856 0.0470476 -0.14569089 -1.7276074 0.46887347 0.81900907 0.7439153 0.60064244 -0.3030268 -0.25444025 0.004079854 -0.28707856 -0.5822728 0.8666375
128 -0.511676 -0.6481747 0.11976627 0.20389836 0.8793493 -0.092285395 -0.10976213 0.028723571 -0.5164304 -0.80677795 0.7321194 -0.024909725 -0.5726222 -0.7210465 0.5536523 -0.12156925 -0.029475886 0.7586711 -0.37238583 1.0461844 0.9811585 -1.3345054 -0.0066232 0.24509907 0.35417116 0.20377609 -0.78596556 -0.5464083 -0.30970612 0.36763027 0.78542125 -0.777083 0.8150892 0.3985245 -0.103810064 -0.19776246 0.9311018 0.68263435 -0.32176515 0.18772747 0.32760605 0.4282592 0.8590595 -0.1030962 -0.18170941 -0.18806136 0.45285866 -0.29935274 -0.48415497 0.1022543 -0.11561819 -0.6789195 -0.1903601 -0.52737385 0.33674923 0.67661864 0.25355968 0.9814732 -0.70792866 0.6793675 -0.18641068 -0.3354208 0.7289129 0.11995029
183 -0.4016314 -0.18714541 0.30296546 0.10604067 0.85924655 -0.5028549 -0.24542548 0.4423965 0.007350741 0.22201224 0.056970246 -0.4413095 -0.0053875665 -0.8450874 0.39830282 0.017958185 0.3673396 -0.18273695 -0.23990262 -0.40935948 0.31747863 0.06684245 0.78089124 0.8665474 -0.24340637 -0.42858166 0.0017233605 -0.26546872 -0.057541277 0.61190104 -0.020239402 -0.75168544 0.024804112 0.09025791 0.74792045 -0.26432738 0.1790851 0.90103066 -0.9324621 0.15292077 -0.18546912 1.0179296 0.2277559 -0.084913105 -0.23456985 -0.039082456 0.85531974 -0.0373752 -0.042628236 0.049746748 1.1501123 -1.03985 0.21714665 -1.7390004 0.64687616 0.09438971 0.23695464 0.9717372 -0.585335 -0.47278535 -0.13725889 0.015230253 0.30526173 -0.08428838
154 -0.0157388 -0.07160397 0.23265733 0.6134609 0.22954047 0.15941651 0.21924132 0.510523 0.67317104 0.49508658 0.14127125 1.1633734 -0.7329808 -0.24660774 -0.11321082 0.030861005 -0.3327323 0.47849846 -0.7209217 0.5077715 0.87661475 0.0033280384 0.48479882 -1.1351087 0.18895608 -0.80645883 -0.50648534 -0.14304134 -0.0016016265 1.0616198 0.16688463 0.028836226 0.41312578 0.4236513 0.16756403 0.0980306 0.46124494 0.9121974 -0.45105153 0.7442108 0.24144676 1.4788525 0.5347229 0.16613142 0.11143442 0.51573724 0.21211298 0.55254495 -0.5335083 0.86800075 1.0224572 -0.34814 0.90465987 -0.72235024 0.33648136 0.12056835 0.013793697 0.47419795 -0.8737331 0.41399184 -0.36704087 -0.15987112 -0.20971668 -0.26845366
15 -0.15500025 0.060021445 0.014064573 -0.61731416 -0.12038555 0.23884591 -0.31295893 0.40655228 -0.06071307 -0.059748642 0.015396835 0.77191114 -0.6038017 -0.5141993 -0.4035952 0.7560911 0.45613703 0.6850939 0.3023809 0.11987018 -0.25813103 0.35404202 0.40162194 -0.35913047 -0.025255755 -0.66314346 0.12887643 -0.527158 0.012526518 -0.063615516 0.58820665 0.1625444 -0.01974356 0.15731 0.36463705 -0.11602485 0.9351927 0.09049435 -0.8461742 -0.16085866 -0.46563408 1.4593407 0.83231246 0.28689194 -0.3523656 0.17451565 0.716139 -0.34969622 -0.4604428 -0.23616245 0.7453762 -0.25682458 0.061094053 -0.92650086 -0.0019942226 0.8068039 0.02988154 0.42790174 -0.3949031 0.5615898 -0.15453433 0.446554 0.8099372 0.35035446
527 -0.0993744 0.7502948 0.51019096 -0.38333866 0.30776796 -0.21572526 0.53925794 0.3361979 -0.9376052 0.65020335 0.50356644 0.3936831 0.38694447 -0.55963504 0.71944696 0.07685469 0.57519525 0.7124609 0.16736253 0.7563449 0.5033241 -0.99210507 0.06749816 0.62714654 -0.14206383 -0.51250505 -0.30506757 -0.4973027 -0.5265718 -0.037038982 -0.2806427 -0.7224929 0.2596721 -0.08812753 0.5346564 -0.082083285 0.17585626 1.4894888 -0.196787 -0.48141673 -0.14772815 0.96049905 0.156834 -0.3249208 0.18749017 0.14263836 0.9655206 -0.19366215 -0.38018572 0.40943372 0.33134907 -0.2451484 0.8071065 -0.37084702 1.2128297 0.49477962 0.06689348 0.574314 -0.5678806 0.36123806 0.22324108 -1.277096 0.5019996 0.6119278
526 -0.2276012 0.6987066 0.5976499 -0.45751783 0.41114363 -0.062640294 0.54816765 0.51169604 -0.73828155 0.6660758 0.48925048 0.53872734 0.4035889 -0.6099929 0.7547055 -0.00034475137 0.55564916 0.75314116 0.23847088 0.70148814 0.4709585 -0.98899114 -0.00928633 0.5047261 -0.014059773 -0.42953992 -0.3187766 -0.43477488 -0.5447113 0.069783814 -0.3195661 -0.80465174 0.32355553 -0.08080556 0.53570545 -0.04534364 0.06675882 1.4013388 -0.13277863 -0.46932316 0.012731289 0.9326119 -0.059651975 -0.33522066 0.17736283 0.19226255 0.9164953 -0.15508837 -0.3902886 0.34299847 0.48878813 -0.18685141 0.8504427 -0.3478411 1.1353948 0.43860576 0.10799094 0.5444724 -0.61756593 0.22091171 0.4327465 -1.1969956 0.29886526 0.67810124
184 -0.41733107 -0.2424882 0.37634796 0.1308307 0.944685 -0.45679423 -0.25905472 0.48061785 -0.035171896 0.22286674 0.08067908 -0.41896436 -0.057311136 -0.82279825 0.37234628 -0.029245075 0.39083028 -0.22749947 -0.2062466 -0.4354866 0.3652783 0.07641661 0.7089656 0.8862349 -0.28244686 -0.38298598 -0.05397708 -0.22856213 -0.1252886 0.60096574 0.002386838 -0.7304471 0.041674364 0.029069094 0.822057 -0.30967346 0.15433721 0.88495445 -0.9171201 0.120582566 -0.19097093 0.9682718 0.23606217 -0.12316075 -0.26743126 0.06536502 0.89021236 -0.011964595 -0.05550178 0.05098876 1.1568632 -1.0667007 0.23967622 -1.7453358 0.6770613 0.045834888 0.2553183 0.9532502 -0.5564965 -0.5130691 -0.20117113 0.028177273 0.35449994 -0.1426068
832 -0.17523567 0.07671167 -0.015268943 -0.6096465 -0.14450318 0.24273464 -0.32982925 0.4121865 -0.035595 -0.0895353 0.0430079 0.72234803 -0.60283256 -0.51240677 -0.36700603 0.76669765 0.47820562 0.6684145 0.28594282 0.0911857 -0.2762127 0.38861674 0.38342157 -0.34133127 -0.0452358 -0.6483035 0.14180747 -0.5572629 0.011915938 -0.025260631 0.54718876 0.18548553 -0.027155355 0.15652709 0.34797794 -0.084693596 0.9131842 0.068652354 -0.8124437 -0.14697339 -0.47602516 1.4682611 0.8269494 0.28695205 -0.29874027 0.19797714 0.69280946 -0.3518422 -0.44928604 -0.25822416 0.6947357 -0.26967406 0.05219068 -0.9371917 -0.009284038 0.8212063 0.04851892 0.42468077 -0.37549856 0.56229466 -0.1478396 0.45753205 0.7854434 0.40584472
612 0.44160384 -0.7094898 -0.18146756 0.3201364 0.287848 -0.30470902 -0.46499795 1.162028 -1.097248 -0.039551396 0.019512247 0.81641066 0.21039365 -0.58470446 0.6938005 0.37855193 0.102774434 1.0665395 -0.28820053 0.6424874 0.52187103 0.3924665 0.49215364 0.0013002674 -0.05705898 0.7972679 0.10061347 -0.9165714 -0.21061255 0.8786334 0.11560496 0.19702823 0.32585013 -0.09774319 0.05146742 0.19394349 0.6275922 0.34305027 -0.6666027 -0.18430294 -0.4563747 0.186527 0.3851198 0.16814211 0.1562498 0.75031507 0.32739976 0.16152203 0.30814388 -0.0246295 0.17569682 -0.19015102 0.71761465 -1.7898506 0.5654931 -0.110978425 0.14736415 1.1581513 -0.29366744 1.2700001 0.101490825 -0.3017971 0.3071379 0.09951506
339 -0.15621203 0.8682532 0.41807154 -0.34309253 0.22951537 -0.3165973 0.47278824 0.15621361 -1.0349506 0.5925505 0.50642157 0.25001904 0.42583156 -0.47949284 0.55668956 0.024790168 0.62601984 0.6914299 0.09333361 0.8633336 0.54990005 -1.0382429 0.09990311 0.6996408 -0.2824156 -0.43278125 -0.15050472 -0.5391868 -0.51172507 -0.11201467 -0.08314406 -0.72038835 0.20265996 -0.18004678 0.5160819 -0.1015614 0.27973598 1.5161752 -0.2289323 -0.5053845 -0.2565556 0.9407313 0.3384558 -0.25827038 0.18194516 0.17333816 1.0107435 -0.17380887 -0.43872124 0.48085484 0.31679785 -0.15005957 0.76655436 -0.3529502 1.2624042 0.49699876 0.013119554 0.5833955 -0.5736019 0.46175504 0.007807862 -1.3386487 0.56679165 0.60654044
73 -0.456075 -0.55465376 0.23065664 0.097019196 0.7240846 -0.15764137 -0.16533272 0.0065233125 -0.5205505 -0.65417993 0.586488 0.046782725 -0.67677444 -0.78946704 0.6926518 -0.11214501 -0.11456749 0.623958 -0.341231 1.092591 0.91669846 -1.2493731 0.049272716 0.40351957 0.25579092 0.118774995 -0.8668782 -0.6463246 -0.056456544 0.42167076 0.7937602 -0.65395343 0.73362666 0.38645646 -0.10048899 -0.18519643 0.9800947 0.6422881 -0.2949733 0.21579345 0.39990956 0.34539992 0.95697445 -0.00511183 -0.12195617 -0.010081507 0.47435167 -0.53005075 -0.7105991 0.12648988 0.024608655 -0.9022166 -0.030923449 -0.7042012 0.4490019 0.7513109 0.009129107 1.0001309 -0.64256114 0.60721266 -0.10348314 0.0301131 0.6845317 0.07801287
39 0.02859342 -0.4615329 0.23304863 -0.9019629 -0.025506271 -0.3618593 0.06598608 0.27423996 0.13770035 0.7567527 0.18021503 1.5056444 0.26048082 -1.2579131 0.6808399 0.3497199 -0.44326136 0.5766448 -0.32626304 0.17459027 0.5181276 -0.65020376 -0.24491166 0.18749325 0.025737517 -0.84869826 -0.20992053 -0.9209914 -0.5714957 -0.07473503 0.65558714 -0.51463413 0.082740694 1.3296442 0.6850185 -0.061803844 0.68118083 -0.3490687 -0.6027434 0.4191088 -0.6066549 0.24634369 -0.13072026 0.17641346 -0.45622966 -0.30087405 0.62711 -0.12878363 0.48394713 0.24134019 -0.13596931 -0.24791469 0.75019574 -0.77344173 0.6946276 -0.054652344 0.52405965 0.55351925 -0.2694723 0.35054147 -0.18964821 -0.45994127 0.41545 -0.00946079
757 -0.22856444 0.47394913 0.7489084 -0.44926623 0.46564716 0.070709765 0.58016884 0.63862 -0.62247837 0.750342 0.45995677 0.8066758 0.357151 -0.77752984 0.8911805 0.10583024 0.44674066 0.7119573 0.3308034 0.6226638 0.44900534 -0.8922882 -0.0657192 0.37813136 0.12625273 -0.46528557 -0.4407537 -0.31656808 -0.42188534 0.25501138 -0.41919497 -0.8091796 0.42973527 0.09838451 0.5548453 -0.029097505 -0.07760445 1.3274664 -0.16077034 -0.3825061 0.10335156 0.89366585 -0.230068 -0.39978248 0.1718339 0.19491568 0.81655425 -0.1098134 -0.4075791 0.23256859 0.59288496 -0.1993311 0.8921831 -0.36158285 1.0060419 0.43015558 0.12954305 0.5531812 -0.5996248 0.07703273 0.6428239 -1.0593395 0.12988257 0.6864069
777 -0.7604129 0.37493405 0.008162258 0.08927755 0.29316136 0.17996219 -0.37595293 1.3406982 0.15000694 -0.0793471 0.52654564 0.12710136 0.19443841 -1.061306 0.3245431 0.20432809 0.61848956 0.35579965 0.110671185 -0.036855187 1.1421481 0.13282125 0.60284024 -0.5822801 -0.5129644 -0.6184863 -0.4628238 -0.5880476 0.18336233 -0.2911761 -0.28882462 -0.008832286 0.44291177 0.542208 0.5073205 -0.29578528 0.7962938 0.6028421 -0.0018637195 0.6694994 0.44519344 0.7742659 0.047786403 -0.001178295 0.33594862 0.1922838 0.4106782 0.28777215 -0.39994478 0.43106556 0.48272243 0.35011014 0.6326922 -0.9221944 1.2258899 1.1288527 0.5953021 -0.1421465 -0.22539417 -0.092352904 -0.10815955 -0.08588391 -0.2838835 0.043931294
445 0.569372 -0.61216676 0.26412275 -0.3241761 0.6931905 -0.4194427 0.14477044 0.81468797 -0.18474439 -0.41311935 0.48293585 0.9933489 -0.13205405 -0.543581 -0.5264599 -0.35623717 0.5869472 0.31191033 0.046565536 1.231381 0.0009897379 0.5379354 0.7761513 -0.7634888 -0.4026205 0.044245414 -0.7545233 -0.21957988 -0.24506558 0.6425233 1.0634513 -0.79175276 0.0035931596 0.802732 -0.026646428 -0.13035971 -0.17392878 0.5353866 -0.5121046 0.46921098 -0.24124785 0.31630185 0.19783618 0.5060517 -0.13227822 0.62521905 0.49079868 -0.25434634 -0.95018387 -0.21270978 0.5481102 0.18824467 0.782957 -0.9092382 0.6051859 1.1287618 -0.16142642 0.69613296 -0.06581891 -0.22101268 0.4593592 -0.47574076 0.70129895 0.22417061
160 -0.33566463 0.3741282 0.80943745 -0.5161504 0.5854402 0.14046746 0.52903897 0.78095585 -0.36394334 0.74527913 0.44462106 0.9771462 0.41396722 -0.844354 0.91212535 0.12943427 0.43574208 0.6954061 0.4691608 0.6607083 0.41854897 -0.805642 -0.16135092 0.30054125 0.18546501 -0.3755039 -0.47538197 -0.25171027 -0.37204772 0.36852083 -0.38652903 -0.876194 0.5086957 0.11696484 0.53165704 0.09205476 -0.20764394 1.2495973 -0.16548307 -0.29131928 0.26447928 0.8564419 -0.4336371 -0.3277574 0.17168882 0.27029252 0.78113663 0.079522304 -0.4125626 0.104810014 0.77545893 -0.13211492 0.8070543 -0.35250577 0.9108446 0.49685374 0.13598324 0.61949104 -0.6178124 -0.027656328 0.8215756 -0.812494 -0.10289595 0.7094108
548 -0.43579862 -0.2240402 0.3331113 0.11551644 0.9005358 -0.46036988 -0.2641762 0.49513045 -0.02417568 0.22399476 0.07983343 -0.448975 -0.02473638 -0.8558544 0.36055422 0.012151692 0.39880577 -0.20383024 -0.22270721 -0.44850796 0.30573127 0.103322245 0.7541704 0.87279063 -0.26971754 -0.37965223 -0.012050656 -0.27537483 -0.067189775 0.6109148 -0.052963037 -0.69890404 0.03246051 0.04339362 0.7535973 -0.288585 0.13652235 0.867564 -0.9088317 0.15962948 -0.21117184 0.95628834 0.274786 -0.10926659 -0.24473104 0.004809509 0.80305076 0.04629831 -0.06480701 0.030634368 1.1744043 -1.0551643 0.20205052 -1.7523361 0.6393339 0.030661803 0.22440317 1.0006522 -0.5550596 -0.51827335 -0.2108606 0.019324472 0.3096872 -0.1254853
352 -0.8097678 0.39025173 -0.020979399 0.075558074 0.32261088 0.19160044 -0.4444665 1.3972114 0.06905551 0.05179038 0.62050396 0.2005833 0.1931602 -1.0887327 0.17827734 0.10741918 0.6656804 0.30042467 -0.057746146 -0.10872863 1.1429107 0.19312222 0.44525367 -0.6623862 -0.45056272 -0.610789 -0.3643482 -0.6434801 0.13610487 -0.3578329 -0.21998183 0.078749426 0.50247246 0.4842284 0.44224715 -0.42619175 0.80464727 0.5874294 0.02592161 0.64119303 0.44564423 0.7531087 -0.021827286 -0.16360356 0.3426765 0.45839843 0.38669524 0.3429565 -0.42727447 0.36882412 0.5355067 0.418884 0.7180164 -1.0158261 1.3065621 1.1358315 0.49315515 -0.16680658 -0.09918706 -0.016930448 -0.19636646 -0.1032097 -0.372464 0.13016443
161 -0.33403608 0.2144744 0.873123 -0.55363923 0.59239507 0.20888463 0.51800984 0.84875953 -0.26349613 0.80692184 0.39843714 1.0807372 0.42417103 -0.90142876 0.8590054 0.147621 0.37651935 0.6986931 0.48878706 0.6702463 0.39933228 -0.7382695 -0.21151717 0.23859982 0.23904164 -0.35236508 -0.4904613 -0.2526164 -0.31045717 0.46098927 -0.329924 -0.88894725 0.52638316 0.1732388 0.53212404 0.067636654 -0.20531602 1.1965876 -0.22751753 -0.22510514 0.2776787 0.8418519 -0.47736466 -0.28439456 0.12081252 0.24710184 0.765566 0.1402452 -0.39972705 0.0685365 0.838821 -0.10388099 0.7760964 -0.4067665 0.8435278 0.4960326 0.20024624 0.6616464 -0.6163328 -0.046076354 0.89863646 -0.69661933 -0.16309202 0.7038056
858 0.18941994 -0.072515026 0.008015096 -0.5914993 0.5728951 -0.5018601 -0.09231581 -0.08566389 1.3809599 -0.25754267 -0.22931287 -0.18450461 -0.14003232 -0.9762793 0.13608307 0.20117281 -0.34579864 0.3359954 0.5463435 0.46761325 0.038360696 -0.34242377 0.0048635816 0.5215009 0.63693625 -0.96652424 -0.19303074 -0.38284883 0.1782421 -0.21164633 0.9598 -0.31420594 0.06521714 -0.2207596 0.84848833 0.64410204 0.53514445 0.5466046 -0.12061261 -0.34236243 0.16283377 1.2125393 0.30944818 1.1580576 -0.23786114 0.15473148 -0.29662257 0.3109024 -0.6786244 0.4594411 -0.18500027 -0.2504489 0.36209062 -1.049463 1.1146456 0.43024117 0.14712822 0.57882756 -0.33290303 0.3701254 0.27333 -0.03619148 0.2968083 0.9724094
718 -0.1584075 -0.45143667 0.6842956 -1.1172341 0.52068394 0.44823125 -0.27302086 1.0552518 -0.34887415 0.0694572 -0.24701242 0.18172236 -0.35914096 -0.98560625 0.096151695 -0.43910974 0.5102832 -0.32972392 0.29984215 0.4056004 0.5536984 -0.44665822 0.374238 -0.028682152 -0.12119412 0.07000479 0.89074564 -0.0862188 -0.6392986 1.3953247 0.12793678 -0.47579417 0.5564187 0.54791236 0.38001296 0.14185417 0.6721268 -0.2598581 -0.41648334 -0.28355858 -0.235152 0.42845297 0.51581764 0.12939452 -0.33629525 0.5699333 -0.24622871 0.0698398 -0.8113393 0.64330906 0.060460918 -0.26311418 0.87467813 -0.7585733 0.871161 -0.2726092 0.018008817 0.94044435 -0.42680743 -0.6068122 -0.09805321 -0.89172626 0.16795328 0.9704371
714 0.3413129 -0.4269766 -0.011346965 -0.2538378 0.041372515 -0.33269146 0.3626726 0.8192374 -0.5086306 0.1601684 0.6006411 0.78073496 -0.49986267 -0.36640555 -0.34576043 -0.25792658 0.48042327 0.023426536 0.07797639 0.85037684 0.28830716 0.42923275 0.6551579 -0.050985582 0.13316843 0.05057111 -0.80004084 -0.33484054 -0.091631934 0.26935494 1.2931435 -1.2551963 0.10810643 0.8811041 0.31853923 -0.2769411 -0.42180905 0.35881382 -0.6705685 -0.14247678 0.23970257 0.49942714 0.15443857 0.70852757 0.020430138 0.09812834 0.54325604 -0.46957982 -0.66642195 0.2151224 0.4350154 0.38398233 0.80902296 -1.0144379 0.7171754 0.57656753 -0.10538369 0.60725766 -0.631902 0.3132447 0.13424309 -0.8007053 0.1119336 0.014555041
680 0.09128077 0.6844561 0.36175752 -0.7076771 0.0041030566 -0.46367317 0.5424829 1.4093827 0.31362852 0.8483772 0.39598283 0.30927667 -0.5409203 -0.31155878 0.43203938 -0.5156226 0.42181224 0.3649961 -0.093806155 -0.009734061 0.11836309 -0.21878938 0.47126067 0.14034443 -0.22609293 -0.30879954 -0.5291425 -0.97945696 -0.5754062 0.51637506 -0.029293006 -0.107949965 0.28168654 0.56176764 -0.13245031 -0.121481486 0.2932927 0.9141553 0.32829294 0.8538442 0.64958125 1.1065953 0.7771087 -0.25813133 -0.17233828 -0.24236378 -0.025691101 0.15834944 -0.036153015 -0.7977736 -0.892694 -0.9180756 0.3943537 -1.0873384 0.5458118 0.78048635 0.3820704 0.5645533 0.058783025 -0.11719524 -0.30334628 -0.38253325 0.81822824 0.41771498
498 0.21358709 -0.137703 -0.012604236 -0.59672844 0.62657964 -0.45050588 -0.091221504 -0.020381197 1.394967 -0.25866693 -0.21694547 -0.21475166 -0.08060366 -0.9703245 0.1502331 0.21261618 -0.3447715 0.33062264 0.5628523 0.44542223 0.11518174 -0.29952994 0.018037234 0.53094465 0.65488833 -0.94954705 -0.23600307 -0.36006832 0.19409256 -0.24312319 0.934093 -0.3261154 0.04083652 -0.25505376 0.83572006 0.60870326 0.5457055 0.60580117 -0.15364593 -0.27779278 0.15772854 1.1812499 0.3179966 1.1861573 -0.22282581 0.065221615 -0.3208563 0.31831506 -0.6175801 0.4372478 -0.22857092 -0.2004388 0.40612352 -1.044366 1.0886045 0.44551122 0.13088347 0.6270122 -0.32891926 0.3539766 0.2896877 -0.024868693 0.25441945 0.98132557
856 0.48147768 -0.5594911 0.24714826 -0.30038756 0.47978637 -0.3853937 0.20989794 0.79830444 -0.3054567 -0.27886707 0.4954622 0.9422393 -0.26077193 -0.51719135 -0.46903247 -0.368196 0.5748424 0.2260512 0.04901568 1.1363648 0.059826903 0.5593753 0.69113517 -0.57060194 -0.24668284 0.05686551 -0.7975259 -0.26956403 -0.19414328 0.5329119 1.1728003 -0.97033924 0.0314555 0.82795763 0.0077097304 -0.17314748 -0.28538325 0.47290638 -0.5145442 0.27644467 -0.07194722 0.32137546 0.17246504 0.54805386 -0.039588854 0.46782547 0.5235915 -0.3686633 -0.8641865 -0.06887406 0.5422963 0.2671172 0.77595943 -0.9199235 0.6701039 0.9628179 -0.09433432 0.67164564 -0.25023663 -0.06916468 0.37959406 -0.56418896 0.52562284 0.12702721
682 0.0014296647 -0.75881314 -1.2526659 -0.28692642 0.47080675 0.4303816 0.4446758 0.57454073 -0.26585606 -0.6491246 0.65045154 0.40879107 0.2445518 -0.97403014 0.656526 0.06266123 0.46581638 0.36294118 0.4928364 0.35920644 0.35851297 -0.6687299 0.78870785 0.1412165 0.19146058 0.041963495 0.0807622 0.09136315 -0.41332835 0.66616786 0.15108861 -0.041030686 -0.32717273 -0.4845302 0.95573914 -0.067712404 0.8629843 0.36592537 -0.5822628 -0.24844724 0.51171136 0.68821394 0.22564344 0.21728972 -0.30898535 0.04203599 0.050961044 0.6517864 -1.1622462 -0.18783997 0.6995443 0.30772516 0.06612391 -0.81712234 0.4498041 -0.19999169 0.18860863 0.8083361 -0.74394625 0.5058164 0.04084678 0.39010364 -0.22968692 1.1923791
